<?xml version="1.0"?>
<opencv_storage>
<my_nn type_id="opencv-ml-ann-mlp">
  <layer_sizes type_id="opencv-matrix">
    <rows>1</rows>
    <cols>3</cols>
    <dt>i</dt>
    <data>
      225 4 3</data></layer_sizes>
  <activation_function>SIGMOID_SYM</activation_function>
  <f_param1>5.9999999999999998e-001</f_param1>
  <f_param2>1.</f_param2>
  <min_val>-9.4999999999999996e-001</min_val>
  <max_val>9.4999999999999996e-001</max_val>
  <min_val1>-9.7999999999999998e-001</min_val1>
  <max_val1>9.7999999999999998e-001</max_val1>
  <training_params>
    <train_method>BACKPROP</train_method>
    <dw_scale>1.0000000000000001e-001</dw_scale>
    <moment_scale>1.0000000000000001e-001</moment_scale>
    <term_criteria><epsilon>9.9999999999999995e-007</epsilon>
      <iterations>1000</iterations></term_criteria></training_params>
  <input_scale>
    1.7639771541062124e-002 -9.2755433494424977e-001
    1.9122627702672736e-002 -1.5756465034254432e+000
    2.4282538640704905e-002 -6.4205073885858555e-001
    2.9313061331735713e-002 -5.6500079454032048e-001
    2.7757889151750414e-001 -1.3409863816912468e-001 1. 0. 1. 0. 1. 0.
    1. 0. 1. 0. 1. 0. 1. 0. 1. 0. 1. 0. 1. 0. 1.8933766767059903e-002
    -1.7404175140220612e+000 2.1007549742282538e-002
    -3.0263090704289000e+000 1.3104188973525027e-002
    -7.8199294866638835e-001 1.4670159140396008e-002
    -6.4478695848733347e-001 7.6025673914793687e-002
    -2.7705700678145273e-001 1. 0. 1. 0. 1. 0. 1. 0. 1. 0. 1. 0. 1. 0.
    1. 0. 1. 0. 1. 0. 2.2894595760467536e-002 -7.3543550706363514e-001
    1.9930170940681457e-002 -1.1941785741868129e+000
    3.0557944481245554e-002 -6.3771995731546638e-001
    4.2999065061074745e-002 -4.9011338291698547e-001
    3.8861862642415967e-001 -1.4161526217151579e-001 1. 0. 1. 0. 1. 0.
    1. 0. 1. 0. 1. 0. 1. 0. 1. 0. 1. 0. 1. 0. 3.6598742719221887e-002
    -5.3119430281246405e-001 2.7566068817583007e-002
    -4.2344327850576002e-001 6.6298440783218740e-002
    -2.8216032574827715e-001 1. 0. 1. 0. 1. 0. 1. 0. 1. 0. 1. 0. 1. 0.
    1. 0. 1. 0. 1. 0. 1. 0. 1. 0. 1.0162231932074214e-001
    -3.4182041617949055e-001 6.4076149041809360e-002
    -3.1217355638259575e-001 7.2711413109653122e-001
    -1.2784035082634068e-001 1. 0. 1. 0. 1. 0. 1. 0. 1. 0. 1. 0. 1. 0.
    1. 0. 1. 0. 1. 0. 1. 0. 1. 0. 1. 0. 1. 0. 1. 0. 1. 0. 1. 0. 1. 0. 1.
    0. 1. 0. 1. 0. 1. 0. 1. 0. 1. 0. 1. 0. 1. 0. 1. 0. 1. 0. 1. 0. 1. 0.
    1. 0. 1. 0. 1. 0. 1. 0. 1. 0. 1. 0. 1. 0. 1. 0. 1. 0. 1. 0. 1. 0. 1.
    0. 1. 0. 1. 0. 1. 0. 1. 0. 1. 0. 1. 0. 1. 0. 1. 0. 1. 0. 1. 0. 1. 0.
    1. 0. 1. 0. 1. 0. 1. 0. 1. 0. 1. 0. 1. 0. 1. 0. 1. 0. 1. 0. 1. 0. 1.
    0. 1. 0. 1. 0. 1. 0. 1. 0. 1. 0. 1. 0. 1. 0. 1. 0. 1. 0. 1. 0. 1. 0.
    1. 0. 1. 0. 1. 0. 1. 0. 1. 0. 1. 0. 1. 0. 1. 0. 1. 0. 1. 0. 1. 0. 1.
    0. 1. 0. 1. 0. 1. 0. 1. 0. 1. 0. 1. 0. 1. 0. 1. 0. 1. 0. 1. 0. 1. 0.
    1. 0. 1. 0. 1. 0. 1. 0. 1. 0. 1. 0. 1. 0. 1. 0. 1. 0. 1. 0. 1. 0. 1.
    0. 1. 0. 1. 0. 1. 0. 1. 0. 1. 0. 1. 0. 1. 0. 1. 0. 1. 0. 1. 0. 1. 0.
    1. 0. 1. 0. 1. 0. 1. 0. 1. 0. 1. 0. 1. 0. 1. 0. 1. 0. 1. 0. 1. 0. 1.
    0. 1. 0. 1. 0. 1. 0. 1. 0. 1. 0. 1. 0. 1. 0. 1. 0. 1. 0. 1. 0. 1. 0.
    1. 0. 1. 0. 1. 0. 1. 0. 1. 0. 1. 0. 1. 0. 1. 0. 1. 0. 1. 0. 1. 0. 1.
    0. 1. 0. 1. 0. 1. 0. 1. 0. 1. 0.</input_scale>
  <output_scale>
    5.2631578947368418e-001 4.9999999999999994e-001
    5.2631578947368418e-001 4.9999999999999994e-001
    5.2631578947368418e-001 4.9999999999999994e-001</output_scale>
  <inv_output_scale>
    1.8999999999999999e+000 -9.4999999999999996e-001
    1.8999999999999999e+000 -9.4999999999999996e-001
    1.8999999999999999e+000 -9.4999999999999996e-001</inv_output_scale>
  <weights>
    <_>
      4.5340533181282634e+000 -5.0578153394345160e-001
      6.2677593092406025e-001 -2.0181324439464865e-001
      -1.9211255830962695e+000 6.7781638732739635e-001
      3.3505643826017821e+000 -6.0119134257504114e-001
      -9.4441084046216979e+000 9.8534007601268778e-002
      -1.3865357517289520e-001 5.5235301185973495e-001
      -1.3986187711264467e+001 1.2456037928422143e+000
      4.8339139267488507e-002 7.1301440298423713e-001
      2.9466504801234017e-001 7.7094736200626318e-002
      -1.9690002758451119e-001 1.1388815398225087e-001
      -6.0148741007615041e-003 -7.4112605672499903e-003
      -1.7635579920617559e-003 7.5111718424171955e-003
      -2.9264544138867806e-004 -2.8434841485841336e-003
      -4.6046925208449623e-003 2.8526500332255013e-003
      -4.7755698376917609e-003 -7.7629220959211436e-003
      -6.4195834111247059e-003 -1.4515858450082665e-003
      -1.9127861755729959e-003 -3.3839928782009978e-003
      4.3040188854170398e-003 -3.6807492084183799e-003
      -6.0122555939171986e-003 8.2029913103175926e-003
      3.1910478612576566e-003 4.1448489880410704e-003
      -3.9020962471735679e-003 -7.5846619294927262e-003
      1.2382140356982407e-003 3.2974004507695738e-003
      -2.3567242195092872e-003 -6.8390527813005843e-004
      5.6742785736917005e-003 1.8564032535562515e-003
      -6.1024125251479197e-003 7.3495864754878982e-003
      6.3481199938135889e-003 -1.6161144312883593e-004
      -7.1855162219948143e-003 3.3437409608533318e-003
      1.0484993602833284e-003 3.7024026513670463e-003
      -2.4739620809201882e-003 -3.0743650502879885e-003
      -5.6645996099375243e-003 -5.0733238362513956e-003
      -2.2602415927360773e+000 -6.4155990807116481e-001
      -3.0927637633006910e-001 -5.2073422997226637e-001
      -7.0966195269598993e+000 -8.0866129001568990e-002
      5.1878353691343637e-001 -1.1772261792476374e-001
      -1.3900411113392741e+001 4.9112368890387070e-001
      -2.0194265721409310e-001 6.4862269852528187e-001
      -2.0297873647211699e+001 1.7506890907615913e+000
      1.7093427648388684e-001 8.4691643362099478e-001
      -1.0543310017843162e+000 1.9778315370271154e-001
      -5.3526519197997641e-002 2.8370962654605736e-001
      -6.0681570216205068e-003 6.9627687184197460e-004
      7.3653259255999064e-003 -6.3980242258766615e-003
      -1.5636622026574093e-003 -2.7344992085740409e-003
      -1.8729290037752140e-003 -5.9472298469281709e-003
      8.9609257104644431e-004 -6.9659497319849188e-003
      7.7568898135143395e-003 3.4354091449434777e-003
      4.9722130341523525e-003 4.3967262518315965e-003
      7.7371241694179247e-003 1.1356045677250620e-003
      5.6567964859728500e-003 -6.5229900311989681e-003
      -5.0834016186536357e-003 5.3882210477465328e-003
      7.5858689601718439e-003 8.6754526807380251e-003
      7.3314628217361429e-004 7.9152016575400174e-003
      6.2311634245559543e-003 -1.5633659265266880e-003
      -2.7374531148295321e-003 -5.2917146916944260e-003
      4.5072659589937489e-003 6.4064053958448200e-003
      2.8365342871532594e-003 -1.9964043937358913e-003
      -2.2299986358781648e-003 -2.3519738628300598e-003
      7.4528883470508060e-003 5.1322416014805980e-003
      3.3458861629587838e-003 -5.0742808564276341e-003
      2.9736178447826327e-003 -3.8365425069825662e-003
      -3.6873413323191166e+000 -8.7972066136198002e-001
      -7.0214004462759594e-001 6.2864533669505607e-001
      -1.8112964683711240e+001 1.4615800982056806e+000
      4.1973709906772259e+000 -1.4038108162046978e+000
      -4.7156190641895703e+000 -2.1514441939334616e-001
      2.3142960446300109e-002 2.0088896877970899e-001
      -1.2129653821757103e+001 1.1409297904215607e+000
      -9.1274173837901276e-002 6.6982274237549999e-001
      6.1024002986850812e-001 7.7372213625747463e-002
      -1.5679084777941835e-001 1.3905341994123244e-001
      -3.3900324391432360e-003 3.5497524456087823e-003
      6.1813559860966439e-003 -3.4820884956667172e-003
      -5.2256635291412831e-003 6.8561130457434685e-003
      5.2530389473552661e-003 -4.2100229056932460e-003
      6.9197577877418608e-003 4.6275613713086701e-003
      -6.1798040130755004e-003 1.1356378727723684e-003
      -8.6111331999362897e-003 5.3877216353626824e-003
      -1.9214458823860460e-004 -7.1369013473372078e-003
      -2.9754831440796208e-003 -1.6876448144759046e-003
      -1.9518486563759544e-003 -5.2002867738414043e-003
      3.3576040689591133e-003 -2.4056701404599722e-003
      -5.6415369617098098e-003 -2.2721832077596447e-003
      3.5860530162026239e-003 -8.4558407881850858e-003
      3.9798060750692301e-003 -7.1312123628529071e-003
      7.8972390663265297e-003 -2.6219625000455781e-003
      -8.2272875844209819e-003 4.2372913505565584e-003
      -6.3255100327368032e-003 3.8988578987570353e-003
      -4.3268307883050838e-003 4.2197917082019655e-003
      4.2998953545105535e-003 -3.8921886191526150e-003
      -3.8333475764407345e-003 6.9258430046108170e-003
      -1.7413000333421547e+001 6.8506401652332816e-001
      5.1959340541885410e+000 -1.4059864836409268e+000
      -6.5006297249693179e-001 -3.2369401354330291e-001
      3.1893932185461780e+000 -1.1145234211633313e+000
      3.2945741571831100e+000 -2.0746532594905731e-001
      2.6226053923528836e-001 -2.7840830538997885e-001
      -8.4352834334483814e-003 -4.2716501636892398e-004
      -2.1946402042377390e-003 2.7525478213783787e-003
      2.0813268822759282e-003 -6.4923308516550088e-003
      -4.1452361030695729e-003 -3.6249802448448595e-003
      -7.3374666367616356e-003 -5.7943903778060035e-003
      -4.2657209817937441e-003 -3.4773500801663598e-003
      1.8021954342600942e-003 -1.9641659322271560e-005
      -1.0244005506055704e-003 4.0820206766624357e-003
      -5.3448524345365671e-003 -7.8745910737230073e-004
      -5.9137182701483994e-003 5.8200043451046768e-003
      2.2325669347355061e-003 -2.0164567446550614e-003
      3.2685644091287503e-003 4.2431149457697152e-003
      -3.9246390604669029e-003 6.7814136463100055e-003
      -4.7377523906536127e-004 -6.5795251845782582e-003
      3.1824176149824880e-003 2.6992930285644205e-003
      -3.9036235190808679e-003 4.9826927301941095e-003
      6.0617559150605484e-003 -7.1486983672663573e-005
      -5.6329154677654267e-003 -1.0195255139348659e-003
      4.0124359632073133e-003 7.3743692503328571e-004
      -2.8948523379780378e-003 -1.5459247941342908e-003
      3.4718026752993594e-003 -7.8512906250511067e-003
      4.2387458616044323e-003 5.6566706871788459e-003
      -1.7585088729371275e-003 -8.7953627749635666e-003
      7.2503877514003138e-004 -3.2277037102368248e-003
      3.5509846963550520e+000 -1.5476636033076188e-001
      3.0244332565320720e-001 -2.0460406486889543e-001
      3.5957029852823408e+000 -2.1343306396099368e-001
      3.0527994286703669e-001 -2.7106487457233575e-001
      1.4339709633226818e+000 -4.0417316910871338e-002
      1.1383259070892847e-001 -8.1023017399439151e-002
      2.9642330417720460e-003 2.5064691636157536e-003
      -2.0809329301670404e-004 2.8226060201593647e-003
      -8.2685929769555251e-003 4.9980649678398053e-005
      4.8724401274986380e-003 -3.2326098717750710e-003
      -1.8420105574644578e-004 1.9183925256618508e-004
      4.4880412725146427e-004 -1.7957865112171116e-003
      8.5946842593645819e-003 -4.6941474441643928e-003
      4.9653966549025319e-003 8.3651452904430646e-003
      -5.2197038844902406e-003 -1.9917517389850137e-003
      8.2926983598037938e-003 4.8928907779949259e-003
      -5.5676878657772893e-003 -3.3887017426241059e-003
      -2.5981011631470079e-003 4.9864546998438673e-003
      -9.6416132094837535e-004 -1.9694169341584328e-003
      -7.2827027709463903e-003 3.6110566076929455e-003
      2.7371486228033724e-004 4.1960405143140495e-003
      2.8427674963676436e-003 -7.4429495354426363e-003
      -9.5647392867379759e-004 1.0069140489396692e-003
      3.8651601515018305e-003 -5.7447202664274834e-003
      -1.1795878821646102e-003 -1.4381880958680645e-003
      1.2284470227348889e-004 2.6404862038025695e-003
      5.5255376641819894e-003 -5.5733921372849689e-003
      -5.0739764053114277e-003 1.2326003634608653e-003
      -6.1804158621527256e-005 2.9835730536644043e-003
      -7.5312480340219206e-003 -4.7228269930572227e-003
      7.9529085461248650e-004 6.2924749142832326e-004
      3.1136734401924571e-003 3.4874898390576197e-003
      7.1892700253540429e-003 1.4688822067003978e-003
      -7.6911995060410581e-003 2.8002867981310013e-003
      5.4775578857392789e-003 -2.7101132518807494e-003
      -3.8603893522279322e-003 -8.8528256900983256e-003
      5.2724643409388337e-003 4.7405326872715604e-003
      -1.5624058458732209e-003 -4.6261237595324961e-003
      -2.3459587845355836e-003 1.1172511351002093e-003
      7.8577926710550645e-003 -2.3857159142560451e-003
      6.1593723214033134e-003 8.2323346133608543e-003
      1.1254635132376780e-003 7.7069332572409881e-003
      2.0967333311769443e-003 8.3777086877986264e-003
      5.3411387735465975e-004 3.5044801213786089e-003
      -2.3524376626209514e-003 -5.9698363869727170e-003
      -4.9856114028681078e-003 -7.8825790887574586e-003
      -8.2977277851736548e-003 -2.3102887051280052e-003
      -4.1905078556371189e-003 5.0701247793488238e-003
      3.4950076063925560e-003 5.7581959216212019e-003
      6.6940071639040232e-003 4.3317308285584361e-003
      5.2118538534760023e-003 -8.2078423746158140e-003
      -3.2881431055758340e-003 6.5699146628772582e-005
      7.8533895355516314e-003 -6.1525895055958377e-003
      -1.0996656947307649e-004 -5.6341023616451186e-003
      -3.7784199853959539e-003 3.5213304728608252e-004
      3.0166079439023111e-003 -5.5030324377909950e-003
      -7.1648162592052970e-003 4.3462170445100080e-003
      -3.4147154877414410e-003 5.4580895223048593e-003
      -2.0258343853024130e-003 4.2786147262604598e-003
      2.3322884936069839e-003 8.7804379332818896e-003
      -1.3373837706975480e-003 1.6332858965115583e-003
      1.4275172869679927e-003 -8.2517919561271216e-003
      4.8419476048834204e-003 3.8513900791971897e-004
      6.6147990210570409e-003 5.6107101851996556e-003
      3.3622789558145961e-003 -7.0738180638686195e-003
      3.1033299391812697e-004 8.6275569841157904e-003
      8.0572719543147639e-003 -2.7155413403751531e-003
      -1.0113971590245935e-004 6.3446856634680106e-004
      -5.0870331255271298e-004 7.5368663404009953e-003
      -4.2185865439058673e-003 -4.5201660182075188e-003
      6.4821243407566333e-004 4.0723894513172102e-003
      -5.5488077103412140e-003 -6.0289670445635071e-003
      4.1238011352238719e-003 -3.6783907555592047e-003
      -3.2333906891075384e-003 -8.1815300511417725e-003
      -4.2156954345026184e-004 -8.1475702720411845e-003
      7.8855953058751174e-003 1.9209184737021030e-004
      -7.1641895991545468e-003 -5.3979190040950214e-003
      5.6050476530402867e-004 7.9756683464014180e-003
      -6.4912785215258230e-003 6.1298207384214562e-003
      2.1211412874539010e-003 -7.4748904470554132e-003
      7.7201534739845092e-003 -1.6208002284788575e-003
      5.7423115111383330e-003 -4.4752017746486043e-004
      -7.0812697817245777e-003 -5.7186610232221229e-003
      -1.6299399711911168e-003 4.1575696859017458e-003
      -4.7342683335736165e-003 -6.6263262280275284e-003
      5.5316998410291258e-003 -3.5378642032498119e-003
      -3.1469252368643238e-003 7.5009008655602793e-003
      -7.2476037023227746e-003 -2.4206262992931223e-003
      -7.4838176781728974e-003 4.8933581711624484e-003
      -4.3969255545082929e-003 -4.8041755705802167e-003
      2.8833112947186696e-003 1.6460172114702110e-003
      -4.8147928140478179e-003 -6.5829005173784630e-003
      1.9999783048712215e-003 4.9198132713183362e-003
      -2.8690448859811195e-003 -5.1176420783826445e-003
      4.4578380653537350e-003 -7.2539091856645256e-003
      -7.3419525889379363e-003 -1.7354257875586969e-003
      -5.0919153230312899e-003 -5.8421136465630448e-003
      -6.0829819069111481e-003 -4.1117707077262229e-003
      -7.6782745288199077e-003 1.4806321923313715e-003
      -6.1292439266952209e-003 -8.5887254845802199e-003
      -7.8165625210769123e-005 -3.8863405972182565e-003
      7.0376613396508549e-003 4.1109395860418931e-003
      2.4276694083137716e-003 6.9749495781342916e-003
      -3.2072486118704403e-004 3.2679389480220747e-003
      6.2811739150506708e-003 -5.2204673251443467e-003
      3.6954701973389947e-003 -8.4054239910070685e-003
      4.2170906108689768e-004 2.1093017316864211e-003
      -5.6225523560992311e-003 -4.5588893975603050e-003
      6.8770899831820057e-003 -4.0369782483076679e-003
      -5.8569525491595949e-003 -1.5363343314212150e-003
      -8.4984008615126474e-003 6.6754948437583580e-003
      7.0170414037426443e-003 -4.3535753355694942e-003
      3.7969067452937500e-003 3.0032780430308574e-003
      8.2387683676676225e-003 6.5630581588999566e-003
      5.5828715331556703e-003 -7.2906382915978105e-003
      4.4962889401993776e-004 2.7282513628431163e-003
      3.7119765475246884e-003 -8.3282689568795806e-003
      7.4639671328940831e-003 3.9347850468883713e-003
      7.6848335986220281e-003 -1.7963404589754883e-003
      7.1161120873825083e-003 -8.9810919575656917e-003
      -2.5667799826803181e-003 2.1034112080716900e-003
      4.1080796036425666e-004 1.4633623628707766e-003
      -1.5770085201472597e-003 -7.7762539725161114e-003
      5.2738848502585966e-003 6.9227564497832727e-003
      7.6229740648890336e-003 -4.6137461663405994e-003
      1.2581055113493772e-003 6.5986246756971163e-003
      8.0231233494664541e-003 9.3259022468711456e-003
      6.3869186605310614e-003 -6.1731874577369630e-003
      -4.4288988297663152e-003 8.3264512200773404e-003
      6.8699628372528368e-003 4.2315912360781196e-003
      -7.6967379045883889e-003 -9.2214603578881817e-003
      -3.3526938428152966e-003 2.0820763588884714e-003
      1.5661032764986546e-003 1.2406921635692352e-003
      -1.1171891855886521e-003 1.8354441934688205e-003
      -4.3573399308828014e-003 -3.0470655580919002e-003
      5.3692144194342501e-003 -2.2027269949976718e-003
      -3.8065411304324531e-003 -6.7899975432900838e-003
      8.2981001393568135e-003 -1.5212749260879166e-003
      -2.3111510063111742e-003 -6.1412914789808629e-003
      2.8758541492678079e-003 -2.0093549530837869e-003
      -2.1022158143175563e-004 -2.1697493687888132e-003
      -6.9415089408142484e-003 -3.8510322950796971e-003
      1.7141307656876723e-004 2.7917808548429532e-003
      -1.1130504237721792e-003 6.4480914918907308e-003
      -4.1294650165624421e-003 7.8309002427415890e-003
      9.5132420543437820e-004 -1.5111999237596022e-003
      -6.2648349667181850e-003 -6.9437004756341542e-003
      -8.1163908536537755e-003 -7.3891507786166153e-003
      -1.5582372778680457e-003 1.7154473583218337e-003
      6.0871492383054136e-004 -3.2130520564429238e-003
      6.3153218632003164e-003 6.8127552997966781e-003
      -7.6317389892746109e-003 -2.5209150371182467e-003
      2.5958683608194377e-004 7.4450479970001584e-003
      -2.3526542498622225e-003 1.9523198058803952e-005
      6.1304205296380965e-003 -5.1127719321338019e-003
      -2.2635427753357729e-003 8.2811109535827990e-003
      7.5689781628326385e-003 -2.9663068546817660e-003
      3.2795129866292727e-003 7.6808394041571549e-003
      7.7712610873405495e-003 4.4793751738748299e-004
      2.9567963058449200e-003 -8.4824360693914833e-003
      1.2153160937137936e-003 5.9612059197066318e-003
      6.3335670903036049e-003 -5.6162063182857574e-003
      3.5363202706842601e-003 7.0521706973092138e-003
      7.5926947270310548e-003 -7.1019106387461535e-003
      -1.4536214970321433e-003 3.2074860756912144e-003
      4.2238154964759217e-003 8.3990389471263333e-003
      8.5729144402267553e-003 -3.5057120980986618e-003
      6.4341556768358742e-003 -8.8292254084065859e-003
      8.2623101021090280e-003 4.9689879339506349e-003
      -2.4394688375644711e-003 -1.0743793489930459e-003
      1.4955716088224805e-003 -7.9999314667357907e-003
      -6.3554236059799509e-003 -4.4750934760490061e-004
      -8.1741810014167859e-003 -7.7713484228486120e-003
      1.9787668331282160e-003 -2.4536779269542170e-003
      8.2293775386261519e-003 7.4605992100496583e-003
      6.6982154948817879e-003 -7.6096841080746146e-003
      7.7825753238990672e-003 -6.1451185596603846e-005
      -4.5549500268687124e-003 -2.1381397924063617e-003
      5.9838555892966867e-003 -8.9353160197274475e-003
      5.9722926124209669e-003 7.9647752423480135e-005
      -2.7328105279032086e-003 -1.7859821163765711e-003
      -6.9386072697100488e-003 -6.8968592693037538e-003
      -7.5349617929450158e-003 1.1626307982351785e-003
      -4.9561144854275646e-003 7.3380746931336885e-003
      -1.7777874305233328e-003 -8.0427222347183649e-004
      6.5360579836926617e-003 4.6451229236904789e-003
      -4.8869651621330362e-003 -7.5614949766043375e-003
      -6.7888485762205714e-003 6.5837220300354379e-003
      1.2632907828267615e-005 7.6323658946848057e-003
      6.2425941335302578e-003 -8.5921844677416051e-003
      -3.7427955685130723e-003 -3.5559839768641152e-003
      -7.3631806456268155e-003 -5.4224786177111475e-003
      6.0077771529987670e-003 3.9921139589282079e-003
      -6.8819010650578967e-003 -5.0245314580650673e-003
      -6.7731988370215669e-003 -9.3743915231678313e-003
      6.7451397926145936e-003 2.8922112546354429e-003
      2.6207384329847597e-003 5.7865937684057683e-003
      -6.7516816519251517e-003 8.8109730368628788e-003
      6.1241030680106870e-003 -1.7378300587438044e-004
      6.5968791012823314e-003 7.3669542528237769e-003
      3.7760759329989800e-003 -2.1727521729101940e-003
      -2.9758437860146814e-003 3.6340649789117865e-003
      1.1150146737310103e-003 -5.4624742814213159e-004
      7.5667910733078839e-003 -7.4192184435803985e-004
      -7.0232424617471924e-003 6.3460588292114876e-003
      1.5496579039278677e-003 -3.8013793964655359e-003
      -2.0142532114550082e-003 -1.0029556548609530e-003
      6.6162799450951463e-003 -4.1739128554093155e-003
      -6.3874554207660377e-003 2.7301095157079612e-003
      -5.7717814922749718e-003 2.7983836233400399e-003
      -3.8624477996098169e-003 6.4304195093220129e-005
      -5.6239652187065605e-003 -8.3110457771157654e-003
      -3.8279198956462706e-003 4.7552730422038593e-003
      -8.2596007055900453e-003 8.9819636718562485e-003
      -6.8735923615883812e-003 9.2195814939133747e-003
      -3.1029463030418539e-003 -5.8787184478821010e-003
      6.1039167873079931e-003 5.4904219674481282e-003
      4.1963657030547148e-003 4.9418848730166847e-003
      -4.2059943064576858e-003 -5.1928489831404127e-003
      -7.4282848365707227e-003 5.6202767336963992e-003
      -4.4023468073363086e-003 -9.2225208798056343e-003
      -3.8123940648021860e-003 -1.8589145873597179e-003
      8.4679670477594525e-003 -7.5601860209379024e-003
      -1.8304624604202928e-004 2.5097295367087951e-003
      7.7986233224469001e-003 7.7326750557538152e-003
      8.2901942180571200e-003 6.8969197336941051e-003
      2.8360873838871379e-003 -7.0927911942076328e-003
      1.3740330775510550e-004 7.7903811680280358e-003
      2.0867520192445585e-003 -2.0581449085799075e-003
      4.5746948513805553e-003 8.9815913886876191e-003
      3.4193595134046607e-003 7.5118785401539039e-003
      -6.5030078926987906e-003 -7.1109016963988682e-004
      -4.8984854252026233e-003 -1.7019086926232155e-003
      -2.4946242131381633e-003 -7.5811787592706386e-003
      8.5361310838229180e-003 -5.3662977468786600e-004
      -4.4456078472041903e-003 -2.6133709926524128e-003
      -8.6237396327607397e-004 3.0060011639964717e-003
      -3.7304017217128265e-004 4.1976985895865373e-003
      7.0696224207714468e-004 4.7054275031977845e-003
      5.6482406689495465e-003 7.3567877237965549e-003
      2.6619528235004956e-003 -3.1123359697404094e-003
      3.2491476402274982e-003 6.0968403793141884e-004
      -8.4401055832143378e-003 8.5500647870502336e-003
      6.4904510638241330e-003 3.4468894449184097e-003
      -3.7094338588633149e-003 3.4701351208629902e-003
      5.6113859243218682e-003 -6.7212643365950739e-004
      6.4613521652669573e-003 6.4827099747699936e-003
      1.8244806654114168e-003 -2.4082210585248611e-003
      5.1307952491387232e-003 8.3264061660882627e-003
      5.5387629113482460e-003 1.7484025960748792e-003
      -6.5215127640784786e-003 3.1925227781370385e-003
      -6.1067068023672845e-003 -2.8740867615700380e-003
      -5.5737239199106824e-003 -2.5152047574968531e-003
      2.1511540575853030e-003 2.2281157158586229e-003
      -4.1500364918380522e-003 6.8776619825934356e-003
      6.0571483065817453e-003 -6.2523440330627764e-003
      6.5563298608204595e-004 -7.8477868706873614e-003
      -3.5936442595595527e-003 7.2952062785569937e-003
      2.5787851974258917e-003 4.0071110962117485e-003
      -5.0337460368256133e-003 8.0265933791169655e-003
      -7.8097804123943310e-003 -6.4026087477124759e-003
      -6.2640152907125126e-003 -5.2488605565384969e-003
      4.1799736776501461e-003 4.9883732851094915e-003
      -1.0134218023257738e-003 -1.9984889548014992e-003
      -5.7100663202802904e-006 -8.7244518274689903e-003
      -2.3700415922642908e-003 -7.1558975386087848e-003
      -7.7758634928889380e-003 5.7574010356228923e-003
      -6.9131976277894700e-003 5.2818958821025845e-003
      4.5894174150643372e-003 1.3710806828576196e-003
      -2.9368600094054147e-003 8.7109421127491687e-003
      -6.9722361458224389e-003 -2.4924776700285889e-003
      5.9584462863087632e-003 4.9750345322437991e-003
      -5.4257450692961964e-003 7.6828316958602871e-003
      -4.7473509407869059e-003 2.3320917906305767e-003
      -4.2782932459383728e-003 -5.9446195705140752e-003
      -6.3672211458572743e-003 8.3546297946741760e-003
      -3.2718140702705281e-004 7.3622129027839014e-003
      -4.3086191449935611e-003 3.8054012533895024e-003
      4.5167198460895671e-003 1.0450849041849859e-003
      5.5065317337361936e-003 3.6458893179235749e-003
      8.5061107976083482e-003 -5.8595386317581996e-003
      -5.2298168346793369e-003 2.9306161015717468e-004
      -5.1556913709085847e-003 -7.5042565414775676e-003
      2.3757051033892404e-003 -3.9324561284770462e-004
      5.9665613585800073e-003 1.6244946426566421e-003
      2.3983252073295535e-003 2.6386782616886835e-003
      -6.6766511935183121e-003 3.5161623497022760e-003
      5.2240195756776981e-003 1.6338483862342029e-003
      2.9420735421393741e-003 1.8680914128796297e-003
      2.5825687324472959e-003 6.4140067112116578e-004
      6.3214753456975661e-003 6.8256094511046222e-003
      2.7505663225880798e-003 -3.0701695199239071e-003
      3.6519808144722808e-003 -6.8503907506869853e-003
      4.8908839077992962e-003 -1.4149113557100600e-003
      6.2948891617105466e-003 -6.2774007903385856e-004
      -4.2895116446683718e-003 8.7243032875717781e-003
      -7.6337689575763342e-003 -8.0535491313618156e-003
      -5.5885505105917133e-003 -1.1719010109793179e-003
      6.9525038444189441e-003 1.8141592154025889e-003
      8.3713855430533335e-003 -4.0600265681240360e-004
      -5.0694563429105246e-003 1.5794788812964380e-003
      -8.5819594781978746e-004 5.3583123085855274e-003
      5.5631873041943275e-003 -8.1013145207836212e-003
      3.6448611117741122e-003 3.4521029598730654e-003
      -7.0856216048576989e-003 -3.7600014480884052e-004
      4.5663777145168562e-003 -2.1926505863281378e-004
      -3.5796718290944276e-003 -5.6718560183114794e-003
      -7.7954180537696607e-003 -1.4722722920161003e-003
      5.1439449220139601e-003 -4.7099760795025567e-003
      6.5314947482236797e-003 4.2501026390535830e-003
      1.1200211227821828e-003 -2.3162859250201980e-003
      -4.4193567893199732e-003 -3.3751030647282674e-003
      4.5974743340146907e-003 -4.2372894492421495e-003
      3.1882396348973888e-003 -8.9460887630689462e-003
      -3.0239219254015823e-003 -3.1836141270612794e-003
      -5.9210201388581107e-003 3.5707150914065012e-003
      6.7226314398902247e-003 -3.7258693664122470e-003
      7.0809433729545979e-003 -3.5147433545287825e-003
      -7.3180137813747236e-003 6.2712451712193754e-003
      -6.7448255445335505e-003 1.1977820158981802e-003
      5.9368722738685443e-004 7.9672130857580334e-003
      5.1151503415364794e-003 5.9203698015204108e-003
      -6.6668099787724434e-003 8.5357287341284033e-003
      -7.7940249427912505e-003 -1.6147087385990882e-003
      5.5175102662725927e-004 3.9341556433753998e-003
      -7.1785016580462211e-003 -3.8101533589871331e-003
      -1.1793680648380833e-003 -4.3097545458326714e-003
      -2.7920764019066712e-003 3.7902022643116046e-003
      6.9720297863301028e-003 -3.3373154804155676e-003
      1.3947007272119096e-003 5.1413325740549487e-003
      -1.3794044448071286e+001 -2.7516076746236762e-001
      -4.2706045440521540e-001 -4.7299093274494924e-001</_>
    <_>
      -2.2893908673087085e-001 4.6991250080779681e+000
      -2.0035945505838386e+000 1.3564296397023627e+000
      -3.2775644946493738e+000 2.5475848291046983e+000
      5.7499978878107063e+000 -5.4949169771294093e+000
      -5.7760098956955730e-001 -2.2592431334442762e+000
      1.6140138739998018e+000 3.8504381482080459e+000
      -3.0702882211536087e-001 -4.9936527268430480e+000
      -2.5800793016521717e+000</_></weights></my_nn>
</opencv_storage>
