<?xml version="1.0"?>
<opencv_storage>
<my_nn type_id="opencv-ml-ann-mlp">
  <layer_sizes type_id="opencv-matrix">
    <rows>1</rows>
    <cols>3</cols>
    <dt>i</dt>
    <data>
      225 4 3</data></layer_sizes>
  <activation_function>SIGMOID_SYM</activation_function>
  <f_param1>5.9999999999999998e-001</f_param1>
  <f_param2>1.</f_param2>
  <min_val>-9.4999999999999996e-001</min_val>
  <max_val>9.4999999999999996e-001</max_val>
  <min_val1>-9.7999999999999998e-001</min_val1>
  <max_val1>9.7999999999999998e-001</max_val1>
  <training_params>
    <train_method>BACKPROP</train_method>
    <dw_scale>1.0000000000000001e-001</dw_scale>
    <moment_scale>1.0000000000000001e-001</moment_scale>
    <term_criteria><epsilon>9.9999999999999995e-007</epsilon>
      <iterations>1000</iterations></term_criteria></training_params>
  <input_scale>
    1.8397585235493751e-002 -8.9373199077150545e-001
    1.8801524935410843e-002 -2.0570192286516167e+000
    1.5180981322690598e-002 -7.7534116440139078e-001
    1.4788140352976755e-002 -6.4418733588559085e-001
    5.2633428224405386e-002 -5.8636715469186884e-001 1. 0. 1. 0. 1. 0.
    1. 0. 1. 0. 1. 0. 1. 0. 1. 0. 1. 0. 1. 0. 2.0434613141733185e-002
    -1.1004227518268013e+000 2.0635514023818073e-002
    -2.6831592095397205e+000 1.4497756628698288e-002
    -9.6170216647969575e-001 1.3576501957421600e-002
    -6.7558143409172655e-001 3.6132514553209538e-002
    -5.2202483159440483e-001 1. 0. 1. 0. 1. 0. 1. 0. 1. 0. 1. 0. 1. 0.
    1. 0. 1. 0. 1. 0. 3.7079585069971159e-002 -5.7459754251768436e-001
    2.0963680589974630e-002 -9.7562672617986046e-001
    3.2811555664205849e-002 -5.5692489205610229e-001
    3.9992992179423106e-002 -3.3423151057889250e-001
    1.1827207368526431e-001 -2.9094930126575019e-001 1. 0. 1. 0. 1. 0.
    1. 0. 1. 0. 1. 0. 1. 0. 1. 0. 1. 0. 1. 0. 3.2447862017367483e-002
    -5.1881347189255667e-001 2.5396464890795917e-002
    -4.8916378882699413e-001 7.6369949469992995e-002
    -2.9226636532603278e-001 1. 0. 1. 0. 1. 0. 1. 0. 1. 0. 1. 0. 1. 0.
    1. 0. 1. 0. 1. 0. 1. 0. 1. 0. 1.2242581186984261e-001
    -3.0818156006798963e-001 7.6670504177666909e-002
    -2.9925130637434799e-001 1. 0. 1. 0. 1. 0. 1. 0. 1. 0. 1. 0. 1. 0.
    1. 0. 1. 0. 1. 0. 1. 0. 1. 0. 1. 0. 1. 0. 1. 0. 1. 0. 1. 0. 1. 0. 1.
    0. 1. 0. 1. 0. 1. 0. 1. 0. 1. 0. 1. 0. 1. 0. 1. 0. 1. 0. 1. 0. 1. 0.
    1. 0. 1. 0. 1. 0. 1. 0. 1. 0. 1. 0. 1. 0. 1. 0. 1. 0. 1. 0. 1. 0. 1.
    0. 1. 0. 1. 0. 1. 0. 1. 0. 1. 0. 1. 0. 1. 0. 1. 0. 1. 0. 1. 0. 1. 0.
    1. 0. 1. 0. 1. 0. 1. 0. 1. 0. 1. 0. 1. 0. 1. 0. 1. 0. 1. 0. 1. 0. 1.
    0. 1. 0. 1. 0. 1. 0. 1. 0. 1. 0. 1. 0. 1. 0. 1. 0. 1. 0. 1. 0. 1. 0.
    1. 0. 1. 0. 1. 0. 1. 0. 1. 0. 1. 0. 1. 0. 1. 0. 1. 0. 1. 0. 1. 0. 1.
    0. 1. 0. 1. 0. 1. 0. 1. 0. 1. 0. 1. 0. 1. 0. 1. 0. 1. 0. 1. 0. 1. 0.
    1. 0. 1. 0. 1. 0. 1. 0. 1. 0. 1. 0. 1. 0. 1. 0. 1. 0. 1. 0. 1. 0. 1.
    0. 1. 0. 1. 0. 1. 0. 1. 0. 1. 0. 1. 0. 1. 0. 1. 0. 1. 0. 1. 0. 1. 0.
    1. 0. 1. 0. 1. 0. 1. 0. 1. 0. 1. 0. 1. 0. 1. 0. 1. 0. 1. 0. 1. 0. 1.
    0. 1. 0. 1. 0. 1. 0. 1. 0. 1. 0. 1. 0. 1. 0. 1. 0. 1. 0. 1. 0. 1. 0.
    1. 0. 1. 0. 1. 0. 1. 0. 1. 0. 1. 0. 1. 0. 1. 0. 1. 0. 1. 0. 1. 0. 1.
    0. 1. 0. 1. 0. 1. 0. 1. 0. 1. 0. 1. 0.</input_scale>
  <output_scale>
    5.2631578947368418e-001 4.9999999999999994e-001
    5.2631578947368418e-001 4.9999999999999994e-001
    5.2631578947368418e-001 4.9999999999999994e-001</output_scale>
  <inv_output_scale>
    1.8999999999999999e+000 -9.4999999999999996e-001
    1.8999999999999999e+000 -9.4999999999999996e-001
    1.8999999999999999e+000 -9.4999999999999996e-001</inv_output_scale>
  <weights>
    <_>
      -5.2489911627795003e+000 -2.2092169717184089e+000
      -4.4583156272697588e-001 -1.5420926459191637e+000
      -2.6072049269776789e+000 -2.4275747143184949e+000
      -4.2514973022969643e-001 -1.3216152784736308e+000
      1.0505247323987211e+001 -2.1429936982459749e-001
      4.3591604541094797e-001 -5.4439400459097231e-001
      1.2842965001394939e+001 -3.9620195688188359e-001
      5.0607905520794561e-001 -1.0169154980643387e+000
      9.1693696127357196e+000 -3.4308770674875338e-001
      4.6142383215578026e-001 -1.3672905805972510e-001
      8.2248516636955777e-003 1.7305063923351892e-003
      7.6998316764647747e-003 -3.1570762709179656e-003
      1.4757048537120323e-003 4.1225003649558081e-003
      -9.0316024231163593e-003 3.5879186317988496e-003
      2.8093656886018603e-003 -4.2297159150448222e-003
      6.5914168990250602e-004 -3.3214099602952999e-003
      -1.6218769935254080e-003 4.6363228987418336e-003
      -2.5021607258519907e-003 -6.8411743369512102e-003
      2.5736654884030001e-003 3.3212629073631019e-003
      5.7799383845218927e-003 -1.2344347751341584e-003
      2.1364869008937194e-003 7.7897639050063059e-003
      1.5356722179529915e-003 -2.4239642043973131e-003
      -7.7098040597599719e-003 -4.8134116383339309e-003
      4.2308448707686422e-003 9.7995295012249747e-004
      2.7331895001921117e-003 7.7769264202323064e-003
      4.7534039287118095e-003 -3.7098022679619104e-003
      6.5650215784785067e-004 7.6856856879196113e-003
      5.7199371044870636e-003 -4.5765960795138855e-003
      -2.6451768893887904e-003 3.6013080163546890e-003
      3.4480197327711234e-003 -2.4594380468443942e-003
      -1.6684590930460272e+000 4.9255835165163653e-001
      -1.1045373655575791e-001 7.8365091837793410e-001
      6.9933527990834063e+000 -1.4095911839368893e+000
      -4.7412591101117163e-001 -9.9446461333741842e-001
      1.0252330028996420e+001 2.1859872657512289e+000
      8.6562276808310812e-001 6.0596433987465481e-001
      1.6604906213953157e+001 -4.0994663993081776e-001
      5.2439146567377115e-001 -2.2219163316108279e+000
      8.1583169737414494e+000 -2.6408215851988187e-001
      3.5510124760566725e-001 -5.1499292403420882e-001
      7.0824863068481196e-003 -2.8380996764211558e-003
      -7.9831490503774888e-003 -4.6700905243912960e-003
      -9.4727908118590791e-004 5.1861888799915913e-003
      -5.1342012227763544e-003 8.4627125522347812e-003
      7.8714853989568651e-003 4.2459571060549503e-003
      4.8789554721961744e-003 -4.9843819531684309e-003
      4.8185608535486436e-003 -4.2558097363996463e-003
      -7.8982409258762029e-003 -6.7333431439371635e-003
      7.7685111972307670e-003 4.7702760514633626e-003
      4.5468250045889161e-003 8.4157450299227419e-003
      2.7404596508197976e-003 4.7083509830867119e-003
      2.9909117483965780e-003 1.3456513757348115e-003
      7.3139100954797229e-003 5.7077355766402644e-003
      -1.2026345557873475e-003 -8.0167297009630378e-003
      6.0086623505613140e-003 -4.9624074834992270e-003
      4.4425674541368389e-003 -3.0861108331195395e-003
      4.7766938335472853e-003 7.5148183155536417e-003
      -3.2222260279574427e-003 1.6801365310389711e-003
      7.4910048721941076e-003 5.5506011198027993e-003
      -2.4863782044490836e-003 -3.8733693623444389e-003
      4.7369580967572436e+000 -2.6433072819695695e+000
      -4.4038926345723989e-001 -1.7921106886058964e+000
      5.4316491207051198e+000 -2.7398930224637619e+000
      -6.0818691897529975e-001 -1.8694691343734071e+000
      1.4477173211531413e+000 1.8629284076662374e+000
      4.7806990020025852e-001 1.2737745407543279e+000
      8.6215075845756051e+000 -1.0380085961934979e-001
      2.7532207214553561e-001 -1.3731751336682163e+000
      2.3182536359606907e+000 -4.4254533653524837e-002
      2.1658912500060001e-001 3.0336551171245318e-001
      -3.1631978237001914e-003 5.7319224627512527e-003
      8.7063917090835306e-003 5.3413865009734945e-003
      -6.0760713821063298e-003 4.3479952328316935e-003
      -7.0981102306448352e-003 1.3679553274686231e-003
      -3.3198882688599950e-003 5.5481073161189141e-003
      -3.0313256449846821e-003 2.1920408796102715e-003
      -2.2294679833563011e-003 3.0201385344400455e-003
      -2.8428376641640002e-003 9.8068091851466520e-004
      -3.0640291653547627e-003 2.5113196772228895e-003
      2.5970197962030929e-003 -2.7811360856251546e-003
      -4.4202604626449281e-003 8.5016487140685097e-003
      -3.5503356279491098e-003 -5.8548537573739825e-005
      4.3526499214943991e-003 5.3710302901524443e-003
      -1.2120533147686255e-003 8.2762760778771274e-003
      8.0873084566075379e-003 6.2903180376781918e-003
      8.3548015455348328e-003 -8.2416978310019436e-003
      -6.8459137869837381e-003 -5.9643786101872698e-003
      -5.9405876112395882e-003 -2.4533766180960350e-003
      -8.1891010510913350e-003 -5.2879361327234581e-003
      -7.1744558048092337e-003 9.3672854621012981e-004
      3.2335563145927542e+000 -2.5227083401855159e+000
      -6.0415310538250677e-001 -1.6702275802138835e+000
      1.8252828516975335e+000 -2.3142399704544259e+000
      -6.0899537758011901e-001 -1.3819201962127214e+000
      -1.2847690312886082e+000 -9.1429619830181552e-001
      -3.0728861439378713e-001 -2.6083800440839566e-001
      -1.8172386466945155e-003 5.0632431808078655e-003
      -1.7599324784327104e-003 -2.4188848379520706e-003
      -1.1096525876311538e-003 -1.1548902502345642e-003
      -2.3902358726480767e-003 -5.2937213304115214e-003
      -2.6742287573524939e-003 8.1164871918043922e-003
      -1.3559020987143468e-003 2.5339850054089228e-003
      -4.7316572191147812e-003 8.2354913751615539e-003
      -7.4880734703898326e-003 2.2460379488774104e-003
      -2.4206895915310721e-003 -5.1597613592822000e-003
      3.7645479305771423e-003 4.2276128183655884e-003
      -7.8205838088834696e-003 3.8924463264151943e-003
      -2.1901986375241832e-003 -5.9427552847378939e-003
      2.9834921626071581e-003 -2.2499794967198680e-003
      2.1341883686250033e-003 6.7364671732395574e-004
      4.6045149058939949e-003 -8.3368674036109498e-003
      -7.4385626040086102e-004 -1.8153282433096968e-004
      3.8564571064966767e-003 -4.1860670379865548e-003
      2.5321157665669689e-003 4.4474757850964334e-003
      -6.4195001297457279e-003 8.4490551697330041e-003
      -1.6532257469248346e-003 -1.4153383096853513e-003
      8.0627026839993603e-003 -1.1711897435406329e-003
      -5.9770178667289319e-003 -3.6755798376830445e-003
      -1.8757897114071720e-004 -3.6794286884894827e-003
      -2.0575212034474387e-004 4.7420932610757636e-003
      -2.4719147232140377e-002 -6.1275587791089403e-001
      -1.8075285590078183e-001 2.8890702267293616e-001
      1.2801103532387543e+000 -5.6636592755814263e-001
      -1.6626098211940327e-001 2.3859977655636316e-001
      -4.3429913864486414e-003 1.6249429453116387e-003
      -9.7912230326553380e-004 2.9039900446867850e-003
      6.7746254244216940e-004 -7.8024180489812689e-003
      -2.6608867978732473e-004 -3.4985996941628663e-003
      1.2435888673634381e-003 -6.1228032987158442e-003
      2.2766072873556167e-003 -7.1569957746950271e-003
      -4.6392271682325443e-003 -2.3080254988579610e-003
      -9.0381613015271499e-004 6.8937726474944125e-003
      5.5344027617213647e-003 -6.7212991448763453e-003
      8.2778030015624032e-004 -4.8225329573173938e-003
      -6.8889589372866456e-003 3.8815066802896283e-003
      6.5276383429219683e-003 -4.6449753101137827e-003
      -7.1736856548945422e-003 1.8657901137598585e-003
      5.4275938687912599e-003 -6.7427946847202387e-003
      -1.6720428415725563e-003 2.4745606404918347e-003
      -7.0358027195983695e-003 -8.1874872380602853e-003
      -5.1848951078284963e-003 8.6056663408290903e-003
      -1.5075455781445452e-003 -3.2444268164854993e-003
      -6.4933531900807544e-003 2.8375326651291651e-003
      -3.2903769343368108e-003 -2.1226376785474714e-003
      3.1009626326847705e-003 -6.6378428098922782e-004
      6.4770417350737764e-003 -7.1780844170119765e-003
      8.2673604032086293e-003 2.3725168598616175e-003
      -3.8945172039873076e-003 1.3219270423474772e-003
      1.5082630382264345e-003 -2.0521534706377477e-003
      -3.5763383531350846e-003 6.1647195166164926e-003
      -4.1242086206026490e-003 -4.8383083672062198e-003
      8.8417791477348098e-003 8.2940278381353604e-003
      -3.5801632478508114e-003 5.9445451241447247e-003
      -3.1368131985281440e-003 -2.2473527966821987e-003
      1.1627889913256396e-004 8.1490206158308983e-003
      -2.3574591115888034e-003 1.2703795339059332e-003
      4.3628929296024108e-003 4.7375367027308645e-003
      -6.4367913708691504e-003 6.1322326243548244e-003
      -6.6366370629611371e-003 -2.3758506813498547e-003
      -8.7255832985611015e-003 -4.7717992173481709e-003
      -6.7401141626445438e-003 5.0326116061419320e-003
      1.6908413770297666e-003 -2.5043320132333833e-003
      -3.4304486809714975e-003 -6.7308529576337482e-003
      4.4341152077970441e-003 7.6373133917652094e-003
      1.1130239309219150e-003 2.5512632505734303e-003
      -7.9658660795279730e-003 4.5872047550180569e-003
      -1.1922587572386200e-003 3.3027362068726771e-003
      -5.5207627143097852e-003 4.4797281359131033e-003
      -7.6782531771471350e-003 8.2655932976247806e-003
      -7.8075373241535777e-004 8.4079567910906663e-003
      1.2611364133751778e-003 1.4752242070107736e-003
      3.1623306822144053e-003 -7.4712435066790405e-003
      -2.4992298055991199e-003 6.9922830005551481e-003
      -8.1739257982472481e-003 -7.3026331132804399e-003
      -3.2614232676534951e-003 -7.1453385125128934e-003
      1.5266642220667498e-003 -5.9740979535677858e-003
      7.6163640028218075e-003 -6.1367045069051452e-003
      7.9031592556573164e-003 4.9398617710921904e-003
      -8.1473730126418349e-003 6.6752401388226077e-003
      6.8812479429702766e-003 5.1643931734478652e-003
      -4.6965721752841513e-003 -3.0639882289000965e-003
      -6.1267094484598579e-003 4.3982081011021273e-003
      5.4372101036181536e-003 -1.5474334381974941e-003
      5.2345174613941184e-003 -2.3056723608927427e-003
      -1.6320184411442932e-003 -2.4727759929524668e-003
      6.7688638578725022e-003 7.8101188775784418e-003
      5.7274548529264438e-003 3.3241752785768829e-003
      -4.5016196475973020e-004 -7.5576740662596049e-003
      -1.2549658757553751e-003 -6.3813733267807440e-003
      7.1557337400589682e-003 1.6058430325516428e-003
      -6.9612017178237598e-003 -3.9962607665993896e-004
      5.2174259595304468e-003 -7.4440897355236612e-004
      -9.4132489059302598e-004 -5.6384367233318460e-003
      1.0744790868458731e-003 9.1870267123470766e-004
      -4.3614224070879053e-003 -2.1602668121447535e-003
      5.1963874027227235e-003 -1.3648604928959323e-003
      1.3474252675403507e-003 5.4208400662214967e-003
      -8.1505658721911112e-003 5.3067924417581659e-003
      -5.3608810984247298e-003 6.8300560034796525e-003
      7.9168675722334457e-003 -5.4946848779004447e-003
      -3.2245853736059260e-003 7.0303626273304611e-003
      -7.9915474765799319e-004 -7.4097378405958911e-003
      6.1356985951815787e-003 2.5590592444077538e-003
      4.0704516173692860e-003 7.8038273464826136e-003
      4.4590501576319361e-003 -6.8649169357290168e-005
      -6.7216108615072868e-003 7.8929666799013162e-004
      -7.6849800295359563e-003 4.7184214873256733e-003
      7.5523247617126175e-003 -1.8024897278501126e-003
      -6.2407458055820930e-003 -5.6336894557998040e-003
      2.0359849492389004e-003 -2.5642781298951672e-003
      -7.6682725956530992e-003 2.8427093466469738e-003
      -7.7412884136674057e-003 1.8007165813050761e-003
      -5.6887146824231233e-003 3.9210791332009703e-003
      -7.2082680751270611e-003 7.1862774834748535e-003
      4.0047536366444132e-003 -7.0399019351563715e-005
      5.1875951185288739e-003 2.8461540877278732e-003
      7.4612024933635645e-003 6.4273392212597135e-003
      -9.9864927056490327e-004 -4.1250638408897814e-003
      4.9610857188547930e-003 6.2123028741440421e-003
      2.2024826916248754e-003 8.5120604544179062e-003
      8.4451444382187477e-003 3.3034853065721133e-003
      4.0299067959599913e-003 4.4532040107121479e-003
      -2.9622297885025847e-003 -4.4159519703796226e-003
      -1.1053105498346361e-003 6.6049286367844641e-003
      -1.4656672483865985e-003 3.9756255706216619e-003
      -5.7806086283585098e-003 -5.7507022583120314e-003
      7.8180306436463742e-003 2.6707223325450049e-003
      -4.9989591824614044e-003 3.9126831816297010e-003
      -1.0452772434414990e-003 9.4366850382439740e-004
      -1.3254283238728741e-003 -3.9260945491713869e-003
      -3.9349904394767096e-003 -4.5149068382332997e-004
      4.4174664110822404e-003 4.8368269844301093e-003
      -6.3653906939850685e-003 -1.5917697584907451e-003
      5.9096725592228897e-003 5.9172269293024243e-003
      -8.3020998460219039e-003 8.5187267933481831e-003
      -4.5758667082804235e-003 6.1312672951246861e-003
      5.9355393219139687e-003 1.6447255430240189e-003
      6.8695261254643264e-003 -4.6992174966998049e-003
      3.5992751988943661e-003 5.8800285594148988e-003
      -3.0193737004986874e-003 -4.8602524532355825e-003
      -2.8317475697485924e-003 3.5604366031607654e-003
      4.7164779679270408e-003 7.3987256158957642e-003
      6.4488528649578906e-003 4.9372714720715433e-003
      5.5392373573164349e-003 4.6074405848907036e-003
      -4.9152521523253430e-004 -5.8938350956989887e-003
      8.8961879040478382e-003 -2.5835218670848033e-003
      -4.5726141326511332e-003 -1.1365929946008013e-003
      1.6755743912173192e-003 8.3362536366059156e-003
      -7.2769082057495401e-003 6.7081825824121975e-003
      -6.3344487584031774e-003 7.3117833583415419e-003
      2.5947227195047030e-003 -7.8694421306009631e-003
      5.3657286497668611e-004 -3.5751713039917556e-003
      -7.4777513064382094e-003 6.0003759307933899e-003
      1.5334525030980014e-003 -7.5575167760011793e-003
      1.1277673349687307e-003 -2.2744401154372808e-003
      2.2198198027934793e-003 4.3893638367567267e-003
      -4.1098325430713777e-003 7.3591898413722457e-003
      6.1777321764121531e-003 -3.7518047608893798e-003
      -2.6683083211705635e-003 -1.6629137906494186e-003
      4.3675862366673798e-003 -6.7541239281423259e-003
      -4.5667587010908032e-003 6.0270163307250542e-004
      5.0224797837653962e-003 -4.2589856976959703e-003
      4.2201068442178288e-003 -6.0464917554821163e-003
      1.3982324403960719e-003 1.1753354419241637e-003
      -3.1109613155627120e-003 -8.0172584035679423e-003
      -2.6021558048846651e-003 -6.3989957333512393e-004
      6.6844595162941032e-003 -1.6511261990074927e-003
      -8.5572411718398377e-003 -1.8739072090634178e-003
      -7.5409872932176653e-003 -2.0950834387689268e-003
      -3.0697371267552490e-003 1.8799345265981939e-003
      2.9444859426474221e-003 -7.8727337663834981e-003
      -8.7598967444889580e-003 4.0789996478693734e-003
      -5.0019773660127118e-003 5.2641857253036637e-003
      -4.6697400789857688e-003 -3.0802979666029635e-003
      -5.1169662053269305e-003 -6.5961264409333733e-004
      -2.7603929256601106e-003 6.5656768828143532e-003
      5.1912650774573188e-003 -1.1065876710504195e-003
      -6.1798057831273347e-003 7.9453380235948029e-003
      8.4572671296038182e-003 -8.8162882145628306e-004
      6.3232995341382381e-003 5.6609320845444561e-003
      -5.8620542772650141e-003 -2.8997335245883795e-003
      -4.1654708103379982e-003 5.6067892489709255e-003
      7.4455733291143430e-003 6.7469997067243336e-003
      -8.4496000384578027e-003 6.7026982663868060e-004
      -6.6043583939919886e-003 6.3488291116441022e-003
      6.2237297694004417e-003 -3.5321485539994177e-003
      4.8379045104759684e-003 4.1664080457197491e-003
      6.7357882923269980e-003 4.7298571672324367e-003
      8.3150378586141944e-003 7.3065004868237485e-003
      6.9199230763698110e-004 -6.6374469627219698e-003
      5.1440422926800232e-003 -1.5075297392489117e-003
      7.6393944234904804e-003 -7.3408987077982525e-003
      8.2931313265259873e-003 5.0050828992370254e-004
      2.2118030262473299e-003 -6.4903548048795513e-003
      5.3875276793450121e-003 8.7331004911296566e-003
      1.5944949473110709e-003 6.0514336036337907e-003
      -1.0081366178613721e-003 2.1624928282929375e-003
      -7.8955965129091539e-003 4.8881443099586001e-003
      1.1541757404477382e-003 7.8720972444674651e-003
      -2.2587426639210681e-003 1.1542291176612597e-003
      -8.3992922854659834e-003 8.7992295750267333e-003
      -6.8517698498228564e-004 -7.0425688029071034e-004
      -3.0024870022544595e-003 5.4886885991315302e-003
      -2.4185527725304936e-003 -3.6830807512385380e-003
      3.5286434960205863e-003 6.8894574383413934e-003
      -1.2031567848697568e-003 2.4622443830461241e-003
      -4.5197373606312785e-003 3.3016589618656703e-003
      2.3858429663576974e-003 2.9840063360497312e-005
      -1.9993565507582488e-003 8.2216948656907013e-003
      -7.5453385879362444e-003 -3.0345824333891684e-003
      -5.2781109857338642e-004 3.8769780968620471e-003
      -7.8115691637757655e-003 -4.2956563892905236e-003
      4.1458037887309009e-003 -7.6013378402749335e-003
      6.1503927540980125e-003 -5.3323230509021106e-003
      -5.5647096942542749e-003 5.5842666489851148e-003
      -3.1776172413371731e-003 3.2584615840114944e-003
      5.8502176329039667e-003 -8.5019256205984238e-003
      4.4923585150585576e-003 4.3637989889792885e-003
      -2.1897784106925467e-003 -2.7489209456001396e-003
      -8.5498453542801299e-003 -7.3765862137159183e-003
      -4.5277332956208350e-003 -1.6710435694351124e-004
      5.8184309821698631e-003 -3.8474708449004543e-003
      -3.6686988668087001e-003 8.1482458929319906e-003
      -6.2493257004533013e-003 -8.5113004358375582e-003
      5.2754285703617166e-003 7.9327871963505436e-003
      -8.3354837754315760e-003 2.4712391766680262e-003
      5.4280534235807477e-004 1.0008099555864696e-003
      -3.7434632585624885e-003 5.4642259623299766e-003
      -4.4674265773867582e-003 -1.5832127059403369e-003
      2.0133113308684722e-003 5.5986698542353063e-003
      -4.0184193006958750e-003 -8.1717483520983136e-003
      6.3049260534824630e-003 2.5007502714196814e-003
      8.5712727813052510e-003 3.4866585523870802e-003
      5.7242404652275026e-003 2.5292415676272809e-003
      1.2782060796472012e-005 1.0118405455169985e-003
      -4.7365128106871615e-003 -3.2736856833900192e-003
      -5.4759682806460050e-003 2.7137418960975208e-003
      -3.6837022432856820e-003 8.1386487931815622e-003
      2.7374508155020029e-003 -3.3886865043311235e-004
      -8.7967604469709124e-003 -1.7226353248448898e-003
      -1.8499309212616367e-003 4.2818046087366142e-003
      6.9387955988875361e-003 -7.4216313045557787e-003
      -7.4656281604126666e-005 -4.7762941566590857e-004
      -2.2549909968494707e-003 -5.4116058281028726e-003
      4.7895972319487116e-003 -9.5829748856407623e-005
      -8.3451063404768808e-003 -2.5175618892332012e-003
      -3.1890833547012719e-003 -6.0171613127979005e-003
      -2.6418681807831648e-003 8.4817716003504975e-003
      -1.6444534206387937e-003 -5.7729061321349969e-003
      -3.0830424369067007e-003 7.6058290236690499e-003
      -7.2554258935306924e-003 -5.3271411137605206e-003
      -1.3897364103312856e-003 4.7219871776598343e-003
      -7.4358412565978915e-004 3.4090617373818228e-003
      -1.3628652571612972e-003 -1.4832453077694529e-003
      -5.9864293498385780e-003 -6.5058817412186783e-003
      8.0067003552838998e-003 4.4276630049199135e-003
      5.4529192074497211e-003 -5.7363971899832764e-003
      -5.0038620927472938e-003 -5.0067678618929750e-003
      7.0037132583912034e-003 1.4079048424178093e-003
      -1.0236296438608959e-003 5.5430566419024073e-003
      8.3608062339606763e-004 7.8767108238533886e-003
      2.9494227358223653e-004 -5.0073593660248370e-004
      -7.1890082451822280e-003 -3.7676381009542981e-003
      9.1658459422500685e-003 6.7671822452625196e-003
      1.2167999822127859e-003 -8.3006168013498484e-005
      7.6035768256638905e-003 9.7805018083104486e-004
      5.4885488236776176e-003 3.0588774940431373e-003
      4.6606239349223730e-003 -3.3498801340678718e-003
      -1.5781465363550603e-003 -1.3624391344826836e-004
      -2.6489294545559692e-004 5.9503384694241457e-003
      2.5612903702460724e-003 -2.6266116473464027e-003
      4.8591423051132258e-003 -2.2540384166133470e-003
      2.1494204013939970e-003 7.1869943693870543e-003
      -3.4285710198860802e-003 -5.3921309086198905e-003
      6.9663611158838398e-003 6.2262576424280741e-003
      6.3820703666533397e-003 -8.5429973754107920e-004
      6.7642786865777370e-004 -4.7804663682877880e-003
      9.1735174486702546e-003 -4.5374794564063126e-003
      -6.4179391524580057e-004 -5.3336918273129419e-003
      -8.0655744047281876e-004 2.0161859856829699e-003
      7.5852758762674256e-003 7.3580763949274786e-003
      7.7913284402177894e-003 -5.9436498786667215e-003
      -9.8910938651501894e-004 -6.0043955633739656e-003
      -8.2412843677467946e-003 2.9227094166065521e-003
      -5.3155023652681202e-004 -8.5055041873780407e-003
      -1.8049600158200083e-003 4.4466015156202701e-003
      -8.2884062136146016e-003 1.7947698505140961e-003
      7.2919376905395284e-003 -7.5292397236843443e-003
      -1.9908423475649530e-003 -7.7653581425856733e-003
      -2.7241156518254123e-003 -1.5764839420148789e-003
      -1.3839697759906405e-003 -3.8656024723199198e-003
      -4.8056151038620536e-003 -4.2999495778213081e-003
      3.2938185691751575e-003 7.9416299005898971e-004
      -6.1555006602149881e-003 4.7265941124456515e-003
      -1.0563163931928061e-003 -1.6860376604828572e-003
      2.9500138175788905e-003 6.0099519613758118e-003
      -5.8341673722960858e-003 -8.4157990706878964e-003
      -2.6297033323014469e-003 1.2813774370074463e-003
      -4.5651694963877920e-003 2.1179579852699556e-003
      -9.0296841200129905e-003 5.9622385818838960e-003
      -2.2026470546594877e-003 3.7230677825391173e-003
      5.2238480673440077e-003 -8.0190282006761225e-003
      4.3159076364148591e-003 -6.0993025024344638e-003
      4.8492297928510002e-003 -5.1733885733036339e-004
      3.8877901204153586e-003 3.6749917367357118e-003
      5.6582966258953175e-005 8.0968991660891360e-004
      -7.4986109778659524e-003 2.9708474650723691e-003
      7.1272670324441139e-003 6.4246584548448161e-003
      -6.4659383780694838e-003 -5.3261281875854761e-003
      2.3068809264817024e-003 -5.1090600625003021e-003
      5.2536923458914109e-003 7.0090729260409270e-003
      -2.0100654015356295e-003 -7.8054966997547518e-003
      -4.7921715667357954e-005 7.2889430613578684e-003
      7.5023585235050039e-003 -4.0664732979643660e-003
      -5.7611468519252780e-005 5.4907892423560461e-003
      -2.6197473146070739e-003 -6.9316297543959467e-003
      -7.9102739375710475e-003 1.6058678368489209e-003
      7.5870369141942551e-003 2.9428989020548477e-003
      -8.1642786630141077e-003 -7.4001269524003000e-003
      6.7832128848306960e-003 -8.1980769241793566e-003
      -5.0557198744896961e-003 -3.2893627383740257e-003
      9.6433430207413184e-004 -4.8176547371530142e-003
      7.2887752421284830e-003 -6.8806583918519714e-003
      2.8119923965332742e-003 -2.3315562187656022e-003
      -8.0958619020745550e-003 -3.4888023299912709e-003
      1.4551527740898490e-003 4.6541640384377926e-003
      6.9120303210490610e-003 -8.0285679536427797e-003
      3.7805215413249742e-003 4.2295672081165275e-003
      -3.7946320758490823e-003 -6.0719248032204010e-003
      -8.7545303656983292e-003 -5.9498581542809269e-004
      -2.6986362195022755e-004 2.5578463303515329e-003
      2.6651541923979377e-003 4.2130128899678923e-003
      -1.9388406208972252e-003 -6.7840085021911673e-003
      3.4761400614088276e-003 3.1772194421588050e-003
      -8.0039949327548700e-004 8.0696020466951707e-003
      -6.1027169818122324e-003 -8.2605687063067434e-003
      5.5911564937848315e-003 1.5554566291222781e-003
      3.8397673233921186e-003 -7.8310271811711761e-003
      8.2382700535355464e-003 -1.5558094281857915e-003
      7.3400817480790189e-003 -3.2090905952795886e-003
      -3.2537780299565673e-003 -5.3628403567669292e-003
      -5.9274280172657437e-003 4.2800390921394873e-003
      -6.5706917543440781e-004 1.9008696444502461e-003
      -1.8767666309955561e-003 -7.3446378591914378e-003
      -8.0487005309713561e-003 -3.8098138822313964e-003
      5.2891429233326301e-003 -5.8425819074984309e-003
      -7.5567210103922016e-003 5.7979000780615953e-003
      3.9653362011828064e-003 -4.9654095565772917e-003
      -7.7494519797907035e-003 3.9973812768432475e-003
      -7.4540990028924697e-003 -8.3180986479610142e-003
      4.6911823277305160e+000 7.7591579545133682e-001
      -2.4319151649658127e-002 -2.0532371392459372e+000</_>
    <_>
      -3.1740116750448921e-001 -3.8117645062304977e+000
      3.4709541695156587e+000 -5.3245975723348185e+000
      4.6979355682387967e+000 9.9281961155659015e-001
      -1.8746817159039313e+000 3.6805720658988579e-002
      2.1323956944953721e+000 -3.3756367503112976e+000
      4.6431259440298023e+000 -1.6694171965170597e+000
      -1.6782608583048244e+000 -3.4549292510576821e+000
      -1.6363693422350358e+000</_></weights></my_nn>
</opencv_storage>
