<?xml version="1.0"?>
<opencv_storage>
<my_nn type_id="opencv-ml-ann-mlp">
  <layer_sizes type_id="opencv-matrix">
    <rows>1</rows>
    <cols>3</cols>
    <dt>i</dt>
    <data>
      225 39 26</data></layer_sizes>
  <activation_function>SIGMOID_SYM</activation_function>
  <f_param1>5.9999999999999998e-001</f_param1>
  <f_param2>1.</f_param2>
  <min_val>-9.4999999999999996e-001</min_val>
  <max_val>9.4999999999999996e-001</max_val>
  <min_val1>-9.7999999999999998e-001</min_val1>
  <max_val1>9.7999999999999998e-001</max_val1>
  <training_params>
    <train_method>BACKPROP</train_method>
    <dw_scale>1.0000000000000001e-001</dw_scale>
    <moment_scale>1.0000000000000001e-001</moment_scale>
    <term_criteria><epsilon>9.9999999999999995e-007</epsilon>
      <iterations>1000</iterations></term_criteria></training_params>
  <input_scale>
    1.7762889156478400e-002 -8.2419019129823956e-001
    1.9388181801419213e-002 -1.5078206975868482e+000
    1.4420139404584510e-002 -1.3726152611968379e+000
    1.0745434501710525e-002 -1.2476722305303405e+000
    1.0280716228904920e-002 -1.1778406138234732e+000
    1.2928883297118438e-002 -1.0285188474572600e+000
    2.0474292037214629e-002 -8.1082123208621704e-001
    2.4291589634384197e-002 -3.8760947977127275e-001
    3.8312305252940139e-002 -2.2826449777200405e-001
    2.6541252243238111e-002 -2.1723780825315783e-001
    2.2414084396833997e-002 -2.4930024013812094e-001
    2.9356695360157333e-002 -2.3906093849531582e-001
    1.0891329438537671e-001 -1.5653163563759204e-001
    7.4885277547302398e-001 -5.4862790658648401e-002 1. 0.
    1.4792647641965308e-002 -1.1341381543566480e+000
    1.4669278286556283e-002 -2.1257456791784484e+000
    1.3299940691723064e-002 -1.5152684949662112e+000
    1.8676847010354401e-002 -1.1925006612452267e+000
    1.9188460233121225e-002 -1.1227104515756181e+000
    1.1876286075452184e-002 -1.1103234433965576e+000
    1.1480738974732847e-002 -1.1493646948161469e+000
    1.6935714312755486e-002 -6.3767010780188815e-001
    3.5589430272365344e-002 -2.3468133595295512e-001
    4.6799252897539563e-002 -2.2867107161948758e-001
    2.9494330189032168e-002 -2.4199011842084633e-001
    2.4238951685046719e-002 -2.3538594852214414e-001
    3.7604581746356530e-002 -1.9464195701507839e-001
    1.5636651669913101e-001 -8.4705866300658766e-002 1. 0.
    1.5647467406449758e-002 -1.8930872268391090e+000
    1.8585192326853014e-002 -3.0418489323981484e+000
    1.4013730871385575e-002 -9.9418483100793187e-001
    1.2992059076577604e-002 -5.5963211288614523e-001
    1.3970015046795034e-002 -5.8495326521154511e-001
    1.5091542351427721e-002 -9.5923230638485468e-001
    1.1625233695689725e-002 -1.3102617419805334e+000
    1.4873321795299758e-002 -7.6736954999182549e-001
    8.0339714142353705e-002 -2.2847947587615378e-001
    6.5978675923866165e-002 -1.4402608289281013e-001
    3.7553324223230003e-002 -1.6919347880039909e-001
    3.3302476765749919e-002 -2.2258960580937132e-001
    2.9569412276473105e-002 -2.0093244209823818e-001
    1.0609748005931047e-001 -9.0185330201585007e-002
    3.5551289261691099e-001 -1.2231558010753858e-002
    1.3777488650337835e-002 -1.5429263260850890e+000
    1.5307681670321259e-002 -2.1012452170745903e+000
    1.4013359157577190e-002 -7.6108750643021994e-001
    2.7974453455363361e-002 -4.6691379778683817e-001
    3.2432002360123474e-002 -4.3355963600213959e-001
    1.7343977382330053e-002 -6.9970316789350129e-001
    1.1083326876925642e-002 -1.0836677432742106e+000
    1.3373031278822820e-002 -7.8559207718706259e-001
    6.3952965377642557e-002 -1.9968291436084273e-001
    5.5008518112958253e-002 -1.3346344142386063e-001
    4.0880814099372768e-002 -1.4837458185390950e-001
    4.0479529325747235e-002 -2.0703530819265234e-001
    2.7871459239198912e-002 -2.0142670696571113e-001
    1.0018090636720511e-001 -9.2834603658814324e-002
    1.5724608711901835e+000 -1.2231558010753858e-002
    1.2714216213306607e-002 -1.3898448579334233e+000
    1.3523412825496498e-002 -1.8973058073041214e+000
    1.1318863127121138e-002 -8.8675426646908118e-001
    1.3322468572212790e-002 -5.8077818110383539e-001
    1.3896534611476762e-002 -5.4626680806559824e-001
    1.3048025174744805e-002 -7.0595786830097473e-001
    1.0475337621600796e-002 -1.0044142300829288e+000
    1.2651941807069604e-002 -7.8131821898965659e-001
    5.2589627736343576e-002 -2.0688704110490111e-001
    4.5757527047444339e-002 -1.3926279129772862e-001
    4.7370626535091463e-002 -1.4532922596435011e-001
    4.1624707597132257e-002 -1.9798221458455276e-001
    2.7794803222692645e-002 -2.0140462034948775e-001
    9.9665657714467976e-002 -9.2125358959723153e-002 1. 0.
    1.2392818173200853e-002 -1.2826066940967771e+000
    1.6853123827330247e-002 -2.0144117839932933e+000
    1.4519637925250770e-002 -9.5461916364641952e-001
    1.3997834193258221e-002 -6.5693199724442519e-001
    1.2530013576486421e-002 -5.9635183298685246e-001
    1.3156068196384967e-002 -7.1250357163459987e-001
    1.2234075012571365e-002 -9.5847174231472820e-001
    1.3602559130373140e-002 -6.9467372624015800e-001
    4.6261325810412979e-002 -2.2000197437543412e-001
    4.0350259898205607e-002 -1.4444031278706049e-001
    5.9076953365965287e-002 -1.4225834741238738e-001
    4.1786088977571842e-002 -1.9092722343795673e-001
    2.7798509544559803e-002 -2.0138910826559053e-001
    9.9755745782168406e-002 -9.2014641099079184e-002 1. 0.
    1.3122106121412973e-002 -1.4189098953032224e+000
    1.4569738279269625e-002 -1.8131064714953182e+000
    1.4339837191897747e-002 -7.6223501600393861e-001
    2.3410500228738928e-002 -5.1970935768599513e-001
    2.4573525784445452e-002 -4.5353418962452563e-001
    1.6382618189069588e-002 -6.2405356739402207e-001
    1.1986807006533406e-002 -9.2554460112041392e-001
    1.3580200595299541e-002 -6.7477439702229558e-001
    3.9720590299669921e-002 -2.2110237174903910e-001
    3.7385310572259779e-002 -1.4417857280910076e-001
    8.4609914906893513e-002 -1.4287703638388841e-001
    4.2171946499324015e-002 -1.8793706250789868e-001
    2.7792354600202018e-002 -2.0113664713572274e-001
    9.6298809393615542e-002 -9.1649385601844865e-002
    5.2081506561713076e-001 -1.2231558010753858e-002
    1.4496636918136720e-002 -1.6782168950160947e+000
    1.5755855881268016e-002 -2.0396128536646594e+000
    1.6731643131918897e-002 -7.2609766702095668e-001
    2.1811882869072069e-002 -3.4748617037840868e-001
    2.4926771428435329e-002 -3.0692577092080431e-001
    1.9398151559973160e-002 -7.1270141358393646e-001
    1.1784998378988432e-002 -1.1734756433622655e+000
    1.3771207017008597e-002 -7.8321688366774900e-001
    3.2997988552595135e-002 -2.0676114321318442e-001
    3.8669002237790073e-002 -1.4081696786353229e-001
    1.3415611169037384e-001 -1.4710497220148311e-001
    4.2260450163939318e-002 -1.8613674478450618e-001
    2.7868947830550033e-002 -2.0077409695973245e-001
    9.8772945595560907e-002 -9.2467435282211449e-002
    4.4927453462576672e-001 -1.2231558010753860e-002
    1.4183162830340003e-002 -1.4840895004327121e+000
    1.5679634469107039e-002 -2.2382063466712192e+000
    1.4138741949112476e-002 -1.0159849526107432e+000
    1.8101356102233120e-002 -6.5428181861646939e-001
    1.8484238303393054e-002 -6.9825025630587434e-001
    1.3395426382520351e-002 -9.8971336783630215e-001
    1.0829019723203300e-002 -1.2052788804444901e+000
    1.6042675624828178e-002 -7.4699714176040488e-001
    2.9687209156421986e-002 -1.8524829556625425e-001
    4.1724301452929241e-002 -1.3686823094459372e-001
    1.9552744327804250e-001 -1.3367536029778471e-001
    4.2069827898559432e-002 -1.8585094512777603e-001
    2.7859766432608939e-002 -2.0090799233518231e-001
    9.9775712652040230e-002 -9.1764402906875417e-002
    9.0853294779877256e+000 -1.2231558010753856e-002
    1.3945146577492505e-002 -1.0765865137745196e+000
    1.5908296914095791e-002 -1.9524797614044991e+000
    1.2033811451368686e-002 -1.2558307000042050e+000
    1.0388855072270343e-002 -1.0196764767008530e+000
    1.0472035410494228e-002 -9.5120453710023944e-001
    1.3132198735805676e-002 -9.9404836003579067e-001
    1.3295960109111892e-002 -9.9098169706193551e-001
    1.7736601526898901e-002 -5.7399398802316703e-001
    3.2769742029583701e-002 -1.7973814779320349e-001
    5.2360176434994944e-002 -1.3301431740658948e-001
    2.3917968202918963e-001 -1.1408410382281460e-001
    4.2025638269607028e-002 -1.8616377464342157e-001
    2.7893874174719856e-002 -2.0111635021477631e-001
    9.9538290229585907e-002 -9.2381003385462346e-002 1. 0.
    1.6147241017780620e-002 -5.7512654046696188e-001
    1.3462646443257708e-002 -6.9014496037339246e-001
    1.7491826344332793e-002 -4.6115075196033767e-001
    2.7374588018195836e-002 -3.7583019062188677e-001
    4.2487455041438860e-002 -3.6344912378205013e-001
    3.3502080670484248e-002 -3.1851979751195358e-001
    1.8024421079962303e-002 -3.6716899633440586e-001
    2.2126198936674179e-002 -3.1252691318749665e-001
    1.1850932548652832e-001 -1.0025252407134819e-001
    1.7271551721128453e+000 -3.6687514501125514e-002
    1.8091942693961325e+000 -3.5994440961807872e-002
    2.1075411539140629e-001 -9.9718065367691566e-002
    1.3120620969688801e-001 -1.0129472673831549e-001
    6.1534889394402936e-001 -2.0434922132471878e-002
    2.1517885605760401e+000 -1.2231558010753856e-002
    1.6899855112690258e-002 -5.1814479817853176e-001
    1.4050267024983205e-002 -6.2048375467980588e-001
    1.7536442423309720e-002 -4.5449088709689778e-001
    1.5588625796623434e-002 -3.8594067285540223e-001
    2.0677749112431532e-002 -3.7112627708125856e-001
    3.7611966975214628e-002 -2.6880425213769971e-001
    2.1365561906669214e-002 -3.2198551738548442e-001
    2.3688233415023175e-002 -2.9619813056006850e-001
    1.0377045738547216e-001 -9.4118136531249494e-002
    2.5858461638385556e+001 -1.5472527532317461e-002
    2.5858461638385556e+001 -1.5472527532317461e-002
    1.6158828220522583e+000 -1.7161956674003043e-002
    3.7540283496703730e-001 -1.7296046846648840e-002
    3.2747600707277191e-001 -1.6753447183079730e-002
    3.6021130088938125e-001 -1.2231558010753860e-002
    3.9620173542243682e-002 -1.6974357331838688e-001
    3.6136401394288913e-002 -1.8348979579751010e-001
    5.0278297566884685e-002 -1.9131427107009541e-001
    4.8758742398377915e-002 -1.6870984082092427e-001
    1.1950938733360172e-001 -1.6709975509190456e-001
    1.2184441239848348e-001 -1.0898741786046565e-001
    5.7699766877362668e-002 -1.1664782534895018e-001
    5.2274490332360285e-002 -1.1298016540344176e-001
    2.0302183667462442e-001 -7.1886329847408156e-002
    1.7397439425933943e+000 -1.2231558010753858e-002
    1.3627994216981589e+000 -1.2231558010753856e-002
    6.2898434847607343e-001 -1.2231558010753860e-002
    4.1932289898404890e-001 -1.2231558010753858e-002
    7.7139589907442963e-001 -1.2231558010753860e-002 1. 0.
    5.2492177083591170e-002 -1.4257260542666356e-001
    4.2863112290365997e-002 -1.7083319357550877e-001
    3.7171820032739097e-002 -1.6541009630127004e-001
    3.9524334576537062e-002 -1.4528581723997197e-001
    4.7082179482337498e-002 -1.0437450107751725e-001
    5.1789119517693542e-002 -9.8887719060943680e-002
    6.6908675495140402e-002 -1.0107405885870067e-001
    1.1908944410696702e-001 -8.9003003828405564e-002
    3.5061404898197468e-001 -3.3935694393771122e-002
    3.8752590190468972e-001 -1.2231558010753856e-002
    4.0883982650944767e-001 -1.2231558010753858e-002
    4.7264719827681811e-001 -1.2231558010753858e-002
    7.7874252668466226e-001 -1.2231558010753856e-002
    2.7255988433963179e+000 -1.2231558010753856e-002 1. 0.
    4.9545930097990015e-001 -4.2690285320033279e-002
    4.4847329031806576e-001 -4.7027640465664045e-002
    5.8184668370749115e-001 -3.6816925536016266e-002
    4.8105134455955179e-001 -3.3245433236576354e-002
    7.4581869497913489e-001 -1.8073691635993996e-002
    8.0264654723677120e-001 -1.8250153355271387e-002
    9.6821488921828525e-001 -2.3318264347665509e-002
    8.8975670516893512e-001 -2.3824450295473358e-002
    3.5930091940447331e+000 -1.8274093133510985e-002 1. 0. 1. 0. 1. 0.
    1. 0. 1. 0. 1. 0.</input_scale>
  <output_scale>
    5.2631578947368418e-001 4.9999999999999994e-001
    5.2631578947368418e-001 4.9999999999999994e-001
    5.2631578947368418e-001 4.9999999999999994e-001
    5.2631578947368418e-001 4.9999999999999994e-001
    5.2631578947368418e-001 4.9999999999999994e-001
    5.2631578947368418e-001 4.9999999999999994e-001
    5.2631578947368418e-001 4.9999999999999994e-001
    5.2631578947368418e-001 4.9999999999999994e-001
    5.2631578947368418e-001 4.9999999999999994e-001
    5.2631578947368418e-001 4.9999999999999994e-001
    5.2631578947368418e-001 4.9999999999999994e-001
    5.2631578947368418e-001 4.9999999999999994e-001
    5.2631578947368418e-001 4.9999999999999994e-001
    5.2631578947368418e-001 4.9999999999999994e-001
    5.2631578947368418e-001 4.9999999999999994e-001
    5.2631578947368418e-001 4.9999999999999994e-001
    5.2631578947368418e-001 4.9999999999999994e-001
    5.2631578947368418e-001 4.9999999999999994e-001
    5.2631578947368418e-001 4.9999999999999994e-001
    5.2631578947368418e-001 4.9999999999999994e-001
    5.2631578947368418e-001 4.9999999999999994e-001
    5.2631578947368418e-001 4.9999999999999994e-001
    5.2631578947368418e-001 4.9999999999999994e-001
    5.2631578947368418e-001 4.9999999999999994e-001
    5.2631578947368418e-001 4.9999999999999994e-001
    5.2631578947368418e-001 4.9999999999999994e-001</output_scale>
  <inv_output_scale>
    1.8999999999999999e+000 -9.4999999999999996e-001
    1.8999999999999999e+000 -9.4999999999999996e-001
    1.8999999999999999e+000 -9.4999999999999996e-001
    1.8999999999999999e+000 -9.4999999999999996e-001
    1.8999999999999999e+000 -9.4999999999999996e-001
    1.8999999999999999e+000 -9.4999999999999996e-001
    1.8999999999999999e+000 -9.4999999999999996e-001
    1.8999999999999999e+000 -9.4999999999999996e-001
    1.8999999999999999e+000 -9.4999999999999996e-001
    1.8999999999999999e+000 -9.4999999999999996e-001
    1.8999999999999999e+000 -9.4999999999999996e-001
    1.8999999999999999e+000 -9.4999999999999996e-001
    1.8999999999999999e+000 -9.4999999999999996e-001
    1.8999999999999999e+000 -9.4999999999999996e-001
    1.8999999999999999e+000 -9.4999999999999996e-001
    1.8999999999999999e+000 -9.4999999999999996e-001
    1.8999999999999999e+000 -9.4999999999999996e-001
    1.8999999999999999e+000 -9.4999999999999996e-001
    1.8999999999999999e+000 -9.4999999999999996e-001
    1.8999999999999999e+000 -9.4999999999999996e-001
    1.8999999999999999e+000 -9.4999999999999996e-001
    1.8999999999999999e+000 -9.4999999999999996e-001
    1.8999999999999999e+000 -9.4999999999999996e-001
    1.8999999999999999e+000 -9.4999999999999996e-001
    1.8999999999999999e+000 -9.4999999999999996e-001
    1.8999999999999999e+000 -9.4999999999999996e-001</inv_output_scale>
  <weights>
    <_>
      -2.3966224975277765e+001 7.4951919051697191e-001
      5.2468506034187479e-001 -4.3315427153363992e-002
      -2.1462952424742618e-001 -1.5639469914699003e-001
      7.9832187528098231e-002 -3.5813657700054002e-001
      -1.0063370546276689e+000 1.6284011386950151e-001
      4.0951597937484530e-001 5.9697015429694092e-002
      -6.2892067632536852e-002 1.6043916816388010e-001
      4.5935442847021973e-002 8.2077769053964944e-001
      3.3320483086701025e-001 1.0548149080775733e-001
      5.5609823881246079e-001 -5.9691217492680115e-001
      4.3890288374992870e-001 1.6624558064725223e-001
      3.2607236279432128e-002 -4.4889828373047586e-001
      -5.8141276404883246e-001 -4.6597821513464399e-001
      -2.9343126844757211e-001 -7.5724050171287194e-002
      -2.6834554611406564e-001 2.4167000985025847e-001
      4.9021517776428358e-001 -1.2065396046241995e-001
      -1.4828856596805121e-001 1.8743765412815105e-001
      1.0006139681771543e-001 -2.0996486797309899e+000
      -3.5470412373163823e-001 1.7676153952329227e-001
      -1.9913666639380871e-002 -2.6848394251695069e+000
      -2.1658169673184924e-001 2.6514781027898326e-001
      6.6161766971624292e-002 9.4218473800634597e-002
      -1.8123951121446057e-002 2.9588631456262898e-001
      -1.0844659623648643e+000 1.1318649084953882e+000
      3.1384299455608544e-001 8.5103179044389701e-002
      4.8248575523939269e-001 5.0072778627030168e-001
      -6.5339613634433980e-001 -6.4599576674875619e-002
      1.1249312386804751e+000 -3.9901416687800750e-001
      5.6696309505804110e-001 2.3941630277346929e-001
      -6.9344701978391265e-001 1.4247903163853040e+000
      1.2992022486256563e-001 1.2941565411474512e-001
      -1.0583079499826965e-001 -7.7328861298509544e-001
      -1.2419280434624414e-002 7.8038248926146428e-002
      2.5161972895004453e-001 2.2961762563002638e-001
      3.2094403370083735e-001 6.7817414687021360e-001
      -4.9572165019673958e-001 8.6873168282815091e-002
      -4.3463704972061157e-001 1.7091349175861376e-001
      -1.2217656717743544e+000 1.7824987629389909e-002
      -3.1322120236667395e-001 4.2949686802510323e-001
      -3.5153440518199379e+000 -4.7271031709334194e-001
      2.6222422285340852e-001 8.3071150653080184e-002
      6.4391537348375172e-001 -5.1314896771858298e-001
      -9.6336030070762702e-001 2.1023642554721539e-001
      -9.6620920626691120e-001 -2.7122991672685531e-001
      -9.4240023136043835e-002 2.7723129961737197e-001
      3.6415939379133383e-001 1.8188192120440946e-001
      1.2546947491875954e-001 9.0559047380800106e-001
      8.3914462387730515e-001 8.0471287508992995e-001
      7.4384325652914793e-002 1.0250058471365897e-002
      -6.2712722273486121e-001 -1.3428835541966833e-001
      -1.4381975339784575e-001 8.9617010263893304e-001
      6.7214291324449649e-001 -2.1168510854295872e-001
      -5.0252371948167551e-001 -1.2404692118253735e+000
      -2.7407137332614545e-001 -8.2604468284870936e-001
      -5.0773037205267180e-001 -7.0929560103149158e-001
      -1.9878126963232914e-001 -2.5922699174475411e-001
      -6.5964030475199831e-002 7.2428678533363614e-002
      1.9695222101401461e-001 7.7465713472027589e-002
      1.3779732181405852e-001 -1.7361775912555178e+001
      -8.8085060853058506e-001 -1.3376969515065909e-001
      1.3292725877883937e-001 -8.7950705591537603e-001
      -5.4163890045956109e-001 -7.5439961129020305e-001
      7.7152150575507317e-001 -6.6033366197918358e-002
      -5.6369685508603296e-001 9.4616785031417280e-002
      4.1028011864158775e-001 7.0823530521725897e-001
      4.1036262936507889e-001 1.3013567277492089e-001
      -1.4286842608737049e-001 1.6048720741735376e+000
      8.2756615786261467e-001 -1.9573837645858028e-001
      4.2077071969717444e-001 -5.6572795671696496e-001
      -5.4817649390060108e-001 -1.4074932224436312e-001
      -6.7806527502197414e-002 -1.2970091376729252e-002
      6.8067018809899987e-002 1.5583212815503433e+000
      -3.7126538063006087e-001 2.8815940465641299e-001
      -2.9198775446854012e-002 -8.0383248100014820e-002
      -8.7267964645798257e-001 -5.2491470727677425e-001
      -3.2802575378591894e-002 -3.3054468788246066e-001
      1.2281503539702246e-001 7.6867202837994608e-001
      -2.6002037474507039e-001 2.2018228701088416e-001
      -1.2505376858533314e+001 -3.5334523149779462e-001
      3.3765247893754552e-001 1.1611452728791948e-001
      -1.7106863761552982e-001 -2.0708492909682846e-001
      -5.4116308569082394e-001 -6.0365390742341068e-002
      8.3581904970053389e-001 -5.2770786404305225e-001
      1.0926011589334375e-001 7.4360772533579658e-002
      3.8780027209659751e-001 -2.7329386262536270e-001
      1.3121913963812226e-001 -8.2007540814821867e-002
      7.8325562052198705e-001 3.3637249284082860e-001
      -7.8033401294648019e-001 -3.5626902296470787e-002
      -1.7995820789951247e-001 -4.6900968164590551e-001
      -1.1083279367463318e-001 4.8777223846718254e-001
      -3.4018502666256726e-003 2.0432065205797467e-001
      1.2314370915051058e+000 2.0401054633387411e-001
      1.5277451758628155e-001 5.3464349144365193e-003
      -6.2895065469433756e-002 -1.0901263828168922e-001
      -8.0293682779378728e-001 2.6845374303372738e-001
      -2.4116858794457335e-001 3.0259860661479165e-001
      1.9632108955169877e-001 -2.1250872337894250e-001
      4.9179162874188720e-002 7.0909619288829984e-001
      -3.5405231515836821e-001 4.4200646896738943e-001
      1.4009310997373284e-001 -9.6453177026655679e-002
      -3.6039780110961867e-001 -2.2038335188894412e-001
      -4.7728745507922982e-001 1.8340816336376284e+000
      -2.7590243911548040e-001 -4.2391726930310916e-004
      -2.3348053469008220e-001 5.8819904848691884e-001
      -4.0334562602644169e-001 1.4637915848753755e-001
      -1.5129162235520729e-001 1.7864856061331497e-001
      -4.5785474729464742e-001 -1.5598065473558738e+000
      -5.3364975747034464e-002 -2.7454367836009724e-001
      -7.1056361149841596e-001 3.2600609387443913e-001
      9.8569388995323437e-001 -1.8381040680371369e-001
      3.0745387633577353e-001 1.0097151368766348e+000
      -1.6287963654703791e-001 5.4591760730897476e-001
      -3.5541997707941059e-001 1.5291031516950502e-002
      -3.4416556880472338e-001 -2.5578964409184857e-001
      7.3904595922926652e-001 -2.0089693875367212e-001
      6.4557148670518572e-001 8.4400600606864593e-002
      -1.6972288867229438e-001 6.5082511625797979e-001
      4.3275961654100952e+000 4.9857533717799069e-001
      -2.5781677122960034e-001 8.8983643077985272e-002
      8.6238961284138005e-001 2.3327828139481602e-001
      -1.0146260220950554e-001 -6.8860541210993353e-001
      6.7761683484480784e-001 3.9654752809714638e-001
      -2.6959283281497071e-001 6.0791190456758404e-001
      8.4046309291217522e-002 -5.2309416274490247e-002
      2.3388501993242738e-001 -7.1258661005652521e-003
      -4.7146895913681897e-001 1.7349227995150621e-001
      3.8390871630572554e-001 -1.1853356215604652e-001
      2.8363832402032565e+000 1.5500579840396698e+000
      5.2385340041463946e-001 1.1601333505193623e+000
      -1.8694022974122251e-001 1.1011817138831372e+000
      6.7727391275338555e-001 1.4283148649152783e-001
      1.0973773435174680e-001 -2.3349941097729898e-001
      -3.5917724403412415e-001 -4.3097084257959001e-001
      1.4234149498716880e-001 1.7864196886746990e+000
      -1.1817880923539506e-001 9.0502697416676325e-001
      5.6047744080291617e-002 -5.4271607742150829e-001
      9.7728715313462888e-001 5.0626607714094272e+000
      -3.5723415957884130e-001 -8.1650193956590245e-001
      -1.5704928090208320e-001 -1.8171569079566024e-003
      -1.0925483094609793e-001 5.2530657569690797e-001
      -3.2589886521694422e-001 -4.5003498860821839e-001
      -4.1312841281540814e-002 3.1479541196762673e-003
      2.9656254776795143e-001 -6.2257172647301895e-001
      3.8125732365285719e-001 5.4556368846606507e-001
      -5.1691761631377275e-001 1.7058900229442880e-001
      3.2965639547118825e-001 4.1918424787498804e-001
      2.8595489845077471e-001 5.5299741142997449e-001
      2.1459884410454837e+000 5.8124128619368842e-001
      2.2997257412564854e-002 -2.8803561695512590e-002
      2.9413423662335564e-001 8.9690541398452228e-002
      4.1961632905205304e-001 -2.7702268803248292e-001
      -9.7798531784801229e-003 -3.9143138914565845e-001
      -1.1569314473849740e-001 -3.5900743289794440e-001
      7.5915475038927560e-001 -7.7544835399957698e-002
      1.2566608204332375e-001 1.5229369014200978e-002
      -1.0800487656783524e-001 2.3339388691818532e-002
      -2.6959178493659238e+001 -1.3011963500772999e-001
      -5.6953259966431538e-002 -1.3200806075800983e-001
      1.9699668259609598e-001 1.3973779170800690e-001
      2.0433849257211620e-001 -1.0253600033045332e-001
      6.1149984621597424e-002 -1.7407589794153810e-002
      -2.3174818101831932e-001 -1.8472850742241678e-001
      -5.0946655046783404e-002 -9.4614968712482192e-002
      -1.8897329927057299e-001 -3.1582471260524836e-001
      4.0326982847554832e-001 -1.5824177302091355e-001
      -2.6653926711913900e-001 9.9522453569944130e-002
      8.7587553164065468e-001 3.2025437459515149e-001
      -6.3507582552996891e-002 -2.9194966072848394e-001
      -3.0002780465147266e-001 2.0611767953124943e-001
      2.4655688061323461e-001 3.6680531097977681e-001
      -2.1192681805754020e-002 4.3386255333275572e-002
      -1.3504286285897488e-001 4.1063200032981401e-001
      2.0513051267662399e-001 -1.9983794870836269e-001
      4.7653384518844474e-002 7.0506736905597306e-002
      -2.5927134439970323e-001 -1.3613237912650353e-001
      3.0720377052411024e-002 -4.3880745250099814e+001
      -8.0262490499693795e-001 1.6922776617406293e-001
      -3.4136724694431531e-001 -6.3636293529085702e-002
      4.5229578890386074e-001 1.9543719301859175e-001
      2.9766670508984133e-001 3.6435697552151819e-001
      2.3461581226197670e-001 -4.5135056318525574e-001
      -3.6428967589397553e-003 2.5124676623212383e-001
      -6.6258919755665960e-002 -4.6976874040432842e-001
      -1.5578088507838680e-001 3.6677031203472027e-001
      -2.0690469312686335e-001 3.3689352011030593e-001
      4.7754929438652172e-002 6.9767341380231473e-001
      -1.2764025437237149e-002 1.8707629783193069e-001
      -3.5347600008719793e-001 -1.8788647956072124e-001
      8.3980929257265330e-002 2.2161842415133792e-001
      1.3221680371108169e-001 -3.0859147310130886e-001
      -1.5474783879723059e-001 -3.7656981866022932e-001
      8.3070556616988867e-002 2.6820615135585768e-001
      -3.2419353484583241e-001 4.5776333101758271e-001
      -3.9323060221028333e-001 -4.8039700128263647e-002
      -3.2966980844140537e-001 4.6119106696818990e-001
      -2.9484464779827707e+001 -7.1643718692543001e-001
      1.4325870090734399e-001 -3.9544063267168456e-001
      -7.2116719060680803e-002 5.0962178661456126e-001
      2.0715089930527764e-001 3.4892480639804579e-001
      4.0829204824675169e-001 2.7639243497606725e-001
      -5.2201629516603276e-001 -1.0680035549539128e-001
      2.8181584667456738e-001 1.0501079044495819e-001
      -5.2528831361869854e-001 -1.8259167066761689e-001
      3.5667827831110066e-001 -2.4023844281955414e-001
      3.9508693181159416e-001 1.0928510050870849e-001
      7.8535072904395364e-001 1.9032586672297486e-001
      2.3361372214579684e-001 -4.2899033658045055e-001
      -1.7688010379002647e-001 -8.0925458905189238e-003
      2.0343428051225693e-001 7.1322859430718366e-002
      -1.9366228333623220e-001 -1.8324215937501762e-001
      -4.2825387835549250e-001 2.3172206487593731e-003
      2.4340553805559506e-001 -4.2244771931700581e-001
      5.2991495812962508e-001 -3.1841142779792708e-001
      8.7538044144477759e-002 -3.7730928081887499e-001
      2.5642128409883641e-001 -5.4298727972756154e+001
      -8.5179691906879595e-001 5.7710468516015391e-002
      -3.7600552474079518e-001 -1.4679803477794995e-001
      4.4104452342773143e-001 2.6069257827685444e-001
      3.3514613541048527e-001 3.6138186146707690e-001
      2.5579165852930857e-001 -4.9202645302531095e-001
      -2.0297722973296256e-001 2.9354235831290171e-001
      1.9074391923252365e-001 -5.0753612692259831e-001
      -1.1424104119915315e-001 3.6547230727535929e-001
      -2.1206940297064938e-001 3.7102190132636753e-001
      4.6420430970659447e-002 7.6018536911054324e-001
      -1.4404246828481174e-001 2.1336089865230598e-001
      -4.1155264064106178e-001 -1.8782367678769912e-001
      -2.0669334030806388e-001 2.5614590980456525e-001
      6.3046576589845027e-002 3.8802893586246134e-003
      -1.7820559488406756e-001 -4.0230428179706712e-001
      4.4195999648026472e-002 1.8953200035958945e-001
      -3.6124259180512225e-001 5.0206120624870054e-001
      -1.3998640760336778e-001 -2.1852059174219407e-001
      -3.6249805762975501e-001 4.3665120797306761e-001
      -1.8704984175357848e+002 -4.8493332339465950e-001
      6.7734325372152654e-002 -2.4983065749239028e-001
      1.5254919205866965e-001 2.8005246311132220e-001
      8.4472630872406773e-001 2.0844139126813505e-001
      2.8436456798340048e-001 1.6024660737940516e-001
      -3.1377095730115134e-001 1.8742370406616007e-001
      1.9147403403643856e-001 6.9153854853852949e-003
      -3.3862592832853711e-001 -2.5095372253288550e-001
      7.5937489232574940e-001 -1.2087976152480134e-001
      2.5264523795746358e-001 1.0685905038727989e-001
      4.9506540674402555e-001 1.6616171997405432e-001
      1.4523314500809331e-001 -2.6322569443029464e-001
      -2.3458720126292543e-001 -1.6254009877293882e-001
      3.4496105645953690e-001 1.3856396753910530e-001
      -2.0580546825149731e-001 -1.2907376546793051e-001
      -2.7311781924939438e-001 -2.0267376151329011e-001
      1.3896854749818510e-001 -3.8353263108137492e-001
      3.2651241677907000e-001 -9.5417486603719057e-002
      1.3166677822205067e-001 -2.3264131797347859e-001
      -5.3966648218485180e-002 -6.4789198174176397e+002
      2.2028075447150210e-002 6.4317412945195121e-002
      -9.2929038813355902e-002 1.6410007651694407e+000
      9.5909575010710651e-002 2.1374885772686491e-002
      8.4519878922961658e-002 1.3927404885565425e-001
      7.1969860841123168e-002 -1.2463549376869462e-001
      -2.6644238978437387e-002 7.9443495163218303e-002
      -1.0251737487479840e-002 -1.1121449096155805e-001
      -6.7847924965784914e-002 2.3723017671276350e+000
      -4.1892582147917065e-002 8.6060053150879681e-002
      -7.5178215023320311e-002 1.7475043468685250e-001
      5.9879276756787086e-002 5.9573153853663810e-002
      -9.9010855066096110e-002 -6.2728129877126326e-001
      -9.2420094807981454e-002 -5.2138584885563700e-002
      1.4473423271672753e-002 9.9881587352462067e-002
      -5.9574042381074124e-002 -8.5046053372879932e-002
      7.7330380140549174e-002 9.1916348091469688e-002
      -7.1880845761630218e-003 1.2788714222298078e-001
      -1.9842244184862485e-002 6.4688260670877545e-002
      -8.8282496780969291e-002 -9.9208812795332557e-002
      -2.6451768893887904e-003 3.6013080163546890e-003
      3.4480197327711234e-003 -2.4594380468443942e-003
      7.1454432420461024e-003 -1.0566961773932554e-003
      -6.4624688966441425e-003 -3.2243418010457761e-003
      6.9323373732167381e-003 -3.6557675996600363e-003
      5.1760375219061508e-003 -8.3883246048654155e-003
      -6.7179994760317337e-003 -7.8552883022847621e-005
      -6.8273588835524816e-003 -4.2887229529320814e-003
      -9.8537495283235904e-004 2.3468607110913118e-004
      8.6219690724168054e-003 6.8402191843794707e-003
      -1.5488265215525159e-003 6.5900936604788157e-003
      -6.5519777565488475e-003 5.6794619835485328e-003
      9.0952544397421460e-004 -5.5532998774248023e-003
      -3.1455607205447124e-003 5.4573658590569146e-003
      1.5033143861875741e-003 1.8942592511453180e-003
      4.0005037349380122e-003 2.8749058147804949e-003
      -3.4021984855357361e-003 8.4903130546835227e-003
      3.1605708864767047e-003 4.5720798794101243e-003
      -3.0602521628006729e-004 5.9574993928541648e-003
      -6.1035073322739213e-003 -3.5968485926189040e+001
      2.0457568187096036e+000 1.8968411388986808e-001
      -2.1942660366252795e-001 -1.7230984599479753e+000
      3.8179515804348346e-001 -6.9770221028912782e-001
      -8.4359785581375010e-002 -2.3493088841436767e+000
      8.9819172597994268e-001 1.7200676677950935e-001
      -5.3117102481137035e-001 7.0702547386901682e-002
      1.1431943043073740e-001 -2.1535654803985607e-001
      -1.3243438738615838e+000 -1.9853388443179359e-001
      -1.4477561540465524e+000 -7.2938699658689721e-001
      5.8714694795316036e-001 2.5740294067174530e-001
      -9.3135063783195360e-001 5.2611867778085053e-001
      8.0160923291229602e-001 -3.4006603582286084e-002
      -2.2437322451745717e-001 -2.3739236306504349e-001
      -9.3780916162288142e-001 -3.6572996629549753e-001
      -1.7157101423166274e-001 4.1998177626643013e-001
      4.7176717378044397e-001 2.2697110199016593e-001
      3.2744418945472895e+000 -4.6730939952991685e-001
      1.5254821151129363e+000 -1.3083539158688047e+000
      -8.7548687204815609e-002 3.8907032551182208e-001
      -1.6502686170003194e+001 1.1762408026403759e+000
      -3.6634248880148307e-001 1.9568603140870616e-001
      -1.1452894049086679e+000 5.9206384221187947e-001
      -1.1764269655710378e+000 7.6710276902702146e-001
      -2.3754440003832018e+000 5.8248727920881160e-001
      4.5638981323613309e-001 -5.8441192443964374e-001
      1.1666628537363219e-001 -5.6762247794722304e-002
      -2.4943741647178094e-002 -1.7468507706651000e+000
      -4.5089057700029567e-001 -1.1523121645179064e+000
      -9.9098780166578049e-001 8.2986910041713169e-001
      9.2413527229451553e-001 -1.0115418840235353e+000
      3.9792807873746855e-001 2.1572396413155306e+000
      5.6557132174314395e-001 4.5259338817137157e-001
      -4.8286568611955583e-001 -1.0875499444153720e+000
      -2.9797170494086822e-001 -2.0620431950843657e-001
      7.4011730884543869e-001 8.2099471466714269e-001
      1.5242963563437256e-001 2.3048944219752983e+000
      -4.1511666382639950e-001 1.4276251701392928e+000
      -1.0066833903720223e+000 -2.6492482783045729e-001
      -1.3320028880371243e-001 -1.2797463248528810e+001
      2.9970696538336261e-001 1.8285506147861327e-001
      2.8101767980910375e-001 -6.2365711582459210e-002
      5.8241669230463466e-001 -9.9639254675938371e-001
      1.1238015414720912e+000 -1.3866796552801457e+000
      -1.4366593030350061e+000 3.7163411853670358e-001
      2.4855940684217012e-001 -3.2298530990534075e-001
      1.1551938290507277e-001 3.9608159057587675e-002
      -4.2503175505428470e-001 -8.7969584708871298e-002
      -4.8304117219725867e-001 -6.6268707100123392e-001
      4.9561315782915616e-001 1.5514857681459464e+000
      1.8442345630781959e-001 -1.3833488731420812e-001
      4.7985994843757068e-001 4.6102207478646628e-001
      -2.8532465512247185e-001 1.3882219455120852e+000
      -2.3003896107480751e-001 7.2396970149993345e-001
      2.3037157088249655e-001 -7.6474617792069627e-002
      5.4599667443009103e-001 1.7156921304083406e-001
      -9.7906187983144932e-001 -3.8077494255943239e-001
      -1.1957388131784266e+000 -1.2911063266319600e-001
      -8.8373769939946792e-002 -1.6795435383926888e-001
      -2.6999166994320621e+001 -5.3684655407211157e-001
      5.2377003427989544e-001 3.9646676747703741e-001
      -9.4291163258665012e-001 -3.1284467411516215e-001
      -9.2744788745255013e-001 7.2183358011181153e-001
      -2.6867176959763872e-002 -5.9166536519026491e-001
      -2.2974249834963718e-002 -3.1975333925753313e-001
      7.8922227521981803e-001 -7.4063007421586502e-001
      -9.3291191095076109e-002 -6.1201349169148760e-002
      1.0411719745646144e+000 -5.0790900707583397e-001
      -4.9973079124202213e-001 3.4777283908440598e-001
      -1.1577638260037866e+000 1.1736443107207519e+000
      -5.9362769303895735e-001 -1.2769834221868253e+000
      3.9201415320506383e-001 -1.5688348697063129e-001
      1.3273510829922290e+000 2.2259626457933787e-001
      3.4727219668697140e-001 1.0294150318247546e+000
      1.9889345416339391e-001 1.1360117429863552e-001
      1.9981992227516998e-001 -1.8891911177662215e+000
      2.8472910576766857e-002 8.4557753648707407e-002
      -5.5341973959001582e-002 -1.2291578545797063e-001
      3.6857986778238372e-001 -2.6759461518799817e+001
      -8.4228196638158570e-001 2.5731238365385078e-001
      2.6527196564991590e-001 -5.7464297659176655e-001
      -2.4532417536720813e-001 -2.7855684356725013e-001
      -3.6802358150362124e-001 -1.2727836731110134e-001
      -1.4922626713701778e-001 -1.9912869207798198e-001
      -3.7572346018401642e-001 4.7727596935556414e-002
      -7.3253863911076700e-001 1.5849229944120169e-001
      1.3468461598106570e-002 3.3713211380719493e-001
      -4.4193509750402576e-001 -2.6127041209781432e-001
      3.1543951406009274e-001 -2.1386212174644377e+000
      -3.1020251279963479e-001 -2.1908950735037880e-001
      4.9530763592162458e-001 9.3552407557921891e-001
      2.0834133437231916e-001 -1.8497251078264434e-001
      -1.9739883482899218e-001 -2.5543590467343991e-001
      1.0177854309220540e-002 -3.5774724220247706e-001
      -2.0282446925788292e-001 -2.6146058404099093e-001
      -1.2891675052539292e-001 2.1689641835955853e-001
      -2.1794884755810301e-001 -1.9457989039038040e-001
      1.5705929849553851e-001 -7.9381606204227684e-002
      -4.3087731958464364e+000 -7.3804429301358410e-001
      3.7943371428129558e-001 4.9587991255990484e-002
      -4.6274434955061600e-001 -2.3278192398831654e-001
      2.1026709409791933e-001 -3.1801598362584477e-001
      5.8496043712546819e-001 -2.5299416778266115e-001
      -2.7227909686197432e-001 1.0661065710882527e-001
      -2.4609785708376369e-001 -7.4037971984296416e-002
      3.1492598157469393e-001 -1.7592974497824043e-001
      -1.9959996443223216e-001 -4.8102114464677154e-001
      -1.1500764724011855e-001 2.2311548645015677e-001
      -1.8742750116047200e+000 -6.5636419992550565e-001
      2.1629305195038909e-001 1.1290381961088118e+000
      8.7757543696993867e-001 6.1312657270306749e-002
      -5.2277000303962207e-001 -8.3988815121642546e-001
      4.4478643553239194e-001 1.5329343753263345e-002
      -3.3201492100249702e-001 -3.9611544729167759e-002
      -1.8177312851367985e-001 5.4275476835390357e-001
      2.5631166985775422e-001 -1.3440265777151172e-001
      4.5471627007199644e-001 1.5323464764774700e-001
      -7.2958639724807184e-001 -1.7182978065534931e+000
      1.2568472206046594e-001 -3.8586471527691468e-001
      2.1593758356834494e-002 3.4023652201332100e-001
      5.8547652965114827e-002 6.4478772344098600e-002
      -2.8681964813032013e-001 -3.2254313745039009e-001
      -2.5187210450441788e-001 -1.5932022253968697e-001
      4.9071264776894502e-001 -1.1841688863494483e-001
      1.0654630725824175e-001 3.9436743584476386e-001
      7.2897475858767422e-003 -1.8276028141125156e-001
      -3.4856189503743201e-001 4.6598185734632946e-001
      -2.1822088815765239e-001 8.6640617876611126e-001
      4.3173853002508872e-001 4.2149598997575927e-001
      1.0001099095518349e+000 1.7169039639322753e-001
      5.8924150924242535e-001 -8.2809296134334229e-002
      -8.1544242680922607e-001 2.5812124860406316e-001
      -1.4774838185588494e-002 -4.4235574208644124e-001
      -1.7634195963911373e-001 4.0010817015328953e-001
      1.3382399095021413e+000 1.3648475817162542e-001
      -6.9914353487849606e-002 1.2528765782743603e-001
      -1.5723093278487166e-001 -7.7407326602437149e-003
      1.9770358885201589e+000 6.0485917607677775e-001
      2.1580619569294102e-001 2.5717748736385167e-002
      2.4541000714602243e-001 1.6603362213010779e-002
      2.8678630742099370e-001 -2.5647585913805566e-002
      3.5749297977797523e-001 -1.9360205097214864e-001
      -2.7537124434945592e-001 1.1481169338591353e-001
      2.7095455120106454e-001 2.1399466629960513e-002
      1.4087421731618904e-001 3.1281244326515312e-001
      -4.2828272072747517e-002 5.2352439836914934e-002
      3.1840381070088841e-001 -2.7226702905280076e-001
      1.4653565203631749e+000 8.9795052818819943e-002
      4.5893695104408960e-001 7.2040624880865933e-002
      -4.9155536657963472e-001 1.1884907763103859e-001
      4.9661549306993885e-001 1.7069137865778297e-001
      3.4687894933339025e-001 -2.0479594407401120e-002
      2.3737779013376988e-002 -5.4240068765476690e-001
      3.5277510896256598e-001 1.7022494578929359e+000
      6.2302456282796639e-002 2.9885109587689307e-001
      1.0376827935374004e-001 -1.3316856143751904e-001
      2.2082687839784296e-001 -4.2060180484806985e+001
      3.2710677813830101e-002 -7.1771001357227679e-002
      -1.9143662993746041e-001 -4.2478790626288815e-002
      1.9562299028402019e-001 1.0891531478394273e-001
      5.0054562879058039e-002 2.5492281650921489e-001
      1.2657079423417839e-001 -3.1176461543358236e-001
      -5.6627379474504892e-002 5.1693324519978628e-002
      7.8804340044032084e-002 -2.3885366140122793e-001
      -1.2530259975624766e-001 1.6524493387819630e-001
      -1.0080128513563393e-001 4.9873003442254170e-002
      2.4905035347448277e-002 8.3332908226942704e-001
      3.9434474772506645e-001 9.8164430822812010e-002
      -2.5664111639760689e-001 -1.1115484085114882e-001
      -2.5386757273311300e-001 1.6308000036023024e-001
      2.9704985612077250e-001 -2.1838001662991180e-001
      -7.4694638679693892e-002 -1.6000256671043125e-001
      1.0392848433350674e-001 -1.8405711911122255e-001
      -2.4373641541851937e-001 2.0735229335955216e-001
      3.3731049141014730e-001 4.3008275403975407e-002
      -1.7985743921845460e-001 -3.8945897260808865e-001
      -3.9983822112916904e+001 -2.2603031522970229e-001
      1.9533513194682375e-001 -3.4714559320030053e-001
      -3.0332553914495099e-002 5.0472324627363641e-001
      4.1658287700847990e-001 2.9445961920545471e-001
      4.0453378204042117e-001 2.3429756485764136e-001
      -4.6022240698880590e-001 2.3897274153902467e-001
      2.4697081591344783e-001 1.9174554299602650e-001
      -4.7783562629203635e-001 -2.0904084618258931e-001
      3.0173379301421516e-001 -2.2465804796277911e-001
      3.4778299740675789e-001 -6.3586641080796785e-002
      7.1712764352477210e-001 1.2935170502763671e-001
      1.8299273258168366e-001 -3.6927730993163910e-001
      -2.4895502574384212e-001 -2.7433660970476664e-001
      3.7311936110707355e-001 7.2502333325522084e-002
      3.4763130244633234e-002 -1.6027570563028193e-001
      -3.9329646202020924e-001 1.5066398104816952e-002
      1.7386291055115818e-001 -1.2893667586191124e-001
      4.6217213154478359e-001 -1.6363734496526111e-001
      9.3739913433234720e-002 -3.4319444673373201e-001
      1.7212258351014523e-001 -2.4822097115841185e+001
      2.5819547649525872e-002 9.6719854475240924e-002
      -3.7921036361396837e-001 -4.3456135045087510e-002
      4.7923069498611087e-001 1.7750551674900913e-001
      3.2772327351073582e-001 3.4624730895454897e-001
      2.5290008218401527e-001 -5.0811931879565730e-001
      1.0073247812058921e-001 2.8869399903707604e-001
      2.8231484428087145e-001 -5.1156217716969365e-001
      -9.8071845677964675e-002 3.2159782579886359e-001
      -2.4592431536394099e-001 3.8417721756264361e-001
      5.5953975293282769e-002 7.6525424848472146e-001
      5.6805100355164073e-001 2.1503143729844731e-001
      -4.0716669260345523e-001 -1.6925121611528590e-001
      -1.9531284569149729e-001 2.7726206885361443e-001
      -4.2847851331457949e-003 -5.4549562651073046e-002
      -1.7925634731512632e-001 -4.1094915972642698e-001
      -6.9097386464977942e-002 1.4221259789887741e-001
      -3.1241248370216157e-001 5.0988262349288016e-001
      -1.5965515242911613e-001 3.9799712424914313e-001
      -3.6557708479973527e-001 -2.6432377277995150e-001
      -4.6684622767766292e+001 4.7147746038629634e-001
      5.0481406121490643e-002 -3.7604854720354475e-001
      -1.8544302230231269e-001 4.2897255738806422e-001
      1.1768803350490788e-001 3.2049316068430567e-001
      3.4658280878201059e-001 2.4059672339549901e-001
      -4.8725547439179095e-001 -1.0150444752849115e-001
      2.7113757108550784e-001 1.5326548108993979e-001
      -5.0586689284055042e-001 -9.8531354239340310e-003
      3.3069063798076592e-001 -1.8852616906383857e-001
      3.6493229714810010e-001 -4.7837701014391658e-002
      7.6020217938993628e-001 6.4089211585856998e-001
      2.0483656627218644e-001 -3.8777659434401490e-001
      -1.6014281028000280e-001 -2.4664415090048444e-001
      2.5703017740569895e-001 9.9480861557386238e-002
      5.9410906817980717e-002 -1.6952320021559453e-001
      -4.0844207173382852e-001 -5.1187497693982925e-002
      1.8378725417915120e-001 -3.4564229683073577e-001
      4.8573579927451049e-001 -1.2080253633348399e-001
      3.9630129486364241e-001 -3.5001865068608656e-001
      -1.4367889164429015e-001 -6.6579548782278380e+001
      -4.2074669282236449e-001 9.0294993532858359e-002
      -3.0528007653815858e-001 -2.5644857065749610e-001
      3.5802658855796654e-001 5.9644657597795603e-001
      2.7079939912649914e-001 3.2600528318169625e-001
      1.9979172452754190e-001 -3.8693832833603092e-001
      6.9902358590776441e-003 2.1666281247455391e-001
      3.6930829181087262e-002 -4.0670321552007260e-001
      -1.3075459888452498e-001 3.4286258652568580e-001
      -1.5934483994876134e-001 3.0716393138428255e-001
      -5.2852491411619004e-003 6.2394877655346315e-001
      2.1452923910874266e-001 1.5458892031000884e-001
      -3.2328447346373529e-001 -1.6924143114427065e-001
      -1.9838096817322426e-001 3.3497901017274501e-001
      1.4637214695711670e-001 -9.5005584272613283e-002
      -1.4404654551411075e-001 -3.4076072819519060e-001
      -4.0021508137751363e-002 1.8779816453069464e-001
      -3.9950987016706579e-001 3.9950525154310673e-001
      -1.1040269399089428e-001 1.5391130148238383e-001
      -2.8211772410798619e-001 -9.6571803193921446e-002
      -6.5950364969831625e+001 7.7062873114506533e-002
      6.0299204543913312e-002 -1.3473237934410329e-001
      -4.3021130196560734e-003 1.5433067804862211e-001
      6.0752046892055336e-003 1.1794317616159450e-001
      1.9177885022393545e-001 1.0012718165922202e-001
      -1.8348032176895501e-001 -1.0046983181251200e-001
      1.0788709026911825e-001 -1.5527657286878301e-002
      -1.7782026772454301e-001 -6.6892443707898694e-002
      2.7937901199504500e-001 -5.1524909721523529e-002
      1.3482159898027057e-001 -7.5308292291633508e-002
      2.5830328985390105e-001 9.7523700652598105e-002
      8.4607150878137402e-002 -1.5213760509039373e-001
      -1.1010626480781405e-001 -1.3861269682860294e-001
      1.5439558358261724e-001 1.2833245388312997e-001
      1.8445952678646113e-001 -8.8915487639718807e-002
      -1.4078520069291223e-001 3.1101221004407976e-002
      7.2940976645192265e-002 1.1107997611323467e-002
      1.8293605108445113e-001 -3.7609338582284997e-002
      9.2646841646765343e-002 -1.2882735582979851e-001
      -1.3193196148141073e-001 7.4910048721941076e-003
      5.5506011198027993e-003 -2.4863782044490836e-003
      -3.8733693623444389e-003 7.4245118134066658e-003
      -6.3411793185829072e-003 8.5803460173318781e-003
      2.1818453025283503e-004 7.7819974889688096e-003
      -4.3995148209756800e-003 -3.5330785848545800e-003
      1.1846051168304223e-003 -5.9925633175194311e-003
      3.6476004941851286e-003 5.5460118876051413e-003
      7.8065444088942833e-003 7.6252717852932873e-003
      6.3521093665699895e-003 -6.9957451665681883e-003
      1.3857430707458492e-004 -3.3237538100795070e-003
      9.7328498264556836e-004 6.7999476274230499e-003
      7.5951211264349483e-003 -1.1913374490635666e-004
      7.0034879234122617e-003 8.6369875090301969e-003
      -6.7096050121247140e-003 5.1698271368039493e-003
      -3.7778456737909212e-003 2.3548325634348360e-003
      -1.4179035520704925e-003 6.1020246088491405e-003
      2.4776132806701512e-003 2.9342782635924385e-003
      -5.5594371701172879e-003 -4.2559655867943722e-003
      -8.5774696617993054e-003 4.3593324372416271e-003
      -1.9004858674291924e+001 5.4749448503127673e-001
      -2.5619673889972211e-001 2.4249209013609807e-001
      -2.5624839159230473e-001 -3.7083400232900776e-001
      -2.4876479377379812e-001 7.6192422723623665e-001
      -1.0872037550774101e+000 -3.1748146004165639e-001
      1.6232177827067576e-001 -3.4650478129343287e-001
      -1.4678780860323307e-001 8.3323591481721804e-001
      8.4714433100073483e-003 -7.8572963894162584e-001
      -2.1967259785562754e-001 -3.4290186227239838e-001
      -4.2583839364260419e-002 1.0068776104829544e-002
      2.6791046021159243e-002 -3.3719635261361103e-001
      -8.5250893231321137e-002 -1.7381755960512563e-001
      -2.4022141997529048e-001 -4.5780690087232656e-001
      -9.2425838563883034e-001 -3.3296410227588225e-001
      -8.4817495711322216e-002 -7.1879158715486946e-002
      8.3695456931339091e-002 4.7670597088999894e-001
      -8.8639345729497776e-002 -6.5091507197782783e-001
      -1.1721280398849827e-001 1.5936597034663116e+000
      -2.8567998086431018e-001 1.6686216194536022e-001
      -4.6036753481326055e-002 -2.1240872328120439e+001
      1.0837869513367369e+000 1.5056538876218295e-001
      4.0059457805806947e-001 -2.2571385295356883e-001
      -7.4325504808123666e-001 4.2324030319125716e-001
      1.2208037861482581e+000 -4.2331380568374272e-001
      2.2797098536520170e-002 4.8030311891642424e-001
      -7.2607841262306472e-001 2.4585894306275133e-001
      6.3925455292378186e-001 -4.1251042659775039e-001
      -1.2262676346960104e+000 1.4384250276808447e-001
      5.9713122667225470e-002 -2.0841810775311056e+000
      -9.2441479008037797e-001 1.2921584931594656e+000
      -3.8498107347277516e-002 -4.0000651611953397e-001
      -1.4814205892407015e-001 -5.7991904425727137e-001
      -1.0596295161672120e+000 -8.6390525011674879e-001
      1.3765270138739235e-002 -4.5710402689475231e-002
      -8.4193697707824366e-001 4.5878912035222713e-001
      9.1234752450473439e-002 -1.2335863381489140e-001
      -4.4448509788159549e-002 1.6669106033269734e-001
      1.8183232611532596e+000 -4.3879941985271437e-001
      1.6906975656355694e-001 -2.4353471355000095e-001
      3.3647225000677587e+000 4.5790164327094862e-001
      -2.2323931540875855e-001 1.5617165436827662e-001
      -4.1108755846728934e-001 -5.7656699675130520e-002
      -7.2321387131410053e-001 8.6248535522544767e-001
      -1.8568781419527807e+000 5.0397563054581229e-001
      1.0882175157071511e-001 2.3985184514464397e-001
      6.7320387039534038e-002 5.0704646132137143e-001
      2.5196374193844445e-001 -5.0521112090615949e-001
      9.1008737086024705e-001 2.2962629750176311e-001
      5.8606568909765633e-001 3.9757539877164261e-001
      -8.3937531406078858e-001 2.4443253730812933e-001
      1.0468475985104978e-002 -4.5892534901599218e-002
      1.1847198981907703e+000 -7.5480202096941407e-001
      -4.1781042258784434e-001 -7.0906729581905148e-001
      -8.4266031245954154e-001 -5.5911856046944231e-001
      -1.3510443042647613e-001 -1.4963921190180749e-002
      -4.7713778719409083e-001 -2.5628045849168996e-001
      -6.5686155524588313e-002 3.2910280682476239e-001
      -2.8409903237525863e-001 -1.1165404249554996e-001
      -3.1252766416716204e-001 1.6794519944605561e+001
      -3.3317098198115802e-001 -3.8641119495308052e-001
      -5.6839851350486484e-002 -8.4527968365910111e-001
      -3.2788140777354902e-001 -8.5008014517583474e-001
      1.2183195770205077e+000 -2.3415060003858592e+000
      4.0129009112169906e-001 -5.4468223695370598e-002
      2.0487915278419655e-001 -2.8566384864757655e-001
      7.4783776551853587e-001 -3.6692333385409025e-002
      -6.1124153038797491e-001 5.0449955014906611e-001
      2.6002407282806023e-001 1.3744835668929309e+000
      9.1191900676179760e-001 -2.0110646725066785e+000
      -9.6349573176389813e-001 1.4015121635537461e-001
      -3.5018642620686397e-001 -3.8941868610367379e-002
      -6.2426654600014775e-001 -7.3515832527357627e-001
      -3.3393241060999629e-001 -8.6967125653656385e-001
      -8.9062232915547879e-001 -4.6485969130178925e-002
      -6.9430492932732080e-001 -4.3821820355517915e-001
      -8.0726521545490193e-001 -1.0974939615692694e-001
      5.1584660169406778e-002 6.7652442392679646e-001
      -2.1140492538907482e-001 -1.8211216159089669e-001
      9.8202094264788720e+000 -8.4145402341050957e-001
      -1.7709001025583615e-001 -2.7848311091790834e-001
      -5.5557092795392748e-001 -1.3616958948804181e-001
      2.8654454979059170e-004 -1.9731238949972103e-002
      7.6815052352557339e-002 1.8250269926384105e-001
      -1.5816648816107851e-002 2.5288903026955506e-001
      1.5189223820150295e-002 1.2336875874255568e-001
      -6.0418633355962803e-001 -5.2234492024744039e-001
      -3.6278155575126114e-001 5.0500226623187416e-001
      -8.6011464442791410e-002 1.8953785138735435e-001
      -4.3158440851731505e-001 -8.2614301468653040e-001
      -1.1660981964918189e-001 5.9462646023903970e-002
      -9.0991139567878221e-001 -3.9302975066224771e-001
      -1.0091587182417290e-001 7.4367138860919768e-001
      -3.9582867792850990e-001 -6.2786630065041749e-001
      7.7764561989417488e-002 -2.1842500908050999e-001
      -5.5378396638535021e-001 -1.0826925507460914e+000
      -2.7419234779031443e-001 1.5310902243950616e-001
      -1.8745444607888120e-001 -2.5297760693303162e-001
      -1.6635824290056386e-003 4.0980498753708519e+000
      -8.3315739139675704e-001 -5.6648569321122955e-001
      -4.4754930456233194e-001 5.0118281462125359e-002
      -2.3070128010645205e-001 6.9196688287923469e-001
      -4.5324541752588798e-001 7.5064964645198240e-001
      1.4295214178295737e-001 7.3078024494677790e-002
      -3.2065189260863058e-001 5.6500988229695792e-001
      -2.0354210430688255e-001 -3.0265417117469889e-001
      6.9272800127398018e-002 -3.0441875601165452e-001
      1.4079702175797654e-001 -4.8176422719999384e-001
      -4.8554286164483190e-001 2.9131098555066254e-001
      -1.1836203677778130e+000 1.7158431099444219e-001
      3.5965999521660996e-001 -6.1948404552945424e-001
      7.0184232202479144e-002 -1.6299469900129410e-001
      -2.2261297067811547e-001 2.3654376708941163e-001
      -2.7869359591160231e-001 3.4065332683247068e-001
      -3.9254774893123273e-001 3.2061854527911343e-001
      -1.2960353322017359e+000 -2.1342863362781911e-001
      -2.4532884513724562e-001 -2.8511754118141891e-001
      -1.2346745017499612e-001 1.0965348342115919e-001
      1.2109750998416574e+001 2.3855406137473226e-001
      -2.8302583187938501e-001 -2.3342996243499370e-001
      6.9034848223238598e-001 1.1352578650990194e-001
      4.7452335205586349e-001 -2.7638283347338788e-001
      -1.1126047926016598e+000 -1.7277817525256586e-001
      9.1017304178392683e-002 3.5460025057786243e-001
      4.7755810513147046e-001 1.1220597338530876e-001
      3.2516499760664364e-001 -1.4005576805971476e-001
      1.8459065271212968e-001 -2.1615242044734542e-001
      6.0610421910617218e-001 2.5529298300179959e-001
      -8.8453857250678758e-001 1.6580942430190876e-001
      4.6133155839333845e-001 1.0048268017069635e+000
      2.1871806165102331e-001 2.2580460257786281e-001
      -1.1637110870412537e+000 -1.2932196241170653e+000
      -3.1839784944095076e-002 1.6894345900708452e-001
      -4.8502020409143816e-002 -2.4024273660525522e-002
      6.4024853293834150e-001 -2.2210862313356480e-001
      1.6211463768062789e-001 -8.7012188522008471e-001
      1.1507068329862198e-001 1.7801896765084188e-001
      -9.3498950102563883e-001 2.2310051864495485e+001
      7.4421885906426233e-001 4.3690672867223952e-002
      2.0583061178709275e-001 4.9380394726824711e-001
      -1.5425355276527244e-001 2.3766950020331226e-001
      -3.0911608869467394e-001 -4.7427456285244651e-001
      -9.8150889098593638e-002 3.6590068177952129e-002
      3.6244451244631465e-001 -8.5237070131216605e-002
      -4.3799491822409928e-002 2.5583812546832807e-001
      -1.1127253286124797e-001 6.4030409161093163e-002
      -1.2205611288398238e-001 1.7233099876731844e-001
      7.4423258261395002e-003 -4.0090234177459017e-001
      1.7767883688277317e-001 1.5535758812788297e-001
      6.1634526447602267e-001 4.7592356197067712e-002
      6.8756174554043883e-002 -1.2236048381582733e-001
      -6.0485651963066767e-001 -2.4112776738502809e-001
      6.9907704158293379e-002 -2.4782588287957749e-001
      -4.0665790730325287e-002 -1.7592992512885133e-001
      1.2078193970133269e+000 -8.9392757352095786e-002
      -2.2553102893248994e-001 -3.2130206940800338e-001
      2.7284328514334205e-001 -2.0008626054774023e-001
      1.3541008146045172e+002 -5.9453744497008820e-001
      7.6146408137172231e-002 9.3232652701146460e-002
      1.8302518551710417e-002 -1.0217620730512256e-001
      -9.7049363109670023e-002 -2.6526470464458624e-001
      -6.5166248572328223e-002 4.5154314174449513e-003
      4.4262020956823203e-002 8.5761579673305027e-002
      -9.3087445393323046e-002 -5.7028263225717324e-001
      1.1276510600544021e-001 1.2900482014989008e-002
      -1.2334058330157043e-001 3.3284145837165505e-002
      7.4587538786751867e-002 -9.5524971133055123e-002
      -7.6352874764875969e-002 -2.6117753205034933e-001
      -1.0286615479946502e-001 2.2483922345260071e-001
      3.0157491708252260e-001 1.1057659740336931e+000
      -2.4103923760327725e-001 1.0818119027182695e-001
      1.3959474464062255e-001 1.2296198862064182e-001
      1.8294991224538004e-001 5.5771297181967848e-002
      -4.3481322122463820e-002 -3.6209366120283457e-002
      -1.4274073547435862e-001 -3.8502052121823616e-001
      -1.2363900274321420e-001 6.6002280336838706e-002
      -1.0526294046402888e-001 1.2896286692771682e+002
      1.5544522169340622e+000 3.6208762668242178e-001
      -2.3108210587662742e-001 3.2478788884556836e-001
      4.0797000728067018e-001 2.1778305446357663e-001
      1.9321469351158288e-001 2.8433743621142626e-001
      1.5486210372811024e-001 -3.0112505035573062e-001
      1.0915561393582499e-001 1.3919048673378276e-001
      -2.3402260203223857e-001 -3.1151819920486490e-001
      -2.8787119387382881e-001 1.7925375600991098e-001
      -2.4281831670119314e-001 2.2127327371467523e-001
      9.5240324308759713e-002 4.2819267317507931e-001
      8.2599170187634474e-001 1.3153948236104768e-001
      -2.4252671602067566e-001 -2.0316418972328040e-001
      1.0184491832831857e+000 1.0119740942986337e-001
      -1.4170374227939644e-001 9.3984739099600562e-002
      -1.0373617747093818e-001 -2.2765479135796998e-001
      -1.2782941823026955e-001 3.2870385476434394e-001
      -1.1624224225622844e-001 3.0485533702771989e-001
      -1.0055589669602967e+000 6.1345763885790816e-001
      -2.3082863065263320e-001 2.5716235696088374e-001
      2.4298022187607074e+001 -1.3280761605737645e-001
      6.0422080079955920e-002 -2.6952963577261768e-001
      9.3317950545771435e-003 3.2791078594470097e-001
      2.1767097872208882e-001 2.3546955699369715e-001
      2.1973741004144157e-001 1.9865255160429568e-001
      -3.6010428382548221e-001 1.0035103754916604e-001
      1.9933265715854562e-001 2.6396855247422885e-001
      -3.6316162947987418e-001 -6.7558504627710098e-002
      1.9264237261955380e-001 -1.8589427595508698e-001
      2.6038125113127819e-001 9.0421574439422947e-002
      5.2736173519175278e-001 4.7497320109327323e-001
      1.6333754737694192e-001 -2.9856036234323052e-001
      -1.3217156922701195e-001 5.0933487872173798e-002
      1.9219157715971102e-001 -1.1895031921792780e-001
      -3.3228893297170170e-003 -1.4087090225937360e-001
      -2.8194777971788931e-001 -1.0413095696540775e-001
      1.1077533284107631e-001 -2.5168596932146148e-001
      3.5720121629231583e-001 -2.1992363419484812e-001
      2.8769068055443847e-001 -2.6810297982848164e-001
      -1.2385350741484109e-001 -4.1295599544136905e+001
      7.8879178793043170e-001 3.5999831984140605e-002
      -3.4011576242370051e-001 -1.4053792548552482e-001
      4.1813492205875102e-001 -1.7250447172648356e-001
      2.9907660729986524e-001 3.1772628486130722e-001
      2.4317808837872373e-001 -4.4489233992328536e-001
      -1.5521845550795657e-001 2.6129812107571682e-001
      1.4028209359686705e-001 -4.6883867785091543e-001
      8.1118886527293516e-002 3.0367992148078132e-001
      -1.8055306415048727e-001 3.4566561828374054e-001
      -8.8020487269604167e-002 7.1280024619813709e-001
      7.1805763011289547e-001 1.8760681347959174e-001
      -3.7440736214805970e-001 -1.2332103062932213e-001
      -2.4548043245233228e-001 1.2271257555562856e-001
      1.1183749906713811e-001 2.1439346514263966e-001
      -1.5658687695487342e-001 -3.8146770061764157e-001
      -7.8805908297147537e-002 1.5786385422817839e-001
      -2.1854596952186475e-001 4.5934580494828731e-001
      -1.3984913534942256e-001 4.6552500223830273e-001
      -3.3447653169571001e-001 -2.0858771597101786e-001
      -2.5183788462383948e+001 -4.0072489579344633e-001
      1.1270767363861450e-001 -3.1858403516960881e-001
      -2.8269039421611664e-001 3.7579939700002618e-001
      4.9192514109771790e-001 2.6970809602860379e-001
      3.1517499288284273e-001 1.9614427378119664e-001
      -3.9461583721329835e-001 -2.9338837826490331e-002
      2.2710949185959689e-001 -8.8377782457723583e-002
      -4.2392137122380236e-001 -6.1985907695821872e-002
      2.9902464008195551e-001 -1.8984028035887957e-001
      3.0757895236519323e-001 -4.1742352591615205e-002
      6.4968924178337484e-001 2.1867055755743309e-001
      1.5728678205666694e-001 -3.2385666915105421e-001
      -1.5895015947260371e-001 4.7850804970887756e-002
      2.9033581062350783e-001 1.3623089651335124e-001
      9.4264920561587653e-002 -1.2890583359581423e-001
      -3.6220797101605751e-001 -3.7933856227808947e-002
      2.3947191603292292e-001 -3.6042745115484209e-001
      4.0779501013020203e-001 -3.1682876911835323e-001
      1.5659706338625221e-001 -2.8506589979212066e-001
      -5.1469649745688253e-002 1.4290051911196846e+002
      3.2524609261839151e-002 2.2732808450877626e-001
      -1.4769020079573753e-001 -6.9117440671055810e-002
      1.7099792133657607e-001 -1.7993871411395659e-003
      1.3481494921205386e-001 1.8652024580011883e-001
      1.1148964413128709e-001 -1.9404611235193039e-001
      -2.1777703838386668e-002 1.2106851230930019e-001
      -8.2854074629630636e-001 -1.8736670578067177e-001
      -7.2305756143637781e-002 1.8972596240734149e-001
      -1.5904878499057959e-001 1.4175399797293806e-001
      9.0094818557416943e-003 2.9217227245308852e-001
      1.2417629678019851e-001 9.7455614195844184e-002
      -1.5424831355816010e-001 -6.7469532616276237e-002
      1.6267975415303939e+000 7.5468423773742715e-002
      7.5260576259560411e-002 4.1188123093309707e-002
      -8.2017619067878661e-002 -1.3982070299137742e-001
      -3.0911323053700531e-002 4.2812512618834303e-001
      -1.9648805365384753e-001 1.9206450381933049e-001
      -1.3462105469507817e+000 9.2933103865695171e-002
      -1.4099696651562954e-001 3.0671966062630912e-001
      6.7620624919571537e+002 -1.1885188418968103e-001
      7.1400594434394971e-001 -1.8761323503467157e-002
      6.5706352425442020e-004 1.7934253980405952e-002
      -3.0712420415773035e-002 1.2311935423139875e-002
      7.7457447630331772e-003 2.3068419654405686e-002
      -2.0033344444270622e-002 2.9444795518169576e-002
      8.9682769006533894e-003 -3.0062746312164563e+000
      -1.8910960316091827e-002 -1.1423063479818875e-001
      4.3563408891166694e-003 -4.1318428328584816e-001
      1.9036190679800884e-002 1.7178943252085768e-001
      3.1418323638197736e-002 1.0914955906925417e-001
      8.2065873613404901e-003 -2.0370273373564694e-002
      1.6650117709097429e-002 6.5263131360055171e+000
      1.0861001078185354e-002 -1.3415733373389524e-001
      3.0223973209877832e-002 -4.7582214250452030e-003
      -1.6479206900334730e-002 -1.2630841647331539e-001
      1.3685279376274817e+000 -7.9587973602649231e-001
      2.8608040932076959e-002 -4.8397310808064420e+000
      1.1341843835933249e-002 -1.9543389734063981e-002
      1.6447469323205124e+000 -5.9380031530890154e+000
      -6.5418004054692502e-001 3.5292981311317995e-001
      -2.1696970096789558e-002 8.8358018817787085e-002
      -1.6221814111475508e-001 4.7534834249650554e-001
      -9.8012663271273476e-002 -3.0512729790613979e-001
      -6.6973914127950285e-001 2.3892798453158234e-001
      -1.1629656852121837e+000 8.5687906015143278e-001
      -5.8057846353140367e-002 -2.5043927132464350e-001
      9.0727086731125872e-001 -1.5387639220075797e-001
      -4.3472983197633225e-001 -1.2208153389994010e+000
      -1.4551044971831286e+000 1.1940456810402060e+000
      3.8430814604626895e-001 -4.3396823901525196e-002
      -8.5953306927475071e-001 -2.6912298754631875e-001
      -1.0328809637770148e-001 -1.2899226736296465e+000
      -1.2522390336949688e-001 1.0090030411159855e-001
      -5.0481265813780396e-001 1.0296800564281723e+000
      -1.5257703035285755e+000 -2.7838651593929176e-001
      -1.7014852557888680e+000 5.5626641650033248e-001
      1.3914263234590845e+000 -2.0280164727075520e-003
      1.5058664148544951e-001 -9.0631873831073462e-002
      1.1662107622928971e+001 1.5043697527270894e-001
      1.9081692606351394e-001 -1.7001199136050330e-001
      -5.3687141580884418e-003 2.3759567968563006e-001
      7.1247810833825975e-001 -1.1944374913821723e+000
      6.9039100097790485e-001 1.3400899212255750e-002
      1.8949287374890844e-001 -7.2302121249551141e-002
      -5.0172997570342526e-001 4.9180890630164692e-001
      -4.2742239454229325e-001 -2.5351645353310964e-001
      1.9037411876907845e-001 -2.4681507182799087e-002
      -2.9823258615348508e-001 -2.5764760705689693e-001
      1.1540756698495855e-001 1.1757107895844499e+000
      2.7464932130189501e-001 -1.1437584805013576e+000
      8.8449834121275467e-002 1.0593577572307784e+000
      -5.5454629936020794e-001 6.5034499025109038e-001
      3.8432137814308742e-001 -1.7920699550151381e-001
      -4.9461985687875687e-001 -6.0094177397014080e-002
      1.7128071784313037e-001 -1.0352520967273573e+000
      7.1433175814534358e-002 3.6226124385493781e-002
      5.0007280629581330e-001 -5.8759048812587300e-001
      5.4083664885455862e-001 3.5476328409267524e+001
      2.2826673267099079e-001 5.6939952196525834e-001
      -3.8998085619044875e-001 -1.0789486451907968e+000
      -1.1710021478948339e-001 1.8250114604445489e-001
      2.8322300461986938e-001 4.9506057804431108e-001
      1.1882854122547003e-001 1.5320259046322504e-001
      -3.1790494070560299e-001 -5.6978408589457674e-001
      2.9429490488928201e-001 -1.9157908116612291e-001
      -1.2873523120753043e+000 1.4093288573887797e-001
      -4.7138477532254786e-001 -4.5650268250518411e-001
      -5.2468522483211955e-001 3.8913820551215578e-001
      -2.6181672137600970e-001 3.5640974706483236e-001
      -1.1625123808435989e+000 4.7906710934651109e-001
      -4.0232911698670520e-001 -5.1167100332926385e-001
      6.4709451450667799e-001 2.1288139263986924e-001
      -3.0416781378482843e-001 3.5765122131138034e-002
      2.1184461925838874e-001 4.8646302076089060e-001
      -7.3275008069507996e-001 -1.0015810427899396e-001
      2.9854347040243638e-002 4.9655211864050919e-001
      -1.9280358245084450e-001 1.0943011657400521e+000
      2.8868259848676843e+001 -6.5659420535874979e-001
      -9.7046426790192861e-002 -2.8706833518731356e-001
      1.0086389650048391e+000 -3.5865836490418140e-001
      -4.7505345777778046e-001 1.0349222645763425e+000
      -8.5241064747731476e-001 8.6212248782051792e-001
      5.3642973404720740e-002 -2.8813895834716002e-001
      8.1906089581914066e-001 9.4289629919283899e-002
      -2.3437321526654992e-001 -5.9827686936260482e-001
      1.1195802109483813e-001 -2.2823079561577067e-001
      1.6034045576026312e-001 -3.6933138725689846e-002
      3.8825548360100992e-001 -1.8292752582723817e+000
      4.2471715404093013e-001 7.9466348561919808e-001
      -1.3428647575699454e-001 -1.3698195437775864e+000
      2.1112971882457468e-001 -4.1752343924800855e-001
      1.7976331859779227e-001 -1.0029505998889692e+000
      9.2042363995569176e-001 -4.9524604672847772e-001
      2.8029282885076168e-001 -8.3746799222572865e-001
      -3.6561449846809493e-002 8.7864951964013227e-002
      3.0007070848958578e-001 4.4160272848986259e-001
      7.0300578243127076e-001 1.4195007919676906e+001
      -3.0462004486394667e-001 -3.8152313525886862e-002
      -6.4109076837124213e-001 -4.5473194102630116e-001
      1.2046226804239329e-001 1.7845090785624898e-001
      5.2094177215961668e-001 8.4065866032939629e-001
      7.6153367375348957e-001 -2.7440580035416384e-001
      2.8107097478145998e-001 -2.1951386758495697e-001
      -7.3265508381126179e-002 -3.1941336080547134e-001
      3.6699021683078772e-002 4.0781541344406813e-001
      2.3083490199059978e-001 3.5658395459331726e-001
      4.1203611055308141e-002 2.1274670700386725e-001
      -1.0602282649846129e-001 5.3576696937895418e-001
      -1.2315776131194153e-001 2.8940267072297358e-003
      2.6583020129542745e-001 -1.9922337227729278e-001
      -3.0416251682906220e-001 1.4039621709373243e-001
      -5.8888957829667421e-001 -3.9035283227060907e-001
      -3.1073666121151700e-001 4.0960862367506179e-003
      -6.0395873961011322e-002 2.4320782544350539e-002
      -3.3502628739982948e-001 3.7914010869212722e-001
      -4.9776911108603722e-001 4.8545246885459342e-001
      -5.3504530471464831e+000 -5.9758261994418960e-001
      4.3902473671448677e-001 -3.4390996306423449e-001
      -1.6178959281012040e-001 -2.5932116769378541e-003
      2.4334317612793796e-001 4.4596176969917700e-001
      9.2631934747770850e-001 2.3882653091427811e-001
      9.8959741762234182e-002 -3.8816909183072190e-001
      2.4853310080186616e-001 -1.8050795657710744e-001
      -1.5532504794727883e-001 4.2912381982929204e-001
      1.8615181545847651e-001 7.5640739081100161e-001
      -5.8945410879433092e-002 -3.6727042215742534e-001
      4.4555892321351848e-001 -6.5586871854827544e-001
      4.0362203019290283e-001 -3.6062017304189858e-001
      -2.3459341873986023e-001 3.4340558261659426e-001
      -1.4734645698525289e-001 -2.6651806999012245e-001
      1.0611141690656333e-002 -4.6442374527003094e-001
      -3.3641725098106756e-001 -3.7175478160425118e-001
      -4.1413625963891282e-002 4.3463445074538221e-001
      -6.4271732480696703e-003 -5.5772743224847898e-001
      -6.1546952134861596e-002 -3.9709444597152177e-001
      4.4006123115630441e-001 -5.5410698793883002e+000
      -3.8507377647911195e-001 1.2506683439031385e-002
      -1.2112136395713885e-001 4.6480954005500807e-001
      2.2996606465003191e-001 2.8397344830290172e-001
      -8.3624310413498298e-002 -5.2060892673335823e-001
      -5.9884042248204636e-002 6.2157621248912699e-002
      -4.7436547868384366e-001 6.7523567833169340e-001
      -2.1862692234601447e-001 -8.5719897591692799e-003
      -1.5428885108394477e-001 -1.8574093588287868e-001
      7.4767386378718703e-001 4.1688615371616594e-001
      7.3432746754440337e-002 -5.5166579528611914e-001
      5.0447858015171987e-002 2.2123882180118226e-001
      3.4519341565726053e-001 4.6903484028492676e-001
      5.6732608375364113e-001 -1.1595151879055228e+000
      -2.3147578121001430e-001 -3.2567810367221323e-001
      -5.2377282954864338e-002 -4.9169968005834425e-002
      -9.8934011905987065e-002 -6.3926502159160548e-001
      1.0654429803565428e-001 -1.0060439351639067e-001
      -6.7983916028807201e-001 -4.4621404237481216e-001
      -3.5429238720905863e-003 -6.9790197728982994e-001
      1.8195668446478503e+001 3.5597173514534791e-001
      6.5905538112841255e-001 1.4115105260611178e-003
      7.6116146649717464e-001 -3.0431583145933829e-002
      -1.0672941221777761e-001 3.3590804528886246e-003
      -4.5258492672688500e-001 -3.7379588393072510e-002
      -6.3755364332006723e-002 -2.5257533750090353e-002
      3.1061500512232515e-001 -2.5560633727812015e-002
      1.0563144422617386e-001 1.2024569767489195e-001
      -2.4496520697694896e-001 4.1630409575767763e-001
      8.4943051270169795e-002 -1.6593265391610823e-001
      2.7047266484763497e-002 -2.1765469199016243e+000
      -1.1138269330790074e-001 1.1479342325734749e+000
      3.3578920774777521e-001 8.4439229323062071e-001
      -4.6717428385468052e-001 -1.4329775922979684e-001
      -4.3432908859003657e-003 4.1326390451985723e-001
      -8.5606746584784246e-002 1.9698680549316375e-001
      -4.9247273930635005e-001 2.7372477442275760e+000
      -6.8057863309549632e-002 -7.5646717034245886e-002
      -5.5245093027023406e-001 3.2834042897989781e-002
      -3.2656482885440868e-001 6.1735167202533239e+000
      -7.4705941154800826e-001 -3.8650952164171692e-002
      1.5567745037412317e-001 -8.3054727209888018e-002
      -1.4334116526440097e-001 -1.3931192992799224e-001
      -2.5221448454232476e-001 -1.9517756450963239e-001
      -4.5378619429172262e-002 1.7901270886166304e-001
      -3.9671416065549178e-002 -6.0941850560436266e-002
      9.0113441099037711e-003 1.2096588065773783e-001
      1.3879429313284595e-002 -1.6453000462457154e-001
      1.7933242501731320e-001 -5.4925935652861239e-002
      1.3297750929623306e-001 -7.0705238467276355e-001
      -4.1651894993510791e-001 -1.1060135947528545e-001
      1.9614270939673878e-001 2.2215001390667208e-001
      -4.6974993294278348e-003 -3.1478653310189314e-001
      -3.5198324446349058e-002 -8.6766378403646843e-002
      7.6025969867865445e-002 1.4123108156171313e-001
      4.8499763693182228e-002 -3.1665049177498963e-004
      1.1554600818953668e-001 -1.6744416693528935e-001
      2.6153307552586930e-001 -1.1661316443632215e-001
      6.1377946336526219e-002 -1.0807161824981874e-002
      9.9839233121436664e+000 4.1215155013146859e-001
      2.1096791530669454e-001 -2.1384915428465071e-001
      3.2280695162292050e-001 3.7888943810780912e-001
      1.5274404438883893e-001 1.7315338766617347e-001
      2.4499589607502301e-001 1.6221258436303640e-001
      -2.8308150731737503e-001 -7.5859605044426931e-002
      1.3848123998957157e-001 2.9299899991029543e-001
      -2.8257671480585977e-001 -2.7574118832385469e-001
      1.6667209246428585e-001 -1.7185832648914406e-001
      2.0272311046049188e-001 1.8494507642072638e-001
      4.1077970755139437e-001 1.8351357128147006e-001
      1.3078415058160076e-001 -2.3298971959400117e-001
      -1.6678191982223692e-001 -5.5706466925849966e-003
      -2.0064401122543325e-002 -1.4718787594274907e-001
      -4.7144646434984158e-002 -1.1142173118060018e-001
      -2.0334830719352587e-001 -2.9398864498431435e-002
      8.7842982542967379e-002 -4.1825333061916145e-002
      2.8722838130826117e-001 -1.7781647131181619e-001
      1.6233427522071286e-001 -2.1102027408318824e-001
      2.9672894815920997e-001 2.2670128320686956e+001
      -4.1620663925947021e-001 3.0215911370845831e-002
      -2.3833880273603814e-001 -6.0187216304246980e-003
      2.8744376465119104e-001 3.0282842007772154e-001
      2.1710642845605418e-001 1.8151653445940663e-001
      1.6586146354871131e-001 -3.1697566464498012e-001
      3.5299030428874903e-002 1.8126520779478575e-001
      2.8497630104838112e-001 -3.1894416315279844e-001
      -5.1894430432386930e-002 1.5307018595300209e-001
      -1.6140391247051028e-001 2.4354310956963954e-001
      1.4543246556692846e-001 4.6609469510054358e-001
      3.2197360298609429e-001 1.4329353816314039e-001
      -2.6435759980878082e-001 -1.0416968712467947e-001
      9.6869269738273818e-003 1.7638141637740026e-001
      -1.1476717728078586e-001 1.5657061229562841e-002
      -1.2264795568661356e-001 -2.3869538965414819e-001
      -1.2916857801762607e-001 7.6755209475901143e-002
      -2.5285789622929689e-001 3.1935844889485021e-001
      -1.4168061713222016e-001 1.5256138723162666e-001
      -2.4028725895065531e-001 2.0604455930558766e-002
      -7.2742746212394671e+000 1.1150706770935532e+000
      8.5068824151757719e-002 -3.2124095110708678e-001
      -8.2971767736594607e-002 3.9640440184152492e-001
      -2.7305665183636579e-001 2.8182972252909533e-001
      2.9840660700446514e-001 2.2418620769788133e-001
      -4.2842014905866466e-001 -1.8187463680498567e-001
      2.4149621800775573e-001 -7.4651483231589932e-002
      -4.4378710455133652e-001 5.7448704544271902e-002
      2.9494832895874462e-001 -1.7747310183508078e-001
      3.2635146086041533e-001 -1.8664024195798708e-004
      6.6400122268292983e-001 8.2339990137843022e-001
      1.8598466832465890e-001 -3.5602288647541547e-001
      -9.5761624831825237e-002 1.3903943938034966e-001
      2.1396289707249765e-002 1.2421399505346055e-001
      6.0883612808113600e-002 -1.3615035991424090e-001
      -3.6182203585860806e-001 -1.1335529041660053e-001
      2.3359995959753241e-001 -2.2246473606315198e-001
      4.3492646796562662e-001 -4.1470351388808702e-001
      5.6978037265604331e-001 -3.0439872777215149e-001
      -1.9831216081345759e-001 -6.9590023952686515e+000
      -3.4386491265896513e-001 1.1860576503874896e-001
      -3.1242321696283820e-001 -2.6771273537734214e-001
      3.7400898424231460e-001 3.6679471992308454e-001
      2.7743052447935679e-001 2.9790550558740075e-001
      2.1062440724513989e-001 -3.9335509720123218e-001
      -3.4656014438927366e-002 2.3068078884606241e-001
      -1.6760638599345243e-001 -4.2483429305381210e-001
      -3.8732600375765501e-002 2.9367137630580220e-001
      -1.9869144770962696e-001 3.0316413247137874e-001
      -2.1202682735467323e-002 6.3689123386585300e-001
      2.1763733465224316e-001 1.6203498676461683e-001
      -3.2836284213775452e-001 -1.6017465195249450e-001
      2.2972193985582789e-001 2.5044067365620248e-001
      1.2748701671799179e-001 8.8070391536639633e-002
      -1.3245801599748536e-001 -3.5198785609872746e-001
      -2.8431393737681328e-002 2.7574410263699189e-001
      -3.6851121990141045e-001 4.0322996095981228e-001
      -4.4703256229087701e-001 1.6219384827693759e-001
      -2.8637055809097561e-001 -1.7975167793545944e-002
      1.9749244134133153e+001 5.7677617499499394e-002
      9.8529674455958061e-002 -1.5317887072611464e-001
      -5.2580354492989451e-002 1.7559271718478234e-001
      -1.1630519886470750e-003 1.3325485017138272e-001
      1.7872766510624563e-001 1.0097264208459783e-001
      -2.0162953655980598e-001 -1.2647269870349582e-002
      1.2437349892611785e-001 -3.2871835368793811e-001
      -2.0036369617762176e-001 -4.4221069525686586e-002
      2.3395107188285857e-001 -9.5183163111201147e-002
      1.4893990094077514e-001 1.1899681087180532e-002
      2.8454982428352188e-001 1.0919131362190848e-001
      9.0179286476585518e-002 -1.6888589897993864e-001
      -6.5090981979407075e-002 5.5248882714138881e-001
      4.2116092025452558e-002 1.0004550733719561e-001
      -3.3228892309496147e-002 -1.0033195144996897e-001
      -1.5380307814696875e-001 -3.4519723402976774e-003
      2.0586636351285714e-001 -7.3910888578324230e-002
      2.0888134885240778e-001 -5.6489186663797342e-001
      9.4003653002712892e-002 -1.4097633567157447e-001
      1.2801562936123076e-002 6.7621425071779527e+002
      -1.1724337674544684e-001 7.2097464802841427e-001
      -1.4955958788601894e-002 -9.0134561655492666e-003
      1.5433528665506851e-002 -3.0504057430687789e-002
      1.2680098898160250e-002 8.2881835716575557e-003
      1.2846744340635013e-002 -1.9047463716929003e-002
      3.3658797424226582e-002 7.6327815435052477e-003
      -2.9938327470544692e+000 -3.3091609359887711e-002
      -1.2076154341978558e-001 -6.4879977594038587e-004
      -4.1607565571018462e-001 2.3863459891095964e-002
      1.8087481569892691e-001 3.6652181762279773e-002
      1.0456192934822583e-001 1.9018861619114986e-002
      -3.0400914062932827e-002 1.8529787982989498e-002
      6.5397433750837708e+000 1.3804162523401770e-002
      -1.4083701975765719e-001 2.9657375495865765e-002
      -1.5275325313753581e-003 -1.3438031720099006e-002
      -1.3143664688066661e-001 1.3562297849895932e+000
      -7.8436879307126062e-001 3.5640593430001137e-002
      -4.8391744075620400e+000 6.2146330147980784e-003
      -1.6866618680590046e-002 1.6428499598669033e+000
      -5.5265888780876367e+000 -4.4722478506250612e-001
      -1.1745212533410625e-001 -1.2093762036750096e-001
      2.1352387068746506e-001 1.8118673855664594e-001
      1.3002052547716863e-002 -6.9178755687987292e-001
      1.2181621804404474e-001 -1.6614396635975326e-001
      2.1840872261961172e-001 2.2228784873003479e-001
      3.7550614379685615e-001 -4.3977090848736002e-002
      -1.1287417252326214e-001 -3.6890864586742911e-001
      -2.6248406065323526e-001 3.4467418601477486e-002
      1.8669938984281106e-001 4.3637448076657831e-001
      -3.5662883797399114e-001 4.3959995626833351e-003
      1.8135633209287155e-001 -2.4028349367036697e-001
      5.7362951768133474e-001 9.2715557195383283e-002
      -1.7158211021486630e-001 1.0421976084724602e+000
      2.0171728924479543e-001 1.0564437887883188e-001
      5.3760860364826180e-001 3.9697452624537422e-001
      -1.1330396547294640e-001 -9.5017724526555403e-001
      3.3937402340641611e-002 9.2532870763526853e-001
      2.5667487183781559e-002 2.2862230099356735e-002
      6.7016236373713889e-001 1.4875086311427891e+001
      -1.3507780969047159e-001 1.5477815520274157e-001
      -7.7248423181489664e-003 5.5380999294666711e-001
      3.7513823946359404e-001 -2.8408229193543605e-001
      -1.1547699378812641e+000 -5.0854294480744566e-001
      -2.4079733228654943e-001 3.6878814347237548e-001
      3.0091099350572463e-002 -7.4345453795052432e-002
      4.2093608617387618e-001 -3.2682198146895597e-001
      -7.1256814449717792e-002 -4.3340177644558248e-001
      -1.5798934876651743e-001 5.3396911351410814e-001
      2.2023095732869605e-001 6.4182593956494685e-002
      1.8433318270282015e-001 4.3186970398025132e-001
      4.9561090224164099e-002 4.4105984229480871e-001
      1.3043502111495286e+000 -3.6870005631109687e-001
      9.8958589311855727e-001 1.9823727114814976e-001
      5.1528819371196022e-001 -9.8041793959291981e-002
      2.3582622593612856e-001 -2.0388856496231308e-001
      -3.1467856457048432e-001 1.3681850255115618e-001
      2.0342583760408561e-001 3.4258195531747110e-001
      2.8103777176080777e-003 4.3718192625451674e-001
      9.2003816594412289e+000 -1.3402475535079010e+000
      -1.4718112094163896e-001 -6.9655305391241637e-002
      6.5283835239987109e-001 4.5457506430393102e-001
      -3.8883102241658474e-001 -5.2575011101958424e-001
      -1.6052980442585505e+000 -3.7245501430859795e-001
      -7.1091630067718530e-003 -1.9889239398913403e-001
      7.2797051401537161e-001 5.0453539330287001e-001
      -1.9197300517687679e-001 -3.5229788658320688e-001
      -4.7966638947184242e-001 -4.6846537085361994e-001
      -3.2568312567358126e-001 7.2753233231175010e-002
      6.5114901526242241e-001 -9.0300191129741447e-001
      1.1653760366692903e-001 5.0951128763887321e-001
      -2.5991663787165303e-001 -5.2952392869187914e-001
      1.8442055241172076e-001 1.2648523329017742e+000
      1.9573251480315781e-001 4.5778102447664815e-001
      9.3025995687067531e-001 2.4094734821671152e-001
      9.8337213806406795e-002 -1.3483378241972990e+000
      2.5036225852014832e-001 4.2590767866962070e-001
      2.1346604953475101e-001 3.7480809899025092e-001
      1.8681150488279227e-001 -7.1030618428412806e+000
      -2.0290158701469339e+000 -7.2599446054159944e-001
      -1.0019367159110486e-002 3.9524190255834935e-001
      3.7967114646814898e-001 -6.2765410396400101e-001
      -8.5803228120794872e-001 -1.1256821920413536e-001
      -1.6237904046496138e-001 -1.5359578146889205e-001
      -4.5339676600564635e-002 2.4508226547502229e-001
      2.1780773306829496e-001 -2.9796423893105639e-001
      3.7180330284262103e-001 -5.9522042769614347e-001
      -2.2471038848532315e-001 -2.6818084681207011e-001
      7.9466079027774944e-002 2.6726588507959292e-001
      -9.5086821058447446e-001 -2.0223093545347653e-001
      2.2528446007832015e-001 -2.1652274627170218e-001
      9.7099549983116673e-001 8.2169939551630844e-001
      1.2996446917505562e+000 -4.4543067844420936e-001
      3.2407974283227248e-001 1.2279714000547609e-001
      2.2129260665884772e-002 -4.4531045719970624e-001
      -1.7054457371894365e+000 4.2467510857690120e-002
      6.9492032182292252e-001 2.6921218173250137e-002
      1.5832505411055981e-002 -8.1031323163545582e-002
      -2.0805204795644867e+000 -1.5002045332495204e+000
      -5.9345407219561996e-001 -1.8982783101640979e-001
      1.0699689742083969e+000 3.9998792519222504e-001
      -6.0927423305541539e-001 -4.9795821923535843e-001
      -2.0920723066944916e-001 6.0656408645519001e-002
      -3.7710822237458363e-001 -1.6627768879508101e-001
      1.1216167395142866e+000 -8.3955975476456252e-002
      -3.5397684171424393e-001 1.1699236971681770e+000
      -3.4395680368709658e-001 4.5547995052047463e-001
      -3.5937378906808787e-001 1.2414921253193101e-001
      6.3596518603337121e-002 -7.8453181557766360e-001
      -1.1326864898141650e-001 2.9299079092200914e-001
      1.0585676669116689e-001 1.2431376548006818e+000
      6.6588932679388269e-001 7.6067332110932029e-001
      -7.6230686664642111e-001 3.9324163411617119e-001
      -1.6696082588068872e-001 -2.1908228812418259e-001
      -3.0876294807141735e-001 -1.6498715562548016e+000
      1.4171481329992286e-001 2.4953515877816074e-001
      -3.4543942657525339e-001 -3.3345863578728296e-001
      -4.8931691387255999e-001 -1.0910101034801588e+001
      -1.5981297280148261e+000 -5.9294565614062311e-001
      -3.0666100638675951e-002 1.5041751445179592e+000
      -2.4538669267410662e-001 -4.2232706665454489e-001
      4.5666743217199157e-001 -1.2414375351662806e-001
      4.3007690459388070e-002 -3.8539337958347269e-001
      -5.3218905656044668e-001 7.3727814146491777e-001
      -4.3046831186045192e-001 6.3504502618371511e-002
      2.0878951985745775e-001 -1.2707712626258832e-001
      9.7533971493644867e-001 -5.0461785350339416e-001
      -1.4077981711572915e-001 1.5292871295344132e-001
      -1.2281149990200686e+000 -2.9735055305217684e-001
      3.2013772641259636e-001 3.0187700968517245e-001
      2.1278732175580423e-001 1.1783637100604507e+000
      6.7948598675729632e-001 -9.1639242243866892e-001
      1.2584108692460813e-001 1.0352093871633331e-001
      3.1613583670912865e-001 -7.1603987633667787e-001
      -4.1238400012254411e-001 1.7363689157342821e-002
      -3.2378391340224738e-001 -1.1271289814724259e+000
      -1.2138967280715868e-001 -2.1367251695685255e-001
      -1.0249576893372325e+001 -1.4888639093279155e+000
      -7.0505867286437196e-001 -2.5296647754337567e-002
      3.9182606980027024e-001 -6.5207509311380005e-003
      -3.0495688201283772e-001 -2.2727522589670512e-001
      -6.7348213805086254e-001 1.0119915037710630e-002
      -1.5415846573957881e-001 -5.8978548478151882e-001
      1.7173819288126846e-001 -5.0941176823797352e-001
      -1.1276018035018667e-001 -1.6484401180289532e-001
      -3.9072641315578732e-001 1.0714512637195734e+000
      1.5684142424073377e-001 1.2168044033732655e-003
      -7.4714781454657142e-001 8.0146463681510760e-001
      1.1936232823662005e-001 -1.0481511077762660e-001
      9.4990722305668496e-001 8.0091582284507457e-001
      -6.0707086453714376e-001 1.7376000476992276e-001
      -1.0403201809235860e+000 1.7213803789644655e-001
      -1.7465288911743171e-001 -1.0914417024936367e-001
      -5.0088961508215657e-001 -5.1396141371709780e-001
      -1.5727392786893149e-001 -4.4130017771427016e-001
      -6.5786127555727369e-001 -1.6494257676704618e-001
      -6.1168849308968720e-001 1.3476751216883638e+001
      -4.0813283937642619e-001 -1.7764547387883012e-002
      -1.3952776056477750e-001 -9.2023727864796831e-002
      8.8242339989607371e-002 -2.1985038008171548e-001
      7.2786194620885081e-003 -2.4521755524600808e-001
      9.9027437310143830e-003 -2.7542232174301139e-002
      -4.2509717981056717e-002 -4.7432688262715500e-001
      -6.4358270917672628e-002 3.0106013966415726e-002
      1.2181212485795960e-001 -2.2424621307591322e-001
      5.6284000098411313e-001 4.4925693950755519e-001
      7.2282519469465734e-002 -1.0240975430699707e-001
      -1.6746505447895055e+000 -9.2590639325824162e-002
      1.4359049636471585e-001 2.7242370399026739e-001
      7.0055191118455196e-001 -2.7044247721792808e-001
      -7.2069250757097456e-002 7.9906903938411794e-002
      5.0287803249295926e-001 1.1511951942441735e-001
      -1.4803781948702596e-002 3.4149848644996533e-001
      1.6780551254500380e+000 -1.2167357978293332e-001
      -4.5166265023659558e-002 -4.5773739088484827e-001
      -6.3386505618389419e-002 -4.9793934740090912e-004
      -2.0356615108260625e+000 -4.6669950078887273e-001
      -1.2596955484881314e-002 1.0648927331359695e-001
      -1.2907439652750724e-001 -6.9300788179826697e-002
      3.3156018596377831e-002 -1.5280321235555039e-001
      -5.8895894427053015e-002 -7.4298558913227619e-002
      1.4762164330674138e-001 -5.8186495555001487e-002
      -7.8800931643456168e-002 6.4124314434440277e-002
      6.7437688900176138e-002 1.5576746242698334e-002
      -1.3242865572163262e-001 1.0865920568496606e-001
      -1.1211967442109254e-001 5.0728782070568010e-002
      -5.0412202784146354e-001 -3.8836265344090826e-001
      -1.1793253555055880e-001 5.9052686396566446e-002
      9.6155056887466658e-002 -1.4968591884210623e-002
      -2.1599782065355488e-001 -2.9691970330259550e-002
      1.0802375124736421e-001 6.4936136437422964e-002
      4.3926013706110517e-002 6.3555167398283180e-002
      6.2803597366098404e-002 1.4869971676073473e-001
      -1.0380277252639963e-001 2.2806652398395166e-001
      -1.3485521253787330e-001 -1.4495564167114840e-002
      1.2629666439183265e-001 2.3067557435850761e+000
      -4.2240283266174578e-001 1.5010384790232761e-001
      -2.3214751885405033e-001 2.5452528792695306e-001
      3.6126101485764939e-001 1.2997101156841126e-001
      1.9052835593588358e-001 2.3814822420816545e-001
      1.6263461067956395e-001 -2.9979920456539022e-001
      -1.1783446051084802e-001 1.5950186892379226e-001
      3.1928273974113908e-001 -3.0025533109303515e-001
      -2.3472934250295077e-001 1.7398410059085737e-001
      -1.8090150769923735e-001 2.1726229961759166e-001
      1.8989419248296843e-001 4.2730388943800207e-001
      -1.7731643742216671e-001 1.3134141191461970e-001
      -2.5016207725897538e-001 -1.3248683132675504e-001
      -3.9428633150756745e-002 -3.0039870817756803e-002
      -1.5669836600111378e-001 1.0347274014348951e-002
      -1.1227304488462353e-001 -2.1611293248957597e-001
      4.1683719724456572e-002 6.8906796159409145e-002
      -9.3016331960024859e-002 2.9966527096909329e-001
      -1.3982012076951067e-001 -1.2255071170377262e-001
      -2.1939489094772807e-001 3.6335029689824622e-001
      2.2579522829586512e+001 -4.0539591106397233e-001
      2.3557961463317061e-002 -2.3650601123729872e-001
      -1.4130964194747180e-002 2.7691863229088409e-001
      2.9008583280111000e-001 2.0660054311231540e-001
      1.8442450529605986e-001 1.7006293952318893e-001
      -3.0970304459585657e-001 -1.9683898727388138e-002
      1.8498384310557661e-001 2.6431322536871682e-001
      -3.1074829834135342e-001 -4.0447034332368105e-002
      1.6214047094239245e-001 -1.5829761695291297e-001
      2.3065145015354252e-001 1.3986301730048234e-001
      4.5179901526373917e-001 2.7659056889848477e-001
      1.4922689757461813e-001 -2.5346676451036387e-001
      -1.2108101184003162e-001 4.1006760264237663e-002
      1.5705402880231120e-001 -1.1604775937894378e-001
      -1.8967218648058178e-002 -1.2045020716848068e-001
      -2.3295845954090733e-001 -1.2458648672359759e-001
      8.6738376819724086e-002 -2.7743685125877371e-001
      3.2355072501384780e-001 -1.5623510748073199e-001
      6.1225940327593917e-002 -2.3483544385453711e-001
      1.4792850201791921e-001 3.4950229270717545e+000
      5.4791117848299697e-001 1.0693969503416048e-001
      -3.1357997114221842e-001 -7.5006456469789817e-002
      3.8479999021867106e-001 -2.9024677956907552e-001
      2.7035754529979988e-001 2.8804192962594249e-001
      2.0877070806895184e-001 -4.0868369197734017e-001
      -1.5995658689200690e-001 2.2702419022417922e-001
      -2.0264946164774209e-001 -4.2753856034737303e-001
      4.1904052515811079e-002 3.0822726157131608e-001
      -1.8113585862368115e-001 3.1636724188624638e-001
      2.9805129451494290e-003 6.5300480538003602e-001
      5.2461955490814116e-001 1.6924273184792646e-001
      -3.3794123117624153e-001 -8.8655625828124418e-002
      3.6817485795419896e-001 9.2086477701284249e-003
      1.3558469982050161e-001 3.8365625149095542e-002
      -1.3137320892445153e-001 -3.3556732701816572e-001
      -5.8009994314334137e-002 2.6494612587770511e-001
      -2.3715897778782805e-001 4.1773797272934593e-001
      -5.6513539326686568e-001 3.7489865442050868e-001
      -3.0279763867063653e-001 -1.0363896409880700e-002
      -2.0889115266977321e+001 -3.5519826232905438e-001
      1.1002937475557389e-001 -3.1812411051435641e-001
      -2.6984929388944029e-001 3.7471445174642809e-001
      3.7097744156003570e-001 2.6996296592045371e-001
      3.1374726277860926e-001 2.0433072875676303e-001
      -4.0693199188394874e-001 -3.2828726543637110e-002
      2.3047713559626801e-001 -9.3317754192615565e-002
      -4.2835291242473184e-001 -4.6367196277476631e-002
      2.8258955484913473e-001 -2.0321618654445686e-001
      3.0056541375389290e-001 -2.2857848824659875e-002
      6.3552140987747130e-001 2.1425440110009081e-001
      1.5978404155728404e-001 -3.2478804634626929e-001
      -1.5494070024981396e-001 8.5905175765557243e-002
      2.6317650283448035e-001 1.4543296182486090e-001
      9.6005626179859832e-002 -1.3901073464892846e-001
      -3.5317641408329858e-001 -2.2055755124734271e-002
      2.4794405652454338e-001 -3.4768275306581953e-001
      4.0982373536153183e-001 -3.5027581470714692e-001
      1.4777851344970025e-001 -2.8660628019033740e-001
      -4.6733844925180401e-002 -4.3259103677714279e+001
      7.3747074550686437e-002 2.3260527136405990e-002
      -1.4703917495353386e-001 -7.4852780352719056e-002
      1.7239569638715851e-001 1.6017120507714575e-002
      1.3103171829621033e-001 1.7061076383734977e-001
      1.1683068392098368e-001 -1.8999145962212635e-001
      -8.5442888640717383e-003 1.2795975159921555e-001
      -5.3714226300612669e-003 -2.0492673140078926e-001
      -2.1153233523126532e-002 1.9597070597379135e-001
      -5.4213712662832106e-002 1.4961658251066376e-001
      -1.0572869196319792e-002 2.9489375485706859e-001
      1.0877798914260499e-001 9.6028654338525032e-002
      -1.6483707676838702e-001 -7.2828823144191118e-002
      -1.4481019841419221e-001 4.3515337162859775e-002
      1.0912052636614610e-001 -4.0292536558061441e-002
      -9.4088612671851798e-002 -1.5667151993037057e-001
      2.2668242425906665e-004 5.7233512104815400e-002
      1.6802033218329814e-002 2.0788989909849376e-001
      -3.9787021989939234e-002 9.1994788684465992e-002
      -1.4108218361001998e-001 -1.7326741592683270e-001
      1.5082630382264345e-003 -2.0521534706377477e-003
      -3.5763383531350846e-003 6.1647195166164926e-003
      5.8562583910285269e-003 2.4622992036320286e-003
      4.7657458710711042e-003 -2.6203277324023120e-003
      -5.4730418110927300e-003 -6.6038493113459963e-004
      7.9130567508434602e-003 -2.7113952424751078e-003
      7.7992408097498980e-003 -8.2354976391029108e-003
      5.3016548676854056e-003 3.7686754385707040e-003
      8.6903117356859384e-003 -3.7684158446663831e-003
      -7.7829062705648050e-003 -7.0289078393930820e-003
      -4.4313420888958078e-003 -4.7419859152837279e-003
      7.0039987644118394e-003 -5.1594225505564055e-003
      9.8343760275446308e-004 8.1456470998134776e-003
      7.1648469708208865e-004 6.4058117398684685e-003
      -1.2927363933808427e-003 -3.5406510314373724e-003
      -7.3852085247539355e-003 7.8383632471248216e-003
      7.8903404750858084e-003 -3.4545298117000353e-003
      -5.2208801970195480e-003 -3.9173725984438818e-003
      3.1336895023362688e-003 -5.2427214518602893e-003
      -7.7505408420317492e-003 -1.8396347043591095e+000
      -1.4703977964499887e-001 3.6213994077227951e-001
      -1.2650652970063805e-001 7.6837036315755103e-001
      9.1362688864552843e-002 9.3181812507771161e-002
      -5.0170834719516255e-001 3.2242483574748793e-001
      -1.2115163652729907e-001 1.1187218532013933e-001
      2.1145924927576948e-001 2.1177565991924416e-001
      -3.5975205909772001e-001 -3.5511889403034534e-002
      -2.2189309473855615e-001 9.3740996401162111e-002
      4.6348322513513263e-001 3.0177447011661979e-001
      9.2886121551660830e-002 -6.1255523870876005e-001
      8.1281620170075386e-001 1.5866521518237156e-002
      -5.5380251680631369e-002 9.6992887338067635e-001
      3.7713089496461871e-001 -2.3411826548829842e-001
      6.5205895968636374e-001 -1.6266403746776614e-001
      -5.5332668311813327e-002 -2.4367776714852318e-001
      3.4619150467746529e-001 -3.2907338191732999e-001
      -8.0006395938256092e-001 -8.2851565195337373e-002
      7.2044137499917915e-001 6.7951840194466540e-002
      -2.0170892375393182e-001 -3.1208664674000863e-002
      5.9716312159734271e+000 2.2214814992647236e-001
      2.1545393473054081e-001 -6.0853666834861292e-002
      4.2110578986899327e-001 1.8521470505212687e-001
      -6.8557839517697908e-002 -4.8782866369075667e-001
      2.3036557488855333e-001 -2.0972995623991869e-001
      3.0816486944616295e-002 2.3285431347330085e-001
      6.8499304659328120e-001 -7.8947160728494156e-002
      1.4214901765578188e-002 6.8765253858089209e-002
      -5.6472457934996362e-003 2.6265372116540303e-001
      6.9200720813096694e-001 1.8235277161714514e-001
      -9.3676196243853338e-001 3.6759377256016862e-001
      4.2213641974452548e-001 -4.1255057248026505e-001
      3.1568921307075776e-001 2.0799736402028976e-001
      -5.8367935349452560e-001 1.3333742262971968e-001
      -3.7258676997680562e-001 3.3123764411701434e-001
      1.6358405583178778e-001 -1.9056501617560967e-001
      3.4744451180101354e-001 2.4806183733716566e-001
      6.0191759998317891e-002 -2.2026924747866054e-003
      5.9228687775599942e-001 1.1466687256718336e-001
      -3.4173255421031073e-001 9.6175915128996259e+000
      -4.2214954062225285e-001 -4.0896943515791545e-001
      3.7511920893877428e-002 2.3658992992448649e-001
      4.3703249430532209e-001 -5.2828390437018602e-001
      3.1901040546863846e-001 -6.9046769260096807e-001
      -3.6439911548397863e-001 -6.2429350659987386e-002
      4.7841769524304099e-002 5.6164014267890361e-001
      4.0695750780104079e-001 -2.6579055943537500e-001
      2.3261552340815927e-001 -3.7155114086434649e-001
      1.5473964784994992e-001 -1.8850074619278126e-001
      -1.8737766147987064e-001 4.8185691327883462e-001
      -1.0858332178295012e+000 3.8304100983089034e-002
      3.4053851785942357e-001 -1.3610452302935708e-001
      -9.1441075984450237e-001 1.2738866219644593e-001
      -1.6348507902060376e-002 8.0888067186588419e-002
      3.6181493185062008e-001 3.0737907756807054e-001
      -5.0232862347091088e-002 -7.7344927405061228e-002
      3.0392044467787388e-001 -5.3324359429171860e-002
      -4.2334549454283438e-001 -1.0352157774386055e-001
      3.8745417940368226e-001 -9.8053227509212304e-002
      -3.1154095413789005e+000 -7.2775617825032834e-001
      -7.3008330587926906e-001 -1.9041262215242914e-002
      -3.5690245393883152e-001 3.2964503417700824e-001
      -4.9375204900285047e-001 5.3157848582897604e-001
      9.4718341868866129e-001 -1.7162305502048125e-001
      4.0058982361217063e-002 1.7585509285655770e-001
      -4.8133005543097640e-001 6.1462853811652784e-001
      -5.3913998538066166e-002 8.2041270782225306e-001
      -4.8933516218641249e-001 -3.1515886792566544e-001
      -6.7742103180710789e-001 -9.8606499672748441e-002
      6.0508903961119553e-001 -1.8466898535644831e+000
      -2.5021503957399438e-001 8.3703011819486597e-002
      -8.2774124585101649e-001 7.1146818705716008e-001
      9.3108507415715769e-001 1.9438369460125032e-001
      5.0548024607976333e-002 3.4793611587547962e-001
      1.1465943628626803e-001 -2.4082744556666091e-001
      -7.5590689546865403e-002 4.1984758051978371e-001
      -1.0087190733098390e-001 -1.7344838400638909e-001
      -5.4795326744060367e-002 -9.2198893259795273e-002
      4.9392620530100689e-001 5.2491397823567407e+000
      -2.9731653064136826e-001 -4.8973085632792646e-001
      -8.4239067809174215e-002 -5.3097611262744449e-001
      3.3474206516412280e-001 -3.4975985451031572e-001
      5.5709835696322729e-001 8.8252350009240788e-001
