<?xml version="1.0"?>
<opencv_storage>
<my_nn type_id="opencv-ml-ann-mlp">
  <layer_sizes type_id="opencv-matrix">
    <rows>1</rows>
    <cols>3</cols>
    <dt>i</dt>
    <data>
      225 69 46</data></layer_sizes>
  <activation_function>SIGMOID_SYM</activation_function>
  <f_param1>5.9999999999999998e-001</f_param1>
  <f_param2>1.</f_param2>
  <min_val>-9.4999999999999996e-001</min_val>
  <max_val>9.4999999999999996e-001</max_val>
  <min_val1>-9.7999999999999998e-001</min_val1>
  <max_val1>9.7999999999999998e-001</max_val1>
  <training_params>
    <train_method>BACKPROP</train_method>
    <dw_scale>1.0000000000000001e-001</dw_scale>
    <moment_scale>1.0000000000000001e-001</moment_scale>
    <term_criteria><epsilon>9.9999999999999995e-007</epsilon>
      <iterations>1000</iterations></term_criteria></training_params>
  <input_scale>
    1.7824880852737236e-002 -8.2354101855202011e-001
    1.8571806316944193e-002 -1.4933883560315291e+000
    1.4444328246842239e-002 -1.3864601924183186e+000
    1.0677781602248547e-002 -1.2500180141456563e+000
    1.0210884337338196e-002 -1.1905148561983157e+000
    1.2737719512092816e-002 -1.0431114516125575e+000
    1.9304270104918007e-002 -8.1747973208405200e-001
    2.3577613289034498e-002 -4.1363320878640319e-001
    3.4963030419729757e-002 -2.4339911399924194e-001
    2.5538110855215398e-002 -2.2083923905108305e-001
    2.2307762299767806e-002 -2.5125035294577802e-001
    2.9551107614902421e-002 -2.4575246729217232e-001
    5.4577199797306207e-002 -1.4220403829304226e-001
    2.6650882578028429e-001 -6.3212597565627540e-002 1. 0.
    1.5060624003059853e-002 -1.1153211695697092e+000
    1.4785652054803439e-002 -2.1644477931071777e+000
    1.3266435989184229e-002 -1.5299427745667331e+000
    1.8637129504043368e-002 -1.1889405269423490e+000
    1.9413497147748052e-002 -1.1183347951241422e+000
    1.2019862166468623e-002 -1.1047405130456045e+000
    1.1327777002039859e-002 -1.1521033305894994e+000
    1.6742649402981293e-002 -6.7448019707417306e-001
    3.4496106662534443e-002 -2.5168587765375533e-001
    4.0901983140144510e-002 -2.1968763978089481e-001
    2.8134248739768344e-002 -2.4577194617036585e-001
    2.3600885240886112e-002 -2.4559193688892267e-001
    3.4423105999360853e-002 -2.0170744437899663e-001
    1.5301889290979001e-001 -9.7252499065674305e-002 1. 0.
    1.5725754669257238e-002 -1.8383275782210002e+000
    1.8756009079673119e-002 -3.1071235551565648e+000
    1.3824342563612941e-002 -1.0041892649581361e+000
    1.2943777260268663e-002 -5.5686084246192602e-001
    1.4003892066472508e-002 -5.7253930280466370e-001
    1.5086541145126788e-002 -9.2796423074268097e-001
    1.1637041606506108e-002 -1.2910227952564510e+000
    1.4709303299323063e-002 -8.0328207711014954e-001
    5.6246148250420736e-002 -2.2682831020441974e-001
    5.4860372430512054e-002 -1.4445780916749068e-001
    3.4725942399106757e-002 -1.7839264095000151e-001
    2.8793232126679009e-002 -2.3269068636938167e-001
    2.9600441948495353e-002 -2.1162468896191583e-001
    1.0869101257247488e-001 -9.7951387062954948e-002 1. 0.
    1.4006252430676205e-002 -1.5050454368878885e+000
    1.5391953783650715e-002 -2.1385718977179864e+000
    1.4017734501610098e-002 -7.8288122300138896e-001
    2.6726795471314433e-002 -4.6246449957801666e-001
    3.2888357892508546e-002 -4.3352613854490990e-001
    1.7307408836221051e-002 -6.8691320115712673e-001
    1.1206770933429273e-002 -1.0591478448645486e+000
    1.3255813142145757e-002 -8.0844400916701920e-001
    4.6194263136576444e-002 -2.1508111519085280e-001
    5.4150599848514884e-002 -1.4331987343168434e-001
    3.6874133958073610e-002 -1.6371103597965050e-001
    3.1747959783754262e-002 -2.1592385622176394e-001
    2.8783147857319655e-002 -2.1107591772866813e-001
    9.8824599346709133e-002 -9.6825989217112496e-002 1. 0.
    1.2890284833517793e-002 -1.3545600094416916e+000
    1.3570929541815394e-002 -1.9030014688052570e+000
    1.1318200212798047e-002 -8.8158023875996705e-001
    1.3164481422560700e-002 -5.6847790466327153e-001
    1.3916447298412361e-002 -5.3356620720908254e-001
    1.2931204064801896e-002 -6.9683649596939778e-001
    1.0612135333896905e-002 -9.8576450843547270e-001
    1.2515031839730396e-002 -7.9693771215924536e-001
    4.1140739345591142e-002 -2.2976365089286707e-001
    4.7340425208770957e-002 -1.4536322954102052e-001
    4.0684767253712534e-002 -1.6585021907939762e-001
    3.1714884074707322e-002 -2.0772175702486487e-001
    2.9372458903864310e-002 -2.0713392753845089e-001
    9.6960487676090917e-002 -9.7022150746240113e-002
    2.8697202317530794e+000 -1.0250077516504329e-002
    1.2595181386205065e-002 -1.2567698323370506e+000
    1.6668267049400946e-002 -2.0225690491440238e+000
    1.4392015622770208e-002 -9.6574383063595515e-001
    1.3861811147213398e-002 -6.5170608091706783e-001
    1.2610616280598650e-002 -5.9076120542180677e-001
    1.2902561582325240e-002 -7.0586306064956106e-001
    1.2336089141526460e-002 -9.4116469998353514e-001
    1.3515010846987346e-002 -7.0383959536442520e-001
    3.8773453679205150e-002 -2.3762544666875351e-001
    4.1292781650611884e-002 -1.5029115577955393e-001
    4.5419165869191959e-002 -1.6663519937885729e-001
    3.2097648779263896e-002 -2.0253235546216178e-001
    2.9708896944351762e-002 -2.0215886103307187e-001
    9.6286884540805029e-002 -9.6864555283624823e-002
    9.5657341058435974e-001 -1.0250077516504327e-002
    1.3351929604161058e-002 -1.3972811884344531e+000
    1.4713948442061486e-002 -1.8730375088372693e+000
    1.4125969150077864e-002 -7.9781885314185907e-001
    2.1885421360261378e-002 -5.3186218009247088e-001
    2.3139485244615985e-002 -4.7046605780808104e-001
    1.6132942541621939e-002 -6.3341800358932465e-001
    1.2202632059494949e-002 -9.1601802670696852e-001
    1.3581961961234509e-002 -6.8210545215802942e-001
    3.4575290690766508e-002 -2.3796556533305288e-001
    3.7671525526373748e-002 -1.5145567765103818e-001
    5.0274028617865049e-002 -1.6231798737071210e-001
    3.2743321776248370e-002 -2.0114953825952545e-001
    2.9797300472710706e-002 -1.9906057832689189e-001
    9.6740994073886297e-002 -9.8083609484989814e-002
    7.9975809737380898e-001 -1.0250077516504327e-002
    1.4532250970227811e-002 -1.6255678471427857e+000
    1.5858609156753203e-002 -2.0793412832668698e+000
    1.6438482966873603e-002 -7.5924450199658289e-001
    2.1355816453592968e-002 -3.6686737970889655e-001
    2.2882813512112445e-002 -3.3233925747204407e-001
    1.9182383376430145e-002 -7.1526854426240183e-001
    1.1874482591402108e-002 -1.1354248484700831e+000
    1.3836311227781700e-002 -7.9815460891744239e-001
    2.9233253357350334e-002 -2.2833342528017353e-001
    3.8366864499841440e-002 -1.5325502803179092e-001
    5.0219208255786248e-002 -1.4838010468352594e-001
    3.4234805708661005e-002 -2.0124725757416778e-001
    2.9805221144523584e-002 -1.9732270288055254e-001
    9.6834241236779278e-002 -9.8096829140590230e-002
    7.8056390303683776e-001 -1.0250077516504330e-002
    1.4157579113651335e-002 -1.4267165990251236e+000
    1.5669772039223966e-002 -2.2373714848931390e+000
    1.3777488289215328e-002 -1.0232355321596314e+000
    1.7623078630650518e-002 -6.6514825789818366e-001
    1.7581256505484741e-002 -7.0170863549332074e-001
    1.3379772245085502e-002 -9.8477686230427297e-001
    1.0877558180189291e-002 -1.1737075202670797e+000
    1.6246492988862906e-002 -7.6951551705466648e-001
    2.6751238258186694e-002 -2.0794598602928310e-001
    4.0093127070119187e-002 -1.5737737345578057e-001
    4.8587794486310003e-002 -1.3069226585170074e-001
    3.6017227213975878e-002 -1.9823237155453294e-001
    2.9803103144532855e-002 -1.9668877982050037e-001
    9.6785224011855853e-002 -9.7041084192055010e-002
    7.8056390303683776e-001 -1.0250077516504330e-002
    1.4074582561225723e-002 -1.0568933089213464e+000
    1.5649057926638354e-002 -1.9130743348985346e+000
    1.2045950136904952e-002 -1.2446002695877465e+000
    1.0329066377942519e-002 -1.0022042739981571e+000
    1.0364694561163741e-002 -9.4329179567689592e-001
    1.2918940006613158e-002 -9.8243883633639539e-001
    1.3307988831872937e-002 -9.7960485224922222e-001
    1.7681107399152754e-002 -5.8857290266351858e-001
    2.8620929986528019e-002 -2.0584013557933767e-001
    4.4737587015082118e-002 -1.6085769083303117e-001
    4.8139690617523233e-002 -1.2159985133247485e-001
    3.7140150201541870e-002 -1.9375672592288276e-001
    2.9891540679223307e-002 -1.9666633456763746e-001
    9.6321391119294136e-002 -9.6961869732627493e-002
    7.9975809737380898e-001 -1.0250077516504327e-002
    1.6543312722479352e-002 -5.6675001045534368e-001
    1.3097774662820303e-002 -6.9299092690973840e-001
    1.6955480200985789e-002 -4.6462770179014362e-001
    2.4750493949067431e-002 -3.5667029359177721e-001
    3.5732282070063230e-002 -3.3247139026522499e-001
    3.0161699151761749e-002 -3.0755405351402870e-001
    1.7677938046502924e-002 -3.6654346064401083e-001
    2.1133129425825709e-002 -3.2693398204968316e-001
    5.0150368278919846e-002 -1.3785018943142971e-001
    5.5438399038151481e-002 -9.4193493579689244e-002
    4.8524681780949916e-002 -1.0247191528658570e-001
    1.8864724279441195e-001 -1.0564959043355500e-001
    1.6276684104682848e-001 -8.9873150177763483e-002
    5.5413488367523689e-001 -1.8919407206056518e-002
    1.4348601158765397e+000 -1.0250077516504329e-002
    1.7273589199854150e-002 -5.1795345902717482e-001
    1.3720382406391354e-002 -6.3672010189583483e-001
    1.6904864206076734e-002 -4.7480338119581017e-001
    1.4843806977892214e-002 -4.0385320581045425e-001
    1.9294676156281179e-002 -3.9073488711927090e-001
    3.3116644795167662e-002 -2.8338898700750709e-001
    2.1332585699481800e-002 -3.3383840879740939e-001
    2.3133546633265049e-002 -3.1140285038216864e-001
    5.6394527267918777e-002 -1.3600257484299144e-001
    5.1276606049087500e-002 -9.2476051538615114e-002
    5.3093257594092197e-002 -1.0109266511158901e-001
    3.8435165091460877e-001 -3.8842975961745310e-002
    3.9423311479434426e+000 -2.9404928196657677e-002
    8.9835553449770291e+000 -2.0762497908340651e-002 1. 0.
    3.7469678516500335e-002 -1.6663653773191747e-001
    3.6079629607542296e-002 -1.7722086386833827e-001
    4.9282870814104734e-002 -1.8787051063830371e-001
    4.5766034834749933e-002 -1.6970226536602037e-001
    9.2028668463395066e-002 -1.6084459814926114e-001
    9.9827940824446806e-002 -1.2343398806985674e-001
    4.9025069273122356e-002 -1.2226625107564366e-001
    4.7613032878112756e-002 -1.2061829324554085e-001
    1.2571736021288285e-001 -8.3495088840957729e-002
    3.2555404431254331e-001 -2.8659973645751791e-002
    4.3138694378161335e-001 -2.9864901350150561e-002
    1.5893328173090060e+000 -1.2188391182220553e-002 1. 0. 1. 0. 1. 0.
    5.4307319033271954e-002 -1.4372031698794299e-001
    4.2890121301217256e-002 -1.7282655200683064e-001
    3.4452157749831146e-002 -1.7452624009578430e-001
    3.3592472349003678e-002 -1.6451763001456088e-001
    3.9159358549544179e-002 -1.3202798242780253e-001
    4.4023682741161488e-002 -1.1814041996572780e-001
    5.6535027231614576e-002 -1.1825403047947089e-001
    1.1005965995488717e-001 -1.0602935741084847e-001
    4.9805166172217435e-001 -6.6869234695432267e-002 1. 0. 1. 0. 1. 0.
    1. 0. 1. 0. 1. 0. 7.4509739735117198e-001 -5.5065905139331170e-002
    4.0372857406684320e-001 -5.6672307971528640e-002
    1.9811169956865474e-001 -5.6543105209877056e-002
    8.9557208968115448e-002 -5.5367598989112241e-002
    2.6233432837960363e-001 -5.5934628244992214e-002
    9.2602421843336979e-001 -1.4689532197020575e-002
    1.0800528978276520e+000 -1.8494445041066000e-002
    1.0354365928419442e+000 -1.9579639322570647e-002
    4.2914538863229552e+000 -1.5779061458273288e-002 1. 0. 1. 0. 1. 0.
    1. 0. 1. 0. 1. 0.</input_scale>
  <output_scale>
    5.2631578947368418e-001 4.9999999999999994e-001
    5.2631578947368418e-001 4.9999999999999994e-001
    5.2631578947368418e-001 4.9999999999999994e-001
    5.2631578947368418e-001 4.9999999999999994e-001
    5.2631578947368418e-001 4.9999999999999994e-001
    5.2631578947368418e-001 4.9999999999999994e-001
    5.2631578947368418e-001 4.9999999999999994e-001
    5.2631578947368418e-001 4.9999999999999994e-001
    5.2631578947368418e-001 4.9999999999999994e-001
    5.2631578947368418e-001 4.9999999999999994e-001
    5.2631578947368418e-001 4.9999999999999994e-001
    5.2631578947368418e-001 4.9999999999999994e-001
    5.2631578947368418e-001 4.9999999999999994e-001
    5.2631578947368418e-001 4.9999999999999994e-001
    5.2631578947368418e-001 4.9999999999999994e-001
    5.2631578947368418e-001 4.9999999999999994e-001
    5.2631578947368418e-001 4.9999999999999994e-001
    5.2631578947368418e-001 4.9999999999999994e-001
    5.2631578947368418e-001 4.9999999999999994e-001
    5.2631578947368418e-001 4.9999999999999994e-001
    5.2631578947368418e-001 4.9999999999999994e-001
    5.2631578947368418e-001 4.9999999999999994e-001
    5.2631578947368418e-001 4.9999999999999994e-001
    5.2631578947368418e-001 4.9999999999999994e-001
    5.2631578947368418e-001 4.9999999999999994e-001
    5.2631578947368418e-001 4.9999999999999994e-001
    5.2631578947368418e-001 4.9999999999999994e-001
    5.2631578947368418e-001 4.9999999999999994e-001
    5.2631578947368418e-001 4.9999999999999994e-001
    5.2631578947368418e-001 4.9999999999999994e-001
    5.2631578947368418e-001 4.9999999999999994e-001
    5.2631578947368418e-001 4.9999999999999994e-001
    5.2631578947368418e-001 4.9999999999999994e-001
    5.2631578947368418e-001 4.9999999999999994e-001
    5.2631578947368418e-001 4.9999999999999994e-001
    5.2631578947368418e-001 4.9999999999999994e-001
    5.2631578947368418e-001 4.9999999999999994e-001
    5.2631578947368418e-001 4.9999999999999994e-001
    5.2631578947368418e-001 4.9999999999999994e-001
    5.2631578947368418e-001 4.9999999999999994e-001
    5.2631578947368418e-001 4.9999999999999994e-001
    5.2631578947368418e-001 4.9999999999999994e-001
    5.2631578947368418e-001 4.9999999999999994e-001
    5.2631578947368418e-001 4.9999999999999994e-001
    5.2631578947368418e-001 4.9999999999999994e-001
    5.2631578947368418e-001 4.9999999999999994e-001</output_scale>
  <inv_output_scale>
    1.8999999999999999e+000 -9.4999999999999996e-001
    1.8999999999999999e+000 -9.4999999999999996e-001
    1.8999999999999999e+000 -9.4999999999999996e-001
    1.8999999999999999e+000 -9.4999999999999996e-001
    1.8999999999999999e+000 -9.4999999999999996e-001
    1.8999999999999999e+000 -9.4999999999999996e-001
    1.8999999999999999e+000 -9.4999999999999996e-001
    1.8999999999999999e+000 -9.4999999999999996e-001
    1.8999999999999999e+000 -9.4999999999999996e-001
    1.8999999999999999e+000 -9.4999999999999996e-001
    1.8999999999999999e+000 -9.4999999999999996e-001
    1.8999999999999999e+000 -9.4999999999999996e-001
    1.8999999999999999e+000 -9.4999999999999996e-001
    1.8999999999999999e+000 -9.4999999999999996e-001
    1.8999999999999999e+000 -9.4999999999999996e-001
    1.8999999999999999e+000 -9.4999999999999996e-001
    1.8999999999999999e+000 -9.4999999999999996e-001
    1.8999999999999999e+000 -9.4999999999999996e-001
    1.8999999999999999e+000 -9.4999999999999996e-001
    1.8999999999999999e+000 -9.4999999999999996e-001
    1.8999999999999999e+000 -9.4999999999999996e-001
    1.8999999999999999e+000 -9.4999999999999996e-001
    1.8999999999999999e+000 -9.4999999999999996e-001
    1.8999999999999999e+000 -9.4999999999999996e-001
    1.8999999999999999e+000 -9.4999999999999996e-001
    1.8999999999999999e+000 -9.4999999999999996e-001
    1.8999999999999999e+000 -9.4999999999999996e-001
    1.8999999999999999e+000 -9.4999999999999996e-001
    1.8999999999999999e+000 -9.4999999999999996e-001
    1.8999999999999999e+000 -9.4999999999999996e-001
    1.8999999999999999e+000 -9.4999999999999996e-001
    1.8999999999999999e+000 -9.4999999999999996e-001
    1.8999999999999999e+000 -9.4999999999999996e-001
    1.8999999999999999e+000 -9.4999999999999996e-001
    1.8999999999999999e+000 -9.4999999999999996e-001
    1.8999999999999999e+000 -9.4999999999999996e-001
    1.8999999999999999e+000 -9.4999999999999996e-001
    1.8999999999999999e+000 -9.4999999999999996e-001
    1.8999999999999999e+000 -9.4999999999999996e-001
    1.8999999999999999e+000 -9.4999999999999996e-001
    1.8999999999999999e+000 -9.4999999999999996e-001
    1.8999999999999999e+000 -9.4999999999999996e-001
    1.8999999999999999e+000 -9.4999999999999996e-001
    1.8999999999999999e+000 -9.4999999999999996e-001
    1.8999999999999999e+000 -9.4999999999999996e-001
    1.8999999999999999e+000 -9.4999999999999996e-001</inv_output_scale>
  <weights>
    <_>
      -6.0854152169057336e+000 1.2006317340428904e-001
      2.7721489367140301e-001 4.4997651469955019e-001
      -1.9011477892673953e-001 -1.1341816362325445e+000
      -5.7733377326282420e-001 5.1884568829697542e-001
      -8.6688642248742309e-001 -4.8529044596231241e+000
      -2.1325214930636699e-001 -1.2166295652367956e+000
      2.0092525109468800e+000 1.1582022054372938e+000
      1.3479611202929451e-001 -5.8977392908770920e-001
      2.5762462010448416e-002 -2.1346394299609417e-001
      -2.4678831917826927e-001 8.4712702821678154e-001
      -1.2392786309614497e-001 -1.7775510224477997e+000
      -5.4016745475630634e-001 7.6516115000460361e-001
      5.6064272597890680e-002 -3.1430277918816515e-002
      -8.7167663042855248e-001 -3.4212870988250169e-002
      4.9583800109365023e-001 -3.4679766559667585e-001
      -1.1452944514727401e+000 1.1290385869694368e+000
      -5.4229524394365380e-001 -2.6847185123580872e+000
      -1.8761355028150066e+000 2.1176696087562955e-001
      -1.9483721625873078e+000 -5.3566868273705137e-001
      9.2741765354324268e-001 5.2964849971394290e-001
      -1.0919373253303712e+000 5.5354135430644125e-001
      4.0373348025066153e-001 7.3707380543154544e-001
      2.2575392090498780e-001 -4.6247745065925899e-001
      5.8130827904282423e-001 4.1159949297256571e-001
      7.7750660314919362e-001 9.3292256528344020e-001
      3.3423609257387188e-001 1.1369918477514922e+000
      3.4557322038160998e-001 -1.9358894727541320e-002
      -3.1332814307327017e-001 -4.1635133764644991e-002
      2.6120217200176044e-001 8.2072213749879197e-001
      -2.9692551815309376e-001 2.5017177196182443e+000
      -1.6716020428628499e-002 1.0545505629819654e+000
      3.3346615131816653e+000 -1.1610117373711144e+000
      2.3424708461722266e-001 -9.4578554921582925e-001
      1.4972270247336286e+000 3.9602123637744291e-002
      -8.7464181589056111e-001 -1.0421089986245125e+001
      -3.3927411804202229e-001 4.0176133943095944e-002
      4.7273792342894416e-001 1.7064751924433748e-002
      -9.6810352484436180e-001 -9.4356488877140698e-001
      4.8469171662543731e-001 -1.6044497555229933e+000
      -5.6855620653091670e+000 3.6299257855819764e-002
      -1.2809420482769658e+000 2.9090781580657148e+000
      9.9949814916977120e-001 5.1363851168428254e-001
      -7.7632924482567989e-001 -1.7385627009016325e-001
      -3.7998606132055401e-001 -5.6128343551304183e-001
      4.6736173359800659e-001 -4.2308470370170437e-001
      -5.9252326917919280e+000 -5.7894394579574548e-001
      2.0148309762253375e-001 2.8506987717503574e-001
      -2.9210248638713837e-001 -3.2246720623847647e-001
      1.1737579828383782e+000 1.3201851831052083e+000
      -1.2882739012765032e-001 -1.6996547531163668e+000
      4.2761580079049466e-001 -1.1695362913465366e+000
      -3.8458917364318075e+000 -9.9465034125713780e-001
      -9.9623418368463967e-001 2.6476746772888710e-002
      -4.3855382887194777e-001 -2.5526648466078048e+000
      4.4133420379939470e-001 -4.3762658644352642e-001
      7.6148234456130504e-001 4.6550083361984618e-001
      4.1650552525160700e-001 5.5725409478584098e-001
      -1.0221795060465173e+000 3.1646191616554981e-001
      6.6539520104119865e-001 2.9957520179567210e-001
      2.3222335675114827e-001 4.0849204182498644e-001
      1.0016868274447654e+000 5.4519409456392598e-001
      -9.6940718453878125e-002 -1.2640029337110961e-001
      7.2191222473618355e-001 9.1647282856391399e-001
      8.0428977257498324e-001 -1.8876511396400159e-001
      2.3532623048760546e+000 -9.7398057130360191e-002
      1.2573289632097646e+000 2.7672044791244210e+000
      5.8408669007004654e-001 7.4090738954745883e-001
      4.3228935248973505e-001 6.7442301244651792e-001
      1.8192814526112305e-002 -8.7350855475719702e-001
      4.4104751415567849e+000 -1.1470660781140940e+000
      -5.3147844531441524e-001 -4.2440784318605856e-001
      -7.6366152833922382e-002 -9.2890152876333276e-001
      6.2109679814381490e-003 2.3727674471047280e-001
      -1.2810252943633940e+000 -2.4578424329447697e+000
      -2.6488508145787532e-001 -1.8397438242577926e-001
      -8.7566026712322373e-002 -8.0024718677855489e-001
      -1.6390752539787412e-001 1.0170352225693467e-001
      -6.5288360665741463e-001 8.4761256175159699e-002
      -2.1605421686495549e-001 -9.9327503953232210e-001
      1.7520097077712647e-002 2.3134852932186065e-001
      6.6349831099218853e-002 4.2672113167952508e-001
      2.8461927294843603e-001 -5.0074566594681125e-001
      -4.7407444842680897e-002 6.1181739858040030e-001
      9.1832351466758677e-001 9.7894172753862863e-001
      7.7928037568291045e-002 -6.7095613181776204e-001
      -3.7704995324106055e-001 -6.3500003322482523e-001
      -3.7233424202562759e-001 -8.2769003969334048e-003
      5.9756841686365936e-001 1.9785905005113510e-002
      7.5216766471153329e-001 -5.7575391519692543e-001
      2.0250075638016518e-001 5.4241345539192043e-001
      1.0958541122881379e-001 3.9189775974505257e-002
      3.9894553394111174e-002 -1.6841358887519384e-001
      -1.6529067729561434e-001 1.0306862096338349e+000
      -2.1227733131872401e-001 4.8840554271335747e-002
      -3.6006981537601852e-002 -2.6297635790670187e-001
      -7.1692536108938970e-002 1.8985425672403811e-001
      5.9545834686831156e-001 5.7239961227536740e-001
      -2.3732206139399484e-001 6.2494614391400982e-001
      4.2061575621599973e-001 -1.3248800753117937e-001
      -2.2254029985443610e-001 8.6324119508690376e-003
      7.7048565603405772e-001 -2.2455648134884593e-001
      2.7860312406082155e-001 7.3740881825966953e-001
      -3.6324410153834241e-001 -1.6912041965762425e-001
      -6.0721515137297566e-001 3.1773934518914144e+000
      -3.2093356454315392e-001 -8.4923985670188062e-001
      -3.4166218542449034e-001 2.8375760675437817e-001
      -1.3850097992769599e+000 4.8660152559557773e-001
      6.4610006367762940e-001 -1.5072928641537189e+000
      -1.0292283786413692e+000 2.9818035776689161e-001
      -2.2836726388643942e-002 -4.2802272732479746e-001
      -6.0697430330690461e-001 -2.7569445499290668e-001
      1.9083816416872521e-001 -7.6194753072427468e-001
      1.2921249852320210e-001 -3.7640534565706874e-001
      -3.6770424207925138e-002 6.5274329016913046e-001
      -9.9660710328158778e-002 -4.0767861433196557e-002
      -3.3630871432420280e-002 -4.6698672302216976e-001
      -2.3484132251312140e-001 -9.7536656591409299e-001
      -3.4510412743320501e-001 -4.2574211383486721e-001
      4.8577688847944267e-001 -2.0162490145071424e-001
      -7.0765434906398667e-002 5.5264979746981324e-001
      -7.0295822309753153e-001 -5.2077208754870519e-001
      -9.9732231211840272e-002 7.7251716356230660e-001
      -1.4172554585219846e-001 -1.7553338431582777e-001
      -2.7704129816659412e-001 3.7787670283177442e-002
      -2.4877630676853690e-001 4.6366188837373246e-001
      -4.0873172874486448e-002 -5.9920390123649669e-001
      -8.2573294658003782e-001 -2.4284783234468860e-001
      6.6131228838928569e-001 -8.2421946453767092e-001
      -2.6947827432996341e-001 3.7885074109485217e-002
      3.3296070784916171e-001 8.8921505066691012e-002
      2.5761334145531795e-001 2.5115563007526193e-001
      3.9129359827444188e-001 -2.3159117174285412e-001
      7.1466658082701995e-001 3.8315967987126587e-001
      -5.0761472831470433e-001 2.0815828781065190e-001
      -5.6781698315574991e-001 4.6506594688196268e-001
      4.8751245749256134e-001 9.8531159947508204e-002
      3.9123847507210169e-001 2.1760428757273759e-001
      -1.0588363416614661e-001 -3.7748532405800411e-001
      2.5057741691475224e+000 -5.6300662044688721e-001
      -4.1089755990525939e-001 -1.7216330947002648e-001
      1.2966737082764027e-001 -1.0022340115956963e+000
      3.3221697419348700e-001 7.6310976716757328e-001
      -9.0449735197122128e-001 -4.4292713258013899e-001
      1.0789319814282983e-001 1.2577098080987242e-001
      -6.2578456141312788e-001 -3.4313174611759845e-001
      -7.6681464215941950e-002 2.4727957269451156e-001
      -5.4733420348149076e-001 1.1151329295585533e-001
      -9.6907375292207026e-002 1.1941436058707348e-001
      7.3459826859621691e-001 2.0777351194177660e-002
      -1.5729236826479476e-001 -2.3736131455891474e-001
      -2.8144951038665589e-001 -3.1023191778407666e-001
      -3.7217003381146102e-001 -1.6830795076406629e-001
      -2.9239069798163581e-001 4.2156063270810679e-001
      5.2721042480370246e-002 -2.2273251106443420e-001
      4.8310282109850489e-001 -7.7914429597983204e-001
      5.3447647877559049e-003 -1.7749638351843558e-001
      8.7094381329182080e-001 3.4960859153079621e-001
      -8.9764242577348358e-002 -4.8329243837586888e-001
      1.9484457744841818e-001 -6.2877857207285492e-001
      8.0599705615016426e-001 2.1632487071909934e-001
      -1.9430034493637469e-001 -6.8989349222882324e-001
      -3.5912000349919193e-001 4.6874460874710561e-001
      -1.0574918824565502e+000 -3.0528079060837426e-001
      -3.3248516283988602e-002 -4.9921492913973808e-001
      3.7779607617123484e-001 -5.5934830043874818e-002
      9.5201889327517511e-002 4.8278865500823342e-001
      -2.8203537179927329e-001 3.1377133385634387e-001
      1.1798831255411359e-001 -6.8732699702438582e-001
      4.2458764466914746e-002 -2.8869493123341283e-001
      1.0856113014477549e-001 3.1193294211746098e-001
      -1.1167734442159086e-002 4.5470756200418383e-001
      -3.6413271038585238e-001 6.0483522906878556e-002
      -2.2851915030411205e-001 1.6843838949308296e+000
      -4.3300572569740037e-001 6.5147478190053620e-002
      2.3738688278324585e-001 6.2791778635619550e-002
      -3.7301766124909103e-001 -4.3995586857273394e-001
      2.1669800101432904e-001 2.7016972289868202e-001
      -6.0908237758913512e-002 -8.6224672726979854e-002
      7.9202479832622041e-001 2.1988385251927300e-001
      -1.1471361669110168e-001 -4.3508825846743586e-002
      4.1426507880802377e-001 -4.7135241053499505e-001
      3.1436224920926481e-001 -4.5219116295911393e-001
      -1.4456292225828965e-001 7.7325259216848707e-001
      4.3738188611632439e-001 3.5147961350474205e-001
      -8.4552177294628517e-001 -3.7364892642460644e-002
      -4.9598720536134155e-001 -2.8004012192120831e-001
      3.4058551877084575e-001 4.9660708821651460e-002
      2.2333497262886501e-001 -2.0225817954504713e-001
      -4.5217036789611248e-001 3.4463811656168203e-001
      -1.6494738587286142e-001 6.9337890540581104e-001
      -6.5020845028403262e-001 6.0838420835909524e-001
      1.6185386699957247e-001 -2.5485640353912559e-001
      -2.8250352522248812e-001 2.3191713726587498e-002
      -5.9491748321231297e-001 9.9362446204073029e-001
      5.2914242382672283e-001 1.4069317469239775e-001
      -4.1292686112612176e-001 -2.5722557041491761e-001
      -7.3622422012081828e-002 -6.0023047033018473e-001
      -2.0830206125090717e-001 -3.2201358885961612e-001
      -2.7530127244203721e-002 3.2867039639494422e-001
      -2.4632950183440280e-001 1.6455802345597964e-001
      3.2397480587161875e-001 -7.0716516793824191e-001
      -2.1524320755263324e-001 1.4112330121956668e-001
      -6.3323227693244122e-001 4.7691829404870045e-002
      -7.6584385150702039e-002 -1.9676255914611673e-001
      1.7825320122284111e-001 -9.7953103298409436e-002
      6.0777645776891120e-001 -6.2384731683385508e-001
      3.5856775022913935e-002 -8.5073640522236493e-001
      -6.1464673943499246e+000 -1.8627646458217992e-001
      -1.9191547518973912e-001 -1.7699931578401103e-002
      2.1011701976316852e-001 1.5020764964255334e-001
      -4.3846283964840782e-001 -7.0728969506152886e-002
      5.0572873778703131e-001 8.0710889118082696e-001
      5.8066385565188516e-001 -3.9366167343492620e-001
      8.5056587110583470e-001 -1.8007388197175109e-001
      -2.0163541926615031e-001 -4.2047563060196365e-002
      -4.0860801909429334e-001 1.6499091632444626e-001
      1.4247612221767536e-001 -4.7969498011567774e-001
      -9.8022218419623677e-003 -4.6523127262088036e-002
      1.1177944763075319e-001 -3.2779308961098241e-001
      6.6070419643925660e-001 -6.2413576414735550e-001
      -4.0688667893533320e-001 -1.4980718579650529e-001
      1.0856983143840226e+000 6.2950746397491153e-001
      -4.2396834467013372e-001 3.4596161318329710e-001
      -4.0569332000246905e-001 -3.2564300747716948e-002
      1.8059487565968296e-001 -3.2418437215015788e-001
      2.9960409668093740e-001 -1.7712264924440005e-001
      -3.7280993650700012e-001 5.4159891386199095e-002
      -5.2058805459497752e-002 -8.4152900839442366e-002
      4.2706860535046842e-001 1.7391540410591602e-001
      5.5347392220616765e-001 -3.5103270169839029e-001
      -8.4796159843683674e-002 2.5097791687750254e-001
      6.8206808572695632e-001 -1.2840486318010130e-001
      -5.5074463207247959e-001 -3.1410366787398042e-001
      -5.3281161798193322e-001 6.2162611389778813e-002
      4.6025990969384056e-001 2.1000600837687730e-001
      -2.2107243423078915e-001 -3.4751355364366709e-001
      -4.2685059783793977e-001 -5.4407885140001433e-001
      1.2103622598589890e-001 -3.1234514771118999e-001
      -1.8796864619084648e-002 7.4422797773937366e-001
      8.7407785198909252e-002 2.6186089345032021e-001
      -1.3288080436242802e-001 -4.9439275888551054e-001
      2.5174899049768251e-001 -5.0385021775289074e+000
      -3.3920391594217933e-002 -6.1240555026628973e-001
      -4.0753087454840436e-002 3.9654846334299620e-001
      4.4033525768046006e-001 -3.3867102597549818e-002
      9.2796461311521872e-001 -4.3901482077690979e-001
      9.2702368102571953e-001 -8.9385742886055483e-002
      2.3994994618246251e-001 -5.5489690966560101e-001
      4.8679957191697187e-001 1.7972249667001478e-001
      -4.3129331439698729e-002 2.4588525780656514e-001
      5.6423209248036375e-003 -2.4643848458004446e-002
      5.0296535401701092e-001 -5.7171386823688986e-001
      -6.1838931869207636e-001 7.3387598454964031e-001
      -5.7435459681592971e-002 -1.6005789715883768e-002
      -6.1176877767870363e-001 -1.2933725183010292e-001
      -1.2831427735860937e-001 -1.2612110881398061e-001
      5.4825075877697738e-001 -2.8788584392096039e-002
      -3.0040163098368822e-001 -9.1488142734129851e-001
      1.0844304112467208e-001 4.0294650821000405e-001
      -2.0794214534765338e-002 1.3049591516661369e-001
      1.0453776109959802e-001 4.6499891381948160e-003
      2.7913191868047832e-001 5.8413371711194220e-002
      5.6187874516540492e-001 -2.8904094861129892e-001
      -3.6548893605687183e-001 2.0547139702516662e-001
      6.9898820211031876e-001 1.2040097493791986e-001
      7.0310160899720231e-001 3.4660964290421198e-001
      -2.0274286444267983e-001 -5.5929886150659647e-001
      -5.7990422963435984e-001 -8.9727758498042102e-003
      1.1470380330780483e-002 -1.3719576015246429e-001
      7.7118170426308849e-002 1.5579019742674582e-001
      2.1456328951722423e-001 -5.0153775984097293e-001
      3.6332271255826698e-001 7.8705397693575249e-003
      -5.3447879334857651e-001 1.6993501142144013e-001
      6.4224019331365817e-002 -1.1211478892701343e-001
      -7.1167956450210283e-003 3.2475484063040211e-001
      1.8204374246619559e-001 2.9703379782587841e-001
      7.1854708516902113e+000 2.1556883158565743e-001
      4.0660605603861355e-001 -3.2380031026056211e-001
      -1.2546383823459092e-001 -1.5229355354582921e-001
      2.2782007072558633e-001 3.8767758345211961e-001
      -3.7005629367200310e-001 1.4247068670701632e-001
      7.3930530890439508e-002 4.7411175521790826e-002
      -5.5314868018534788e-004 2.7023046346578705e-001
      3.4771876071862530e-002 8.7359908016021531e-002
      1.1159483673623426e-001 5.0608952153159048e-001
      -1.5731877543217274e-001 1.2417713906251368e-001
      1.0797787027587355e-001 -7.9782581610408049e-002
      5.5715630207282811e-002 -1.8348414206025468e-001
      3.6782829795269595e-001 6.6912819410930513e-001
      1.4569837389714008e-001 1.1135766159834376e-001
      3.2773533964416013e-002 -4.9778273858814726e-001
      1.4007360018838672e-001 3.9023388570048133e-002
      1.1995846609437465e-001 3.8976507751632744e-001
      2.8601669136563729e-001 3.1808344381080872e-001
      -3.7522910581125268e-001 1.5112983799204258e-001
      -1.3736755351785621e-001 3.1775480371242160e-001
      -1.7630531148093931e-001 -9.6249600966787238e-002
      -1.1169040356613842e-001 -2.5888402818090195e-001
      4.4180216873195499e-001 2.9444173515785749e-001
      6.9736283677698477e-002 7.5663150664732934e-002
      1.8795936492489615e-001 2.4075397851108168e-002
      -3.9118809058776446e-002 4.0239609459399156e-001
      -3.6314445630691674e-003 3.8456854544149682e-001
      -1.3744345878624808e-001 -1.0025376864470348e-001
      2.7386063279456568e-001 3.0786204790011218e-001
      -5.7865521232123081e-002 -2.9540126372886086e-002
      -1.6499656491695902e-001 -1.7709438081169534e-002
      2.9522581667151315e-001 -5.2505984632602955e-002
      3.0793268742408286e-001 4.4378840701335881e-002
      -1.4933338031752284e-002 -8.0734237910868756e-002
      4.5241342414419705e-001 1.2715590213225184e+001
      6.3167997131491649e-001 2.1092751327355500e-001
      -9.9202265925459790e-002 -3.7728398398675639e-001
      2.4210462110708261e-001 1.5871347887582848e-001
      4.8486643829692817e-002 -3.0011286359098077e-001
      5.8436330806119575e-002 4.9904052940465638e-003
      -6.2583672488388892e-002 3.5321734624107481e-001
      2.5948709181380109e-001 3.5196561445946301e-001
      -3.1416505223462249e-001 -1.1479512197001356e-001
      -4.2548031727583679e-001 3.7260711989111628e-001
      -3.1667402415668250e-001 -2.7986019627296338e-001
      -7.7468255729979230e-002 1.4056904271246798e-002
      -3.9398584603504183e-001 4.0135179285176514e-001
      4.8062843515896503e-001 3.3282513797615570e-001
      1.2581728532286815e-001 -7.8140685962587719e-003
      -4.2421916909588193e-002 -3.9361814613994905e-001
      3.7865263746911126e-001 -2.3411262968923802e-001
      2.6188242273451862e-001 -3.5271400606232317e-001
      -6.3267357428445761e-002 -2.8395073128632897e-001
      1.5012810115728581e-001 -6.9747044756976861e-001
      7.3349607673922526e-002 -2.4405217729725265e-001
      -1.2745245301728855e-001 5.1958155525379324e-001
      8.7644099280355089e-002 4.4189562641447139e-001
      8.5482877835948129e-002 -7.2233076294879447e-002
      1.6814480217695532e-001 3.9771512779036555e-001
      1.2647543569188521e-001 -4.2939443126960475e-001
      3.3531743459271797e-002 2.5305515412074020e-001
      -4.4386391785965923e-001 1.5783660511478309e-001
      1.8811229529988824e-001 2.5169542661102023e-001
      2.0289256029408570e-003 -1.1492421285087173e-001
      -5.5363697364636824e-002 -2.6182230878606411e-001
      -3.0951494512383140e-004 1.9055885100695030e-001
      -1.4011921618124232e-001 -2.3125799996954202e-001
      5.5096099445815649e-001 2.4251820077425759e-001
      -4.9521060752281598e-001 -5.9407463698662018e-002
      8.0180407579150046e+000 6.5926371017512431e-001
      2.0224430187892073e-001 -1.9807784065515471e-001
      -4.4488167041914711e-001 2.9144223774719002e-001
      2.0849739297684070e-001 7.5101393726394391e-002
      -3.5160756620355427e-001 1.0060725006478932e-002
      1.1793225686230183e-001 -6.6773037156506440e-002
      -6.9209580251745756e-002 2.8268647546921510e-001
      4.0799790140151293e-001 -3.7077529548592841e-001
      -7.7492761696672574e-002 -4.8831722181812404e-001
      1.8908698738119109e-001 4.3014760202123997e-002
      -3.3699191187176286e-001 -2.4274464826479991e-001
      1.0557195407599987e-001 -5.0631768974511215e-001
      4.6476689068299859e-001 5.5592087698208037e-001
      4.2217597019707187e-001 3.3645190734142860e-001
      -1.4251393182634131e-002 -5.6051180525930687e-002
      -4.5481620931498723e-001 4.3583811218415164e-001
      -2.7809839923886776e-001 2.1395523074503037e-001
      -4.0092752283993244e-001 -1.4961521552909307e-001
      -3.3651494837648621e-001 2.9596270376889888e-001
      -8.0004933987386673e-001 6.6629767846701576e-002
      -2.9070847469603411e-001 -3.4344627683210581e-002
      6.0169356060271184e-001 5.1729812920099656e-002
      4.9355678089090360e-001 4.2257887697219088e-001
      -4.7048568567425328e-002 1.9781779271050939e-001
      4.5610899632667928e-001 1.4198012797577395e-001
      -6.6243119667392825e-001 4.2969496337355063e-003
      8.4421131024735627e-002 -5.0386427067602069e-001
      2.0020357221962445e-001 1.7845886753704771e-001
      2.8451851341619272e-001 -1.4301248278084842e-002
      -1.3138977931545420e-001 -1.7753877270599980e-001
      -2.8906659021519493e-001 -1.1390343234632334e-001
      2.0194394916988384e-001 -2.7595506461121727e-001
      -2.5280006647016812e-001 4.8274784042607577e-001
      2.9106589579128583e-001 -2.0137669574653377e-001
      -1.2347555541826834e-001 7.7486465516571734e-001
      5.8048856192448839e-001 2.0125580206469329e-001
      -2.0013341117147324e-001 -4.7674599619877783e-001
      3.9656177025966566e-001 1.9063035136414347e-001
      2.1207293250913867e-001 -2.2657422196478477e-001
      -7.8699099793769725e-002 1.6961741284794515e-001
      -1.3938644755154811e-001 1.5074012021140640e-001
      1.6345673951270320e-001 4.2568961700188518e-001
      -4.3205911626163568e-001 -2.5698842737516530e-003
      -5.5686468394404121e-001 3.4481209350466245e-002
      1.3105192821252235e-001 -4.4654624987057728e-001
      -2.8610057031726016e-001 9.4739739916794491e-002
      -5.2752815285972954e-001 5.8804643401904277e-001
      6.4113646047878436e-001 4.0133843451076590e-001
      3.5898993030868326e-001 1.3924007235247579e-001
      -7.2123745395757721e-002 -5.2164086125375408e-001
      5.2700809583915098e-001 -3.9645721445534948e-001
      1.3106796922221994e-001 -4.6671421458659984e-001
      -4.1186852526075172e-002 -4.3080940868194728e-001
      3.3489427616527556e-001 -9.0704307934055528e-001
      1.0474372091671148e-001 -4.7298725054414475e-001
      -7.1986325667874301e-002 7.3232298157529940e-001
      5.7110683485550894e-002 5.5102549604408280e-001
      4.7465309311446914e-002 6.3745496466897242e-002
      3.3343730673732153e-001 4.8506338777037972e-001
      2.2539932190407566e-001 -6.1426096135079467e-001
      -3.5782495962493532e-003 -2.8684106758717125e-002
      -6.1977679112247774e-001 1.7440532601388925e-001
      1.6994959877537794e-001 2.3974286180604987e-001
      -5.1950622586795239e-002 -1.6529803950670641e-001
      -1.2477025971088097e-001 -4.2163447742697807e-001
      1.4765001346539084e-002 1.7825251771719039e-001
      -3.3978510758319874e-001 -3.1099298696435246e-001
      3.3809993107235553e-001 4.1448524713673218e-001
      -2.5566487951071487e-001 -4.3547286051709558e-002
      -1.0379257451438667e+001 3.3840916690050837e-001
      4.1550034886454879e-001 -3.4098342440083229e-001
      -4.6766441971478723e-001 6.9451181662340378e-001
      4.2846036777098362e-001 4.2623270644457106e-001
      -4.0886027919610560e-002 -4.3908527197541743e-002
      5.1830311104332338e-001 -6.9703764538562252e-001
      -1.9744572950773601e-001 3.4065840302028527e-001
      3.6564515628086491e-001 -5.8297829087052633e-001
      -4.5227977218640286e-001 -6.2482250487521274e-001
      -8.4350170370590644e-002 7.4836457339348796e-003
      -7.4626055398195501e-001 -2.3517798905916443e-001
      2.2189428753751528e-001 -4.4198202590475189e-001
      9.3703849553288121e-001 7.8404857037588627e-001
      3.1752234454236961e-001 2.9043480765586416e-001
      7.3785416754903277e-001 -1.9808475646400314e-001
      -6.6179715448130183e-001 6.7482193014952219e-001
      -7.3935600948361546e-001 1.0325267570106018e-001
      -5.8765958964660281e-001 -3.2887655280082351e-001
      -6.3026912506077259e-001 -1.2435054132303061e-001
      -1.0302555434161569e+000 2.4420934118840013e-001
      -1.0197518602192017e+000 -2.3420202637260415e-001
      9.6399175384592783e-001 5.0988640064272972e-001
      5.1964941291782452e-001 4.2165915457260850e-001
      7.1661829803051436e-001 7.8261851530997584e-001
      4.7227224122847206e-001 5.0265930413570803e-001
      -5.1216932578626451e-001 -1.7392469081521172e-001
      -1.5417228938715643e-002 -8.3567813322400364e-001
      2.6129158120894985e-001 2.5558354617153328e-001
      3.9319702003139617e-001 2.6784111609052202e-001
      -5.8334248785346177e-001 -1.3146584793322963e-001
      -7.9279782722298875e-001 -9.4417645719251125e-002
      2.3949222641463064e-001 -5.2053827216971515e-001
      -4.1333054749968273e-001 2.3731318880841883e-002
      8.3224189383409264e-001 -6.9089571718518331e-002
      -1.2722970091879648e-001 -6.5601108014286007e+000
      1.2166707311567158e-001 6.0741610580734122e-002
      2.3103956726703300e-002 -1.1401243790054032e-001
      6.6976458956523557e-002 3.9372389958175408e-002
      1.5972499379711724e-001 2.3680282342406928e-001
      -9.6127609132570194e-002 4.8324006004241832e-002
      3.8265765060989457e-002 -2.2903955767528053e-001
      4.1946636881820647e-002 1.0781990448956150e-001
      -8.2834595680070344e-002 -2.8138464065295193e-003
      -1.2828436873665033e-001 -1.3865857604644141e-001
      1.2253490940266993e-002 -7.7823133463829172e-002
      -5.9168242117145865e-002 1.3624376372921248e-002
      -1.2681603829345808e-001 1.0827172311913391e-001
      1.3787762528237868e-001 6.6805356772607627e-002
      2.0015791116308984e-001 -2.3443504154653069e-002
      -1.0060998317527133e-002 -1.0729175278930990e-001
      1.1247423947109916e-001 -6.4600163646974421e-002
      -5.5920972808136779e-002 -9.1400178875414281e-002
      4.9615056345031612e-002 -7.5941362760154368e-002
      4.5593565309777095e-002 -1.9666757987109379e-001
      -5.5382784080239188e-002 -7.5350776619892437e-002
      -2.2254940856699583e-003 1.5135630356145161e-001
      6.0525386348548732e-002 1.2787436841000049e-001
      1.0605884011492699e-001 -1.3815184870566282e-002
      4.9199370898393657e-002 1.0503977545181015e-001
      3.1371321077915425e-002 -1.4851803726379245e-001
      4.4397225480475928e-002 3.7396498739088846e-002
      -1.2861735988537318e-001 3.1160810320051777e-003
      3.9965359699300318e-002 8.7082471249670737e-002
      -3.3264069839431504e-002 -1.5255865599301905e-002
      5.2727375229521006e-002 -7.5429896799211790e-002
      7.5544962955797750e-003 9.3429469274200986e-003
      -1.4340018624614792e-001 -1.8974332678666733e-001
      3.9029715249212421e-002 7.2873758356614193e-002
      -1.2603471638109118e-001 -1.5403601158391578e-001
      -2.6451768893887904e-003 3.6013080163546890e-003
      3.4480197327711234e-003 -2.4594380468443942e-003
      7.1454432420461024e-003 -1.0566961773932554e-003
      -6.4624688966441425e-003 -3.2243418010457761e-003
      6.9323373732167381e-003 -3.6557675996600363e-003
      5.1760375219061508e-003 -8.3883246048654155e-003
      -6.7179994760317337e-003 -7.8552883022847621e-005
      -6.8273588835524816e-003 -4.2887229529320814e-003
      -9.8537495283235904e-004 2.3468607110913118e-004
      8.6219690724168054e-003 6.8402191843794707e-003
      -1.5488265215525159e-003 6.5900936604788157e-003
      -6.5519777565488475e-003 5.6794619835485328e-003
      9.0952544397421460e-004 -5.5532998774248023e-003
      -3.1455607205447124e-003 5.4573658590569146e-003
      1.5033143861875741e-003 1.8942592511453180e-003
      4.0005037349380122e-003 2.8749058147804949e-003
      -3.4021984855357361e-003 8.4903130546835227e-003
      3.1605708864767047e-003 4.5720798794101243e-003
      -3.0602521628006729e-004 5.9574993928541648e-003
      -6.1035073322739213e-003 7.2051749644193861e-004
      8.0374441918547469e-003 5.5980932014561028e-003
      2.6417180831083860e-003 -2.7346196352025487e-003
      -4.8265968136410381e-003 -2.7044303858788624e-004
      -1.0817008477469988e-003 1.7716180209283296e-003
      -8.1086416706020268e-003 5.2157525091275541e-003
      -3.8127063222399759e-003 -8.2809275525561176e-003
      -3.0557970534664529e-004 -4.4405028297304638e-003
      4.7669248596271339e-003 4.0634867699093349e-003
      -7.8507355366025915e-003 -7.2267592591541774e-003
      3.3272242121338818e-003 -4.6629977682975847e-003
      -7.6522135563001983e-003 -4.0161451575140361e-003
      2.9784558575634756e-003 1.8636376435441865e-003
      -2.8516199282722465e-003 5.2476916763863433e-003
      -5.7397480516458632e-003 -5.0459557852752801e-003
      1.9185612650682760e-003 4.5799432212117985e-001
      2.4671550242621601e-001 7.8769969543178997e-001
      -2.7766465541348823e-001 -6.0499052851028723e-001
      1.4395021076746397e+000 -6.5066417591906767e-001
      -1.1233023011994274e+000 1.5949938232799987e+000
      4.7978599721296158e+000 9.6571840834274869e-001
      2.1304031934090961e+000 -2.8074259447705641e-001
      7.0441186629425875e-002 5.6888600149124308e-002
      3.4628121962315778e-001 2.8488530200941087e-001
      -1.2184054603719707e-001 3.6365442978625784e-001
      6.1183368889058003e-002 2.5888410160093445e-001
      2.3502414014544657e+000 -2.3497697563366910e-002
      -1.8978787090466692e-001 4.7973048241883859e-001
      -1.0532342792254085e-001 3.0029748683959956e-001
      -5.8665885526645686e-002 -3.7863954088864316e-001
      -1.2235642647456222e+000 6.4067858570120295e-001
      -1.5018070981644009e+000 1.2764707537066733e+000
      1.6644895742730466e+000 1.9844533916538498e+000
      -1.2728526077935942e-001 -9.2305082925150428e-001
      3.2194984135552446e-001 1.1365286834309325e+000
      1.1819032339590960e+000 7.2360062757167520e-001
      -1.2608251545072899e+000 9.6422799785997257e-002
      9.7786388975146216e-002 5.9151229667577043e-001
      5.7166765270670461e-001 -5.9071319850398218e-001
      -1.7361957329681271e-001 -3.7737012956927563e-003
      2.3603194428517013e-001 2.6954023543069999e-001
      -1.4042201855696370e+000 -1.1791111412177124e-001
      -3.3740545029860597e-001 -1.3682509066122475e-001
      -8.6998143601227027e-002 -5.8803035534129200e-001
      -7.0399001673258876e-001 -3.5927462392382503e-001
      -1.0361815503832541e+000 1.8452782891724279e-001
      -4.0858668426750150e-001 -3.5933831363107260e+000
      -9.8730161311487083e-002 3.5166188725374692e-001
      -5.5306179883870576e-001 -1.0245404177078987e+000
      -4.9569852077446956e-002 2.1079954229865688e-001
      1.3556847714966813e+000 9.0556834910208550e-001
      7.0727435479737566e-001 1.9766586244088633e-001
      -5.4926978343921462e-001 1.8518421620110221e+000
      -6.5039733163198576e-001 -1.3556214172827354e+000
      2.0204892185385219e+000 6.6779583790486834e+000
      1.7624026375518398e+000 1.8755018478184182e+000
      6.0230749636269731e-001 -3.4357307749313787e-001
      8.5890058189757590e-001 1.6495350343270817e-002
      2.5699424476964949e-001 -5.7660635915401015e-001
      6.9750336649038791e-001 -3.6619867784077170e-001
      3.1085505017815446e-001 -8.6088571239289341e-002
      6.2525766188113119e-001 -9.7175816210670607e-001
      5.0095287279977307e-001 5.4585311735303799e-001
      -4.0270245166638302e-001 -7.2420132158073913e-001
      -4.7244880430245878e-001 -6.9263168207108416e-001
      -1.7720044994231959e-001 -6.1684616867895958e-001
      1.5438687192705440e+000 3.1842948380500902e+000
      2.6309728328988378e+000 -6.3025934771029399e-002
      1.5329287048890639e-001 2.4926329993594121e-001
      -1.4459075612573211e+000 8.0910634295221651e-001
      1.4632135195311735e-001 -9.3557735059824687e-001
      4.2316106281881960e-001 6.5852055210128798e-003
      6.7799675826804273e-001 -4.0635402061189518e-001
      -9.7729654988633774e-001 3.1479332869388993e-001
      1.1394316401558739e+000 3.7066452524843849e-002
      3.5129526742385392e-001 -1.3080262487269532e+000
      -3.0552245282550777e-001 -1.6179867621203567e-001
      -1.1246832484687354e-001 -8.2641160817960441e-002
      -2.8750129040342475e-002 -3.8675925209389200e-001
      -2.1633128811941116e-001 -2.3348611256493068e-001
      7.9229979835548220e-002 -6.4544063641625904e-001
      -2.2830886108285648e+000 1.5463270913676264e+000
      1.4540274988515617e-001 7.3220766172385376e-001
      3.6858518790937894e-001 -1.1386238668853471e-001
      1.0390292971036619e+000 8.6284510366723186e+000
      4.5973745178755132e-001 3.0415250230830315e-001
      5.7440505696027078e-001 2.3364446876164530e-001
      -1.9356419213446138e-001 -7.1776053575598775e-001
      1.2055432874178854e-001 -9.5480034109686995e-001
      -9.4316721828022296e-002 1.7717442645183248e-001
      6.2339619538481261e-001 4.6655748243033743e-002
      -1.4134933811041392e-001 -4.9203212658718082e-001
      1.6943764351126153e-001 1.2950761092410459e-001
      -1.4416812692250897e-001 2.4414009680898957e-001
      -1.6586001572516515e-001 7.1000872149282424e-001
      5.0031398840765473e-001 -8.8845845945134713e-002
      -1.5437690081324415e-001 -1.4443363499752698e-001
      1.8919814372419205e-001 -6.2015242540567050e-001
      -7.6878358961424587e-001 3.4127210950341283e-002
      -4.5486767817218263e-002 -3.6132861142302686e-001
      -3.6394221266987636e-001 8.4870736371911637e-001
      -5.8797224418924943e-001 -2.2590563893288620e-001
      5.7242265396898728e-001 -3.6092394320708876e-002
      -3.4276051681943093e-001 1.0301363561437701e-001
      -2.3234028166249579e-001 -4.1052896787307708e-001
      4.6271111039553348e-001 -6.3094878294548418e-001
      5.1982929127082599e-002 -2.0601616601945261e-001
      -7.8620143197868397e-001 -3.2587625340790077e-001
      -9.5550394043555364e-002 9.2216352139904800e-001
      2.1136555624582445e-001 1.7998405195321074e-001
      1.0721559804446446e+000 5.5597722879348332e-001
      1.6196744664207413e-001 -1.7810555023982808e-001
      -4.9303044555533038e-001 3.3817877222529164e-001
      6.3280383670099527e-001 -2.2587991222679824e-001
      -2.8721824921352471e-003 -2.7017889785694438e-001
      -1.1920634220541382e-001 8.6566173592203499e-001
      4.0537025289905781e-001 -5.7717712470796399e-002
      -5.6666281179671889e-003 1.8362985517506072e-001
      2.2015653182067030e-001 4.0773731709658256e-002
      4.4488543446352518e+000 7.4870056835309817e-001
      -2.5326278827580501e-001 -4.2899318486590454e-001
      4.3021911447150429e-001 -4.0106072559337963e-001
      -8.7986046360232351e-001 5.0541965449276360e-001
      -1.1064356219420000e+000 -5.9038540911078830e-001
      6.7137802377648692e-001 7.2346771702009982e-002
      -3.9103981798713566e-001 3.7153983798366275e-001
      -4.1171566530133097e-001 3.1714928428498157e-001
      -4.7562730389294150e-001 -1.3708591418814686e-001
      -1.5802387228954520e-001 3.3007691799148881e-001
      4.1276772616829349e-001 -2.3582593626908599e-001
      2.4279377374747790e-001 -2.0374255901199859e-002
      -3.6269621310418831e-001 7.6430071842336550e-002
      -3.8837550765621337e-001 -7.6673227107787523e-001
      1.4443522899012790e-001 -3.4211693748103278e-001
      4.6714660325053969e-001 -4.1699419310158095e-002
      6.2514670126125116e-001 -1.3714587895708976e+000
      3.7058012449524469e-001 3.5393813372207254e-002
      -1.3109226516688544e-001 -3.6349123186424154e-001
      1.1956653273265563e-001 -7.0620417516142073e-003
      -3.7335578200582149e-002 -2.4290574342459523e-001
      -2.5719139259934393e-001 9.5093092427039078e-003
      -4.6223347183670216e-001 -1.2241608846230405e+000
      -7.7530338432268447e-002 -1.9409863631381102e-001
      -2.2774118275806948e-001 6.4198595549236431e-002
      -7.3001965749050463e-002 1.1364986646334458e+000
      2.2338953223703459e-001 2.5335332911812369e-001
      -1.4920680366172659e-001 -2.9373356217985291e-001
      -5.0269166031836943e-001 7.2784984452463664e-001
      -2.2419864327976241e-001 -4.1578725040702696e-001
      -3.3929620181187570e-001 1.4457391411605444e-001
      5.7576835463230010e-002 -6.0464204471310934e-001
      2.5231490506815901e-001 -2.4251582901107294e-001
      -5.8109827542826886e-001 2.9616813437618394e-001
      2.6642050525432104e-001 3.5921840721630489e+000
      -2.5577144131987178e-001 1.2688090180450692e-001
      -1.8534296285736737e-001 3.7491980337757957e-001
      -3.3277182667288935e-001 -4.2638274008184995e-001
      2.2509406914981902e-002 -4.0788220144708821e-002
      4.1006588359106894e-002 1.9268164400555848e-001
      3.9681533523215395e-001 -4.8045531369971289e-001
      -1.0728635793457529e-001 -1.9136647261376871e-001
      2.5565913061270834e-001 -7.5349251659642291e-001
      -3.8639710017551271e-001 1.0586191270258545e-001
      -3.2110663437385101e-001 2.2054802924510658e-001
      -1.2417597857386919e+000 2.9609881641879215e-001
      -7.5443343412785857e-002 -5.2091839705975107e-001
      -4.0661515073968875e-002 2.7562656154374265e-001
      -2.7756635680638420e-001 5.8077756518916979e-001
      1.1456194612540779e-001 -1.8821082663067770e-001
      4.3563951555841141e-001 1.5840532112946996e-002
      -1.4364948874196265e-001 2.9630754013430727e-001
      -2.1041700721515327e-001 5.8518200908385852e-002
      -1.2548072674021155e-001 -1.2504882093469441e-001
      -4.0016942019712620e-001 7.7985875506502073e-002
      -1.5398182558945131e-001 5.1951103903772396e-002
      -5.1984827648550856e-002 4.6201372452100757e-002
      -7.1448700877148430e-001 2.0620624334822210e-001
      -1.4916320669361133e-001 -3.2069090395095000e-002
      3.5021284235345834e-001 -1.3366621433709197e-001
      3.8871832645073201e-001 1.1080243081276302e-001
      7.7549538270675289e-002 4.1888065137584047e-004
      -8.7323603846102382e-002 -1.1812750955787267e-002
      1.0646316795007815e-001 -1.2200336408865953e-001
      -3.5013572025103834e-001 -3.6282971761713395e-001
      -2.9354107511349820e-001 -5.9905430578894560e-002
      -2.2139902671007328e-001 1.0514654193130345e-002
      9.6146789800658827e-002 2.3660175486301679e-001
      -2.8757092183799216e-001 1.9349801526195418e-001
      3.0215612873561537e+000 -5.9656563986201661e-001
      -3.4427892007706767e-001 1.3228102864067299e+000
      4.3652073674540492e-001 6.6442425686342843e-002
      1.9053501806962098e-001 -2.9448490721834875e-001
      4.4138894306060654e-002 -4.3652831579159912e-001
      -5.5363576622847788e-001 1.0825734623671288e-001
      6.2599807576918409e-002 -5.9221997650994040e-001
      -3.3273133898445456e-001 -5.2245434504821675e-001
      -5.4678225691756255e-001 -3.3259919484178652e-001
      1.1966774571133658e+000 -3.1836061853273878e-001
      1.9545790837474022e-001 -1.0214507053322985e+000
      5.3589528147214005e-001 -5.2751756327090216e-001
      -4.1138212910135402e-001 1.3678027958322628e-001
      1.8847123442758135e-001 -1.2496936767494876e-001
      8.3628174360301066e-002 -1.4591552482068282e-001
      -2.4805205192700186e-001 7.2734491427334380e-001
      3.9828656434297510e-001 -2.2831874103301017e-001
      -1.2763112609355998e-001 -3.9517944487528628e-001
      1.4809456536897969e-001 -2.3515742871230821e-001
      -3.6037372335762863e-001 -3.6769687329734052e-001
      -7.8618254863490478e-001 7.1518706783900754e-001
      -1.5512657421184917e-001 4.3146265232327050e-002
      1.0655883850311167e-001 -2.5838071184444356e-001
      5.9316133978417540e-001 9.8717303776224799e-002
      4.9663492267231338e-002 6.3831620988851631e-002
      -8.0173577645377248e-002 4.9667151628076606e-001
      7.8084352749099861e-001 1.6688142738199241e-001
      6.7720444217810838e-001 -3.1937306318554806e-002
      1.7311376774876497e-001 3.5646539513593828e-001
      -4.8573088364289557e-002 1.8977801115271065e-001
      -1.4573625447117666e-001 7.6993426490933750e-003
      5.8927679061800242e-001 2.1953110178277485e-001
      -4.9755559456898385e-001 -4.0461644919936363e-001
      7.6964221915296005e-001 -3.4469516466337780e-001
      -7.1399880110248581e-001 -7.5285483103509021e-001
      -2.5008422847379108e-001 -4.1010375076906475e-001
      7.9011095416944899e-001 2.2435630283941446e-001
      3.0750524184115613e-001 -1.4239928936031207e-001
      -1.1204781552588275e-001 -4.2673237707213409e-002
      -3.2025189931627640e-001 -7.6409642117546792e-002
      4.3147678279039592e-001 1.1690839808910401e-003
      -4.1072636307743376e-001 -2.3080437670077961e-002
      -1.6357172920664284e-001 -5.4493835589050044e-001
      -4.6874895821235191e-001 9.5016705381689004e-001
      -7.0940435758896936e-001 -1.1187813170697419e-001
      -9.3749075521542302e-001 3.4087606934214804e-001
      -4.1076723144443550e-001 2.6714749727015608e-001
      -9.4872268801151211e-002 8.3534226043176507e-002
      2.5150400263626210e-001 3.1274041280653248e-001
      3.7900272408159080e-001 -2.1127227149809269e-001
      -3.1534255861585460e-002 8.5922382648290385e-002
      -6.8513236688721990e-001 2.9864774379028641e-001
      4.6662823593578276e-002 1.2326266153317890e-001
      -1.7924261822663021e-001 -2.6603975327170443e-001
      -9.9939941070748703e-002 -2.2505770392264363e-001
      9.3161811206058398e-001 -2.0226853728056193e-001
      -1.6299114213862459e-001 4.2422883026066688e-001
      2.7204227577981101e-002 -5.1727151752648887e-002
      4.2551811034158726e-002 4.1398623610680685e-001
      3.7589571384650286e-002 -2.6835015096466558e-001
      -1.9474019101774073e-001 7.7149283023382176e-001
      9.9995488159606266e-002 5.3164648175113338e-001
      -3.8871715981803578e-001 6.1296598747396569e-001
      3.8042017383880805e-001 -4.0165462029696619e-001
      2.3492739899802451e-001 -2.2506067307957688e-002
      2.2608665153484156e-001 5.1092500349478320e-001
      5.4891989998500379e-001 -2.8803825602845101e-001
      -2.8579977594846340e-001 5.2666941344553431e-001
      -5.6192589913216029e-001 -8.7666192158684964e-001
      3.3292242518019005e-001 -8.6717603802109036e-002
      8.4587150920845511e-002 4.4161423489271066e-002
      7.7992292130014745e-004 1.2140268371617181e-001
      4.7139551728318257e-001 3.6327152323434453e-001
      2.3729411861577829e-001 8.3319430176319131e-001
      9.3002623699045911e-002 -2.1501710944988199e-002
      -6.2087391259948088e-001 -1.8943313430208802e-001
      3.1810051362029662e-001 2.0590338113095707e-001
      -1.2502934597889681e-001 -2.6647806339057040e-001
      6.0506168647080283e-001 -2.9071432064561248e-001
      -3.0494894787302829e-001 -3.8176763705907507e-001
      4.1544141596859929e-001 -2.7911763341047208e-001
      8.2670555002679558e-002 -3.6841658428254809e-001
      3.4137375530952885e-001 3.3745799726245596e-001
      -2.5520656759514670e-001 3.9142166337716155e-001
      -3.1597400202153358e-001 1.7514390812476613e-001
      -2.9887733754285761e-001 -3.2881418373311283e-001
      -1.5975357411721053e-001 -1.7476863226778017e-001
      2.0236594133558353e-001 8.8088478328642736e-002
      -1.9853989897421978e-001 -1.6436217962780753e-001
      -3.8673162278609791e-001 2.1273589765875350e-001
      9.4087548811201321e-002 -1.0977030738526933e-001
      2.4590482222029117e-001 1.4006590358045617e-001
      2.0016894758018661e-001 2.5431916704754372e-002
      2.1565239201788125e-001 4.9267833223184704e-002
      -2.1528359600800470e-001 -8.5115720071156853e-001
      3.3335412213750332e-001 -3.3387861053728379e-001
      1.6798426147282663e-001 3.8548854513199227e-001
      1.0095848004853887e-001 5.4535001965006169e-001
      -5.0542555075361748e-002 -4.3960162794555314e-002
      -1.7418123967940979e-001 -8.3923770305804529e-002
      -3.3035673862106270e-002 9.4534051988942049e-004
      -4.7947488039219427e-001 -1.0603018559731847e-001
      5.3961345932288893e-002 -1.1785206909413382e-001
      -7.4632215571067889e-002 1.0390650616984473e+001
      -3.0999468446461884e-002 1.6769679341675936e-001
      -1.1203861749118869e-001 -2.0332894085992745e-002
      2.2466460122660421e-003 -6.0236070957755281e-002
      1.6856577558383024e-001 1.6201339062910999e-001
      8.2756831559165911e-002 1.1284094327102470e-001
      -1.7604180625252197e-001 6.4783675193549634e-002
      2.6958271238109621e-001 -1.2973869176442054e-001
      -7.3266822268348124e-003 -2.7280099770962598e-002
      -3.9089677533372796e-001 2.4792412894701354e-002
      -1.5912589288689652e-001 -3.4511030776864471e-001
      -1.3248024232356853e-001 7.7245527885377904e-002
      -3.1750539752728918e-001 1.5457466485546600e-001
      3.2419594380151201e-001 -3.7416852378049349e-002
      2.3634092172754924e-002 -7.0037359954731662e-002
      -3.3650450931541365e-001 -3.6407953483585292e-001
      4.0507935346655755e-002 -2.7686690991563778e-001
      6.7813050902389749e-001 6.2962569967434434e-002
      1.7003913478366914e-002 -2.9631029293933642e-001
      -8.5188928176383981e-003 -2.2066507094594820e-001
      -2.9224502111613937e-001 -2.7917926228903853e-002
      4.8237662115325719e-001 1.8353874467676634e-001
      -4.4007042460166035e-001 2.4941008391935660e-001
      5.4718902867488999e-003 3.9561948828283490e-002
      4.0362535068806556e-002 9.3250706463508526e-002
      2.7661653743793473e-002 -1.4355407481204580e-002
      -2.6602289557372083e-001 1.1678204641008174e+000
      -4.6008430142312723e-001 9.7359718754262761e-002
      -3.7935422353481178e-002 2.9907739634389291e-001
      3.2983533960291683e-001 8.2134149606307074e-003
      -5.9471780432629788e-002 -1.6116043074277392e-001
      1.2850300681079221e-001 2.9554340230738935e-001
      -2.8338372136763024e-001 -2.5537627978297855e-001
      5.4946763728801862e-001 2.2291052529121635e-001
      -7.6765210685257962e-002 4.8831093014840915e-001
      1.5026794418969086e+001 5.0893042342758532e-001
      3.1087488384187040e-001 -1.6069747121349351e-001
      -3.6235757477988140e-001 2.3980191117946625e-001
      1.7251335723852024e-001 -1.4232382644473635e-001
      -3.4862489752889420e-001 2.2369624002821828e-001
      7.7552039548272819e-002 -1.9949861710508263e-001
      2.0435776991731569e-001 4.5661305438448996e-001
      3.7016448821061682e-001 -3.3643664210978047e-001
      -4.1033547633887790e-001 -4.1439444842806877e-001
      1.5398827446450059e-001 -2.7308346878132694e-001
      -2.7250327248414247e-001 4.4540570169586763e-002
      -6.5131185555044133e-003 -3.5972938597072840e-001
      3.9174777468042354e-001 4.7727810381141578e-001
      2.2024039476222845e-001 1.7968606049665325e-002
      1.6363779395993764e-002 -7.0016665911762047e-002
      -3.8428495662276496e-001 3.7058122597220594e-001
      -2.3813566143834947e-001 4.1544056183817807e-001
      -3.9507393637344662e-001 -4.5915969665233314e-002
      -2.8892538337210555e-001 1.2280763844637389e-001
      -6.9891456708538091e-001 7.2783361008626951e-002
      -2.5622227705975054e-001 -2.4923056974184926e-001
      4.9589377298871090e-001 2.1348572980701663e-001
      4.0242526331467726e-001 -2.3452359162496419e-001
      -1.5343777021636782e-002 1.6632933645747938e-001
      3.9751965742746848e-001 1.6939962092324379e-001
      -3.8418220150193177e-001 -2.1947186379835744e-003
      1.5999177835329387e-001 -4.3542440163218288e-001
      2.6417452674937519e-001 2.6252906848140006e-001
      3.9962261205541000e-001 1.8915556783720727e-001
      -2.2137324445161927e-001 1.3996045882713928e-001
      -2.5387003886786624e-001 -2.6362810815476145e-001
      2.3371366119516498e-001 -2.2304143961253747e-001
      -2.7553651930123829e-001 3.9575393270063397e-001
      2.4605710352937743e-001 -3.0391993340449941e-001
      -1.8987323245218890e-001 5.9138133357555809e+000
      6.7769039034501100e-001 1.7378848939113314e-001
      -2.0041374400291537e-001 -4.3336661647363484e-001
      2.9551522767557631e-001 1.6810216811360557e-001
      -1.6829541755349977e-002 -3.1833069574687972e-001
      2.3146226457948629e-002 8.6356702535692206e-002
      -8.3009616855754240e-002 -2.3460903383804393e-001
      2.8275820545291652e-001 3.9960223947265711e-001
      -3.8524222535261088e-001 -9.4957306523246424e-002
      -4.9040318603881100e-001 -3.2903653576716672e-002
      2.3204748654854851e-001 -3.3079111500083713e-001
      -1.4038685654843761e-001 1.1328885020902445e-001
      -4.8997889350729512e-001 4.7094050609391103e-001
      5.6292571673429515e-001 4.5297638122345324e-001
      2.9578453135784705e-001 -6.4595328500684657e-003
      -7.4343849245370880e-002 -4.4766448482020954e-001
      4.3774836412036577e-001 -2.9781166388437325e-001
      2.2485659861211446e-001 -4.1504315967742839e-001
      -7.3923608140475078e-002 -3.3501462785115255e-001
      3.2445900061724742e-001 -7.9462472664736405e-001
      3.1575321393397623e-002 -3.0806118896726370e-001
      -8.3261306467104015e-003 6.0534368310506481e-001
      -5.0352338873054479e-002 4.9264662308768492e-001
      2.0192824450497504e-001 -1.9137285301506581e-002
      2.0585579746465246e-001 4.3988989212654650e-001
      1.5131676120706122e-001 -7.0048387017779157e-001
      -3.5274196166354440e-003 -2.6907919857330449e-002
      -5.0557873217473392e-001 2.0666541555423018e-001
      1.8351150236072347e-001 2.5543592168342005e-001
      2.2123890523446613e-002 -1.1685938996835364e-001
      7.4375127134834471e-003 -3.1045272480424202e-001
      -1.9957873555925823e-001 1.4587379022777713e-001
      -1.9135690419355300e-001 -5.2026602207232008e-002
      3.1805317315334725e-001 3.0266961439757695e-001
      -4.1831187465112947e-002 -1.6393982626576906e-001
      1.3552027076348176e+000 7.1878324724790021e-001
      1.9090885850191358e-001 -1.8484393660145057e-001
      -5.0359657860510543e-001 4.4363196509714664e-001
      2.3693131798134948e-001 2.7492832787942101e-001
      -2.1870613375591724e-001 -8.0006614624250627e-002
      5.8704654705359322e-002 -2.0760748175682597e-001
      1.5507483125796595e-001 1.5727620452778382e-001
      4.3334979808916169e-001 -4.6653427870536879e-001
      -1.5813819935346814e-002 -5.7519938640270807e-001
      -1.0281471282350620e-001 5.4947773831159417e-002
      -4.9020634136025393e-001 -2.1664716397761330e-001
      1.2561836561127537e-001 -5.3937772770861880e-001
      6.6548578273790737e-001 6.9988910452399677e-001
      4.8198171582265675e-001 3.4338357046347284e-001
      2.2281271891650042e-001 -9.0908682450400374e-002
      -5.6579416835191854e-001 5.6440888203531159e-001
      -4.5187418462117107e-001 1.3943765345593365e-001
      -5.0312069299907869e-001 -3.9443463940183505e-002
      -4.5732711192697140e-001 2.8635709096563922e-001
      -9.6662274351064703e-001 8.2770400478390752e-002
      -5.5810137810994553e-001 -5.4263436518390655e-002
      7.9767123458579814e-001 2.9682411542331869e-002
      5.9074469279811792e-001 1.1992390210377582e-001
      1.3693530292142597e-001 4.0361153253857107e-001
      5.1035914368805368e-001 2.5716722806531672e-001
      -6.2272769477379175e-001 1.1678068327905378e-002
      1.4882543240410129e-001 -6.7446443606642170e-001
      1.5545138261419941e-001 1.8540525906250915e-001
      1.9982602509097452e-001 -4.8489362595629040e-002
      -1.8168055330648003e-001 -7.2281256737830105e-002
      -4.8494538727303377e-001 6.8190014011011588e-002
      1.4254073374599469e-001 -1.7053071138048023e-001
      -9.4755551270182009e-002 4.1435670544606984e-001
      4.9072096743683058e-001 -4.2362741891130123e-001
      -2.0110574787403267e-002 -2.4996366685630846e+000
      4.5428893674916426e-001 3.2591495197715381e-001
      -2.7067282765482614e-001 -4.8006928833313067e-001
      5.3518293445610454e-001 3.1660262831144492e-001
      3.8095710409887507e-001 -2.3984131591153918e-001
      -1.6260210435395762e-002 3.2461904765236982e-001
      -4.5569438276281615e-001 6.6204942997789798e-002
      2.6725663003322231e-001 4.1025949512720805e-001
      -4.9380637150570905e-001 -2.5366652280885088e-001
      -5.8190990409839582e-001 -1.0178185293681608e-001
      -4.4471957369987103e-002 -5.7887786582817002e-001
      -2.7455089578566388e-001 1.6584752093278815e-001
      -5.0064744619308865e-001 7.5037584182583938e-001
      7.2138268818717310e-001 3.6871688374818407e-001
      2.9531717002497976e-001 4.4197543349064938e-001
      -1.3044775348960289e-001 -5.8654191920897003e-001
      5.8129931874183127e-001 -5.5074167181089917e-001
      1.6501480748515790e-001 -5.2438291881595378e-001
      -1.9089329342755371e-001 -5.1708198402653716e-001
      3.3524503524639017e-002 -9.6420923697207883e-001
      1.7958200666972604e-001 -7.1446166672754308e-001
      -1.4676891136541195e-001 8.4910019675419202e-001
      3.3179942934943479e-001 5.7968504161010526e-001
      3.8938204948377408e-001 3.5234868658780744e-001
      5.3111221505388007e-001 4.8793712399320577e-001
      3.7130661286717398e-001 -5.4609851096416628e-001
      -1.1111956811630566e-001 2.3577584076563340e-001
      -7.1569682373569266e-001 2.2308858294218692e-001
      2.2710757664447387e-001 3.3045100879514339e-001
      1.0140715146712004e-001 -3.7044297714304153e-001
      -1.7654574131897094e-001 -5.8126121364366401e-001
      7.8745686029445521e-003 2.3385522453505797e-001
      -4.0550285592364782e-001 -3.8637685595504578e-001
      3.6917116465760785e-001 6.0571024884547875e-001
      -3.2701765999274957e-001 -1.1865128400870169e-001
      2.4739676035244265e+000 1.8287503387625273e-001
      2.2424626676210879e-001 -1.4382984347000013e-002
      -1.7654628060883415e-001 1.0842963296141622e-001
      5.5156778751747716e-002 1.1166319211857259e-001
      -1.2229439413118527e-001 -9.2084342260351712e-002
      4.5644107806594963e-001 -1.6284648319516894e-002
      2.9750987272470947e-001 2.5013059358712397e-001
      1.5980857433660636e-001 -1.3497107668894084e-001
      -2.3464931491693222e-001 -1.8486128786232073e-001
      1.1752993966051446e-001 -2.2039254305008810e-001
      -1.3129157462867433e-001 -2.7340068805089662e-001
      1.3722835162836110e-002 -1.9438067162153433e-001
      1.6462345882014870e-001 2.1117916060326883e-001
      9.2554108514762951e-002 1.5824609791404326e-001
      -1.5708726959686940e-002 -1.6673467492429345e-002
      -1.7451742608693446e-001 1.7578243376757285e-001
      -1.1015296669122866e-001 1.8940156569615667e-002
      -1.5510319803553940e-001 1.5159129703479139e-003
      -1.2401871517724777e-001 8.0880647735251165e-002
      -3.0995366445396594e-001 -2.4179726750202631e-002
      -1.1770557123360881e-001 -2.6083517654984179e-001
      2.4067028587951611e-001 4.7267029497503643e-001
      1.9510379021574378e-001 1.3284050681935675e-001
      -2.1069315762300721e-002 6.4186453776351751e-002
      1.6562326964229246e-001 3.1025021813092187e-002
      -2.2523622438089308e-001 1.6090490491199436e-003
      -8.7595510000248421e-003 -1.9765785802367902e-001
      6.4988005164965237e-002 6.9044717437917083e-002
      3.9312360133052854e-001 1.6476644212412764e-001
      -1.8679873294920815e-001 3.7807122604057761e-002
      -1.0328342551539545e-001 3.3566742820494752e-002
      2.2044417523635007e-001 -7.0425014373737704e-001
      -9.7029180993312314e-001 2.3972085188871017e-001
      1.0361980450315714e-001 -2.2672241281678393e-001
      -6.5393491655991967e-002 7.4910048721941076e-003
      5.5506011198027993e-003 -2.4863782044490836e-003
      -3.8733693623444389e-003 7.4245118134066658e-003
      -6.3411793185829072e-003 8.5803460173318781e-003
      2.1818453025283503e-004 7.7819974889688096e-003
      -4.3995148209756800e-003 -3.5330785848545800e-003
      1.1846051168304223e-003 -5.9925633175194311e-003
      3.6476004941851286e-003 5.5460118876051413e-003
      7.8065444088942833e-003 7.6252717852932873e-003
      6.3521093665699895e-003 -6.9957451665681883e-003
      1.3857430707458492e-004 -3.3237538100795070e-003
      9.7328498264556836e-004 6.7999476274230499e-003
      7.5951211264349483e-003 -1.1913374490635666e-004
      7.0034879234122617e-003 8.6369875090301969e-003
      -6.7096050121247140e-003 5.1698271368039493e-003
      -3.7778456737909212e-003 2.3548325634348360e-003
      -1.4179035520704925e-003 6.1020246088491405e-003
      2.4776132806701512e-003 2.9342782635924385e-003
      -5.5594371701172879e-003 -4.2559655867943722e-003
      -8.5774696617993054e-003 4.3593324372416271e-003
      -1.9877277136153694e-003 -7.8612371911303738e-003
      -7.8441793020269778e-003 -2.4478604584445155e-003
      7.8675452858130920e-003 2.5805333310104052e-003
      5.0510210598687759e-004 1.7827821281788370e-003
      7.2024683583388205e-003 -3.1571187790942349e-003
      -1.4689900811869472e-003 -4.6218011048419355e-003
      5.0355334327599618e-004 -2.7063839120202138e-003
      -7.6446766330852088e-003 -6.8274853270345499e-003
      3.0313480878694093e-003 1.2198550060472087e-003
      8.0557876767998436e-003 7.0004080575203883e-003
      -6.1764727427145293e-003 -1.2451308951351556e-003
      -1.0271252769855188e-003 -8.9582140272951487e-004
      -6.1786102231885546e-003 -1.6773151642253559e-003
      1.1939691060100326e-003 -6.7760657110837157e-003
      2.9532049950719442e-003 2.9267389713398084e-003
      6.2583801432876367e+000 2.1671527581516406e-001
      -5.1847657409156783e-002 -1.1512556893599832e-001
      3.6740584839551887e-001 -2.4014603954945787e-001
      -5.8372322773617502e-001 -2.9493219448682811e-001
      5.8506701923582805e-001 7.1825312387735007e-001
      3.2922451398216546e-001 -5.6431769472557314e-001
      -8.0751524288950813e-002 -1.0099287911809118e+000
      -5.2433191898366330e-002 8.6311967058985018e-003
      3.3685873924777898e-001 5.1963459800670131e-002
      1.4493723560915078e-001 -9.6814415390857278e-001
      -1.5593278602870341e-002 2.5621675970311593e+000
      2.0622641316148835e-001 -6.2085644637443549e-001
      3.7514833003388992e-001 2.7544140684381302e-001
      -1.5098191518833373e-001 6.7696120677334409e-002
      1.3526335699998489e+000 3.0724197476197945e-001
      6.9835129748031677e-001 -5.7728833393369905e-001
      4.6198164155624155e-001 1.1633564559450968e+000
      4.9438444537665355e-001 1.2279193042663601e+000
      8.5120078725536119e-002 3.0986500464883387e-001
      6.8885029222635219e-001 3.7116838782947903e-001
      6.2456910677430211e-001 -3.3544643025493653e-001
      -4.8633838948983465e-001 -1.1118035600829897e-001
      3.4697744139807868e-001 4.4034013285695223e-001
      4.0263634468905313e-001 6.7439939794971748e-001
      1.8340236072587035e-001 6.3190401727669288e-001
      2.7567383713258731e-001 -7.2591761408620470e-001
      -9.3865938320563218e-003 9.2043746868240878e-002
      3.4542610476305086e-001 -3.6842955612446077e-001
      -1.1829393850931135e-002 1.1787066020954637e+000
      -2.9997419294475445e-002 -8.9686221805695659e-002
      3.3451231952753735e-001 -2.1150060323898234e-001
      -1.1729518466100746e+000 3.2770072032522912e-001
      4.9624881690081563e-001 -5.0740453801793339e-001
      1.1165411710055282e+000 1.9375561037039885e-001
      3.9813901164211207e-001 1.9518586983437063e+000
      4.0675901109708851e-001 4.5004416431268585e-001
      -3.9638949899829062e-001 -9.5243083166389519e-002
      -8.6589762836987649e-001 -4.8013564403505737e-001
      2.3600625189763283e-001 1.4300620304835456e+000
      -1.5562507530830877e-001 -3.4173596789475030e-001
      1.6853941706458438e-002 -2.5934377301595696e-001
      6.4374842394007192e-001 2.3121806866138725e-001
      2.8427597335913823e-001 -5.1483013871478911e-001
      -9.4279766697323089e-002 2.2368944623081188e-001
      -7.1488233345682473e-001 2.8351524981759529e-001
      9.6302923131917695e-001 -1.5538975706488509e-001
      1.8779738968784007e-001 6.0738964228392056e-001
      -3.6314932308869574e-001 6.5902316783584580e-001
      -1.4366579103319552e-001 -1.4767877297657520e-001
      4.3604045549258875e-002 1.1172285282305430e-001
      1.0834489401612515e+000 -3.5900877513256946e-001
      4.6779948659636228e-001 3.2147839682213147e-001
      6.0204848818168732e-001 -2.9131922529577142e-001
      3.0718348996428801e-001 4.9242824639476046e-001
      -2.9622698274121906e-001 1.5346905553500081e-001
      -6.3949789262433698e-001 1.7409323382664659e+000
      1.6378694243447772e-001 -8.3621639400309256e-001
      1.2531027863656913e-001 -7.0534531504071829e-001
      1.2420094204800584e-001 -1.0620702019138837e+000
      3.8827355793847707e-001 4.0887152789823722e-001
      -9.6047641349689439e-001 -1.3245368954552144e+000
      1.0666749261817435e-002 5.1188928980244623e-002
      -4.5167558366691968e-001 -3.7613486277980779e-001
      9.0181002703109614e-001 -1.1942907350935773e-001
      -9.3344348389050058e-001 -2.9162951494437250e-001
      -7.5071205672156904e-001 -2.8884518295677903e+000
      -2.9946266840714186e-001 8.8914628626712386e-002
      -9.1415130544649781e-001 2.8826028521101317e+000
      -3.8558977428613049e-002 1.3615800935581042e+000
      3.1600833531924888e+000 4.6249609126526911e-002
      -1.7632212960759228e-001 1.4314717051858170e-001
      -1.1351518150414998e-001 2.5120785475017043e-001
      1.9367040427503626e-001 -9.1664220858575521e-002
      -8.9434455539877089e-001 -1.1405690503997361e+000
      4.0564130724313979e-001 1.8343546105364647e-001
      2.6795654666443153e-001 -4.0771228106348190e-001
      1.1725848229773284e-001 9.6643432261867401e-003
      6.2423493449828271e-001 -7.8462263301144600e-002
      6.2461189639199921e-001 -1.4790504398545773e-001
      -2.1240415029087283e-002 8.9093445913390068e-001
      -4.9921015818652892e-001 6.5781473194068552e-001
      1.4823332809664888e-001 1.3409014895214516e-001
      -8.0945396820275939e-001 -3.7912070261784830e-001
      -2.8989650928479629e-002 4.4256337606931112e-001
      1.4198463523708554e-001 -1.4131488242307044e-001
      5.5365190247806013e-002 4.1286584820256307e-003
      -2.0388262001777527e-001 1.8752641201692141e-001
      1.4835495160357151e-001 1.5923133658491864e-001
      3.1433273944054391e-001 6.9743847356268845e-002
      3.7972957286485604e-001 4.1853980852242600e-001
      -2.6334283755861015e-001 -1.7156083480905338e-001
      7.8503368690467215e-002 -6.1463391698184922e-001
      -8.5996822610930235e-001 4.3820807444265142e-001
      3.9956046373000507e-002 6.0011748905343654e-001
      2.6074869119246148e-002 1.2188498703114281e-002
      3.2817367273236575e-001 1.0488361877809163e-001
      -5.4484470887849077e-003 -1.8693705703843006e-002
      -2.6906161764733486e-002 9.6496006407048485e-001
      -5.1737466628693565e-002 -2.1786140648263109e-002
      -1.7171567226053988e-001 -3.5618606977788603e-001
      -1.3015004286766613e-001 1.7581950413549888e-001
      -3.2418148413073927e-001 4.2172461110722415e-001
      1.1514865438017199e+000 -4.1782997578930996e-002
      -8.9147857264310890e-002 4.5473742047287401e-002
      2.3753324960426595e-002 -5.1418752974576731e-001
      5.5705289779074818e-001 -6.4942027357180143e-001
      -1.3535870619471310e-001 4.6599472623976157e-001
      -1.3341163867787492e-001 -5.0185787385196734e-001
      -1.9486641730206133e+000 1.4152275778478458e+000
      -3.9143073948104706e-001 9.8275221635421206e-001
      -6.8574425555104479e-001 1.4535808698732786e-001
      1.2501858969162843e-001 4.8346081896585530e-001
      -3.0905629434856049e-004 4.5937443014653889e-001
      -1.3912413868996903e-001 1.0686108010175277e-001
      6.1492885860488555e-001 -1.9952320860087822e-001
      2.3131336669802072e-001 -1.1935673223497438e-001
      2.8818558176965836e-001 -1.7068698469072137e+000
      5.0255215373403488e-002 2.8174609782772519e-001
      1.2987712633872683e+000 -1.3867749743636898e-001
      -5.7791903242048170e-001 5.6474255027301978e-001
      1.8044291722071193e-001 -3.8862740263017104e-001
      6.3569240767779672e-002 -1.1755989988542931e-001
      -2.6731689844079259e-001 -1.2700742110192678e-001
      9.0218687173508139e-001 2.2169185704053429e-001
      3.0815865388950286e-001 -1.9225760309649587e-001
      -4.3554118803126191e-001 -1.2317826648339530e-001
      9.4720723673754087e-002 -5.7375314776543973e-001
      9.2417149687663358e-001 1.6888280371152045e-001
      3.8168481532749077e-001 -4.7011730249992562e-001
      2.7425392318374481e-001 1.7619038696771686e-002
      3.8187224036711687e-001 5.4635402982282277e-001
      2.6841433323532571e-001 7.4268439504939388e-001
      1.3086824740001968e+000 -5.8529468100875857e-002
      5.6794347565965508e-001 3.5108795324366321e-001
      -3.4443869248160869e-001 6.7741182776626596e-001
      1.0714609673497786e+000 -3.2122062600456214e-001
      5.2512632129592715e-002 1.5813136568537476e+000
      6.7567689740986009e-002 -8.3699673886670489e-002
      -2.2785960238862359e+000 -3.6541075260168865e-001
      -2.2313839657194137e-001 -2.6034586813072591e-001
      -5.7009399760645418e-001 -1.1449691031996069e-001
      2.7224056832587989e-001 2.0264052817790723e-001
      -4.6079389825479899e-001 -1.1633870521508649e+000
      7.0355866475693496e-001 2.7141184403407326e-001
      1.3589737957845536e-003 -4.6891862628061542e-001
      -1.7173017013226571e-001 -5.3316706632813404e-001
      4.0123802924102964e-001 2.4331210847112708e-001
      -1.7115425583435157e-001 1.6050839614734605e-001
      9.7973354999367476e-002 5.6799571732437815e-001
      -3.0416203160831073e-001 -3.1505145194825590e-001
      5.1129450972793304e-002 -1.9270084378406779e-001
      -4.8439525185096044e-001 3.0285740439142405e-002
      3.6872851321071924e-002 2.4872685343998516e-001
      -2.8674998762903819e-001 -6.6946326875430684e-001
      8.0317290025234822e-001 -1.9861291516812571e-001
      1.8687306028535994e-002 1.3528741059751187e-001
      -2.0285441109133068e-001 7.9352844665917951e-002
      -4.3514933602349426e-001 2.9201648290226512e-001
      -2.3016494093247919e-001 4.3667137529370031e-001
      -1.4292966183934164e-001 1.7753473265241407e-001
      -2.9191666367104580e-001 2.9292581359185088e-001
      -6.6666832264247922e-001 9.3507439033724160e-002
      -4.5765426808843226e-002 -6.5674824900617979e-001
      -1.0833055852072736e-001 -2.6815318236356878e-001
      -3.0518214995247289e-001 2.3696301655647711e-001
      5.7758867123306523e-002 1.6255465381002099e-001
      7.2680628968096073e-002 -1.1134157157813379e-001
      6.9021293080405000e-002 1.0539112440751747e-001
      4.3742219787273312e-001 1.9255892557690241e-001
      -1.7500746539035258e-001 9.4117095662288486e-001
      -1.6522438341416248e-001 6.0166646716522963e-002
      6.3384265513289506e-001 -3.4690029196601196e-001
      -3.7303071577064523e-001 -4.1657204046632081e+000
      7.7042023936308116e-002 -4.1567359295717754e-002
      2.4385803046436955e-001 -2.0369475552208902e-001
      6.4729154828651825e-002 3.5266398965685680e-001
      -3.9759514737646190e-001 3.8731746871071049e-001
      -6.4261159754727537e-001 -2.3091236748631228e-001
      3.2621390159293895e-001 5.0229733465417481e-001
      -3.1496219321684732e-001 -5.1270438980108779e-001
      -6.4924888759256305e-001 2.3659780564670557e-001
      1.3282553290614044e-001 -4.8470104862048269e-001
      1.4949925413073123e-001 2.0491066755308077e-001
      -4.6151232971350048e-001 5.1726077009569361e-002
      -4.7568606192939655e-001 2.3146410858549182e-001
      4.7337909770934355e-002 3.2099836151354109e-002
      -5.6235940532840112e-001 -3.5295790305268947e-004
      1.6722481890466323e-001 -4.5900597602672699e-001
      -3.6953339688719417e-001 -1.4754072712078894e-001
      -3.1271340513959689e-002 1.7789432322136145e-001
      -7.3151325418595048e-001 -2.4750957630887471e-001
      5.7647820515508048e-002 -5.4078201250583413e-001
      -6.2481477083312989e-002 -4.9759770027457534e-001
      -5.1205182866272396e-002 4.2284583529044401e-001
      3.5125079387332198e-001 -2.9317638033261245e-001
      4.9118909799062188e-001 -3.2120052729867160e-001
      -4.8668780698864850e-001 -2.6799350028387448e-001
      -3.7223000326750277e-001 3.7215056504962918e-001
      -1.8891572822726671e-001 1.6458755376675305e-001
      1.4133278460031692e-001 -3.1828411769388121e-001
      1.5393373388593418e-001 -4.3785146812290288e-001
      -2.6271702208912545e-001 1.5177320485408197e-001
      2.5972189453326711e-001 -2.2981081980461995e-001
      2.0138911783733493e-001 -4.4111133794348423e-001
      5.0977093405897289e-001 -6.8485525928038549e-001
      -3.4061825765653031e-002 -1.4700897034124419e-001
      -3.1993769423455931e-001 -1.0291558327116910e+000
      -8.1245621514466382e-001 -5.9905531984790605e-001
      -4.8728289076028436e-001 9.1967732055999771e-002
      -1.9446762249828950e-001 3.2364348336577436e-001
      -2.7055174759644496e-001 -1.8821498827503322e-001
      -7.4221135974262464e-001 -6.0900981518908315e-001
      -5.1912791883286924e-001 -1.3234216613290273e-001
      3.4102516689863865e-001 5.5378932274876523e-002
      5.2130456647438994e-001 3.2136820127649998e-002
      -3.8022530995199072e-001 -3.6934682340612141e-001
      1.9715680579167566e-001 -4.4811984736516575e-001
      -1.1387675167513045e-001 -1.2131008528792264e+000
      6.4416381776613318e-001 -3.5422685311062008e-001
      3.7307480392143022e-001 9.9959040700807952e-002
      -2.8414047351010474e-001 -3.1902447907405224e-001
      5.9507063653623482e-001 3.3758286255981351e-001
      -1.0004551670537292e+000 -7.8671654286464066e-001
      -7.3035219577672639e-001 -3.2098376127106626e-001
      -9.3768531176107617e-002 -4.2788512394161532e-001
      -4.8200064076285315e-001 1.0125255523149668e-001
      -5.3689361828367554e-001 2.8368438146306180e-001
      -9.6633924174394675e-002 5.2047943630018700e-001
      -1.3084776353618796e-001 5.4524170424144557e-002
      3.1193075961697775e-001 -2.3491708112194899e-002
      -1.3048220141212696e-001 -2.4490147016904582e-001
      -1.4395592364233902e-002 3.8877547372094173e-002
      -1.6347630374505918e-002 -1.5858130829619033e-001
      9.8203317530713286e-001 2.2103068639361653e-001
      2.6237416819907555e-001 -7.5271929806332988e-002
      -1.1150846424354353e-001 2.2067918082163696e-001
      1.9985560569677360e-001 7.1385156580036679e-001
      -1.5630107791426853e-001 -5.4708286085912557e-002
      3.8917738137780455e-001 4.5960853820910186e-001
      -4.6134504327063186e-001 -2.5571977296714099e-001
      3.1122434990761316e-001 3.8461783855458974e-002
      -1.1639596067757703e+000 -1.3144778263945295e-001
      -1.6349570050215187e-001 3.3019543111650696e-003
      5.2382176769555289e-001 3.3400030189970412e-002
      3.3494683727701158e-001 1.5655524473657303e-001
      -1.3806710681821324e-001 -2.3073875957277462e-001
      8.5466672983856107e-001 -2.1042889079116631e-001
      -2.5523173946935296e-001 -2.8439799017282447e-001
      -1.8667952453993389e-001 5.1842824047018987e-001
      1.1853008014184636e-001 2.4847946616039410e-001
      1.1987806019521061e-001 5.8165734424953944e-002
      -2.2703451418414922e-001 9.1958320878598163e-002
      -5.4612536916162580e-001 2.9494476202442815e-001
      -2.0866465953463997e-001 -3.1762769410121343e-002
      1.3215166945234891e-001 1.1691080670389278e-001
      -1.6951818272684649e-001 9.4887265430663212e-002
      3.6304659176387760e-001 -8.0357740195605917e-002
      -6.8135943047023828e-001 -7.0193963430409359e-002
      -1.8633939305095262e-001 8.7079092297175809e-002
      3.3238401914523624e-001 1.2560472883890017e-001
      1.6016875647545131e-001 7.2309653235773166e-002
      -2.5272213790577402e-001 -5.9375034065774403e-003
      1.7843855314810123e-001 1.9676887828511430e-001
      -9.6442740089609416e-002 2.0978844251008871e-001
      4.4191486426760346e-001 -2.7953169354139992e-002
      -5.9790547107142167e-001 -3.7689172162155177e-001
      1.3437106315614950e-001 3.3789819605255261e-001
      -8.0846693005578152e-001 -6.0274654547038786e-002
      -3.4792131606255425e-002 1.7014484476020808e-001
      2.7364511463816105e-001 -5.5664998820516942e-001
      2.2363951338514654e-001 4.3007002376635149e-002
      -9.1609591856346817e-002 -4.9404152998493911e-001
      -5.1592409094216196e-001 -1.4525181535986742e-001
      -1.5515502563146730e-001 -3.0600534574208371e-001
      5.2920886945277211e-002 -2.5324452710539086e-001
      -6.6871883750764402e-002 -5.9216074992142997e-001
      9.4210248559583256e+000 -7.1023591634284555e-001
      -3.0256068571712552e-001 2.4462816598921366e-001
      8.2821451050108452e-001 1.6339785543571225e-001
      6.9345665401597742e-002 -6.3155935786659556e-001
      2.9124441354500752e-001 1.2557747508990813e-001
      -3.2507469115146048e-001 -5.1053446320389058e-002
      -6.1997189477006477e-002 -2.8096195808621183e-001
      8.8566570845752479e-002 5.7076279646284221e-002
      1.4250306508145394e-001 -3.1832594504393193e-002
      1.1604486720100782e-002 -1.7970088929341657e-001
      -5.7898851555304442e-002 -1.2082724777815002e-001
      3.0155203352602250e-001 -1.5276896145546975e-001
      -4.5408319016169346e-001 -1.2190256140751914e-001
      1.2876394413983033e-002 -5.9680971990848886e-001
      -3.7949458525387575e-001 -6.7844000581038566e-002
      -2.0338418834214653e-001 -2.6121248645051781e-001
      -6.6112258657818973e-002 1.4924073078204153e-001
      7.4814696169233155e-002 -1.2666508811398877e-001
      -5.6356168859342859e-002 -1.7050778095337053e-002
      2.0266291982795789e-001 -1.9528320856436171e-001
      2.0386289944822694e-001 5.2781488614332717e-001
      -5.9431162306780638e-002 -2.6682143946540580e-002
      -1.9289276209369521e-001 -1.2247807440700700e-001
      3.2707927984397728e-002 -2.1213784135517069e-001
      -3.9360230322163148e-001 -1.1090551627240230e-001
      4.8635957891246889e-001 1.8257055893239019e-002
      5.6892477663539087e-001 -3.9332589401424550e-001
      7.9126559423509005e-002 -1.8699824023457107e-001
      1.7931653052967265e-002 6.0020306112167210e-001
      -1.6401241342352720e-002 -1.2141910213682326e-001
      2.0116481288436969e-001 2.8979657994773694e-001
      -4.4991704155037365e-002 -6.8907466691477320e-002
      -1.5034191302728744e-001 7.9286668153564818e-002
      1.9574483807862345e-001 -1.5748009378672455e-002
      6.6655950033920816e-002 9.4879849468726984e+000
      2.3044073811171092e-001 3.0919161782753890e-001
      -2.3179538710784509e-001 -2.1445029294759155e-001
      1.4850023674731813e-001 1.6913567122390458e-001
      -3.1858005685448176e-001 -3.2849866230791663e-001
      2.8825073700229870e-001 4.0190612438109313e-002
      -2.4425058372804329e-001 -2.3237904139795656e-001
      5.4590547545404133e-001 2.4140392357596113e-001
      -2.4857834818963728e-001 -5.9238323292928818e-001
      -2.7367948478558407e-001 1.2041026804254405e-001
      -1.2927340315087866e-002 -1.9421467642416079e-001
      2.0911930647252872e-001 4.4826906347690690e-003
      -1.7904207138241102e-001 2.5585912388023674e-001
      3.0935816459261894e-001 6.1005439056130727e-002
      -2.1671367880902945e-002 1.1126159936403710e-002
      -9.1815374540757458e-002 -2.4707293609543240e-001
      2.5622563750573707e-001 -1.5677548112902620e-001
      5.0151464111273780e-001 -2.9689473568731278e-001
      -1.0317216653845757e-001 -1.8821122941151505e-001
      7.4394691704520649e-002 -4.5451423103098387e-001
      4.9575325072900939e-002 -1.6470600272357816e-001
      -2.4964579632572931e-001 3.1754908156909539e-001
      1.6652671605766498e-001 2.4399281544469836e-001
      -3.1486370838832151e-001 7.3774528012402543e-002
      1.0760246154026198e-001 2.6389560617371527e-001
      1.5014034819566707e-001 -1.8809604097352015e-001
      -2.4945482177839175e-002 -2.2212819367483702e-001
      -2.8603129440249381e-001 2.9961951222415478e-001
      2.7566615659572896e-001 3.8523568905826511e-001
      2.7945412197644781e-001 -2.5138202885004490e-001
      1.6766038288182150e-001 -1.6947684482206157e-001
      -4.7532704260370989e-001 1.7372121690034048e-001
      -1.7516000039928176e-001 -6.9937385402788294e-002
      3.9129137466195209e-002 1.5227821802151484e-001
      1.8361589574318857e-001 -2.3067570726939246e-001
      5.4172116123173922e-002 4.2228982661660130e-001
      9.5784567457639927e-002 -2.0037274516771419e-001
      -3.3288782371845638e-001 2.3531461603090503e-001
      1.2193273418236450e-001 -1.5094249897807327e-001
      -2.1468466903915356e-001 8.2564124643286441e-002
      1.0474592003421980e-001 -6.2556760135357256e-002
      -4.1713690953322485e-001 1.8341050084735527e-001
      2.9172471363678926e-001 -2.9680268826012279e-001
      -4.0113111864478732e-002 -3.6945249001933111e-001
      -3.4191441186883526e-002 3.2277454556798690e-001
      -2.7541434242900620e-001 1.5238327817921268e-003
      1.1129142330534075e-001 -3.6201978162496862e-001
      3.6919722873756355e-001 4.3244480763264914e-001
      2.9638986206660700e-001 1.2923550456803912e-001
      1.3953935250282684e-002 -7.7923753496225628e-002
      -3.4902746750195368e-001 3.4349447931475630e-001
      -2.3966154112182361e-001 1.4571663669782076e-001
      -3.3090496523616442e-001 -4.9092715948980882e-002
      -2.7861883728753201e-001 2.0999511752005873e-001
      -6.1062711160653038e-001 -5.8102396775864922e-003
      -2.7724355394816602e-001 2.0625428983780759e-002
      4.8870111865002397e-001 -1.2172171116341855e-001
      3.6740738183133215e-001 2.1064797119208173e-001
      4.0717257970558474e-002 1.8842166649722883e-001
      3.3607051217621808e-001 1.3665852684299390e-001
      -5.4246026865319708e-001 -2.0154307890763792e-002
      -3.7948823729751019e-001 -4.0220835935739596e-001
      1.4842940179645711e-001 1.1754258081897559e-001
      1.4153786743124810e-001 1.8260120846167811e-002
      -9.1599034585875330e-002 -2.3156366649093121e-002
      -2.5745822945132246e-001 -3.0932740979838941e-001
      4.5891550566778169e-002 -1.6274810052057390e-001
      2.6238107748485864e-002 4.9976365404547579e-003
      2.5295873026867355e-001 2.5983602304984055e-001
      -1.8897242212828144e-001 -1.9622545751332259e+000
      7.7459447760576139e-001 2.1154490329728196e-001
      -1.6313992348888079e-001 -5.2652410040551001e-001
      5.4175352211921035e-001 2.9216769518378871e-001
      3.2556062544031983e-001 -1.5123134802917190e-001
      -8.1757980516797293e-002 6.9515888794696334e-002
      -3.0952780961912740e-001 6.3290178779398631e-002
      1.8395763318792380e-001 4.5171808486706500e-001
      -5.2213654014439137e-001 -6.6542184240500749e-002
      -6.2732047870000929e-001 -1.8157036474285143e-001
      5.5890027372174057e-002 -5.9388569693991122e-001
      -1.7976433803708725e-001 1.6127262010406032e-001
      -5.5372881293976184e-001 7.6890130080773289e-001
      7.5790566324410169e-001 5.3702951849346225e-001
      3.5021321348726436e-001 3.4720853775767757e-001
      -1.2414622963420413e-001 -6.1862873637698168e-001
      6.2155113217357016e-001 -5.5774238131087350e-001
      1.1168474007551768e-001 -5.5633137799927834e-001
      -8.0397057536728891e-002 -5.3378969857622316e-001
      1.9976316924349202e-001 -1.0396175927569911e+000
      6.9363377997236353e-002 -7.0853082787994437e-001
      -7.3818568549313124e-002 8.8943636009184801e-001
      5.5541281112044670e-002 6.2180090863720749e-001
      -1.4626511328520715e-003 2.8165826790078174e-001
      5.2221052757399622e-001 5.2564778108170662e-001
      3.2226997049055806e-001 -6.2556704428757359e-001
      2.5196078523184837e-003 1.0587642863239090e-001
      -7.4246723643195656e-001 1.4266054799192196e-001
      2.1466629579818486e-001 1.9678096988379931e-001
      -2.0657348118904802e-002 -2.6338258783500279e-001
      -3.6560450658243634e-002 -5.8356278359912994e-001
      8.0309025690017008e-002 1.2872457805901719e-001
      -1.4892268504123751e-001 4.1908287793347411e-002
      3.3044520954511158e-001 6.0159896356135945e-001
      -3.7863684786195695e-001 2.1186059342839871e-002
      1.5509566490382709e+000 5.2182787957041255e-001
      2.4152759205864544e-001 -2.0540167867095238e-001
      -4.4723742959445373e-001 4.4910000814381318e-001
      2.5818231956405768e-001 3.3327663281949199e-001
      -2.4397247545661885e-001 -2.4620651422446887e-002
      1.5543370791914490e-001 -3.1298822902429735e-001
      1.1875940307250511e-001 1.7601155282843603e-001
      3.9337525396150702e-001 -4.4157621961108834e-001
      -1.1807794814140449e-001 -5.3344687732688922e-001
      -1.0723675808766553e-001 -2.4394802839121620e-002
      -4.7421264040404904e-001 -2.4571619070410730e-001
      1.2299432693557361e-001 -4.8507547084684616e-001
      6.3092470195560180e-001 6.3297302068094041e-001
      3.7199675850335129e-001 2.8572632329746972e-001
      3.0069807558344347e-001 -8.5923728323495263e-002
      -5.3086990573642445e-001 5.2537361887423661e-001
      -4.4966579037243043e-001 1.5795290633555836e-001
      -4.6606317643283807e-001 -1.0340409869594369e-001
      -4.4010375269846558e-001 1.1787525239896800e-001
      -8.8029877117606903e-001 1.3130623971844133e-001
      -5.5396747410847735e-001 -5.6581983141564103e-002
      7.4932397435103004e-001 1.8059332832967925e-001
      5.2776325230257093e-001 2.5135743069496363e-001
      1.8637501421451014e-001 4.0592952196523119e-001
      4.6192902009906101e-001 2.7905724711881630e-001
      -5.5450783544975046e-001 -4.9453636641808532e-002
      3.2236871168312542e-001 -6.3143823808611299e-001
      1.7055008420370973e-001 2.0509333201200250e-001
      2.2707228348135949e-001 1.8037904173644199e-003
      -2.4961293682402133e-001 -9.9404085005656354e-002
      -4.8170700835787161e-001 7.2059511590834971e-002
      1.8416755970179904e-001 -2.1890167504093352e-001
      -1.8711594015597660e-001 4.6278405546927587e-001
      4.9114843431046884e-001 -4.2144322567586173e-001
      -9.5138811730363732e-002 3.7526362595896536e+000
      1.7065603245860705e-001 2.0255975584212846e-001
      -1.6231345228047395e-002 -1.6474410997978572e-001
      1.1536826505698901e-001 6.1637121722965718e-002
      1.0680857954264207e-001 -1.0987609046302162e-001
      -6.8973210177364228e-002 4.0711774826686298e-001
      -8.4965878629922366e-003 3.2343887002733451e-001
      2.1461161900567280e-001 1.6317029280852974e-001
      -1.3595688762317318e-001 -2.0263998563633370e-001
      -1.8316880977370478e-001 4.7402685292100198e-002
      -1.9477612772576128e-001 -1.1566077493617187e-001
      -2.5498751429173222e-001 2.1098487660262292e-002
      -1.8808806299542286e-001 1.6981384366671268e-001
      2.1167494639651471e-001 9.3828926887241357e-002
      1.2773639913549592e-001 -8.9500986554908206e-004
      -3.6185892349065545e-003 -1.6581190303034321e-001
      1.5949272005922424e-001 -1.1171547540070685e-001
      1.7196760722671279e-002 -1.5917628968630138e-001
      1.6465577432512812e-002 -1.3035719098398363e-001
      7.8764023274472197e-002 -3.0394607757985903e-001
      -2.6544685581127034e-002 -1.1528332448621061e-001
      -2.2661370768818312e-001 2.3198635734342238e-001
      4.2158667212972856e-001 1.8927508741093457e-001
      3.2426675434753409e-002 -3.5285320742691272e-002
      7.0300413822400598e-002 1.8254218451587004e-001
      3.0259655764831219e-002 -2.2509865939400889e-001
      1.9591117731847407e-002 7.9096896488359728e-002
      -1.8741710773165579e-001 7.1001669231226486e-002
      7.3868027127757377e-002 3.5082517289390314e-001
      1.2293684506518904e-001 -1.6010352747853862e-001
