<?xml version="1.0"?>
<opencv_storage>
<my_nn type_id="opencv-ml-ann-mlp">
  <layer_sizes type_id="opencv-matrix">
    <rows>1</rows>
    <cols>3</cols>
    <dt>i</dt>
    <data>
      225 37 25</data></layer_sizes>
  <activation_function>SIGMOID_SYM</activation_function>
  <f_param1>5.9999999999999998e-001</f_param1>
  <f_param2>1.</f_param2>
  <min_val>-9.4999999999999996e-001</min_val>
  <max_val>9.4999999999999996e-001</max_val>
  <min_val1>-9.7999999999999998e-001</min_val1>
  <max_val1>9.7999999999999998e-001</max_val1>
  <training_params>
    <train_method>BACKPROP</train_method>
    <dw_scale>1.0000000000000001e-001</dw_scale>
    <moment_scale>1.0000000000000001e-001</moment_scale>
    <term_criteria><epsilon>9.9999999999999995e-007</epsilon>
      <iterations>1000</iterations></term_criteria></training_params>
  <input_scale>
    3.0841843724563719e-002 -9.1885300565146888e-001
    3.2568687672213076e-002 -1.6990461897858997e+000
    2.3351228948429895e-002 -1.3719330539304220e+000
    1.9018746542441168e-002 -1.2067303582095481e+000
    1.8307844692304009e-002 -1.1319297792648044e+000
    2.0913217344482832e-002 -1.0359829299412946e+000
    2.8683748280473563e-002 -8.6819787783356783e-001
    4.0503244834361962e-002 -4.5320465634241947e-001
    6.8138768502926925e-002 -2.0707825014699507e-001
    5.1061665745217234e-002 -2.0890471069908309e-001
    4.3149643439407880e-002 -2.2634244148494198e-001
    5.4956738636543802e-002 -1.9004728159307532e-001
    1.1258511775936089e-001 -1.5476844023911576e-001
    7.1053849427717042e-001 -8.2181558547189074e-002 1. 0.
    1.8620637088682113e-002 -1.3660855512257537e+000
    2.1251341449598449e-002 -2.5367868715262420e+000
    1.6681390271414576e-002 -1.5855450847163670e+000
    1.8459687008628146e-002 -1.3873012354130656e+000
    1.7458131734552094e-002 -1.2438096589988941e+000
    1.4527089864791863e-002 -1.1632967568150214e+000
    1.4911928081602698e-002 -1.0993446338560824e+000
    2.2365486957600732e-002 -6.1865530250276723e-001
    4.5350844150548401e-002 -2.2060295767536048e-001
    4.4356968092060869e-002 -2.2386204417052807e-001
    3.2723670866280571e-002 -2.3196119988194838e-001
    3.4813877479379120e-002 -1.9665420466939976e-001
    4.7383634491310077e-002 -1.7095124715349699e-001
    1.9509795309502165e-001 -9.4726035366799674e-002 1. 0.
    1.8142426185614454e-002 -1.8702643800217802e+000
    1.9507646398160505e-002 -2.8155792934046295e+000
    1.8228189020778572e-002 -1.3600482265514549e+000
    2.5397856009728725e-002 -9.9798112015674501e-001
    3.0343981256417227e-002 -9.9440828780336499e-001
    1.8071871751559894e-002 -1.1426403491377382e+000
    1.2590917678302517e-002 -1.2287132881586338e+000
    1.7705669843653161e-002 -7.3851610548738700e-001
    6.8501300477232199e-002 -2.3242183084147014e-001
    6.2314175212595829e-002 -1.8357544906947909e-001
    4.1256581763127596e-002 -1.8605099675406031e-001
    4.0261949127200325e-002 -1.8793731415402803e-001
    3.4768345622128376e-002 -1.7870216387548638e-001
    1.0976759040458864e-001 -9.8519681050050698e-002 1. 0.
    1.7180355357535846e-002 -1.9500880366210716e+000
    1.8803390260377657e-002 -2.5615070199440235e+000
    1.7297022905827613e-002 -8.9356166931742920e-001
    2.4834777853519056e-002 -5.8384804615631924e-001
    2.8276711196869617e-002 -5.3645900661314894e-001
    1.9427207369597650e-002 -8.1075644325400420e-001
    1.2437868663265034e-002 -1.1510810276160413e+000
    1.5398269451383824e-002 -7.6286732238002763e-001
    7.8320492188763566e-002 -1.8215519607993563e-001
    5.2238202682104808e-002 -1.3388592018976739e-001
    4.9390779963629602e-002 -1.4542526563226338e-001
    5.0371298302559639e-002 -1.6985042643064729e-001
    3.3464005358166814e-002 -1.8174137293275380e-001
    9.2494794479385384e-002 -1.0120371205929377e-001 1. 0.
    1.4582032873517798e-002 -1.5396610057140148e+000
    1.5840257022475442e-002 -2.0262878930188180e+000
    1.7109492068710888e-002 -9.7258327093401709e-001
    2.4857194282944417e-002 -6.9489477748911199e-001
    2.4397155276174545e-002 -6.6158942293110323e-001
    1.8677338239746936e-002 -8.0051496237154818e-001
    1.1974779637910410e-002 -1.0181237508061365e+000
    1.4438941044418830e-002 -7.5037629130514960e-001
    6.6662330057571079e-002 -1.8625340728354026e-001
    4.5498196634152908e-002 -1.3674649749122375e-001
    6.1984268177117698e-002 -1.4021364621792917e-001
    5.2706957043686040e-002 -1.6440865404395602e-001
    3.3330919461726824e-002 -1.8233169390843762e-001
    8.9123608296631282e-002 -1.0182008405216979e-001 1. 0.
    1.4154582756178320e-002 -1.4408551131399048e+000
    1.7684141094264166e-002 -2.1339654191205040e+000
    1.6980334438322569e-002 -1.0167498794819001e+000
    1.9114771930791738e-002 -7.2478798364806862e-001
    1.7647124782440959e-002 -6.9403833583253216e-001
    1.7207110543273646e-002 -8.2878098093122377e-001
    1.3189315315064409e-002 -1.0135856548855673e+000
    1.5200519085901514e-002 -7.2589537271917670e-001
    5.9174918912403875e-002 -1.9609705137883354e-001
    4.2721279018088684e-002 -1.3817600016400072e-001
    8.5786012650987439e-002 -1.3801289136745490e-001
    5.2793777358399789e-002 -1.6194661387966761e-001
    3.3324525475902492e-002 -1.8233262996780233e-001
    8.9101094195268848e-002 -1.0180847392092233e-001 1. 0.
    1.4595268468348337e-002 -1.4892153840939735e+000
    1.6996496070444938e-002 -1.9837618686245309e+000
    1.7518638024154071e-002 -8.5694596938131551e-001
    2.3934711410987200e-002 -6.2042570445172229e-001
    2.1287251136863569e-002 -5.7656803122955269e-001
    1.6888632978785244e-002 -6.7692498306943150e-001
    1.3188168517996188e-002 -9.5521365220933596e-001
    1.5396124792101661e-002 -6.7608699425774443e-001
    5.1319862223011714e-002 -1.9962979337857772e-001
    4.3399925274192445e-002 -1.3797316145757887e-001
    1.2807209550017912e-001 -1.3830692327096714e-001
    5.2801637820925770e-002 -1.6032831200095399e-001
    3.3316656454071496e-002 -1.8233382756437000e-001
    8.9032627887050728e-002 -1.0182687443411945e-001 1. 0.
    1.6417432689457771e-002 -1.7574640379909026e+000
    1.6839705135184718e-002 -2.0931451496252111e+000
    1.9375099565267184e-002 -8.5576062464011327e-001
    2.7538819919042570e-002 -4.4018099852126963e-001
    2.8746597783876938e-002 -4.3555147393030874e-001
    1.9727171847590486e-002 -7.4290441762724291e-001
    1.3112980233679815e-002 -1.1116541669742372e+000
    1.5893860860096535e-002 -7.4008939859692280e-001
    4.3594426380957736e-002 -1.9430685126263497e-001
    4.8031885581958061e-002 -1.3606047998045076e-001
    2.0339171641134229e-001 -1.4396109503139820e-001
    5.2778522747917743e-002 -1.6009488506791233e-001
    3.3310954199912722e-002 -1.8233914109000013e-001
    8.8986811039685282e-002 -1.0183355005598350e-001 1. 0.
    1.6461631632518906e-002 -1.6816968977163349e+000
    1.8355423824307722e-002 -2.3985491708092850e+000
    1.8004065995112818e-002 -1.0617073479671704e+000
    2.2186183564941925e-002 -6.9993010836142955e-001
    2.2865068683261727e-002 -7.3691685913511451e-001
    1.7206401482905000e-002 -9.8734964266725134e-001
    1.2571133418249067e-002 -1.1754173942243646e+000
    1.6739195584307334e-002 -7.3590706746076140e-001
    3.7580896392342127e-002 -1.8183701135963662e-001
    5.8146617240365267e-002 -1.3246103769172399e-001
    3.2382610537964523e-001 -1.5138524250585339e-001
    5.2738733085218974e-002 -1.6017435714972422e-001
    3.3301397710993545e-002 -1.8233751400987885e-001
    8.8909429496012771e-002 -1.0184779458631990e-001 1. 0.
    1.6291054118879236e-002 -1.3053839744933116e+000
    1.9263356488288141e-002 -2.2824654489379221e+000
    1.5697463920150204e-002 -1.2505723427138256e+000
    1.5583699025705387e-002 -9.8658087232211689e-001
    1.5564691698344336e-002 -9.4357491296133633e-001
    1.5724827486957565e-002 -1.0261270833473237e+000
    1.4916189449451325e-002 -1.0875719684226379e+000
    1.9377204109850454e-002 -6.3378470681661869e-001
    3.7139302651381954e-002 -1.7101986963844287e-001
    7.8443153106713986e-002 -1.2711199085561120e-001
    4.3562322231343353e-001 -1.4461607653911845e-001
    5.8028649385039856e-002 -1.5874767266700499e-001
    3.7295072341282098e-002 -1.8241303990164942e-001
    1.0033142972901518e-001 -1.0107976379018881e-001 1. 0.
    1.6681148885989670e-002 -8.6267045853416102e-001
    1.7221198428121656e-002 -1.3054927105263563e+000
    2.0241186422433308e-002 -1.0981416912642856e+000
    2.2677687310389345e-002 -1.0716029471817319e+000
    2.4676949811923640e-002 -9.8748994194979167e-001
    2.9179148633218407e-002 -9.3279334443379369e-001
    2.0435145499262581e-002 -7.0669476508524409e-001
    2.4396963409156917e-002 -4.6328994729512391e-001
    5.4981912801590885e-002 -1.5511273661139280e-001
    1.3964506149279288e-001 -1.1980087727964144e-001
    6.7667499962035271e-001 -1.2832264835595331e-001
    1.2130446367131248e-001 -1.5637419112328454e-001
    8.1124569012370182e-002 -1.8088955123577996e-001
    2.1859689494677031e-001 -9.8793306803445946e-002 1. 0.
    1.7503389421798445e-002 -5.7937224276331600e-001
    1.6479312076870936e-002 -6.6989729721857849e-001
    2.0857716955632228e-002 -4.4174847818598267e-001
    2.4862523733380409e-002 -3.9620642805937001e-001
    4.5619801371186243e-002 -3.1382971298878298e-001
    5.0872832519221006e-002 -2.5863700630985059e-001
    2.4128451542549150e-002 -3.2093296213358202e-001
    2.8676209695377004e-002 -2.8334725124672394e-001
    1.3950871269936674e-001 -9.8207747093374570e-002
    4.5074074317396257e-001 -8.1495976083267821e-002
    1.8301863392113094e+000 -4.2413588097157583e-002
    2.5572234438827497e+001 -2.7953907344586248e-002 1. 0. 1. 0. 1. 0.
    3.0537897937532872e-002 -3.8531786283115499e-001
    3.1394862997271407e-002 -4.9571899553788790e-001
    3.7013528894822227e-002 -4.3404549458405506e-001
    3.4615721641928991e-002 -3.8442948965094481e-001
    6.2318566472627623e-002 -3.0698608879361694e-001
    9.1325508569330069e-002 -2.5807671320347259e-001
    4.3332665011933294e-002 -2.9279665977844871e-001
    4.7505948827416530e-002 -2.4562884506071042e-001
    3.3288105455332057e-001 -3.5674911998803183e-002 1. 0. 1. 0. 1. 0.
    1. 0. 1. 0. 1. 0. 4.8192518887176718e-002 -1.8158877137371862e-001
    4.7780725841365702e-002 -2.0170113482815299e-001
    5.0203324721801973e-002 -1.6801914234842663e-001
    5.6543826942932481e-002 -1.5308857598128042e-001
    7.4418858870488741e-002 -1.1530372163128541e-001
    7.2925692568762315e-002 -1.1360449867651712e-001
    6.7744247270180635e-002 -1.1672189224968485e-001
    1.0459810919964189e-001 -1.1057691332443384e-001
    8.1624889622445185e-001 -3.2900631693113344e-002 1. 0. 1. 0. 1. 0.
    1. 0. 1. 0. 1. 0. 1.1685143549091119e-001 -1.4988715648550896e-001
    1.1021872643274197e-001 -1.8578542682011767e-001
    8.9703701265319916e-002 -1.6276355868541231e-001
    9.5550525170212799e-002 -1.4257135473771468e-001
    1.0758887767541279e-001 -1.1387025732626024e-001
    1.2148869611586166e-001 -1.1540829656561559e-001
    1.6896825265231910e-001 -1.1874681466219232e-001
    3.5684761769963796e-001 -1.0452166779318209e-001
    8.7164559968084419e+000 -2.6813184300627482e-002 1. 0. 1. 0. 1. 0.
    1. 0. 1. 0. 1. 0.</input_scale>
  <output_scale>
    5.2631578947368418e-001 4.9999999999999994e-001
    5.2631578947368418e-001 4.9999999999999994e-001
    5.2631578947368418e-001 4.9999999999999994e-001
    5.2631578947368418e-001 4.9999999999999994e-001
    5.2631578947368418e-001 4.9999999999999994e-001
    5.2631578947368418e-001 4.9999999999999994e-001
    5.2631578947368418e-001 4.9999999999999994e-001
    5.2631578947368418e-001 4.9999999999999994e-001
    5.2631578947368418e-001 4.9999999999999994e-001
    5.2631578947368418e-001 4.9999999999999994e-001
    5.2631578947368418e-001 4.9999999999999994e-001
    5.2631578947368418e-001 4.9999999999999994e-001
    5.2631578947368418e-001 4.9999999999999994e-001
    5.2631578947368418e-001 4.9999999999999994e-001
    5.2631578947368418e-001 4.9999999999999994e-001
    5.2631578947368418e-001 4.9999999999999994e-001
    5.2631578947368418e-001 4.9999999999999994e-001
    5.2631578947368418e-001 4.9999999999999994e-001
    5.2631578947368418e-001 4.9999999999999994e-001
    5.2631578947368418e-001 4.9999999999999994e-001
    5.2631578947368418e-001 4.9999999999999994e-001
    5.2631578947368418e-001 4.9999999999999994e-001
    5.2631578947368418e-001 4.9999999999999994e-001
    5.2631578947368418e-001 4.9999999999999994e-001
    5.2631578947368418e-001 4.9999999999999994e-001</output_scale>
  <inv_output_scale>
    1.8999999999999999e+000 -9.4999999999999996e-001
    1.8999999999999999e+000 -9.4999999999999996e-001
    1.8999999999999999e+000 -9.4999999999999996e-001
    1.8999999999999999e+000 -9.4999999999999996e-001
    1.8999999999999999e+000 -9.4999999999999996e-001
    1.8999999999999999e+000 -9.4999999999999996e-001
    1.8999999999999999e+000 -9.4999999999999996e-001
    1.8999999999999999e+000 -9.4999999999999996e-001
    1.8999999999999999e+000 -9.4999999999999996e-001
    1.8999999999999999e+000 -9.4999999999999996e-001
    1.8999999999999999e+000 -9.4999999999999996e-001
    1.8999999999999999e+000 -9.4999999999999996e-001
    1.8999999999999999e+000 -9.4999999999999996e-001
    1.8999999999999999e+000 -9.4999999999999996e-001
    1.8999999999999999e+000 -9.4999999999999996e-001
    1.8999999999999999e+000 -9.4999999999999996e-001
    1.8999999999999999e+000 -9.4999999999999996e-001
    1.8999999999999999e+000 -9.4999999999999996e-001
    1.8999999999999999e+000 -9.4999999999999996e-001
    1.8999999999999999e+000 -9.4999999999999996e-001
    1.8999999999999999e+000 -9.4999999999999996e-001
    1.8999999999999999e+000 -9.4999999999999996e-001
    1.8999999999999999e+000 -9.4999999999999996e-001
    1.8999999999999999e+000 -9.4999999999999996e-001
    1.8999999999999999e+000 -9.4999999999999996e-001</inv_output_scale>
  <weights>
    <_>
      7.8468811639158376e-001 -5.0340741520191812e-001
      5.8410641691546483e-001 1.0526277614218359e-001
      -7.9659148125720267e-002 -6.6537571184034194e-002
      -2.9137409261679187e-001 2.0066102818011330e-001
      3.2942345803851886e-001 -7.6595426202953301e-002
      2.3132709926287237e-001 1.4485685852408781e-001
      6.2469301849665190e-002 -2.9297055154785595e-001
      -1.9606193337798433e-002 6.4837671140536501e-001
      1.0163157499450587e-001 -1.5854059750416563e-001
      2.2856771805787524e-001 2.3976187171872394e-002
      2.8265292543909493e-001 -3.6030229176901618e-001
      3.2493142836991798e-002 4.1485440921405853e-002
      2.2372574166897981e-002 -8.4730680738263203e-002
      -2.9437031145103759e-001 -4.2701195815689136e-001
      2.5023669681767707e-001 2.0643444571135977e-001
      -6.7701146998136841e-001 2.2616839878797132e-002
      7.4150779896666560e-002 -2.0648177135186288e-001
      -3.4823238495749276e-001 7.0532140614960994e-003
      -7.5673251259082155e-002 6.2583924440019167e-001
      2.1002371829391875e-001 -1.7735064741995149e-003
      1.2786820178076524e-001 1.2120554732335505e-001
      4.3007833899250739e-002 2.2281442790675413e-002
      -2.5928180053085370e-001 -1.0745320347996967e-001
      -2.4980247187105467e-001 1.7192347842614950e-001
      -3.0454642953001342e-002 1.5178624210669908e-001
      3.6626053735698112e-002 -2.6754316505917517e-003
      -1.6457212046992625e-001 7.4542695935610512e-002
      3.9553913804568053e-001 -1.5298696239560114e-001
      8.3406592700580630e-003 9.0183528652989042e-001
      6.1337513078198257e-002 8.9765451314575459e-002
      3.1430171628618143e-002 -6.3902866335367814e-001
      1.4551488108559782e-001 -4.0895986666973344e-001
      -3.3836690342411095e-002 1.2989304427659357e-001
      7.7750474861711674e-002 -6.3992512137002266e-001
      2.4720455058731675e-001 3.2511671940064441e-001
      -1.9546471455121944e-001 -1.1071172874652192e-001
      5.0661928804155310e-001 1.0306652154348649e-001
      2.3315439110522473e+000 3.4068853750999217e-001
      -1.3388903643467476e+000 7.5353458941402260e-002
      1.8547713454370962e-001 1.5961300010005669e-001
      -2.6510137263126060e-001 -3.6566877524230196e-001
      4.3542665547133164e-001 3.5044864526110653e-001
      1.4122049702764075e-001 -9.3707828683391600e-002
      2.6447932985897010e-001 -2.0826891402631659e-001
      2.2518444641054283e-001 -5.4103405021825590e-001
      -5.0475384731126394e-001 5.8342695107504272e-001
      9.1880573276454949e-002 -5.6556988202708292e-001
      8.3571100432500101e-002 2.7934471918047299e-001
      -1.6968447162550621e-001 2.0581861422641914e-001
      2.6844717776018573e-001 -1.0342831384878023e-001
      -1.1506683556594597e+000 -2.7535170843031065e-001
      1.1899751032308978e-001 -1.1584563620334271e-001
      3.0541474847465033e-001 4.7312698973562495e-001
      -2.0850735442908991e-001 1.8616859332689209e-001
      -4.7408769003932938e-001 6.4585576868007128e-003
      -3.5435554651648116e-001 1.7313589808823466e+000
      -1.8892716878963897e-001 -8.3797808967636578e-001
      2.1857193207541034e-001 -2.0951793193790272e-001
      3.5329549414501123e-002 -6.2830305304575307e-001
      -2.4488848726490370e-001 6.5949115076773901e-001
      5.9847528157530627e-001 4.4728497828524762e-002
      1.8529290448670702e-002 2.9033401363897748e-001
      -4.3005896417374218e-001 -1.2478626178036918e-001
      1.4125643180309236e-001 -4.6358822498965768e-001
      9.2677731243030984e-002 2.1121277714032466e-002
      -1.9425200341288332e-001 4.6860043480455504e-001
      3.8296608403155741e-001 -5.0399319926910678e-002
      2.7630387586983252e-001 9.0205815791647859e-001
      -4.8203644836786719e-001 -7.5854962046432728e-001
      -2.2764208256482729e-001 2.1732979261448004e-001
      2.8169263314244908e-001 6.7402997189031022e-001
      2.8877659163933239e-001 -5.4642758143395476e-001
      2.2607122414304748e-001 -2.3489498784980622e-001
      4.1449292722116010e-001 -3.1089506922132371e-001
      8.7693024310276146e-001 -1.2533794176834054e-001
      -4.7435267940867981e-001 6.7577647871697510e-002
      -1.8293156823802134e-001 -1.1753050543989770e-003
      -4.7644703500921526e-001 6.8044721329944755e-002
      4.3856897156967153e-002 4.0384774752410574e-001
      -1.8735973304023181e-002 2.4142676656200232e-001
      -1.3022542935253148e-001 6.8251191757515692e-002
      -1.4043179046339593e-001 8.5125435331901034e-002
      -4.6360104928877660e-001 -2.7723947855677483e-001
      5.6149294313226121e-002 -1.8095331254148306e-001
      3.0422360218438782e-001 1.9000611919725974e-001
      4.1503898957597644e-002 -2.4606071427074001e-002
      7.8247206398768490e-002 6.1432024489125048e-003
      1.1344245069056984e-001 -5.7650924038582602e-002
      -2.5450586799083180e-001 2.7532993133219802e-001
      4.8689842750691353e-001 -1.9190116353801281e-001
      -1.1631652701509729e-001 1.0955503393706117e-001
      1.6262881287755870e-001 5.0499101601983176e-001
      1.8390468306228289e-002 1.0213414714871458e-001
      -7.3350485687259770e-002 -1.0623859486880929e+000
      1.3493219484474125e-001 -5.6429962106967796e-002
      2.5748652269618633e-002 -2.0560083954378700e-001
      2.6227881953380293e-002 -2.0885934982250176e-001
      3.2228619029562705e-001 7.8928086637370234e-002
      4.0960185873887878e-001 -3.5321574130172279e-001
      4.5911360604280227e-001 -2.6563161379924141e-003
      -3.2857318169492322e-001 1.6887570095425347e-001
      1.7990164668017800e-002 -1.4225466888194513e-001
      -8.9945833151793469e-002 -3.8209254228485701e-002
      1.4803262288098121e-001 1.1943749264053753e-001
      2.8150733400816863e-002 -2.7584926506447893e-001
      2.3780954155131645e-001 -1.5740996526076612e-001
      -5.3661849558044566e-002 -1.6370501574275637e-001
      2.1354583147106276e-001 1.6787265669332427e-001
      -3.2411990371310678e-001 2.7405746467358194e-001
      -2.4523766157192602e-002 9.4429681434328894e-002
      2.7105857287511331e-001 1.8622770120338649e-002
      -1.2275499569306938e+000 1.6010519374392246e-001
      -3.0121639284637214e-001 5.9078985951892087e-002
      -1.2589793510284453e-001 -5.2285174300483384e-001
      4.6753140013405803e-001 5.5330278547282494e-002
      -8.0574222253014263e-002 3.2897523387478522e-001
      -1.0118313817430871e-001 2.3597597457406949e-001
      -2.9635957966815807e-001 2.7188171617140017e-001
      -3.3138808146454091e-001 -1.4354137930800026e-001
      4.5939404407634460e-001 1.2074977002829482e-001
      4.7546045475739862e-001 1.1980864684641045e-001
      -4.9529843454114841e-001 1.6711789910049468e-001
      3.3111680759973679e-002 -2.6473054376960299e-002
      -4.2924155522108259e-001 -2.5640711235320873e-001
      -5.3735646449682672e-001 4.0339313842059338e-001
      -6.1902178905740013e-002 -2.0558741041827305e-001
      3.5998721568177905e-001 -8.6701327189864438e-002
      -7.4527059162747215e-003 3.2205871589751411e-001
      -1.1451362446815594e-001 -1.7509436916195678e-001
      -1.2191429234877602e-001 -1.0174089765123184e+000
      2.6293760435809022e-001 3.9363585480337271e-001
      5.0927826050327571e-002 1.7710830002700359e-001
      -2.6688318025166019e-001 1.4175109132475919e-001
      5.2553063997810102e-002 2.3091290107918599e-001
      5.7824547601005175e-003 -1.6516921046531521e-001
      -1.6890040163701599e-002 1.7140386969957855e-003
      -7.4492266902244392e-002 2.7846159622769571e-002
      -1.3232920629202025e-001 4.1271649765460611e-001
      5.5537169390432593e-002 3.0256568087251307e-001
      1.1082733856672443e-001 -6.7925604259276573e-001
      9.4903355725021246e-002 -1.2951384938439650e-001
      -1.8943595990642820e-001 1.1064185009869430e-001
      -3.2896285399266639e-001 -6.3186888198544588e-001
      2.8197899870498461e-001 4.7085373104826987e-002
      2.1644402255066034e-002 4.5284834311803179e-001
      -6.6930205015310246e-002 -3.4566981085790344e-001
      4.5928156518873831e-001 -1.9068737342757480e-001
      -4.7523853597522753e-001 1.0138439858750278e-001
      2.9091990138284345e+000 2.4927650100610302e-001
      3.1867917629570913e-001 1.7435786222111144e-002
      1.2110589033135349e-001 -1.2847805108080856e-001
      -1.0016233444582191e-001 1.1883661497612617e-001
      -2.0079576768929353e-001 -9.1738807236907097e-002
      1.0468597447233434e-001 1.2319288204766195e-001
      -5.5490752356089842e-003 5.4561604759034779e-003
      4.9793595013375914e-002 1.3495467902658997e-001
      2.2527299380047980e-001 1.6230631737048343e-001
      8.9622239108928248e-002 -3.2852005114942366e-003
      -6.7085086475290254e-002 -8.5356338307130505e-002
      2.4672420693565378e-001 7.3317205169527694e-002
      1.1710090326272847e-001 -2.0616638629795137e-001
      7.1024155320448396e-002 1.2830462164472600e-001
      2.4846839283565661e-001 1.9427149234410593e-001
      -1.6164070292545227e-001 -3.3771177827971871e-002
      -6.5279399260172021e-003 -2.8152817885130571e-001
      -3.3630088360020621e-001 -4.2983879873561243e-001
      -2.8829301030056947e-001 3.8897031367450157e+000
      1.8672617956582446e-001 8.9611377420431168e-002
      6.6164437241788304e-002 1.0086477598003246e-001
      -3.3428625428877951e-001 -1.4623449175535866e-001
      -9.1358222684945103e-002 -3.0158497856780914e-001
      -2.1744766769328690e-003 7.6501204398079850e-002
      3.1664302678417039e-001 -5.9270719227870437e-002
      1.3956017221137981e-001 -1.5580210123389587e-002
      1.8990587815097662e-001 5.8576971135192120e-002
      3.0848790726615205e-001 -9.7546586355357429e-002
      -8.2364361885433335e-002 -1.6291545989755318e-001
      -5.9905103248433331e-002 4.7913632140918611e-001
      2.4905790166915071e-001 1.5597228715542871e-001
      -1.6839577869869271e-001 4.2506583447109803e-001
      7.8370524876079248e-002 3.5484701506299182e-001
      2.2605737054047503e-001 -2.6546857903899101e-001
      1.1365255924828808e-001 2.5343951775199125e-001
      -4.3306923095607636e-001 -3.8021160080795557e-001
      -4.7253204623998069e-001 -3.8566296318348670e-001
      3.9063975070557753e+000 2.6838315528882695e-001
      8.4163407710912644e-002 9.1402900577447391e-002
      9.5698218541730454e-002 -2.6806097421188874e-001
      -1.3945824305617949e-001 -1.2389755236428303e-001
      -3.1239742042411728e-001 -1.9255920766546104e-002
      7.2506413984529616e-002 3.3188421965457787e-001
      -1.2168961308181415e-001 1.6418456637856477e-001
      5.5359621217284521e-002 1.9810932383068502e-001
      8.1089278150196897e-002 3.3489737305657230e-001
      -6.1690174756534835e-002 -4.3703051857806222e-002
      -2.1862546578927203e-001 -5.7075429262986151e-002
      5.2808759067545652e-001 2.5435509468487766e-001
      1.7081563908306946e-001 -2.0878020351120555e-001
      4.5557961487672438e-001 9.8644652403798799e-002
      3.8759192633898404e-001 2.5404583338825670e-001
      -2.8880925141774494e-001 3.9216073015953888e-002
      2.7178321103323994e-001 -4.7671745568698487e-001
      -4.1509503902584016e-001 -4.9735576787396996e-001
      -4.2387949441723655e-001 3.5528108523588795e+000
      1.4413503595491756e-001 8.8287404551098320e-002
      8.3246031267647944e-002 -1.4773479489707296e-002
      -3.3048049518209982e-001 -1.7674563366626070e-001
      5.9889293251654150e-003 -2.7252569108331021e-001
      1.4465137986151747e-002 9.5418611576495838e-002
      2.7973322793055450e-001 -5.6917692027015833e-002
      9.7565483870481251e-002 -4.2719357682098606e-002
      1.6853190330742809e-001 1.6758422122753695e-002
      2.7871576936160086e-001 -9.5968968382376882e-002
      -1.0048040370091921e-001 -2.0382509820534050e-001
      -7.8451801832310972e-002 4.3268822127574125e-001
      2.1348543101812822e-001 1.2395674777957252e-001
      -1.2920171488276497e-001 3.9774994223360083e-001
      7.0077848655964545e-002 3.3068941764050752e-001
      1.8171743605760549e-001 -2.3014997284332173e-001
      1.0582424232567239e-001 2.2939019010672201e-001
      -3.9027000913279741e-001 -3.5632030862992392e-001
      -4.1869262453663375e-001 -3.6438970946585847e-001
      3.0550261175240143e+000 1.2295891808994325e-001
      8.0707972246117823e-002 9.9643246580635031e-002
      9.0222322979409797e-002 -2.9756586545330144e-001
      -1.4717121621021845e-001 1.1831387381780998e-003
      -2.1868553248448536e-001 6.7636208686269822e-002
      1.4837301528057364e-001 2.3431575885865741e-001
      -9.9506874612625435e-003 7.8742371722686513e-002
      -3.3877290980172850e-002 1.4063927917623945e-001
      8.8596675505371921e-003 2.3508956722057497e-001
      -7.5338236117392432e-002 -8.5593016268950786e-002
      -1.2180772298116865e-001 -9.0641837440012460e-002
      3.6083740423795913e-001 1.7931110823139088e-001
      1.2219919758231501e-001 -9.0134929760105814e-002
      3.1941477631147219e-001 5.8837608514709427e-002
      2.7565259083298926e-001 1.5352206116777248e-001
      -1.9639885364862911e-001 9.0307203390086008e-002
      1.8185756187290084e-001 -3.2715812946395684e-001
      -2.9066845964293248e-001 -3.5015176042173307e-001
      -2.9813042335292689e-001 1.0120421465166509e+000
      3.0320014411984196e-002 1.6396898129664085e-002
      9.8650439452662685e-003 3.6746161932044323e-002
      -1.6150570887023505e-001 -8.0657468187651793e-002
      2.0790627220173157e-003 -1.1512220291959439e-001
      -1.4754137984766885e-002 -9.2466255990955055e-003
      1.1619690360908465e-001 6.2360006842248124e-003
      5.5028070769344142e-002 -7.9911703466255361e-003
      7.8623316114659891e-002 -5.2697494445421381e-003
      1.1560752734889990e-001 -3.6151808328033531e-002
      -5.1149411750481683e-002 -4.4777905214813028e-002
      -2.0965621521461253e-002 1.9228117040773501e-001
      9.4508543375033449e-002 3.0034471072538319e-002
      -3.2305066048177192e-002 1.6981894018220048e-001
      2.8507442136785511e-002 1.4357362996596770e-001
      6.7147099677515865e-002 -9.7831502895678449e-002
      1.0011905664324959e-002 1.0102568535615472e-001
      -1.6873487584031374e-001 -1.4636368613948966e-001
      -1.7912473716234656e-001 -1.4729697458051846e-001
      -2.6451768893887904e-003 3.6013080163546890e-003
      3.4480197327711234e-003 -2.4594380468443942e-003
      7.1454432420461024e-003 -1.0566961773932554e-003
      -6.4624688966441425e-003 -3.2243418010457761e-003
      6.9323373732167381e-003 -3.6557675996600363e-003
      5.1760375219061508e-003 -8.3883246048654155e-003
      -6.7179994760317337e-003 -7.8552883022847621e-005
      -6.8273588835524816e-003 -4.2887229529320814e-003
      -9.8537495283235904e-004 2.3468607110913118e-004
      8.6219690724168054e-003 6.8402191843794707e-003
      -1.5488265215525159e-003 6.5900936604788157e-003
      -6.5519777565488475e-003 5.6794619835485328e-003
      9.0952544397421460e-004 -5.5532998774248023e-003
      -3.1455607205447124e-003 5.4573658590569146e-003
      1.5033143861875741e-003 1.8942592511453180e-003
      4.0005037349380122e-003 2.8749058147804949e-003
      -3.4021984855357361e-003 8.4903130546835227e-003
      3.1605708864767047e-003 4.5720798794101243e-003
      -3.0602521628006729e-004 1.1409011749705376e+000
      -5.2522567987446167e-001 -6.3192332666028292e-002
      2.0779801049916110e-002 -3.0811783114952911e-002
      -5.9766676406009203e-002 1.1432691010255920e+000
      2.0941518568376277e-001 -9.9632813409872922e-001
      8.0624538009743271e-002 1.6374312802662247e-001
      -1.7197176326531760e-001 -2.9550170062231568e-001
      -6.6117715253747822e-002 -8.2040050604836900e-001
      -9.7460983036062127e-002 8.8417305930989353e-003
      -2.5287522771261201e-002 1.7741701624308495e-001
      7.1952199151331508e-001 4.7092405749756738e-001
      -2.8055441220046808e-002 4.8777698594746122e-002
      4.0470081671643093e-002 -1.6194504164178111e-002
      2.2132821542818398e-001 1.3810457098548863e+000
      1.2412060818691940e-001 -2.2523371142065346e-001
      2.0699390180248223e-001 -2.7649438843632945e-001
      6.2864944162579062e-001 8.3997908065735094e-002
      -1.8839741394467080e-001 1.3033926135317644e+000
      2.2418909524797614e-001 4.4970602666768132e-003
      -9.8817374091145427e-001 -5.7456894832715932e-001
      1.4011522674946311e-001 -2.6303564651481992e-001
      4.4813718969071978e-002 -8.3456112068990534e-002
      8.5985615056753040e-001 4.4787132957907144e-001
      -1.1691156356324297e+000 9.4606287647806778e-002
      4.0956916524262271e-001 -5.5256906501793726e-002
      -2.0008714674788824e-001 2.5738508420752099e-001
      -5.1322832172047139e-001 1.8160876366094758e-001
      2.1355937759418633e-001 3.1592626310105909e-001
      9.7336889118694064e-002 5.9326611196826129e-001
      9.3178752720857017e-001 -5.5335373904966456e-001
      -1.1392828185137883e-001 1.3958146213887287e-001
      -6.5967355229546076e-001 4.1190671369865664e-002
      1.2772352258098687e+000 1.7840505134407500e-001
      1.2358049379597723e-001 1.6015857501701386e-001
      -6.7051487722077685e-001 2.4560469312289832e-001
      1.5753762869698401e-002 -1.1644952606977674e-001
      1.3229779305543801e+000 7.4385285185527472e-001
      4.1863927534322762e-002 5.0755278554421368e-001
      -1.9814559815622174e-001 -7.0831303746088214e-001
      1.3394390190555163e-002 -6.1315785929781950e-002
      1.9169044504259311e-001 -3.2802276864395968e-001
      1.4888684073962730e-001 1.3679290059791696e-001
      4.4304491859228545e-001 1.6074205432141161e-001
      4.1636107628929886e-002 -6.0859172890317609e-003
      -5.8109456224396450e-002 1.3117698031577099e-001
      -2.1752058188555876e-001 -1.8369895774118336e-002
      4.3855112943579677e-001 -2.9796560762432103e-002
      -4.9123552557489181e-002 1.3669181980191986e-001
      2.5382159452712394e-001 -1.2896745015595684e-001
      -4.7146673318566677e-003 3.2623869621397478e-001
      2.5273289978892127e-001 -2.4956310415534011e-001
      -2.5619949865059893e-001 -1.1992843770107259e-002
      1.6998109899962779e-001 1.4550608859862874e-001
      8.5991787846882245e-002 -1.3304783428863992e-001
      7.8065838085745159e-002 8.0727964421989040e-002
      1.8535851939986994e-001 -2.3187440089106287e-001
      -9.7441527025318705e-002 -4.9451661973330940e-001
      -2.8622510033873327e-001 2.4731897009282491e-001
      -2.2001370843058485e-001 8.1849891127329419e-002
      -6.8986960811267162e-001 4.2643531195099858e-002
      4.9567281786294254e-001 6.8047176708643065e-001
      1.5422516662520627e-001 2.4867005141113155e-001
      2.8354637205637658e-002 -8.1698007291224756e-002
      -1.0003067131021975e-001 5.8229481339976930e-001
      -1.7598403753882618e-002 6.1032878175732809e-002
      -1.4116970842199239e-001 1.0837320332634798e-001
      7.2822022490368399e-001 4.1939906175555891e-001
      -3.6996186024446320e-002 -2.0646757721048001e-002
      4.0230517187697007e-001 -2.2007546099399508e-001
      -3.6454007746340805e-001 -2.3624070931784424e-001
      3.3069178142727129e-001 1.9511433812654916e-001
      3.5396274152700796e-001 5.0432933288736985e-002
      -2.9341675333391432e-001 1.8737015364350740e-001
      -1.9840666993222261e-002 7.3602284134637708e-001
      4.4890524610228515e-002 1.1291563720676367e-001
      -2.7465422475216111e-001 -2.4964086058343712e-001
      -9.2012514807370285e-002 -2.3367176968778036e-001
      8.6827368327791421e-002 -2.8647428008748055e-001
      2.6378216295161366e-001 -4.1923036655280932e-001
      3.1450897983546805e-001 6.0687259063829678e-002
      4.9741497441583216e-001 -2.8211313326423926e-001
      1.5445148453365773e-001 -2.9040745443779853e-001
      3.2755556104681344e-001 -2.1988460633438447e-001
      -1.9594920248960432e-001 -1.7046759376974894e-002
      -1.2277425659908371e-001 5.1524870182780347e-001
      -1.4400220217840793e-003 8.5275215510976082e-002
      -1.6357404911580117e-001 -1.6102539172316815e-001
      -1.2212857601791142e-001 2.6654202390872611e-001
      1.5930653751321322e-001 -1.4690419191996601e-001
      2.5781595166796306e-001 2.6188383755663536e-001
      -1.7373601185146642e-001 -1.3990809864688178e-001
      1.3803546864782636e-002 2.7680185094972615e-001
      6.3515070950516606e-001 -2.9267963265929158e-002
      2.0698666409824337e-001 -5.8985966172402898e-002
      -9.9400789893558805e-001 -1.3106941919117654e-001
      7.3942900286351074e-002 1.2636212199008587e-001
      -6.1388362333306856e-002 1.8563330308112001e-002
      -5.2014550936767490e-001 1.8297455235227719e-001
      1.5249239230692668e-001 5.5063936088868237e-001
      -1.3441489278129867e-001 2.4489457906156911e-001
      1.6383673840042780e-002 -2.4261366415876895e-001
      9.6332083439041621e-002 2.0618842445046404e-001
      -1.5434613300117877e-002 -1.8069355453494490e-001
      4.4078305364266449e-002 -1.3444927197240822e-001
      1.4246291440083814e-001 1.1545476446862468e-003
      -3.1497560307782768e-001 -6.3802574954814437e-002
      -2.4098208475354038e-001 2.0946173503023763e-001
      -7.5154771062770992e-002 1.6732013164345008e-001
      1.0094117843094370e-001 -1.6124439939970100e-001
      1.2182429942140263e-001 -5.8679390544076060e-002
      3.1410288736510875e-002 2.1115636215135239e-001
      -1.5028158287740243e-001 -1.3050820923086259e+000
      1.2294003532654650e-001 -4.2628507287835454e-001
      -1.2950214339521984e-001 1.2813447871645817e-001
      -3.7303839894745622e-001 3.3205432107284066e-001
      -2.8316014519005877e-002 -2.5850020316339023e-001
      3.6211391647411578e-001 9.3966106775731348e-002
      2.2832361125719036e-001 -4.1569341328707057e-002
      1.0185579784804447e-001 -1.9068933501906291e-001
      -3.9150434925421106e-002 4.9007172081745209e-001
      1.9379543844391683e-001 4.8253045374060910e-001
      2.0164288890380927e-001 -1.1999009549957759e-001
      -7.8006947935003026e-002 6.3961962058533550e-002
      -1.0979809152361397e-001 -3.5989079110311151e-001
      -2.3471082189114170e-001 -6.0982315651612518e-001
      4.1631829562276496e-001 1.2159261949209271e-002
      1.2129742315767525e-001 1.4806974127597583e-001
      -6.1236877457970941e-002 -1.4133301932340864e-001
      3.0114023441836096e-001 -9.9028835725272907e-002
      -2.0080255082079057e-002 -1.9073451155909232e-001
      -5.7349666998204629e-001 2.2100866341364547e-001
      2.2992941307061418e-001 3.0535567315457701e-002
      1.9651359744454144e-001 -2.1611656930960293e-001
      -1.1097714704694907e-001 9.3251086348819817e-002
      6.0573996403212073e-002 1.0863417796672865e-001
      2.0544542237072382e-002 1.4189125036183398e-001
      1.0488193901353170e-001 -5.6559389605975542e-002
      6.7372239742078191e-002 8.6475647405944139e-004
      3.4274244010965615e-001 7.9374568077955759e-002
      1.4838189001233476e-001 1.0124680547184449e-001
      -1.8412798637707098e-001 1.3047869355657247e-002
      -5.9817838631099587e-002 -1.8798655165549849e-001
      -4.9663937472849131e-003 -1.4832387532938804e-001
      -4.6789867059563495e-001 1.7823721742113985e-001
      8.9019477041354877e-002 -6.3544450047861613e-003
      1.3733419517169720e-001 -9.5762171720359932e-002
      -1.8701236277972916e-001 3.1147101888612871e-001
      -1.7718717975307371e-001 -3.2395917264217861e-001
      5.4560539651937467e-002 3.0449309202593544e+000
      2.3932323727834645e-001 2.4877054224150949e-001
      1.5130755810429237e-002 1.0578235720931468e-001
      -1.7160111454038865e-001 -1.2604227622933045e-001
      1.3765537295427646e-001 -1.8477162944853187e-001
      -5.2936266039383034e-002 5.3053100755153924e-002
      1.1282339543549712e-001 -2.7067118625419218e-002
      9.8427510584261635e-003 -1.6562061612920415e-003
      1.4650664236002803e-001 2.4024093680559772e-001
      1.5822114901660952e-001 1.1830553630576325e-001
      -5.2981980605500949e-003 -8.6034755971588966e-002
      -7.6013139422040479e-002 2.2824010564429498e-001
      1.0460203693100723e-001 1.1480685665844015e-001
      -1.7197216269124346e-001 2.0716133263648604e-002
      1.2883817141429579e-001 2.4101131067918818e-001
      1.6250805725929843e-001 -1.3540003577076662e-001
      -1.9638808263776099e-002 -3.0543850088293441e-003
      -2.5299254528976423e-001 -3.0336598950495580e-001
      -4.2344042561195566e-001 -2.7036916732535066e-001
      3.9107615218961023e+000 1.7717159567718524e-001
      8.4014592364741902e-002 6.3756145927024804e-002
      7.2864657209113587e-002 -2.9194463988735675e-001
      -1.0575717594118807e-001 -1.4824602215820210e-001
      -3.0607160763630148e-001 -8.6831348087261909e-002
      3.5444898728984389e-002 3.2450862469826175e-001
      -1.0379765469876831e-001 1.5659431886446862e-001
      -9.6695777793920495e-003 2.0397040242405926e-001
      9.2569232006691288e-002 3.3950687232638610e-001
      -1.1079549961787044e-001 -5.8304270332690485e-002
      -1.6956646296414743e-001 -4.9122798295144217e-002
      5.0869139827193344e-001 2.6219409889819173e-001
      1.6479943912941861e-001 -1.9720710396873306e-001
      4.5216821888530134e-001 8.7283131123851387e-002
      3.7980753625598240e-001 2.5795710353637535e-001
      -2.8247428265095220e-001 8.6161434769482709e-002
      2.6687162899846784e-001 -4.6628204571800946e-001
      -4.2076712954935419e-001 -4.9868004004228106e-001
      -4.1939989986382042e-001 3.7069638734343022e+000
      2.1192041977324111e-001 9.8402215798964285e-002
      8.1695962429991983e-002 8.1060571585532398e-002
      -1.8603453335846409e-001 -9.5175144055319655e-002
      -1.8599872614986579e-001 -3.2886077412195613e-001
      -9.4741130603577611e-002 2.2173929689613535e-002
      3.3957499636805677e-001 -1.3050198459203011e-001
      1.6136833233786196e-001 2.1229161387605493e-002
      2.0042741761352431e-001 8.1751297737865714e-002
      3.3991347523691201e-001 -7.1197245475769597e-002
      -2.2658657274702331e-003 -2.1078486391420809e-001
      -4.1359776342805035e-002 5.3123120407392244e-001
      2.6745388830256950e-001 1.7215092404197230e-001
      -2.1426452289667824e-001 4.7941240659180390e-001
      9.4882190845221731e-002 3.9760015780546448e-001
      2.5585567106049878e-001 -2.8906188547675121e-001
      -5.7465972388723351e-003 2.6743764467776471e-001
      -4.9018171044444681e-001 -4.2843514653174863e-001
      -5.1204599462510569e-001 -4.2816379610547106e-001
      3.7457307777771880e+000 1.6111321737366116e-001
      8.8573098504037495e-002 5.0824512624613558e-002
      1.7577520381437405e-002 -3.4947319582734643e-001
      -1.8954881996737805e-001 -7.0555334314131770e-003
      -2.7868355917785936e-001 -4.9654804384110740e-002
      3.2810620116002033e-002 2.8392278232002527e-001
      -7.6114542533993773e-002 1.0885883430091255e-001
      -4.9252771111783632e-002 1.7612934459916546e-001
      1.4039992190239881e-002 3.0381976075773431e-001
      -9.7906770269845192e-002 -1.0598078275897008e-001
      -1.9288455383960365e-001 -6.0172362009022436e-002
      4.5333984456639026e-001 2.2972399377474551e-001
      1.3310028755661837e-001 -1.2426908074289178e-001
      4.0654213395815597e-001 6.6420987697002845e-002
      3.4747248206283132e-001 1.7574740222706026e-001
      -2.4352250183164326e-001 1.2244505306902870e-001
      2.3696724836311830e-001 -4.1050550599921753e-001
      -3.6813572061991384e-001 -4.2919290637449808e-001
      -3.6239631039441994e-001 3.4414317465588211e+000
      1.3195345618650556e-001 9.7348363124405660e-002
      7.7992434709394168e-002 1.0108182299875124e-001
      -3.2562520968066833e-001 -1.6830042455903871e-001
      1.5512673217928559e-003 -2.3271071756688380e-001
      7.9542153144731825e-003 1.0249905166880523e-001
      2.4610185715682709e-001 -2.9933493274339636e-002
      9.3241535695636757e-002 -2.6603885224292311e-002
      1.6060098378210685e-001 2.8369122025155430e-002
      2.6288848906388473e-001 -8.9237965818831713e-002
      -9.4622785942120147e-002 -1.3026082415426093e-001
      -7.9892645931601086e-002 3.8641166674927047e-001
      1.9097138109535755e-001 1.3396961987905009e-001
      -8.1440518931523889e-002 3.5485799156595238e-001
      6.2652536810600082e-002 2.9845924061770546e-001
      1.5700437941029935e-001 -2.0983295574403166e-001
      1.0429069829996689e-001 2.0414987856795816e-001
      -3.5393227843876490e-001 -3.1616261123692008e-001
      -3.8205534711701289e-001 -3.2375583695539728e-001
      1.5327637722755443e+000 4.1342637555034173e-002
      1.4154191940059424e-002 1.7227683222934897e-002
      4.0693668260383176e-002 -1.8251485400773199e-001
      -9.8470560457547096e-002 1.0596814595404807e-002
      -1.3596727044320667e-001 -2.3487511182666090e-002
      -1.7342241245939898e-002 1.3408276315538625e-001
      -1.2582906959819918e-002 6.2336153928407100e-002
      -1.2878577522212421e-002 8.4875133570463154e-002
      -2.6653674697486671e-003 1.4268475325145105e-001
      -4.0808229348182651e-002 -4.8635345260966904e-002
      -6.1198270409064219e-002 -7.4858493114739110e-003
      2.1561353845271530e-001 1.0929788910939750e-001
      4.2554014708039212e-002 -4.8027755202405049e-002
      1.8593072501903166e-001 3.8187880824452881e-002
      1.5755143039423841e-001 7.4510610431233484e-002
      -1.2038478143467043e-001 1.9966839257649187e-002
      1.0737902634097571e-001 -1.9027845695196396e-001
      -1.8064381200380097e-001 -2.0907147579440202e-001
      -1.7408850021252936e-001 7.4910048721941076e-003
      5.5506011198027993e-003 -2.4863782044490836e-003
      -3.8733693623444389e-003 7.4245118134066658e-003
      -6.3411793185829072e-003 8.5803460173318781e-003
      2.1818453025283503e-004 7.7819974889688096e-003
      -4.3995148209756800e-003 -3.5330785848545800e-003
      1.1846051168304223e-003 -5.9925633175194311e-003
      3.6476004941851286e-003 5.5460118876051413e-003
      7.8065444088942833e-003 7.6252717852932873e-003
      6.3521093665699895e-003 -6.9957451665681883e-003
      1.3857430707458492e-004 -3.3237538100795070e-003
      9.7328498264556836e-004 6.7999476274230499e-003
      7.5951211264349483e-003 -1.1913374490635666e-004
      7.0034879234122617e-003 8.6369875090301969e-003
      -6.7096050121247140e-003 5.1698271368039493e-003
      -3.7778456737909212e-003 2.3548325634348360e-003
      -1.4179035520704925e-003 6.1020246088491405e-003
      2.4776132806701512e-003 2.9342782635924385e-003
      -5.5594371701172879e-003 -4.2559655867943722e-003
      -1.3877966704237248e+000 -1.4734361515641950e-001
      1.6991640465512731e-001 1.1907242751438477e-001
      -1.0952590351364934e-002 1.6293450785365773e-001
      1.6710419985660108e+000 -4.5013688818461503e-002
      -1.2105473260912085e+000 1.4765820259243992e-001
      4.5017730152970148e-001 -9.5607248337246459e-002
      -2.0733961327117559e-001 -4.1061097533150154e-001
      -7.7498226523133107e-001 1.5790027350407718e-001
      6.7092239034995879e-002 3.1537262634313296e-001
      -2.1545190180251786e-001 5.1828466648410565e-001
      1.3183664632829626e+000 1.7685439715256454e-001
      4.2335529484342016e-001 1.3556656335026265e-001
      -7.8352556413976326e-001 5.1972816737517791e-001
      1.7807546281082145e+000 1.1596680922848400e-001
      -2.0710780234651002e-002 2.7384349295802618e-001
      -1.2229790333636239e+000 6.2730293762324851e-001
      4.5628157892636623e-001 -9.7060230480181087e-002
      1.8217673958554463e+000 7.6911268484244022e-001
      -4.9179870873530963e-002 -2.4275816035590978e+000
      -6.0835439813625358e-001 4.9238434179371732e-001
      1.1842218491324785e-002 -1.1643131345208213e-001
      1.2365692835581393e-001 7.5577126583211662e-001
      6.1987186008184585e-002 -1.7311496485873842e-001
      3.2253931223108745e-001 3.0747973664850953e-001
      -2.8609675658876388e-001 -6.9397704835911081e-002
      -2.4247367006774850e-001 -1.2832273388596721e-001
      5.5854584856528544e-001 3.2564957298071223e-001
      1.7281244636855145e-001 1.6716679747833307e-002
      4.5054160583273273e-001 7.0545139454410055e-001
      -2.1092992007027370e-001 -1.4683367324820007e-001
      6.5037546747080413e-002 -3.1868186786163305e-001
      3.6547835702594184e-001 1.0310545411550138e+000
      -1.0129947506748761e-001 4.6340109670509493e-002
      1.9422070621289761e-001 -4.8707577916808631e-001
      -6.4824992180882071e-002 3.6939828362629802e-002
      -5.0606267538979434e-002 1.0343256272568289e+000
      5.5201387550469805e-001 -3.7693542995033379e-002
      -1.3550269956696563e+000 -6.7450577323789795e-001
      -6.5869904568592402e-002 6.0721982311467371e-001
      5.0432170566423218e-001 1.8864732419893998e-001
      -9.6339944223040472e-002 -3.4471358658160678e-001
      7.6827752922678316e-001 5.1446610981243657e-001
      8.8481379819747838e-002 2.4858566795488550e-003
      1.1798714496017127e-002 -1.0671544151012718e-001
      -1.2107463464157431e-001 1.8460348927094833e-002
      3.8305544118597007e-001 1.8541298870599096e-001
      -1.8215907247112004e-001 8.7472479453212060e-001
      1.2414393082827511e-001 4.7663664507196823e-001
      -1.6421758100720951e-001 9.7665269678856553e-002
      1.1704429816326645e-001 4.7182542901330576e-001
      1.5482086623562044e-001 -3.3045297523487643e-001
      7.0977208825291030e-002 -1.3312141450630424e-001
      -6.8514538586884610e-001 4.5031840393800593e-001
      3.1343753956511744e-001 6.5917530153934756e-002
      6.2953373788430356e-002 1.7564554735583213e-001
      5.7739858880777983e-002 -1.4584843492188368e-001
      -6.1519168130871416e-001 -9.4013943592482885e-002
      7.0362847694175867e-001 2.6398317278316524e-001
      1.7305811935391516e-001 9.4387112036763962e-002
      -5.2820329379809594e-001 7.6403890901063154e-001
      4.7745220085444323e-001 1.4941863926591439e-001
      3.0704991143081989e-001 3.6774959599390783e-001
      -4.4699268701159711e-001 -1.2933199312744856e-001
      2.3864455048876851e-001 -1.6393886654325056e-002
      3.5113784214861843e-001 -6.6422669231126663e-002
      2.0366082247958217e-001 1.7654017345793083e-001
      5.8302366229106317e-001 -1.5299719722295244e-001
      2.9158081819800358e-001 -1.1928953216464645e-001
      -8.3858548887695922e-002 -4.6675765771919492e-001
      -4.2350914908221943e-001 3.9450469022184953e-001
      9.6806867823618931e-003 -5.4457229804665730e-001
      7.8964926398878055e-001 -2.6594350370023101e-001
      1.6748156812863218e-002 -2.1968787130796794e-001
      2.1999746188195315e-001 -1.9915608126090958e-001
      1.7910592730922088e+000 -2.0627111766060710e-001
      3.6843293515706294e-001 2.4843969804943486e-001
      -5.7757202113254291e-001 2.3698351606794366e-001
      4.1753655197830969e-001 2.9996571198485000e-001
      7.3796843342074259e-002 3.8058195286004744e-002
      6.7834810406734045e-002 5.7453899151047061e-001
      -1.6323018016340879e-001 -8.1990205346354497e-002
      -1.6604041993435664e-001 7.1988545011245075e-002
      2.0885535933708488e-001 -2.5739975889134664e-001
      1.1682242876507445e-001 -5.1823399833176009e-001
      7.0666004443129871e-002 3.2690797311303817e-002
      5.1139470856799403e-003 7.4749614336786119e-002
      -1.1922546086885377e-001 6.3626966930727516e-002
      5.7161354369914846e-002 -1.0021505818067754e-001
      1.0856618454202957e-002 -1.9383468467057605e-002
      -1.5101093827705525e-001 3.7157778230608840e-001
      -2.5850810590371059e-001 -4.4718011388098738e-001
      3.1153608923713196e-002 9.1002497314993311e-002
      -1.7556751824993458e-001 1.5066864464073304e+000
      -2.5322315943301882e-001 -5.3911970355650651e-001
      -7.7550220558852093e-002 -3.5348443452512993e-002
      1.2177040738575692e-001 1.8470940520239534e-001
      1.4390867770580951e-002 -1.5745487622908105e-001
      -7.6280839516507201e-002 1.4916589268128247e-001
      5.2669486863038051e-001 1.5705858531393377e-001
      1.4486850274535162e-001 1.2398505400878047e-001
      -3.2323563337129729e-001 8.6890407118035667e-002
      5.3549122026688198e-002 1.0457981516969210e-001
      -2.6234731558801561e-001 -6.0585680630737593e-001
      -2.2285581897219789e-001 2.2822620749222547e-002
      1.4889321298303915e-001 -1.4470002800215735e-002
      -1.8162447893263926e-002 -2.5675621319572534e-001
      2.5717243258763944e-001 -3.5349358709633946e-002
      -3.4202185443006817e-004 1.3019199889552188e-001
      1.4464274357463985e-001 4.4438946670665048e-003
      -2.6024267542715690e-001 -1.9480488542218549e-001
      -1.2580500453529642e-001 -2.9046560377350511e-001
      -1.0563533593677343e+000 -8.1748376969815434e-002
      -4.2245847037047457e-001 -2.4731554207312634e-001
      1.9996042375767986e-001 -2.4104989292642645e-001
      3.0890228790542873e-001 9.9159813038714337e-002
      -2.9026854963312754e-001 1.8048945735777325e-001
      1.1372222428905032e-001 1.8254923553821270e-001
      3.2257657154801234e-001 1.3051533189359222e-002
      6.1020001072910710e-002 -1.4138719751898213e-001
      4.2525491218459077e-001 1.7693641347938496e-001
      2.0606393204967385e-001 1.3700568574287525e-001
      -2.8707438765341975e-001 -2.1186795219479115e-001
      6.3437499005301712e-002 -1.7415281954441508e-001
      -1.9977021522465821e-001 -9.0459535323287127e-002
      -5.3902605623918554e-001 4.1496498836555518e-001
      -4.5152380398443426e-003 3.5197559159503977e-001
      -4.4340649163564026e-002 -3.6771861556615425e-003
      -3.0986178092067701e-001 1.6919909657759158e-001
      -9.5211636149262036e-002 9.7147008110275185e-002
      -1.5786642240334103e-001 -3.5519548180689470e-001
      7.1593799942647682e-002 -4.8478011449494277e-002
      -5.4368778750985385e-002 3.4436967226964120e-002
      -7.4901181410693074e-002 -2.5455185691143706e-001
      2.1221248171737522e-001 -1.3618083580350668e-001
      -7.1764973657003961e-002 4.4031501897246347e-002
      2.3751658112277987e-001 1.4209742304250036e-001
      -4.6312485824646352e-002 1.0140740201850607e-001
      2.7977304636242685e-002 1.0525775731761711e-001
      3.0607619208629856e-002 -1.7540380048565046e-001
      -9.7105907194235078e-002 2.5613560091172077e-001
      8.4991005757508592e-003 4.8684867101591735e-002
      -1.9923273344076409e-001 -1.4789357046826154e-001
      8.9676274092437988e-002 -4.8587723468897288e-002
      1.0642058130508578e-001 6.5765983469428507e-003
      -5.4001123114083706e-002 -1.8903411778094686e-001
      -4.7911715312088772e-002 -3.6760909031757745e-003
      9.0775900781413427e-002 -5.7152988678295810e-002
      9.1741019244945834e-002 1.1488969065952970e-001
      2.2083267144488476e+000 1.3904783786528346e-001
      7.4237403541734456e-002 2.5152187827413373e-002
      5.3305938573009345e-002 -1.7658072588591867e-001
      -1.2988294933416233e-001 1.5941751237514115e-001
      -8.9990526529104845e-002 1.6759989683819886e-002
      -3.6792182573614283e-003 2.7174835161719063e-002
      -6.3148974003774212e-003 8.4355370847257107e-003
      -8.7095114428364928e-002 3.1587268464445865e-002
      1.3469062509613824e-001 -1.2014984296210053e-003
      7.5809625438012271e-002 -1.9248586730818890e-002
      -1.3126513932073017e-001 -4.0186981244508403e-002
      8.4134454183434515e-002 -1.1561836974698887e-002
      3.7288686546307917e-002 -7.2887945136848889e-002
      -9.3645523687160809e-002 1.0161282757326973e-001
      9.0930774646098972e-002 -2.2094806005504616e-003
      -4.8863247379509943e-002 1.1794679629871978e-002
      -1.8327388575290173e-002 -8.4339187580708991e-002
      -1.3926800983582913e-001 -1.9676349519228339e-001
      -1.2400927565510522e-001 2.3465837271320096e+000
      1.0680092759874384e-001 2.4975750005085125e-002
      6.2221523192463067e-002 -2.8073402446304845e-002
      -6.1212050108117186e-002 5.1554054635710063e-002
      -1.9798864048652481e-001 -2.5139103360317799e-001
      -9.9406321666732966e-002 -7.1679330536166498e-003
      2.6974850222109814e-001 -1.5552538473853361e-001
      1.5373456533852811e-001 -4.2107391973954036e-003
      1.6974819045939818e-001 1.1274958376428576e-001
      2.7512451190904608e-001 -7.8401613026448977e-002
      4.7760230155383943e-002 -1.7991432262077070e-001
      1.5466497766162209e-002 4.2158044392994398e-001
      2.1578889692564068e-001 1.5533182815015370e-001
      -2.1805065828081410e-001 3.8281004019611592e-001
      9.7626939377231964e-002 3.1726608590754507e-001
      2.5871174913304107e-001 -2.3298303659938188e-001
      -2.6365862973854147e-002 2.1965611247475189e-001
      -3.8420740998581515e-001 -3.3938462442863099e-001
      -4.1084281977334380e-001 -3.4078552769389225e-001
      2.3700940026386839e+000 1.3205279150204158e-001
      7.9581691489891221e-002 8.3907026087075301e-002
      -4.1165925640335686e-002 7.6212962177820494e-004
      1.8048999735182522e-002 -2.1528125293888664e-001
      -2.5980158190355734e-001 -6.7603570972715424e-002
      9.5520994761205610e-003 2.6757772100287125e-001
      -1.4266961701555378e-001 1.4087393349194041e-001
      -2.3274294350845763e-002 1.6558370771395070e-001
      5.9852197097148466e-002 2.7820981950236467e-001
      -6.4636315652204776e-002 4.9150483894751150e-002
      -1.9308860362381319e-001 -2.1832134264568991e-002
      4.2648031309036788e-001 2.0987959263611192e-001
      1.3200129185862100e-001 -1.9248634432013129e-001
      3.7310693068572454e-001 7.5365476859267339e-002
      3.2814153301002758e-001 2.0839052341863284e-001
      -2.3454567928697764e-001 -9.9792986645726167e-002
      2.2257141235927538e-001 -3.8491021372501039e-001
      -3.5235074231263186e-001 -4.1846716205005313e-001
      -3.5428856754350152e-001 3.5617874348170431e+000
      1.4302961219679525e-001 7.5721064223456550e-002
      4.4162556360893890e-002 2.8584685791857096e-002
      -3.2835661159272972e-001 -1.9064363921456709e-001
      -1.8058197579414841e-002 -2.6436104234714525e-001
      -2.9109321671663600e-002 1.9432640310785933e-002
      2.7249464721950528e-001 -6.6976610232663172e-002
      1.1233713236210049e-001 -3.9309196612917131e-002
      1.7013322811227494e-001 5.2352355760690774e-003
      2.8345521889089592e-001 -9.4867982077627686e-002
      -9.1690829734826992e-002 -1.8737188207232522e-001
      -5.5091436901961631e-002 4.2593583003990143e-001
      2.1284818772229810e-001 1.0658379723980321e-001
      -1.3845514094094777e-001 3.8270628533054590e-001
      6.5040145930108470e-002 3.2980393230038069e-001
      1.6628505323024459e-001 -2.2885486956913198e-001
      1.1070395746212516e-001 2.2056120058866246e-001
      -3.9581911414530513e-001 -3.5251444167332380e-001
      -4.1828076289949889e-001 -3.5466700109127608e-001
      3.6919931717885599e+000 1.5207237511659363e-001
      1.0896286425476658e-001 5.4417368980299786e-002
      1.1466799321093116e-001 -3.3228655228850118e-001
      -1.7451701405808429e-001 -1.5648059369558539e-002
      -2.4597833818536513e-001 -1.5007799146870889e-002
      7.0357172262458717e-002 2.6022201466699096e-001
      -2.7230287553409532e-002 8.9349140281428804e-002
      -3.3314567799508976e-002 1.5719595631732344e-001
      3.2916434839471348e-002 2.7172671802211051e-001
      -1.0372267455674072e-001 -1.0583378155707900e-001
      -1.2790694433945485e-001 -8.0223963644452972e-002
      4.0715260290537159e-001 2.0500060651799906e-001
      1.3698875778001796e-001 -1.0454844882374205e-001
      3.7450739482285006e-001 6.9710485199361530e-002
      3.1297809275322236e-001 1.7182344666085250e-001
      -2.2609633589234510e-001 1.2940546205911768e-001
      2.1018143407837658e-001 -3.6470903122494602e-001
      -3.3059525878436513e-001 -3.9177105272642071e-001
      -3.3416783694272945e-001 1.7549290566300164e+000
      3.2479963945159153e-002 1.6263286804281279e-002
      9.7048421394112169e-003 5.5831370242141395e-002
      -1.8361444989518366e-001 -9.6140456757117160e-002
      1.6553943874320968e-002 -1.3402862630048831e-001
      -5.9038149922531454e-003 -2.0899901662114348e-002
      1.5130619253961572e-001 -1.0232739110553458e-002
      5.4546736789029895e-002 -1.1416830044484568e-002
      8.8272673149436848e-002 6.5430144040524302e-003
      1.5141190172435204e-001 -4.4494316659541663e-002
      -5.9927895882390066e-002 -4.5817455824383048e-002
      -8.1294674920157992e-003 2.3157254290015408e-001
      1.2138825569427121e-001 4.7736121344867009e-002
      -5.9875542985712307e-002 1.9426777084644031e-001
      3.6039437956248893e-002 1.7385370272949227e-001
      9.0632772260486633e-002 -1.1517668991470262e-001
      1.7092148786170016e-003 1.1103957081330325e-001
      -1.9947891845568119e-001 -1.9069601188452381e-001
      -2.1236292517170294e-001 -1.8664847934121129e-001
      -8.1891010510913350e-003 -5.2879361327234581e-003
      -7.1744558048092337e-003 9.3672854621012981e-004
      7.0263999774327780e-003 -4.6600445526493459e-003
      8.3160068970085724e-003 -5.5107141081017557e-003
      -3.4437930149869940e-003 8.7035197961628993e-003
      6.3282793544168856e-003 -1.4387110859631106e-003
      -6.9421017316214518e-003 -5.4355888049231332e-003
      7.4108033465232611e-003 5.2648639915682388e-003
      -4.8553911472110317e-004 -1.7521259483460265e-003
      -5.0340658701632636e-004 -6.5550494100460382e-003
      -7.1394398924070788e-003 -2.1686361405946564e-003
      -4.3056125843657783e-003 1.4948005406606208e-003
      1.6045300210637554e-003 -8.2331105942235906e-003
      4.8552560726964134e-005 2.4946827377383186e-003
      -4.0001861322748865e-003 5.1444081890604423e-003
      3.5478283080785586e-003 8.0626617013842758e-003
      6.4993616006407641e-003 -3.2113470748086643e-003
      1.5620051149009160e-003 1.7500217691802946e-003
      -1.4142817223571746e-003 -2.1204619386339805e+000
      5.0617224262056205e-002 1.3516702299296155e+000
      -1.6023054296215999e-001 1.5033368455020704e-001
      1.7212379613861947e-001 -4.6371512434099110e-001
      6.4046509286281944e-002 8.4408211589153945e-002
      -8.7283978322090200e-002 5.0641545288442180e-001
      5.0882742252629032e-001 2.1928236635388114e-002
      -7.2956335626264454e-002 -2.2849074846692263e-001
      1.4605869657816466e+000 8.4827532382011975e-003
      5.2138622384151678e-002 -1.5468106289845432e-001
      -9.6103346912475199e-002 2.5682329762046208e+000
      -7.2277784485542218e-001 5.1709865392486898e-001
      5.8945016040393344e-002 -1.6083455314730108e+000
      -3.1453771612515902e-001 1.8275626570939993e-002
      -3.2243051910142689e-001 7.6217235448971310e-001
      7.4831015759873110e-001 -2.1732030519073389e+000
      2.3943602499339944e-001 5.2790051339407273e-001
      -2.0464337795322925e-002 1.1371283009263554e-001
      1.4505949561611657e+000 3.3857526333544885e-002
      1.6831248970299211e+000 -7.2685033000313787e-002
      3.1272248747159853e-001 -2.2211369239660242e-001
      -2.9945626610459314e-001 2.8735847473366805e-001
      -5.9471011743934754e-001 -1.8287413097820873e-001
      6.7681341191004130e-001 -1.1336400608605600e-001
      -2.0320833272677671e-001 -1.7510081875719324e-002
      -7.9859326895541607e-002 -2.1310331234798974e-001
      -2.6312799953446020e-001 -3.4906004392995967e-002
      7.9522099229531393e-002 -2.7616593305701983e-002
      -5.5185308127649969e-002 1.6469931598899626e-001
      2.1992682549021325e-001 -1.9544764445846026e-002
      -1.1108558665708146e-001 -1.9737774858267282e-001
      3.8613614119596362e-001 1.8301412385374519e-001
      -1.5351412644737042e-001 -4.8735501582505714e-001
      5.7948987222370611e-004 3.3555224523791777e-001
      1.4851958226567580e-001 1.8604535152147134e-001
      1.9000305377762902e-001 -1.6826692134164692e-001
      -2.2254374952591949e-001 -2.9368035451005198e-001
      -1.7233222933373524e-002 -4.2306691184395934e-001
      -1.3812848437781625e-001 3.6122676804631726e-001
      1.5430669215197523e-001 1.0617030820686806e-001
      2.2616258891834273e-001 1.4428952143780425e-002
      -2.4193938893187050e-001 3.7746969393260554e-001
      -5.1741947161807592e-002 1.2719177135562382e-001
      1.2879435674842907e-001 -4.4137427230220266e-002
      -1.3584337929800858e-001 -3.1752195138099254e-001
      -2.4516356618176183e-002 2.8918345753507257e-001
      1.0431380739877059e-001 1.9297848063550806e-002
      4.6337414704921687e-001 2.8559895017240317e-001
      1.6668335907689660e-001 -6.1628946504580916e-002
      8.9908860528342294e-002 2.2976540963839046e-001
      3.4861027566687619e-001 7.8606872526451894e-003
      -3.9342457682775778e-001 7.9896870427959468e-002
      2.1116657829558558e-002 -5.3099137057223134e-001
      4.8254418310448605e-001 2.1959674682638711e-001
      -6.1289288887638099e-002 8.8563957814349562e-003
      5.0513245104550880e-002 2.6837461497083731e-001
      8.6909560897719673e-001 3.9146926119151451e-002
      -3.2869310607660113e-001 2.3852226015365310e-001
      2.4418383205025179e-001 1.3347727904520892e-001
      3.8209776158500658e-001 -4.0504532314954428e-001
      2.5854328935448811e-001 -2.6547246835981735e-002
      1.0625362651828037e-001 2.0888517172881096e-001
      5.0597183688201675e-001 -6.7669214064715466e-001
      -3.5811370347149407e-001 -1.0169077327832821e-001
      -1.3760696494677924e-001 3.9459202118159875e-001
      1.0795961941325875e-001 5.0486989356886671e-003
      6.6262115281485401e-002 1.1578119324298003e-001
      -6.8653033828705398e-002 4.2857506646059990e-001
      2.0191228096964123e-001 -2.8535019375862314e-001
      -5.8534777657495063e-001 -2.1471147572897636e-001
      1.5257578898401997e-001 2.8553252614796326e-001
      -7.4817143422724242e-001 9.4520111428635867e-001
      -5.5584674618592245e-001 -2.1082712677798612e-001
      -1.5557590767446366e-001 -2.0660984446712627e-001
      -5.2754172000740962e-001 1.1526516099722179e+000
      2.1429951084271756e-001 3.1330971588788104e-001
      1.2043431289593833e-001 -2.3459967001248636e-001
      2.0657640773747828e-002 2.1095658339643120e-001
      2.6480737737813931e-001 1.4647381427268405e-001
      -7.7688976847594571e-002 -8.0584328086344900e-003
      2.9198894875852749e-001 3.0678240718363403e-001
      -1.8898417295038961e-001 1.2123144985028266e-002
      4.1368965804426797e-002 1.3921063713955895e-001
      -7.9619065013310772e-002 3.6988850525614590e-002
      -3.0918446922407833e-001 -2.6428190402780977e-001
      -6.3892607393576193e-003 1.1941591372661869e-001
      1.0843954158949327e-001 1.2558223740224447e-001
      1.2101539641289852e-001 -1.4919133202536169e-001
      -5.8695664656542995e-002 7.2643045753325322e-002
      -2.2265022364262168e-002 -4.5393813337200106e-001
      3.4902981268238370e-001 -2.9099493213501015e-001
      -4.5092456455827856e-001 -3.9603907384723497e-002
      -8.0007403277176273e-002 -1.5099883299323072e-001
      1.2940795204558025e-001 -4.0949361500143722e-001
      1.4517592019495276e-001 1.4826631197529314e-001
      1.8236038069933455e-001 -5.8370863263557636e-002
      2.0877573724466977e-001 1.9879743843425327e-001
      1.9533722674239187e-001 -2.1778405633592474e-001
      1.1334932716177064e-001 2.3834426478167597e-001
      2.6046072569600415e-001 9.9334244566272739e-002
      2.5756565742426968e-001 -1.0783118135972004e-001
      1.9016090468360686e-001 -7.1397330668778902e-002
      -1.2975271693192630e-001 -9.2280707697800765e-002
      -1.0315252470291956e+000 -1.1856123829306961e-001
      -5.1878618734211006e-002 1.0228097967966981e-001
      1.6862879907331574e-001 2.7942498968975972e-002
      -1.0234648150175432e-001 2.8220841623493509e-001
      -3.2223864824149169e-003 8.7337481503600725e-002
      -1.5503922933626577e-001 7.2325308859925994e-005
      -1.9950096056909303e-001 -3.0016839637709436e-001
      -1.3783277353815110e-001 -8.1129961465959813e-002
      -5.7684371140341875e-002 -3.4681171154245688e-001
      -4.8979236456958897e-001 -1.1394846413321208e-001
      -1.9408169310264178e-001 2.5105737995018296e-001
      -1.1042131335007287e-001 -9.0917656242043635e-002
      4.1160256389429090e-001 -3.3047436963974863e-001
      -3.7585394125070526e-001 -4.4835429520421341e-002
      1.3795424571455683e-001 7.0807121876741097e-001
      -1.8438048860105760e-001 1.8067171117484149e-001
      -5.4774190186610457e-002 1.5989772263200247e-001
      2.1950054766780705e-001 -3.1603829329356614e-001
      1.2735719787681285e-001 -7.4468766383125640e-001
      -9.7570801067600355e-002 1.4603924730671946e-002
      -5.1794219220980021e-002 7.7472325623644214e-002
      -1.8351092858885124e-001 -2.7073415331802103e-001
      5.8390896427894001e-001 -7.3497972702376943e-002
      5.7255736657558863e-002 -3.0641484819049986e-001
      -5.6503016672454130e-002 -3.6714900441522452e-001
      -3.1156425212141473e-002 4.8869614641280860e-002
      1.3936442640502314e-001 2.4389286110858202e-001
      5.5271226617444846e-001 -2.3486539689830704e-001
      -8.6895419636640048e-002 -2.1174077115936410e-001
      -9.2500926390828284e-002 -1.7176225137723100e-002
      -4.0351799253860887e-001 2.1692864343521720e-001
      -1.2563662531277545e-001 -2.8726612396566376e-001
      -6.5021127189033761e-003 1.0959140525923108e-001
      3.0824934068797522e-001 -1.2657337290301357e-001
      -2.6486951669833121e-002 6.9265440615550206e-002
      1.3926252849851373e-002 -5.9952251256188742e-002
      -2.1291235072334372e-001 -1.2801954312008920e-002
      3.1305380866931781e-001 7.0756623240850289e-002
      4.1987454109908267e-003 -1.3083005217433985e-001
      -4.8757595370644259e-002 1.5365870444746010e-001
      1.3314089764882286e-001 2.0076839694961587e-001
      -8.0659373834284620e-002 -6.3808602859972544e-002
      -3.0876204014764214e-001 6.2280547172759389e-002
      -6.2554893782731075e-002 -4.9874082075104346e-002
      8.8373076957908664e-002 2.6044802432607522e-001
      2.8409829519666535e-001 -4.0034459829164148e-002
      -1.5917587711095130e-001 -4.8116672431958246e-002
      -3.6720920729988477e-002 7.4506903118784756e-003
      -2.1809704082369212e-003 -6.6558387570574681e-002
      5.4619179612683984e-002 6.4196853789714417e-002
      5.8879946510720076e-003 -3.5065225036418055e-002
      -1.3870758847189732e-001 3.8851108396359545e-002
      -7.5284735001801925e-002 -5.1562693867458632e-002
      -9.2604136328576225e-002 -8.4827841603646356e-002
      -2.0876070616650727e-001 -3.0640506358920322e-002
      -8.4505065542473147e-003 3.4491064063075970e-002
      -3.0001592732802340e-002 -1.5903803851450740e-001
      -1.9135577853763758e-001 -1.0586780619520850e-001
      6.8187651025396104e-002 -1.8135157442650929e-001
      3.1521720734966209e-002 -1.4556723782648567e-001
      -1.7900987603298721e-001 9.1940391949736411e-002
      2.6833936264096393e-002 -3.7563194076885104e-002
      2.2283017340524633e-001 1.5613266323273459e-001
      2.1202993330822048e-001 1.7061357831875090e-001
      1.2994126107979120e+000 6.3429832708126924e-002
      5.7633380975591559e-003 6.0998155423903695e-002
      -5.0672768294123705e-002 7.5200802720811533e-002
      1.0380252928174241e-001 -2.2094165527037829e-001
      -1.9380581029682062e-001 -5.7359409615701386e-002
      -1.4579194587824501e-002 1.9501064831601495e-001
      -1.4261690308737221e-001 1.3495301172997282e-001
      2.4481844694344539e-002 1.2150949839167299e-001
      8.9223007846893646e-002 1.9690466774977020e-001
      -4.9275793886311162e-002 8.0450718728510784e-002
      -1.3973268738539238e-001 2.8522152358887096e-002
      3.0554734483114715e-001 1.5792463224923017e-001
      1.2320687223826490e-001 -1.8168764059032230e-001
      2.7319214724006263e-001 7.5920392867378381e-002
      2.3995573932825368e-001 1.9951841377510421e-001
      -1.6803308664969799e-001 -1.0715142355403844e-001
      1.5580740606485541e-001 -2.8167589657496733e-001
      -2.5053832772373558e-001 -2.8832324974920570e-001
      -2.4573120593259215e-001 1.5522106712290398e+000
      9.1506206406767210e-002 7.4770113151111955e-002
      9.4531001486592423e-002 -7.4583208006502547e-002
      1.1084234602463677e-001 6.4764775666536240e-002
      -1.9232297617740624e-001 -2.0780823985590438e-001
      -6.0360234956519820e-002 1.8686452900025789e-002
      2.1923311259777409e-001 -1.3317486881488944e-001
      1.2083559316088764e-001 -2.5466836831872633e-002
      1.3211158691904254e-001 4.3750654467852979e-002
      2.1240949320285282e-001 -1.7739491959545283e-002
      9.6976773024564478e-002 -1.7660466078422560e-001
      -2.0268806472030190e-002 3.2618275697019200e-001
      1.6602548373741016e-001 1.1267330654698694e-001
      -1.6823927129437607e-001 2.9942173251881243e-001
      7.4693584295185050e-002 2.4463046878883096e-001
      1.6753460769610179e-001 -1.7743319554103321e-001
      -1.4526206727553945e-001 1.6558718486295312e-001
      -3.0615504789696002e-001 -2.7495714548883055e-001
      -3.1832323891164638e-001 -2.7473264185607227e-001
      3.1690105232433563e+000 9.8829873172755073e-002
      6.1092308610083565e-002 1.9720576733022965e-002
      4.2690369332710788e-002 -3.0190098928293924e-001
      -1.5966865336090921e-001 -8.0965018423053911e-003
      -2.3928793531490541e-001 -3.8276132066967141e-003
      4.6178796485255450e-003 2.4485528786414085e-001
      -5.8487587928523120e-002 9.9388710295478619e-002
      -4.4842338359277471e-002 1.4811599713904516e-001
      -5.7120635109694021e-003 2.5952673977038099e-001
      -8.6257213307118788e-002 -9.7884596265661566e-002
      -1.6557880863306421e-001 -4.5444054565973904e-002
      3.9085691298772929e-001 1.8907442905876085e-001
      7.5840061975786813e-002 -1.3070858901423688e-001
      3.4076732505840379e-001 4.5303253666129549e-002
      2.9103594493667395e-001 1.6437628332813467e-001
      -2.1754845840274434e-001 8.0122721662933424e-002
      2.0658982040567878e-001 -3.4614906684081409e-001
      -3.1498127806702642e-001 -3.8094941295627788e-001
      -3.2556491673196108e-001 3.8036148792339310e+000
      1.5499297075932345e-001 1.0067376938072513e-001
      5.2967408151360099e-002 1.1544436155609743e-001
      -3.4055964949978185e-001 -1.8435572597307326e-001
      -1.0688683458188290e-002 -2.6432163932635683e-001
      8.8070740980148599e-003 5.9856742730696404e-002
      2.6936746982513748e-001 -2.7549738729176938e-002
      9.1676702363231916e-002 -3.4131756917936497e-002
      1.6750239601153097e-001 2.8605232049231842e-002
      2.7889341646741839e-001 -1.1128930271909591e-001
      -9.7198957655704618e-002 -1.4385021102149068e-001
      -8.2851200095811511e-002 4.1881287466880018e-001
      2.0453878071013823e-001 1.3291152404692050e-001
      -1.0511084027492955e-001 3.6639256798053987e-001
      6.2690875923600453e-002 3.0782724652048910e-001
      1.7255969108147443e-001 -2.1855511194991600e-001
      1.2927988539370353e-001 2.1637465176622900e-001
      -3.7779060260485392e-001 -3.4154510055909559e-001
      -3.9594691480204230e-001 -3.3433640960861755e-001
      1.9305825123799154e+000 4.0543790621196368e-002
      2.0614357414193832e-002 5.2217899688197372e-003
      5.2325737925398970e-002 -1.8921579213550488e-001
      -1.0374360232475123e-001 -4.5472993503928782e-003
      -1.4430871942862047e-001 -2.4692544817000446e-003
      -2.6205475918588250e-002 1.4775661994194236e-001
      -1.2437863293276837e-002 5.8891486300086275e-002
      -1.9268260643181882e-002 8.9871634585050972e-002
      1.3905728757604824e-002 1.5331208671140203e-001
      -4.2936230207229621e-002 -5.0262297021566725e-002
      -6.2207998471472271e-002 -6.9251683855162905e-003
      2.2775318653582050e-001 1.1460372364453961e-001
      6.0059091497513366e-002 -5.6248199614589815e-002
      2.1436953813727785e-001 4.0038177140405813e-002
      1.7406883144180033e-001 7.7758051377646742e-002
      -1.2817088359139478e-001 1.0190740256198899e-002
      1.1776686632589660e-001 -2.1709760660363911e-001
      -1.8473329706449179e-001 -2.3180811957692218e-001
      -1.9339046777893054e-001 -1.8757897114071720e-004
      -3.6794286884894827e-003 -2.0575212034474387e-004
      4.7420932610757636e-003 -2.6441197123718741e-003
      -7.1607698675480620e-003 8.5243698820937353e-003
      -5.1425506330815057e-003 -2.9013542063624346e-003
      -1.5181555176127892e-003 7.3141600817585306e-003
      2.7752908200923266e-003 -8.2775970887698988e-003
      7.0062953570632176e-003 -6.7698456972744327e-003
      -1.2660446300298616e-003 -5.4906797797781908e-003
      -4.6434983726824997e-003 4.3238626242783993e-003
      2.5303337680231569e-003 -1.9055817683233192e-003
      -6.7562658616229787e-003 6.5066616734111493e-003
      -8.5358401487080314e-003 3.4842002949558356e-003
      5.1971284840294030e-003 2.9917140059430897e-003
      -4.1850032860237399e-003 -4.5667838462869446e-003
      8.3750970827292728e-003 6.5890034883109736e-003
      2.9344312940329598e-003 -5.7987910372475446e-003
      8.2995958804229896e-003 8.5945576128320048e-003
      2.3066950135815878e-003 -6.5414925434932828e-003
      3.1033882284439986e+000 4.6894700600437722e-001
      4.5269345091502772e-001 -3.7592143857215976e-001
      -6.1919446516454546e-001 1.1002094426666149e-001
      -1.2364937589925857e+000 -3.1203626221186206e-002
      1.7282809504268545e-001 -5.4377714704890812e-001
      -2.5029305295124227e-001 1.3591148929883215e-001
      -8.1495873968575189e-002 3.7612779995619919e-002
      -6.4306699194280142e-002 -1.9860346967590770e-001
      3.2030643928549091e-001 -1.9072149755579526e-002
      -1.7006260600210887e-001 -1.4038578785256824e-002
      2.0067326980070899e-001 9.5242422471416177e-002
      9.4796726041161319e-003 -4.9533657510874080e-001
      1.5818691557694647e-001 3.3197157222483631e-001
      -5.0119585710148751e-001 -3.6330665657535227e-001
      5.3074450927580131e-003 -4.4018941203041290e-001
      -1.0774673607654663e-001 4.0154264824012589e-002
      -3.2575235365268330e-002 -1.8010908783853244e-001
      -5.6871416342810677e-001 -4.5688241752849484e-001
      8.9458030501100225e-002 1.6053702235921710e+000
      4.0957258961318310e-001 4.2270629757391148e-001
      -6.6358996322296404e-001 -3.4905647403150941e-001
      2.3629409701208012e-001 -9.9013026097516099e-001
      -2.0383881871444878e-001 -2.9104693595983533e-001
      -3.5586164342632270e-001 -1.4903235852627908e-001
      4.9828140548212252e-001 2.4439088601487569e-002
      1.6034856266600572e-002 -5.7927927862152639e-001
      -6.0059870521412935e-002 8.3013848799606396e-002
      2.1208704151961441e-001 -6.0757453478825441e-002
      1.9396672522167518e-002 4.6035106040071982e-001
      -9.0776667263193542e-002 -3.7523203656377492e-002
      -4.2618434698363167e-001 -5.9312420105033535e-002
      9.4604553113818601e-002 -2.3352626778048460e-001
      -3.6446906742563323e-001 6.2954552850854745e-002
      9.4139623170286874e-002 -2.5721676154028327e-002
      2.7833061406239418e-001 3.9431202802825566e-001
      -1.1718544122149392e-001 -2.6594855474288898e-001
      1.5404481556303311e-003 4.0131429332437429e-001
      -3.7550175491461457e-001 5.3271016691416473e-001
      4.2788544032329068e-001 -7.1469420695157115e-001
      -5.5382025039167770e-001 3.1274710213179913e-001
      -6.4903670287969228e-001 4.1344783776571542e-001
      -6.3982129435858670e-001 -4.2467422809737471e-001
      -4.4913350625408889e-002 1.9877199056453240e-001
      9.0213622244413622e-002 -4.0055229391972529e-002
      -3.1892045872660879e-001 1.7090012643933855e-001
      4.0660108038382758e-001 2.7173723179554476e-001
      1.5448464019225783e-001 5.5832686098382427e-002
      5.7603681390788031e-001 -1.5888709318245312e-001
      4.2113369907392631e-002 -2.0160677718513176e-001
      4.5236006760620312e-001 2.4836074771357680e-001
      -8.6996613363037920e-002 -4.0211146748634946e-001
      -1.9622421049343694e-001 3.8903052479137362e-001
      -1.9613881347559264e-001 6.9318776658735023e-002
      5.8786513289193577e-002 -1.3776539379133054e-001
      2.5085119748778029e-001 1.0943240700758841e-001
      4.5994550661438610e-001 -1.3127554725821904e+000
      9.5451998675963068e-001 -1.5929945159054357e-001
      -3.1632664449914560e-001 -1.2947348657041907e-001
      6.8850815057397166e-002 -5.3203677325844156e-001
      2.6478468853059234e-001 -4.3850354255920732e-001
      -4.0368186752560353e-001 -1.5154939154522565e-001
      -1.1702338568683993e-001 1.1563133609293448e-001
      2.1382898263590123e-002 -4.2034538374507213e-001
      5.2828191848075645e-001 4.3345576759037407e-001
      -1.8824698738527944e-002 -1.4396515063931643e-002
      4.3281099811889834e-001 4.8356514644277232e-001
      -2.0123696164056948e-001 1.2158955358486929e-001
      -1.5393335963079990e-001 4.8390026267768083e-001
      1.2745006212583188e-001 -2.6716164771227513e-002
      6.2336868779161198e-002 -3.5976815834604109e-001
      -1.8057620207317265e-001 -8.6614794594445255e-001
      3.3841540737093667e-001 1.8660936207180373e-001
      -1.4934276372677285e-001 8.3410960380671292e-002
      1.7584127099574695e-001 4.7705453628210709e-001
      -2.1608564461945607e+000 6.0410062914541995e-001
      -3.1928749795955758e-001 -1.1914820366514400e-001
      1.2876795228271687e-001 -2.0113355171546166e-001
      -2.3254702066156976e-001 5.6598662799519306e-002
      -3.0267808927485368e-001 -7.7238742785902106e-002
      -2.0617076898518305e-001 -1.8846415051673293e-001
      4.0789113312759750e-001 8.8933149727745651e-003
      -1.9663114593841534e-002 5.4018625835407019e-001
      1.5909680061051570e-001 -5.7785264261607502e-002
      -4.9920323315452270e-001 4.9092552940840811e-001
      -3.4998192018886704e-001 -1.1557945599153614e-001
      2.7430523989100847e-001 -6.4045668028276589e-002
      5.9764323749346071e-001 -1.5398938195628282e-002
      9.6750370225406446e-002 2.9803194901808355e-001
      -2.0781450390227682e-001 -3.2147205366534926e-001
      -8.3709579837565096e-001 2.5684334519163582e-001
      6.3088256747355090e-002 -9.2060536400815074e-002
      -6.4393469391690994e-002 3.4283831588153713e-001
      2.6223151703425274e-001 -3.0617462957031973e+000
      -1.7408310590333848e-001 5.5902649673573244e-002
      2.3407720947098806e-001 3.8136129656948725e-001
      -7.1914119494648460e-002 -5.6647551231047699e-003
      5.1510348685519314e-001 -5.8990220490685336e-002
      -2.5094211606642247e-001 -6.6002783400573209e-002
      -1.5108953743479783e-001 4.3644468953376780e-001
      -1.4667790021993998e-001 4.0567021307656026e-001
      3.2547184291181103e-001 4.3330889777091092e-001
      6.2385080994371393e-002 -5.0109734546718732e-001
      2.2632362403986697e-001 -6.2005403912678847e-001
      -2.8204418882671067e-002 4.5443577426893492e-002
      2.5821692842146110e-002 3.9767627954467732e-001
      -2.0314870036789043e-001 -7.5899064260789989e-002
      4.4902508984590800e-001 -1.5238337327313672e-001
      -3.5305843765415436e-002 -7.7637074774775539e-001
      -1.2247560051874840e-001 -4.0866222982954226e-001
      -1.3334815636888805e-001 3.1974058273637779e-002
      2.4836657557208563e-001 8.1055252539708439e-002
      -2.9226552085582398e-002 -6.6777360149667286e-001
      6.3194886681423423e-002 -6.5695447383754574e-002
      1.9876871865476312e-001 7.3525755286722241e-002
      -4.8432334979367658e-001 6.0951597913651412e-001
      -5.3702092004540081e-001 -7.3106605045383999e-001
      -6.4642636842478243e-002 1.7456080624474898e-001
      7.0352987708184200e-001 -3.3808854978418573e-001
      1.0070699979730863e-001 1.2780395772154171e-001
      7.9682826459405692e-002 3.0550779520658061e-001
      -5.8394707115748923e-001 1.3134862487453916e-001
      -7.4716334295481468e-001 5.1183821955959337e-002
      3.5306595395959558e-003 1.2493384341053795e-001
      2.2571649303993879e-001 -3.1669410666472331e-001
      9.9430372977051783e-003 6.5864509629354751e-001
      -1.1112275661368480e-001 -2.5982311169453565e-001
      -6.0172539322605667e-001 -6.6826582948640467e-002
      -2.6304666229100937e-001 -2.0230827565762904e-001
      1.8643934845578697e-001 2.0686810964006019e-001
      4.6103033240089419e-001 2.0352907306865191e+000
      -4.7373075139012671e-001 -8.1530815275847032e-002
      -2.7154165224980720e-001 -1.1704194527023032e-001
      3.1006344047604929e-002 -5.2585912338150076e-001
      -9.9363002191106831e-003 -5.8538443736879324e-002
      -4.2273522986639417e-001 3.1234658890057183e-002
      6.9962957265045853e-002 3.3763253793460568e-001
      -2.1399039366504646e-001 -1.8556205078923224e-001
      4.6270936519161525e-002 -1.2377031264600709e-001
      -1.0674738297186546e-001 -2.5916172433154233e-001
      1.8486465647418113e-002 1.4352481550307680e-001
      8.9009844891793963e-002 -2.3724972127927263e-002
      -1.0065416904599712e-001 1.3482857357798608e-002
      7.1124886223479386e-002 2.2981205895793377e-001
      2.6296236918577132e-001 -1.1808839424768444e-001
      -4.3800748709258742e-002 -2.5467456282945045e-001
      2.1027246028748720e-001 -6.6428711813779531e-002
      -1.2837508852713253e-001 1.9759878320437396e-001
      2.5292809413845097e-001 3.8153091800674410e-001
      4.2387251627070341e-003 -2.5315165289959435e-001
      4.5817966035957055e-003 -6.8296500300526211e-002
      3.0874916825315905e-002 2.5026568304219482e-002
      -5.5111001819237761e-002 -8.6909627606910483e-002
      3.9888761830674420e-002 -7.6558344644548290e-002
      -3.2955901005236654e-002 -7.3880190813029004e-002
      4.9302924317328391e-002 -9.9009181288812309e-002
      3.4435776112321938e-002 -5.8905819024734483e-002
      -1.5180989624066674e-001 -1.6641850975012581e-001
      -8.8853119376313655e-002 -5.3100967935187655e-002
      1.4057075655243362e-001 -3.3524259328663090e-002
      -9.5644267223884666e-002 -1.7401866980553476e-001
      -1.2346191366215996e-001 7.6899681640819520e-002
      -6.2793829349404015e-002 2.2557932162804377e-002
      -8.2921603762021623e-002 -1.3862867404169263e-001
      8.4500536320542163e-002 3.0335169253344570e-002
      2.6771631875620417e-002 1.9729621135736669e-001
      1.5888429075508190e-001 2.3588363064685219e-001
      1.5951096758092093e-001 1.3397155629696378e+000
      8.2469707579451185e-002 1.6278007554576382e-002
      6.1218746731608452e-002 -4.3026425141838395e-002
      9.5512160978632507e-002 9.5684643442762188e-002
      -2.1664691549966272e-001 -1.9142866964974434e-001
      -6.0250468656679011e-002 -6.1028674864566455e-003
      2.0234499517856039e-001 -1.3104430309300011e-001
      1.2870697464999636e-001 1.0058285574773344e-002
      1.1838450225502990e-001 8.7670464845736429e-002
      1.9630017979066874e-001 -4.2030684799497876e-002
      9.4286963797570886e-002 -1.4584726191821465e-001
      2.6371356211154537e-002 3.0518679787216324e-001
      1.5480078218139187e-001 1.3160098222774858e-001
      -1.8512963253412015e-001 2.7493027363918210e-001
      6.5706880677626214e-002 2.3920443063071811e-001
      2.0066978354886639e-001 -1.7113663118048972e-001
      -1.0926260927622748e-001 1.5345074074238510e-001
      -2.8761496287136573e-001 -2.5733931593467591e-001
      -2.9956776855967726e-001 -2.5246695134913033e-001
      1.4992749973852162e+000 1.0155014616640677e-001
      8.4319022922489523e-002 9.8678715812583945e-002
      -6.8422456907612964e-002 1.2619324377088870e-001
      7.3304734489311962e-002 -1.8425458090262603e-001
      -1.9621308436700693e-001 -4.4499969441419596e-002
      3.3715427273484082e-002 2.0050091879999501e-001
      -1.2456182100237520e-001 1.1779290412392655e-001
      -3.1875026078730918e-002 1.2063886995088551e-001
      3.7629086473246878e-002 2.0164873461897279e-001
      -1.3503458231793199e-002 7.9837267626565844e-002
      -1.9238950708192193e-001 -2.9332086704764827e-002
      3.2292666847481172e-001 1.6553472962329630e-001
      1.0192064724033333e-001 -1.6567254018869051e-001
      2.8398129251420851e-001 6.3066278371879364e-002
      2.4142192619638539e-001 1.5711320938024811e-001
      -1.6925072958758527e-001 -1.3157490413467668e-001
      1.6107987531819648e-001 -2.9842047653967402e-001
      -2.5455246576375962e-001 -3.0531783436454668e-001
      -2.5930996756665103e-001 3.0866159979081802e+000
      9.4625703636922284e-002 5.5094424025056550e-002
      4.2498200361296406e-003 5.7109703724769229e-002
      -2.9844802028993644e-001 -1.6454890029150310e-001
      -8.8853533770841906e-003 -2.3143453440845618e-001
      -1.4419552505630367e-003 1.1787040337745193e-002
      2.3620554672013747e-001 -4.7884216109722801e-002
      9.5548331563613642e-002 -4.7781808269088066e-002
      1.3975427247784844e-001 -3.4399163859898121e-003
      2.5283197635379445e-001 -8.5699446156459025e-002
      -8.8871259800224547e-002 -1.2777776889851386e-001
      -3.9838036899216070e-002 3.6972349669006865e-001
      1.8564369913364615e-001 7.4691131332863064e-002
      -1.2451577930850567e-001 3.3069259610459067e-001
      4.6755537712709357e-002 2.8324360724423880e-001
      1.5988018659925671e-001 -2.0012909708071797e-001
      7.8991875510622367e-002 1.8700467687539413e-001
      -3.3770660937861835e-001 -3.0285987367346895e-001
      -3.5894493878176709e-001 -3.0432775087201414e-001
      3.8408629519815927e+000 1.4571036264688828e-001
      1.0898275612469220e-001 4.5126956384485349e-002
      1.1691947827133185e-001 -3.4076439618441451e-001
      -1.7156248121319881e-001 -1.8397990568144239e-002
      -2.4844804724928610e-001 4.3666155654035711e-003
      4.3388978172522512e-002 2.6153049780425192e-001
      -2.8886395778270350e-002 9.6863484797697283e-002
      -3.7900522644227393e-002 1.5624666280961549e-001
      2.3162367533949395e-002 2.6599075054819465e-001
      -1.1425249117009741e-001 -9.8376847649357807e-002
      -1.4532671258598351e-001 -8.3961443940132358e-002
      4.1802749766625158e-001 2.0868585149238972e-001
      1.3719319299809293e-001 -1.0038675254499559e-001
      3.7524516899392596e-001 7.6055798694067603e-002
      3.1983144342991254e-001 1.6752873637702928e-001
      -2.2045409680008826e-001 1.2942646155368512e-001
      2.2077576117410466e-001 -3.7782340565215067e-001
      -3.3593826610455374e-001 -4.1166404257638234e-001
      -3.4974279791340335e-001 1.9696174406042140e+000
      4.4828165540451291e-002 2.3895289953364051e-002
      9.0462625414438023e-003 5.5766610474073733e-002
      -1.9229760788708194e-001 -9.1444040076044633e-002
      -9.5736718374865321e-003 -1.5277171771051945e-001
      1.9645314130432266e-002 -1.6957159490064769e-002
      1.5252541639926964e-001 -8.3412835842402878e-003
      6.2762314547389758e-002 -2.5485026638035171e-002
      1.0007209272280311e-001 1.0619450628211676e-002
      1.5165182037678857e-001 -4.1458888491304732e-002
      -5.5695412739862823e-002 -4.9614133091042685e-002
      4.6502059432849069e-003 2.3574431840153851e-001
      1.1810056021649173e-001 4.5846043394848462e-002
      -5.7676269261883878e-002 2.1543769588957190e-001
      3.2604231600610357e-002 1.6803532313462136e-001
      8.4027287138950468e-002 -1.3297009222676529e-001
      -3.3227461491663344e-005 1.1536072916223444e-001
      -2.1250788901369738e-001 -1.8530369690276571e-001
      -2.2385124865081787e-001 -1.9581991615665756e-001
      1.5082630382264345e-003 -2.0521534706377477e-003
      -3.5763383531350846e-003 6.1647195166164926e-003
      5.8562583910285269e-003 2.4622992036320286e-003
      4.7657458710711042e-003 -2.6203277324023120e-003
      -5.4730418110927300e-003 -6.6038493113459963e-004
      7.9130567508434602e-003 -2.7113952424751078e-003
      7.7992408097498980e-003 -8.2354976391029108e-003
      5.3016548676854056e-003 3.7686754385707040e-003
      8.6903117356859384e-003 -3.7684158446663831e-003
      -7.7829062705648050e-003 -7.0289078393930820e-003
      -4.4313420888958078e-003 -4.7419859152837279e-003
      7.0039987644118394e-003 -5.1594225505564055e-003
      9.8343760275446308e-004 8.1456470998134776e-003
      7.1648469708208865e-004 6.4058117398684685e-003
      -1.2927363933808427e-003 -3.5406510314373724e-003
      -7.3852085247539355e-003 7.8383632471248216e-003
      7.8903404750858084e-003 -3.4545298117000353e-003
      -5.2208801970195480e-003 -3.9173725984438818e-003
      3.1336895023362688e-003 2.4723291515154133e+000
      3.7539299989687402e-001 5.1956946591665676e-001
      -1.2295768803053581e-001 -4.1757142523693708e-001
      1.6026631058064934e-002 -8.7287269981829796e-001
      -6.1920090325998288e-002 1.6951318184287945e-001
      -4.7678771044146795e-001 -2.4790683317962406e-001
      -1.6609547830108842e-002 -5.5480551280373401e-002
      2.1212767560523021e-002 1.6446697283638192e-001
      -4.0359095255326616e-001 4.9071196985063326e-001
      -1.1146593210798210e-001 -2.9297277763092816e-001
      -6.4647580279818512e-002 4.8831598694737806e-002
      2.4547970534550961e-001 -6.5740263409159547e-002
      -6.2435627428679785e-001 1.9076958448500861e-001
      2.5755272055651290e-001 -3.0355985928915452e-001
      -1.1974467177647898e-001 -1.0647046593272853e-001
      -3.2378914758098359e-001 3.7060260729394626e-002
      -1.7590925325875841e-002 -3.2017227372236090e-001
      -8.4277098900477961e-003 -5.1474369414266885e-001
      -3.4130796682798586e-001 -3.7127709480957491e-002
      9.8095336709456427e-001 2.6461579491150494e-001
      3.1109820136191740e-001 -2.0526756895418749e-001
      -6.5552670472016905e-002 1.4054896344992227e-001
      -6.4440073135961151e-001 -2.3296291546548251e-001
      -3.1572912769689315e-001 -3.1849321172952566e-001
      -1.1871224368528470e-001 2.2029358148662723e-001
      -1.5071765705465400e-002 -3.4887435018940149e-002
      -2.0842631910076995e-001 -1.2860508618072680e-001
      3.8966379495761504e-002 1.2784203950374781e-001
      -2.5313602345803360e-001 -1.2929671580455820e-001
      1.6414082966914312e-001 6.0147399669454517e-002
      -1.3894892411725879e-001 -4.0638199221349525e-001
      -2.4727990787266896e-001 -1.0331332400430993e-001
      -1.6291943153066332e-001 -7.0812620333550361e-002
      -1.7903123941723678e-002 4.6705365501439292e-002
      -1.7638511720184885e-001 -1.7810272080888843e-002
      6.1757815947198043e-002 -3.5132544739489652e-002
      -3.1904271725498007e-001 1.3932740094446142e-001
      1.4525650487298508e-001 -9.0976454952230990e-001
      2.3481838544148975e-001 1.8287861857067997e-001
      -3.6680274307783911e-001 -2.0699151200613503e-001
      3.2586914056368965e-001 -1.8471399868405550e-001
      2.3022577226484411e-001 -4.7141014643030105e-001
      -1.9919355894862845e-001 -3.2753761630405942e-002
      -1.1445456081371624e-001 2.8618001207193217e-001
      -1.7960554932614950e-001 -9.2484174779968481e-002
      3.0857387859088692e-001 1.8671207333462548e-002
      3.0223996362931571e-001 1.9059159046531332e-001
      1.8236474939610964e-002 3.9113266542434866e-001
      -1.8028831461415329e-001 -3.9632876042972894e-002
      1.3432029670997403e-001 3.6161421218817741e-001
      -8.7724431829832764e-002 -1.5158458186208307e-001
      -1.8808782770006216e-001 -2.5210490269413788e-001
      3.6557980183526551e-001 -6.3541997310938070e-002
      -1.2447400778772374e-001 -9.9232110567715248e-002
      -1.6324847695686481e-002 2.2381071895869753e-001
      2.2686940247232090e-001 2.4598491319718099e-001
      -2.0297452850844770e+000 5.6267043964687380e-001
      -3.8816714575271277e-001 1.7308420851210517e-002
      1.9571694150882521e-001 1.2890595158325960e-001
      8.1405382469374385e-002 1.1462330778829062e-002
      -1.4259284521702609e-001 7.0415186238659777e-002
      -4.1838329892113044e-002 -3.8043934194553458e-001
      2.1331566665405535e-001 -1.6086585653317265e-001
      -1.9056169015487370e-001 6.6183258168263748e-001
      -2.1248380804778108e-001 -4.5095363594296514e-002
      9.1982961411818942e-002 3.9775810661711791e-001
      3.1705935069406505e-001 -1.8046509974324992e-001
      6.5496221285112025e-002 2.5517243041250243e-001
      3.9333861369922352e-001 2.5035377401203826e-003
      -5.9117457850842107e-003 5.8510411000916231e-002
      -3.8131624701872391e-001 -1.5418503837884492e-001
      -3.0072271352409730e-001 4.3995645491507987e-002
      2.1723227760025277e-001 5.0595565040138887e-002
      5.7923141103725699e-002 3.9315655718263998e-001
      3.4466946939657084e-001 -1.8682688634414553e+000
      4.2136726532139945e-001 -5.8078507500019827e-001
      -5.0671267050116696e-003 2.6644654075990198e-001
      -5.0985026042312906e-002 2.2699363954719251e-001
      -2.6054036639426126e-001 7.6008900003765714e-002
      3.9721405601999016e-001 -5.8077334880305101e-002
      -3.9523940738467456e-001 3.0852911644577896e-001
      -1.9785745901781021e-001 -6.6133834596842370e-002
      6.5088986906980273e-001 -5.3414412818172163e-001
      -8.7244889456818242e-002 -1.7971367642957883e-001
      4.7153051756173614e-001 -2.8228221624086092e-001
      -1.3125371093069602e-001 1.9347863979064153e-001
      3.6923040616569591e-001 4.8737578590692160e-001
      1.0936049750746388e-002 2.4891972029263673e-002
      -5.3149838226767450e-003 -2.0779251058282650e-001
      -3.5867687067209336e-001 -1.4400919800735465e-001
      9.8990675580560104e-003 3.0484147239867165e-001
      3.6121102571412912e-002 -4.3853630059637862e-002
      3.8904385525967516e-001 2.8107260113228300e-001
      -2.2621738577991106e+000 -1.4152977747864412e-001
      -2.2057953306338340e-001 1.4477447333481858e-001
      2.3192608395506606e-001 1.6010358281874348e-001
      1.3470643922207937e-001 3.0221605661763068e-001
      2.4933528241363664e-001 1.0966005455739573e-001
      -3.4532164353468051e-002 -2.7175695599632183e-001
      2.0080254687365381e-001 -3.4734109505283528e-001
      2.0360961118095361e-001 5.2913558928406423e-001
      1.1923341268423230e-002 -2.1345932891859536e-002
      7.9452611611243909e-002 2.4087867615169598e-001
      -1.4630407057641898e-001 -2.3425950155054588e-002
      2.5689050353996597e-002 4.5332425080932198e-001
      5.6860988256780520e-001 -4.1993087511923752e-002
      -2.1196064002994044e-001 4.7246262850755824e-002
      -1.7537651468652621e-001 -1.4508902958121012e-001
      -9.6972749960857890e-002 -1.5353753303883241e-001
      2.2959827346856136e-002 -4.7081597035059694e-002
      6.2519868646550486e-002 2.0139224963598740e-001
      2.7672708885406955e-001 7.9958924727440239e-001
      -6.7947748418641896e-001 5.3865318802370166e-002
      1.2507773551361276e-002 1.0752712437038331e-001
      2.1513511377558125e-001 -4.2899904599333777e-001
      2.2674113978448862e-001 -2.5872198812315089e-001
      -4.1947124259551111e-001 1.5885219662818229e-001
      2.6886651245918203e-001 3.5373468587605435e-002
      -3.0012309400380965e-001 -1.0746062134496981e-001
      5.6060711685860194e-002 -2.0901036674283655e-001
      1.8988294342915030e-001 -2.2828037968629705e-001
      -5.8887136129282112e-002 -6.9072370246399772e-001
      7.8428543633518630e-002 -3.7607686747613660e-002
      3.3701019055914089e-001 4.8271296720466275e-002
      -1.0805942266887272e-001 3.1482940048778850e-002
      2.5401242365432147e-001 3.6157258041415778e-002
      1.4240169815138242e-002 -1.1386739090709620e-001
      -1.7778507755409689e-001 1.0295682423119129e-001
      -1.7500904108432708e-001 1.1192024912117686e-001
      5.0508979373617639e-002 5.4873231198727601e-001
      3.5879641001534353e+000 -7.6522325896575127e-001
      -6.4133242001614618e-002 -2.3601492310584479e-001
      3.4943907260949675e-002 1.5629079903484555e-001
      -4.9133848500184002e-001 -3.5991592334717820e-001
      6.2835807847980679e-002 -5.7735841655147258e-001
      6.7265280447202896e-002 1.8386011727990087e-001
      1.3278145169980238e-001 -3.7054036974679738e-001
      -2.7675527881595391e-001 -1.2182858799297000e-001
      -7.9915639587198428e-001 -1.5104667646402165e-001
      -3.8880704638516178e-001 -1.6324493772570273e-001
      -1.0373080915144767e-001 2.9676868681107874e-002
      -5.8538877752374673e-002 -9.0337833753680929e-002
      -1.9846453604038899e-001 -1.0494262284637516e-001
      3.0505917932610310e-001 2.0185557722990966e-001
      -3.6912557512146851e-002 -2.5408935347488337e-002
      1.8855843717294909e-001 2.0742078757998511e-001
      1.5085330244100811e-001 -4.1623794978789298e-002
      2.2810016677158709e-001 2.4533859078901282e-001
      6.5132996473380766e-001 3.2395684345422587e-001
      -2.2618562292064462e-001 1.2535824620575299e-002
      -5.0149364071163868e-002 2.0046738287877869e-002
      3.1701928291018665e-002 -4.3930899855214874e-002
      -1.4898502497816674e-001 4.4873366943111538e-002
      -7.3551036731341723e-002 -2.8072050212915516e-002
      -9.9669597830673012e-003 6.6128614252422887e-003
      -7.2649207595243126e-002 6.5223555430514071e-002
      -4.4611975331556447e-002 -1.3624760930073079e-001
      -1.0960251600107040e-001 -7.9226552850270318e-002
      -5.9181373730640162e-002 1.0342052153971193e-001
      -2.7149619600803743e-002 -3.1225848209068638e-002
      -1.0025501876307219e-001 -8.4245822087842565e-002
      4.1342147287925193e-002 2.6858140311447082e-002
      4.2121840102022405e-002 -1.8083611397779699e-003
      -8.2115904571646609e-002 6.5178220072409893e-002
      1.3332840960607875e-002 5.8200888461534650e-002
      1.2100431324485578e-001 6.2013446283824172e-002
      1.5063445615131418e-001 1.0955946314504673e-001
      1.3818205844404470e+000 9.5027174672607531e-002
      4.1498104453823390e-002 8.7826694332218402e-002
      -3.8187164254676810e-002 1.0687425420954899e-001
      1.0095115457216590e-001 -2.2135075841913063e-001
      -1.9991814707067873e-001 -6.4099630881069500e-002
      4.5993023803898156e-003 2.0005686061597291e-001
      -1.2898497329524922e-001 1.3271557411833260e-001
      8.6276033308804075e-003 1.1781870546423796e-001
      7.6603397664843295e-002 2.0626233627546200e-001
      -3.3223218528478024e-002 9.8468464156395707e-002
      -1.5550407792225079e-001 4.3275675208340738e-003
