<?xml version="1.0"?>
<opencv_storage>
<my_nn type_id="opencv-ml-ann-mlp">
  <layer_sizes type_id="opencv-matrix">
    <rows>1</rows>
    <cols>3</cols>
    <dt>i</dt>
    <data>
      225 37 25</data></layer_sizes>
  <activation_function>SIGMOID_SYM</activation_function>
  <f_param1>5.9999999999999998e-001</f_param1>
  <f_param2>1.</f_param2>
  <min_val>-9.4999999999999996e-001</min_val>
  <max_val>9.4999999999999996e-001</max_val>
  <min_val1>-9.7999999999999998e-001</min_val1>
  <max_val1>9.7999999999999998e-001</max_val1>
  <training_params>
    <train_method>BACKPROP</train_method>
    <dw_scale>1.0000000000000001e-001</dw_scale>
    <moment_scale>1.0000000000000001e-001</moment_scale>
    <term_criteria><epsilon>9.9999999999999995e-007</epsilon>
      <iterations>1000</iterations></term_criteria></training_params>
  <input_scale>
    3.2099292413037182e-002 -8.8259720367687677e-001
    3.2574134333497436e-002 -1.6041087586539053e+000
    2.3756438306026757e-002 -1.3495879903952404e+000
    1.9451764591955592e-002 -1.1915587934018446e+000
    1.8741487466539086e-002 -1.1177326426507792e+000
    2.1378154525848857e-002 -1.0230947243986146e+000
    2.9146543366955855e-002 -8.5624821279068486e-001
    4.1195520288901465e-002 -4.4898073500700197e-001
    6.9960033403177302e-002 -2.0633162453188933e-001
    5.2365098045932208e-002 -2.0823541065969850e-001
    4.4067299042973039e-002 -2.2556792140208304e-001
    5.6130610965210340e-002 -1.8887324734708183e-001
    1.1458833329977994e-001 -1.5364456670912777e-001
    7.3317115509899322e-001 -8.1748423502511269e-002 1. 0.
    1.9928467912672984e-002 -1.3341399092573967e+000
    2.0601632723906513e-002 -2.3067613029183911e+000
    1.6961265248976516e-002 -1.5575217648460022e+000
    1.8952506874370403e-002 -1.3742473507784350e+000
    1.7963655653027152e-002 -1.2333852255113316e+000
    1.4892148810222820e-002 -1.1512991965632953e+000
    1.5171433120271215e-002 -1.0839514649843445e+000
    2.2823487211795189e-002 -6.1271133399885325e-001
    4.6463153754440850e-002 -2.1963845878411020e-001
    4.5359030189178327e-002 -2.2320530203279970e-001
    3.3300731986338344e-002 -2.3097195502111587e-001
    3.5691129902809669e-002 -1.9580181955645018e-001
    4.8298935240574437e-002 -1.6969039993791676e-001
    1.9950881311753238e-001 -9.4040446235548719e-002 1. 0.
    1.8384110385091135e-002 -1.7604895806963103e+000
    1.8359521040029001e-002 -2.5042964698387435e+000
    1.8489362077042552e-002 -1.3350055113524595e+000
    2.5776350337597974e-002 -9.8256697408444094e-001
    3.0885952081795703e-002 -9.8011241206132116e-001
    1.8502835374515695e-002 -1.1306267990098411e+000
    1.2803743062714614e-002 -1.2107459055408181e+000
    1.8109013830199357e-002 -7.3159386502865076e-001
    7.0087350948543875e-002 -2.3142310043197600e-001
    6.2768165238330231e-002 -1.8222528775684022e-001
    4.1539180128427541e-002 -1.8454693471573591e-001
    4.1456664964174578e-002 -1.8745228351313042e-001
    3.5465599009597948e-002 -1.7735125626290640e-001
    1.1207406533353699e-001 -9.7789154951059498e-002 1. 0.
    1.7645828507817422e-002 -1.8446834929566029e+000
    1.8214601434341542e-002 -2.3237594365085101e+000
    1.7575238198937398e-002 -8.8122106002280343e-001
    2.5289345295126182e-002 -5.7996861683927659e-001
    2.8771093905166072e-002 -5.3269296666961063e-001
    1.9800891057677111e-002 -8.0129972338785160e-001
    1.2634391302256699e-002 -1.1345263532085470e+000
    1.5743698948043464e-002 -7.5563559354170828e-001
    8.0221283577329633e-002 -1.8182204784568787e-001
    5.2483103065424308e-002 -1.3361734481785442e-001
    4.9589717678501663e-002 -1.4460595854741040e-001
    5.2015276139182672e-002 -1.6944197955265014e-001
    3.4151111541772444e-002 -1.8037222401096167e-001
    9.4451649551472699e-002 -1.0050200663905065e-001 1. 0.
    1.5181948368788428e-002 -1.4723967337759694e+000
    1.5788221361065197e-002 -1.8872930539845945e+000
    1.7429130918820594e-002 -9.6067129062890610e-001
    2.5509037127690117e-002 -6.9049516940392852e-001
    2.4917792592247724e-002 -6.5553297293623813e-001
    1.9074402606727724e-002 -7.9284710249210644e-001
    1.2198243597284405e-002 -1.0068244651347571e+000
    1.4774187762403117e-002 -7.4399695816105094e-001
    6.8260776845464527e-002 -1.8609792025862323e-001
    4.5695440073751668e-002 -1.3647691448349836e-001
    6.2218676260892967e-002 -1.3933229141677450e-001
    5.4465282354026430e-002 -1.6394359585706950e-001
    3.4019828597014738e-002 -1.8096555522386654e-001
    9.1022675729916486e-002 -1.0113188414067241e-001 1. 0.
    1.4789344442586437e-002 -1.3801846916086586e+000
    1.7703772622684216e-002 -1.9911673815269260e+000
    1.7287538768445822e-002 -1.0030022875585081e+000
    1.9694062503392635e-002 -7.2146834176999997e-001
    1.8127888905192621e-002 -6.8957316274426639e-001
    1.7667958280561915e-002 -8.2314376422081870e-001
    1.3442205578825228e-002 -1.0018733847117904e+000
    1.5552629048177460e-002 -7.1978682508757985e-001
    6.0420295454371269e-002 -1.9587060362864389e-001
    4.2889969982566035e-002 -1.3789678586873988e-001
    8.6133377451981602e-002 -1.3693964163332098e-001
    5.4559137668231561e-002 -1.6142300176304716e-001
    3.4012841946054244e-002 -1.8096557096615129e-001
    9.0992125287543343e-002 -1.0111783402636267e-001 1. 0.
    1.5263522085484814e-002 -1.4273195139855315e+000
    1.7171478239022406e-002 -1.8644794075249855e+000
    1.7800278114086403e-002 -8.4476601903346693e-001
    2.4530592265757191e-002 -6.1647191074863528e-001
    2.1808869424669263e-002 -5.7250427843438734e-001
    1.7384193849465310e-002 -6.7301990530461675e-001
    1.3464551849997486e-002 -9.4505611172428783e-001
    1.5748735780247249e-002 -6.7054357087956973e-001
    5.2116489929738156e-002 -1.9895190875888893e-001
    4.3562236468360535e-002 -1.3767723882523392e-001
    1.2883015975027037e-001 -1.3702639422498150e-001
    5.4567181621296444e-002 -1.5976469092094489e-001
    3.4004740510480802e-002 -1.8096707335070478e-001
    9.0918599669059491e-002 -1.0113551270576622e-001 1. 0.
    1.7108871697636602e-002 -1.6819846224073773e+000
    1.6824651396194400e-002 -1.9495849875406550e+000
    1.9626091610015623e-002 -8.4200824512090644e-001
    2.7832900827494064e-002 -4.3615019670123839e-001
    2.9099061839693234e-002 -4.3089386914391398e-001
    2.0283386041050865e-002 -7.3725718107890492e-001
    1.3366645679050621e-002 -1.0969387163550930e+000
    1.6236581109320507e-002 -7.3265531146465146e-001
    4.4040906688060252e-002 -1.9326390009679612e-001
    4.8205058616944831e-002 -1.3574139811680136e-001
    2.0567509236274156e-001 -1.4258760775737941e-001
    5.4541553862224638e-002 -1.5952271700237020e-001
    3.3998699734464698e-002 -1.8097209060669261e-001
    9.0870796799147710e-002 -1.0114193845746852e-001 1. 0.
    1.7306470662383201e-002 -1.6194452357251059e+000
    1.8044378238755435e-002 -2.2016192845397100e+000
    1.8264571594091335e-002 -1.0442631045974631e+000
    2.2425201168393510e-002 -6.8948423496141586e-001
    2.3207853534967644e-002 -7.2641494859952938e-001
    1.7667597109706709e-002 -9.7824952155693734e-001
    1.2827496384973078e-002 -1.1599629585184543e+000
    1.7095289712024772e-002 -7.2823542178163070e-001
    3.7840897751414512e-002 -1.8079907727577890e-001
    5.8346029917737921e-002 -1.3210133052647438e-001
    3.3178202478168151e-001 -1.5065834400340020e-001
    5.4500107823541345e-002 -1.5960405428428864e-001
    3.3988632452260206e-002 -1.8097051918284765e-001
    9.0797238793418070e-002 -1.0115931982755980e-001 1. 0.
    1.7825990422201024e-002 -1.2886312604026262e+000
    1.9336512486991662e-002 -2.1306773748401224e+000
    1.5975579818194727e-002 -1.2311045855525311e+000
    1.5913290055036222e-002 -9.7530307264725058e-001
    1.5943751784194281e-002 -9.3423274556025682e-001
    1.6148063094070325e-002 -1.0164947998301908e+000
    1.5208363795876645e-002 -1.0727814903630564e+000
    1.9756659147236164e-002 -6.2733655834836755e-001
    3.7329266587381046e-002 -1.7005464098846937e-001
    7.8669314918370911e-002 -1.2668958760138174e-001
    4.5150404433618085e-001 -1.4451288170270415e-001
    5.9880597179768048e-002 -1.5800151450866212e-001
    3.8085642348778155e-002 -1.8109414854472586e-001
    1.0252459768860744e-001 -1.0039520617561712e-001 1. 0.
    1.9367826770105612e-002 -8.6932071258919819e-001
    1.8646115056328263e-002 -1.2865493265297525e+000
    2.0561143870002251e-002 -1.0805299159300505e+000
    2.3184644790731047e-002 -1.0612728068243380e+000
    2.5380585329218757e-002 -9.8211323549943508e-001
    2.9882137045126357e-002 -9.2343251138052485e-001
    2.0757726904182119e-002 -6.9723543689939405e-001
    2.4816555603240757e-002 -4.5924191790133595e-001
    5.5173839350125320e-002 -1.5418277537676034e-001
    1.3985366196746735e-001 -1.1927615551707260e-001
    6.9494075357691354e-001 -1.2747164238107356e-001
    1.2479049345672730e-001 -1.5534697633200814e-001
    8.2861296568917331e-002 -1.7959923353394106e-001
    2.2359902564176654e-001 -9.8111771854618599e-002 1. 0.
    2.0463540611097852e-002 -5.6369582999048884e-001
    1.8174575178815603e-002 -6.4704110115730473e-001
    2.1222585156643027e-002 -4.3849647035392708e-001
    2.5228641759238852e-002 -3.9447468954503789e-001
    4.6163229334829033e-002 -3.1263628227044138e-001
    5.1605242844273536e-002 -2.5749594609419652e-001
    2.4549701298992779e-002 -3.1946815057250727e-001
    2.9171888587289412e-002 -2.8175044209022393e-001
    1.4156044552245556e-001 -9.8603318634574416e-002
    4.5074074317396257e-001 -8.1495976083267821e-002
    1.8301863392113094e+000 -4.2413588097157583e-002
    2.5572234438827497e+001 -2.7953907344586248e-002 1. 0. 1. 0. 1. 0.
    3.1583113976079692e-002 -3.7196815695046193e-001
    3.2180133198128819e-002 -4.8243465099739602e-001
    3.7528207351423065e-002 -4.3102467096625696e-001
    3.5135792092132148e-002 -3.8309074932809850e-001
    6.2979740459904968e-002 -3.0576980681965665e-001
    9.2231886497347898e-002 -2.5649094802060896e-001
    4.3844367382732514e-002 -2.9054801480935838e-001
    4.8083116375707675e-002 -2.4346413975981410e-001
    3.5209321308033953e-001 -3.5640393016221517e-002 1. 0. 1. 0. 1. 0.
    1. 0. 1. 0. 1. 0. 4.9619290964022622e-002 -1.8122865650305245e-001
    4.8611576262045049e-002 -2.0079110413616463e-001
    5.0497358398117219e-002 -1.6729043983530176e-001
    5.7114503636619185e-002 -1.5295049301376221e-001
    7.4770969538641346e-002 -1.1503351828671167e-001
    7.3248311907739352e-002 -1.1341157519252516e-001
    6.8023494326363246e-002 -1.1653522115028037e-001
    1.0534860536213674e-001 -1.1048475293444905e-001
    8.6604031121503133e-001 -3.2755787896851865e-002 1. 0. 1. 0. 1. 0.
    1. 0. 1. 0. 1. 0. 1.2118275581094247e-001 -1.5008751894818301e-001
    1.1218283008391385e-001 -1.8507469082055397e-001
    9.0152963708881664e-002 -1.6211371370912805e-001
    9.6192213167763954e-002 -1.4216426782118155e-001
    1.0807015293258944e-001 -1.1364613808608552e-001
    1.2208632160723140e-001 -1.1519994841644310e-001
    1.6999928391135791e-001 -1.1856093477858150e-001
    3.5953189095458365e-001 -1.0414948743218699e-001
    9.4737160938031071e+000 -2.6925734416143505e-002 1. 0. 1. 0. 1. 0.
    1. 0. 1. 0. 1. 0.</input_scale>
  <output_scale>
    5.2631578947368418e-001 4.9999999999999994e-001
    5.2631578947368418e-001 4.9999999999999994e-001
    5.2631578947368418e-001 4.9999999999999994e-001
    5.2631578947368418e-001 4.9999999999999994e-001
    5.2631578947368418e-001 4.9999999999999994e-001
    5.2631578947368418e-001 4.9999999999999994e-001
    5.2631578947368418e-001 4.9999999999999994e-001
    5.2631578947368418e-001 4.9999999999999994e-001
    5.2631578947368418e-001 4.9999999999999994e-001
    5.2631578947368418e-001 4.9999999999999994e-001
    5.2631578947368418e-001 4.9999999999999994e-001
    5.2631578947368418e-001 4.9999999999999994e-001
    5.2631578947368418e-001 4.9999999999999994e-001
    5.2631578947368418e-001 4.9999999999999994e-001
    5.2631578947368418e-001 4.9999999999999994e-001
    5.2631578947368418e-001 4.9999999999999994e-001
    5.2631578947368418e-001 4.9999999999999994e-001
    5.2631578947368418e-001 4.9999999999999994e-001
    5.2631578947368418e-001 4.9999999999999994e-001
    5.2631578947368418e-001 4.9999999999999994e-001
    5.2631578947368418e-001 4.9999999999999994e-001
    5.2631578947368418e-001 4.9999999999999994e-001
    5.2631578947368418e-001 4.9999999999999994e-001
    5.2631578947368418e-001 4.9999999999999994e-001
    5.2631578947368418e-001 4.9999999999999994e-001</output_scale>
  <inv_output_scale>
    1.8999999999999999e+000 -9.4999999999999996e-001
    1.8999999999999999e+000 -9.4999999999999996e-001
    1.8999999999999999e+000 -9.4999999999999996e-001
    1.8999999999999999e+000 -9.4999999999999996e-001
    1.8999999999999999e+000 -9.4999999999999996e-001
    1.8999999999999999e+000 -9.4999999999999996e-001
    1.8999999999999999e+000 -9.4999999999999996e-001
    1.8999999999999999e+000 -9.4999999999999996e-001
    1.8999999999999999e+000 -9.4999999999999996e-001
    1.8999999999999999e+000 -9.4999999999999996e-001
    1.8999999999999999e+000 -9.4999999999999996e-001
    1.8999999999999999e+000 -9.4999999999999996e-001
    1.8999999999999999e+000 -9.4999999999999996e-001
    1.8999999999999999e+000 -9.4999999999999996e-001
    1.8999999999999999e+000 -9.4999999999999996e-001
    1.8999999999999999e+000 -9.4999999999999996e-001
    1.8999999999999999e+000 -9.4999999999999996e-001
    1.8999999999999999e+000 -9.4999999999999996e-001
    1.8999999999999999e+000 -9.4999999999999996e-001
    1.8999999999999999e+000 -9.4999999999999996e-001
    1.8999999999999999e+000 -9.4999999999999996e-001
    1.8999999999999999e+000 -9.4999999999999996e-001
    1.8999999999999999e+000 -9.4999999999999996e-001
    1.8999999999999999e+000 -9.4999999999999996e-001
    1.8999999999999999e+000 -9.4999999999999996e-001</inv_output_scale>
  <weights>
    <_>
      7.8672216079076218e-001 -9.2009226766881802e-001
      5.5867525391353190e-001 3.7562288266224868e-002
      1.8709038393802035e-001 4.1182984660538047e-002
      -2.1073247258631700e-001 1.1905191642485484e+000
      3.8145757768159683e-001 2.7542713138243208e-001
      8.5545088064360641e-001 5.0004698734190600e-001
      -8.6437845065291310e-003 8.3573378181406854e-001
      1.2294580507816541e-001 1.6720753442254024e+000
      -1.4814227029837718e-001 -1.7007146384394653e-001
      4.1082051990503310e-001 6.5276136041160548e-001
      -7.6165349687747697e-001 -2.0174535443839312e-001
      -3.2885880904312020e-002 2.1626726646569075e-001
      1.3256734646334695e-001 -4.8484038513715622e-001
      -4.1529687236067425e-001 -4.7719956302278876e-001
      3.0800390741287859e-001 2.3500207682407270e-001
      -1.3959970451982078e+000 8.0919070753474487e-002
      4.1053858772285023e-001 -6.1387779076379689e-003
      -3.8429024311805565e-001 -7.3538038595604671e-001
      -7.0337306052764602e-004 -6.0219751801448063e-001
      9.1772003536336910e-002 -1.3055069869251473e-001
      1.5306787130861207e-001 2.9034632897336976e-001
      4.5470421395891823e-002 4.0013006786943486e-002
      2.7061679033207980e-001 7.4562751029348687e-002
      -5.0101026768792203e-002 4.0597183897658107e-001
      -5.3283739817830932e-002 2.0023983731305306e-001
      7.5418221825672038e-001 -1.7972984974378114e-001
      5.2061024933613709e-001 -2.7771224418664045e-003
      1.2524270751317443e-001 -2.7707745871836181e-001
      4.7039839060529026e-001 -1.1128018170225751e+000
      -1.7309484369531675e-001 5.3740047301163607e-002
      3.3524303851295775e-002 -3.4532919301014997e-001
      8.3303602421861578e-002 -2.3632939475324521e-001
      -2.9278097294840177e-001 2.8364610296585285e-001
      -2.2418498711460427e-002 -7.7662765115799892e-001
      8.5288757513771396e-001 6.3695283317689255e-001
      -4.3632885995024170e-002 -6.5372615235620235e-001
      -7.9398461613672189e-001 1.7278028970651269e-002
      1.8665536881815545e+000 5.6342958349212824e-001
      -1.2213889580754345e+000 1.5584062588599823e-002
      4.4066488098849205e-001 2.2021176166019799e-002
      8.0488570181734886e-002 -3.7166242724450160e-001
      1.9572303612742645e-001 5.1306087247741161e-001
      3.4795836342152386e-002 1.2037382033757895e-002
      3.1160252203012812e-001 -3.0281083055831254e-001
      3.3858778058845235e-001 -4.1870502344105182e-001
      -7.7704975327192594e-001 4.4181153163894038e-001
      1.1904737794459119e-001 -1.0143287115498916e+000
      1.5166043903497767e-001 1.8660881198568943e-001
      -2.7265439038092785e-002 1.9868966647334926e-001
      1.3197800945350516e-001 -1.3183378126227738e-001
      -7.6805672587770002e-001 2.0259812099466281e-002
      3.1138336024852342e-001 -1.4747043139788468e-001
      1.9654400004747297e-001 4.1570321929449411e-001
      -2.0078579594902560e-001 2.8071628951894750e-001
      -1.0191778418954525e+000 7.8021731394919427e-002
      -4.8145512312861111e-001 2.7165408968763254e+000
      -2.4512184495431694e-001 -8.0787476602287289e-001
      2.5427578468073314e-001 -1.5052553001031896e-001
      -6.5368735969267089e-003 -5.4128549427394756e-001
      -2.3359475186737191e-001 5.5699065734567976e-001
      7.3500671309212573e-001 2.2837342060105976e-002
      1.8418353693163469e-001 1.3013875167203881e-001
      -3.4122506218157106e-001 1.5646606457373985e-001
      1.0808635461225546e-002 -8.0561619407480312e-001
      3.6656473797512390e-001 1.0041263704150011e-001
      -3.3651925155066076e-001 4.9174802749928365e-001
      1.8968383436331834e-001 -2.7433290847703785e-002
      2.2291847715357538e-001 7.6383678505307895e-001
      -7.5752950839605793e-001 -6.8972606515532431e-001
      7.2378302550629769e-002 1.9390897997499421e-001
      8.3102796127803996e-002 3.7011203489021693e-001
      3.4170592042544384e-001 -6.0733464984766017e-001
      3.5992395188629911e-001 -6.8820174073694973e-001
      2.7717502353998758e-001 -4.6887129688639478e-001
      1.9820126264652302e+000 -3.0439679026432515e-001
      -5.6591635007988161e-001 6.1608851301216808e-002
      -2.5051327749745711e-001 -6.9925131416426339e-002
      -4.8499956671527450e-001 -7.3938658545825139e-002
      4.2178675759023856e-002 4.8144478640858734e-001
      -2.0310904831196849e-002 3.5986703454555635e-001
      -8.7969616080737598e-002 4.6264747832475278e-002
      -3.8181413777393432e-002 -1.1137268599661784e-001
      -5.0088406236745664e-001 3.1723153303172325e-001
      5.3467799658459693e-002 -2.5517169580789806e-001
      4.2622959645336794e-001 1.0873090677731273e-001
      -4.7269539154341976e-002 1.4612559353704402e-001
      8.6130606955629758e-003 -2.2355466554439554e-001
      -5.5311117000813904e-002 6.1664265907660686e-002
      -3.0132435403557856e-001 2.2771002529915357e-001
      4.3997279870181288e-001 -3.4394609923439196e-001
      -2.0112143466745389e-001 2.7683780260563801e-001
      1.7913182434936534e-001 4.0978275155532851e-001
      1.4285889200860646e-001 1.4368065538969808e+000
      -7.7349051101886890e-002 -1.1133767074674736e+000
      1.2662940855986307e-001 -1.5682357452154444e-001
      -2.7955071975839449e-002 -1.5555600005634257e-001
      -9.5745134578097579e-002 -3.8885514663605203e-001
      4.1571049636180696e-001 1.9657674550497972e-001
      4.2011117020498490e-001 -2.0258706202205559e-001
      1.0955962655394215e-001 -1.3314077591153600e-001
      -5.1758819722036009e-001 1.7500166172772760e-001
      3.9987230760781223e-001 -2.4176497738779748e-001
      -4.0736956831362248e-001 3.3996446208295777e-001
      7.9135557648158772e-002 9.3154563729603512e-002
      2.1861150274576055e-001 -4.7885201760622315e-001
      1.7249281953649498e-001 -3.9361740757114549e-001
      -8.2636040530214769e-003 -9.9538923772010207e-002
      1.2788223257690789e-001 1.4196314985311398e-001
      -3.0445269250466583e-001 1.2209943485824262e-001
      9.8447228884435523e-002 6.9457936256881500e-002
      2.6112340853439880e-001 4.1979319110095718e-002
      7.6419031263179193e-001 3.0161915488152197e-001
      -4.0681425589048648e-001 -5.0147194398566543e-004
      -3.8413486572233035e-001 -3.5748407547015665e-001
      4.5794337492695347e-001 -8.5942113824212674e-003
      -3.4373089983443361e-001 3.9887374825577143e-001
      -2.3531374132973168e-001 2.3018456635654386e-001
      -2.8090779504590457e-001 2.1664280929011993e-002
      -4.5482492941899355e-001 -3.1948390651411876e-002
      5.6592046974816035e-001 1.7799995714899602e-001
      3.7966026481332626e-001 -3.3137129555663769e-001
      2.1294592470464169e-002 4.9621589516150630e-002
      9.3268620254987986e-002 4.3825793237712136e-002
      -6.3978079519998199e-001 -1.3661528974250017e-001
      -7.0107042105488571e-001 2.5689380035515463e-001
      -1.2288933509128434e-001 2.2617449052835290e-002
      2.8261679428951242e-001 -8.3211898299516668e-002
      -3.9682559516929568e-002 4.1650097201403258e-001
      -5.6382888606666140e-002 -1.4424092767560273e-001
      -9.3302973097009273e-002 4.2363655190365324e-001
      5.3590130035535144e-001 2.9246662167986348e-001
      -8.6799465325932260e-002 8.0772011002784722e-002
      -1.7379389322102559e-001 1.5180764254376483e-001
      -8.4134180474116693e-002 3.8577947876882202e-001
      4.3674336707526115e-002 -4.1064791458130373e-001
      -1.4818763977796276e-001 -5.5620577772968444e-002
      -3.5034390203700701e-002 2.4628194256600594e-002
      9.0840739226027409e-002 4.5572096234604892e-001
      1.8301659726492248e-001 3.5360889356331981e-001
      6.8319524772602738e-002 -5.8554306018573232e-001
      8.4285446109579845e-002 -1.9653477030269609e-001
      -3.2245587628840339e-001 -1.5356409890166853e-001
      -2.1498267029892590e-001 -6.8477331653565066e-001
      3.4598379269145496e-001 -1.1883582480153429e-001
      -1.6551292681904628e-001 5.9161921507419002e-001
      -1.8520159223658034e-001 -2.1153086968794413e-001
      5.1214679759300064e-001 -6.6338655718480577e-002
      -4.5866553454605585e-001 7.5781158858109848e-002
      3.7852181018513575e+000 2.4863353925453513e-001
      2.0466066305718184e-001 -2.1154216054609953e-003
      1.5202244419831382e-001 -1.9742188715899492e-001
      -2.5167272187815934e-002 6.5531392599379942e-002
      -8.1894663209449339e-002 3.5617724037719629e-002
      1.5457867671868288e-003 2.0216384486145128e-001
      -2.7401117057015922e-002 3.2160858274161104e-002
      5.2557026542508815e-002 2.7725131418861892e-001
      2.5102504266403347e-001 5.1201819986413009e-002
      1.3927859036557461e-001 -7.5879469962047072e-002
      -5.6743253917666187e-002 -1.4987714610521455e-001
      2.4762745180295487e-001 4.2882980706142652e-002
      2.0436134085481557e-002 -1.8622261419310432e-001
      1.6487085714433630e-001 2.1863618672960758e-001
      2.6382314876223201e-001 6.6139003189279469e-002
      -1.3452053795822033e-001 -6.9754487136622495e-002
      -7.1100711702093047e-002 -3.0756595974692569e-001
      -3.0514784078288554e-001 -3.9258268065459334e-001
      -2.9998199256940511e-001 4.4727251277350843e+000
      1.9648612457930240e-001 1.2933918567916600e-001
      3.2075486791407856e-002 1.8847313855623329e-001
      -3.7141541457730864e-001 -1.3701229453158492e-001
      -1.8785960274653410e-001 -3.6985904809419201e-001
      5.7383450858969232e-002 -1.3307401119164022e-002
      3.7071624526792324e-001 -7.8875037149620630e-002
      1.9454131429343891e-001 -7.6030411872145542e-002
      4.0452749424495349e-001 1.3623738118822507e-001
      2.8812183736309593e-001 -1.5555353018015372e-001
      -9.5680737233785326e-002 -1.9741365956324286e-001
      -1.3447607812315795e-001 4.7025358298099701e-001
      2.6550476306281379e-001 -4.1828638329045979e-002
      -6.2655854878268524e-002 4.2838477100685557e-001
      1.3710585524678556e-001 3.4438103026692357e-001
      2.6299201680965278e-001 -2.6295091824608197e-001
      1.2123279639513851e-001 2.6320052854357523e-001
      -4.3949842581060267e-001 -3.4426160120187255e-001
      -4.3835424455694361e-001 -3.9053621521881937e-001
      4.5226949712120437e+000 2.6877952956003037e-001
      1.3155680405881942e-001 7.6274623571197228e-002
      1.9211793644374381e-001 -2.9133425186124762e-001
      -1.3134777136834550e-001 -2.0881501240461606e-001
      -3.8628297708109066e-001 4.4229395668351830e-002
      -3.7679833684551141e-002 3.9045577896907663e-001
      -1.1795912828962125e-001 2.2367503590378984e-001
      -8.1427383321456062e-002 4.3069990970726196e-001
      1.9819776372216630e-001 3.1268934154614442e-001
      -1.5497311635751587e-001 -7.2078974744139893e-002
      -1.7793493587153661e-001 -1.4847991869204222e-001
      5.1853316040042718e-001 2.7224134912891917e-001
      -2.7762094821053948e-002 -6.6176941917475043e-002
      4.5903046926266533e-001 1.6011714744188149e-001
      3.7626945697714997e-001 2.8582075763293263e-001
      -2.8604526107860961e-001 5.0795543581380651e-002
      2.8238629288226275e-001 -4.8358351645728848e-001
      -3.7741174667244265e-001 -4.6021833085970287e-001
      -4.2911369145521910e-001 4.0737315822628108e+000
      1.4532962149951897e-001 1.2646156666153935e-001
      1.2798619773000944e-001 1.9258685955603619e-001
      -3.4348334330075425e-001 -1.3374825919728975e-001
      -1.3201422735861373e-001 -3.3364915360613034e-001
      5.1567823471847289e-002 -3.0026238438887094e-002
      3.2791299044815414e-001 -3.4221832407798920e-002
      1.4135525513995204e-001 -4.4093554276023281e-002
      3.6259853121641838e-001 2.3581093135011236e-002
      2.5934164341957339e-001 -1.3985980770637074e-001
      -9.3892329970194283e-002 -1.7854157769324688e-001
      -1.3261762894550899e-001 4.2329284276011020e-001
      2.2757335550887484e-001 -5.8107249154168587e-002
      -8.3899330932998492e-002 3.9958472109358878e-001
      1.2309659034995307e-001 3.2018653693455523e-001
      2.1558071232065701e-001 -2.2716632156768229e-001
      1.0797112487715191e-001 2.3751534028027413e-001
      -3.9492293067712531e-001 -3.1988500743446097e-001
      -3.8646483253784913e-001 -3.6774434224327968e-001
      3.4753253118581338e+000 1.2114055397213651e-001
      1.1756583270465989e-001 1.1179829776893456e-001
      1.5565691061615711e-001 -3.2253902219441594e-001
      -1.1964743542561949e-001 -1.4141666152424054e-001
      -2.6817048086576434e-001 4.4128196740986801e-002
      -3.9993675674199931e-002 2.7325989730758088e-001
      -2.6776733635870544e-002 1.1430112923969131e-001
      -4.7464515016808990e-002 2.9835794744207600e-001
      3.0178004088315384e-002 2.1907530685741333e-001
      -1.0115220527409333e-001 -8.8785386880217518e-002
      -1.5934505132322566e-001 -1.1460306698055579e-001
      3.5280656674232508e-001 1.9057411239245978e-001
      7.4292450487514596e-003 -1.1646563771209274e-001
      3.2056073275870778e-001 9.5961183155042720e-002
      2.6681540182980934e-001 1.7603718839082294e-001
      -1.9376995667838603e-001 1.1594767329846270e-001
      1.8826606586584374e-001 -3.3059256471386328e-001
      -2.6071030244934662e-001 -3.2356065500302877e-001
      -3.0054146459627207e-001 1.3750244867707597e+000
      1.3478155686237579e-002 3.8654167975414801e-002
      -4.9683508952370805e-003 7.7150698102186610e-002
      -1.7511497234359397e-001 -6.6031446034207436e-002
      -2.1394823178470350e-002 -1.4168347288723016e-001
      1.1915420847854120e-002 7.6140232798466712e-002
      1.3716075926287613e-001 5.5539762094540396e-003
      7.0490714205701854e-002 -1.6004605175943602e-002
      1.6268307621371422e-001 2.0676739769883996e-002
      1.0733460604878831e-001 -5.6176090756987596e-002
      -4.8500368037747946e-002 -5.8853043266681601e-002
      -6.4537859373051579e-002 1.8838699806037684e-001
      1.0069332945738366e-001 -9.7781680624459341e-003
      -4.8722213735230731e-002 1.7076363296442168e-001
      3.7935392902245922e-002 1.3915797512024769e-001
      7.1249712638889309e-002 -9.6664761669712357e-002
      1.2690909233316111e-002 1.0460462680079007e-001
      -1.7090455438721863e-001 -1.3073557232570795e-001
      -1.6533770606334788e-001 -1.4889023711378027e-001
      -2.6451768893887904e-003 3.6013080163546890e-003
      3.4480197327711234e-003 -2.4594380468443942e-003
      7.1454432420461024e-003 -1.0566961773932554e-003
      -6.4624688966441425e-003 -3.2243418010457761e-003
      6.9323373732167381e-003 -3.6557675996600363e-003
      5.1760375219061508e-003 -8.3883246048654155e-003
      -6.7179994760317337e-003 -7.8552883022847621e-005
      -6.8273588835524816e-003 -4.2887229529320814e-003
      -9.8537495283235904e-004 2.3468607110913118e-004
      8.6219690724168054e-003 6.8402191843794707e-003
      -1.5488265215525159e-003 6.5900936604788157e-003
      -6.5519777565488475e-003 5.6794619835485328e-003
      9.0952544397421460e-004 -5.5532998774248023e-003
      -3.1455607205447124e-003 5.4573658590569146e-003
      1.5033143861875741e-003 1.8942592511453180e-003
      4.0005037349380122e-003 2.8749058147804949e-003
      -3.4021984855357361e-003 8.4903130546835227e-003
      3.1605708864767047e-003 4.5720798794101243e-003
      -3.0602521628006729e-004 3.5262602058029607e-001
      -1.3044675644678156e+000 -1.4696530184248047e+000
      9.5567978362299230e-002 -6.2131173351827684e-001
      -6.0228748835131135e-003 1.5360737940024902e+000
      -2.3779819831482243e-001 -1.4967721210894858e+000
      -2.8668372645356016e-001 -2.9011788859036763e-001
      -8.8045479062564846e-001 -4.0544379621200127e-001
      -1.3135708820248588e+000 -1.0378749905847953e+000
      -9.9104681533534478e-001 1.3028163353136948e-001
      2.9706404076600323e-001 -1.1645912548788431e-001
      1.7012133769373923e+000 -5.4087384846612352e-001
      1.4123829655349682e-001 -1.6835529427765467e-001
      1.2634704085211784e-001 7.7540624604971831e-001
      3.4942412732440908e-001 2.4610815327358759e+000
      -2.8297895563866987e-001 -5.9645703974741326e-001
      3.9683699496351360e-001 1.1280657408071515e+000
      1.1838021986590672e+000 -4.1983474718814945e-001
      -2.2992777795730548e-001 2.1109773909906910e+000
      -3.7695582148383505e-001 2.7649387234421036e-001
      -2.3590572324372499e+000 -1.2384608143478273e+000
      -6.2432686210357420e-002 -3.5919647800064608e-001
      -1.8921259524969791e-001 4.4145196008783048e-002
      1.0170908627471407e+000 8.8394679916004726e-001
      -1.5734423746114512e+000 -1.5395823352660562e-001
      4.8112526976590314e-001 2.3266588122115364e-001
      -1.4393445878891115e-001 1.2201722439985530e+000
      -8.4702320198788816e-001 7.4549003656713420e-001
      4.0620279993404484e-001 2.3638922774292258e-002
      3.6404092957971271e-002 1.0578551447255593e+000
      -1.8240179550205174e-001 -9.1827212757396603e-001
      6.4509079953309081e-002 8.9870324649005517e-002
      -7.8258527039263337e-001 -1.5571339769858647e-001
      2.1022809377410101e+000 -2.2787312980508084e-001
      -3.0368640057143653e-002 5.1312796179616593e-001
      -6.5663488191017894e-001 6.1426789567596762e-001
      -3.8351975816190140e-002 -1.1760121174282789e-001
      1.5586093744219343e+000 -9.9397883158996655e-002
      -4.5666970492420494e-002 2.5667795554433903e-001
      -2.7930581180545755e-001 -1.2494380435509125e+000
      2.1083212175653976e-001 -2.3462749479873629e-001
      9.1605599000816745e-002 -2.7530542907535827e-001
      -4.4270656690390675e-001 9.3215332089694791e-002
      3.8438540038832719e-001 -1.6534273444773165e-001
      -3.5654232198105079e-001 -7.9697483456329501e-002
      -5.0258046196248865e-002 2.8397885909909554e-001
      -1.1754641501205265e+000 -1.1299621866563489e-001
      4.2619038967076395e-001 -1.5690128659180225e-001
      3.7635680638540897e-001 -1.9518536514951362e-001
      3.4290418013508867e-001 -4.6156535384782656e-002
      -1.7950414408153939e-002 6.2815429853844562e-001
      2.8027432192496576e-001 -8.7981257178937830e-002
      -1.7920485931875330e-001 -8.4930875676694564e-003
      1.1232009508628697e-001 8.2067541532573873e-001
      5.6697784463447531e-001 -3.7854535810809242e-001
      2.0661054771428367e-001 -2.4357429136177577e-001
      -1.7732154369886932e-001 -3.5179823479517236e-001
      1.0917873913117981e+000 -6.2481801871693976e-001
      -2.6361145293144683e-001 2.9111630393044419e-001
      -3.0729607636858974e-001 -4.7197814038963733e-002
      -7.5480591722910462e-001 2.9217799219187790e-001
      4.8136077997463539e-001 8.8232510734092517e-001
      9.6161316494923127e-002 4.3512580530374290e-001
      -3.6140809967414672e-002 3.4826965252245418e-001
      1.5722049251785131e-001 2.8606267956520065e-001
      -2.1419265606913507e-001 2.8653145720043349e-001
      -5.9011434283870089e-002 2.2902206770241271e-001
      2.3491834214924753e-001 2.3367213333896908e-001
      -1.0981729603272877e-002 -3.0242478494132388e-002
      4.6755569824829474e-001 -5.7061373353652445e-001
      -3.1665926309578674e-001 -5.9654086604989193e-002
      4.0561364730719851e-001 -6.0314655836944460e-002
      1.9559829316388402e-002 1.8703518496037697e-001
      -2.6375262170628583e-001 3.4507853004429229e-001
      -2.6815847639116730e-001 3.5474046999904074e-001
      -1.2019489493981277e-001 1.2374814259997604e+000
      -5.4382930370277527e-001 -3.3565842805502233e-001
      -1.0965509239522332e-001 -3.6871415748255126e-001
      -4.9471285259821862e-002 -3.7348862310208358e-001
      1.4266383794883050e-001 -4.3712132578347995e-001
      4.0448615537490346e-001 5.0152936126838903e-002
      5.2715962184505349e-001 -2.4467542055576680e-001
      2.8993860735231197e-001 -2.3617047440326289e-001
      -4.5325801885403763e-002 -1.8573842891112574e-001
      2.7707730515030926e-001 -2.4239812160532104e-002
      -5.5019717171183834e-002 2.0637136634646458e-001
      8.7071720295945274e-003 1.5068094054312475e-002
      9.2102265474156887e-004 1.3108254793070811e-003
      -2.5552179495695654e-001 1.0125465465606440e-001
      1.7692581305156943e-001 -2.1984183323735923e-001
      2.8569942346600385e-001 3.1284418233079292e-001
      -1.4727746408506384e-001 -2.2325445524995266e-001
      1.5603354534691621e-001 4.8287439467650517e-001
      4.5010010446880450e-001 1.0505195626992142e-002
      1.2999849944141932e+000 -2.8266876227199016e-002
      -1.0818623202983175e+000 -1.6176317042646679e-001
      -4.8374051579039144e-002 3.5156058085399192e-002
      1.8931243519959146e-002 -2.6801244526598256e-001
      -6.9268355260018821e-001 2.2159199502743848e-001
      2.3513921649037703e-001 5.0821822802402394e-001
      -7.4698770497166389e-002 3.6475842055294368e-002
      -7.3357079469239903e-002 -5.2849197622374933e-001
      1.5360565597637682e-001 5.0664023978362882e-001
      -1.5809672582878451e-001 -3.9070708603228049e-001
      1.9143507463816857e-002 -1.2598347757763184e-001
      1.1776048095293795e-001 8.6932676746898155e-002
      -3.9579088226961562e-001 1.0321418747385491e-001
      -4.5980081719362487e-001 2.3802259938568252e-001
      -1.1262303505001048e-001 2.2900861284592522e-001
      2.0459433315439782e-001 2.2007926003846667e-002
      8.2103005448927995e-003 3.8345796665439996e-002
      7.3011585479945060e-002 1.2065440647573321e-001
      -1.7941326884628739e-001 5.9528817065866069e-001
      1.6254837752125800e-001 -4.5540468397197881e-001
      -1.7721502034028336e-001 1.7182166577212107e-002
      -2.5793499550221566e-001 3.3767062774270690e-001
      -1.3471930353920716e-001 -3.4127999727065761e-001
      3.4317441552823075e-001 2.3361419560799283e-002
      2.9470500679939821e-001 -4.0272302840108125e-002
      -4.5548027264487702e-003 -2.5776873905810144e-001
      4.1209352333065524e-002 6.7562058206790665e-001
      2.3034815489984242e-001 3.5499014014247787e-001
      -1.3295763245695777e-001 7.3839797607116203e-002
      -1.8458987100106330e-001 2.7682904947560091e-002
      -4.4414186162085215e-002 -5.2620839503212158e-001
      -2.4288843810646935e-001 -6.4129719154673692e-001
      3.5780043360685515e-001 -1.7410950613315809e-001
      2.6302322282331875e-001 1.9459705268969898e-001
      4.7808248413243347e-002 -1.1791319720167240e-001
      4.0811042912422613e-001 -1.3350160786490390e-002
      -7.3975682982922494e-002 -1.7802093794655818e-001
      1.0452467734390039e+000 3.4543356437082162e-001
      2.7615932097681833e-001 -2.6671410524064115e-002
      1.6377046184819641e-001 -9.4792914638735890e-002
      -1.2167721713572145e-001 5.2793680221101154e-002
      2.1022656380378649e-001 1.2744511715647169e-001
      -7.3693349270661429e-002 1.3034379477236099e-001
      1.0017378100401482e-001 -6.6546495340244092e-003
      4.7379856559937893e-002 1.9114149049429230e-001
      4.2369019423898430e-001 2.0379447561564182e-001
      2.0290549870684274e-001 1.4537333762767302e-001
      -2.2026251274815162e-001 -8.7937164482419384e-003
      -1.1894700635244089e-001 -2.4892729074339645e-001
      -2.7789530176566518e-001 -1.8169815804899000e-001
      -5.5244662812269407e-001 1.7823268870113998e-001
      -3.6554724040951871e-002 -3.3901251894883765e-002
      2.2148605222696410e-001 -1.2796549513949504e-001
      -9.1110045834508865e-002 3.8924328199677311e-001
      -1.7236697523900640e-001 -3.1163795667738198e-001
      9.6005072697417683e-003 3.8160369970370969e+000
      2.1982794794404473e-001 1.2896590096223084e-001
      -1.3935030909937016e-002 1.4604097920769965e-001
      -2.2305609636540760e-001 -4.8973089920982329e-002
      1.1390690679880459e-001 -7.0097381835236755e-002
      9.4307602262508616e-002 3.6159568257298866e-002
      1.4602252511490438e-001 -5.6319031520305166e-002
      1.6548489411401329e-002 -5.0757664324061627e-003
      2.9284555373946569e-001 2.6838662237804350e-001
      5.8945441787614780e-002 1.5820250602598052e-001
      -5.9782100516751153e-002 -1.2298316063925178e-001
      -1.5193375527139361e-001 2.3123262888905205e-001
      7.8018100816933680e-002 -6.0872315586787823e-003
      -1.7806299281785534e-001 8.9376440934933174e-002
      1.8752132619660730e-001 2.3101172347666282e-001
      2.3656869570075952e-002 -9.9301998265894795e-002
      -6.7128011782218042e-002 -1.8079172773524502e-002
      -2.6154182148318872e-001 -2.6928990889425231e-001
      -3.9986212958430190e-001 -2.8680947346620039e-001
      4.6552108814240940e+000 2.1951764442262778e-001
      1.2086100106495938e-001 4.7184099013923928e-003
      1.8910571849626323e-001 -3.2909484353180474e-001
      -1.3087025907462288e-001 -2.0373896427625496e-001
      -3.7934293518168877e-001 3.8016629704280776e-002
      1.7598197323686823e-002 3.8259848995869739e-001
      -1.0615814268872981e-001 2.1801795917641334e-001
      -7.5237087967615301e-002 4.3417537337833223e-001
      8.4775566857860349e-002 3.1777563059226899e-001
      -1.6801882837115301e-001 -6.8779909666181319e-002
      -1.8128579843963560e-001 -1.4249646668899676e-001
      4.9939298188662257e-001 2.8002787750064712e-001
      -4.5193758422567905e-002 -4.6811879964785766e-002
      4.5584225361262604e-001 1.4661008589666932e-001
      3.6874472722034524e-001 2.9280225451331249e-001
      -2.7986299166276030e-001 7.1230364719528955e-002
      2.7746326406690425e-001 -4.7330160723617326e-001
      -3.8431799527142096e-001 -4.6217120156003316e-001
      -4.2475569700651566e-001 4.6024446925257507e+000
      2.5021013020593807e-001 1.4848874219109340e-001
      1.1176951398968014e-001 1.8992859191822617e-001
      -2.1233839904452836e-001 -1.1326675390491167e-001
      -2.1043831922773468e-001 -4.0424246453254653e-001
      1.2282391938414771e-002 5.5923685401869727e-003
      3.9937591857461374e-001 -1.0884723589974094e-001
      2.2211277363152646e-001 -9.8681547838787798e-002
      4.3865787926672667e-001 9.9893183423028137e-002
      3.1674027362684010e-001 -1.5139085555565168e-001
      -2.4822719041407711e-002 -1.3694250359082352e-001
      -1.4979129618597645e-001 5.2130980871035504e-001
      2.8567148857211766e-001 -2.3422712459816419e-002
      -1.0032460231193080e-001 4.8246764076184961e-001
      1.5651113190925012e-001 3.8583378529444512e-001
      2.9239835581293749e-001 -2.8602988368664173e-001
      -5.7221501174187358e-003 2.7818238722852645e-001
      -4.9681308995351758e-001 -3.9034465333464285e-001
      -4.7364390221400532e-001 -4.3324766379570245e-001
      4.3401143043331940e+000 1.5430186322132802e-001
      1.2162615605782462e-001 1.2060289040248906e-001
      1.9474640710293509e-001 -3.6406246187025465e-001
      -1.3894691942733134e-001 -1.1810000363839453e-001
      -3.4256280809281375e-001 5.1121220587995092e-002
      1.1644393856359717e-002 3.3440817298543957e-001
      -5.2290902212949825e-002 1.5490575278378038e-001
      -5.4670647082788813e-002 3.7764189590703856e-001
      1.9170671078944278e-002 2.8428334368149011e-001
      -1.4394069302511017e-001 -9.0884383485958439e-002
      -1.6953614401740433e-001 -1.2716986382067696e-001
      4.4443779351653201e-001 2.4475298990079877e-001
      -8.1143315609830832e-002 -8.1468387585704918e-002
      4.0919265042034020e-001 1.2426629923447198e-001
      3.3721792900828007e-001 2.1551721842098320e-001
      -2.4087485231810982e-001 1.3152684009810531e-001
      2.4581771880562997e-001 -4.1608659401803871e-001
      -3.3104386085976145e-001 -3.9659241529385431e-001
      -3.6656077483838434e-001 3.9490498143066506e+000
      1.3889395310156150e-001 1.2881497752347298e-001
      8.0282572979003292e-002 1.7021260168499247e-001
      -3.5316520871564883e-001 -1.3795316603558627e-001
      -1.2808513796765245e-001 -2.8733596736527611e-001
      6.3545113824205302e-002 -1.4809311386120235e-002
      2.8908420672389806e-001 -4.7802706309228844e-002
      1.3334744909747404e-001 -4.1059724465824107e-002
      3.3477277445651332e-001 4.3953963426725598e-002
      2.4517230169768695e-001 -1.1529215324212862e-001
      -9.6433870078363279e-002 -1.6853669960009254e-001
      -1.2066558539015576e-001 3.7749708981983043e-001
      2.0338900072767502e-001 -3.6807605492312830e-002
      -1.1607115394448872e-001 3.5608395608395593e-001
      1.0703782741609917e-001 2.8866512957041618e-001
      1.8718688839268746e-001 -2.0689200400883687e-001
      1.2875433943852452e-001 2.1121465784860810e-001
      -3.5768467629956879e-001 -2.8304160573030906e-001
      -3.5264440439118461e-001 -3.2638173123158226e-001
      1.6095539642092662e+000 2.0386532199126225e-002
      3.6788182952568416e-002 1.8592959201266203e-003
      8.6571546006280753e-002 -1.9781272028448077e-001
      -8.1460667019390684e-002 -2.7055303146752509e-002
      -1.6625863196545934e-001 1.8452698503828413e-002
      3.1750350017093691e-002 1.5792238716218193e-001
      -8.6761757795270292e-003 8.0303118607914975e-002
      -2.1795047427848900e-002 1.8140580690832342e-001
      1.4134043149067303e-002 1.3288615666817413e-001
      -6.3255151062609344e-002 -4.5301317437528375e-002
      -7.5302963699188458e-002 -6.8093346679926725e-002
      2.1070341650516106e-001 1.1619507663703287e-001
      -2.4753361850105703e-002 -6.4267190543395622e-002
      1.8663274940036600e-001 5.0700883504379880e-002
      1.5214638082968315e-001 8.5142320849075900e-002
      -1.1880954525895582e-001 2.0783844494344270e-002
      1.1127534820017755e-001 -1.9238531976439888e-001
      -1.6231740550731497e-001 -1.9279485499513480e-001
      -1.7556859312100540e-001 7.4910048721941076e-003
      5.5506011198027993e-003 -2.4863782044490836e-003
      -3.8733693623444389e-003 7.4245118134066658e-003
      -6.3411793185829072e-003 8.5803460173318781e-003
      2.1818453025283503e-004 7.7819974889688096e-003
      -4.3995148209756800e-003 -3.5330785848545800e-003
      1.1846051168304223e-003 -5.9925633175194311e-003
      3.6476004941851286e-003 5.5460118876051413e-003
      7.8065444088942833e-003 7.6252717852932873e-003
      6.3521093665699895e-003 -6.9957451665681883e-003
      1.3857430707458492e-004 -3.3237538100795070e-003
      9.7328498264556836e-004 6.7999476274230499e-003
      7.5951211264349483e-003 -1.1913374490635666e-004
      7.0034879234122617e-003 8.6369875090301969e-003
      -6.7096050121247140e-003 5.1698271368039493e-003
      -3.7778456737909212e-003 2.3548325634348360e-003
      -1.4179035520704925e-003 6.1020246088491405e-003
      2.4776132806701512e-003 2.9342782635924385e-003
      -5.5594371701172879e-003 -4.2559655867943722e-003
      -1.9758880915363353e+000 -3.2810356843274319e-001
      -3.4438139080132996e-001 5.9105389167429925e-002
      -2.3668470198784877e-001 2.3144635960735280e-001
      1.5967380072585251e+000 -1.7561512450569023e+000
      -1.3067346384296583e+000 -3.3668494663646631e-001
      1.0130870723255112e-001 -3.9883820502403067e-001
      -1.8477291854106234e-001 -2.7412911633388961e+000
      -7.0388568932576678e-001 -1.1249216116787628e+000
      4.0686212639311142e-001 6.0233246622201875e-001
      -4.7601365860073358e-001 4.3956580051889471e-001
      4.3377685030900031e+000 3.5418171929224224e-001
      3.4949144072034768e-002 -2.1666108296676569e-002
      -8.3984128452219431e-001 8.0364237444405495e-001
      2.4385404486513900e+000 -3.4488795034935193e-001
      -1.9795484735435770e-001 7.0731633214119904e-001
      -2.9547300198550014e-003 5.7799328816180040e-001
      -7.5915858204882395e-003 -2.1135028410575016e-001
      1.8864125505890508e+000 3.1783491572315281e+000
      2.1345261525947432e-001 -3.1275530832805329e+000
      -7.2976505186476814e-001 4.3450431194057887e-001
      5.7855156356110958e-002 -2.7314820803726797e-001
      2.3712100771350975e-001 8.4899305509228973e-001
      -8.6620746583802422e-001 -2.4174839041197763e-001
      -1.6438013755547981e-001 1.7233421161026319e-001
      -4.7477291742472050e-001 -1.7084787803827284e-001
      -6.5857220324566179e-001 -1.8013020892855180e-001
      -2.5944935170352118e-001 7.1151044842130140e-001
      6.0197647575121457e-002 -1.5482625558808719e-001
      4.3331164450645326e-001 3.5200536612965498e+000
      -2.5632191252692960e-001 5.1860667942757968e-002
      4.5646812438141062e-003 -6.7338281269466160e-001
      4.7516964843879061e-001 1.5035495995828991e+000
      -2.6997272180796178e-001 -5.0996536227307404e-002
      5.5923257948973126e-001 2.3667833268164787e-001
      -2.9316374290570851e-002 -1.9825468204242755e-001
      -9.0519596910511035e-002 1.1103667450846493e+000
      2.4535088508006644e+000 5.8150319777422275e-003
      -1.3484702038015313e+000 -9.6144542220268214e-001
      -5.3139384842192172e-001 8.8636615699460797e-001
      4.3081975170182629e-001 6.4522393294126415e-002
      -1.7079142803766009e-001 -1.0073168789621774e+000
      1.1407504051108828e+000 1.2517693044709582e-001
      -3.7442202320359547e-001 -5.5180024836721553e-001
      4.5759115521540737e-002 -1.0852248164405867e-001
      7.3551746647297786e-002 -1.0770281449561658e+000
      4.3856066751219502e-001 2.2600825910823988e-001
      -2.8230795278864290e-001 1.5526883156204914e+000
      -2.2102460231803362e-002 5.1274302876090561e-001
      -7.3756839307678734e-002 -6.5747207996789472e-002
      3.4833106994555697e-003 6.5533106042482525e-001
      3.2887390545040690e-001 -2.3151912219402088e-001
      -4.0850516842642084e-002 3.5861788267255737e-002
      -2.8240114478994227e-001 1.0114626203625454e+000
      2.2016969692572208e-001 1.2805747308704321e-001
      -3.1883184239657819e-001 1.7434084143143652e-002
      -7.1240328493067079e-002 -5.8673696455248736e-001
      -4.7788614229794607e-001 2.2135880651653178e-001
      8.7398923633898384e-001 5.6695895139289165e-001
      8.1255758874943046e-002 7.4680691412431860e-002
      -1.2143678194412386e-001 7.8251626881003422e-001
      3.3327192560748509e-001 -4.7267966312576947e-003
      2.5582808797897427e-001 4.0728767354936790e-001
      -1.6531498321168106e-001 3.6262802436093554e-002
      2.0721916217193234e-001 -2.9113659773408254e-002
      2.6360373604885334e-001 1.2410089031170921e-001
      2.3177962303617849e-001 -3.7709169935322595e-001
      4.2026836269394080e-001 2.9045757732231340e-002
      -5.6458705059402932e-002 -7.2749977897806822e-002
      -2.0615319394131992e-001 -2.1863668556494370e-001
      -1.8964645238297836e-001 5.6141901439197339e-001
      -5.0967091085736688e-002 -8.0337472954349176e-001
      9.2773340993415920e-001 -1.4846091254373522e-001
      -1.7552488353685839e-002 -4.5637693623759262e-001
      5.2225611691913296e-002 -3.6763586640082130e-001
      1.7482484901022080e+000 -3.8354537601733185e-001
      3.0127973395816604e-001 2.9162885303590369e-001
      -6.6350564269279544e-001 2.4082527800951714e-001
      3.9967616531473488e-001 2.7864973561981726e-001
      -3.5511385391775092e-003 -3.6667436173022316e-002
      -3.8278500961753704e-002 2.5707040730496966e-001
      -8.2752215325030215e-002 -1.4782163261014342e-001
      -3.6540617329153813e-001 -9.1555757211970623e-002
      1.5479400501847007e-001 8.5051887123514195e-003
      1.5966926785718311e-001 -5.6544685741832446e-001
      -2.0898455545798034e-001 1.0480318445989996e-001
      1.3034181496824046e-001 -1.1877915877460043e-002
      1.6948546195816183e-001 1.6001029736706759e-001
      2.0532401739641198e-001 9.1929607835291069e-002
      -6.3036438492896654e-002 8.4812764314150718e-002
      1.6736384190392950e-001 4.0973037049292499e-001
      -3.5460944387795273e-001 -4.6991841776668380e-001
      1.1904436979774709e-001 6.1652801115564218e-002
      -1.8547982858786807e-001 1.6777953896572524e+000
      -1.5333240536941570e-001 -6.5013846000213993e-001
      -9.5457740943015540e-002 -2.3888126669130091e-001
      1.4617907634715484e-002 2.3017218808184861e-001
      -2.7800389763030220e-001 -2.8821067966792635e-001
      -7.3404754706176994e-002 8.2789559067618979e-002
      3.4103657952187261e-001 1.7877010386747141e-001
      -1.0364769986599401e-001 3.8920395645898047e-002
      -4.3521592407276166e-001 8.1308584839660664e-003
      2.1004365195089494e-001 -3.2911444800995317e-002
      -4.8172465514619489e-001 -5.5633605211192672e-001
      -1.9145153876111201e-001 1.7713746362164623e-001
      2.1197194617128584e-001 -4.2983742163477362e-002
      4.1524353689801957e-001 -5.0530714689893175e-001
      3.9780908418379984e-001 -7.5949778372311733e-002
      1.4640868220254366e-001 3.8015229662487171e-001
      2.7829374336082208e-001 -8.2988956855260185e-002
      -2.5911174194336678e-001 -1.1087525260406823e-001
      -1.1078052346294848e-001 -3.4819348843980330e-001
      8.7507889277741752e-002 -1.0443704380405157e-001
      -4.6037356269215346e-001 -2.4923528766781894e-001
      1.6114176913504863e-001 -1.6895452368122604e-001
      3.4282696774231081e-001 -1.0718927803844362e-001
      -3.0896831889255555e-001 1.5503435344694519e-001
      3.7077332542919339e-002 1.8450720816656377e-001
      2.8841248488637095e-001 -1.2914442961481654e-001
      2.0928336472989546e-002 -7.8467578580339106e-002
      5.7408928718186303e-001 1.7541038642727955e-001
      6.9015499394526935e-003 -2.5996577932924387e-002
      -1.2414415822076667e-001 -3.2496977032476171e-001
      2.0526162403312870e-002 -1.2383323300357936e-001
      -2.0864907109211703e-001 -3.4178788355691860e-002
      -5.0592707112050339e-001 3.7979525356249916e-001
      -1.8541803681546506e-001 4.4601519185852745e-001
      1.1666691952861818e-001 1.5118629389556051e-001
      -3.4083986052211235e-001 2.3411638775851848e-001
      6.6792058079454177e-003 -1.1038728893200017e-002
      -2.0340263490882685e-001 9.4285008300033857e-001
      5.6976779752762621e-002 4.8224566794719113e-002
      -5.8369581956797333e-002 2.3450310555807419e-002
      6.1484659939378466e-004 -2.4448907157540159e-001
      2.2861212800413389e-001 -9.7446544165128685e-002
      6.7635205137527474e-005 5.9210912672711731e-002
      3.4070636115417474e-001 1.1703454166584579e-001
      -1.3489591265011844e-002 6.6821108091455778e-002
      9.4733733298583811e-002 1.6491639015496265e-001
      1.4167347154647200e-001 -1.9517124103813294e-001
      1.7916398171750385e-002 2.0558875678363836e-001
      -2.4368528589163666e-002 3.4824425586605628e-003
      -1.9274354680836617e-001 -3.0165634918893108e-001
      -1.2927328274766049e-002 -1.0469064695509457e-001
      8.3745011315643214e-002 1.2678942875742711e-002
      2.0457067713046201e-002 -1.8501907704666315e-001
      7.3025807081155761e-002 -7.4376315317109670e-002
      1.4384713516954095e-001 -7.8843181448456603e-002
      9.5690422044569734e-002 -4.0479376329236344e-002
      2.5227632056329576e+000 9.2167781951791969e-002
      -4.8976371418931680e-003 -1.9408320201244278e-002
      6.3012636175728554e-002 -1.9664097121715762e-001
      -6.5910921284420249e-002 1.1871946494556473e-001
      1.0600425807663870e-002 9.0842277129999371e-002
      -1.7151183493657014e-003 2.2281548334160583e-002
      -4.1550778271483846e-002 -6.1407696300048782e-002
      -8.7297262051511809e-002 1.1872808462259479e-001
      1.8434692065625344e-001 -4.5489440491274079e-003
      1.2014515841405533e-001 -4.1469042451852560e-002
      -1.2851500654582859e-001 -1.1666532141401681e-001
      1.0768853311064232e-001 1.3479320393001483e-002
      -8.3889167368529527e-002 -9.0846244112952196e-002
      -1.2104959278212596e-001 7.4088809913036541e-002
      7.5248360844535067e-002 -1.0102837219318724e-001
      4.6176934825433742e-003 -4.4566692913171273e-002
      2.7596777599479972e-002 -5.5421849695350897e-002
      -1.2750974099539547e-001 -2.0851958192073997e-001
      -1.5976354117755820e-001 3.2156456546875671e+000
      1.9911724261044780e-001 6.2317846156671734e-002
      -3.6554479262465656e-003 1.1828334708067575e-001
      -8.2354874485064442e-002 -4.8711219745412683e-002
      -1.9111581075996800e-001 -3.1007432108035604e-001
      -2.3009626983775226e-002 -7.4052818928813338e-002
      3.1609847175722766e-001 -1.2492317895183529e-001
      2.0781965589148077e-001 -9.5315636411321070e-002
      3.5729338739103667e-001 -4.3226504079554265e-002
      2.5615841253901178e-001 -1.3128882899851776e-001
      3.7072017074623327e-002 -1.2261068151942317e-001
      -8.8466371356784673e-002 4.1239461497571961e-001
      2.2977584330138565e-001 3.7558214654559309e-002
      7.5394952266211570e-003 3.8411513293068178e-001
      1.3819511386107278e-001 3.0697776418487627e-001
      2.7063828385765576e-001 -2.2988668983503718e-001
      -8.2573137547532136e-002 2.2753144425653382e-001
      -3.8825502578327414e-001 -3.1307472280912013e-001
      -3.7922869710956109e-001 -3.4369619804761664e-001
      3.3980897901708493e+000 1.9019318501647930e-001
      1.3293012802787621e-001 2.0451334573582958e-001
      1.2028278197637721e-001 -2.1569629780923760e-002
      -3.3387808481926039e-002 -1.7530120637052596e-001
      -3.1903162292678794e-001 -1.0450342428933720e-002
      -3.0955613700319265e-004 3.1450352541809146e-001
      -1.0027268674378588e-001 1.8756010041914056e-001
      -1.0427126888913503e-001 3.5573909797719361e-001
      -1.5259066511051972e-002 2.5841399460943160e-001
      -1.2269197978399683e-001 3.6212132130769750e-002
      -6.7251280729908533e-002 -1.2717419986248277e-001
      4.1744767229993551e-001 2.2384414514506473e-001
      1.5852611533634157e-002 -9.9122011950760036e-002
      3.7397468180684490e-001 1.2177704015956284e-001
      3.1778307273648776e-001 2.3899792348686810e-001
      -2.3131515779050954e-001 -1.1853611935452672e-001
      2.3054174977551564e-001 -3.8874096946899594e-001
      -3.2205194166016793e-001 -3.8631164912652644e-001
      -3.5717655989442598e-001 4.1434302230785542e+000
      1.2649756721306676e-001 1.0900526310482817e-001
      1.2290743720682291e-001 1.8432661910286602e-001
      -3.4262670400475448e-001 -1.3883821833918394e-001
      -1.0414687836024938e-001 -3.2598243237833258e-001
      5.9944560050764602e-002 5.4620869422088124e-002
      3.2131565877416457e-001 -4.7825754219184217e-002
      1.5669533018160722e-001 -4.2948146495342510e-002
      3.6334920333535248e-001 1.5668314630143211e-002
      2.6524966050155691e-001 -1.4010934762751176e-001
      -7.6680538017235678e-002 -1.6945209968925523e-001
      -1.2835233864804257e-001 4.1817392073839332e-001
      2.2762055538100340e-001 -9.7400792125441282e-002
      -9.0775271269970273e-002 3.8592245316456414e-001
      1.2449095902791127e-001 3.2056167312096862e-001
      2.0946942632751595e-001 -2.2672994523177278e-001
      1.2627441727031963e-001 2.2941275224907301e-001
      -4.0184967521772763e-001 -3.1761999538982166e-001
      -3.8780392111324974e-001 -3.5927720515719430e-001
      4.1734992652390837e+000 1.6386033383744386e-001
      1.3851178574314466e-001 5.2129915632815320e-002
      1.8519921238536211e-001 -3.6100459785800676e-001
      -1.4282558383144417e-001 -1.3320146926660861e-001
      -3.0302302747596477e-001 6.4240080825639978e-002
      6.1390879788946514e-004 3.0509596265124300e-001
      -4.7411178286743259e-002 1.3178305530014406e-001
      -4.7931006542979847e-002 3.3920070899404031e-001
      4.5464751387660533e-002 2.5316094219295948e-001
      -1.2979006841839291e-001 -1.0745386745578872e-001
      -1.6634557496483077e-001 -1.3226470109647445e-001
      3.9775942883605669e-001 2.1794090236428246e-001
      -6.2832975307114083e-002 -1.3960433097083855e-001
      3.7572107371977814e-001 1.1943289665162128e-001
      3.0268426761182315e-001 2.0756056705606671e-001
      -2.2297423593508556e-001 1.5546077776069028e-001
      2.1753177208169272e-001 -3.6856201057378291e-001
      -2.9591831708856431e-001 -3.6095893700452120e-001
      -3.3684986653872201e-001 1.6860328360960395e+000
      1.2115397501858832e-002 4.0102965597169728e-002
      -1.1062387120034599e-003 1.0327881752543974e-001
      -1.9948855696988507e-001 -7.8436250796892440e-002
      -2.2057431222430580e-002 -1.6550269107524440e-001
      3.1986779498087876e-002 1.4482359981458285e-002
      1.7607014500571472e-001 -5.7001391623669835e-003
      7.3322767684585372e-002 -2.0614146942965587e-002
      1.8863551286243802e-001 1.8168460566836561e-002
      1.4119620750694648e-001 -6.7600162173547182e-002
      -5.7120889925769587e-002 -6.0204815744088529e-002
      -7.6577763029192253e-002 2.2642623449653976e-001
      1.2853993265467895e-001 -3.1947545904219901e-002
      -7.3731674811138931e-002 1.9496160488964620e-001
      5.0802215500469552e-002 1.6820260417459260e-001
      1.0460381787238912e-001 -1.1351663631665132e-001
      6.0406910470988777e-003 1.1507027657908118e-001
      -2.0163319755211917e-001 -1.7160637457873829e-001
      -1.9539829060660802e-001 -1.8815441768099317e-001
      -8.1891010510913350e-003 -5.2879361327234581e-003
      -7.1744558048092337e-003 9.3672854621012981e-004
      7.0263999774327780e-003 -4.6600445526493459e-003
      8.3160068970085724e-003 -5.5107141081017557e-003
      -3.4437930149869940e-003 8.7035197961628993e-003
      6.3282793544168856e-003 -1.4387110859631106e-003
      -6.9421017316214518e-003 -5.4355888049231332e-003
      7.4108033465232611e-003 5.2648639915682388e-003
      -4.8553911472110317e-004 -1.7521259483460265e-003
      -5.0340658701632636e-004 -6.5550494100460382e-003
      -7.1394398924070788e-003 -2.1686361405946564e-003
      -4.3056125843657783e-003 1.4948005406606208e-003
      1.6045300210637554e-003 -8.2331105942235906e-003
      4.8552560726964134e-005 2.4946827377383186e-003
      -4.0001861322748865e-003 5.1444081890604423e-003
      3.5478283080785586e-003 8.0626617013842758e-003
      6.4993616006407641e-003 -3.2113470748086643e-003
      1.5620051149009160e-003 1.7500217691802946e-003
      -1.4142817223571746e-003 2.2776157882520026e-001
      2.4069369337970623e-001 2.6960215561750709e+000
      -7.8676382012178914e-001 4.4288438229725152e-001
      3.0023643077632511e-001 -8.6217740649410912e-001
      1.2303275585802587e+000 2.8873585453129313e-001
      4.1472698565327837e-001 1.5024682902891575e+000
      2.0707547726954725e+000 -3.3242500202582308e-003
      1.2668140147920315e+000 -3.0453604551479857e-002
      2.7754383630905544e+000 1.7137941717904204e-001
      -3.0360722120687866e-001 6.1551794565973639e-001
      -7.4760752947396114e-001 3.3823721294212712e+000
      -6.6114427543992504e-001 2.2428824049820173e-001
      -1.3563566799716376e-001 -1.9344185560338190e+000
      -1.0305882566069102e+000 -2.0962049189830273e-001
      -4.0396605754904907e-001 1.1263668863190837e+000
      7.2842985682977812e-001 -4.1488357071385957e+000
      -8.6835900226005092e-001 1.0348252069307438e+000
      3.6991036161410244e-002 -3.5540457602562497e-001
      2.1528975550945213e+000 1.8099867233016053e-002
      1.4116539607125278e+000 7.3412359466791907e-002
      -5.5623570946102063e-001 1.9002440939775794e-002
      -7.3175726865393365e-001 2.4551110905794260e-001
      -7.3181644746852070e-001 -8.2938058622222277e-001
      8.7509337900929940e-001 -1.9329933432605279e-001
      -6.9498623333820675e-001 -8.8471881578927802e-001
      -3.5952624856231857e-001 -8.8043128002882520e-001
      -1.4883657803162342e-001 -1.1366049418722284e+000
      7.5783449187134450e-002 6.1339746457333796e-002
      -1.3042606615520358e-001 8.7669618606810840e-001
      -1.0021060537340973e-001 4.0157809623712148e-001
      -2.4438763526608513e-002 -6.2507895133958685e-002
      1.0605198166541314e+000 3.8978184132419014e-001
      -3.7699262094014163e-001 -4.5994001915265537e-001
      -2.1907475793314576e-001 -3.1603630422659228e-002
      1.4495126419767117e+000 6.0977597275489237e-001
      -1.1366431910451484e-001 -2.3470241277852016e-001
      -1.8957755806785484e-001 -1.0207946308611182e+000
      1.3500630806505700e-002 -9.7517953158228321e-001
      -1.5180363642272621e-001 4.5492920255759417e-001
      1.8172163949024978e-001 1.9369782719729123e-001
      9.6272920005096518e-002 2.3223283026160113e-002
      -1.5609573407805155e-001 6.0330876451999071e-001
      2.4759824559814583e-002 1.4340796776973749e-001
      1.3710297872416836e-002 3.6333279457358862e-002
      -2.0876893269728383e-001 -2.9531215908246877e-001
      2.8005341273943385e-002 2.5237135313078651e-001
      -5.8489001307399507e-002 1.1505379854643334e-001
      5.3922925025040758e-001 1.1678129457430721e-001
      2.5769265331634833e-001 4.7366135715905203e-003
      1.5244852730737846e-001 -4.2947644098919199e-002
      2.7042537486085427e-001 2.4403072391546637e-001
      -2.3761825555667671e-001 1.0322919688123150e-001
      1.1092406298717646e-001 -6.7627410091923901e-001
      5.7681770236182039e-001 3.1101091914618811e-001
      -8.0840252451825093e-002 -1.3659073510127689e-001
      -3.0384175438948457e-002 1.9991158692695593e-001
      -2.3841434609100098e-001 2.3279694537261567e-001
      -6.6784254769865145e-002 3.5144904687946066e-001
      6.1707730794855342e-001 1.6227080122662574e-001
      3.5157232135102751e-001 -2.7302608680621659e-001
      3.8601734260498677e-001 -1.0862630841359618e-001
      1.8572340130363210e-001 7.8423510603250618e-002
      3.1202651169657247e-001 -7.8247065505847768e-001
      -2.6935879925981443e-001 6.6543546704270137e-002
      -1.7535956309019290e-001 1.6428025925388065e-001
      2.6818433554789417e-001 1.0983790321085604e-001
      -2.7695662077817257e-001 1.4350021109382927e-001
      5.5174080764377138e-002 2.0998848200855991e-001
      2.0579027807364580e-001 -3.8220975087527165e-001
      -3.8881521993032248e-001 -1.9614862850148913e-002
      2.4482129706352973e-001 5.0410378880075579e-001
      -7.8780917954551255e-001 1.2143540981587893e+000
      -5.1673531761079083e-001 -3.0825015540060408e-001
      -3.4696046727591545e-001 -1.2431243621799402e-001
      -5.9293232278197949e-001 1.1380153337046146e+000
      2.6150434584177007e-001 1.6333827867568382e-001
      1.2337512210619932e-001 -2.9970250758729411e-001
      8.8122244545764117e-002 2.4094658222532114e-001
      3.3218722271544554e-001 1.9971264826159330e-001
      -1.4664451214223242e-001 8.3834449504711708e-002
      1.0811765970117242e-001 3.0704123976138947e-001
      -2.8716644111708844e-001 -1.5425474102847950e-001
      1.8040508959424845e-001 1.1282351126940517e-001
      5.8736905856889315e-002 5.4788187983939085e-002
      -4.2463788915605938e-001 -3.3448904180124933e-001
      1.8159111423928279e-003 1.7227444005105313e-001
      2.9929662415050743e-002 1.6798223978277610e-001
      8.8405380115528908e-003 5.8644418676959159e-002
      6.8811383290597369e-002 5.2844676265379989e-002
      5.8361713611652190e-002 -2.3709678803181450e-001
      3.2262142436132474e-001 -2.8646715102930043e-001
      -4.4691386469288841e-001 -9.7921634831128507e-002
      -3.1116089701490868e-002 1.4923108694969364e-002
      4.6266681781742897e-001 -3.2993508972875218e-001
      6.8560589689503570e-002 1.8232281143288478e-001
      -3.1205549655829307e-003 -1.5230792506262622e-001
      1.8902624172367460e-001 1.7793987681480608e-001
      2.9558494299864918e-001 -2.3480714027531632e-001
      2.0143115122833499e-001 1.0890699767410394e-001
      3.3308577051735327e-001 -2.1829674959609521e-002
      1.9394718071879657e-001 1.3353164335399975e-001
      1.4490352203032184e-001 -7.6272673991328158e-002
      -1.5388134297769585e-001 -3.0331899284472486e-001
      -7.9715094062788461e-001 -6.5232111268664572e-002
      1.2279401863012962e-001 1.1097356847604457e-001
      9.6039673384806068e-002 1.0090356221804139e-001
      -2.8189606456628302e-001 3.9826056911795882e-001
      -4.5045827540669521e-003 8.7568799697225530e-002
      1.5418611839173615e-002 -7.8081397775090405e-002
      -2.2631364223752870e-001 -3.0179011093004854e-001
      -3.8990394584482372e-003 8.8216617126349803e-002
      5.4189772340716209e-002 1.3955293432433327e-001
      -5.4868107686819101e-001 -1.8611674218586138e-001
      -1.2729255323040245e-001 2.1929333609296847e-001
      -7.5838763200428511e-002 -1.2522984175083696e-001
      1.6760948399775563e-001 -3.0197862110984802e-001
      -4.5044249324732955e-001 -7.3587277984519514e-002
      8.7865086942486958e-002 6.3874983845992428e-001
      -4.0155410341609343e-001 2.2403991569578144e-001
      -1.0467018484648406e-001 2.3443772748025013e-001
      1.5394429119785416e-001 -4.8759090966128960e-001
      1.4744191343855287e-001 -4.8968112009884512e-001
      -1.9617585309166274e-001 4.3961229878388776e-002
      -8.3844968297177080e-002 1.6885349317295356e-001
      -1.0594062809208336e-001 -2.7587432469682938e-001
      5.2747149324724829e-001 -1.7877868736582037e-001
      2.6201364081774375e-001 -1.3019718919997794e-001
      1.0309864592928480e-001 -4.3851811659388346e-001
      1.4917349066604486e-002 1.6502305919344140e-001
      2.1777295867286584e-001 3.0970179116600249e-001
      1.0733064242268546e+000 -2.7025432540145250e-001
      -2.6271838911087711e-002 -1.7521690722269403e-001
      1.0362677191146178e-002 1.4236716812360255e-002
      -4.3368610957947251e-001 2.9914511597391374e-001
      -1.2850413355932772e-001 -2.5003027314321874e-001
      3.5917585178422667e-002 2.4544988046394933e-001
      2.6694724275243881e-001 -2.6795151918135085e-001
      -9.6124059380724401e-003 2.0910936326245688e-002
      2.2309838039456895e-002 4.7656678755197857e-002
      -3.4572807890292662e-001 1.9289927054714034e-002
      2.9403396950831828e-001 1.8089203802202386e-002
      -1.0174622526180777e-002 -1.1895363012705676e-001
      -1.1347313930343529e-001 2.2030761673680496e-002
      1.1778871800398355e-001 2.0702302953860674e-001
      -2.9640116093615540e-002 -2.6196819762470021e-002
      -3.0133238740251395e-001 2.4054244721916271e-001
      -2.4132230561769769e-001 -3.4751211385161108e-002
      1.8261239512723823e-001 4.0357690667361462e-001
      -1.0943318243465521e-002 -5.2413314216477058e-001
      -1.8817750861446744e-001 -6.2156194589147243e-002
      -6.2876843320986295e-002 -3.8026737957774608e-002
      3.6361206472558624e-002 -4.9678272697043675e-002
      4.9552677524447086e-002 1.3292407571125364e-001
      -3.6959918217762310e-002 -2.8925535993745772e-002
      -1.1340924497488281e-001 1.2401095240515464e-002
      -1.6089354661489730e-001 -3.8117616962028068e-002
      -1.8365986059725065e-001 -4.3547895737638405e-002
      -1.0138121043967029e-001 -9.8113301120634090e-003
      -1.1928594128773836e-002 3.6496141187916435e-002
      -6.0279126952921175e-002 -1.0212512795167061e-001
      -1.1859659685656759e-001 -1.3680058476242837e-001
      4.1617486159640171e-002 -3.3940101805756628e-001
      -6.6429184795680366e-003 -1.1471410759049941e-001
      -1.5507872023578109e-001 1.3810440697990325e-001
      2.1561251487184584e-002 -2.9358067878381314e-002
      2.7491059331726109e-001 1.2735962476363108e-001
      1.9294329186115550e-001 1.3003255838493691e-001
      2.0738773770947225e+000 1.5946756718752525e-001
      4.2034447449423341e-002 2.5530282931246179e-002
      6.0929824598580651e-002 6.3270013820545895e-002
      -1.9794300575832046e-003 -1.7165818758479776e-001
      -2.3785509127384588e-001 -3.3177940270444954e-002
      -9.4203300763237283e-002 2.3016533508870704e-001
      -1.0739424667060359e-001 1.7622807913296129e-001
      -8.0186263354324175e-002 2.5992625810900377e-001
      -7.8876941618658658e-002 1.8401405877240848e-001
      -9.6291172519508292e-002 6.4267001246060496e-002
      -5.4501974439236406e-002 -6.4773884784535787e-002
      3.0072820029023062e-001 1.6921931585017291e-001
      6.7893840119076745e-002 -2.1500493996679947e-003
      2.7558723157971926e-001 1.0404836986602697e-001
      2.3380652019971160e-001 2.0385131967772391e-001
      -1.6670369977184207e-001 -1.6161047888558330e-001
      1.6256438270992876e-001 -2.8614909074848033e-001
      -2.3478884640686326e-001 -2.6677406968746081e-001
      -2.4929920258926414e-001 2.4699679294720069e+000
      1.3565338458385437e-001 1.2610176070621557e-001
      2.7794871522968301e-001 8.9842641021767991e-002
      9.2525312618723349e-002 1.1336425857449806e-002
      -1.4040947986906555e-001 -2.5472589750934227e-001
      -3.5809656338787618e-002 -7.8490765003337605e-003
      2.5666190697594077e-001 -7.7139473975778139e-002
      1.5601504741692843e-001 -9.4439069483890109e-002
      2.8172031696635730e-001 -9.5438756088504721e-003
      1.9728854968007600e-001 -7.4949719215637603e-002
      9.0600141565308545e-002 -1.5681397491075982e-002
      -1.1304377280136602e-001 3.2028504473269015e-001
      1.7751752240849744e-001 4.0820405254964380e-002
      -6.3174280093688709e-002 3.0076309352235286e-001
      1.0955876625032014e-001 2.3732535094639659e-001
      1.9252292047480421e-001 -1.7540253110796666e-001
      -1.6668510638656475e-001 1.7240224450641375e-001
      -3.0991235139828255e-001 -2.5244672435651855e-001
      -2.9399705570340290e-001 -2.7778464277241155e-001
      3.6827534759920395e+000 8.5569167261948922e-002
      9.6413926513723672e-002 6.3446904405873084e-002
      1.7516185771842813e-001 -3.1615445873367648e-001
      -1.1676071659632642e-001 -9.0673531515761602e-002
      -2.9503105650024186e-001 4.3624197316283149e-002
      4.7523191053472844e-002 2.8902983280394140e-001
      -4.7564914765971814e-002 1.3936010725385101e-001
      -4.6272278207792845e-002 3.2279371198524615e-001
      4.9247910806129785e-003 2.4311548587094203e-001
      -1.2555241851719351e-001 -9.4285834633611593e-002
      -1.5664321478576046e-001 -1.1782494470088307e-001
      3.8390965572191443e-001 2.0246166975445690e-001
      -9.4732143112685727e-002 -9.1863943428913047e-002
      3.4373493274656602e-001 1.0132835776445943e-001
      2.8273371368964473e-001 2.0717660853976630e-001
      -2.1566610739585115e-001 1.0129636186481447e-001
      2.1461296842576225e-001 -3.5166248516969129e-001
      -2.8349450008418953e-001 -3.5346503764931991e-001
      -3.2978867279595397e-001 4.2498817654723151e+000
      1.6730466043287900e-001 1.3122133580122161e-001
      4.9697775416164512e-002 1.8686013085897615e-001
      -3.6977573854419282e-001 -1.5216201450061223e-001
      -1.2712477464565547e-001 -3.2234473779876338e-001
      8.1652711047321233e-002 1.6127016180631712e-002
      3.1501283725200413e-001 -4.8421549400095326e-002
      1.3506485429422485e-001 -4.8682634267800493e-002
      3.5261145524716925e-001 4.0989162077695575e-002
      2.6001861412194760e-001 -1.3782397485472211e-001
      -9.9229728839697440e-002 -1.8255476795305756e-001
      -1.4016486626182179e-001 4.0927065914464700e-001
      2.1770512726297192e-001 -7.4580653504745131e-002
      -1.3713245753502054e-001 3.6763679376476172e-001
      1.1519849543428418e-001 2.9736636654523091e-001
      2.1105206216112882e-001 -2.1538387686127472e-001
      1.5847196568139860e-001 2.2385648527991053e-001
      -3.8171911912751405e-001 -3.0628642689940888e-001
      -3.6462040750014663e-001 -3.3707310656891359e-001
      1.7347296173717790e+000 2.2330987849307007e-002
      4.5571769115455664e-002 -1.4452991231839018e-003
      1.0090406077049201e-001 -2.0562407840506358e-001
      -8.5598057296295563e-002 -3.1757695371787520e-002
      -1.7672504966922764e-001 2.6063640701397356e-002
      7.5533571584971817e-003 1.7328000845472374e-001
      -8.4531742734766570e-003 7.8253225151491232e-002
      -2.8689221798867934e-002 1.9306295948313637e-001
      2.1714116099098128e-002 1.4288679027409104e-001
      -6.6512026969671914e-002 -4.7777899201705894e-002
      -7.7090227074654030e-002 -7.8576845988778135e-002
      2.2257689331137107e-001 1.2201081021368089e-001
      -2.9209626915919381e-002 -6.8742034851932907e-002
      2.1518341027852844e-001 5.7262519544794707e-002
      1.6834623926865991e-001 9.3975284700182099e-002
      -1.2652577864870482e-001 1.8760903207615892e-002
      1.2196700506695630e-001 -2.1941359771213459e-001
      -1.6520546982894935e-001 -2.1448195941982706e-001
      -1.9503061538703775e-001 -1.8757897114071720e-004
      -3.6794286884894827e-003 -2.0575212034474387e-004
      4.7420932610757636e-003 -2.6441197123718741e-003
      -7.1607698675480620e-003 8.5243698820937353e-003
      -5.1425506330815057e-003 -2.9013542063624346e-003
      -1.5181555176127892e-003 7.3141600817585306e-003
      2.7752908200923266e-003 -8.2775970887698988e-003
      7.0062953570632176e-003 -6.7698456972744327e-003
      -1.2660446300298616e-003 -5.4906797797781908e-003
      -4.6434983726824997e-003 4.3238626242783993e-003
      2.5303337680231569e-003 -1.9055817683233192e-003
      -6.7562658616229787e-003 6.5066616734111493e-003
      -8.5358401487080314e-003 3.4842002949558356e-003
      5.1971284840294030e-003 2.9917140059430897e-003
      -4.1850032860237399e-003 -4.5667838462869446e-003
      8.3750970827292728e-003 6.5890034883109736e-003
      2.9344312940329598e-003 -5.7987910372475446e-003
      8.2995958804229896e-003 8.5945576128320048e-003
      2.3066950135815878e-003 -6.5414925434932828e-003
      2.2236998463993727e+000 5.9683017863704990e-001
      2.1158733944660865e-001 -3.0014525447232232e-001
      -6.2887070287171098e-001 2.1623689871649651e-001
      -1.3706531366304495e+000 -5.5989352626654873e-002
      1.2293731647894957e-001 -4.8561205504583105e-001
      -3.8807256143235436e-001 -8.9255390099562723e-002
      -2.7905735243564206e-001 2.1718753679783426e-001
      -5.1280614312674985e-002 -4.8711394468159863e-001
      1.6103099651875144e-001 3.1863331609172325e-002
      -2.6424171403789531e-001 3.7521195374442207e-001
      -6.1072943158065374e-001 2.7039121798957272e-001
      1.2075720241456234e-001 -4.7984246371756328e-001
      5.2671282416747978e-001 3.5318902374761019e-001
      -6.0167828436953608e-001 -1.6231166190199348e-001
      -2.8010953189213372e-002 -5.4785893713186307e-001
      2.4643112847113777e-001 1.6794270487709587e-001
      -1.6140574563715049e-001 -1.3236276243707509e-001
      -5.3857502407355529e-001 -1.2274337736341334e+000
      -6.4263392196323918e-002 1.4445515584217561e+000
      5.7802269914104454e-001 4.6276142870657572e-001
      -8.3804845006630646e-001 -2.2902687016011933e-001
      1.6953551436315045e-001 -9.3030014681261797e-001
      7.4527529799663594e-002 -1.6652737386663782e-001
      -1.3017883157510687e-001 -1.5022156579306384e-001
      5.4410648417512075e-001 1.8522733531251299e-002
      1.2669796030065217e-001 -5.2467611176918083e-001
      2.2099405977573533e-001 -6.3878349459171424e-002
      2.2533817613144233e-001 1.5439334713000082e-002
      -7.0376497327769072e-002 1.6234517874422794e-001
      1.3039781082085503e-001 1.0114323011091260e-001
      -1.3616889506912541e-001 -3.4062913729014234e-003
      -1.8868237241771675e-002 -4.0361461628780454e-001
      -1.7826966933915719e-001 1.1353699876449644e-001
      1.5022099349770329e-001 -2.0560609680318068e-001
      -3.9139884631208627e-002 5.4123855780124530e-001
      -9.9031017194090992e-002 -3.0870726521644602e-003
      -9.0454900397884799e-002 4.3580860297036111e-001
      -1.1368745720404174e+000 7.5226233253168195e-001
      3.8202111785708837e-001 -7.7147581864125303e-001
      -5.2894529084769015e-001 2.1725362253488908e-001
      -6.0026284144076114e-001 5.5033239491118990e-001
      -7.2741316399055500e-001 -1.8003401519957624e-001
      1.3186320697164408e-001 5.0457965395495907e-002
      1.5608357593896899e-001 -2.1481009819968838e-001
      -3.2843894114659722e-001 1.4970553995233471e-001
      2.5663159735458868e-001 1.0973257425711183e-001
      7.5500686674821627e-002 1.4003587601760747e-001
      4.4439062055652312e-001 4.4621590621898841e-002
      1.0227824562793230e-002 8.6746363423071099e-002
      6.1790471522952872e-001 1.4112941433377204e-002
      1.7583527358699086e-001 -3.2007574178574910e-001
      -1.5538775457103901e-001 2.1409876454878751e-001
      -1.2529774351404840e-001 1.1667555256987164e-001
      9.6259814949859787e-002 -9.4391690681128210e-002
      5.2537313418401521e-001 9.9405404743882916e-002
      4.2401906197988382e-001 -1.7928166566027115e+000
      1.0293871563408816e+000 -2.2586258319962060e-001
      -3.8874511308872534e-001 -1.1033615867201634e-002
      1.0395840301535372e-001 -5.1530144043345461e-001
      2.6868398003727267e-001 -2.0562834103084515e-001
      -3.6298724952060080e-001 -1.0738218007499638e-001
      -4.5226959007514428e-001 1.6098053542037269e-001
      -2.8920990949063718e-001 -2.3959425089700342e-001
      1.9551590317838086e-001 3.7738585382120221e-001
      -5.2098350247746991e-003 -1.0447352835217438e-001
      8.0710415598660534e-001 1.9970267761072999e-001
      -1.4248214382891564e-001 2.4664900793830893e-002
      8.2861498207984260e-002 5.7159273001545086e-001
      -4.3142473793723948e-002 2.1714225078549879e-002
      5.1416575709488637e-003 -3.4858380421192892e-001
      -4.3627322340340675e-002 -8.8811806626922718e-001
      5.3035179201114202e-001 3.1070483463665222e-001
      -1.1773600720071464e-001 2.2862577892429412e-001
      3.6280548151616376e-001 3.5502680822691335e-001
      -1.7533280566506282e+000 6.0459369626151904e-001
      -4.6919367172248910e-001 -9.4208871011636178e-002
      1.0938720386181461e-001 -2.3274499585022748e-001
      -2.5469145916821673e-001 -1.1001797553986207e-002
      -3.0756621283635599e-001 -9.7621020470166450e-002
      -2.1513483749700640e-001 -5.1801697484066223e-001
      6.4852486625341155e-001 -1.7761627265345428e-001
      -7.4837017613513301e-002 2.8025641615106095e-001
      2.1247900518071983e-001 -8.1267146335869914e-002
      -6.5447455491654039e-001 6.8260420663558419e-001
      -2.9442359252783573e-001 -2.5555033517862741e-001
      1.6691681085408086e-001 1.9046906454862074e-003
      6.8319089141513878e-001 -1.5194781393863441e-001
      9.8511115581511058e-002 1.1112024010148408e-001
      -2.5054822746472399e-001 -2.3134005375672106e-001
      -7.9322145573801350e-001 3.2179153133569888e-001
      1.0589365942257777e-001 -3.2092847227971538e-002
      2.2467029760844186e-002 4.5250809703102851e-001
      5.8516488865342220e-002 -2.2274983116516385e+000
      -1.9444397863936991e-001 3.8440951933350266e-002
      3.9976683292572507e-001 4.7870817804875765e-001
      -1.4479831020458830e-001 -7.7221533093361744e-002
      5.4812574621295407e-001 3.8154872194109520e-002
      -3.7078404401865145e-001 1.6426775978628416e-001
      -3.8659851749343760e-001 6.2298658463959289e-001
      -2.3587353466739377e-001 4.5505641399491009e-001
      3.6002856067538980e-001 5.5884658107814411e-001
      -2.6714747739457572e-002 -4.7666040654422864e-001
      3.6451053249113491e-001 -5.5791751730660022e-001
      -8.4975900421509890e-002 7.0040496464798874e-002
      -1.7700347782612494e-001 3.9675267944509091e-001
      -3.8761084884648378e-001 -1.2055938798220919e-001
      3.5079189376293840e-001 -2.3533178417190068e-001
      -1.0636889858366524e-001 -7.3400822787958853e-001
      -1.5027118451922225e-001 -4.0310409460382612e-001
      -8.0514567763847661e-002 1.8277126284542278e-001
      4.0022840622566286e-001 -2.9241643975392233e-002
      3.1559620264875993e-001 -7.2365263032095062e-001
      3.4635508761899809e-002 3.5394925658329260e-002
      3.0703011620176712e-001 6.4250727015130071e-002
      -6.1632224269716329e-001 4.9631812545263065e-001
      -5.2616242605448815e-001 -8.6898245479391933e-001
      1.0552535042111141e-002 1.3195351110606751e-001
      6.6669410284364328e-001 -5.8771994434481467e-001
      2.4378274273291048e-001 5.3091195835888129e-003
      9.6021240589118637e-002 2.3105333558590185e-001
      -6.5244893781133995e-001 2.7367634734214030e-001
      -5.2671868143419187e-001 -2.9505751321502488e-002
      9.7692495275966171e-002 -8.9752616084164370e-003
      2.5297144750374606e-001 -2.8272803358321097e-001
      -4.3785828658506221e-002 5.7579667500791687e-001
      -1.5786208114789357e-001 1.5356589604711269e-002
      -5.5051265631304058e-001 9.6999521475295974e-002
      -3.4764232020027225e-001 -1.4457202294864574e-001
      2.8990713318007916e-001 4.8400584782233830e-001
      4.7923116221348461e-001 1.8798816895555652e+000
      -5.2609295532137190e-001 -6.4103129312247514e-002
      -2.0194926031224600e-001 7.0169109766119050e-002
      3.7688899715196310e-002 -5.9912091104421072e-001
      5.9487930481060547e-002 -1.3809666598300921e-001
      -4.7182199442468187e-001 9.9492222891582799e-002
      2.3171679099986342e-001 3.1238467163637856e-001
      -5.0946114357721284e-001 -1.2765055343377629e-001
      -7.3107168679886217e-002 -1.5187493941918340e-001
      5.4466867641644760e-002 -4.3210854425675699e-001
      1.0428002169650091e-003 1.9208446036086030e-001
      2.1840285178579697e-002 -9.4399600473834295e-003
      -1.0651205519260591e-001 -3.2292033467833166e-002
      4.2586979464883420e-002 1.9688373824459240e-001
      2.5629930426645076e-001 -8.0665641786805520e-002
      -6.5101907188398062e-002 -1.9345358912289826e-001
      3.5437361432032327e-001 -2.7682771537710688e-001
      -1.4004795430562603e-001 3.2656953761861712e-001
      4.8859824116783501e-001 5.9550453990099166e-002
      -5.3736130079684863e-001 -2.3365063686786386e-001
      2.2374459030953402e-002 -7.9222309557166221e-002
      -1.3599512586179410e-002 7.9883152006429828e-002
      -6.7056603331775363e-002 -5.3598720645721708e-002
      7.2127847970453754e-002 -1.0167106613674970e-001
      7.6082491686970373e-003 -1.0629447404379311e-002
      3.6396706505158555e-002 -1.2632379468035565e-001
      5.0736623128173237e-002 -1.6287576674715368e-001
      -1.1407193589692882e-001 -5.3201675096177854e-002
      -1.0496892616952413e-001 -5.4037115709116547e-002
      8.4532406253402401e-002 -5.4436892535227412e-002
      -4.3115860790410264e-002 -9.3477316834541760e-002
      -1.5949357123127408e-001 4.1556279267127336e-002
      -2.5359178888139794e-001 4.2016139987353686e-002
      -5.0669384640585347e-002 -3.5679941815351342e-002
      1.1641208992593290e-001 5.6211976159272398e-002
      -3.2332297108350213e-003 2.4352917341968550e-001
      1.3002297016628830e-001 2.4549587454165483e-001
      1.4007859728940311e-001 2.1760925059867806e+000
      1.6896654959047130e-001 5.7116120381036486e-002
      6.8449217039718097e-002 6.6169063451265248e-002
      8.0215353629504840e-002 -9.7939282513660828e-004
      -1.6729358546304937e-001 -2.3642541945160175e-001
      -3.8732392411507430e-002 -7.5310709206492063e-002
      2.3831172853209520e-001 -9.7363315877399007e-002
      1.6894574941178597e-001 -9.0593491209673305e-002
      2.5986794762531218e-001 -6.0094713067759126e-002
      1.8303611692484317e-001 -8.9539606814556957e-002
      7.6758406724746944e-002 -4.8757512309285295e-002
      -6.7739844392678605e-002 3.0043955276181600e-001
      1.6633266013508882e-001 7.4581370367200903e-002
      -4.6202575927182250e-002 2.7733953500382758e-001
      9.4908813931709468e-002 2.3301524629158937e-001
      2.0984089909844256e-001 -1.6980684088911446e-001
      -1.5263564501669077e-001 1.6040423647871119e-001
      -2.9219812764059744e-001 -2.4036797019893086e-001
      -2.7761791456035811e-001 -2.5617636086200352e-001
      2.3922312552228608e+000 1.2920034046395909e-001
      1.3611735268946332e-001 3.4495473071497129e-001
      9.5377103348379330e-002 1.0902452678766981e-001
      2.6967251149669514e-002 -1.3921650723595058e-001
      -2.4129033315140738e-001 -2.3743491083497929e-002
      1.2782944666652961e-002 2.3646303222683335e-001
      -5.4708264284022728e-002 1.5012007587739867e-001
      -8.3868285387641267e-002 2.6477340634033769e-001
      3.1405624974699224e-002 1.8686964517361118e-001
      -7.6880385913316460e-002 9.2539477526655270e-002
      -1.5938407561378407e-002 -1.1832884891166237e-001
      3.1713904629734202e-001 1.7648236163404046e-001
      2.8813409645724260e-002 -3.9152180565488005e-002
      2.8505443926968566e-001 9.6352702503947715e-002
      2.3427610779306493e-001 1.8563271963402192e-001
      -1.6719839487512636e-001 -1.5427713936905665e-001
      1.6756603030455788e-001 -3.0185277707657809e-001
      -2.3195152979424707e-001 -2.8172277655093853e-001
      -2.6211446654417619e-001 3.6044328584657919e+000
      9.0284713726606319e-002 9.0504144907900694e-002
      1.3490109340335184e-002 1.5930605908988593e-001
      -3.1698809786493909e-001 -1.2915627995409928e-001
      -9.2379025521474742e-002 -2.8527040724595015e-001
      3.8242267680781143e-002 5.2886417995450935e-002
      2.7884353452746791e-001 -5.1415178331924327e-002
      1.3445412350856562e-001 -4.9420935175481580e-002
      3.0870070699833374e-001 8.5799897922012661e-003
      2.3684826708677484e-001 -1.1818780341234238e-001
      -9.4368850522259962e-002 -1.3806060133037656e-001
      -1.0971953898876702e-001 3.6284115360544666e-001
      1.9851517434187790e-001 -8.8848428889993267e-002
      -1.0942470818377603e-001 3.3342039124281103e-001
      1.0126712902289940e-001 2.7508939932778148e-001
      2.0291745371122105e-001 -1.9821909853552877e-001
      1.0438607686241015e-001 1.9468423300410878e-001
      -3.4289601426813870e-001 -2.7226354592403446e-001
      -3.3219694141033984e-001 -3.0828289224649780e-001
      4.2781074447570342e+000 1.5768453545771341e-001
      1.3976194322327282e-001 4.1299809523803258e-002
      1.8855997120235329e-001 -3.7009091449532572e-001
      -1.3927744353430010e-001 -1.3452845793501891e-001
      -3.0667259383019335e-001 7.6051816416108406e-002
      7.6563112268307849e-003 3.0733710475037923e-001
      -4.9679071300046083e-002 1.4044460775633902e-001
      -5.2417277961467987e-002 3.4197132006636771e-001
      3.5606188972988798e-002 2.4706517173277864e-001
      -1.4094016352149369e-001 -1.0044806445640227e-001
      -1.8402988661090172e-001 -1.4220891041153838e-001
      4.0847115788608673e-001 2.2190425895147076e-001
      -7.1003724779637317e-002 -1.3153099868558341e-001
      3.7650892493276689e-001 1.2904315069254585e-001
      3.0934920665136162e-001 2.0651996254250918e-001
      -2.1728178000746332e-001 1.5935464878851116e-001
      2.2829112966246734e-001 -3.8178045079873507e-001
      -3.0057761785840109e-001 -3.8025113399693022e-001
      -3.5250264667169739e-001 1.7399463673479403e+000
      2.7335268432795011e-002 4.9204252899196194e-002
      3.6194573516273539e-003 1.0460325218955220e-001
      -2.0884293899897549e-001 -7.3202781830403130e-002
      -3.4296710588045717e-002 -1.8541642012278936e-001
      4.5235489821829594e-002 1.6996774109895037e-002
      1.7823518822482715e-001 -4.6292379241854665e-003
      8.2268792524246279e-002 -3.4961129282700350e-002
      2.0392628101914487e-001 1.7472316590888697e-002
      1.4118810355342853e-001 -6.5140073413701080e-002
      -5.3351818888107500e-002 -6.4624986061702222e-002
      -6.7740045382819289e-002 2.3057671889996270e-001
      1.2557486222150391e-001 -4.6785572320413374e-002
      -6.9711857781333805e-002 2.1629343083849170e-001
      5.0599502992641140e-002 1.6230796900487379e-001
      1.0095346105224551e-001 -1.3133694309676611e-001
      9.8749583933776582e-003 1.1960821829544321e-001
      -2.1487557852813860e-001 -1.6568681100066635e-001
      -2.0645629581221478e-001 -1.9750405547767225e-001
      1.5082630382264345e-003 -2.0521534706377477e-003
      -3.5763383531350846e-003 6.1647195166164926e-003
      5.8562583910285269e-003 2.4622992036320286e-003
      4.7657458710711042e-003 -2.6203277324023120e-003
      -5.4730418110927300e-003 -6.6038493113459963e-004
      7.9130567508434602e-003 -2.7113952424751078e-003
      7.7992408097498980e-003 -8.2354976391029108e-003
      5.3016548676854056e-003 3.7686754385707040e-003
      8.6903117356859384e-003 -3.7684158446663831e-003
      -7.7829062705648050e-003 -7.0289078393930820e-003
      -4.4313420888958078e-003 -4.7419859152837279e-003
      7.0039987644118394e-003 -5.1594225505564055e-003
      9.8343760275446308e-004 8.1456470998134776e-003
      7.1648469708208865e-004 6.4058117398684685e-003
      -1.2927363933808427e-003 -3.5406510314373724e-003
      -7.3852085247539355e-003 7.8383632471248216e-003
      7.8903404750858084e-003 -3.4545298117000353e-003
      -5.2208801970195480e-003 -3.9173725984438818e-003
      3.1336895023362688e-003 1.0386044753551260e+000
      4.2626118606771723e-001 3.1424017149411204e-001
      3.1328990779015860e-002 -2.3607258221611033e-001
      1.0218198945376110e-001 -9.7208099221033317e-001
      -9.0055448257721729e-002 1.8480515688665611e-001
      -5.1414712358273185e-001 -3.9110574243310436e-001
      -2.2206795449199146e-001 -2.0588211960307062e-001
      2.6814216363110593e-001 2.4370167702107501e-001
      -4.9483771811149357e-001 3.7965564130274393e-001
      -3.8059790288645257e-002 -4.4383997639851380e-001
      3.5681855445552399e-002 -6.1580245581018589e-001
      4.2807578693616927e-001 6.3629383928324262e-002
      -6.8702280936596560e-001 3.3092094899354896e-001
      3.6515711595305667e-001 -3.8149611392815158e-001
      5.8338689337753206e-002 -1.7520441007252788e-001
      -4.8580869936220722e-001 3.4007757281999618e-001
      3.1748990281129562e-002 -4.6756544086515522e-001
      4.4751750517192060e-002 -4.5892070395762857e-001
      -8.1374499105496323e-001 -1.9674357795432534e-001
      8.5670632280417625e-001 2.7552861907452358e-001
      4.1851641302592968e-001 -3.2595927283969323e-001
      1.7063291628352420e-001 8.8638789751747299e-002
      -6.6947853058115381e-001 -1.2542485927061242e-001
      -3.3114993177700475e-001 -2.3152903686037529e-001
      -1.9681948065742191e-001 2.9392218866378450e-001
      1.2077065373321776e-001 1.1891798749876561e-001
      -1.0708009524968153e-001 2.5021528592646308e-002
      -9.7600871415811183e-002 1.6634169049152225e-001
      -2.5041831481188842e-001 -3.3441280801261636e-001
      -4.8859258384401479e-002 3.7312524720789780e-001
      6.8473632570179729e-002 -3.4124002688448968e-001
      -1.5439711270585588e-001 -1.2187986130405726e-001
      -3.0332439594842969e-001 8.5432483486178545e-002
      -3.5414976692429836e-002 4.9956438397021019e-002
      -3.1409406743860235e-001 -3.2215938976821340e-001
      1.1972078609098377e-001 7.3525471186757438e-003
      -6.6235765259383669e-002 1.5154808161314851e-001
      1.2172070407395284e-001 -1.1011326202215037e+000
      3.1287431083226497e-001 2.1396609998455665e-001
      -3.4672963427048481e-001 -9.9817003115104844e-002
      2.3376277355928082e-001 -1.8607417300881615e-001
      3.2921334237725408e-001 -7.4319503534419706e-001
      -6.2710190182768744e-002 5.7069231282393329e-002
      -2.2522542679459631e-001 4.7868833436659020e-001
      -3.4947356030725685e-001 -7.6139161913406084e-002
      4.9185996707723313e-002 -7.7868101882718171e-002
      2.8636279989147462e-002 2.0107292344417502e-001
      3.0117839130468598e-002 2.9257462613403629e-001
      5.4698806027461432e-002 -4.6821468433300636e-002
      2.2783942698436047e-001 5.2727156977586997e-001
      -3.2073689673050931e-001 1.1569314133998826e-001
      -4.9680771871350740e-002 -2.4125971508585714e-001
      1.7866249154058494e-001 -2.7030975279775269e-003
      -7.0509722579894532e-002 -5.0621447007493374e-002
      2.7457345539549996e-002 5.2090991643693807e-001
      1.7554621798499592e-001 8.6261777074611398e-002
      -1.8692591563077734e+000 5.3400625255364287e-001
      -3.6863877871131551e-001 -1.6007823738819971e-002
      2.5675651740139460e-001 7.2467718485357449e-002
      6.7984863321016858e-002 5.1182860994600420e-002
      -7.8982218753610750e-002 1.4599670945693630e-001
      -7.7862590959388314e-002 -6.4556312464065713e-001
      3.8833184549439359e-001 -3.9732570142041845e-001
      -1.0544771686409962e-001 5.9799112616470827e-002
      -2.3826787440556391e-001 -1.6326628470281174e-001
      2.2538353884176099e-001 6.1573811347206664e-001
      1.2473823256649068e-001 -2.2348257415222733e-001
      -4.5498381742652874e-002 3.7924570555553916e-001
      4.4385510039477316e-001 -1.5814407402512812e-001
      2.6457163121552101e-002 8.5216287193191381e-002
      -3.8506988757259086e-001 -1.4955055534487763e-001
      -3.4131967506875488e-001 1.8764770903215580e-001
      3.4988429119051845e-001 3.6249348134951898e-002
      1.5145369866457695e-001 4.3695347549503910e-001
      1.2211559819151632e-001 -1.2432736463144780e+000
      2.9298811230608435e-001 -6.1051160727497278e-001
      -4.0349243229299434e-002 1.8233876417909248e-001
      -1.5804803474067858e-001 2.3593279761319591e-001
      -2.3292270403761747e-001 -1.8593415814377713e-002
      4.2125401453853806e-001 -1.2881347896930587e-001
      -6.2630668925256983e-001 6.0284921952680970e-001
      -2.9725693439655687e-001 -1.5937558136964761e-001
      1.6413437265244604e-001 -5.6712176938079351e-001
      -2.1252866345833665e-001 -5.9686361798950330e-002
      5.7964097518978108e-001 -2.3133713437751033e-001
      -3.4919479825179461e-001 1.1946450365193623e-001
      4.8471659008413076e-001 5.0392515739114352e-001
      -9.5130350046344556e-002 -2.9928890414859771e-002
      -4.6388694578544762e-002 -2.3339756911183773e-001
      -3.8759652200745304e-001 -1.6260139546344293e-001
      3.3530223229560049e-002 4.3705540787512748e-001
      -1.4436803848297210e-003 3.3415834274097632e-002
      2.8964493554155879e-001 3.5701873923355651e-002
      -1.2709660073601015e+000 -1.1031230427312763e-001
      -1.2700148274698969e-001 1.8470582749980186e-001
      3.4651723010583652e-001 5.2032826189827824e-002
      1.5337432502632681e-001 4.9156002894948009e-001
      3.2067031844672106e-001 1.3352140637944157e-001
      1.8249266029196634e-001 -4.4636354652943622e-001
      4.4102195350069534e-001 -4.1178124249659381e-001
      2.7055837259377918e-001 3.1273240625040466e-001
      8.7316935124691596e-003 -1.3525003682799308e-001
      3.3478146948714049e-001 3.2158810757601991e-001
      -2.3526313488496864e-001 -1.7559710561085709e-001
      -1.3508688178299474e-004 3.6771338375001739e-001
      4.4103479445890009e-001 -2.0504546559474482e-001
      -3.1880647895883013e-001 1.0092112478401348e-001
      -2.2976468199234767e-001 -2.5528131138593929e-001
      -1.7150528417605274e-001 -2.1331245715187896e-001
      1.5916316400136249e-001 -6.6567668542341557e-002
      2.0370246120371391e-001 2.2980440777723904e-001
      9.3159311443165152e-002 1.5669026883398285e+000
      -6.8411339212489020e-001 1.1285506913301840e-001
      1.0722275263257877e-002 2.4549856376548543e-001
      1.9719800044039368e-001 -4.9399890073017166e-001
      4.0803506252865385e-001 -2.0376826706557769e-001
      -4.1480256254007908e-001 2.8057384545297265e-001
      3.6292215851530923e-001 9.7479099747023207e-002
      -5.2649373553718903e-001 -2.0833760335153016e-002
      1.4946491966903760e-001 -2.7985269577265914e-001
      1.6525939526347844e-001 -1.8535337635645419e-001
      -8.4080529146520769e-002 -3.9519394186796264e-001
      1.4454472211463315e-002 8.0709161916625513e-002
      3.1212417687028138e-001 -4.3835827941613635e-002
      -1.5268579109779712e-001 -8.8424866227475807e-002
      2.3994796230475049e-001 4.1388262098169440e-002
      1.1190993419891856e-001 -2.1938620580359472e-001
      -1.4950417514401138e-001 4.0304750256972784e-002
      -1.6992523120497466e-001 1.8665910520113677e-001
      2.7657282915540549e-001 5.3265426393147097e-001
      3.3317210576900091e+000 -8.5568969959905683e-001
      -1.0794694800702476e-001 -1.9071893745570875e-001
      5.7021211527054486e-002 1.6470053089211581e-001
      -4.7645975540467517e-001 -3.7456403524601645e-001
      3.4612953321720340e-002 -6.7025999377454826e-001
      1.0930636511642730e-001 4.7653729870792272e-001
      1.1067365511125914e-001 -6.5992911928474118e-001
      -2.5581334847072840e-001 -2.4616397869079662e-001
      -8.2485575290076474e-001 4.7323150964587078e-002
      -4.9595989839974813e-001 -2.8376950547736535e-001
      7.3783452593099139e-002 1.4034494283484668e-002
      -3.9588216085629950e-002 -4.9517576277955139e-002
      -1.8616268578894096e-001 2.9042579987487924e-002
      1.8677304960094909e-001 1.9134683698804031e-001
      3.6930905245064136e-003 -2.7840928777703392e-002
      3.3096672173473057e-001 2.5861802334066669e-001
      1.8027291412611897e-002 -9.2321956596817509e-002
      3.0670657799474865e-001 4.4657733107710790e-001
      7.4626042663734848e-001 1.0258448149265112e-002
      -1.7975266120207373e-001 3.9701562450049709e-002
      -5.8204878763352397e-002 1.6201175663352715e-002
      8.9249692285639601e-002 -7.4975352902271683e-002
      -8.4774962672450188e-002 4.9738099313620346e-002
      -9.8033241849376757e-002 7.2162528454598395e-003
      6.4338531116600761e-002 1.5679357144049128e-002
      -7.5168659160157053e-002 7.0513595783470662e-002
      -1.0514064347511426e-001 -1.3368802762274490e-001
      -8.8038810296511213e-003 -1.1955763080520243e-001
      -5.4780434445055114e-002 5.0291087968285311e-002
      -6.3747083439810587e-002 -6.2389308054958776e-003
      -2.4997728868587001e-002 -1.3160239933856746e-001
      3.9274140188725964e-002 -1.5246743601288607e-001
      7.9618402766134966e-002 8.3039020466808989e-003
      2.6668148804212425e-002 9.4716787906540520e-002
      2.6190713120831790e-002 3.9788840122653997e-002
      1.6038392663205256e-001 4.6445082956362231e-002
      1.6054216356856479e-001 1.1010427662177009e-001
      2.2475404358298823e+000 1.6992905416511769e-001
      8.6379988587887674e-002 1.4958960223854689e-001
      7.6970304951542751e-002 9.0027030466129809e-002
      1.6571579847374375e-002 -1.7293715419011446e-001
      -2.4537162218654274e-001 -4.5762737217675577e-002
      -5.3004333756595912e-002 2.3643753607044729e-001
      -8.9802319208710346e-002 1.7133744735866174e-001
      -8.9695385888665560e-002 2.6086215050588590e-001
      -3.6956398016215093e-002 1.9274976659396689e-001
      -8.4024185524337769e-002 8.3401368995074721e-002
