<?xml version="1.0"?>
<opencv_storage>
<my_nn type_id="opencv-ml-ann-mlp">
  <layer_sizes type_id="opencv-matrix">
    <rows>1</rows>
    <cols>3</cols>
    <dt>i</dt>
    <data>
      330 122 61</data></layer_sizes>
  <activation_function>SIGMOID_SYM</activation_function>
  <f_param1>5.9999999999999998e-001</f_param1>
  <f_param2>1.</f_param2>
  <min_val>-9.4999999999999996e-001</min_val>
  <max_val>9.4999999999999996e-001</max_val>
  <min_val1>-9.7999999999999998e-001</min_val1>
  <max_val1>9.7999999999999998e-001</max_val1>
  <training_params>
    <train_method>BACKPROP</train_method>
    <dw_scale>1.0000000000000001e-001</dw_scale>
    <moment_scale>1.0000000000000001e-001</moment_scale>
    <term_criteria><epsilon>9.9999999999999995e-007</epsilon>
      <iterations>1000</iterations></term_criteria></training_params>
  <input_scale>
    3.5299582508311611e-002 -8.4236050842241095e-001
    2.8322590445304750e-002 -1.2554756927967885e+000
    2.2093204617423007e-002 -1.2040453713934611e+000
    1.9819873201411483e-002 -1.2896356644565261e+000
    1.9431277709525598e-002 -1.3352425324847703e+000
    1.9300837275898410e-002 -1.2255033428641331e+000
    2.1143920506237344e-002 -1.0386423750166767e+000
    2.8219185483210344e-002 -8.1112133312393087e-001
    4.1031413980880338e-002 -5.0172030585852234e-001
    7.4951986682661592e-002 -2.2503823842808759e-001
    8.1941363272144171e-002 -1.4637179028083191e-001
    6.9266167986172772e-002 -1.5823994566602745e-001
    9.0038248476502006e-002 -1.1083291637370332e-001
    1.3407405503474318e-001 -8.8274506776495260e-002
    7.0022811152301567e-001 -6.6119536021613856e-002
    1.7501604142727487e-002 -1.2105424672093530e+000
    1.8723056911479671e-002 -2.2445237801505518e+000
    1.5741721980761417e-002 -1.6262294715800951e+000
    1.5926792288451178e-002 -1.5069898028088722e+000
    1.6286941442070071e-002 -1.4955224445851376e+000
    1.4939988052435852e-002 -1.3880441523399349e+000
    1.4142767886256551e-002 -1.3616042128264390e+000
    1.4752640612089734e-002 -1.1246812597888396e+000
    1.9330295449425439e-002 -6.3788745915304901e-001
    3.6491232897193755e-002 -2.5359038411053281e-001
    4.7831099206552569e-002 -1.5840904477432219e-001
    3.8704190473544627e-002 -1.6455522596546737e-001
    5.4143031926635367e-002 -1.2063331851110483e-001
    6.2060017290222563e-002 -1.0517332428295405e-001
    1.7729958225103504e-001 -8.2371676578441591e-002
    1.5484117825551789e-002 -1.5184908050601178e+000
    1.6770483063239437e-002 -2.6274280769105487e+000
    1.6370985011079642e-002 -1.4764157092286365e+000
    2.0459137884561839e-002 -1.1798110481165183e+000
    2.1663907828256269e-002 -1.0917939258446547e+000
    1.7814902541617005e-002 -1.0412705795080595e+000
    1.3119497123149429e-002 -1.2433351373910038e+000
    1.2075317921825130e-002 -1.3041502048794398e+000
    1.5131734162722951e-002 -7.5890227854953840e-001
    3.3508784112212073e-002 -2.8571006725950071e-001
    4.8214340505840607e-002 -1.4806774430986394e-001
    3.9472681686065658e-002 -1.4819732762051749e-001
    5.9715697737502439e-002 -1.1510455550325231e-001
    4.5328468362477489e-002 -1.1141037949039796e-001
    9.1507299357861546e-002 -8.6878384194946506e-002
    1.4126179189306384e-002 -1.5273367457236016e+000
    1.3770608411880544e-002 -2.0533400738708560e+000
    2.1275906791798724e-002 -1.1543858215662162e+000
    2.3581845997372813e-002 -6.6182792474133567e-001
    2.4320868634213011e-002 -6.1378944528743751e-001
    2.2857883880598274e-002 -6.8025178578629331e-001
    1.3829425883570532e-002 -9.9419570270081714e-001
    1.1541981106403179e-002 -1.2854135497966890e+000
    1.3656849605473562e-002 -7.9579248128479929e-001
    3.1677982107167074e-002 -2.9740921532473236e-001
    4.9376648052945248e-002 -1.2687230904236571e-001
    4.5646685124147005e-002 -1.2607296133876117e-001
    8.3863236030454522e-002 -1.0314123411374460e-001
    4.3027557229315644e-002 -1.1237012317475510e-001
    7.0644886920253641e-002 -8.9451758224951203e-002
    1.2938408223860760e-002 -1.4463757160704860e+000
    1.2931961174719077e-002 -1.8251527653763835e+000
    1.9148805233920849e-002 -9.9702742408113210e-001
    1.7396256787763086e-002 -6.3134017354478500e-001
    1.8685904510491864e-002 -6.3634266859957400e-001
    1.8058705076068875e-002 -6.5368636978084360e-001
    1.2873633695418473e-002 -9.0227803716283361e-001
    1.1448319403329837e-002 -1.2299251866668801e+000
    1.3187868686508317e-002 -7.7463935619169844e-001
    2.8539913018798369e-002 -2.9080546029296600e-001
    4.9360465846298988e-002 -1.1922824056738449e-001
    5.2909420943756801e-002 -1.1664849388805275e-001
    1.0076626133624172e-001 -9.5846470358211047e-002
    4.3329680270138414e-002 -1.1234257511023786e-001
    6.6152493983152413e-002 -9.1046618380303798e-002
    1.2404995080568769e-002 -1.3977207807013268e+000
    1.3235873968572457e-002 -1.8578067919829049e+000
    1.6708711963666464e-002 -1.0578670682843907e+000
    1.5947791914575862e-002 -7.9625063486692793e-001
    1.7505893563182960e-002 -8.1200824708298003e-001
    1.7082335154639774e-002 -8.0968287363247848e-001
    1.2534564997578011e-002 -9.3374160586486465e-001
    1.1457870594346635e-002 -1.1749852253045017e+000
    1.3498119390741383e-002 -7.3669964179137670e-001
    2.6878576710559678e-002 -2.7783142915083980e-001
    4.8865560002896297e-002 -1.1460324577139475e-001
    6.0428630374855991e-002 -1.1007066759033843e-001
    1.0293551954459108e-001 -9.5072696554254710e-002
    4.3452612634317718e-002 -1.1231651311746872e-001
    6.5621170034453308e-002 -9.1786326108496380e-002
    1.2728543706551783e-002 -1.4685723700726669e+000
    1.3952953077619037e-002 -1.9646386504408575e+000
    1.7024969891464157e-002 -1.1412508590667556e+000
    1.6602216032957695e-002 -8.8942596813775721e-001
    1.6944817908232851e-002 -8.6316572468313857e-001
    1.6933825845176543e-002 -8.6103000049582690e-001
    1.3313779578684752e-002 -9.7356973754028886e-001
    1.1674399668286430e-002 -1.1369367630083322e+000
    1.3900286496399331e-002 -7.1344021715806039e-001
    2.5985451011313814e-002 -2.7243357938886020e-001
    4.9948194635729685e-002 -1.1223283288752081e-001
    6.5645117648194862e-002 -1.0138142652615120e-001
    1.0183462667390049e-001 -9.5653117706409274e-002
    4.3456094604283992e-002 -1.1231689279889230e-001
    6.5625940921306788e-002 -9.1779980856023180e-002
    1.3065064919001883e-002 -1.5750453178714581e+000
    1.3869628597971802e-002 -1.9827300537841235e+000
    1.5669956806146877e-002 -9.9780957628841205e-001
    1.6120398453954160e-002 -7.7105981922396793e-001
    1.5819147864781894e-002 -7.3078176394675187e-001
    1.5494894379703798e-002 -7.2958393530990084e-001
    1.3369106943510765e-002 -9.5484160520562167e-001
    1.1569143819192355e-002 -1.1751093566374777e+000
    1.3660120267080553e-002 -7.4468061383293560e-001
    2.5044444474964053e-002 -2.8249937148948595e-001
    5.6997494676626487e-002 -1.1203679185023740e-001
    6.8702567386148577e-002 -9.1812420150507362e-002
    1.0003623218080226e-001 -9.6207733892737929e-002
    4.3449164047398299e-002 -1.1231621834986058e-001
    6.5625940921306788e-002 -9.1779980856023180e-002
    1.3423638696696707e-002 -1.6340491899871021e+000
    1.3912565997232024e-002 -2.0341273981140442e+000
    1.7649736496300524e-002 -1.0168593403415491e+000
    1.7606721051914111e-002 -6.9277089033149097e-001
    1.7166812430004192e-002 -6.6913638585762336e-001
    1.7729072883086606e-002 -7.5613274191245383e-001
    1.4232116261383026e-002 -1.0268921418909134e+000
    1.1426069662056620e-002 -1.2496700637776617e+000
    1.3058679381738143e-002 -7.8762053000602383e-001
    2.4088923858852675e-002 -3.0114929900605159e-001
    7.3489442696746399e-002 -1.1341305270508450e-001
    7.0479312070542297e-002 -8.1120453348375518e-002
    9.8202662674737526e-002 -9.6705380880610023e-002
    4.3445813890746747e-002 -1.1231617667609831e-001
    6.5630039915539021e-002 -9.1772694180645611e-002
    1.3763603249232538e-002 -1.5637847006637215e+000
    1.4050516821444058e-002 -2.1147280121467715e+000
    1.6492916562244934e-002 -1.1240623283000830e+000
    1.6195489021540249e-002 -8.0505372235116679e-001
    1.6665397253774736e-002 -8.3926297823762108e-001
    1.6443981425302838e-002 -8.8674220816310378e-001
    1.3098176410019724e-002 -1.0039402036194984e+000
    1.1456513555168017e-002 -1.2320500294824963e+000
    1.2694074174098142e-002 -7.8883012301089217e-001
    2.3417098054321552e-002 -3.1641367813752186e-001
    1.0174046038078692e-001 -1.1953662044372833e-001
    7.1211247458797575e-002 -7.3655144091485894e-002
    9.6365673886979100e-002 -9.7115490837528323e-002
    4.3445813890746747e-002 -1.1231617667609831e-001
    6.5629871682654051e-002 -9.1772458934939183e-002
    1.4062154574398782e-002 -1.3603547927528907e+000
    1.4792235443373243e-002 -2.1148321150968852e+000
    1.4444396665807196e-002 -1.1955404226372861e+000
    1.3846681647923692e-002 -9.5641519999991120e-001
    1.4331208901843773e-002 -9.5701572299348903e-001
    1.4335506077840902e-002 -8.8487082300420472e-001
    1.4064187344002776e-002 -9.6355485147778663e-001
    1.2512046482171999e-002 -1.1623289335712068e+000
    1.2429392736248688e-002 -7.5723458255798337e-001
    2.3573579786045417e-002 -3.2722281326674674e-001
    1.3653182024511079e-001 -1.3417263448009079e-001
    7.1460786327827888e-002 -6.6147368304022666e-002
    9.9053743335207126e-002 -9.8528651598182040e-002
    4.6342116904087301e-002 -1.1152996672890045e-001
    7.5912385916598615e-002 -9.4706009726143361e-002
    1.4404246300612412e-002 -1.1022009164151576e+000
    1.3276121501630786e-002 -1.5286767595469328e+000
    1.6337845153403613e-002 -1.0772525634461461e+000
    1.6225375135442137e-002 -8.8603461403690309e-001
    1.6490727867591329e-002 -8.2371439133287805e-001
    1.8354969958710259e-002 -7.4464551918852306e-001
    1.8936807683257322e-002 -8.6424398730854879e-001
    1.2865945315560822e-002 -9.3093055787611168e-001
    1.2999289738244633e-002 -7.0571289943006277e-001
    2.6229121417462652e-002 -3.2786227156366382e-001
    1.6283968179746236e-001 -1.4761347692535665e-001
    7.1774276617170119e-002 -6.6351119370455292e-002
    1.2171373667449044e-001 -9.6370153804206035e-002
    7.5641907367161962e-002 -1.0577262547731098e-001
    1.5670137873600479e-001 -1.0049901953055018e-001
    1.3795831912490009e-002 -8.4696389934322402e-001
    1.1271425749312591e-002 -9.9938587838035398e-001
    1.6213084157456408e-002 -7.0510948313761845e-001
    1.8510899059439555e-002 -5.9989992998582919e-001
    1.9848466175594381e-002 -5.8355654268278967e-001
    2.2399209668976322e-002 -6.0582061658195951e-001
    1.6877499525522047e-002 -6.7250643845079805e-001
    1.2011981332131267e-002 -7.0272578245039918e-001
    1.5257325323821824e-002 -6.1787256065079199e-001
    2.8191691321940521e-002 -2.7196409075373773e-001
    1.3476063751215211e-001 -1.1092615119730737e-001
    7.2359170133966449e-002 -6.4692018043837049e-002
    1.4282300049957267e-001 -7.3505817459208742e-002
    3.4765953451417692e-001 -6.4414601316453324e-002
    1.1323769352204758e+000 -5.4585914552385560e-002
    1.3752417947740195e-002 -7.5680306583478507e-001
    1.1592616719053074e-002 -8.9658095192918519e-001
    1.5806040071704351e-002 -7.4489012094098417e-001
    1.5109071099716488e-002 -6.8785590368774219e-001
    1.5347654181566502e-002 -6.8872313834711263e-001
    1.5850142752920886e-002 -6.7787679089528652e-001
    1.4475130336683848e-002 -7.0325078062582713e-001
    1.3933675194790445e-002 -6.8313996478045902e-001
    1.9560202119632976e-002 -5.4438199935928067e-001
    2.8035100054176369e-002 -2.3287552650364585e-001
    9.7268519437428244e-002 -1.1153556079502638e-001
    7.2941142479665599e-002 -6.4748954764387315e-002
    1.3952040025009244e-001 -6.4058136639596960e-002 1. 0. 1. 0.
    1.9526739984901158e-002 -6.8073986853111845e-001
    1.6007182629322905e-002 -7.4681901785783811e-001
    2.0815487159711755e-002 -6.2471087538917369e-001
    1.8274774754730275e-002 -6.0440623354446676e-001
    1.8076408682561627e-002 -6.1574041108188227e-001
    1.9053434859691132e-002 -5.9770600340836921e-001
    2.0173060217031715e-002 -6.0613285223080848e-001
    2.1709433958525964e-002 -5.6000445119432374e-001
    2.9728355725588861e-002 -4.1710825076175567e-001
    4.1647938696707319e-002 -2.1456294846357496e-001
    1.2494723528128621e-001 -1.1147002176651254e-001
    1.0890324597252252e-001 -6.4592071113815847e-002
    2.0281305560411753e-001 -6.4050862757290064e-002 1. 0. 1. 0. 1. 0.
    1. 0. 1. 0. 1. 0. 1. 0. 1. 0. 1. 0. 1. 0. 1. 0. 1. 0. 1. 0. 1. 0. 1.
    0. 1. 0. 1. 0. 1. 0. 1. 0. 1. 0. 1. 0. 1. 0. 1. 0. 1. 0. 1. 0. 1. 0.
    1. 0. 1. 0. 1. 0. 1. 0. 1. 0. 1. 0. 1. 0. 1. 0. 1. 0. 1. 0. 1. 0. 1.
    0. 1. 0. 1. 0. 1. 0. 1. 0. 1. 0. 1. 0. 1. 0. 1. 0. 1. 0. 1. 0. 1. 0.
    1. 0. 1. 0. 1. 0. 1. 0. 1. 0. 1. 0. 1. 0. 1. 0. 1. 0. 1. 0. 1. 0. 1.
    0. 1. 0. 1. 0. 1. 0. 1. 0. 1. 0. 1. 0. 1. 0. 1. 0. 1. 0. 1. 0. 1. 0.
    1. 0. 1. 0. 1. 0. 1. 0. 1. 0. 1. 0. 1. 0. 1. 0. 1. 0. 1. 0. 1. 0. 1.
    0. 1. 0. 1. 0. 1. 0. 1. 0. 1. 0. 1. 0. 1. 0. 1. 0. 1. 0. 1. 0. 1. 0.
    1. 0. 1. 0. 1. 0. 1. 0. 1. 0. 1. 0. 1. 0. 1. 0. 1. 0. 1. 0. 1. 0. 1.
    0.</input_scale>
  <output_scale>
    5.2631578947368418e-001 4.9999999999999994e-001
    5.2631578947368418e-001 4.9999999999999994e-001
    5.2631578947368418e-001 4.9999999999999994e-001
    5.2631578947368418e-001 4.9999999999999994e-001
    5.2631578947368418e-001 4.9999999999999994e-001
    5.2631578947368418e-001 4.9999999999999994e-001
    5.2631578947368418e-001 4.9999999999999994e-001
    5.2631578947368418e-001 4.9999999999999994e-001
    5.2631578947368418e-001 4.9999999999999994e-001
    5.2631578947368418e-001 4.9999999999999994e-001
    5.2631578947368418e-001 4.9999999999999994e-001
    5.2631578947368418e-001 4.9999999999999994e-001
    5.2631578947368418e-001 4.9999999999999994e-001
    5.2631578947368418e-001 4.9999999999999994e-001
    5.2631578947368418e-001 4.9999999999999994e-001
    5.2631578947368418e-001 4.9999999999999994e-001
    5.2631578947368418e-001 4.9999999999999994e-001
    5.2631578947368418e-001 4.9999999999999994e-001
    5.2631578947368418e-001 4.9999999999999994e-001
    5.2631578947368418e-001 4.9999999999999994e-001
    5.2631578947368418e-001 4.9999999999999994e-001
    5.2631578947368418e-001 4.9999999999999994e-001
    5.2631578947368418e-001 4.9999999999999994e-001
    5.2631578947368418e-001 4.9999999999999994e-001
    5.2631578947368418e-001 4.9999999999999994e-001
    5.2631578947368418e-001 4.9999999999999994e-001
    5.2631578947368418e-001 4.9999999999999994e-001
    5.2631578947368418e-001 4.9999999999999994e-001
    5.2631578947368418e-001 4.9999999999999994e-001
    5.2631578947368418e-001 4.9999999999999994e-001
    5.2631578947368418e-001 4.9999999999999994e-001
    5.2631578947368418e-001 4.9999999999999994e-001
    5.2631578947368418e-001 4.9999999999999994e-001
    5.2631578947368418e-001 4.9999999999999994e-001
    5.2631578947368418e-001 4.9999999999999994e-001
    5.2631578947368418e-001 4.9999999999999994e-001
    5.2631578947368418e-001 4.9999999999999994e-001
    5.2631578947368418e-001 4.9999999999999994e-001
    5.2631578947368418e-001 4.9999999999999994e-001
    5.2631578947368418e-001 4.9999999999999994e-001
    5.2631578947368418e-001 4.9999999999999994e-001
    5.2631578947368418e-001 4.9999999999999994e-001
    5.2631578947368418e-001 4.9999999999999994e-001
    5.2631578947368418e-001 4.9999999999999994e-001
    5.2631578947368418e-001 4.9999999999999994e-001
    5.2631578947368418e-001 4.9999999999999994e-001
    5.2631578947368418e-001 4.9999999999999994e-001
    5.2631578947368418e-001 4.9999999999999994e-001
    5.2631578947368418e-001 4.9999999999999994e-001
    5.2631578947368418e-001 4.9999999999999994e-001
    5.2631578947368418e-001 4.9999999999999994e-001
    5.2631578947368418e-001 4.9999999999999994e-001
    5.2631578947368418e-001 4.9999999999999994e-001
    5.2631578947368418e-001 4.9999999999999994e-001
    5.2631578947368418e-001 4.9999999999999994e-001
    5.2631578947368418e-001 4.9999999999999994e-001
    5.2631578947368418e-001 4.9999999999999994e-001
    5.2631578947368418e-001 4.9999999999999994e-001
    5.2631578947368418e-001 4.9999999999999994e-001
    5.2631578947368418e-001 4.9999999999999994e-001
    5.2631578947368418e-001 4.9999999999999994e-001</output_scale>
  <inv_output_scale>
    1.8999999999999999e+000 -9.4999999999999996e-001
    1.8999999999999999e+000 -9.4999999999999996e-001
    1.8999999999999999e+000 -9.4999999999999996e-001
    1.8999999999999999e+000 -9.4999999999999996e-001
    1.8999999999999999e+000 -9.4999999999999996e-001
    1.8999999999999999e+000 -9.4999999999999996e-001
    1.8999999999999999e+000 -9.4999999999999996e-001
    1.8999999999999999e+000 -9.4999999999999996e-001
    1.8999999999999999e+000 -9.4999999999999996e-001
    1.8999999999999999e+000 -9.4999999999999996e-001
    1.8999999999999999e+000 -9.4999999999999996e-001
    1.8999999999999999e+000 -9.4999999999999996e-001
    1.8999999999999999e+000 -9.4999999999999996e-001
    1.8999999999999999e+000 -9.4999999999999996e-001
    1.8999999999999999e+000 -9.4999999999999996e-001
    1.8999999999999999e+000 -9.4999999999999996e-001
    1.8999999999999999e+000 -9.4999999999999996e-001
    1.8999999999999999e+000 -9.4999999999999996e-001
    1.8999999999999999e+000 -9.4999999999999996e-001
    1.8999999999999999e+000 -9.4999999999999996e-001
    1.8999999999999999e+000 -9.4999999999999996e-001
    1.8999999999999999e+000 -9.4999999999999996e-001
    1.8999999999999999e+000 -9.4999999999999996e-001
    1.8999999999999999e+000 -9.4999999999999996e-001
    1.8999999999999999e+000 -9.4999999999999996e-001
    1.8999999999999999e+000 -9.4999999999999996e-001
    1.8999999999999999e+000 -9.4999999999999996e-001
    1.8999999999999999e+000 -9.4999999999999996e-001
    1.8999999999999999e+000 -9.4999999999999996e-001
    1.8999999999999999e+000 -9.4999999999999996e-001
    1.8999999999999999e+000 -9.4999999999999996e-001
    1.8999999999999999e+000 -9.4999999999999996e-001
    1.8999999999999999e+000 -9.4999999999999996e-001
    1.8999999999999999e+000 -9.4999999999999996e-001
    1.8999999999999999e+000 -9.4999999999999996e-001
    1.8999999999999999e+000 -9.4999999999999996e-001
    1.8999999999999999e+000 -9.4999999999999996e-001
    1.8999999999999999e+000 -9.4999999999999996e-001
    1.8999999999999999e+000 -9.4999999999999996e-001
    1.8999999999999999e+000 -9.4999999999999996e-001
    1.8999999999999999e+000 -9.4999999999999996e-001
    1.8999999999999999e+000 -9.4999999999999996e-001
    1.8999999999999999e+000 -9.4999999999999996e-001
    1.8999999999999999e+000 -9.4999999999999996e-001
    1.8999999999999999e+000 -9.4999999999999996e-001
    1.8999999999999999e+000 -9.4999999999999996e-001
    1.8999999999999999e+000 -9.4999999999999996e-001
    1.8999999999999999e+000 -9.4999999999999996e-001
    1.8999999999999999e+000 -9.4999999999999996e-001
    1.8999999999999999e+000 -9.4999999999999996e-001
    1.8999999999999999e+000 -9.4999999999999996e-001
    1.8999999999999999e+000 -9.4999999999999996e-001
    1.8999999999999999e+000 -9.4999999999999996e-001
    1.8999999999999999e+000 -9.4999999999999996e-001
    1.8999999999999999e+000 -9.4999999999999996e-001
    1.8999999999999999e+000 -9.4999999999999996e-001
    1.8999999999999999e+000 -9.4999999999999996e-001
    1.8999999999999999e+000 -9.4999999999999996e-001
    1.8999999999999999e+000 -9.4999999999999996e-001
    1.8999999999999999e+000 -9.4999999999999996e-001
    1.8999999999999999e+000 -9.4999999999999996e-001</inv_output_scale>
  <weights>
    <_>
      9.4387367517091576e+000 4.1721671165313112e-002
      4.7039053723741681e-001 1.0706392055661103e-001
      -9.6993960060860820e-002 -3.6486335961661752e-002
      -4.8784102473045570e+000 -8.4216837459861263e-002
      2.0015383664950992e+000 2.9818720487950040e-001
      1.6346954606737260e-001 -1.0924138635631635e-001
      2.0817489436337516e-001 -2.0081990106990857e-001
      1.7597198059718760e-001 -3.0110043602258985e-001
      -1.1239931038473176e-001 -4.7070806680376269e-002
      1.4395620037095880e-001 -6.2965903101601617e-001
      -8.4997523382023710e-002 -3.5912979937135292e-001
      -2.5296748189348267e-001 -1.1934417529116999e-001
      -2.4015587557217885e-001 5.2577665736363056e-002
      1.4320549688000400e-001 -2.1610856014006516e-001
      -3.3739786868215771e-001 5.7581495674989713e-001
      1.6885343991631671e-001 2.5385703933944431e-001
      1.8044476016588433e+000 3.1735072633528832e-001
      5.4977290969683651e-002 -2.8224035173837198e-001
      1.9512138351178951e-001 -1.1420711939651043e-001
      -8.2377942181887431e-001 -8.0017030162489802e-002
      -2.6715218398301911e-002 6.0160981418458548e-002
      -3.3782559945294455e-001 -1.8968977129338105e-001
      -1.0853992446024483e+000 -2.2736762184628873e-001
      2.1345384826438515e-001 1.3713551706417461e-004
      -3.9762321044755639e-001 -3.3098687558264028e-001
      3.7874011166119820e-001 -3.1233988957843051e-001
      -3.5597600485007552e-001 -2.4645134758484729e-002
      -3.8275068876614604e-001 -4.6609660807262049e-001
      -2.0268989938710325e-001 2.8298238291062916e-001
      -1.8483775420409288e-002 -3.7311839338697063e-002
      -2.0053855084447877e-001 2.2543990755826251e-001
      3.2107412232904875e-001 -5.3362503008269169e-001
      2.6306587921532071e-001 4.1017386705139108e-001
      3.7935219693207689e-001 7.8863077719273611e-001
      2.5344919453999731e-001 -4.3229299394174536e-001
      1.2580910872342910e-001 2.2102626635640885e-001
      4.8814557685581800e-001 4.5203073800903998e-001
      -1.5905882635189100e-001 3.2240610974720335e-001
      -6.4553854609495409e-001 2.8008212024882828e-001
      -1.5794448857868990e-002 -3.0404932866203288e-001
      5.2105104264898394e-001 2.9393322656911197e-001
      4.1809788035202833e-001 8.5586379865818973e-001
      5.0667796952799398e+000 -7.0919200102438365e-002
      -1.2984506425676767e-001 -3.6424237501063716e-002
      -7.2025150863294041e-001 2.7194202066992135e-001
      2.1215975785956256e-001 -1.4712435345274408e-001
      5.8191683779149149e-002 2.1085497758145224e+000
      7.8780335245414501e-002 2.6540627192450709e-002
      1.7684831688504341e-001 5.6299759387343981e-002
      -2.6475475810271260e-001 4.9356023124984866e-001
      -5.6535374260871996e-001 2.2423279982912281e-001
      2.8460249981977076e-001 4.9042160053632051e-002
      -1.8636530060682771e-001 3.1141548392098295e-001
      2.0656516035384386e-002 4.1752197769294669e-001
      -9.5493269483231891e-002 -2.1703895991291750e-001
      -1.1375964602315650e-001 -2.1435076733359754e-001
      -1.6225162028004550e-001 -7.8725145281885414e-002
      -7.1449870988611819e-001 1.1362498140233783e-001
      4.1249914459064779e-001 1.8891642366379267e-002
      9.9986438443875891e-002 8.4051957830962074e-002
      -4.2094521307397570e-001 -4.3006434921943150e-002
      2.0768786701279613e+000 -1.5370271156973742e-001
      -1.3812095427286656e-002 1.7987440171681535e-001
      -1.1378107283467190e-001 -1.1391034749717320e-001
      -6.6423728873743726e-001 2.5486369571776896e-001
      -3.6378354404935687e-001 2.5423176690221744e-001
      -1.3499404261157805e-001 -1.3149803258361739e-001
      1.5276163583377120e-001 1.7370731995534922e-002
      -1.3790509554922064e-002 -1.9496751002755680e-001
      -2.8786504851599053e-002 1.2281513859186236e-001
      -2.2627204924985947e-002 -5.7155362036498680e-001
      4.4777039029828897e-001 9.4722526541049054e-002
      -1.0118861056007709e-001 -4.3511482958666019e-002
      -2.3716531767506213e-001 4.5474846404504908e-002
      -6.0429799950809847e-002 1.6711744997766295e-001
      1.3238461945119769e-002 -4.3098682119014259e-001
      3.6458342629822971e-001 -2.4176720273066546e-001
      -2.7783176877437499e+000 -4.0354802371288750e-001
      -4.5503411395802895e-001 5.5900581103009647e-002
      -2.1435123439369186e-001 -4.8636163992261544e-001
      -1.4793264668997932e-001 5.5589757722634275e-003
      -1.6398793240006268e-001 -2.4253840413127917e-001
      -3.6455777634824538e-001 -3.2747730042521661e-001
      -8.4981350641728681e-001 1.7886806112543516e-001
      2.8396976450156020e-001 3.6429743629180174e-002
      -9.9071462479557119e-003 1.1548375295807776e-001
      -1.4252061647866104e-001 -1.7222108631761748e-001
      -3.1902317334287084e-001 2.2622873162631444e-004
      -5.7550438353231544e-002 -2.0914944669845428e-001
      1.2114376485490241e-001 -2.9956346471187262e-001
      -3.3263914174881830e-002 1.3369057115508418e-001
      1.9694197888322468e-001 1.1466024163082397e-001
      -1.5728714015310348e-002 -9.0314959765478098e-002
      -3.0493788682327015e-002 -3.4582922517330866e-001
      1.9197858846211574e-001 2.2655258645471135e-001
      -1.7438688312688222e-001 -6.0408873003447716e-002
      1.6187667696675272e-003 -1.6668726034813411e-002
      8.8992874665338173e-002 4.9770703087549378e-001
      -2.0161052005542279e-001 5.3210791200984139e-002
      -1.2898665464732756e-001 -4.7288399168479565e-002
      -1.4076705730641842e-001 7.3063807451454008e-002
      1.9303074805954581e-002 4.0279682752144802e-002
      1.7738711684752001e-001 6.1689183209325493e-001
      3.7150078005801090e-001 2.7573587504085362e-001
      1.1528619694682497e-001 -5.9593560711645666e-001
      -1.9916667461149459e-001 -3.4786791977261178e-001
      2.0631770628926994e-002 7.3479869923095922e-002
      -1.3495507617237756e-001 -1.1796243617935100e-001
      -2.5425939002621595e-001 -5.8627482035506981e-002
      2.3104679157249339e-001 1.9524908736071961e-001
      -3.0655037080005582e-001 -9.1919954162514958e-002
      -2.7448320939437332e-001 -1.4579640186789894e-001
      4.9951745974489647e-002 -2.5377574491700239e-001
      -1.0331428318682206e-002 1.7576794544219645e-001
      -3.7870491168657100e-001 3.8752013903853727e-001
      -1.3626561067574433e-001 -1.4626173335374010e-001
      -1.6447403769912053e-001 -4.7082967708442530e-002
      -3.6390695834522695e-002 2.7419994182262714e-001
      -1.1409717834993222e-001 -1.1422056411860610e-002
      1.7545106490764642e-002 1.4664745185323833e-001
      2.7419176477512608e-001 -2.5798565760466735e-001
      2.6271640463451207e-002 8.9082102761754781e-002
      1.3980353048795349e+000 -1.3392216375023486e-001
      -4.3610219868192457e-001 -2.7068058516080545e-001
      -2.1086415554546986e-001 -4.1101997816573560e-002
      5.2781834363151747e-001 8.9211724249062957e-002
      -3.8673818428575918e-001 1.5075083802100436e-001
      2.7783084444964956e-001 9.3123364004627340e-002
      -4.1740190846532549e-002 2.0453993559478134e-001
      -1.1038673049826117e-001 -3.6497961169550103e-001
      -6.1427797259381511e-001 1.0542913617897326e-001
      -1.7725968667068934e-001 1.8607374309993979e-001
      9.8704626830531078e-002 2.8431403991035470e-001
      4.4115207816222177e-002 -2.4469800785736126e-001
      -2.6369548354681965e-001 -1.2494710825458906e-001
      -2.7566514651665863e-001 3.5745327444954611e-001
      -3.7415786566232366e-002 3.6129272034856891e-001
      -1.2502187372225387e-001 2.8650497100173333e-003
      2.2278783553064402e-001 -2.6392581130130116e-001
      -1.1140441924105314e-001 2.7885358600846721e-001
      2.7046599661049636e-001 -9.6242170160347945e-002
      2.7520487408590322e-001 -4.7205660976709779e-002
      -2.3654970082880941e-001 -1.1973508155342760e-001
      1.5144833079202444e-001 2.8263448871469998e-001
      -2.5973554751368438e-001 2.3802727246701011e-001
      2.1046314197367888e-001 -1.2510755674193796e-001
      5.4238212675311703e-001 -1.4255741091138602e-002
      5.3829090534709079e-002 3.1526761877868870e-001
      -1.1599699074727811e-002 -1.6602437500173831e-001
      -6.3055826292994874e-002 1.7672989967026226e-001
      4.9658041093728483e-002 -4.4413467540688638e-002
      -2.7530340275881504e-001 1.4522575897336945e-002
      1.7442011149884612e-001 1.4463952166223565e-001
      3.8146067005168691e-002 7.3274042407733142e-001
      -2.9066732355337455e-001 -4.0411152534057021e-001
      2.0127543803063330e-001 -3.4043266245299762e-002
      1.2185694245437802e-001 1.3825129709060779e-001
      3.3003536099796799e-001 1.5042695895384522e-001
      1.5873446847000462e-002 -1.4665514924007747e-001
      -4.0890129842369553e-002 3.1130033543679558e-001
      2.0123385856693324e-001 -1.4712525384773820e-001
      2.1921762048217006e-001 -6.6416658168579709e-002
      2.7162757204437938e-002 -7.4466429341856807e-002
      -1.9167340314350326e-001 -5.2448213844396206e-002
      -1.2918081450600845e+000 5.8206399999203318e-001
      2.3734229766486850e-001 1.6030630551811878e-001
      2.5962761260838751e-001 -3.7801241548229531e-001
      1.9658381493334751e-001 2.2430903716857320e-001
      -3.0741760707680432e-001 -9.3958738478150866e-002
      -1.1390338207291720e-001 8.8121391178706279e-002
      -5.5925204460341375e-002 1.0106830655098983e-001
      -1.3244038386879639e-001 3.8508144080869368e-002
      2.5319044227595311e-001 -1.9898037107316377e-001
      1.2794614265452087e-001 -1.5776912548317737e-001
      1.5497965827446539e-001 -5.7667875306166394e-001
      -6.8593755379494886e-002 -8.4645338168190379e-002
      1.0778614276921440e-002 -1.7428801941314911e-001
      4.9213370214143737e-002 -4.2307933851329449e-001
      7.0400014268628880e-002 4.4008132690876084e-001
      2.2630247167888301e-001 9.4549196493119894e-002
      1.9080920592427483e-002 4.3335142569784109e-002
      1.0509428476092951e-001 -2.6582513577152272e-001
      3.9955778946091203e-001 -1.1942829873063612e-001
      4.8588911990867462e-001 9.6755757182911503e-002
      -1.7019102049660000e-002 -9.6534345704677574e-002
      8.6078316878215391e-002 2.2570856653291091e-001
      2.0598028988217260e-001 3.6171613794707437e-002
      -2.2144507001199534e-001 -1.6987748325532245e-001
      2.4612939559784530e-001 3.9807840344116881e-003
      -7.8355482550723169e-003 -9.1159770678715904e-002
      2.1047909422578931e-001 4.2658421672564575e-002
      4.4677473995159610e-002 -1.2094377436542399e-001
      -1.2643058378770913e-001 3.3557300420828662e-001
      -1.4048294009729462e-001 2.0659846410574792e-001
      1.0343222274438570e-001 -3.0499101678505347e-001
      -5.1384140822785578e-002 1.0811703558771603e-001
      -1.6967052102331059e-001 3.6810357734809299e-002
      -2.0664498907694028e-003 4.1430791835994596e-001
      3.5887008199366027e-001 -2.5172465578049068e-002
      1.9005580945330766e-001 5.8009042913536098e-002
      1.4066342335489346e-001 2.5999035337492249e-001
      2.3740417123049903e-001 2.8486000809767492e-001
      1.1513938336180982e-001 -8.4074695784297632e-002
      -4.8623668435370099e-001 6.6271395232474106e-002
      9.5018414149205213e-002 3.2764724941464485e-001
      -8.1837615825142915e-002 -7.5436923584255744e-002
      5.6320763632764226e-003 -2.9101414280241905e-001
      2.2186895692032602e-001 -4.7703549193780038e-002
      -1.1893394296068024e-002 1.1111817592830835e-001
      7.3925303302034034e-002 -3.7517106924885912e-001
      6.2920894637451236e-002 1.7580835190961985e-001
      1.3217135182840406e-001 -4.3809921805708078e-002
      -6.2791563564457809e-002 6.9903321863761586e-003
      1.3683609899372870e-001 1.3695374302190569e-001
      -1.4158123332517616e-002 6.5077908518737759e-001
      -3.8284405303705243e-001 -1.3172962234962837e-001
      1.0549341421004352e-001 -3.9934033083301884e-001
      2.9042718346849038e-002 3.5100263843049631e-003
      1.3945184046580905e-001 7.0768329246893885e-002
      -2.2580486152560580e-001 -3.5979097473484739e-002
      -6.5779339723500785e-001 1.7217571291492342e-001
      2.6039925464656016e-001 -4.7316824273423957e-002
      1.4713490823541051e-001 -4.5444634692274305e-001
      -1.3485336589921179e-001 2.3193027133841035e-001
      -1.6023433987733976e-001 1.7199645276536088e-001
      -1.0279421873889305e+000 -7.3944451297266345e-002
      9.8869179759393633e-002 2.8454348933193752e-001
      2.2824340879030949e-001 1.4993210562763382e-001
      1.3635842978447301e-003 3.7765130633997163e-001
      -1.7549080497678959e-001 -4.0954438487452649e-001
      -1.1410615257103070e-001 5.5719225981860972e-002
      4.7098631327411780e-002 7.8440818271540529e-003
      -1.1721214173600952e-001 6.4483430438996736e-002
      1.3048895253423767e-001 -1.3288718803867372e-001
      -1.5244940059490419e-001 -1.2591836331359754e-001
      1.8015469506799534e-001 -6.8323037491765348e-001
      5.2064728001051191e-002 -2.1911053088101463e-002
      1.5899089372858635e-002 -1.0181942477999274e-001
      7.3250002740657572e-001 -3.5228462157955537e-001
      1.9844971813987369e-001 9.2026026127477220e-002
      2.5654642544600165e-001 3.3619926672497698e-002
      7.1793071499504299e-002 -1.8328031716324936e-001
      1.4532445683316577e-002 -1.2875136579036006e-001
      4.5620123658447848e-001 -1.3479737384149921e-002
      1.9996910685848341e+000 1.0556686045846242e-001
      5.1733881335708498e-002 -1.1786476468351596e-001
      -3.4029682058704214e-002 2.1293824785206905e-001
      2.2547218081642967e-001 1.9337301950954694e-001
      -3.1785347325858648e-001 -4.2394969425505152e-001
      3.8225672224112967e-001 3.9340414804261870e-002
      -1.2097841344572693e-001 -1.5297837281101435e-002
      3.7073603786410775e-001 3.2974599908176361e-001
      2.9258005707959217e-001 -6.3985715443476754e-002
      -6.6746010970674924e-002 4.0902563212682647e-001
      -3.5254552533921441e-001 1.6025080087664487e-001
      3.7166821027999575e-001 -3.3684663808143234e-001
      -1.6733245125746310e-001 1.6162002071113271e-001
      8.9712300702310746e-002 -6.8688954028252244e-002
      1.0943253867179702e-001 4.4380735042193892e-001
      5.1539473501164768e-001 -1.2712892770440287e-001
      2.6186215371157068e-001 1.7196022979790535e-001
      2.3629644146386125e-001 3.8449740741412719e-001
      1.7333534177586973e-001 2.3634576188038878e-001
      9.6700004352403571e-002 -9.8891968156306034e-002
      -3.8650814276842643e-001 -1.3597230402693805e-001
      7.8553150741259500e-002 4.1718388861532701e-001
      -4.4404021476328860e-002 1.3783548493740904e-002
      1.9596806862596558e-001 -3.6895535571468685e-001
      1.9789867634099567e-001 -1.1958334644772781e-002
      -1.0998434449318562e-001 2.7953818101400841e-002
      -4.6682727198675375e-002 -1.5536731391267058e-001
      6.5518116147261815e-002 4.6375218596695383e-002
      9.7154504872905861e-002 5.2995788470672281e-003
      -1.3325724855893958e-001 7.8317020891260677e-002
      8.7333764466685740e-002 1.7237671624595813e-001
      5.8487243359236864e-002 4.2381753336882211e-001
      -1.1258878569682933e-001 -1.8040444561370873e-002
      -8.1379076642102907e-002 -4.2485845935393290e-001
      -8.5231349565694919e-002 -5.1492408257023566e-002
      8.3273001238289679e-002 1.4220796399709637e-001
      -4.2953981646693662e-001 1.0519572185954819e-001
      -7.1891713018286330e-001 -2.1381917809488776e-001
      1.7320535425815531e-001 -3.7807990585504964e-002
      1.3420907492259976e-003 -4.7664396953172183e-001
      -9.3969581475909683e-002 -5.8011574579040548e-002
      -1.3643779818484608e-001 2.9343292520380088e-001
      -7.6852352333503438e-001 -2.5908934509437909e-001
      1.2982410668148875e-001 4.8465590787499215e-002
      2.3960095061900713e-001 7.1036024657922553e-002
      -9.1783824531227007e-002 4.0644654267180491e-001
      -1.7939569593571336e-001 -2.3960294081699957e-001
      -8.9246960415614557e-002 7.1593706184758951e-002
      4.9177214915745393e-002 8.8731042626141898e-002
      1.6025238521164814e-001 -1.2913161197136747e-001
      4.7317410292176613e-002 -5.4311135234611937e-002
      -3.0378782448662861e-001 -1.3860688406041749e-001
      9.4974131600159134e-002 -7.8769869546140547e-001
      -1.0024858992804304e-001 -6.5594625808603119e-002
      1.5122954266649438e-001 -4.0004915973492539e-002
      7.9745362788117458e-001 -2.5521541578544693e-001
      -2.0255123162099740e-002 8.2839443291152101e-002
      1.5125688343153004e-001 9.4403777135243394e-002
      9.0344112131660381e-002 -2.1215796216821986e-001
      -2.9889044952762924e-002 -7.0728154512897323e-002
      2.5936482401888067e-001 -6.9891022154470128e-002
      -2.7446331710906335e-001 4.3064991469459621e-002
      9.0135290318462583e-002 7.6716531506385369e-002
      2.6175128515669427e-001 9.2663856545421613e-002
      5.9600366239714753e-001 2.2694445023815379e-001
      -2.1016676179179994e-001 -3.1779080268403542e-001
      4.0459567133084923e-001 8.7779837509884259e-002
      -2.0205989116787026e-001 1.2581631423402057e-001
      6.9213282263397805e-002 2.7336761632152506e-001
      9.8610870755383009e-002 -1.3767450985974475e-001
      1.2070867510961819e-001 4.6312441417714734e-001
      -1.0229984596312599e-002 9.6703298930037096e-002
      2.8956139196411740e-001 7.1295199782966693e-003
      1.2505847331456148e-002 2.0296665981943168e-001
      1.2601073119745745e-001 -1.3768116675297535e-002
      -1.2694157332752415e-001 -2.4188932993796622e-003
      2.6009801476018141e-001 -6.0657464038742288e-002
      2.6196898934930141e-001 9.1559981952770611e-002
      -1.1071004433958887e-002 4.9081301671062522e-001
      2.3778870665415805e-001 1.4918200661051578e-001
      -1.2489810701782243e-001 -1.2353732727122192e-001
      -2.3776941258509374e-001 -3.1869714073930126e-002
      1.8516515951470852e-001 2.4215285748068249e-001
      1.6444884565881451e-001 1.4939836168798140e-002
      -8.1325215331518291e-002 -6.2692973907237243e-002
      1.1719005780812299e-001 9.8274583786798209e-002
      2.3951489703329273e-001 1.4265685797406882e-001
      -1.2852346844482529e-001 -7.0691185376432958e-002
      5.0611781402576474e-002 1.6559840688270050e-001
      5.5838193951104925e-002 7.9060057249844190e-002
      -1.6497223677691679e-002 9.0964078099501092e-002
      -2.2674025834349111e-002 1.3829303608369098e-001
      -3.3830407451728906e-001 2.8123939840705869e-001
      1.0228990941135752e-001 -7.5036268006909684e-002
      -3.0848351250911521e-001 -4.2056799504701481e-001
      -1.5072782205938648e-001 -1.4711805872938732e-001
      1.7828829406906430e-002 2.2167771353632598e-001
      -6.5395775850464788e-001 -6.7945626897645314e-002
      -3.7918539441207266e-002 -1.8548443973384091e-001
      -2.0138756087937143e-001 -1.7786657963711125e-001
      -3.1825340482379429e-002 -1.4354333925628709e-001
      -1.4265359874427727e-001 -6.7400752179816281e-002
      -1.5019395070792249e-001 -2.4760770632494194e-002
      -4.8386915236849415e-001 -2.7317874499397982e-001
      1.0239076301824707e-001 1.8583953729667951e-001
      1.7715282722172246e-001 -6.6938574874240236e-002
      6.1325855180071687e-004 9.9781360141597969e-002
      1.4515890383548285e-002 -4.8393054649285359e-002
      -1.1018416697617613e-002 -8.5678338586934799e-002
      -1.7619981793843348e-001 1.4318383055954739e-001
      2.3902710071732197e-001 -4.3853836171615090e-002
      5.9511108047851737e-002 1.2236851684508142e-001
      -3.0958960731636653e-001 1.6443203745952806e-002
      3.7639346119424967e-002 -2.7179221133317216e-001
      -1.1373702019359323e-001 -2.1842741787035083e-001
      2.0446412492625438e-001 -1.6278862247310358e-002
      1.2084630135649467e-001 -5.8049044195502561e-003
      -9.8025340886852413e-003 2.4862894974230221e-001
      2.4747291184511278e-001 9.0752602357163273e-002
      3.8718938876794298e-002 -2.5111985737587783e-001
      -6.0925710788600998e-002 1.5179601735249537e-001
      7.7325964942853515e-002 -2.0405044335935013e-001
      2.1614457750305505e-001 -4.4265012888129576e-002
      3.8360782279465155e-002 1.3420527145977063e-001
      2.0845353951967607e-001 -2.6973356538497896e-002
      4.8338022796035734e-001 -2.2967559681516808e-001
      1.2532866385438968e-001 -3.0292103441473689e-001
      3.5967655481518196e-001 5.1965704577964178e-002
      -9.0373755296303204e-002 -6.9779174767950786e-002
      -9.7002385359180945e-003 -6.8658339793429901e-001
      2.6860122349908533e-001 -1.8617022601350319e-001
      3.1987721733423524e-001 3.8714179844314556e-001
      -4.3088665120630323e-002 8.7832729792957559e-002
      -5.1145307231349774e-002 3.4881024516047343e-001
      -1.7043101028666832e-001 1.6475792707953077e-001
      2.3516173907210289e-001 2.1788719146149310e-001
      -6.6622618657923016e-002 -5.4812234923871613e-002
      -4.6832222655571555e-002 1.8864521825037983e-001
      4.7375959702649850e-001 8.3998320978142388e-002
      -1.5006184513924573e-001 -1.0157876449858902e-001
      1.2280472047563869e-001 3.8451931097883328e-002
      -1.6227653225935290e-001 2.5758456788564917e-002
      -1.3178862122885399e-001 -2.3203364976325824e-001
      4.3632761498880335e-001 4.6163085272409032e-002
      3.0620569742806814e-001 -3.1062746046285822e-004
      -1.1763761827952036e-001 1.2636666337123206e-001
      1.8412051830490942e-002 5.3635416512118644e-002
      2.9281813369867293e-001 1.3167549627187913e-001
      -4.5399126958913884e-002 -1.2136476162337224e-001
      4.5469940919630386e-002 1.9677375316061760e-001
      -1.1237845170919995e-001 2.5519483759547079e-001
      -1.8370954020241917e-001 1.2430106946201902e-001
      -1.2869310553722249e-001 1.8425153073384321e-001
      -2.8086606257048891e-001 3.3020067211974480e-001
      -2.7852605185869317e-001 -1.4836058954577688e-001
      -3.8137399997964949e-001 -9.1863034217185030e-002
      -1.0946614189412321e-001 -2.6916942340127475e-001
      7.3238619020956103e-002 4.0095836487437392e-001
      -2.0442786902051654e-001 -2.6067084705676914e-002
      4.7034774620652520e-001 6.4078680703600469e-002
      -1.7864898802633544e-001 -1.7747943000057512e-001
      -6.8894564355773610e-002 -1.5333666891692696e-001
      1.7292486445500233e-001 -9.6101356492097584e-002
      -1.1998935057736759e-001 1.9822307777807466e-001
      -3.2641392196005892e-001 1.9137872682162524e-001
      -4.0758041896486102e-002 2.7056290513772280e-001
      1.5494989045471805e-001 -7.8179706599718277e-002
      2.0906818703678776e-001 6.9228307014289198e-002
      -1.2246348818677741e-002 2.9074958888518426e-001
      4.7645998218841294e-002 -1.1806035355633196e-001
      -7.0204641768691943e-003 -2.0209637141136473e-002
      1.6575109085154194e-001 2.2369062002237949e-001
      9.4364652733590557e-002 1.1569749424072967e-001
      9.7016242292248964e-002 3.4016004243545239e-001
      -8.3428961203752941e-002 -8.5485221873554645e-002
      -2.9262555407600428e-002 -5.0673286668091233e-001
      1.9356164794142020e-001 3.5823329902563233e-002
      7.5392296653596313e-002 -4.1437139995113331e-001
      -1.4157736954286659e-001 2.9599061279297889e-001
      4.3458638024520191e-001 -4.5400470928381273e-002
      5.0078190799104139e-002 1.3629257636703310e-002
      -2.8555889849060512e-001 -8.5758532626382528e-002
      -4.2734605027195491e-002 -1.0521257442150908e-001
      4.9223540473000726e-001 1.4217214926138144e-001
      3.8631333061093664e-001 1.5602715740187478e-001
      1.3326494250601539e-001 -2.8532889992588760e-002
      2.4860185061701051e-001 -2.6826040026199777e-001
      3.8150648629793704e-001 -8.2362570284196718e-002
      5.4837340513926393e-002 -1.2629845183941252e-001
      -1.1134468508167909e-001 -7.0257002052989251e-002
      7.7747067324590483e-002 1.3483643338881066e-001
      8.8891773669282304e-002 1.7014463604890245e-001
      1.3163961350272910e-001 1.0971675359942703e-002
      2.0017762081555265e-001 -6.1636838965613151e-002
      -7.5225824713523390e-002 -3.2361424150081514e-001
      2.0538902927353367e-001 -8.0691601737054974e-002
      1.9064166702674609e-001 2.3173732356691781e-001
      -6.5460599008344708e-002 -4.4421561560109311e-002
      -6.3296129293362704e-003 -3.6667711691006186e-003
      9.4601225213101958e-001 -2.1359420149598865e-002
      -6.0053933298377824e-003 1.3283819145338268e-002
      3.4880132351225906e-001 -3.1540314489918131e-001
      -8.9697749138736085e-002 1.9283793702145324e-001
      2.0452298984959336e-001 -7.1667762003339658e-002
      4.5127856870593612e-002 7.5255448860739897e-003
      -5.0360476876895089e-004 -2.3040940276749497e-001
      2.8005019261542773e-002 1.1849221640005904e-001
      -1.2951029735488542e-001 1.4419702560669900e-001
      -2.8539548451551000e-001 -2.5767584187358514e-002
      4.7288098549667021e-002 -2.5491172944648521e-001
      -1.2739890688155051e-001 -1.4033698982195328e-001
      -2.2332135628435806e-001 2.5821910443747309e-001
      -6.9967290327075382e-002 -1.9911342409360402e-002
      7.2137164286679078e-003 1.8767913775229883e-001
      1.9778205769259049e-002 1.0425178645036282e-001
      -1.3171627431623717e-001 1.0932619618947037e-002
      -1.7143349580725908e-001 -1.7304087210784646e-002
      7.5378269744449293e-003 1.1792889746412549e-001
      1.2511734351349998e-002 1.8333670728358353e-002
      -1.2016843030386257e-001 1.6033802728582033e-001
      3.5410603513627625e-001 -3.7876599575571862e-001
      -3.0002169658350025e-001 2.6069590484454095e-002
      -9.1968440226929876e-002 -6.1837684278868474e-002
      2.3725552447550169e-001 -2.6727127796332215e-002
      -1.3100415596971249e-001 2.6273598618131605e-001
      -5.4728044405777843e-001 -7.1095807629478359e-003
      -4.7880183325373103e-002 2.5054265923069940e-001
      -7.2137493142459805e-002 -6.1337501908648805e-002
      -5.2548634702684685e-003 -1.0481506412857240e-001
      1.0258857878306196e-001 4.3397441615371457e-002
      -7.8989205065884374e-002 2.0925553699255103e-001
      -1.7189782245684235e-001 1.4588041961714870e-001
      -2.6704412465729268e-002 -1.1726600566505295e-001
      -1.5102310502657276e-001 1.4712637736497652e-001
      1.5637341478702785e-001 4.2523160952962613e-001
      7.5088994279352200e-002 -8.0436156547377902e-002
      4.6818994382850906e-002 -2.5942321562204418e-001
      -1.3176092324558364e-001 -1.1810832347842701e-002
      2.0276585730929975e-001 7.5354016673465252e-002
      2.6636663055927812e-001 -2.4887299916263514e-001
      1.4548073805130157e-001 -2.6319653747081723e-001
      -1.2273707316273726e-001 9.7296049067748122e-002
      6.8566958383779108e-003 -3.5112141625686116e-001
      5.7447958579523874e-002 -4.2273137139405689e-003
      3.7051482624616501e+000 5.7874427126747181e-002
      -1.0185556201039600e-001 2.7755480462956944e-001
      -1.3133373363337705e-001 -1.4095553645689499e-001
      8.0272299904373290e-001 -2.1607731310055567e-001
      1.9876732405641456e-001 9.3884347723056191e-002
      -4.2546622007559903e-001 -1.4407084314778620e-001
      4.5295303249085761e-002 -2.0910203381738210e-001
      3.8063406872511035e-001 2.7711511753629509e-001
      2.0407894253129522e-001 9.9046992659976574e-002
      -1.1380659836879277e-002 -1.6008267344050550e-001
      2.4879182855020859e-001 -5.6469383833172543e-002
      -4.3023558171690757e-001 -3.0370669200921974e-001
      1.7563908049524996e-001 -1.5873603763937780e-001
      2.5171699208439352e-001 3.6705885147440248e-002
      1.4272068709788538e-001 8.4261201974573943e-002
      2.3256069596413351e-001 -2.5249311262057389e-001
      6.7158187833815108e-001 -1.5168650261230410e-001
      -2.9723283571536352e-001 2.9410655412264436e-001
      1.4540003272613644e-001 -2.1333450465831144e-001
      1.3873168460893556e-001 2.9898084947215792e-001
      2.2141829462366247e-001 1.6487899071084531e-002
      5.0030166460737852e-002 1.0093664314855874e-001
      7.3568129649479994e-002 -3.0405393114344242e-002
      -1.2400671706023506e-001 -6.3158947257190776e-002
      1.3586362073284543e-002 3.7022604084603467e-001
      2.0618618879842052e-002 -9.6054508325322849e-002
      -3.7573768231545845e-002 9.6936353484909143e-002
      -2.2901476242513288e-003 -1.7865859716152030e-001
      -2.0052097198733906e-001 -4.1156957868980534e-002
      3.5328600823700568e-002 -1.6678582679294121e-001
      -5.1867316682469619e-002 -1.7809063128292574e-001
      -9.9737904606681693e-002 -1.6953373274942460e-001
      1.0878836736105964e-001 4.3022878057638103e-001
      -2.2267841291121263e-001 -5.9297920505701075e-002
      7.3771552015076763e-002 1.5531696852490884e-001
      9.1661759332499482e-002 -4.3086615203157153e-002
      -2.6751519797841339e-001 1.5851588921986104e-001
      2.0533516738099986e-001 -2.1903688878985764e-001
      3.3776539762739137e-002 8.6865041320651815e-002
      5.3992698534260253e-002 5.4986388091772545e-002
      2.9393500847697279e-001 4.1781690574460038e-002
      5.7965880573080622e-002 -5.5219277121210830e-001
      -8.7742672812360845e-001 1.0812942104271166e-001
      8.1645747194069931e-003 1.3874795090786294e-002
      -3.4369955735867525e-001 7.8612234159853800e-002
      -2.3598142944545886e-001 -1.2877878202840073e-001
      -6.8857341257821697e-002 2.5274466380163937e-002
      3.5217583890195353e-001 -1.7894937709010295e-001
      -3.6809814141663316e-002 -4.1914023106143540e-002
      5.1633634204540625e-002 -5.5964695832128729e-002
      1.7171856572389915e-001 1.6100881075310994e-001
      3.4734081924977295e-001 3.4701004066897734e-001
      2.8366929458237533e-001 1.9285267085611255e-001
      -9.6552845151729932e-002 1.1817099690833090e-001
      -2.8107949941401544e-001 3.3486035615776560e-001
      6.6009535255331306e-002 1.6327228204549663e-001
      3.2700945628424488e-001 1.1666587482258528e-001
      -1.9451173311736814e-001 -1.4958168829787866e-001
      -3.9039165496782141e-001 -7.9876424798317275e-002
      2.3137901338284569e-001 -3.2216137302641978e-001
      5.5924282319080594e-002 2.4533249088790809e-001
      1.0219748364459232e+001 -3.1456016153835836e-002
      1.1846301500542326e-001 6.0252255285503931e-002
      -2.4718260449074106e-001 -9.2956051412083684e-002
      4.3345442624537134e-001 -3.8724836477172953e-002
      -1.6955580241674650e-001 3.0893126059552762e-002
      3.9439568930212249e-003 3.5298297320941646e-001
      4.8035210242409936e-003 1.6303391590132499e-001
      1.3431720233914443e-001 1.3003709537710528e-001
      2.1814968077178774e-002 -3.4349861055677708e-002
      7.6657318940876004e-002 -6.9009985292530038e-002
      -2.1846166513824771e-002 -1.7489947130638542e-001
      -3.7125076095222687e-001 -2.5741041697544518e-002
      1.0390407945906294e-001 -1.6124860245304723e-001
      2.2255828935666092e-002 2.2030167047906521e-001
      -2.9931654812706234e-002 4.2151004694456887e-002
      1.7347053312774512e-002 3.2435833531053559e-001
      -2.0202040895473997e-001 1.3094976219657045e-001
      -2.9132028500109507e-002 -1.8405536908781650e-001
      -5.2709052294343306e-002 -9.3421694894240681e-002
      6.8627577471721463e-002 1.4283047284112552e-001
      -2.0598503897929293e-001 -1.7740944580780627e-001
      -7.6488647754798814e-002 7.8791576093313762e-002
      -1.4114426804516456e-001 4.9841801283985264e-002
      1.8701895296595990e-002 7.1244667014557533e-002
      8.8533444123917795e-002 2.3375514994354776e-001
      1.3059204071409234e-002 -1.4287925089948492e-001
      8.5143505566842526e-002 1.5758984425586547e-001
      1.6086227594159702e-001 -2.1910007590354139e-002
      -3.4674979126433733e-002 -8.0870209230049627e-003
      3.8480228936650443e-003 -6.7438848529154258e-002
      -1.5680135360694109e-001 -2.4620866031933065e-002
      -3.3725046522933039e-002 -1.4499652653283912e-001
      7.5382395110564659e-002 7.5503165494152230e-002
      1.4320765315844708e-001 -1.1866982182033174e-001
      -2.5358586242319969e-001 -6.7010600736814946e-002
      1.1118557815415299e-001 9.1332235394665076e-002
      -4.7635042978374631e-001 -7.2062042027337042e-002
      1.8212760239791692e-001 -1.1122512102495000e-001
      2.9551147446778403e-001 -9.8852486842941109e-002
      6.0260459871390741e-004 8.8766840974220773e-002
      2.4234175784632947e-001 -1.5838245536653814e-001
      2.5594937055925981e-001 -6.8978580843244941e-001
      -8.1477177296860526e-001 7.7006262582250927e-003
      9.9875840016347098e-002 -1.7087154977570918e-001
      -1.6349333259383447e-001 2.8747848786365483e-002
      2.3408636187822693e-001 -2.9513044818627759e-001
      2.2394253730446648e-001 1.2219233483824582e-002
      1.6686356966457486e-001 -1.8836448552120658e-001
      6.8695815014666331e-002 1.2885719296266734e-001
      -1.8153270077397257e-001 -2.7110908256186127e-002
      -3.3066290188529163e-002 3.5659212471715704e-002
      -1.1658354987844170e-003 -3.0727415271932762e-001
      2.7226371943726496e-001 7.5858639679301648e-002
      2.1277529476039128e-001 4.6545912593430307e-002
      1.2815628281025875e-002 2.6063710872450430e-001
      -1.9981529089977873e-001 4.1065385779323155e-001
      -3.2842402841028101e-002 9.7498473046195591e-002
      -2.2532731904272169e-001 1.8669485604545857e-001
      -1.7430294169629038e-001 5.2838185884283052e-003
      -1.5848119585485676e-001 2.1248214446465633e-001
      6.7386951374871717e-002 4.4249348399333244e-001
      1.6003535780451383e+001 3.6016287246312756e-001
      -2.9253441323333373e-001 -3.7167168135419154e-001
      -1.0991051217763120e-001 -1.9088455644462307e-001
      -6.5586985021396801e-002 3.6127025385852846e-001
      -3.3095101121928933e-001 -7.7623707543170453e-002
      1.5924561939141563e-001 4.0161512138607736e-001
      -3.1798789042059328e-001 2.0445353227062429e-001
      2.1058932280544512e-001 -7.5228959904571052e-003
      -2.2193911489983294e-002 -1.9656664653671007e-002
      -1.6377830894345782e-001 1.5552792228164791e-001
      2.9849804710091615e-001 2.7286033735301934e-001
      4.4364698249274052e-003 3.1648802383455375e-002
      7.0805754820544881e-002 3.8835999236125372e-002
      -2.7383926704610395e-001 9.7424006977698152e-002
      6.8106262913348731e-002 4.5805713065278829e-002
      -5.2928645545902253e-001 2.6310022900258140e-001
      -9.8481934881097188e-002 2.7628057907966641e-001
      1.1440206327569159e-001 -2.5576326798913235e-001
      1.6253535833274929e-001 1.5299193452206494e-001
      9.3040122541057507e-002 -2.9117216654210254e-001
      6.5890189084686690e-002 1.2797178250380031e-001
      -2.3290217075990360e-001 6.7019867933769336e-002
      -9.3628618408357067e-002 1.3942803230615866e-001
      -2.3827232657485203e-001 -2.2938934042748951e-001
      3.3204578374848519e-002 2.1408495049693202e-001
      1.7745835093399687e-001 7.2184372674343092e-002
      4.4205205107795753e-001 1.1935445953020600e-001
      1.2118155315943821e-001 -1.6574446643221963e-001
      -4.4966734278710153e-002 2.4132042163542802e-001
      7.7364077737839848e-002 4.0759439239054274e-001
      -2.5372745456681745e-001 -8.7368075814304891e-002
      7.8444107940770502e-003 -6.5113582130339756e-002
      -6.2301917691280483e-002 -3.4405036989592885e-001
      7.0722141229956445e-002 -1.2095924078590166e-001
      3.0136631218588349e-002 -1.0574374543655647e-001
      -2.2929367674112791e-001 2.2034756631362468e-002
      -1.2904502223220637e-001 -1.5842713395306876e-001
      -6.3717672879887055e-002 -3.6253521919928498e-002
      -9.2498084744462208e-002 -3.9139858904239783e-001
      -1.5302665888956091e-001 2.4711817099665465e-001
      6.0718819917846327e-002 2.2255239714139213e-002
      -2.0097687299508601e-001 1.2358502237667059e-001
      1.1080547750567778e-001 -4.6337758576977173e-001
      2.3550327951410591e-001 -9.8476112209528219e-002
      2.8730010379367326e-002 1.9826686718560890e-001
      3.0051893038784555e-001 -6.4362916901930953e-002
      -1.5728434046729484e-001 -3.0137313344397998e-001
      2.3327673446222896e-001 -3.1977607079384157e-001
      5.2363083696574948e-002 -1.0094604255347941e-001
      1.6839963869391236e-001 1.6968437558970056e-001
      1.3973911229718275e-001 -1.1754747824978236e-001
      -1.3207477139194573e-001 -3.1089272940510643e-001
      6.9649098395514975e-002 -3.8667804252924522e-002
      9.1012160316309196e-002 -8.0209219012768979e-002
      3.9611994349566998e-001 -4.1652256136122018e-001
      -1.3083219815158226e-001 -2.3550088547281098e-001
      1.3383866368753164e-001 -2.0838930920514229e-001
      -1.2706654469899675e-001 3.2030284122686076e-001
      -8.5775806719302822e-002 2.3410554783544583e-002
      2.7582808144740562e-001 1.5632793860881250e-001
      -1.8410489819812605e-002 -1.3615073200851779e-001
      1.8046465840584176e+001 3.9047490597925610e-001
      -3.1661014746447269e-001 -4.0161332838003244e-001
      -1.4712934055638177e-001 -2.0020206371638452e-001
      -1.0193761672148068e-001 3.9688452213730968e-001
      -3.5051282915089294e-001 -9.4469278561600867e-002
      1.6565283598872763e-001 4.3739371701163016e-001
      -3.4594527551735960e-001 2.1360055663247016e-001
      2.2454562258785302e-001 -1.0701167377474292e-002
      -6.7133525506118605e-002 -1.0468806444069455e-002
      -1.4178051767517244e-001 1.7256609767649639e-001
      3.2814629377772314e-001 2.9973263103590891e-001
      3.8610419572250365e-002 1.5855840692222740e-002
      3.9685663783835125e-002 1.2148181738751030e-002
      -3.0501714733569030e-001 5.3447907575306361e-002
      5.7754782932575362e-002 6.1252169333734507e-002
      -5.7355963514840347e-001 2.8565254883380375e-001
      -3.9869140349207882e-002 3.0581135689579686e-001
      1.0749862832776751e-001 -2.7298166613598862e-001
      7.9244991715922558e-002 1.5956847071943539e-001
      1.0682596528350306e-001 -3.1168571573080983e-001
      5.9392654395672290e-002 8.3999264989336103e-002
      -2.5220499895833171e-001 6.5372295898798616e-002
      -7.2992715063642841e-002 1.5577184397894120e-001
      -2.6049831538478874e-001 -2.4151478723688360e-001
      -1.5784545939418918e-002 2.3050927514705605e-001
      1.5008204274319689e-001 6.0847594224683832e-002
      4.7292632061838502e-001 1.2290397085987581e-001
      9.6110705375219929e-002 -1.1242161360129507e-001
      -5.4157232966323680e-002 2.6631044962662598e-001
      3.5619807436229931e-002 4.4249565874458008e-001
      -2.8157949582665892e-001 -8.8674669197415568e-002
      -9.5648242953350004e-002 -4.4447796203722398e-002
      -1.0469764802486853e-001 -3.7919920544396224e-001
      6.2737969329026644e-002 -1.4100239512551027e-001
      8.3929838067368992e-002 -1.0721967678471771e-001
      -2.5987886263347848e-001 7.6210332056533187e-002
      -1.2541140149578456e-001 -1.7571622850798019e-001
      -5.6409698865446098e-002 -6.7472599284297205e-002
      -1.1783979272603734e-001 -4.2315164596572008e-001
      -1.6517879300720786e-001 2.1349914617416360e-001
      1.2170237636196998e-001 6.6164919328759647e-002
      -2.1269827837137217e-001 5.6879116096854511e-002
      1.5414908802078681e-001 -5.0141941304220516e-001
      2.6656768446710477e-001 -9.4070252206253049e-002
      4.9921544364772717e-002 2.2418325824706395e-001
      3.1983355981509648e-001 -5.5917987505874345e-002
      -1.6659785238467095e-001 -3.2459095846707220e-001
      2.5382027396118917e-001 -3.5103180662221967e-001
      3.5074901538314600e-002 -1.6112913122540090e-001
      1.8836013616165950e-001 1.9700002764873523e-001
      1.6985849222354937e-001 -9.3381578505248281e-002
      -7.8550587954492088e-002 -2.9797495363904319e-001
      5.4011117688108269e-002 -5.5323532052467775e-002
      6.4896981290144887e-002 -6.7330931013087084e-002
      4.2301419579217736e-001 -4.5264131809878227e-001
      -1.2662881397675724e-001 -2.5165611459046583e-001
      2.0186228222153646e-001 -1.7371290007376120e-001
      -1.2422013291412080e-001 3.4349123288282613e-001
      -1.0687193454866201e-001 1.5320895721036402e-002
      3.0119094552400033e-001 8.1185306885382197e-002
      -2.1694418258285941e-002 -1.5155520311866144e-001
      1.3496551202652091e+001 2.7992110488104910e-001
      -2.1738083738256556e-001 -2.8054516711720423e-001
      -1.1319253048514283e-001 -1.3407873274207810e-001
      -5.2979471439594160e-002 2.7831882864311674e-001
      -2.4589769742210110e-001 -2.7054306640930011e-002
      1.1529131434859467e-001 3.0614853637722916e-001
      -2.4671624487540339e-001 1.4964249396259735e-001
      1.5637860423842645e-001 -5.2704681332509749e-003
      1.0490637475533533e-002 -1.1551725141595358e-002
      -1.0998996914342986e-001 1.2235231948396703e-001
      2.2733622587190544e-001 2.1237103055870116e-001
      3.2981999485047812e-002 2.0234699153954760e-002
      6.8079432331335621e-002 3.6356037633366096e-002
      -2.1012974362525463e-001 6.2871973272073972e-002
      5.1239002561688909e-002 5.9222338820633283e-002
      -4.0839694869695103e-001 2.1092538749368364e-001
      -1.5385001970400450e-001 2.1278193369497189e-001
      4.9904665529313247e-002 -1.9998734414928357e-001
      1.4696999778256051e-001 1.1038782512890360e-001
      6.4903655454262021e-002 -2.2290010845386954e-001
      1.0542265565763276e-001 1.3710106363663585e-001
      -1.8148460650959505e-001 5.2765161877253261e-002
      -2.2895050452001842e-002 1.1044039815592056e-001
      -1.7977436096212868e-001 -1.7538230177255762e-001
      3.6077297165929799e-002 1.5600128622708023e-001
      3.3743194473288614e-002 6.3901286242403224e-002
      3.3804383129618254e-001 9.0204246662301840e-002
      1.0166483115192634e-001 -1.6434381241609705e-001
      -5.9921023349732573e-002 1.7975825865422687e-001
      5.0674341215100942e-002 3.1391260493519652e-001
      -1.9539156707873676e-001 -6.3584016584434785e-002
      1.0343652803395785e-001 -4.6907273718283904e-002
      -3.5460615602290135e-002 -2.6675455353681254e-001
      -3.9058217984357790e-004 -5.8000270621692114e-002
      2.4181819635834097e-002 -9.1724222450010676e-002
      -1.8046949834233103e-001 8.9246716341157134e-003
      -1.1196008660814996e-001 -1.1771123602996549e-001
      -8.2540504628499878e-002 -6.3909243470270063e-002
      -6.7656155096120288e-002 -3.0533439665591555e-001
      -1.0243425826630551e-001 1.0866385485511752e-001
      2.2270068252192854e-002 3.5162478845535278e-002
      -1.4625767105668872e-001 1.0788260530356472e-001
      7.7447895084469684e-002 -3.5735255513231390e-001
      1.8063264951295313e-001 -6.6757534148954883e-002
      -2.2458741412885192e-003 1.4628616040480888e-001
      2.4085351930023552e-001 -1.1361996448007056e-001
      -1.1692549135632281e-001 -2.2992298277967457e-001
      1.6981388281915155e-001 -2.3906068479686726e-001
      4.0295259938015013e-002 -1.0289993583878880e-001
      1.3273147800130330e-001 1.2542684581324606e-001
      2.9188153647635717e-001 -8.0524859120722297e-002
      -9.2908053903585613e-002 -2.8899176412827449e-001
      8.9798222060233385e-002 -3.3976850182519724e-002
      1.1982535661417640e-001 -1.2095079133829191e-001
      3.0469191339508156e-001 -3.2014923030803427e-001
      -9.6452472411408377e-002 -1.7748662796246378e-001
      8.6555110780279568e-002 -2.0109943587392839e-001
      -8.3034896237249009e-002 2.4114472572633133e-001
      -6.0748254816334724e-002 7.3911320861973955e-004
      2.0593209270528615e-001 1.8523027631356948e-001
      -3.6192935349269330e-003 -1.0573062730700755e-001
      1.2097987121066359e+001 2.1307568130496288e-001
      -1.8158307249779188e-001 -2.2921350207199961e-001
      -7.4944529826826992e-002 -1.0405256023567634e-001
      -9.4423358204661689e-002 2.2300163607348480e-001
      -1.9364079153222885e-001 -3.5316887445505332e-002
      8.8238531551039653e-002 2.4901445745137854e-001
      -1.9452006864284199e-001 1.2326880138963982e-001
      1.2205938483713358e-001 5.9127470530305253e-002
      1.0370335020632043e-002 -1.4919123157002853e-002
      -8.6948729724271950e-002 9.7184076726194446e-002
      1.8368251472614067e-001 1.6772323306303349e-001
      4.6862054804936715e-002 2.8581889688176720e-002
      4.0682852963472703e-002 1.1896972362094409e-002
      -1.7161670571825216e-001 3.3578237117175398e-002
      4.1146365118539120e-002 4.9992862452173208e-002
      -3.2972780233360927e-001 1.6003014017432360e-001
      -1.5455992952856432e-001 1.6922840109926013e-001
      3.3566825018844559e-002 -1.5514625483905647e-001
      4.7169295522383567e-002 8.5465407928465284e-002
      4.3081077314597899e-002 -1.7640020478399884e-001
      9.8065518550549541e-002 1.1125863794591097e-001
      -1.4201801344890355e-001 3.3779154694755793e-002
      -7.2446972116254407e-003 7.9946796348379395e-002
      -1.4577797189388944e-001 -1.4037302834109608e-001
      1.4475202194108572e-002 1.1375487907778402e-001
      -2.4866362096731990e-002 3.6711609225426260e-002
      2.7261282259710529e-001 6.2713121484009718e-002
      8.3013669544637986e-002 -9.2825966564722431e-002
      -5.1476605674301894e-002 1.5175895453207244e-001
      2.0042862617168263e-002 2.4859098995018000e-001
      -1.5173564155177194e-001 -5.9265172005834879e-002
      7.8181091440633205e-002 1.8048581946184541e-002
      -3.5578132336116265e-002 -2.1446292086706875e-001
      -9.8987227883048985e-005 -4.8915919914106980e-002
      3.2329651853453135e-002 -9.3675313047264952e-002
      -1.3952518067898351e-001 1.0204712823040382e-002
      -8.9747510977423645e-002 -9.0327183909830300e-002
      -6.9388949636314215e-002 -4.0345596114024489e-002
      -4.9727590577583997e-002 -2.3243138016672260e-001
      -7.3268477160870510e-002 5.3866176961769922e-002
      4.4279669216540068e-003 2.5729330091844544e-002
      -1.1984228624634113e-001 5.4456223544668315e-002
      6.7436924733425177e-002 -2.8536599202551255e-001
      1.5162540220833662e-001 -4.6360661551430142e-002
      9.5306567318652752e-003 1.2028966501711942e-001
      1.8695131688478342e-001 -1.1046730027279561e-001
      -8.7442108789458226e-002 -1.8154543062205264e-001
      1.3871144141507680e-001 -1.9881087868439212e-001
      4.4489717954307402e-002 -7.8624175492358686e-002
      1.0331928707624621e-001 9.7584632401323548e-002
      1.3320646234398131e-001 -3.7983392437281896e-002
      -5.1343104652296308e-002 -2.2647398600977256e-001
      7.0362774196330288e-002 -1.5527565322532681e-002
      1.1998756269010460e-001 -1.0018980920599915e-001
      2.4074043758148697e-001 -2.5800994185119897e-001
      -7.5868112104942584e-002 -1.3979006358945992e-001
      6.3176095019310277e-002 -1.6667637120782755e-001
      -1.6310988545636215e-002 1.9488164543238562e-001
      -5.6768930769211502e-002 3.6432404625021481e-002
      1.7327930275416326e-001 1.4483845510628782e-001
      -2.3232928696838098e-002 -8.4850019630044154e-002
      9.8235615104122882e+000 1.6000209549707481e-001
      -1.3682413007677938e-001 -1.7334805527216154e-001
      -1.9820161005837840e-002 -7.5160822414740869e-002
      -1.1296759897787505e-001 1.6886796762594780e-001
      -1.5081745178338360e-001 -3.5153037559044052e-002
      7.2459191258552449e-002 1.7929134603087718e-001
      -1.4286031848532926e-001 9.4889361908542025e-002
      9.1881746836989853e-002 1.1987183757310561e-001
      -1.7378804426872048e-003 -1.3933183297363131e-002
      -6.9007029133516307e-002 7.1432914638042536e-002
      1.3348395901911059e-001 1.2035888193659627e-001
      6.3575939734681439e-002 3.6372758528112635e-002
      6.4260562288744397e-003 -9.3806300136288815e-004
      -1.2186483634000993e-001 2.1029411155813037e-002
      5.2141429190623298e-002 3.1384216077412271e-002
      -2.3938586165644002e-001 1.2658988796875434e-001
      -1.2552346295520100e-001 1.2602926743378889e-001
      2.0841276056749385e-002 -1.1234600130255798e-001
      -5.3539895762075101e-002 6.4839006585383316e-002
      4.1060852322212509e-002 -1.2848067678836364e-001
      7.7673926461830453e-002 8.3093916826618694e-002
      -1.1146873356132712e-001 1.4397575859979764e-002
      -1.8741348614616581e-002 6.7602662423262488e-002
      -1.0261695212262084e-001 -1.0160848400901168e-001
      7.1738299854024129e-003 9.1521005412377107e-002
      -2.6468756484316801e-002 8.9563186299312422e-003
      2.0274058490708904e-001 4.1212889389510364e-002
      6.0822658215050229e-002 -1.4516731535825625e-004
      -2.4414529983561077e-002 1.1088105885208507e-001
      1.7711033277758300e-002 1.8412007297036240e-001
      -1.1757729151727461e-001 -4.5393921854821093e-002
      5.7295133380741013e-002 6.7083087476600939e-002
      -3.1465228673911903e-002 -1.5733876834896343e-001
      1.4352573639681338e-002 -3.4554156105441790e-002
      2.1202486168970570e-002 -9.0011167298321898e-002
      -1.1007130021040243e-001 1.3875001370815499e-002
      -6.4787005425799071e-002 -6.8116374739084426e-002
      -5.9178690823624522e-002 -3.0431371826412350e-002
      -3.5665069283946450e-002 -1.7952916479808156e-001
      -5.9796578490606357e-002 4.4955551807548448e-002
      1.3174280752575358e-002 -8.2643183218019181e-003
      -8.6999940185645455e-002 4.6134258160803507e-002
      5.4291428757529785e-002 -2.0782363033424703e-001
      1.1005380698554923e-001 -4.0561216689110786e-002
      3.8076660070339961e-002 9.1970509981403853e-002
      1.4128530109222209e-001 -7.7205661961215033e-002
      -6.3537231509737488e-002 -1.3082341486674076e-001
      1.0575659844716455e-001 -1.4639082057095976e-001
      3.8486768605570230e-002 -1.0801762071100816e-002
      8.2630634427665925e-002 7.7095955996025201e-002
      -8.2788836073182354e-002 -1.1347505036623630e-002
      -4.4843311200417929e-002 -1.7265156493652931e-001
      5.1177038490813620e-002 -1.2627632607944672e-002
      1.1130922722440234e-001 -7.9630776227811978e-002
      1.7916374374815583e-001 -1.9810948128960851e-001
      -6.0388600241168190e-002 -1.1209995884030530e-001
      4.7795296627595074e-002 -1.2353448117917516e-001
      3.1587427187244548e-002 1.3869605429379558e-001
      -3.9616264824191706e-002 7.7405425798320937e-002
      1.2801336453345202e-001 1.1176896409146762e-001
      -2.2485532991770540e-002 -6.1314423978537272e-002
      5.8919643949482445e+000 -3.2920008095583447e-001
      3.6501804701454987e-001 8.0468709574438052e-002
      -1.8979231917072889e-001 -3.2590617227781005e-001
      -7.0402765526622320e+000 -4.2201749183918996e-001
      2.8869738386457859e+000 6.9627978945831370e-001
      1.7801328477944710e-002 -2.1940787050576929e-001
      4.5583845576799653e-001 -2.1106829542636987e-001
      2.0176851588101752e-001 1.3038720045580328e+000
      -9.6322935045826622e-003 -5.0643153639783618e-002
      1.3204123571051316e-001 -6.2167600801268719e-001
      -9.1940887547441494e-002 -3.4762955203068208e-001
      -2.7489057455360666e-001 2.2586049212199455e-001
      4.7703482200091268e-001 -8.4818421047662504e-002
      1.1976626544624159e-002 -2.4528378072162568e-001
      -1.9779257659329527e-001 -7.2977341140563853e-002
      3.0944691921766510e-001 -6.6705731217694839e-002
      1.4386953263975437e+000 1.9246384527620647e-001
      -5.0821425457405356e-001 1.4419266706055087e+000
      -8.0904926631566887e-001 -4.3220099973589615e-001
      -3.5151897348856576e-001 1.8971786053557976e-001
      2.5530275075570752e-001 1.4289909745797141e-001
      -4.0707411746987188e-001 -3.7571182700885286e-001
      -2.9041650055646723e-001 -2.3630872338424397e-001
      1.7134074450992737e-001 1.5167131554279378e-001
      -2.2093240666429395e-001 -2.2269637146867427e-001
      1.9707245002075427e-001 -2.8209552222940026e-002
      -3.3477633665704454e-001 6.0439272303056901e-002
      -5.4611457509139494e-001 -3.5965521447693782e-001
      -3.4997988689312842e-001 7.2816785719046193e-002
      3.4309188267662871e-001 3.0339676730040413e-002
      -8.0074445324346266e-002 9.9801803386629168e-002
      2.1406826675719326e-001 -4.6301059557235252e-001
      2.7664427902343119e-001 3.2076527333013494e-001
      3.2189962086213120e-001 -5.2840270744214357e-001
      1.7298828792568766e-001 -2.1361562438222631e-001
      1.6529282211368332e-001 4.1056564397763728e-001
      9.5851933496259589e-001 1.4519395794930265e-001
      -1.6244432897947239e-001 5.4458953287694356e-001
      -3.8015217048801170e-001 3.1027258378801587e-001
      -1.0708065286812507e-001 -1.7428162413197548e-001
      1.2805050032892273e-001 -1.1810037560814099e-001
      5.5938887015301653e-001 -1.2814741893043777e-001
      6.9770129365374620e+000 -6.0995244960771478e-001
      -1.7331688245987975e-001 -5.5499717119890424e-001
      -4.9480880719451059e-001 1.3452306639928668e-002
      1.3350162346340302e-002 -1.7380411700614017e-002
      1.5331833828346750e-001 2.9220401409932659e+000
      -3.5250354828571563e-002 1.3166269974264966e-001
      3.0910350216348687e-001 4.6659169216395666e-002
      -3.6668887994956939e-001 2.1935367802368472e-001
      -3.1589784726161169e-001 2.0726302870286512e-001
      2.0782074709778545e-001 -3.0507918710172752e-002
      -4.2855969700367968e-001 3.6138652587247416e-001
      8.5983866735160092e-002 4.0019296827033674e-001
      -3.1302287109716997e-001 8.8421556149720859e-002
      -4.0518286318343938e-001 1.5732774880578132e-001
      -1.9293778235158712e-001 -5.0762767174142509e-001
      -1.2165774579895843e+000 2.6463781545558784e-001
      2.9915150799391199e-001 4.8286098112560558e-002
      1.2356748054950519e-002 9.2875165146081004e-002
      -2.1600169058593693e-001 9.1910796793285579e-002
      -1.4486246527274458e+000 -3.2386991383037156e-001
      1.5959575168561344e-001 1.5330272790682387e-001
      3.1278393907416685e-002 -2.4052398222132038e-001
      -2.2643529859748268e+000 -1.3455262037155016e-001
      1.0682107860650727e+000 5.4778223947503268e-001
      -4.1695858504690583e-002 -1.7120461284858790e-001
      4.2787088890505920e-001 -5.1243159139704404e-002
      3.0595322193266311e-001 7.4654570370274523e-002
      -9.6587776100405913e-003 -4.3459005618551587e-002
      1.5413254530367843e-001 -6.0871412846468398e-001
      3.2356863015773613e-001 -1.1918448919011492e-002
      -5.0655158032893066e-001 1.5343041706808225e-001
      8.2852215566269732e-002 3.6700843451983253e-002
      -1.7814997266084633e-002 -1.4982567747517764e-001
      6.4936316169811727e-004 -4.9408153884619793e-001
      4.0397523870066349e-001 -2.9820510289220559e-001
      -1.6297750192241101e+000 -2.0756615964247463e-001
      -7.7211484557715482e-001 -1.0403575844501290e-002
      -9.1467443582554797e-001 -5.0135772822479130e-001
      -2.0574978647555562e-002 1.5186899994365363e-001
      1.2787089456792031e-001 3.1067446914676330e-002
      -2.3580501329569023e-001 -4.3950659635266959e-001
      -4.2250228529819994e-001 2.4583348118428546e-002
      3.1341129205810042e-001 1.8415456113844889e-002
      -1.4998568246977365e-001 -8.0771772464819980e-002
      -1.7628379682685869e-001 8.7088088594429056e-002
      -4.1034001605879961e-001 1.6122730616984060e-001
      -2.1985900684557558e-001 -1.0361670376907452e-001
      4.6224266886870907e-003 -1.9011354978377501e-001
      6.0422958073998764e-002 -1.2965001486435826e-001
      2.2926603454163755e-001 1.2628424920849707e-001
      -2.4025620715854223e-001 -2.3173923880423780e-001
      1.4812662043307817e-001 8.5908834746612733e-002
      2.9278758339318750e-001 6.9127197318485628e-002
      6.6577039081186964e-002 1.0265648164878946e-001
      -8.9355719518361035e-002 8.9451945108769804e-002
      2.3436100377459571e-001 -7.3371332596409627e-002
      -4.6742725446974637e-001 1.1281766851677916e-001
      2.7055107381022150e-002 1.9274255772917923e-001
      -1.3438052217548305e-001 3.4130105897037744e-002
      -1.3250847609079677e-001 -2.6569895106194336e-001
      3.5873125497951341e-001 2.5705289441168244e-001
      1.8741749746395975e+000 -2.1408300117011017e-001
      -1.6290563092826932e-003 -8.6013591673367518e-001
      -3.2600912073995930e-001 -1.9514092041693507e-001
      -1.1128919466950964e-001 2.7922540424122583e-001
      4.0750517027935427e-003 5.6650574473362914e-001
      -2.4947410836913450e-001 5.0336606684659176e-002
      2.3031808901450179e-001 8.1654402339060128e-002
      -3.8735194364397829e-001 -9.2515117735931005e-002
      -1.7830419555291388e-001 -3.2597748298921592e-001
      -3.8350473958105959e-002 -5.5816227055876022e-001
      -3.2506541842664005e-001 4.0906001638330430e-001
      -2.9036265460464872e-001 4.3106597124650337e-001
      -2.4661178406543166e-001 7.9877856227181618e-002
      -2.0296157814117138e-001 1.8845512830600342e-001
      -3.1411991268054870e-002 -3.4868240074548018e-001
      -3.6013950624440022e-001 -1.6494910447513871e-002
      2.1062705806348664e-001 4.4075404197419260e-002
      1.3344803421532214e-002 1.3393439195241083e-001
      -9.8426835137044533e-002 -1.2362073451199806e-001
      4.5349595583668085e+000 -6.3808131251510483e-002
      -2.4409533484008913e-001 -1.3144625983405564e-001
      -2.6729960635818045e-001 -8.2346916526653935e-002
      3.7788829941419722e-001 6.1963743810158817e-002
      2.1590829123159178e-001 1.0913520740351425e-001
      2.7253873085245289e-001 -8.3266589144715096e-003
      5.9113258672504158e-002 2.2414256907170468e-001
      1.3716656747000884e-002 -6.4886461627309794e-002
      -4.0309330326837689e-001 -2.0857590940605304e-002
      3.4395931640958138e-002 -1.6135275799936392e-002
      3.0395849945701842e-002 1.3096528363877039e-001
      -5.0393798715267712e-001 -1.4398173372910944e-001
      -3.4218435949243842e-001 -4.3867826786605064e-002
      -1.3354402799782331e-001 7.9088070302117980e-002
      -2.7262572268670276e-001 1.9828725549387860e-001
      2.4929065308804269e-001 -2.9024073335592199e-001
      5.2956082571096200e-002 -3.3259760130702021e-001
      -2.5940467860294447e-001 1.3038015407496034e-001
      -1.8320405808996323e-001 -2.1964339727136961e-001
      8.8157258650039247e-002 3.7220630719914577e-002
      -2.0896745997688171e-001 -2.1725892055596260e-001
      9.6148094197362755e-002 8.0692131403595935e-002
      -1.0597351935876032e-001 1.5420718713028994e-001
      -4.7732685636427720e-002 -3.8497825361677596e-001
      2.8646816614222925e-001 1.8815536650670897e-001
      8.3149980741819216e-002 4.9386049651720648e-001
      -2.3781419802913609e-001 -2.9450985010262626e-001
      -3.8484635079587409e-001 2.0809584465939288e-001
      1.5335205591411527e-001 7.2081145133703617e-002
      -2.7753470300131322e-001 1.6162329614468490e-002
      1.2607753684750730e-001 2.0338928464537143e-001
      -7.0956549254286280e-002 2.2843701979368258e-001
      -2.6907244795007224e-001 6.8702497168819810e-003
      2.4332593705312575e-001 -3.2455272449810696e-001
      2.3720849793709098e-001 2.1728196865024241e-002
      1.7134634891771627e-001 4.0228327970669842e-001
      9.8934268072540507e-002 -9.3823364327195916e-002
      -2.7377435551083806e-001 2.3239320278284913e-002
      5.1752029207577856e-002 3.5270282940449309e-002
      3.1375293726238546e-001 2.4261210893906669e-002
      7.8145331052848183e-002 -3.7034578162349324e-001
      3.6344285637057543e-002 2.9995240118934402e-001
      -6.5573204759951542e-001 4.5828350898204534e-001
      1.3164908796277558e-001 -1.0587356714605237e-001
      1.2321547823075779e-001 -3.8673704876626980e-001
      3.8352333364083041e-001 5.4506583633920569e-001
      -2.8468645926891789e-001 -1.0084708733421879e-001
      -1.2701047508394772e-001 4.7287226322320804e-002
      8.6180061670531646e-002 3.8339685466426097e-002
      -1.2345373977770792e-001 -3.9127977076391651e-002
      1.5891326492092311e-001 -1.7643860311855558e-001
      1.6884744373833088e-001 -1.8448860656241547e-001
      6.2823389359422929e-002 -5.5926844393783037e-001
      -1.3012298972752370e-001 -1.3129934936196447e-001
      -7.5132296324266195e-003 -1.3968879555515265e-001
      2.6490165217755118e-001 -5.8149542381820474e-001
      3.2789714031930518e-002 4.5283940946190682e-001
      4.0700204173966026e-001 -2.6710710319095506e-002
      3.6260529281207121e-001 -5.4798884984249542e-002
      1.5836677937022062e-001 -2.4872599731909750e-001
      2.7495452498012818e-001 -3.7358985125784289e-001
      3.0805271022041367e+000 1.0561301367948189e-001
      1.2683080979812003e-001 -3.6882566587741424e-002
      -1.1354564031443097e-001 7.2809184328285967e-002
      1.2418841874506402e-001 5.4374329530788700e-003
      2.7361426630905773e-002 -1.2896916442740042e-001
      -4.0194458387003903e-002 -2.1510814325516697e-001
      6.6331357586735598e-002 -1.1501219383426442e-001
      3.4864589370793830e-001 5.6927453595868642e-002
      -6.4354899643313743e-002 -1.5066155303912138e-001
      -3.5238514924526190e-002 -2.6007920502250786e-002
      -1.2965219656266469e-001 2.0772359581740141e-001
      -2.5515573289409513e-002 -2.6326262653188781e-001
      4.1517157185979162e-002 2.2259989007284587e-002
      -1.9028524132578922e-001 1.3583952583709999e-001
      -2.1896584148168899e-001 3.6351179507095328e-002
      4.5410445070094579e-001 -1.7453368688119622e-001
      1.4971781726608638e-001 -4.5983057753314455e-001
      -1.3893912976231737e-001 1.3186438451942734e-001
      -1.2206115505920247e-001 1.1584849847476894e-001
      1.3296338787052375e-001 9.9453920617473043e-003
      -4.4406995239850555e-001 3.2525293865368357e-002
      -8.2660614633827373e-002 1.4887082804137927e-001
      1.2095765591283701e-001 -1.2384629764631636e-001
      -1.0990152855312836e-001 -2.1859637963447681e-001
      -8.1236067535301063e-002 -4.9324729518934038e-003
      6.2828488157401247e-004 3.2599828168481858e-002
      1.0788255680847482e-001 -3.5072163112988686e-001
      -5.3752136493782236e-002 4.6615570890857577e-002
      2.3169465689444321e-001 -1.7568808106832315e-001
      -5.9727126550560672e-002 -4.4574592370401754e-002
      -3.2831489800658434e-002 1.5849612274499400e-001
      6.7840517869093411e-002 3.5842566253688329e-001
      -3.3306685115234402e-001 -1.3180555959848381e-001
      1.4226126351003351e-001 -5.3942742693878953e-001
      -4.9579900250278841e-003 7.7858195966360733e-002
      6.8251816281688471e-002 3.6553042179476736e-001
      2.2853761617824955e-002 2.2799094390390529e-001
      -6.4157066558916520e-001 8.2021018696620845e-002
      5.7251532179295732e-002 6.9416899475770497e-002
      6.6352274925991273e-002 -3.7917285861143868e-001
      -7.6758010055865133e-002 -2.8523769287905884e-002
      -7.7708209223849384e-002 3.1565708143996790e-001
      -3.8901361958584046e-001 1.6289241906444973e-001
      -7.9070125697168245e-002 1.0967487557304929e-001
      2.3927420372826733e-001 1.8950892495930835e-001
      3.6407088581129884e-002 4.6036608392153749e-001
      -2.8145525242171221e-001 -5.0054299761741050e-001
      -3.4559254930648320e-002 1.6047661991549250e-001
      1.9943563370233264e-001 4.8675478745532276e-002
      -3.5702411615839161e-002 6.0866854441219205e-002
      8.2174873810533677e-002 -4.1258160810341823e-002
      6.2716356578461321e-002 -1.6297526430431877e-001
      1.7907707713133381e-001 -7.0911940016293651e-001
      -3.0184785787936086e-001 -6.5169933979036671e-002
      -3.4477966599556195e-002 -9.0980700394655639e-002
      4.6844051438487444e-001 -2.4695183355940356e-001
      -2.8092905321804713e-002 7.2956929540495138e-002
      3.9107275737947217e-001 3.4200788505487967e-002
      2.2787840792755615e-001 6.5555193455903299e-002
      1.5073373384576982e-001 -3.5115834873808111e-001
      4.0443076195405253e-001 -2.9435613881913980e-001
      5.2895368234909874e+000 8.1866814635383395e-002
      -2.5634857905791706e-003 -3.1969310679971480e-001
      -1.7363221058322129e-001 -1.3251888214353398e-002
      2.3836570191162493e-001 8.3969042323858628e-002
      -3.0124277332890576e-001 -2.1172115885256398e-001
      -7.8484205582327535e-002 -1.0830003840954387e-002
      -8.9024092195666149e-002 4.1514043495723754e-002
      4.3976408437941827e-001 8.1687307511542240e-002
      1.6714418761676791e-001 2.8849117033436278e-001
      -3.2005931594161451e-002 1.0773472272494372e-001
      -1.5528455571110572e-001 1.7187973822050387e-001
      1.6152518965034027e-001 -2.9150973404455843e-001
      -1.2537751284823756e-002 -9.7319776860934501e-002
      -3.5333898062743313e-002 1.6737940782819938e-001
      -2.6355410610669150e-001 2.3904679989787356e-001
      5.4191728742417222e-001 -1.3701350180636018e-001
      2.1847320962818087e-001 -4.0543381859368005e-001
      -6.7355649202476969e-002 1.1867521428615095e-001
      -1.1173810557990389e-001 8.8688533246878129e-002
      2.2854932671959033e-001 -5.7652722157970474e-002
      -2.2159728923218422e-001 -2.1903450132356322e-001
      -1.0325814669411472e-001 9.9283090821561851e-002
      6.8297374266946848e-002 1.6291454544265474e-003
      1.5608858005867982e-001 -3.0293407122959332e-001
      -1.0135704471373071e-001 4.7904817872745781e-002
      -4.3990542633817714e-002 -5.2934738966634524e-002
      -8.1100807665747801e-002 -7.2697423665576563e-002
      -5.1762776452298646e-002 -1.7291871716776835e-001
      2.0834826860648656e-001 -4.0037578882193198e-002
      -1.5468844396063539e-001 6.6868872294419665e-002
      -1.0361528409255477e-001 2.3248797244686156e-001
      1.1962903078995771e-001 3.5750808551045410e-001
      -7.3765309902690146e-002 -9.4079453569209159e-002
      -2.7455126022896636e-002 -3.2038747923203126e-001
      -9.4982499143745666e-002 6.0101112724723273e-002
      1.2469971696056781e-001 3.9976603824011386e-001
      6.8757384572742221e-003 3.9138377348246534e-001
      -6.0145481878130413e-001 -3.5336047534002457e-001
      -5.6257841645641921e-003 1.8980287429291354e-002
      3.3642368074015119e-002 -4.5937995763896045e-001
      9.2555367109830016e-003 -2.4711444221644863e-001
      -1.4439546693223396e-001 3.0318828420825689e-001
      -3.5934601655158094e-001 2.7252845688362587e-001
      -5.7896391965409813e-002 9.2090769490515853e-002
      1.2700261121111306e-001 6.7893142749760965e-002
      -1.6159741215553133e-001 3.4944863062159626e-001
      -3.6531378581984802e-001 -4.0102350646595969e-001
      -1.0629054080556677e-001 3.2639299651274128e-001
      2.0953583022366734e-001 1.9066268402307970e-001
      2.2146783451443128e-001 -7.8400259964237232e-002
      -1.9604554958766198e-002 7.7988169473035746e-002
      2.5858640389671162e-002 -5.7172953461014316e-002
      1.6014238887415574e-001 -8.0183336422536389e-001
      -5.6218498091749225e-001 -1.1969477144207909e-001
      1.5565769456079198e-001 7.0135046271188051e-002
      3.5387464610044156e-001 -2.4324978835925060e-001
      -2.2875009551523345e-001 8.9556164272340047e-002
      3.4125671286368514e-001 9.9103546206179144e-002
      1.1254010588071550e-001 1.3437302449996408e-001
      -1.6164966312701978e-002 -2.6964950957578204e-001
      2.8051710562697618e-001 -4.0938023145378044e-001
      3.4348953927134400e+000 9.0236678932719014e-002
      5.0375931415648376e-002 -1.6656878919139356e-001
      2.2756974332841004e-001 -6.9727892642705611e-002
      8.4656305197248027e-001 1.5244018684877270e-001
      -4.1039592697050875e-001 -2.9027328730481949e-001
      -1.6702064953280524e-001 2.1935522557790230e-002
      -2.4456265672565300e-001 2.2731996771103774e-001
      1.0924674512868593e-001 -5.6856195205409896e-002
      1.7707915963478710e-001 1.1988077204274723e-001
      1.9998130437981576e-001 4.1249803780971978e-001
      2.0968937389819103e-001 9.1389862010622366e-002
      2.1102778731978485e-003 3.4667725414327433e-001
      1.8645140462286747e-001 1.8815394872281992e-002
      1.6258718166302466e-001 9.7993298378691918e-002
      -1.3119908543338588e-001 -2.1084423956342596e-001
      2.5775782424438773e-002 -1.2435704076759935e-001
      1.7343294951141233e-001 -3.2895311692524154e-001
      -8.8253622883328706e-002 2.3797658891932633e-001
      1.7237660837745702e-001 1.1586596476546389e-001
      1.6909169359598120e-001 -1.7164663498321983e-001
      -2.4238595754370984e-001 -4.0198310726475256e-002
      -5.2206288991693044e-002 4.9100368260825152e-002
      3.0803971860710877e-001 1.6437324475304763e-001
      -2.7792370987309223e-001 -2.7142966518775269e-001
      -5.5190137425851216e-003 2.0913002922381138e-001
      2.3755432565181175e-001 2.2501226674196548e-001
      -2.4388259642899185e-001 -8.5039430874732369e-002
      -2.3491938740234250e-001 1.0319789173643852e-002
      2.3340662909837692e-001 1.4011283164311229e-002
      -8.6800936013969165e-003 1.8467725954846584e-001
      -1.0652919267337758e-002 1.7874990530957094e-001
      -4.5545729491951414e-001 1.5939972040627401e-001
      4.0546612965841035e-002 2.8448572236198313e-002
      -1.6406669777836147e-001 -2.1011713465611509e-001
      -1.9578552044153822e-002 -7.0952767447397605e-003
      -1.7975368034552644e-001 1.8014779372394635e-001
      -3.7856752997552207e-001 6.4311706260164220e-002
      -5.9649700475568120e-002 -7.7849518012717833e-002
      -4.0161955561991353e-001 -1.4232385067953240e-001
      6.2888877856526915e-002 -1.7609890455990752e-002
      -6.0253072046187475e-002 -1.2117323507193389e-001
      -2.8076117357536934e-001 -1.8228721147435462e-001
      -4.1166001246835859e-001 2.1678132055263116e-001
      3.3182639292608203e-003 3.1252443470327806e-001
      3.3076263091295424e-002 4.2371145127382923e-002
      -2.7988358720884059e-002 9.8361982759269412e-002
      -4.3569574121299089e-002 -4.4839686284954500e-001
      6.7253354296998760e-002 9.3763560433358997e-002
      -1.0095969767660241e-001 -4.6831702996792929e-002
      3.3030783073056630e-001 4.5567469494330517e-003
      1.1879691279520316e-001 2.4016768166587768e-001
      -2.3451622600628337e-003 1.7375724533051257e-001
      -2.1224410062906575e-002 -1.1308840742359907e-001
      -4.6183513056586933e-001 -2.5761508205888695e-001
      2.5744516981994631e-001 7.7651462952860184e-002
      -2.4398352149879102e-001 -4.5795346451937606e-002
      -7.9403768295461766e-002 2.2195922903774890e-001
      7.4967299859568393e-001 -6.1241947379373302e-002
      -1.1599344990339576e-001 -5.8706206667577122e-002
      -1.7365259449265532e-002 -1.1369452181195720e-001
      -9.3343226017052736e-002 -5.6735320946789769e-001
      3.0767656464431914e+000 5.7781807328417305e-002
      -9.7784752055412552e-002 -6.1720151462627000e-002
      3.1440640250569633e-002 5.6835232200695571e-002
      4.4303197292143875e-001 -2.0258669300101498e-001
      -1.0746307386758952e-001 -1.7870264407667188e-001
      -2.7230691666182155e-001 1.1710012216568121e-001
      -1.5200152282739848e-001 2.2346790476093051e-001
      5.2920842407817019e-002 -6.0304215081037105e-001
      1.6408376721864884e-001 2.1967121731052533e-001
      1.4635932839384597e-001 4.4620336926544302e-001
      -2.7039181381861056e-002 7.9181724921974270e-002
      8.3551987794914920e-002 2.5366350813388538e-001
      3.9505495769910109e-002 1.1304775583713118e-001
      1.5488553239817665e-001 2.0589540257605854e-001
      -2.8096437165424215e-001 -7.9471679447637653e-003
      2.0212368409969695e-002 1.0399579498363211e-001
      1.9618903990121095e-001 -3.0446867371039005e-001
      -2.3621607031304973e-001 -1.7718530357117993e-001
      6.8083987857786687e-002 6.7813909326927310e-002
      2.0066092323088636e-002 -9.0769227979459799e-002
      -3.0872841389466665e-001 -1.7886860081764544e-001
      3.2711246689858692e-001 1.6801634669084520e-001
      1.1128446985354735e-001 2.9228694575792108e-001
      -1.6312744387226194e-001 1.2940051275606499e-002
      6.8477784956482310e-002 1.6532873207081461e-001
      3.0094343322367317e-001 3.4492188298850368e-001
      3.4804682761121856e-003 -7.4537480054776506e-002
      -7.7808402905777591e-002 1.5937446224712712e-001
      2.0835591395743835e-001 1.6733828207342738e-001
      -1.6956094990535417e-001 -1.0171754336380330e-002
      3.7753687836383346e-002 5.1767206504475555e-002
      -3.3413381932420894e-001 1.9080344840761757e-001
      -2.1479041105991165e-001 1.4751368891581781e-001
      -4.5446032438626083e-001 -1.3676221937810143e-001
      -8.3295726059518030e-002 -8.5866480508369637e-003
      9.4603326731254739e-002 2.1687783074262784e-001
      -8.0860803409195214e-002 1.2429523651858239e-001
      4.0249909228536918e-001 3.3089974536206052e-001
      3.0676621841999943e-002 -1.8374894706774936e-001
      1.2764556369082722e-001 4.5240155259892334e-002
      1.3958330391447310e-001 8.1976036944798797e-002
      -3.7167279586008700e-001 -1.0070440374443382e-001
      -2.9217069487948666e-001 3.7106264104148012e-001
      -3.9762595784747379e-003 2.1463258502007415e-001
      4.2388946641811399e-002 -7.5999752153558635e-003
      1.3447847766550305e-001 4.4641166856301824e-002
      -2.2019495693875318e-002 1.1747885316599833e-001
      1.4230625258109555e-001 -7.9740703246207398e-002
      -1.2565326197101770e-001 -3.7516608245850028e-002
      1.8902826491560120e-002 7.2856943679621006e-002
      3.3962794169273525e-001 8.3826995135580340e-002
      2.7815292896799954e-001 3.3088955531993491e-001
      -1.9854418550919445e-001 8.1386380932846766e-002
      -1.1122961250817336e-001 -2.9679129878277000e-001
      3.2234294910532252e-001 1.1968590026439394e-001
      -3.3917138516350187e-001 -3.0915021046125246e-001
      -1.2865104826083201e-001 2.1139165752875655e-001
      3.9039694488844140e-001 -8.1478119138505750e-002
      -2.1439550370657914e-001 -2.4174384020977394e-002
      -3.8109852893279267e-001 -3.9344709558721297e-001
      -2.6253674794166799e-003 -2.7101339265250102e-001
      1.6025814540646302e+000 1.8644311295977983e-001
      2.6799259976075113e-001 1.3144163725382305e-001
      -3.3878824188649771e-002 -1.7034655074914212e-001
      9.7360397092499662e-002 -2.9801795234668382e-001
      1.3127354439586780e-001 2.4066162457854021e-001
      -1.2042745951126982e-001 3.3204185734065701e-002
      -1.1672179342924370e-001 -1.0778838863237862e-001
      -3.3623484190080238e-002 3.5083886599415381e-001
      -1.3573324328788008e-001 1.0178336924306791e-001
      5.5216086117799844e-002 5.8629536988659761e-002
      1.9242232235319723e-001 2.0549495715445766e-002
      1.3088143400432349e-002 -2.0125605591767978e-001
      1.2693212073390428e-001 -9.0725689832267573e-002
      -2.2884999257451949e-001 6.9812794491979677e-002
      -3.8963107858498147e-001 -2.7233981076102448e-001
      7.7245264107072234e-002 -1.5078959587264061e-002
      7.1561759604926600e-001 -1.5037616728659287e-001
      -1.4497383804483273e-002 9.2518019409819324e-002
      1.2553054347378304e-001 -1.4789032561755538e-001
      9.9872077266994055e-002 7.6477423647895809e-002
      -9.8249756046448339e-002 -1.7455941231632430e-001
      7.6540668566206296e-002 -3.7862063641071031e-002
      -1.3067683477859346e-001 1.1628901400537106e-001
      -7.1266739842304666e-002 1.9037596576381841e-001
      -2.0341656966908310e-003 1.8048514557298215e-001
      -3.1380038596672055e-001 5.4431771708479688e-002
      1.8912208481907197e-001 -1.7474048567670733e-001
      -2.2207121328525259e-001 8.7032656118934917e-002
      -1.4961316946357217e-001 3.5306487637910750e-001
      -1.4292190449660461e-001 -9.2270070339971935e-002
      1.1689858875193174e-001 -1.0146461445725248e-001
      -1.4572395289893647e-001 7.2100803237889921e-002
      -9.4202101614414627e-002 5.2956796055738324e-002
      -2.3524225046260050e-001 7.4657369217348057e-002
      2.7316827491613843e-001 1.4528043058905990e-001
      -2.7440576746164547e-001 -2.3369891791337494e-001
      -1.5860997276785610e-001 1.6731260293122199e-001
      1.8629214751051532e-001 -2.7154558506580340e-001
      -1.4994206768086549e-001 7.8836863772783553e-002
      3.9614182883765656e-002 6.9115994272968958e-003
      -1.3948620406115000e-001 1.8941809058328637e-001
      -1.9463107939683247e-001 1.0661419840608917e-001
      -4.3945570809944268e-001 1.2992358542959920e-001
      -3.1180543727650518e-002 2.8586023849701914e-001
      -6.7352324224005583e-002 1.7421417651886231e-001
      -1.4156773858774152e-001 -1.8910047898368543e-001
      5.7595487654484946e-002 7.1516910872149217e-002
      5.3881817114933644e-002 1.4658418839698539e-001
      -4.4875741462328317e-001 1.4583953779551928e-001
      -2.0163061110863442e-001 -2.1167633882761638e-001
      4.1238484820636884e-001 2.8588942716200499e-001
      1.1478105558929176e-001 2.9031819069265213e-001
      -5.2810376043902714e-002 -1.4522704638462020e-001
      2.5001215137376798e-001 -3.3166766300384115e-001
      -1.4582491852729914e-002 1.4050910822189499e-002
      -2.1627797125320519e-002 4.6252474360997796e-002
      2.1391691875720487e-001 -1.3883837907074614e-001
      6.4850322176873476e-002 -7.0881343999440585e-002
      -5.5300892024465276e-001 1.1185833114942856e-001
      -1.2902678999956478e-002 -4.5530068236061044e-001
      2.6446426089680991e-001 -7.8671727100736624e-002
      5.0424430319185767e+000 1.7597606369415686e-001
      6.8309504266708301e-002 1.8725855120966145e-001
      -3.9391642951134738e-002 -2.0353092457213556e-001
      4.4658998191474159e-001 -9.7860602015749962e-002
      9.9796792492307662e-002 1.9640973980467322e-001
      -2.2177963373587720e-001 -1.4424715480816372e-001
      7.1139309718188468e-003 -1.6809931429634087e-001
      3.0640102058048591e-001 3.8215831023341390e-001
      4.3999175376667775e-002 -1.3220466677361242e-001
      -5.7566118342981060e-002 2.5513855527449301e-002
      2.5566586775793718e-003 1.2241857458968722e-001
      -3.1490470586219016e-001 -2.8940755652962391e-001
      3.5612810302787318e-001 -1.1282509070786549e-001
      4.9138872808255782e-002 6.0445447053498795e-002
      -5.6696096796725770e-002 9.0370475982412459e-003
      3.7655962195294373e-001 -4.5577321353460215e-001
      6.2994335629305065e-001 1.5584352325725498e-001
      -8.9980178208999742e-002 4.3657435637037728e-001
      -1.1934166116048556e-001 -2.9514147623490394e-001
      2.5263848866862809e-001 5.1355683333692691e-002
      2.2144688214770558e-001 -9.5195132519284895e-002
      1.3657436192063024e-001 -9.7532403973806941e-002
      -6.0013595921033155e-003 2.7498830893779413e-001
      -1.4769387204017537e-001 2.6329932770194159e-002
      1.1231398742746368e-001 2.0041946119931237e-002
      1.4957442955022726e-001 1.7056816750234821e-002
      -6.1447745438581620e-002 -3.5133653821229120e-002
      -1.7649575829745873e-001 -1.7513873772103886e-001
      7.1523719151831699e-002 1.9183053580576553e-001
      -3.8314327337621093e-002 -1.3993719282892075e-001
      -8.3993304100317884e-002 -1.2666175815030678e-001
      -2.0647107255872182e-001 -5.4934844184096991e-002
      8.4626356714898737e-002 2.4354210565813389e-001
      -3.1674132965573398e-001 7.7440725895783782e-002
      2.6772135426937366e-001 1.1314607354306593e-001
      -1.1713479508751888e-001 -3.6139640606292517e-002
      -3.9234100983979142e-001 9.4882939775755112e-002
      -2.6607797525514489e-002 -3.5420435687745958e-002
      1.4496203193412407e-001 9.4177285208880787e-002
      4.5789714467905689e-002 1.0350567327041216e-001
      1.3575465484115465e-001 1.1100005226982343e-001
      7.9607101766225277e-002 -5.0275299148101837e-001
      -7.9315580113305373e-001 5.4949181387573445e-002
      -7.7814454712795661e-002 3.5153238890594511e-002
      -1.7628527365011529e-001 2.4645788012208877e-001
      -2.0312138606520974e-001 -6.4823537814187884e-002
      7.5885369600321457e-003 2.0341318801615776e-001
      1.3649931268356535e-001 -2.9729560802211336e-001
      -1.8065586823663168e-001 7.6235371444618644e-002
      -4.2904048852791837e-002 -2.8423307220266475e-001
      4.1121654118380185e-001 7.4908541655758554e-002
      1.2537559297082582e-001 2.5056267625714784e-001
      4.5891906852994484e-002 8.2053753403076260e-002
      3.5079495675418587e-001 -8.2740418688325060e-002
      -9.6747413479786326e-002 1.9788394060084571e-001
      -2.6087821785568451e-003 8.6676232630010799e-002
