<?xml version="1.0"?>
<opencv_storage>
<my_nn type_id="opencv-ml-ann-mlp">
  <layer_sizes type_id="opencv-matrix">
    <rows>1</rows>
    <cols>3</cols>
    <dt>i</dt>
    <data>
      225 15 10</data></layer_sizes>
  <activation_function>SIGMOID_SYM</activation_function>
  <f_param1>5.9999999999999998e-001</f_param1>
  <f_param2>1.</f_param2>
  <min_val>-9.4999999999999996e-001</min_val>
  <max_val>9.4999999999999996e-001</max_val>
  <min_val1>-9.7999999999999998e-001</min_val1>
  <max_val1>9.7999999999999998e-001</max_val1>
  <training_params>
    <train_method>BACKPROP</train_method>
    <dw_scale>1.0000000000000001e-001</dw_scale>
    <moment_scale>1.0000000000000001e-001</moment_scale>
    <term_criteria><epsilon>9.9999999999999995e-007</epsilon>
      <iterations>1000</iterations></term_criteria></training_params>
  <input_scale>
    2.8916603891221429e-002 -1.2266722093566664e+000
    2.2794812171412628e-002 -1.8961986905857673e+000
    2.4369834927259318e-002 -2.4818657186823634e+000
    2.5446830113089333e-002 -2.7762440026577626e+000
    3.1415154602937929e-002 -3.3682254790588204e+000
    2.4661234642773269e-002 -2.5120893023681958e+000
    2.5037747584481667e-002 -2.1243427190911568e+000
    3.2828271483679526e-002 -1.2053879580097253e+000
    1.4938730181429197e-001 -2.5411283157643860e-001 1. 0. 1. 0. 1. 0.
    1. 0. 1. 0. 1. 0. 2.0569416384779413e-002 -1.8147100457544387e+000
    1.9212065469613848e-002 -2.5969901503845025e+000
    2.0591759949061886e-002 -2.5472677605012048e+000
    2.2015422922336197e-002 -2.7048604690390432e+000
    3.2322696184657058e-002 -3.9459614716155644e+000
    2.0275660944943086e-002 -2.5794492469927710e+000
    1.9015438806920155e-002 -2.6204285782062660e+000
    1.9584624321862226e-002 -1.5514250662907145e+000
    5.9576555644751429e-002 -2.9367774732772778e-001 1. 0. 1. 0. 1. 0.
    1. 0. 1. 0. 1. 0. 1.7527980187886139e-002 -1.9259106322445807e+000
    1.8310286923295029e-002 -2.1942646336096545e+000
    2.3570989639901996e-002 -1.4114297122241926e+000
    2.1259771633462664e-002 -1.1698938141298665e+000
    2.3843584331370987e-002 -1.3117012060678594e+000
    2.2957496615743426e-002 -1.5484089540729227e+000
    1.6955690241588429e-002 -2.0357041777579186e+000
    1.5739551750881618e-002 -1.4930957557743505e+000
    3.9301503846574902e-002 -3.0487255573865762e-001 1. 0. 1. 0. 1. 0.
    1. 0. 1. 0. 1. 0. 1.6163465857616074e-002 -1.7837443407795597e+000
    1.8499772731673820e-002 -1.8459447716978150e+000
    2.4378576384934448e-002 -9.0395021196794167e-001
    1.7338372258760403e-002 -7.1994964402131756e-001
    1.9684749309658824e-002 -7.8178555257398519e-001
    2.2061770450626336e-002 -1.0940300994074810e+000
    1.8942509040013000e-002 -1.9409261551045578e+000
    1.5309029443748358e-002 -1.3587678132946073e+000
    3.4121482227720649e-002 -3.0477390470707311e-001 1. 0. 1. 0. 1. 0.
    1. 0. 1. 0. 1. 0. 1.5511425389860178e-002 -1.4209880977209528e+000
    1.6072656632731431e-002 -1.5036791634029907e+000
    1.9089957793195802e-002 -1.0661989188815426e+000
    1.7270705608589086e-002 -1.0643553067142015e+000
    1.8897607291612037e-002 -1.1832253361806111e+000
    1.7741480408593035e-002 -1.3606411072532294e+000
    1.8504361502275139e-002 -2.0998242551261841e+000
    1.5457900838906221e-002 -1.3193778393208935e+000
    3.3394744344304256e-002 -3.0492286077432296e-001 1. 0. 1. 0. 1. 0.
    1. 0. 1. 0. 1. 0. 1.5054212524481397e-002 -1.0694965706069686e+000
    1.3752046051419182e-002 -1.2361080844802315e+000
    1.7462417039083529e-002 -1.2644586883573679e+000
    1.9414928196367330e-002 -1.5844805102183650e+000
    1.8832602356853603e-002 -1.7034851129305131e+000
    1.6671515508599150e-002 -1.6889534191468121e+000
    1.6004413371104555e-002 -2.0028115163071756e+000
    1.5816653826859171e-002 -1.3844480489915469e+000
    3.4149399913107566e-002 -3.0700911239446188e-001 1. 0. 1. 0. 1. 0.
    1. 0. 1. 0. 1. 0. 1.5696981515431457e-002 -1.1129065677942149e+000
    1.5667980600208027e-002 -1.2942316413806620e+000
    1.8828059891439947e-002 -1.1727926935731781e+000
    1.7818617488851048e-002 -1.3483863092025770e+000
    1.6708529750243402e-002 -1.3874877406289168e+000
    1.7494502743957498e-002 -1.4202984610497666e+000
    1.5949544253039613e-002 -1.7793585108107288e+000
    1.5109366737851061e-002 -1.4022071737265693e+000
    3.2617578594835481e-002 -3.4038892664869791e-001 1. 0. 1. 0. 1. 0.
    1. 0. 1. 0. 1. 0. 1.5403990883497835e-002 -1.4070189383651215e+000
    1.5460051093063353e-002 -1.3076372045400046e+000
    1.8916068040881504e-002 -8.6554186886983409e-001
    1.6134944845901746e-002 -9.2155625927160101e-001
    1.6859472054798819e-002 -9.0977323821909506e-001
    2.0561263986873083e-002 -9.2527970363641820e-001
    1.5650136131978493e-002 -1.4567908804285903e+000
    1.3718601077507504e-002 -1.4030295792166150e+000
    2.5595471445851614e-002 -4.0302166315052024e-001 1. 0. 1. 0. 1. 0.
    1. 0. 1. 0. 1. 0. 1.5832203497511316e-002 -1.7705652845309308e+000
    1.6131369186463164e-002 -1.6443297768841092e+000
    1.6876132846493152e-002 -8.4983003763786746e-001
    1.3793009748642521e-002 -7.8269823815650297e-001
    1.5397698946070010e-002 -7.2649184144952961e-001
    1.7120650832519319e-002 -7.1603385223111082e-001
    1.4047507601656715e-002 -1.3259277852711600e+000
    1.3073592881865324e-002 -1.3744030513719649e+000
    2.1792816596917765e-002 -3.9698098420453259e-001 1. 0. 1. 0. 1. 0.
    1. 0. 1. 0. 1. 0. 1.6114792790960161e-002 -1.6836659719300036e+000
    1.7853705361884496e-002 -2.1489812002796054e+000
    2.4659652717705424e-002 -2.0644235077477822e+000
    2.3192637311775007e-002 -1.8851911131323997e+000
    2.5605047428412648e-002 -1.8213340608266706e+000
    1.9913865472385862e-002 -1.5025353159242509e+000
    1.4791458783979815e-002 -1.6913284040151892e+000
    1.5438239424299957e-002 -1.4250855291652034e+000
    3.2703026722919568e-002 -3.8043881161442267e-001 1. 0. 1. 0. 1. 0.
    1. 0. 1. 0. 1. 0. 1.9279484772870548e-002 -1.3091423761913421e+000
    1.6081914645185779e-002 -1.8466538205486736e+000
    1.9071011669147146e-002 -2.2912969014842783e+000
    2.2032263784151278e-002 -2.6109928701295111e+000
    1.8845070727626961e-002 -2.0975690246976426e+000
    1.6001871618760374e-002 -1.7585351900762136e+000
    1.6106178715428646e-002 -1.7918908146481101e+000
    2.1334191447802572e-002 -1.2745422309167165e+000
    7.3939466280875679e-002 -2.9896371937614724e-001 1. 0. 1. 0. 1. 0.
    1. 0. 1. 0. 1. 0. 3.7936476805618340e-002 -7.0811433863573925e-001
    2.2098333574693235e-002 -9.3270070578737729e-001
    1.8649218433807676e-002 -1.0157183420938782e+000
    1.8052804212590770e-002 -9.9551776474572096e-001
    1.7779827997400938e-002 -9.3053527458969321e-001
    1.8468077021422440e-002 -8.6127956526152405e-001
    2.2717895273637830e-002 -8.3893022246729199e-001
    4.1812446972465812e-002 -6.4699666275283385e-001
    1.7828365420290865e-001 -1.3584044270366985e-001 1. 0. 1. 0. 1. 0.
    1. 0. 1. 0. 1. 0. 1. 0. 1. 0. 1. 0. 1. 0. 1. 0. 1. 0. 1. 0. 1. 0. 1.
    0. 1. 0. 1. 0. 1. 0. 1. 0. 1. 0. 1. 0. 1. 0. 1. 0. 1. 0. 1. 0. 1. 0.
    1. 0. 1. 0. 1. 0. 1. 0. 1. 0. 1. 0. 1. 0. 1. 0. 1. 0. 1. 0. 1. 0. 1.
    0. 1. 0. 1. 0. 1. 0. 1. 0. 1. 0. 1. 0. 1. 0. 1. 0. 1. 0. 1. 0. 1. 0.
    1. 0. 1. 0.</input_scale>
  <output_scale>
    5.2631578947368418e-001 4.9999999999999994e-001
    5.2631578947368418e-001 4.9999999999999994e-001
    5.2631578947368418e-001 4.9999999999999994e-001
    5.2631578947368418e-001 4.9999999999999994e-001
    5.2631578947368418e-001 4.9999999999999994e-001
    5.2631578947368418e-001 4.9999999999999994e-001
    5.2631578947368418e-001 4.9999999999999994e-001
    5.2631578947368418e-001 4.9999999999999994e-001
    5.2631578947368418e-001 4.9999999999999994e-001
    5.2631578947368418e-001 4.9999999999999994e-001</output_scale>
  <inv_output_scale>
    1.8999999999999999e+000 -9.4999999999999996e-001
    1.8999999999999999e+000 -9.4999999999999996e-001
    1.8999999999999999e+000 -9.4999999999999996e-001
    1.8999999999999999e+000 -9.4999999999999996e-001
    1.8999999999999999e+000 -9.4999999999999996e-001
    1.8999999999999999e+000 -9.4999999999999996e-001
    1.8999999999999999e+000 -9.4999999999999996e-001
    1.8999999999999999e+000 -9.4999999999999996e-001
    1.8999999999999999e+000 -9.4999999999999996e-001
    1.8999999999999999e+000 -9.4999999999999996e-001</inv_output_scale>
  <weights>
    <_>
      -2.1801136176535159e+000 -5.1457543996221999e-001
      -2.8383269973377989e-001 3.8123566798025865e-001
      -3.1506200835561760e-001 -2.7181293916537375e-001
      1.0275156091229919e-001 1.2621340269832110e-001
      2.4837551051123011e-002 -3.1322398296804566e-001
      -3.9212399139795490e-001 -1.3909669503977135e-001
      -1.1041160999212980e+000 3.7785482889107513e-001
      -3.8054132579316232e-003 -2.5072692024720782e+000
      -2.3338138450431214e-001 -2.3586455432672590e-001
      2.7435849417254510e-001 -2.8703678133449534e-001
      -1.2801121370341478e-001 2.4498480001437098e-001
      3.2657919584013213e-002 3.3984823481658855e-001
      -2.9600909393886027e-001 -6.7167913955487629e-002
      -4.1739617705378674e-003 -6.5499514315921403e-001
      1.9392006208669116e-001 -2.0999410616146216e-001
      -9.4523444663967604e-001 1.1483116049874953e-002
      -1.6422804537824337e-001 1.8510606770185228e-001
      -3.9685230190031706e-001 1.4694412808562879e-001
      4.2532540733522622e-001 -4.9272874806341446e-002
      6.4759324104322391e-001 -2.6807585377001020e-001
      8.5401047588678114e-002 7.5183631975277040e-002
      5.5542155144803367e-002 -6.0201127876218410e-002
      -5.4109326348991538e-001 6.0240543161226845e-001
      6.0595580763021503e-002 -2.9011823999320403e-002
      6.3958201255563563e-002 -3.5153694024782617e-001
      2.3810909638747016e-001 4.0682935731183600e-001
      -9.7305149621107104e-002 7.0549943058139541e-001
      -3.0708022603044915e-001 1.2970237211515656e-001
      4.1516329003873517e-002 7.3685427492668570e-002
      -1.1383099459989914e-001 -5.2281770095422453e-001
      -3.7361541824761155e+000 -2.0624816712264691e-003
      2.9918278058259095e-002 1.8009077212911592e-001
      -1.7838008491375945e-001 9.4121399855490603e-002
      3.3240212577825307e-001 -5.3338776032482937e-002
      4.9604436810049707e-001 -2.0471240163897139e-001
      1.1057017812497247e-001 2.0720677135688557e-002
      -1.1279031912744374e-001 -1.5854785621456735e-001
      -1.6377327004419889e-001 -6.6929866974189132e+000
      -1.0031745054278356e-001 -3.0531961815383094e-002
      1.5489642021539685e-001 -2.1741880200759631e-001
      -1.8579206080361144e-001 -2.5363407721210630e-003
      7.0631826766233155e-002 1.4439029526678915e-001
      -3.7620981311773077e-002 -5.9151422993118574e-003
      -2.3816962388702304e-002 -2.5817706227186116e-001
      -5.3876971191555816e-002 2.1700662188640177e-001
      -5.5610830199731920e+000 -1.2720297569919739e-001
      -7.9243829096579121e-002 2.5062426353349321e-001
      -3.5980218558214355e-001 -3.8075363704988879e-001
      -1.2697093799157938e-001 7.3076178226699387e-002
      8.0700018044271390e-002 -5.2154233615586937e-002
      -8.3505664419415718e-002 -9.4530719450570844e-002
      -4.1128416092909253e-001 -1.3991109572643746e-002
      1.9686321984348779e-001 -3.6546448333855679e+000
      -9.0480790695143892e-002 -1.1488396477796475e-001
      1.6157032754632844e-001 -2.1242594236072046e-001
      -3.6886819797973458e-001 8.7418932738845920e-002
      6.3766585822748245e-002 -1.4576505992893277e-001
      -1.4624757318839993e-001 -2.1130672545108140e-001
      -6.0377929581758069e-002 -1.1400232859659055e-001
      2.5530332329327921e-001 3.1733411911888040e-002
      -3.5342089510693925e-001 8.6702872773918218e-003
      -1.1110245889127088e-001 -7.6923952415390934e-002
      4.5666165231104949e-002 2.4898856265772863e-002
      7.8802421083435617e-002 -4.5795562817263977e-002
      -2.7242968824606295e-001 3.8139610923274378e-002
      -5.3410051257748808e-002 2.9711110221317127e-002
      2.7834683167775046e-002 2.9075357196934826e-001
      -1.4677876157816208e-001 6.6393230365940454e-003
      -6.8879358026546784e-003 8.3890523863767771e-003
      -5.9741967620883848e-003 -8.8404691839913500e-003
      -8.6509115977916723e-004 2.5880588828635026e-003
      6.2950049232704383e-003 5.5780824208451979e-003
      -4.9863863709224965e-004 1.5289603904842554e-003
      2.8372059727565895e-004 4.6908175733111502e-003
      -1.1635722435108986e-003 -8.3076668720578548e-004
      6.7018396944189288e-003 -5.8148463236098857e-003
      -6.1212241420915926e-003 6.5125753358501962e-003
      -4.8139152380940872e-003 -4.0143505192615512e-003
      4.2276406138550791e-003 3.9402064462011133e-003
      3.2853640102935154e-003 -3.7808069962115384e-003
      -6.4582764857802543e-003 -3.3931531206866112e-003
      -1.6290411947287955e-003 2.7890204701238454e-003
      5.4716612402334218e-003 3.9833934835335665e-003
      -1.8960651250535486e-003 -3.5024843814834531e-003
      -3.8325361727180002e-003 9.6836481192438535e-005
      1.9166872328227195e-003 2.9557486486108510e-003
      3.1402795337717574e-003 -6.7259732525467124e-003
      -3.3837255127563419e-003 5.5583276171743126e-003
      8.7903245796413696e-004 1.8082662486540726e-003
      2.9874818867628170e-003 -4.7438589815532754e-003
      7.7677728719117399e-003 -4.6624471382552650e-003
      -1.4035069869713548e-003 7.3221123695754791e-003
      3.2050183613541085e-003 4.8989240411469901e-003
      -1.0212795169377386e-003 4.4154933712840577e-003
      -1.1641599577326891e-003 -2.4168867002467439e-003
      2.7310874072123386e-003 -7.7066492281924756e-003
      -6.2746223540152040e-003 2.8914205810694465e-004
      -7.6710143455118417e-003 6.3122253525749383e-003
      4.2597607993390919e-003 -3.4078349999341526e-003
      -6.0115911195379333e-004 -7.8007042863802922e-003
      -3.1782650037614173e-004 4.5957388171173202e-003
      -6.6701990847747653e-003 -8.6164845905552789e-003
      3.0429378798454997e-004 -2.5883071809209915e-003
      -3.0029988836183415e-003 4.1851599384739140e-003
      2.0431200484191179e-003 -7.5085296687332128e-003
      1.7323541742891488e-003 -8.0335801124543412e-003
      -4.7923863451657372e-003 -4.1884537062082464e-003
      2.6406373270941828e-003 3.7106745351322161e-003
      -4.1254867477762769e-003 7.9700614197005786e-003
      -2.9214389648877220e-003 -4.3456879626608980e-003
      -8.1672029049861834e-003 -4.7990134216923617e-004
      7.2603989255396054e-003 7.0393855116037971e-003
      -5.7873222418661878e-003 -8.8438252066750500e-001
      -4.1504831306448187e-001 -5.6527279305541231e-002
      1.4157001357227275e-001 7.4184816498314973e-002
      -3.4872583164250692e-001 1.0103652937685216e-001
      9.3173300751775087e-002 6.2249917984970600e-002
      -3.2894715006979641e-001 -2.3729442959849065e-001
      -1.1218422903457241e-001 -7.2060062713976347e-001
      2.1554487663999150e-001 9.0989116282890928e-002
      -3.1706983384007043e-001 -1.6637823988804595e-001
      -2.8601105415071437e-001 1.2969896958682212e-001
      -9.1326711625868945e-002 -1.3155192077973701e-001
      3.1701370744918356e-001 1.0638792501538739e-002
      2.0730767432251779e-001 -2.4194696778838784e-001
      -3.0402315124296597e-002 9.2929097847412365e-002
      -1.9621166558763409e-001 1.1256998555009431e-001
      -3.0127316764688739e-001 2.4038554707375130e+000
      -5.5276714525023973e-002 -3.4275382632313489e-001
      9.4590192584796451e-002 -5.5593551739705016e-001
      1.1056444893253892e-001 3.8997207746115609e-001
      7.3246760451032835e-003 4.8624289849029778e-001
      -2.7898756761996146e-001 -1.0815541671106606e-001
      1.1230672012164380e-001 2.6230898479202658e-001
      -5.0588142388125888e-002 -6.2678068862258640e-001
      5.0589844177930319e+000 -1.2101267894178599e-001
      -1.5228983956775916e-001 -5.9948594561326611e-002
      -6.7907154832145489e-001 9.8261683324065166e-002
      1.3172777104881367e-001 1.6919785450504751e-002
      4.3532781422174810e-001 -3.0977299495307836e-001
      -1.4328698125711403e-001 -5.3457529525738874e-003
      4.5341736826414160e-002 -6.8092069631023308e-002
      -4.4412061583597906e-001 1.1296786350296051e+000
      -8.5992040416732862e-002 -1.1963386518129171e-001
      4.9873376296367573e-002 -6.0401567859570160e-001
      -1.6276189615585010e-002 -1.4488656208208706e-001
      1.6702316671391643e-001 9.4482022621896079e-003
      -1.1926729613697053e-001 -2.7065431483945801e-001
      -9.3642581028707261e-002 -1.2710259905519938e-001
      -1.2422493845347810e-001 -1.0854313431734636e-001
      -5.6884050287896670e+000 -6.9474652532644218e-002
      -1.4984582770536048e-001 1.1181683101160914e-001
      -2.0059678592555041e-001 -1.1704703868908661e-001
      -1.9067313266278882e-001 1.3930467201332683e-001
      -3.0820835201066749e-001 1.9856869300462515e-001
      -2.2343241813281250e-001 2.8016146035663936e-002
      9.7514698233406791e-003 -2.2147237017213334e-003
      1.6138769138525930e-001 -7.2256825555405886e+000
      -2.5279164098593480e-002 -4.7823810648059163e-002
      2.8403996383032221e-001 -1.2410660584752255e-001
      -1.3755454541855313e-002 -6.8837299455283552e-002
      -2.9014033290122775e-002 -1.3376154888419656e-001
      2.5899362596084735e-001 -1.3397085698526409e-001
      7.6766797043259352e-002 1.9208995371266013e-001
      -1.6427033962467052e-001 4.6751737895562154e-002
      -4.9958522655522817e+000 -1.2433206429738301e-002
      -4.0837853160944425e-002 1.9508310136420481e-001
      -1.5775908437114880e-001 -2.8904095991234458e-003
      2.6771461831696086e-001 -3.2158593169479825e-002
      -1.4269328398116810e-001 -1.4099341817743319e-002
      -2.7054325706438598e-001 8.1380250324877432e-002
      3.7843181952744637e-001 8.0772748521657098e-002
      -1.8818367873798036e-001 4.4587446007750768e-002
      -4.8457483469010923e-002 -1.1640594224958119e-001
      2.0849451380202930e-002 -4.2944674335729162e-002
      5.7059314584332652e-002 8.3262466240533767e-002
      -7.3027543802927961e-002 -1.2316989623227181e-001
      3.6610049043537429e-002 -1.7932899394309754e-002
      4.5700765713788824e-002 7.4878513521279486e-002
      8.2248943426753068e-002 -1.0459588343036702e-001
      6.1914229386416152e-003 1.6987684371245137e-003
      -6.1333996954899186e-003 1.5833272517369314e-004
      -7.5042437307051707e-003 1.4399307353047488e-003
      6.2108669713822383e-003 8.2093235116541766e-003
      -8.2110687106341836e-003 -2.4722409290464137e-003
      -8.4031398231228880e-003 -2.1702850286788476e-003
      -1.8925761626151804e-003 -2.2438451352930539e-005
      1.9731352081523669e-003 -2.3788011748149575e-003
      -1.1369561367719754e-003 5.4001982728069066e-003
      -1.2239652857517803e-003 -1.8354911861117121e-003
      6.4268248346637993e-003 -3.7315207647985278e-003
      -2.5277560454989175e-003 4.2300482440720761e-003
      -4.0439909002446773e-003 -8.2205618857236450e-003
      3.2098379715377089e-004 3.0273458404563038e-003
      6.8536476399359220e-003 -8.2479857624734414e-003
      7.9841123492183294e-003 6.4550625549354701e-003
      -1.2969059207770745e-003 4.0518751064734610e-003
      6.6679503213946381e-003 -5.2354193682226163e-003
      1.2746631732060382e-003 -4.1420361374811410e-003
      8.4793780983764156e-003 5.3198559200179460e-004
      -2.1887787680281232e-004 4.6455812287824142e-003
      1.1286420914689065e-003 3.6259065447574830e-003
      -8.1781366677972887e-003 1.4482092419809761e-003
      -6.8937059676896454e-003 5.6936510367176039e-003
      -2.4304328761028619e-003 6.1006049957309802e-003
      -8.2517199208236580e-003 6.6147115488714393e-003
      -4.8515095365268372e-003 -8.3426520731497006e-003
      4.4744783232320900e-003 -7.8133382154014306e-003
      3.1025078957985443e-003 -7.2013250179142211e-003
      5.8176967303412638e-003 3.9737758884097647e-003
      -3.2781208561578337e-003 7.3386204036485206e-003
      -5.9039696659886820e-003 1.8590926514272337e-003
      -2.5767497856405037e-004 -2.1466349423963763e-003
      -6.8667505687021067e-004 3.1154767939641169e-003
      -3.1044821637470198e-003 3.9142747473058653e-003
      5.6425422049954906e-003 -5.4912450109091751e-003
      7.2969681797706741e-003 -2.2217786465383695e-003
      2.6848137235270975e-003 -3.6996854509292231e-003
      -2.7333957277521177e-003 8.6225898107010254e-003
      7.1839836610200925e-003 1.1836994511059892e-003
      6.1346927030115680e-003 -3.6098371908701472e-003
      3.0716260490582241e-003 4.9950714747350874e-003
      -5.2912466282154635e-003 1.9536733524612460e-005
      -9.1650164055995329e-003 7.1280850644912866e-003
      1.0230504770922656e-003 6.3296929627997326e-004
      1.9017562185982910e+000 -2.1940442559642678e-001
      2.2791389333433015e-001 -2.3182134775971866e-001
      4.6366440417160604e-001 -6.9618967722471156e-002
      1.7494135988038173e-001 2.2608020165607562e-002
      1.4499918619548682e-001 -2.7772800895691818e-001
      5.0247510170214034e-003 4.5779192468945254e-003
      1.3640601224466220e-001 -5.8513005361848927e-003
      1.0010450882040962e-001 3.1198424627821648e+000
      -1.0472427613274383e-001 -1.1698221260779232e-001
      -2.2303122891967439e-001 1.9303002703650745e-002
      -5.2501933767832278e-002 2.8791595978440249e-001
      -5.4310954302707687e-002 4.3666533916022543e-001
      -2.8880902267461955e-001 1.8196547069640090e-001
      1.1124599406540793e-001 9.8135884365219944e-002
      -1.4191150043458958e-002 -2.2242813513674392e-001
      4.9531405308120942e+000 -6.4416135455539883e-002
      -1.7176410809361267e-001 -2.1384193086515030e-001
      -4.9096247192453513e-001 1.5785081974204102e-002
      2.1074063553787867e-001 -4.7015671387769117e-002
      6.2673868574879699e-001 -3.7261420069571249e-001
      5.5917859680000855e-002 2.9963683412078734e-002
      1.1027228901063339e-001 3.7419208319293469e-002
      -3.5785091773124950e-001 6.8536203342965516e+000
      -2.9441607226619235e-002 1.4139228625607839e-001
      -3.4386435567592527e-001 -5.9752259955570020e-001
      -1.4757862866858750e-002 -2.7945481492264751e-001
      5.1408000069172309e-002 3.7647927521920144e-001
      -3.2618090161244379e-001 -8.1338521264788771e-002
      -1.6313025215486229e-001 -5.7003906521021303e-002
      5.5424382296252780e-002 -6.9850964302641677e-002
      4.0583532897282373e+000 4.5574322548022864e-002
      1.2212800577525292e-001 -1.4520315290883953e-001
      -5.5652765179794206e-001 -1.9556851982444733e-002
      -3.5583974803220969e-001 1.6629398440670964e-001
      1.2148053767238044e-001 -1.5898165248345872e-001
      -2.4478665197495406e-001 -1.9331836685803902e-001
      -1.3183947446315186e-001 1.6289562838969796e-001
      -6.5160947231985386e-002 -5.0479085902778680e+000
      5.6074384393605195e-002 -2.1055266619075588e-001
      9.7506918693870806e-002 -1.7216148127145242e-001
      1.2497648598904443e-001 -1.7510550793342992e-002
      1.0157344585650313e-001 -2.2812836858008331e-001
      3.2294640625549947e-001 -2.7960865814422742e-001
      1.2015928615571626e-001 5.0164513326488591e-001
      1.1942242072054482e-001 -1.4859674550828230e-002
      -7.1147237842220745e+000 1.1117053359994786e-001
      4.5111104675822676e-003 1.2073772734236327e-001
      1.0085505375604448e-001 4.4989423683110141e-001
      1.3172530737194788e-001 -1.6842793876279463e-001
      -4.5814738054851110e-002 4.6569755091966036e-001
      -5.5000212092425040e-002 2.2044440227037015e-001
      7.6489867862232941e-001 -2.1180758556983656e-001
      -4.9173734385844034e-002 -3.8835894655747203e+000
      -4.8653899592500299e-002 1.3315585185105983e-001
      1.2600540337663901e-001 -1.3901999476527629e-001
      2.2958872499993416e-001 2.3699878057798993e-001
      -9.7126896523274997e-002 2.5849859719995920e-002
      8.8976438500036281e-002 -2.2394081962883081e-001
      1.1895908273192037e-001 3.0178037009111985e-001
      -7.0187814186804504e-002 -1.8092483311281696e-001
      2.4305200049052969e-001 -7.9294208766394772e-002
      -7.2401266311536566e-002 6.8362892544869172e-002
      -2.9208459260463993e-002 4.5211573727882745e-002
      8.2222515225634424e-002 -5.5323803477242361e-002
      1.3018556003732104e-002 8.5107393320097806e-003
      4.1389110562175965e-002 3.7428581013118363e-002
      4.9640367256583051e-002 -1.2862968252214113e-001
      -2.2163866644237428e-002 6.1220038676184528e-003
      -6.3921010822188618e-003 1.0982059673670164e-004
      6.5972022577808105e-004 4.1426664277951797e-005
      -3.5635382165907711e-003 6.3775086522142007e-003
      4.6087672254511323e-003 5.1080159371210288e-003
      6.4703744725369602e-003 6.8283504483655924e-003
      9.1788250324717005e-003 -3.1082352370155164e-004
      6.6902245874358845e-003 1.7063878953597188e-003
      4.6066342893107629e-003 -6.4544850187967413e-003
      -4.2018627887351941e-003 -4.7882508582099076e-003
      4.6500669853728029e-003 -5.9575885047101164e-003
      -8.8076992014301837e-003 -2.5427028600925523e-003
      3.4044925452578335e-003 -6.1193400763906031e-003
      -2.9859823225225988e-003 -8.1331011576713207e-003
      4.6288368625776679e-004 1.5133058430228325e-003
      4.5562126729442008e-003 5.3306345003590388e-003
      4.1595929007180532e-003 -1.1225109036476441e-003
      -2.5833507364283318e-003 6.7806109288685310e-003
      -4.5313463094718225e-004 -2.2811989423296426e-003
      3.3652753506509267e-003 8.5688329989549259e-003
      2.8001670154574284e-003 1.5652646607878247e-003
      -8.1972194719394063e-003 -2.0103602735043209e-003
      -8.0893319775692560e-004 -2.8768631583706420e-003
      -8.3153384398867488e-003 4.0942468667750365e-003
      2.1112791063653161e-003 3.5087938296626906e-003
      7.5207125870450147e-003 -6.0643132340337780e-005
      6.4873016658845194e-003 -5.2260337128354865e-003
      1.4787828794805852e-003 -6.3861601280232024e-003
      -1.3571266438121845e-003 3.5539715619185955e-004
      -4.8472354507779324e-003 -6.4284767153184146e-003
      -2.4460234406322221e-004 6.4511323751748747e-003
      1.4147036538087658e-003 -1.7228735095039245e-003
      5.7840067091593202e-003 -6.3666546922658412e-003
      3.6408870161964229e-003 6.8725910314031960e-003
      8.0631908441047124e-004 6.4111912463140717e-003
      5.9367014820056402e-003 4.5134529533324644e-003
      -4.7673964199088110e-003 -6.9476992956297281e-003
      2.1117203165247887e-003 -5.4496923517794458e-003
      -6.9480503798289633e-003 1.0315317448679764e-003
      -6.6113305312722592e-003 -2.2915792744080963e-004
      -5.7256536511291530e-003 -3.8070419075063229e-003
      -4.4442609867537996e-003 3.6873073167056607e-003
      4.1377177949076561e-003 -4.0251344317200144e-003
      -7.0097034964267096e-003 1.1917081857335569e-003
      -5.9201950533232317e-003 -7.2683871651501803e-003
      5.9175846767076604e-003 3.7197799941125336e+000
      -1.2917002485528345e-001 2.6583359701141157e-001
      3.0499402316678262e-002 3.3870911947469923e-001
      3.2605260288333204e-001 2.2914507425260763e-001
      1.2365393226576293e-001 7.9172280444836582e-002
      -2.1110885402643262e-001 -4.5130648287164045e-002
      -7.5191041063136177e-002 1.6102553006726875e-001
      -1.8880652577800697e-001 -5.2756604519319447e-002
      4.0855940352970732e+000 -6.4242356284928179e-002
      -8.1655776736988914e-002 2.9076546228701726e-002
      -1.2386081360151660e-001 -2.7603623802095349e-002
      1.4328636834435943e-001 1.2200410740234918e-001
      2.8256863838656660e-001 -3.0438392060495723e-001
      1.7081535984060184e-001 -1.4923926992081601e-001
      -6.0658390817083707e-001 -7.7774558756193143e-002
      -1.0232672569916662e-001 4.1897821039037089e+000
      1.2178357259445281e-001 -2.2632641644276869e-001
      -4.3167477029972195e-001 7.3818740779480058e-003
      -3.1984294410786307e-001 -2.4099086170953696e-001
      1.9934633504006291e-001 -8.4227251141079124e-002
      -3.3903566686089387e-001 1.4775784892323077e-001
      -3.7184545982959304e-002 -3.7481317382074048e-001
      4.4588564151537274e-001 3.0578771778264596e-002
      5.9348406416590418e+000 1.7132318819600806e-001
      -3.7257775781113493e-002 -5.4412567644182208e-001
      -2.0981581066630690e-002 -1.1879248202482802e-001
      -4.1500039295503355e-001 2.2256947030418422e-001
      -2.3836859686942133e-001 -2.7009635172231938e-001
      -3.7588803079538935e-002 -2.3762521190525382e-002
      1.9277444190830145e-002 4.7298443899884973e-001
      -6.8063740445118759e-002 4.1593774809246558e+000
      1.0817461209110761e-001 -2.2005008599122428e-001
      -2.3509034588834304e-001 8.1926015828885455e-003
      -8.6037236458040733e-002 -1.6412841188397101e-001
      2.4786482935184467e-001 -3.6054252189237646e-001
      -2.4098845711368816e-001 -2.5609948918668729e-001
      6.8779889728770218e-003 -1.5231835313496586e-001
      6.5017197917965752e-001 -2.8432235816620710e-001
      -4.0302781566308941e+000 3.2317712800712932e-002
      -5.3295005977748100e-001 1.0951739589745239e-001
      -5.7803175114472721e-002 -4.1336016317934501e-002
      6.0787581707084960e-002 1.4332308164865759e-001
      -3.9851257563348708e-001 1.1809428243418749e-001
      -2.4945411811065743e-001 4.4614305281103897e-002
      3.9700415608110952e-003 4.3730810189426650e-001
      -9.9444465409920080e-002 -5.6082428351697908e+000
      2.4188863243011484e-002 -1.1981797218103754e-002
      2.0031622215892680e-001 -5.2955378185752477e-001
      3.5822999697705929e-002 -1.0963167246459810e-001
      -1.6654138566099605e-001 3.6331723290445894e-001
      2.7610892166745504e-001 1.7826754048770052e-001
      -1.1215316125801969e-001 -3.2228913396100661e-001
      -2.9228027442889321e-001 1.6540886699149951e-001
      -9.3605778215638669e-001 -1.7864551278600818e-001
      3.6657788806237906e-001 2.7080188760672325e-001
      -5.4479296750028972e-001 -8.9339673692152927e-002
      -8.1985155245099903e-002 -1.0971172598718414e-001
      4.6827897828487219e-001 -7.7271383392078188e-002
      -3.4635458338434697e-003 -1.9092188066592289e-001
      -7.3543400144410909e-001 -2.7209791096479508e-001
      1.2570407440002257e-001 2.7749558234199451e-001
      -1.0162185015907041e-001 -2.2037952280497479e-002
      1.1282979589325108e-001 3.2297623440236532e-002
      3.6319273199179054e-002 4.7978101514940627e-002
      -3.7813461779627258e-002 8.4457503673313908e-002
      -4.6164946174883032e-003 7.1636015957620244e-002
      1.0980931860392647e-002 -1.1119395251092996e-002
      -2.1860787770149134e-001 5.1273421896531390e-002
      1.5878452429361704e-003 -3.3476850210714276e-003
      -2.0511555173250945e-003 1.4737143650568781e-003
      2.1945156109329758e-003 7.1266132932377921e-003
      -4.8641212087304478e-003 7.4419139735814026e-003
      -8.5942883091542667e-003 -8.2569843688187709e-003
      7.2513713650598525e-003 4.5203406192225503e-003
      -4.2175021407556100e-003 8.0001414219188719e-003
      -7.9456725892401315e-003 -7.4588561996093558e-003
      8.1750849658483293e-003 7.8394600329223223e-003
      6.0169090236332490e-003 -8.1695666575380740e-003
      7.9231753622402406e-003 1.1619786791066764e-003
      4.1615359926492641e-003 1.7428456406364083e-003
      4.8276829413192906e-003 -6.7897404540188302e-003
      5.1727984547647434e-003 2.9397511232426361e-003
      2.1006720688837598e-003 2.5120472078556241e-003
      6.4149031639582381e-003 1.5569909395664410e-003
      8.4785558887807196e-003 4.5021918253986140e-003
      3.0576860499731367e-003 -1.1389503203688136e-003
      1.5077998438140694e-003 -4.7474408817702604e-003
      -8.7413011737381210e-003 -6.0611339598490689e-003
      9.2421448846637870e-004 2.6778667515564365e-003
      2.8634863792077790e-003 -4.3807170389835327e-003
      -5.4000374980438465e-003 -3.3740204120233262e-003
      6.5920804489926297e-003 -8.2395413366910010e-003
      -4.1890484491271798e-003 -4.9990324212544580e-003
      -6.8079896246240603e-003 -7.0007820476448435e-003
      -3.0316435554610865e-003 -6.8816873867614215e-003
      -6.9726671434104399e-003 -6.8757857317935708e-003
      5.0503882603548647e-003 -8.0287969554497379e-003
      2.6688175356800637e-003 1.1789135004457141e-003
      4.6853970099261346e-003 1.5881149801177122e-004
      8.6975701068621306e-004 -8.7291021583909834e-003
      2.4648921172732551e-003 1.9694107473495434e-003
      -3.8989426473832653e-004 2.2110048715127044e-003
      -6.6021296768260362e-004 -8.9781815944904048e-003
      7.7027407883147152e-003 8.3317272356373782e-003
      -8.3145301969092342e-003 -7.4223535915658658e-004
      7.7831105788554907e-003 5.5211411980319140e-003
      -7.9091827327714085e-003 2.4640865912614069e-003
      -8.1341357438659088e-003 -5.3577631797949200e-003
      -6.9345589902774724e-003 3.4564167279192469e-003
      3.9894328721043724e-003 -7.0834491198212036e-003
      -9.0479947394542740e-003 6.3389482773392545e-003
      4.4041026905565980e-003 -3.6383090378101029e-003
      -7.6951109763872287e-003 5.9513896706745251e-003
      3.7946421407827766e+000 3.8183315717664659e-002
      2.9709783660336466e-002 6.0818420851959221e-001
      5.5977050242434756e-001 7.9441605162565998e-001
      2.2080560195098398e-001 3.9943977261759905e-001
      -6.7901760182675275e-001 -6.2964926285634576e-002
      -2.9931786132943983e-001 -1.0145853048340005e-001
      -1.2589569419015795e-001 -2.3750283355435348e-001
      -1.7649016948393523e-001 2.8413331455106712e+000
      2.4776882495302877e-001 -1.1573278528489016e-001
      6.4186130190056900e-001 -2.0996756466546893e-002
      3.8084348937847623e-001 -4.0203098873850998e-002
      4.7612965705696331e-001 -4.1838273686252547e-001
      -7.7418172358878184e-002 -1.0944906393262394e-002
      -4.3755613081336098e-001 -1.1124706726815790e+000
      -3.4967496271819182e-001 -8.6766726685885823e-002
      1.2685520499424368e+000 4.3451758760680625e-001
      -1.5279002367254660e-001 -1.9481972606969178e-001
      1.1727612253533795e-001 -8.5367610262524651e-002
      -2.9571078485632712e-001 3.7901257357019774e-001
      -4.3816561820254923e-001 -7.3823502392927051e-002
      7.4783885577651837e-002 -1.3595650166121312e-001
      -4.2755732444180888e-001 2.6799508532858807e-001
      -1.1303642739218445e-001 4.6849305676763526e+000
      2.2947883699574684e-001 -1.9698116746058686e-001
      -6.5916662389975245e-001 1.5004391901587544e-001
      -5.8426004867959541e-002 -2.0514207317335775e-001
      1.9362721129711813e-001 -4.4805627706106371e-001
      -1.1113070467682454e-001 -9.3878622001915726e-002
      1.2227489284381311e-001 2.4696085881059310e-001
      5.2617279704792619e-001 -3.4236962019192257e-001
      2.6018220463440871e+000 -4.3770589053686417e-003
      -4.3648298521755957e-001 -4.0894906123099795e-001
      3.9461689205512956e-001 -3.4633648567537673e-002
      1.2198314665950871e-001 6.0358334583477724e-002
      -6.2765264778944641e-001 -6.2731012312042617e-002
      -2.2727535521119419e-001 2.2161069839307712e-001
      6.6348051628522073e-002 6.3135729824241382e-001
      -3.9896285179824603e-001 -4.2844546250569779e+000
      -4.9483859412617452e-002 -6.2000620448055355e-001
      -2.3816291917278709e-001 1.9713417460658259e-001
      -2.4166531993510507e-001 1.0734202212852158e-001
      1.2215087076050540e-002 -5.6790343484523553e-001
      1.0693750144579112e-001 -1.0701636363800909e-001
      1.4281263162042562e-001 -1.2666799876609400e-001
      4.4519367307923385e-001 -7.0299754457443187e-002
      -3.9882749047074606e+000 6.5577669092692095e-002
      -2.2401347757580964e-001 -2.5426892459709690e-002
      -2.8923695747903994e-001 -2.9337044128614537e-001
      -2.2400158125090561e-001 -1.3626274419861020e-001
      1.2268100686170798e-001 2.3592876045978697e-001
      4.7842695699551618e-001 -1.4915887420748458e-001
      -7.1853177582287020e-001 -1.9081158488791458e-001
      2.9451081206034962e-001 3.9529100736834943e-001
      -1.6464256022301399e-001 3.9633144710748203e-001
      3.9291988712628662e-001 -8.9149286093381117e-002
      -8.8014354067706871e-002 -1.3129557248062068e-001
      -1.0025524188559327e-001 3.0863315218473969e-001
      -4.7062780463193239e-002 2.1291958418116363e-001
      -3.1608777520684445e-001 -8.6814124150354943e-001
      -3.1104006567369286e-001 3.4113097308142043e-001
      2.8078808796010601e-001 -1.1376433543021304e-001
      3.0048057593478048e-002 1.5895412857543958e-001
      9.1559970355868811e-002 8.0472447221531362e-003
      3.0380402795324026e-002 -2.0482465189952944e-002
      8.9475653687995163e-002 -4.3542355442295982e-002
      4.5507705932897227e-002 -1.7437486547169905e-002
      -8.8480602704867795e-002 -2.2412640762929978e-001
      9.5352936526595780e-002 -6.4213220620185103e-003
      6.6988835474273102e-003 -2.8870014823198886e-003
      7.4313846757962272e-003 -7.3374262403654326e-003
      6.2647989477725412e-003 -7.2370991507322950e-003
      -4.9982783345299568e-003 5.7446877075259042e-003
      7.7940911958624456e-003 7.9962230218670969e-003
      1.8606804823892657e-003 -5.1176587746941142e-003
      -5.4506523446024467e-003 4.0610310579896744e-003
      7.4265306594065239e-003 -5.0648788674351993e-003
      -3.6095441066146495e-003 -2.5323824139329618e-003
      1.9320098313946987e-003 -3.2040223660358162e-003
      -2.5615769770863904e-003 -3.0720931535307126e-003
      -3.9162995434111302e-003 6.7851403628648903e-003
      4.6079722852609088e-003 1.9067614031006977e-003
      1.6566548290050211e-003 -6.3941577390187508e-003
      2.0095458710160867e-003 -2.2048490245093295e-003
      3.3439362242455705e-003 8.4649366541946075e-003
      6.0912355528220559e-003 8.3573147466139506e-003
      -7.8657318997118683e-003 -2.3260383577962357e-003
      4.6554977095370226e-003 -9.1741877293754581e-004
      -5.6703155044896215e-003 3.1094025648461285e-003
      7.0611980632033803e-004 1.6062225691734324e-003
      6.2972583407462064e-003 8.2710539075326380e-003
      5.4194773510605797e-003 5.2744415509550892e-003
      1.7354330645752223e-003 7.9871123512008282e-003
      1.0062998538932081e-003 4.6653392248795665e-003
      -5.1696157146123448e-003 -6.6097060354450626e-003
      -3.6211089279328769e-003 -4.5000130984119572e-003
      -8.0943682579431801e-003 3.2148580402215801e-003
      5.9688438557886784e-003 -6.3615561551451857e-003
      6.0638111552859201e-003 -3.1568338166653846e-003
      7.0046156504113503e-003 4.8027179223908022e-004
      7.8786791500843768e-003 3.2655888347470660e-003
      3.7732500968988953e-003 9.1699635265353619e-003
      -6.1149560764115398e-003 -6.2464754825306799e-003
      -2.0348466274424729e-003 4.8978614520905751e-005
      2.5942661861906658e-003 -3.6191565592454370e-003
      -6.1885749202284677e-003 -1.8731068004974581e-003
      -3.7848693349401994e-003 -1.1928105439993665e-004
      -9.1218373554065035e-003 4.5431387854296835e-003
      1.9970357217251179e-003 8.6592786381222767e-003
      8.8449108126052798e-004 2.0616784319567615e-003
      6.1868647486641830e-003 -8.1731528480664742e-003
      6.6817543384489267e-003 8.4538545639103093e-003
      6.2147736743297499e-003 5.3158436915329960e-004
      5.4896807629638035e-003 1.2387087346806661e-001
      2.6632117864512089e-001 4.5080191585135779e-002
      4.9175230967583816e-001 6.9041959167116040e-001
      7.5372347427216968e-001 1.9414715127797963e-001
      6.3331917227554324e-001 -8.2837792428478296e-001
      -1.5189655603461052e-001 -5.3074247795234053e-001
      1.3595442686478523e-002 2.8273519989687212e-001
      -5.8445927537764024e-003 -2.1681046208795077e-001
      -4.9294632310445624e-001 5.1042964247280720e-001
      -2.6732611069292178e-003 5.8065589488999592e-001
      1.5566169525678442e-001 6.5123844135471753e-001
      -7.5525998905975555e-002 6.0693212721647460e-001
      -5.3536746451922901e-001 -3.8972985386968070e-002
      -1.2793975828518292e-001 -3.7454117767180256e-001
      -8.0747988295726081e-001 -2.4552128836729503e-001
      -1.7768376041890566e-001 -4.1445219290314578e-001
      5.9182991270480600e-001 1.1770614558429104e-002
      1.8173132480912685e-001 3.1028013541498430e-002
      4.8834660385800860e-001 -1.9158381996443732e-001
      3.3324456659259666e-001 -2.9858469127569992e-001
      1.1986069625794368e-001 1.9195321512420974e-001
      -2.9865937597074577e-001 -8.4995642635047308e-001
      -3.3254249115596518e-002 -2.8174245340604781e-001
      4.2058251075142339e+000 2.5094246696337380e-001
      -1.9721145804996854e-001 -3.0514720501362613e-001
      -2.3303837032592201e-001 5.1266752815138172e-001
      5.3467228853946468e-002 -1.5486196940596766e-001
      6.2254068662696248e-002 2.3939109012872906e-001
      3.0987809884432060e-001 3.3195272193278079e-002
      3.7603528407702709e-003 -1.2094425985832723e-001
      -4.9745328473435041e-001 6.5721515359765903e-001
      2.5478126793489427e-002 -4.3196814977165471e-001
      -2.3475993870420289e-001 1.1070815916323334e-002
      4.6250508547198022e-001 3.2464763950225922e-001
      -4.1215553543059980e-001 -2.6026089335217932e-002
      3.4833841616227973e-001 3.0096788289706289e-001
      1.9767940076920490e-001 -4.5951977305668183e-002
      -6.7832434647714504e-002 -4.5897388937424444e-001
      -5.1363245155028796e+000 8.3750323194177675e-002
      -5.8573440580939240e-001 -4.3236902830335022e-001
      2.1363739675504166e-002 -7.8117067069207458e-002
      1.6140722257279266e-001 -2.4851357440001909e-001
      -2.2652298129952911e-001 3.2068038333457588e-001
      2.6947450575704740e-001 3.1730241217239225e-001
      -2.1997096544061384e-001 2.1069116574177724e-001
      -1.8329553446800423e-001 -2.1478614392842474e+000
      1.0732977626005870e-001 -3.0594557955007440e-001
      -4.8290678863928199e-001 3.9676329587076054e-001
      -7.5553861178830992e-002 -1.7840509643167865e-001
      -1.6492333981267479e-001 -4.5210409610745778e-001
      3.9283909680303308e-001 4.8554510852910016e-001
      1.8902054125767864e-001 -3.1907829179941283e-001
      6.9636079642693458e-002 2.2694749671256215e-001
      1.1354591539082923e+000 -2.2370575568039003e-001
      2.7297207778349980e-001 1.0864279123557509e-001
      1.0042227434393280e+000 2.2476913786358885e-001
      1.5429933806762794e-002 -1.0360859477479785e-001
      -6.7016466778411410e-001 2.0617979367748807e-001
      1.0816604501301404e-001 -1.1867788099852616e-001
      -1.1319022088247090e-001 -8.2798323107499003e-002
      5.3975838861512360e-001 5.1586341298984306e-001
      -1.3710136226706335e-001 9.3195789444756968e-002
      1.9345573079199951e-001 1.6175708672636518e-001
      -1.3566000016457481e-002 -1.5836009145836127e-003
      3.2461748941783934e-002 5.3082525518272354e-002
      -1.2030519840135846e-001 -2.6018588918865968e-002
      -4.7387201061567123e-002 -1.8216989793474200e-001
      -2.0002279544119500e-001 1.4466791951389923e-001
      -3.6924917917981700e-003 7.6682233934345480e-003
      -2.8730262420192756e-003 5.2630842315647543e-004
      3.7228562499329234e-003 7.6031876204964485e-003
      1.2940657002529033e-004 -2.8402643062192911e-003
      -2.0732087254723220e-003 -2.1568390613218425e-004
      5.9123907399087974e-003 3.5374265618873607e-005
      -7.7194833613239795e-003 4.0237391304068348e-003
      4.5191902033138703e-003 -8.0103704583278489e-003
      -4.3229216200325353e-003 -3.3265211307434701e-003
      7.9905747299753305e-003 8.4154502909695016e-003
      7.7844979735151630e-003 -5.1417639900043057e-003
      3.0860359011554909e-003 -3.7923339661747866e-003
      3.8038040133344638e-003 3.7037048812274438e-003
      -5.1676098773487129e-003 -4.3570589273031214e-004
      6.7985726809861391e-003 -2.0516498078427250e-003
      3.3860786249605471e-003 4.9140228745296983e-003
      6.7983305263738395e-004 8.4150795437810851e-003
      -8.1232393329974477e-004 -8.0188075536630470e-003
      -4.6801721798041644e-003 -7.8521690373467880e-003
      -8.0374825857396238e-003 -6.9884969516982001e-004
      2.2143952904537484e-003 -1.6511184745647406e-003
      5.1983087532643316e-003 6.6884752831985516e-003
      -1.1831084926559275e-003 4.5940984740589254e-003
      -6.0940760587593441e-003 -2.5484200504535437e-003
      8.2239143373004364e-003 7.6564513186690580e-003
      -6.9660739837167180e-003 -1.4362075715630945e-003
      2.7004736161585748e-003 -2.2201576166398758e-003
      -8.9485172900949268e-003 2.0826536801784590e-003
      1.7673743498960804e-003 -8.3065032327716663e-003
      4.5846966771269249e-003 -6.9425619048058681e-003
      -7.4184562729494455e-003 -1.0919449759456614e-003
      4.8676464642817578e-003 -2.7040754117743969e-003
      -2.5331890687690915e-003 -5.0066380172138830e-003
      8.4748789931347809e-003 -3.3133940795720563e-003
      1.8652522340853186e-003 -1.3189265288063490e-003
      1.8762626427147192e-003 7.3230137871071596e-003
      -6.4375172562433029e-003 -2.7323165451353292e-004
      -4.4111356753722460e-003 -3.3864784136602008e-003
      -4.6198898092772089e-003 6.3854096358040829e-003
      -1.1289289922836714e-003 7.6408052406732778e-003
      -5.8930483903582003e-003 -2.7390054600803923e-004
      6.1962343884212128e-003 8.5189969715012076e-004
      -8.0947839998833492e-003 7.9932140066223817e-003
      -5.5655099228946589e-003 8.0817973944485484e-003
      7.1303874653328124e-003 7.2232868559102964e-003
      -6.9581483549038694e+000 7.6698550595080550e-001
      2.4866366118874964e-001 1.5449519790381119e-001
      -1.0054442256643992e-001 2.3455465677786555e-001
      2.4429600068029309e-001 8.4910545617746214e-001
      4.5967095473350972e-001 -5.4354789945881676e-001
      -5.1922220069103253e-001 1.6670841645019047e-001
      7.3277344890817142e-001 2.6388828741554238e-001
      -7.3984974564338291e-001 -8.5963554104636692e+000
      8.4686790561160896e-001 1.9737593981051987e-001
      1.5252767095665146e-001 -7.6852939531418044e-002
      1.0865261158127650e-001 5.4764993455383389e-002
      7.3217586194408768e-001 3.6817535068284513e-001
      -3.7508369833765492e-001 -1.9609454322896330e-001
      -8.1445495815947816e-002 -1.6966595955333333e-001
      3.3877204862397181e-001 -5.7851198489680355e-001
      -4.7518169239023456e+000 4.3346739731489053e-001
      3.3476806365653039e-001 1.1732029771471671e-001
      3.3568755432987840e-001 1.2784361756301216e-001
      -1.8279537998595730e-001 3.7957335886088323e-002
      4.6806444572860588e-002 -9.4237555816911803e-003
      2.9294242957478112e-001 -2.1588507125327841e-001
      -1.0065301865396783e+000 3.1534607256532510e-001
      -5.0797808343000010e-002 2.4627456612677129e-001
      1.0141103176524065e-001 2.1786851775338589e-001
      7.0883079292977547e-002 5.3625178465319931e-002
      4.1621407861665571e-001 3.3047557726935711e-002
      -4.7062068576784299e-001 3.2740014624789726e-001
      1.9231013121905996e-001 4.3415161061542085e-001
      -1.5694314667681203e-001 -4.0900465485342868e-001
      -6.5814538232381523e-002 -8.4880907825676727e-002
      -2.6182226102331345e+000 1.0587842148405460e-001
      2.7444877808595142e-002 1.2740171722231447e-001
      8.8496215253013807e-002 3.7627595018085547e-001
      2.1588484566941132e-001 -5.6667103210005743e-001
      2.3591069574640447e-001 2.3656758265283359e-001
      3.7842910150624570e-001 1.7543055769930198e-002
      -4.3572849109892792e-001 4.5671825828616352e-003
      -1.9078107110161835e-001 -6.4417408828803842e+000
      3.4220468934735127e-001 -3.1070717971004402e-001
      -2.0543477336820193e-001 -2.9029582055259123e-001
      -7.1032311294808387e-002 8.4733354612777492e-002
      -2.2634873597252325e-001 2.7166105559348624e-001
      1.4984965560882005e-001 4.0196774329878515e-001
      2.4211170820206157e-001 -3.6115461229113732e-001
      1.4433833369392218e-001 -3.0083375238849885e-001
      -1.0964420978473646e-001 3.4563356397992329e-001
      -4.2268649472496311e-001 -3.6005124759055585e-001
      -3.2085361326896128e-001 1.9257409352724048e-002
      -2.2940468728948965e-001 1.0906618069904202e-001
      -5.7168306914835293e-002 2.4436565681879285e-001
      3.8156326226436094e-001 2.0416728699573430e-001
      -1.4964474926921068e-001 -1.6243713183963893e-001
      -2.0940298401866683e-001 2.5049922657495505e+000
      -8.6030116581984978e-002 -7.3508987980674997e-002
      -1.2421874975465816e-001 6.3652875330324810e-001
      2.8984382561389782e-001 1.7886615397666582e-002
      9.4034310496202630e-002 -7.5877851930972617e-001
      2.6080842511673891e-001 -3.5827356667393227e-003
      9.9402886782320524e-002 2.8933526567567780e-001
      -1.4623838284615223e-001 2.6751835530144452e-001
      9.9436987927687270e-001 -1.1014241588767372e-001
      1.6618639885251595e-002 7.4555408479181902e-004
      1.5900049897096658e-001 2.6320513084783049e-002
      -8.8289937868654744e-002 5.1982905335851273e-002
      -3.2053371983313796e-002 -5.0254301278961556e-002
      5.8384042911648747e-002 7.2672453131278356e-003
      -7.1184457693026199e-002 -2.0108672856220625e-001
      1.5973082485121595e-001 2.7590073357494204e-003
      -1.1549755889029439e-003 9.1638397492172542e-003
      7.3568008743256233e-003 6.6945071456270605e-003
      -3.0898810669919186e-003 6.5531763383943470e-004
      -4.5376240163995238e-003 -4.5160343529137168e-003
      -7.5231314020604160e-003 -7.5756716579496557e-003
      5.6888440754908958e-003 -5.7452897483598929e-003
      5.3929048523610806e-003 4.3568140281591613e-003
      -7.7988256754277308e-003 -8.7060850433365929e-004
      4.0659253454520539e-003 7.5357840257868364e-003
      -7.7512152082247730e-003 -4.7539722009582409e-003
      2.0691048628582701e-003 4.7413377162205370e-004
      8.3909326998762735e-003 2.8593182497510319e-003
      5.3112308409496839e-004 -6.0814870346625827e-003
      3.4644494781869107e-003 6.7968963572360716e-003
      2.8564034483505281e-003 -6.2654927403648468e-003
      8.4126717855918971e-003 3.7879103138373530e-003
      -9.1418587657479851e-004 5.4951721079499281e-003
      1.6019270840601028e-003 -3.3473880128444137e-003
      -3.6339474241582244e-003 7.8502470763348701e-003
      2.3799416978379997e-004 1.0530472017662574e-003
      4.3728487989110566e-003 6.5586790268968896e-003
      -3.4538922388604051e-003 -6.7106528100130012e-003
      6.7416355299403368e-004 6.1402658926107342e-003
      -4.1843590052571562e-003 4.6604661618071964e-003
      -8.8117372220210255e-004 -4.8596508057560997e-004
      8.6710773016750002e-003 3.1050273812441216e-003
      2.6001941545710332e-003 3.7673659077462106e-003
      -6.0884155457031630e-003 -3.3738208490272227e-003
      1.9190948267563967e-003 -2.0749569400823936e-003
      3.9196888952757478e-003 5.3830018097113328e-003
      -6.2347255540701049e-003 4.5009867382486074e-003
      -6.5527450082795572e-003 8.8533062809981865e-003
      -7.9075889410020160e-003 6.1236475897537600e-003
      8.2719182759762623e-003 8.4952216580973690e-003
      7.1552385666919290e-003 3.0024436846786324e-003
      -4.4124267930117254e-003 -6.0966588024652189e-003
      5.7559854028604671e-003 -1.0253499388586296e-003
      2.0149382601191501e-003 -2.6694515462869391e-003
      -2.2235643318795381e-003 -7.0863129409918174e-003
      -2.1684651622232354e-004 2.8181930500607811e-003
      2.7926407398781920e-003 -4.2109027644056558e-003
      1.7955827448123119e-003 -9.1648406643504796e-003
      5.2019589375891723e-004 -9.1407963061052675e-003
      3.4310472561889854e-003 3.4453249584636401e-003
      6.6562121070859537e-003 -8.7231781292098347e+000
      8.2287776249540145e-001 2.2242669029870968e-001
      -1.8107945355668670e-001 -5.7584196739611282e-001
      -2.2238634177007460e-001 1.3836018915784049e-001
      7.0727270773338313e-001 1.1810211778267841e+000
      -5.5000480118722928e-001 -1.7872660965823239e-001
      2.3157131650593157e-001 8.0700548453177889e-001
      1.9527224455349662e-001 -7.6865897596540456e-001
      -1.1050915028843665e+001 7.3248502859697628e-001
      2.0782117896944630e-001 -3.3938164245489122e-001
      -1.3017178952666850e-001 -4.9580191344191799e-001
      4.1369422387504164e-002 4.5085313059037396e-001
      7.5630899651439720e-001 -3.2494460326473057e-001
      -2.9138528726649730e-002 2.3067317893892164e-001
      6.1297674405975267e-001 5.2366954454711256e-001
      -4.8628811212827994e-001 -6.4003401326051836e+000
      2.1614902959386761e-001 5.1388204243378754e-001
      -2.1495343917020332e-001 4.2722482112617388e-001
      -3.3635426159562692e-001 -3.2320883946607498e-001
      -1.6557505219792043e-001 2.8486869963297488e-003
      4.9073421899109411e-002 1.2078609338093702e-001
      -5.9481147958148482e-002 -2.1112708237692260e-001
      5.4156587299731662e-001 3.0006679472965930e-001
      -9.3613280897537465e-001 8.6134555541986825e-003
      5.0142946968510294e-001 5.9528746429197976e-003
      1.8197180102264118e-001 1.0048139709469200e-001
      -3.0192049088273087e-001 -3.3123372144793017e-001
      -1.1398680059877088e-001 1.0483329549950360e-001
      -4.3581371230358504e-002 -2.0309630999338341e-001
      -2.9283817134250312e-001 3.0433270232676379e-001
      2.2780592296889704e-001 -1.9829895786551879e+000
      8.5521141856337621e-002 4.6286815841025164e-001
      5.2767972834626364e-002 2.7529849698612191e-001
      1.1254085794573891e-001 -2.0977171775488773e-001
      -2.9383401896501898e-001 -2.9548410995447527e-001
      5.6351648827666696e-002 -1.3372713195931010e-001
      -1.1227497740308613e-001 -4.0597816599489073e-001
      3.6558335263226055e-001 1.7650463178463063e-001
      -3.6982133190012445e+000 3.2766232899303904e-001
      1.5420517998161090e-001 -2.2237837192531315e-001
      -2.3184486699845702e-001 -2.0863253736504103e-001
      -3.6632885968697787e-001 4.5056430204852053e-002
      -8.5911685305715996e-002 3.5408675329430692e-002
      1.9584738886921572e-002 -3.1112996314145998e-002
      -1.6813899582914199e-001 1.2435555789915650e-001
      1.3598483926039892e-001 3.1233590809432736e+000
      4.0431803082195916e-001 -4.3601267355754875e-001
      -9.6777474945009628e-002 -8.7097723210952160e-001
      6.7845499718662688e-002 -3.8511966092905064e-001
      3.7576612146845634e-001 3.6190657402967147e-002
      1.6854577250440700e-001 1.8411875864819108e-001
      1.5290175070999569e-002 1.6696239505709279e-001
      -6.0105463493863709e-001 -2.4395995039136859e-001
      3.1298973892423025e+000 2.2387266839025752e-001
      -3.3303244600083570e-001 -1.0104305152292782e-001
      -1.6770392107800797e-001 2.3451142099940170e-001
      -1.4037332158729249e-001 3.4539602196743924e-001
      -3.6697886054937012e-001 1.9952190588800331e-001
      -5.0568045288730209e-004 1.2274356007625314e-001
      3.4697987619311432e-001 -3.6417948751756352e-001
      -8.4291015560860813e-002 8.2138635897961199e-001
      2.5943479507566272e-002 1.3082744784558478e-002
      -2.1054047214875563e-001 -5.9331171614079451e-003
      -1.9361021432099352e-002 -2.6938341292923257e-001
      1.0111893872253856e-001 -8.5418912014899248e-002
      9.7693994352704677e-002 6.2255430669580399e-002
      1.5511614505723905e-002 1.0438103061269381e-001
      -4.8489821068685150e-002 9.2436532579025427e-002
      1.2757941513403103e-003 3.5294992844810799e-003
      1.9029923832956015e-003 8.7109229714103960e-003
      -2.3566794245022775e-003 -2.7213019038208172e-004
      -7.7698877938159570e-003 -4.7699358784208893e-003
      5.4976236842787423e-003 3.0734399677143291e-003
      3.9201176185134417e-003 3.1638451548762904e-003
      -5.8959843892129543e-003 -6.4154376957556080e-003
      7.3508695296472318e-003 3.8941035648657838e-003
      9.4901239209967440e-004 -1.3149635996000521e-003
      -4.3577325981268879e-003 1.9386379109704028e-003
      -6.2319273289651467e-003 -4.8153832138649070e-003
      -4.7277655458511899e-003 6.6312440860034150e-003
      6.8943031200360714e-003 -3.2633730214293205e-003
      -2.3144698963300393e-003 -5.1518491193948543e-003
      -4.5816665425720427e-003 -2.5959927350804914e-003
      4.3621009754714734e-003 -4.6152702100134301e-004
      -3.3535140472223234e-003 -1.5252464070308791e-003
      -4.4209034003105776e-003 2.7432290094511510e-003
      -5.5844603527673842e-003 -7.5046800362000296e-003
      -2.9255181121452746e-004 1.0138634011354693e-004
      6.2678748825455502e-003 -1.6777465943615193e-003
      4.9689185204793170e-005 7.1998951309501270e-003
      -4.0006553139864086e-003 1.0262582004237667e-003
      1.0598260427606857e-003 -1.7237042980131187e-003
      6.6051630283979349e-004 4.0804667751302634e-003
      4.9476777773821267e-003 8.8462712783642442e-003
      -2.0185527728832624e-003 8.8406241277324254e-003
      -5.9093962325022786e-003 5.7755804957699015e-003
      -4.0641698932258998e-003 -1.8659218994085682e-003
      -7.2430345376460004e-003 5.5872231764042112e-003
      -8.0455651409254269e-003 -2.4182687510805869e-003
      7.6171081987693760e-003 -7.0908124640107291e-004
      -4.5610649972939420e-003 -7.0536547523670657e-003
      5.3918671266491866e-003 2.2962255955771851e-003
      -6.9280668711891938e-003 -2.4494299449508853e-003
      5.1535482948189774e-003 7.2506890471266952e-003
      -7.1317850396158235e-003 -2.5267524784809629e-003
      2.0127736873673881e-003 -5.3367283972052520e-003
      -3.3174880648708127e-003 -5.4100166093807647e-003
      4.8315476287491927e-003 -3.1913761363531121e-003
      1.0483657549443300e-003 8.7322068265998139e-003
      -4.2852964627696456e-003 6.2443025547630300e-003
      -2.2834226383037551e-003 -7.0562646370679284e-003
      8.3897749918007761e-003 3.3118906514304196e-003
      -8.2332798511447324e-003 -5.2355959812600420e-003
      -4.1471871854966196e+000 2.2530993736509017e-001
      2.9464721182816889e-001 -3.5622887956633875e-001
      -1.0881987780320723e-001 -3.1546168174373068e-001
      -1.0111525621432253e-001 2.9003377737084979e-001
      6.3257722900330393e-001 -2.1528849492992252e-001
      1.1726418538370355e-001 8.7608599612588545e-002
      4.0605995904190412e-001 -7.8832477359687195e-002
      3.9440910036802258e-002 -6.2165990247003364e+000
      3.5995444088504330e-001 1.0014789979982312e-001
      -2.9897898467132067e-001 2.2361281937491259e-001
      -1.8490910428119178e-001 -8.7473130599473647e-002
      9.2992389332744771e-002 1.6551755049174641e-001
      1.1152285759043466e-001 2.0735040722487835e-001
      2.2340451630183941e-001 6.4084251800810810e-001
      1.4009746465970474e-001 -5.6459798318496401e-003
      -3.4136266380607969e+000 2.3126707657684220e-001
      1.5936396551530629e-001 9.9846035595425847e-002
      3.1733232865011993e-002 1.1853332898168797e-001
      -2.5132995415844617e-001 -1.0451509318125878e-001
      -1.8048847699841000e-001 3.1314425413063124e-001
      -8.8348130692406414e-003 -4.1887582293630439e-002
      3.8421214167485879e-001 9.3659254252199287e-002
      7.9138415306754167e-002 1.2370115375338417e+000
      8.3639643658138280e-002 2.5407914159198314e-001
      1.3373835161189243e-001 -2.3685184988173225e-001
      1.7144589669589874e-001 -3.6664830776166379e-001
      -1.0919264501128813e-001 -2.2980547369008480e-001
      1.2928741624377951e-001 -2.2697663589428158e-001
      -1.6601674835057439e-001 -2.2557099704457528e-002
      1.0770093352977209e-001 3.2071050591430214e-002
      1.7980218054774721e+000 1.6391239621699072e-001
      3.6029936630724396e-001 -5.4551167653827531e-003
      -9.6635306916692101e-002 1.3869992633204367e-001
      -4.1029917537560356e-001 -5.3520696000455600e-002
      -3.2775425615669113e-001 7.2463880987831325e-002
      -1.6375404323903700e-001 -1.1906792235655084e-001
      -9.4282055079835489e-002 8.9374048854631530e-002
      1.3354230401972103e-001 1.0781363194108322e+000
      1.8602763287815155e-001 2.2063862422096409e-001
      -1.6167461044723924e-001 -1.8966918442845521e-001
      -2.2232730232573793e-002 -4.9805341289376365e-001
      1.0828870174346820e-001 -3.1577618554930098e-001
      2.1074664511029662e-001 -6.3089720020059366e-003
      -1.6066528561523555e-001 1.3844068144651844e-001
      -2.3798845094593812e-001 3.5519171426936158e-001
      4.6778870292755093e+000 2.4477504446392168e-001
      -2.9183507744275999e-001 -7.0167955503859748e-003
      -5.8938482485792798e-001 1.9165384880550851e-001
      -4.1160882770333196e-001 3.1088230289517038e-001
      -2.3116867154609200e-001 3.0994249380961758e-001
      1.3959458267938413e-001 -6.9520816343556197e-002
      3.5343520970701298e-001 -7.5599659731481472e-001
      6.0248434749323863e-002 2.9092254492007261e+000
      2.7795863239177560e-001 -2.6239555118001190e-001
      -2.5833797712615469e-002 -3.3010811014219799e-001
      2.1188246577167608e-001 -2.4436246846073495e-001
      3.9854516271382417e-001 -2.3016761307224448e-001
      1.7259655617231517e-001 5.5463641060637192e-003
      4.5603957404719779e-002 2.7870409889840986e-001
      -4.0644184683989892e-001 -1.1722228707702696e-001
      4.0765668058054927e-001 9.6066586847129987e-002
      4.5781985898321158e-002 -1.4264501487056802e-001
      -1.7332582468880231e-001 -8.4188064071093083e-002
      -2.9772407345765561e-001 1.5467378670570739e-001
      -8.0860227173577881e-002 1.2881652706509306e-001
      -4.4483833661853656e-002 -3.4988805666252336e-002
      5.7875478956888736e-002 6.6170054249684779e-002
      3.1743091473272103e-002 -2.1462503147228174e-003
      -8.0908491961718138e-003 7.9033610996882171e-003
      8.6333305357938518e-003 2.7813269218049169e-003
      -5.2901600086348553e-003 -1.4755757773257858e-003
      -3.8031237608303924e-003 -8.0649784321539207e-003
      6.0168942821451285e-003 7.8943299060631050e-003
      -6.6164659292778094e-003 -2.1972984868043510e-003
      -5.2236855045588830e-003 1.8891062060204325e-003
      4.1905707318925130e-003 -7.8965458812763293e-003
      3.5361530454081310e-003 -6.7655756350693983e-003
      6.5786206333554404e-003 2.9628125467889028e-003
      7.3007972365822594e-003 6.2190434749632446e-003
      -2.2292097498152470e-003 -5.2725628862631338e-003
      9.0523976487419042e-004 -1.7797876527417932e-003
      4.7153948466728745e-003 2.2065353702565178e-005
      6.6311360805001310e-003 3.8042209983151724e-003
      5.8168026579349095e-004 5.8886129749137111e-003
      -8.6600358564499491e-003 -4.3169163374938164e-003
      2.3673471985473037e-003 -4.0653884491668839e-003
      6.2533876424390863e-003 -1.1037274548484625e-004
      -4.1333948367832784e-003 5.6815050105564549e-003
      2.5832700220825591e-004 -6.6051909194349253e-003
      -1.9347602509700551e-003 1.5676010138549511e-003
      -1.2808385410794875e-004 -9.0687503837302633e-003
      -3.4503518594851917e-003 7.2304112598080119e-003
      4.0229368343209816e-003 8.1818734666844022e-003
      -3.8762977538442179e-003 -6.4768219299581641e-003
      4.5923473701009057e-003 -1.0537596930232014e-003
      6.0663097187329991e-003 -2.2952720964745693e-003
      -5.3811297817366174e-003 -6.5542481144041645e-003
      -6.9708159682879975e-003 -6.2719808352627157e-003
      -2.0318470234102406e-003 -5.1765023467077722e-003
      2.7330914328869858e-003 -1.7225498247208097e-003
      -1.7159980347811242e-003 -3.7914591903289419e-003
      8.0594450845353899e-004 2.6289717110092262e-003
      -7.1420643662896827e-003 -7.9758739817372085e-003
      2.9195492997561327e-003 1.4310251727790784e-003
      3.1657492494105250e-003 -5.5360962191720589e-003
      -3.0805352021721143e-003 1.3576821134687433e-003
      -3.9269068746869895e-003 2.7817605893070744e-003
      3.9153640575187963e-003 -4.2293279466355040e-004
      5.3673516427904175e-003 2.8890857590626925e-003
      3.9438885836054439e-003 -6.8475159973484332e-003
      -2.4220466253046550e-003 -9.3863507968211003e-004
      4.1871516195492982e-003 5.7377154498285746e-003
      -5.5751845901072785e-003 -1.6839138995246155e+000
      -3.5507741321182196e-001 3.1699880620298793e-001
      -3.1976172930568680e-001 4.4810082643653992e-001
      -4.8194911558359654e-001 -1.3185327382255504e-001
      5.6150293692526179e-002 1.2290753594549088e-001
      -2.0287236374714510e-001 6.8288143148416205e-002
      -5.8816854729240642e-002 -2.9832194914101801e-001
      9.0171050790899918e-002 5.5438351850725587e-001
      -2.7839116119828020e+000 -2.8747337159312947e-001
      5.6144720257886973e-003 -1.2867883970182942e-001
      4.7846525185127642e-001 -1.3871046835256912e-001
      2.4633121474737101e-004 -2.3946384498390899e-002
      -1.5224367831751939e-001 4.4586043805066478e-002
      6.6672323912041115e-002 1.0535612928673169e-001
      -3.2327705236307930e-002 5.6855672591307679e-002
      3.7010073864116749e-001 -4.3480651724873436e+000
      -1.5017298746855681e-001 -1.2869908064815691e-001
      3.8731940176119367e-001 2.7091549835256257e-001
      3.5761218418353269e-001 2.2480055604635935e-001
      -2.5893578458881061e-001 -2.0373168750545734e-001
      3.1374431977497269e-001 -1.2350162447077963e-001
      6.3534424389188104e-002 3.9898104868800072e-001
      1.3037251754341733e-002 3.0400069365826194e-002
      2.1904243339290761e+000 -1.0017474890470993e-001
      2.5293041319442577e-001 1.3789888403815687e-001
      1.0526541166441188e-002 3.7662094714015859e-001
      -3.1439922715412322e-002 -3.3574915050580084e-001
      -9.4135908897163098e-002 3.4038614567688974e-002
      -1.6274040527955366e-001 -5.8479645137594367e-003
      6.8385213694706473e-002 8.6314392521367522e-002
      -4.4417999999391049e-002 3.8514570749227532e+000
      2.1685280366165134e-002 6.1312662422418418e-001
      -1.8758026285788990e-001 2.7968229325651639e-001
      1.8973132016955188e-001 -1.2737137288963027e-001
      -2.8724612010823131e-001 1.3035484255971611e-001
      -6.0957459451979293e-002 1.6723506540618646e-001
      -8.7852388840714946e-002 4.8585888159507803e-002
      -1.4951329117153403e-001 2.6188267663072023e-001
      1.0719627188440732e+000 -1.7237232617070292e-002
      2.7029420132741111e-001 -2.5310108015248295e-001
      2.4839913908280356e-001 -9.5128185757776013e-002
      -2.5800449690031063e-001 -2.1505056995219908e-002
      -1.2437100004811869e-001 1.6258469887178528e-001
      2.4737213233506236e-001 -9.8210917331417930e-002
      2.5736806844422250e-001 -4.1020542050322301e-001
      5.9406774070137325e-001 3.0254185295813874e+000
      6.8276068370251880e-002 -1.7398698176353877e-001
      -1.9997964553599820e-001 -1.9602512126846638e-001
      -4.3198980007874144e-002 -3.2181563521835083e-001
      2.3140036084260138e-001 -1.9082278495767793e-001
      2.0338193321960893e-001 1.7834988060741089e-001
      -1.4349296841093132e-002 3.7573012035060877e-001
      -5.1369110911924576e-001 2.7684754628002245e-001
      1.8025477069099094e+000 1.2670230875449118e-001
      -2.6978432128337543e-001 -1.7062052674785946e-001
      -2.7141017899594055e-001 -2.3240510677475523e-002
      -1.6682372851960667e-001 3.5963222897680097e-001
      -1.0554264225098879e-001 -6.0205798336546146e-004
      -3.8849273659181754e-002 4.7160047295123783e-002
      1.6325392448505266e-001 -1.4769127047212569e-001
      -8.9211813155882017e-002 2.7807893240858395e-001
      4.8965991959429217e-002 -3.8287183093807596e-002
      -4.0785068922718069e-002 -2.5639832686120356e-001
      -1.1853192735731768e-001 -1.7128068833001209e-001
      1.4044027336530915e-001 9.6865613233776339e-004
      1.2549289506642453e-001 -5.5230811860009013e-002
      -7.7395038091940024e-002 -1.1245402074307506e-002
      2.4568518973168078e-002 -7.8257684040935679e-003
      2.9891319356592631e-003 -8.7226603977160633e-003
      3.8144873995662135e-003 -4.9246194384672502e-003
      5.6243899319652728e-003 4.1546352257677450e-003
      6.7000597370074303e-003 3.5110577625586063e-003
      4.0500131899099189e-005 -4.0848658276420296e-003
      2.6488827160594123e-003 5.2781437295091353e-003
      -3.9482706267094710e-003 -5.6535963082214487e-003
      1.7349676586408032e-003 7.0620834550738044e-003
      -7.1714923082012178e-003 6.9666148764725724e-005
      -8.0293208842403645e-004 -4.8152067651439584e-003
      3.3080156153005276e-003 -2.7136394171110395e-004
      -1.8148091715931502e-003 4.5555570430160014e-003
      5.7292180095970856e-003 7.4567439856821132e-003
      2.4522072609428902e-003 -1.6274363728816883e-003
      -4.9177542958686142e-003 1.4642875899098518e-003
      -3.7307954205374645e-003 8.8469521389686803e-003
      -9.0371883107671063e-003 -7.2052693077140533e-003
      -6.9496033302954762e-003 -8.5384719108024826e-003
      4.1471802526812434e-003 1.2092641177965881e-003
      1.2969984881180483e-003 -5.1077580542794937e-004
      3.5409241490280724e-003 7.5320552269009956e-003
      2.2499474734042381e-003 7.7864171501327618e-004
      -4.8091605157724263e-003 7.0789594964586209e-003
      -7.4525131451677641e-003 3.3857059258602835e-003
      7.8161282812014797e-004 8.6074725250558457e-003
      -7.5242887400654799e-005 -6.1311808160024175e-003
      -7.0642737476827476e-003 2.6252007687070597e-003
      9.1204819352866187e-003 -3.9826304757340652e-004
      -7.0724250340301687e-003 4.6365286284219863e-003
      4.8442630646286842e-004 2.2154803418647550e-003
      -2.9938186881006764e-003 7.2117997462495826e-003
      -7.2220082339686277e-003 -8.0819482223000710e-003
      -7.8345864472886134e-003 -8.2521314239840937e-003
      -3.7290330993720983e-003 1.1684478887672789e-003
      1.4140582122074276e-003 5.8345041725221475e-003
      -5.7404338110856965e-003 1.0438017777518703e-003
      -7.7548636407003503e-003 -3.1666730432693036e-003
      -2.7243304001365203e-003 -5.8289648227255455e-003
      -1.0540860010989841e-003 1.4994593117236886e-004
      1.0557839375387350e-003 2.1536825784111728e-003
      -8.6420456506464214e-003 -1.1667086192574169e-003
      4.0955988603565596e-004 9.7582621503214612e-004
      5.2133931813334519e-003 3.6785903207082740e-003
      7.6995621892774721e-005 1.1454259278458688e-003
      -2.6640586590810948e-003 -3.7246063687472191e-003
      -3.4690768144058333e+000 -5.1939390627629844e-001
      3.4368487477277893e-001 -2.3401595833011846e-001
      6.2580423218148129e-001 -7.1780490910748562e-001
      1.9832057246951668e-002 -8.6015528184587284e-002
      9.0489049188395135e-002 -2.4040121486137656e-001
      -3.3967000019854213e-002 -5.5555296301377510e-002
      -4.3683309214669208e-001 3.9256974634823871e-001
      5.9052892805931789e-001 -2.4093127272362391e+000
      -5.3980107477545791e-001 -2.2993520122019624e-002
      -2.1801312087045945e-003 4.5931054430007417e-001
      -3.3515563761533240e-001 1.0659278512549936e-001
      -4.0037424796242539e-002 -1.9792662943363348e-001
      -1.3948645564249001e-001 -1.5981373507142385e-001
      1.3447364323715719e-002 -4.6162479687498986e-001
      2.5177630634732817e-001 3.8373185816352146e-001
      -2.5323361749582602e+000 -4.9327536582468789e-001
      -2.9657153579913248e-001 1.4416231882669001e-001
      4.4927345564666654e-001 8.9524448379870829e-003
      3.2292503777854076e-001 -1.1191372424252509e-001
      -4.2120305362766253e-001 3.4772479246619421e-002
      -2.2590871477254476e-001 2.1333247904319769e-001
      -1.3807125613451046e-001 2.3751058482323667e-001
      1.0710182762048728e-001 3.1445238711785768e+000
      -3.9915280841563966e-001 -8.6251958990070779e-002
      -2.2280278859314290e-001 3.6735062852821970e-001
      1.2643219518555349e-001 2.6795993844793004e-001
      -1.8560803813485377e-001 -1.0283146088899840e-001
      -1.1730061634649847e-001 3.0170595407363644e-002
      2.7510471295361927e-001 6.3987039131062073e-002
      1.1012421017935485e-001 5.7092934545895507e-003
      3.4474670418190159e+000 -2.5668939322760836e-001
      2.0718509165800747e-001 -3.6263737553682363e-001
      5.1615451275202473e-001 6.7709306830565749e-004
      1.5529878127586150e-001 -1.4591976351953112e-001
      1.2940634780632412e-001 -1.1762652925850768e-001
      2.7927419894165656e-001 1.0481732660265677e-001
      1.2493474262873927e-001 -1.5766383786406596e-001
      2.0465548022638913e-001 1.4014991518833844e-001
      -2.1589806635479933e-001 8.8187468316223303e-002
      -2.7803821638240933e-001 5.8778988654982067e-001
      -1.0483615143164460e-001 -1.8600004777660162e-002
      -5.3265703453672904e-003 -1.4758533212258310e-001
      3.9699739968855334e-002 2.3914537923455959e-001
      6.7984135215379354e-002 1.5616698081320152e-001
      -1.7129129734260562e-001 4.2626424812353697e-001
      -6.1569396757140959e-001 -1.4618079093852801e-001
      3.8523861987000675e-002 -2.7003241460276117e-001
      3.3427521082379053e-001 -2.5601223113148186e-001
      -1.9659897500780979e-001 1.0250230332242494e-001
      -8.8941605164241030e-002 1.6019655356477393e-002
      9.4816657187881848e-002 1.7138705868973880e-002
      9.7120579281328653e-002 2.6512293527303278e-003
      3.5912035883088295e-001 -1.6865732663424073e+000
      -4.7167412767103352e-002 -8.9497545413528376e-002
      -2.5995624741430190e-001 -1.0690591809067552e-002
      -4.0574571026765716e-001 -6.6649034830955869e-002
      1.8411231157284272e-001 1.1123347815892068e-001
      -2.0791891700341625e-001 -1.0736335532414977e-001
      8.4271744439372950e-002 -1.1085757879961083e-001
      3.4756779482064049e-001 -2.4393319921179390e-002
      -7.5322219994330819e-001 -2.7363263975132376e-002
      -1.3401067208048484e-001 -4.0963658329243514e-002
      -1.4693193711160116e-001 -1.0867433146160999e-001
      1.2685797690571182e-001 -1.3001736496660208e-002
      1.5233062381151391e-001 4.0068012602440375e-002
      5.8561093408718387e-002 -1.6589302125228536e-002
      -6.2806326681691352e-002 -2.9122015251829322e-002
      -2.2953006568546406e-002 1.7692665419064442e-003
      6.3003192196265474e-003 7.4502215980192608e-003
      3.2883508003204837e-003 -4.5888415125836367e-003
      -8.5947518425075024e-003 9.1162790920041939e-003
      -7.0913889703196878e-004 4.4415329713375730e-004
      2.8975207018658699e-003 -8.1163920800423339e-003
      1.9264015221213515e-004 -6.9604192667829768e-004
      -4.8480443047481661e-003 4.8990469905625354e-003
      7.0886948073291909e-003 -2.1413035179212517e-003
      8.4784787816934975e-003 -5.1962157906690794e-003
      -4.4268283706099471e-003 4.0521278034272223e-003
      -2.9642458363868351e-003 -7.8374379700173122e-003
      -1.0136646808405374e-003 -4.6162791337782750e-003
      -1.5164106405989421e-003 -7.7914657083925391e-003
      -8.0263893336440968e-003 -5.4830924130683601e-003
      6.5590660120857739e-003 -7.0063833649268419e-003
      -1.6026277954647227e-003 -1.8767828205197015e-003
      -1.8694670663835914e-003 6.3418868474990594e-003
      3.7968441253166414e-003 2.8723158269058800e-003
      3.0914186079704421e-003 -4.1145039292701574e-004
      8.6584482476654550e-003 6.3667127364044158e-003
      -7.6326493424281631e-003 3.1258328066918967e-003
      4.8585076169745302e-003 4.1700512388731972e-005
      -5.7490297986107436e-003 2.8398903762160577e-003
      -8.8409687969073691e-005 -7.8054152900304836e-003
      2.1494115529235638e-004 -5.8330412578072978e-003
      7.7093968873078976e-003 -3.4551012739455138e-003
      -4.2043918203057955e-003 -6.3604867600682499e-003
      1.3773684460048113e-003 4.3604197765912990e-003
      3.4128418357707913e-003 8.2703785677904016e-003
      -7.5457990414792460e-003 -7.0560512892096005e-003
      4.1944268735607483e-003 -3.2422132355751148e-003
      -2.9310582324730255e-003 2.2474366665726033e-003
      6.0833238802423454e-004 2.6256044381632866e-003
      1.4670875565392205e-003 -4.8260698495793033e-003
      7.5415827778217964e-004 7.5050300775572143e-003
      -5.8741476416276841e-004 2.3595268947545081e-003
      -1.5430250683026110e-004 7.9714212185010205e-003
      -1.0393802752822997e-003 -2.5695235803606799e-003
      8.7190533008948568e-003 4.6251631558680223e-003
      6.7131644386098834e-003 -3.1255390111534784e-003
      8.7905645841224456e-003 8.1317280076091038e-003
      -2.7317666968428534e-003 8.2377688749093545e-003
      2.1826256969308595e-003 -2.2445654277333379e-003
      -7.9093216809322693e-003 8.4762240011564439e-003
      -4.6304757651875784e-003 -3.4192360401115796e+000
      -4.7920940999485351e-002 1.6813791904451381e-001
      2.2242093596038812e-001 3.5141527173658699e-001
      -3.6644707048519753e-001 8.5468512046233389e-002
      -1.2675719199018262e-001 4.9191409912646797e-002
      8.9674248612268748e-002 2.5000139780664933e-002
      -1.0835648208567901e-001 -1.3542097257129568e-001
      1.5570991184151342e-001 1.2547698709898891e-001
      -1.6028835662444350e+000 -8.9095872074080276e-002
      -9.6960698541476625e-002 2.9624778116152789e-001
      2.0722348936471549e-001 -1.9468609825947303e-001
      4.6336794923298376e-002 -6.7750650102870822e-003
      -1.8708955181174314e-001 4.2140224319818100e-002
      -1.6358644668894720e-001 -8.3999851227945913e-002
      -2.4405229834328596e-001 1.4893131874535884e-001
      4.9333045630129121e-002 -2.9665344440146735e-001
      -1.2693505622205764e-001 -2.9724713426185134e-001
      2.3049805074732532e-001 9.3256204701462064e-002
      -8.0013657388625273e-002 6.4964295022541724e-002
      2.8185092147083018e-002 -4.0706564137932083e-001
      7.0982692807455325e-002 -2.2189472337534877e-001
      3.7128025327193059e-002 -1.3074321954822371e-001
      1.6993402321003195e-001 -3.1154002743869400e-002
      2.1365112169350780e+000 -1.4574750050873203e-001
      -2.1609544757008917e-001 3.5379542647914805e-002
      -3.6904569971989536e-002 -4.9997350325206656e-002
      2.9222137863397387e-002 4.8169978146497094e-002
      -2.0294518745959736e-001 1.6395123899600569e-002
      -8.9563184072542767e-002 4.4533512546787127e-002
      9.0332483710931069e-002 6.0208400614995196e-002
      -4.4643140270270762e-002 2.3572225250653909e+000
      -1.0350175311078220e-001 -8.5319648600975989e-002
      -6.0525752141970125e-002 5.1456720570079925e-002
      -6.6780165648007581e-002 5.7819265215811556e-003
      4.5523992836005667e-002 -7.2373968744546990e-002
      1.1672274622060967e-002 1.7191060308008075e-002
      -3.9608302442435746e-002 1.4966668013497345e-001
      -5.9749039057511798e-002 4.5838362524576487e-002
      5.5913310926276383e-001 -5.9270096186160880e-002
      -1.1406875255213654e-001 -5.9024600315504848e-002
      1.8326983391788676e-001 -8.7075201022652357e-002
      -6.0961116281869256e-003 7.3940974950183758e-002
      -2.0722668332348587e-001 5.3541489063377558e-002
      -2.1800255360766036e-002 -4.8954409265567503e-002
      1.6327862655925546e-001 -2.2235073892075151e-002
      9.7204042428263179e-002 -8.5371015351785740e-001
      -5.1562922811464129e-002 -3.5406441241854970e-002
      -5.8600101413355400e-002 1.7561731477342774e-001
      -3.9869293926897760e-002 7.3386567366792990e-003
      4.7227714246451287e-002 -7.0135629867958779e-002
      7.6235838502791324e-003 -4.1171072885873183e-002
      -8.4931096377953041e-002 3.1825160372380701e-002
      1.3785953843353566e-002 9.4601564189159340e-002
      -2.7434004227654567e+000 -1.1730778658320729e-002
      4.8061054570561222e-002 -7.5989297314036836e-002
      9.2568068977731593e-002 -8.2254934991349754e-002
      4.6352014813181720e-002 -2.4229312253780548e-002
      1.8060191101608852e-001 -1.4693827378557631e-001
      -4.2436218957625983e-002 -4.7650267740599467e-002
      -1.9650672623937515e-001 1.9067484479645491e-001
      -1.7181743560981039e-002 -2.5254158517467862e+000
      -1.2032919088490693e-002 6.4344118403389369e-002
      -1.3810984330959189e-001 1.4820115608729847e-001
      1.9626723811652862e-002 2.1966316964073820e-001
      -1.8909559907026255e-001 2.4584419140829328e-001
      -1.3600800201481464e-001 1.1096052153359719e-001
      1.2959562130637701e-002 -5.6336379039017080e-002
      1.2761436103241552e-001 -2.8629716981317110e-002
      6.6375202185453659e-003 -2.8064431154501066e-003
      6.2644821764489239e-004 4.5803698393537658e-004
      6.0727364780294940e-003 7.7667589655013277e-003
      2.7389347526337749e-003 7.0582842794206157e-003
      -4.3638210066601008e-003 1.5536798490360512e-003
      -3.3213356180821279e-003 6.3193880538524403e-003
      2.0777902196955039e-003 6.5978330699671461e-005
      5.0615185057932980e-003 -6.3255617998882203e-003
      -5.2156953302708205e-003 -1.5317813319436085e-003
      -1.1355586479094685e-003 5.8312749882989331e-004
      -8.7119673973689894e-003 8.7857430053702515e-003
      -8.6448941048488728e-003 -4.9141150046846729e-003
      7.3041526834291548e-004 8.1834137431674985e-003
      -1.4225268641009238e-003 3.8880864251068597e-003
      1.3378994067983743e-003 7.0806543532812589e-003
      -1.3978603281041154e-003 -1.2975368044588983e-003
      -3.3528903590739748e-003 9.5300639940463052e-004
      -3.8034318586152101e-003 -4.6450511018876475e-003
      -2.5372487120879734e-003 -5.8986780034562735e-003
      8.3115759404325269e-003 -7.1090716799563592e-003
      -2.4424881939330099e-003 2.8248272127673235e-003
      -3.1157014692635540e-003 4.7257059682052176e-003
      1.1300556496681676e-003 -4.9712354118776223e-003
      3.3643237952312517e-003 -3.9196802056345476e-003
      -7.5476555240586614e-003 1.3227002449097353e-003
      2.3121617253229787e-004 -6.6544526726014519e-003
      5.3222653033760704e-003 -4.4338064090537112e-003
      6.5682977408204439e-003 5.7389387618193835e-003
      -1.3012790009514844e-003 -6.4768724652874065e-003
      1.8776130604629682e-003 -2.7780591398614695e-003
      1.4837764265619151e-003 -6.8264830675606363e-003
      8.2659075361262106e-003 8.7936858293111691e-003
      1.7849932347148252e-003 -5.8734478174726854e-003
      -2.1662799619850018e-003 -5.9364523290523670e-003
      2.6614372662105562e-003 5.8036725437907366e-003
      -1.3860547703979859e-003 -2.9339217676921028e-004
      4.1901729285478296e-003 -3.3071162966293297e-003
      -6.8208736401186238e-003 2.5275791315275942e-003
      -6.4939860028380581e-003 4.5511676468038467e-003
      -3.6154623559146596e-003 9.4424947801154352e-004
      5.4400304570422940e-003 -2.4617466134158232e-003
      -6.4104439627113959e-003 -8.3336810725973039e-003
      -1.4603093274951381e-003 4.6298590902636152e-003
      6.0376968868258466e-003 -1.8640727291576145e-003
      3.0348912029773981e-004 4.3023378407294911e-003
      6.4172038139658958e-004 -4.0121268475377042e-004
      -4.3883853338432368e-003 7.8191283104518880e-003
      -6.4048943367457914e-003 6.4585226328302443e-003
      9.4650166721339595e-004 -5.5797214026952853e-003
      5.8402681729036307e-003 -4.9379787770739798e-003
      6.8397794671601663e-003 5.0034711302965121e-003
      4.0800642217628880e-003 2.4155768771923106e-003
      3.6604889122406167e-003 -1.6708010514084983e-003
      3.1080223004996948e-003 -8.5995940072426669e-003
      7.4059148537105714e-003 -4.3516309012845552e-003
      6.7663837413863559e-003 1.1455475395922788e-004
      4.6380514465928675e-003 -6.7482034412777803e-003
      1.5927960099643636e-003 -5.0314599910425539e-003
      -8.3287919258564665e-003 7.1330165331480169e-003
      -8.1592680753105624e-003 6.7461793648050982e-003
      7.4878383694306086e-003 -7.9126776282920919e-003
      -7.8730768679242703e-003 -4.1536709153705510e-003
      6.8800113591732355e-003 -3.4523386902262209e-003
      9.1745735951426453e-003 -4.0235837819149146e-003
      -8.3639469100377020e-003 -3.6362164128851738e-003
      1.2787746955362502e-003 -8.7891468178104032e-004
      6.2294580325597962e-003 8.0624121058704614e-003
      -7.9669153446862533e-003 6.2173993781750739e-003
      -8.5946840156521046e-003 -7.1518041734317519e-003
      -4.5060776565234058e-003 2.2946010935185886e-003
      6.2778086491858563e-003 5.5073135937530951e-003
      1.0940008999727848e-003 2.5034786938359279e-003
      -2.8799667119329013e-004 4.5385144603846182e-004
      -8.8246382331868718e-003 9.7769453271412290e-004
      -2.8793771846124753e-003 3.4269125783972670e-003
      -6.7334799835327652e-005 1.5983372866231241e-004
      9.1737811854226969e-003 -3.4930588436478975e-003
      -7.2490117029124397e-003 1.2819820833224560e-003
      -8.4183478866844842e-003 7.9725038232827212e-004
      8.3979831867567589e-003 3.6859952240434540e-003
      -3.6043389244964000e-005 -3.6819631361341954e-003
      7.1090820721320200e-003 -4.5942563290420494e-003
      1.2674061723100018e-003 -5.7601305292103821e-004
      -7.8877991425658992e-003 5.6845120776935574e-003
      3.4097994715432175e-003 -5.6954739982561955e-004
      4.6722104513451431e-003 5.0175031267647502e-003
      1.5764027502187534e-003 -6.6902850302457250e-003
      -8.0084993372448628e-003 5.5237904502182765e-003
      1.0467156176866390e-003 8.2009260330678426e-003
      7.8351617886726897e-006 -2.6838697411518150e-003
      5.7045304040082446e-004 1.7864367254471940e-003
      -5.1048175520547225e-003 5.6844594293014149e-003
      -4.6921608579127633e-003 6.8749878200561054e-003
      -5.2203077077817199e-003 -7.9452171637184790e-003
      7.7002318381283732e-003 -5.9322869334090247e-003
      -3.5641659184869243e-003 -5.8985081382116082e-003
      6.9945251279202132e-003 4.8110305397620536e-003
      -4.6920605666818669e-003 -3.0849868400520250e-003
      6.8697301333982448e-003 3.5971652700366472e-004
      3.8136259940205193e-003 -5.0828853991292207e-003
      8.0039076681423949e-003 1.1793060145417577e-003
      -7.4262760026923610e-003 3.9411799160472428e-003
      -3.2093863190355899e-003 5.0739110328649091e-003
      8.2785735600861294e-003 -2.0262706688891469e-003
      -5.0046312916383938e-003 -8.0996119279648764e-003
      6.9943798326549465e-004 6.3320180791845097e-003
      -3.6485831788484642e-003 8.0678417021853698e-003
      7.2340855271059859e-003 -5.3461359153472348e-003
      4.3393358623512283e-003 -1.6531640286158119e-003
      6.7953863340942649e-003 6.8407672965870130e-003
      -6.6428628736787086e-003 -3.6706210031115390e-003
      -5.7252739629600861e-003 2.3647957828744110e-003
      -4.7881090477034302e-003 6.5207841849183488e-003
      6.7088202993627810e-003 -6.3372331355503325e-003
      1.0727233053810133e-003 -2.8878749899192914e-003
      6.4468714099231482e-003 -2.9286971629004477e-004
      -1.9830288920891594e-003 -3.0453410074621433e-003
      -3.4608395007434197e-004 -1.3141074597979776e-003
      -4.9093530080660270e-003 -2.1560456684421633e-003
      -1.1276383157145934e-003 -6.1244336866794757e-003
      5.3443383649493118e-003 8.8702671022063782e-003
      -8.0411495730770433e-003 -5.1493562027513659e-004
      1.3229577275759023e-003 2.8765298821106168e-003
      8.1765212322996109e-003 -4.8713408865361556e-005
      6.6370233544808940e-003 -2.0331722113010207e-003
      7.5519524299124596e-003 1.7381953644028442e-003
      7.7212597887888531e-003 -4.9655711389177890e-003
      -3.0902151815713429e-003 -1.7284080499016671e-003
      -2.6656442888614747e-004 -7.7125268926655794e-003
      1.3968142612368365e-004 -7.8938707835935883e-004
      1.7089106945621323e-003 3.2204193426436612e-003
      2.2431708728702744e-003 2.1795109325029234e-003
      8.6870866122408640e-003 7.4855404007215433e-003
      6.7542624166131828e-003 -6.6761650672654913e-003
      8.4458122986562356e-003 5.1941806264555294e-003
      6.2397254954183841e-003 4.4714102125239553e-003
      8.0612512022707073e-003 -4.2764839965783572e-004
      2.9659185647739079e-003 -1.1686612865832401e-003
      -8.1670866937106614e-004 7.6584602715016649e-004
      7.9929601413606128e-003 -1.7503379549981433e-003
      -8.0835471528221438e-003 7.0474709444179199e-003
      -7.1174145530520224e-003 -8.2901227028788632e-003
      -5.9306963483034799e-003 -7.0222642676669887e-003
      -8.9914631060769006e-003 4.7919621842423361e-003
      -7.1286354142535919e-003 -3.9285734350168328e-003
      1.5748817631998173e-003 7.6591546172017416e-003
      -1.1015348945556827e-003 -1.1057212481998745e-003
      1.4979768967109256e-003 -4.0823148423547026e-003
      -7.2388557519045280e-003 -8.6427387913707871e-004
      2.1259600670893264e-003 -5.3844106458917993e-003
      -3.9738744885650162e-003 4.2570015637481400e-003
      -4.2311579233854169e-003 2.8930905431822805e-003
      5.3197702360407093e-003 -5.4671316236650589e-003
      -6.3302739885048543e-003 -2.4847135737229558e-003
      3.9546193601029704e-003 -1.7941882478498198e-003
      -4.9073214395292629e-003 -6.9181516120241553e-003
      -6.1647312590990110e-003 -7.3887348867648197e-003
      1.2890778480574342e-003 -5.3250641289468367e-003
      8.3704860355628685e-003 -6.8076518397422467e-003
      -4.7530344207221764e-003 -3.0034919001372261e-003
      -3.1121795019591007e-003 7.6812344748371031e-003
      2.1137914648712124e-004 -4.1210545643419498e-003
      -6.9331620869999165e-003 -3.6497396153930416e-003
      9.2154177157280498e-003 3.3859131204210776e-003
      -8.5645969839644020e-003 -1.8807942972488053e-004
      -3.3953729989454565e-003 -1.9879022759884068e-003
      2.1926591353437861e-003 -2.1047892147657817e-003
      3.9519907196977578e-003 1.5706321037966561e-005
      -8.2248287636425173e-003 8.3985805065659724e-003
      7.6450036147264078e-003 -1.5817817557781319e-003
      3.0055903914358948e-003 6.3576094990967363e-003
      7.0341885885847567e-003 -8.5667063632606164e-004
      -7.2676901723955582e-003 1.7973808446958431e-003
      5.9330176754666475e-003 -8.4896091187546610e-003
      7.1082424643109298e-003 -1.7308024088549653e-003
      -1.3961076426711302e-003 2.1521248677025483e-003
      -5.6309591425156812e-003 -4.6090669195590871e-003
      8.5466493461013957e-003 1.8211302531080241e-004
      2.1745001677066248e-003 -4.2672468072001658e-003
      -5.8360161476958871e-003 -2.3640435863677535e-003
      -5.3929346356770937e-003 -4.0143729530841407e-003
      -5.9102072580040589e-003 -5.2657557788621306e-003
      -5.6629339158118372e-003 2.5828238879351873e-004
      1.2704355503713879e-003 5.9337247230572031e-003
      7.1008936722415979e-003 -1.2476603673281452e-003
      -7.6438388397708579e-003 1.5283186624891951e-003
      -5.9310872549964326e-003 -5.2769182941736362e-003
      7.8963466775906418e-003 3.2237730659430042e-003
      8.2937107311372750e-003 3.3327695302387437e-003
      -8.1765902456058907e-003 -6.5059888482302958e-003
      -3.4908813782521578e-003 7.0587609331781136e-003
      -3.8966652431410439e-003 3.2562620029503290e-003
      1.1345179229613595e-003 -4.7660036499724470e-003
      -8.1275050384389466e-003 4.9383831796896496e-003
      -7.6124761525394212e-003 -1.2911051303482696e-003
      -7.3933739585423609e-003 -6.6937957212256718e-003
      8.9999753694191467e-003 -9.0316286595502871e-004
      3.6129408248951615e-003 7.6008553337210743e-003
      6.7965731310010080e-003 -8.7238729007027335e-003
      -7.2238626967292732e-004 1.1379971200576053e-003
      -5.8146940502894536e-003 -1.6869718881113734e-004
      1.4004394637222289e-003 -6.3011440998740776e-003
      6.1049181765997062e-003 -6.4373629552513193e-003
      -1.7703325241020670e-003 -4.8106429182873276e-003
      4.5148810558331455e-003 -2.7370818155690109e-003
      1.1144608379068614e-003 -8.8566947383212713e-004
      4.6222477376440755e-003 4.5082981394536691e-003
      7.6664470708065141e-003 4.4799032333295956e-003
      -2.6635337594080708e-003 8.1624745369037067e-003
      9.8370421502966504e-004 3.3091097519691035e-003
      2.8919718043890446e-003 -5.9258615775352583e-004
      -5.2023437249175625e-003 -4.8835718423149753e-003
      -7.3751836186006963e-004 -2.3437837893224198e-003
      -5.1013533672051329e-003 3.9065314750732312e-003
      7.8034856355779451e-003 4.0068432089461802e-003
      -4.8434659630818234e-003 4.6214367438387484e-004
      2.3646692523144161e-003 -5.3078084453594002e-003
      -2.6250540247881337e-003 -3.2674557976779201e-003
      -3.5266717496656146e-003 -6.6280125476874232e-003
      -1.7779315448731160e-003 -4.6546012999531591e-003
      -1.5994432062948717e-003 7.2071289879584253e-003
      2.8309969021792078e-004 7.0585082706457851e-003
      -4.4897120448601571e-003 -5.5742570234775671e-003
      8.4937656273029963e-003 -4.3302721107268396e-003
      -6.0047228067429377e-003 4.6157294324452747e-003
      -7.2156016507541288e-003 4.7295730203788895e-003
      5.1097728865824772e-004 -6.5762085902516367e-003
      6.4806692212770320e-003 -6.1922295991181349e-003
      5.2475623449156098e-003 6.6584780374687675e-003
      -2.0139992099512450e-003 4.4346744303755820e-003
      -6.6211351806252025e-003 6.7996434860543940e-003
      -7.7344379306718046e-003 1.4377327050069139e-003
      -4.9303127705377413e-003 8.2707447463500183e-003
      2.4898239763478302e-003 -1.7496758022452316e-003
      7.9395623269856250e-003 -4.7377261676822113e-003
      -5.5825204621692765e-003 -9.2485604518247558e-003
      6.6463899074269816e-003 -2.5523293813690252e-003
      3.0540708834340216e-003 -5.3466335089806397e-003
      -5.8820708370808687e-003 7.5204497868317172e-004
      7.4936806338210251e-003 -5.8565712163875802e-003
      7.6130273069884586e-003 1.4667864112182969e-004
      8.7046182685895802e-003 -7.4537280322755153e-003
      4.0015763343845961e-003 -1.8232292413238066e-003
      5.2717687572513012e-003 -3.0353376293060889e-003
      -8.3276381451556267e-004 -2.9864630212918077e-003
      -5.0355250940092577e-003 -2.8118899979798764e-003
      8.3676910642905122e-003 -3.3232359900244954e-003
      3.0698541113351957e-003 -6.7403725188259489e-003
      -2.7568062272588620e-003 6.5391325303299730e-005
      -1.1294786641891251e-003 6.9746329023924582e-003
      4.9385606342824450e-003 -6.6488249494364698e-003
      -7.8967132292179585e-003 4.4117290601023559e-003
      -8.7410141768578253e-003 -5.2714733626077655e-003
      7.9043937279749399e-003 -3.6231557445591230e-004
      3.7208448386088348e-003 -3.8581158145338111e-003
      -6.6906431941816218e-003 3.0324136893149357e-003
      3.6907622064445613e-003 1.9576577347437938e-003
      -6.5501273727440372e-003 -4.4702897209354456e-003
      8.9317711659911009e-003 6.0949964736899251e-003
      2.2372671934826832e-003 -6.1917958996161870e-003
      -5.7836744812400556e-004 -8.7700536249023849e-003
      4.6889504841254436e-003 -1.0978310154839922e-005
      -3.3134498399033257e-003 6.8375446237076542e-003
      4.9589723783113795e-003 3.9996098517705555e-003
      8.7992364246294343e-003 -4.4646753195445700e-003
      -2.5795243687876282e-003 -8.1745943260919263e-003
      2.8267779731022328e-003 -5.1898288243342394e-003
      2.8188123069572183e-003 4.3874591865235056e-003
      2.7545471587554458e-003 -8.0319786786327730e-004
      4.0267171150732643e-003 3.5824504502958176e-003
      -9.8241584006319689e-004 7.7491999139929265e-003
      3.1177858641387624e-003 -1.5229313430481163e-003
      9.1108886856907378e-003 -3.3979093414820173e-003
      -3.3850453653835584e-004 2.1082771595898704e-003
      -2.3292766002084055e-003 8.6710806511907275e-003
      -4.5732705458691493e-003 8.2133090589837903e-003
      2.0384186965616328e-003 -5.8466658456892079e-003
      -2.0385744474504838e-003 7.6744380063906549e-003
      5.7034891544274231e-003 -4.0830529507691928e-003
      -5.5434477705180842e-003 6.9659538793494073e-004
      8.4292825618405356e-003 1.4470026149225922e-003
      -3.0478874366388258e-003 6.0673416587004019e-003
      6.2222337006206082e-003 7.0624129783904430e-003
      6.3493079622067659e-003 8.1336575136936925e-003
      2.4102406908148278e-003 -4.7934070770552995e-004
      1.7538295578036769e-003 -4.2126670840805167e-003
      -2.4794795222009996e-004 -4.1964735039094706e-003
      -6.9589385567233025e-003 -4.9528150826249348e-003
      -8.2905850620549268e-003 -8.0378167718546875e-003
      2.0533220500366625e-003 2.9465766966923347e-003
      -3.3046972099295886e-003 -2.7984087312377648e-003
      -4.9471940046339809e-003 3.1042248882848077e-003
      -4.1291432242327617e-003 -8.3260578622614372e-003
      8.9868054577730908e-003 6.5831669870377507e-003
      2.3337560246129295e-003 6.9255287128061841e-003
      -8.7290596747785689e-003 2.4908717681205424e-003
      7.9514168006208363e-003 -1.3371562790202094e-003
      -4.3064044725432179e-003 5.3085187816230119e-003
      7.5156264002309309e-003 6.1414547968063268e-003
      3.1380004323148520e-003 -2.8503452822396247e-003
      -4.7270657651510826e-004 -8.6026309093297643e-003
      3.8825385074615264e-003 5.1061071901411497e-003
      7.2883417163966272e-003 7.6181465676995368e-003
      -2.3340792910360305e-005 8.6749618654767754e-003
      -3.4129334264544711e-003 5.8884217327223620e-004
      -2.3071357706461169e-003 -6.8386553586919467e-003
      2.9761012311298480e-003 2.4067600757810984e-003
      -1.9650895123524675e-003 -8.1783232528593285e-003
      -2.3430240299041217e-003 -7.0084403838520000e-003
      -7.3523538692545614e-003 3.9237158497432822e-003
      4.5923088177844988e-003 2.8806591933163124e-003
      -5.1743105466646429e-003 -6.9963347150362506e-004
      4.1065029422661251e-003 -4.9041812984639268e-003
      3.8088088285522658e-003 6.2495744197874356e-003
      5.3641060482207212e-003 -2.1079253515636854e-003
      4.7109445011940136e-004 6.3230069027205614e-003
      -3.8077054892104085e-003 1.1818775179185950e-003
      -1.3794553524411359e-003 1.2377325458555887e-003
      3.1317665507371627e-003 1.8747573668037320e-003
      -7.0458923197489953e-003 4.4048914393297629e-003
      -3.0453687090177084e-003 6.3196678917138045e-003
      -2.0577301694927165e-003 8.1567386469736710e-003
      6.7106787998246200e-003 8.1392049036420524e-003
      -7.8104185469967538e-003 2.4412914386212890e-003
      -1.3682429659943221e-003 7.5807350637063682e-003
      -7.8204303207094067e-003 1.0660553673485238e-003
      2.2365716192762589e-003 -3.7678790771459751e-004
      1.3008166356022412e-003 -3.2722788322857802e-003
      -3.2741342325483492e-003 7.3308506121544312e-003
      -4.1636628051631768e-003 -6.2007007140125079e-003
      5.8042296487215920e-004 -1.8274122097155917e-003
      7.8929511701913216e-003 -4.8559262116448310e-004
      -1.6642257472089912e-003 1.4382132440930416e-003
      -4.5157433593076834e-003 5.6783596664468847e-003
      2.9615837083563053e-003 -7.4019973166000808e-003
      2.4291766110499996e-003 -1.8717714856564811e-003
      -3.3511228969152667e-003 -4.8945006444110943e-003
      -1.0758364446441142e-003 2.9793115429841571e-004
      6.6766390610470622e-003 3.3270685735676772e-003
      4.2786343134418375e-003 -3.5904179424182237e-004
      -7.9902803038314307e-004 -2.5136316365723696e-003
      -3.1797289325836688e-004 -5.6429401555030869e-003
      -7.7694990759030568e-005 -5.8622963534784905e-004
      -3.5933562940108541e-003 -5.6274741591786335e-004
      8.6810581483558764e-003 1.6331090736504065e-003
      4.9806522385202586e-003 -8.8215854777161529e-003
      -2.2802682651550210e-003 -7.8975773310737511e-003
      8.8398399769791334e-003 -2.4608391050383359e-003
      6.2374173385324316e-003 6.6733642817250879e-003
      -1.4160658495083751e-003 1.5584551446028885e-003
      -5.1744860726124983e-003 -7.0934081349952223e-003
      3.7856262409027047e-003 3.9158150793912674e-004
      -1.9132665126199192e-003 -5.6686065213066286e-003
      1.0296903691581389e-003 4.6419155989469623e-003
      3.1767776212565930e-003 -6.5844304342947311e-004
      -6.0808903585628689e-003 -6.4644649851163761e-003
      4.7333102239099888e-003 -7.3572027666378116e-003
      8.3451289032758034e-003 9.8436587383645796e-005
      -3.2922737343646044e-004 -2.9645047675689760e-003
