<?xml version="1.0"?>
<opencv_storage>
<my_nn type_id="opencv-ml-ann-mlp">
  <layer_sizes type_id="opencv-matrix">
    <rows>1</rows>
    <cols>3</cols>
    <dt>i</dt>
    <data>
      225 42 28</data></layer_sizes>
  <activation_function>SIGMOID_SYM</activation_function>
  <f_param1>5.9999999999999998e-001</f_param1>
  <f_param2>1.</f_param2>
  <min_val>-9.4999999999999996e-001</min_val>
  <max_val>9.4999999999999996e-001</max_val>
  <min_val1>-9.7999999999999998e-001</min_val1>
  <max_val1>9.7999999999999998e-001</max_val1>
  <training_params>
    <train_method>BACKPROP</train_method>
    <dw_scale>1.0000000000000001e-001</dw_scale>
    <moment_scale>1.0000000000000001e-001</moment_scale>
    <term_criteria><epsilon>9.9999999999999995e-007</epsilon>
      <iterations>1000</iterations></term_criteria></training_params>
  <input_scale>
    1.4407805374798769e-002 -1.2428551291630663e+000
    1.3401780451752929e-002 -1.4942722910985191e+000
    1.2778445848272235e-002 -1.3034368843498114e+000
    1.2371190282532181e-002 -1.2722886054066851e+000
    1.1691150846227285e-002 -1.2535663527397038e+000
    1.2235236056889032e-002 -1.2186747599515197e+000
    1.3251642427013478e-002 -1.0944080459213219e+000
    1.6333004907275232e-002 -8.0249905426882362e-001
    2.2260471235702059e-002 -4.2666459538161167e-001
    3.2654862275676100e-002 -2.7028899019493285e-001
    2.4167805609868899e-002 -2.2034057461105525e-001
    2.8086468078608616e-002 -2.1357808091838695e-001
    4.8713936342693502e+000 -3.3136470777147875e-002
    5.5554038302655928e-001 -5.2014838444324030e-002
    1.8595651646561143e-001 -5.3070803012998401e-002
    1.4258141123420821e-002 -1.9641121155914916e+000
    1.2638317918008374e-002 -1.8779048465002415e+000
    1.3769616205220723e-002 -1.3951219259727590e+000
    1.3172395225136808e-002 -1.2520959750573708e+000
    1.1908515022852660e-002 -1.1275999792237079e+000
    1.3224276504083123e-002 -1.2169254177173532e+000
    1.3055416889782030e-002 -1.1971563066360882e+000
    1.1743466344284591e-002 -9.5335319518283179e-001
    1.5078100333798162e-002 -5.5288248265223461e-001
    2.0660721866186310e-002 -2.8151394812330000e-001
    2.1102789782719660e-002 -2.2596293782379631e-001
    2.3759072938806018e-002 -2.2254695872238561e-001
    2.4490258678705281e+000 -2.7278881517824913e-002
    2.6776112076785574e-001 -5.5501371253686732e-002
    1.1120028504920251e-001 -5.6777017277540885e-002
    1.3746540805636146e-002 -1.9285689456499460e+000
    1.3273310270204119e-002 -1.5415558172270458e+000
    1.7370014336947032e-002 -8.7771874733096600e-001
    1.4309139908679347e-002 -7.3227083180633978e-001
    1.6235283539864424e-002 -6.5483978434880719e-001
    1.6035415973094169e-002 -6.8724099412882289e-001
    1.6475109179229001e-002 -8.3749784823830320e-001
    1.1542070472848200e-002 -8.5951300056073177e-001
    1.3385365841724494e-002 -6.1323134404221791e-001
    2.0176082119958565e-002 -2.8291826196598147e-001
    2.5916120028512138e-002 -2.2485331872231773e-001
    2.4064200763896499e-002 -2.2272874705311344e-001
    1.2793552723947390e+000 -3.7112819508198287e-002
    1.8144305765464983e-001 -5.6520635331053976e-002
    1.0489758183752750e-001 -5.6922547804003278e-002
    1.2715574133243840e-002 -1.7689151297548262e+000
    1.3493803517138766e-002 -1.3581950868519599e+000
    1.6770376740698589e-002 -6.1171391765645466e-001
    1.3173196286916877e-002 -5.7902563313422462e-001
    1.9459492020689226e-002 -4.8688025248359862e-001
    1.5778676730480209e-002 -4.3572517998545240e-001
    1.9409268884572686e-002 -6.0695047940353231e-001
    1.2861733429016151e-002 -7.4541925508395257e-001
    1.3159968285557131e-002 -6.1904653661929765e-001
    2.4777318831155731e-002 -2.8557231182346776e-001
    2.9571767419741248e-002 -2.2479813272449214e-001
    2.4149235218721987e-002 -2.2278276727759233e-001
    6.3258482540220218e-001 -5.0525697130959946e-002
    1.3935755937987121e-001 -5.6785600087314494e-002
    1.1851695305336028e-001 -5.6436418554968490e-002
    1.2556127139544982e-002 -1.7325591939154037e+000
    1.3774329127176122e-002 -1.4657138601933359e+000
    1.5304899780425511e-002 -7.0741943265273999e-001
    1.4134554166608896e-002 -7.1678395688099039e-001
    1.7252458191199818e-002 -6.0229118557041106e-001
    1.7559563872185591e-002 -5.8251145784978320e-001
    1.6349012926156953e-002 -6.4109928172179542e-001
    1.3518504142439196e-002 -6.8779637032465679e-001
    1.2895916664538667e-002 -5.5719461708123696e-001
    3.4258539784419569e-002 -2.7201713174025000e-001
    3.0598365366895388e-002 -2.2534639344781154e-001
    2.4176639022029944e-002 -2.2286350920681297e-001
    3.2533602058158895e-001 -5.4667927444297847e-002
    1.1430496212488840e-001 -5.6935976974571881e-002
    1.4621746736176164e-001 -5.5656807174196118e-002
    1.2235528411449688e-002 -1.6191674719150850e+000
    1.2437118189796349e-002 -1.5853488592538743e+000
    1.1418580280533438e-002 -1.0147086965973815e+000
    1.1835725205462392e-002 -1.0588438789355692e+000
    1.1556968447196843e-002 -9.8618793377407155e-001
    1.2238050574196866e-002 -9.7022567738532572e-001
    1.1478473254299713e-002 -9.1573279063090218e-001
    1.4347062314031765e-002 -8.1628141801663157e-001
    1.3061136565932600e-002 -5.2870109476108640e-001
    4.0366858013715444e-002 -2.2919989544812669e-001
    3.0676995262105496e-002 -2.2645037278970168e-001
    2.4179658102660553e-002 -2.2331755946402171e-001
    2.0070377385064889e-001 -5.6347851313883555e-002
    1.0464144701077878e-001 -5.7014503144004719e-002
    2.0232929388294602e-001 -5.4271567525864685e-002
    1.2004924068608697e-002 -1.5295385841559892e+000
    1.2354613232416885e-002 -1.4715123161436645e+000
    1.3587223929274923e-002 -9.2090382097068935e-001
    1.3750856168660558e-002 -9.1279335088159830e-001
    1.3267091053965450e-002 -9.3607779855649864e-001
    1.3814471564099600e-002 -9.1345178122571224e-001
    1.1835486715610275e-002 -9.2101832065565437e-001
    1.2423919147225067e-002 -8.5609999379514790e-001
    1.3984413246911421e-002 -5.4783072163210500e-001
    4.2041780527654872e-002 -2.0198034133801671e-001
    3.0446005645106210e-002 -2.2729582120823316e-001
    2.4169087662704994e-002 -2.2475234566440805e-001
    1.4968070726331734e-001 -5.6856030044230212e-002
    1.1059541172153431e-001 -5.6666987815265212e-002
    3.4191949072634403e-001 -5.2118253311121507e-002
    1.3843881160380839e-002 -1.8860690077088837e+000
    1.2933876558458660e-002 -1.4367321147136232e+000
    1.8426052211558349e-002 -6.1333748437725766e-001
    1.9297481870125047e-002 -6.1404976394683286e-001
    1.6720525404591773e-002 -6.5108721294379435e-001
    1.9660024364106667e-002 -7.0307032157347060e-001
    1.4115370240867845e-002 -8.0432330980245148e-001
    1.1171358520717031e-002 -9.2590318852968034e-001
    1.3287755738692298e-002 -6.0862018839248822e-001
    4.2974883064030210e-002 -1.9081351034397387e-001
    3.0158930454912383e-002 -2.2772545833869376e-001
    2.4088338554609897e-002 -2.2718826018855429e-001
    1.2166769160767535e-001 -5.7013534002758375e-002
    1.3017122980385404e-001 -5.5936391188093931e-002
    7.7942342008985366e-001 -5.0082291019429993e-002
    1.5030918725110483e-002 -2.2154425343125790e+000
    1.2923128858145944e-002 -1.5539486643951794e+000
    1.6347169307228172e-002 -5.4768671975263850e-001
    1.5118934201728782e-002 -5.2070318629214263e-001
    1.4221487090475082e-002 -5.8580755950887398e-001
    1.4913645500387759e-002 -6.0008833160039110e-001
    1.2693699274781456e-002 -7.8487831331865410e-001
    1.0742112454090985e-002 -1.0001149040665811e+000
    1.2481667700476104e-002 -6.3412639456873288e-001
    4.3701332874131561e-002 -1.9570141236442296e-001
    2.9925684686805672e-002 -2.2783889852855402e-001
    2.3826879821483148e-002 -2.2954055363302275e-001
    1.0840197109661283e-001 -5.7060206511223302e-002
    1.7175940385094740e-001 -5.4625185470330018e-002
    2.5071160058877404e+000 -4.2584976304642003e-002
    1.4643769480779775e-002 -2.1632992022069177e+000
    1.3636228015639863e-002 -1.8252269914881398e+000
    1.8298499276623064e-002 -9.3794211039544950e-001
    1.7577264037591647e-002 -8.7242855299335675e-001
    1.7003828500229263e-002 -9.2275949224163445e-001
    1.5953914324130070e-002 -9.0836317013763457e-001
    1.3744211660908048e-002 -1.0566296106480950e+000
    1.0693030437980242e-002 -1.0393998077942028e+000
    1.2837060378595990e-002 -6.4457134635273616e-001
    4.2824774757480720e-002 -2.1206244632269655e-001
    2.9885980522791098e-002 -2.2788579002261211e-001
    2.3446060960222198e-002 -2.3041873808961014e-001
    1.0954786681120623e-001 -5.6814330228111803e-002
    2.8228392860914231e-001 -5.2286879976023611e-002
    1.2717446532815217e+001 -2.9533982323787695e-002
    1.3107606594322255e-002 -1.5882214037406415e+000
    1.3341267086492341e-002 -1.6228323194272720e+000
    1.1859464228974522e-002 -9.5112041427693650e-001
    1.1230742090567290e-002 -9.8361695092679424e-001
    1.1264988201376083e-002 -1.0169290436380878e+000
    1.1332532017467910e-002 -9.9657270326958314e-001
    1.2277376377526688e-002 -1.0735034031427548e+000
    1.2339713107534829e-002 -9.0118263917363195e-001
    1.4575694725367083e-002 -5.6300307879374600e-001
    3.7564275821211711e-002 -2.1934008505809632e-001
    3.2077839058473195e-002 -2.2325597192303412e-001
    2.5609791702895401e-002 -2.2869667606436225e-001
    1.3349388474793064e-001 -5.5700400846019682e-002
    6.4560106726736466e-001 -4.9829065490191393e-002
    9.6068650225977628e+000 -2.4367186308942797e-002
    2.1430126198135280e-002 -6.3778475117199862e-001
    2.0062464256615058e-002 -6.6721208516526176e-001
    1.9015004599586507e-002 -5.2130564505030619e-001
    1.7985463908469022e-002 -5.6605372001079235e-001
    1.8274283390000645e-002 -5.6628899667568988e-001
    1.9086047333618062e-002 -5.3280206103545935e-001
    2.1766298286963758e-002 -5.5120570793658252e-001
    2.8805877757095203e-002 -4.8469814231682384e-001
    3.3624398064266335e-002 -3.0913297562860487e-001
    9.2105966628820729e-002 -1.5770376372337089e-001
    8.8972323802826353e-002 -1.4107183340180363e-001
    7.1772196663528229e-002 -1.3792333037957819e-001
    2.6216492772848016e-001 -4.4185578408584072e-002
    2.3363292838843397e+000 -3.9216794848145393e-002
    1.6881445694851436e+001 -1.6762045453557108e-002
    7.9806483951946811e-002 -6.9643975866227170e-002
    8.8650064558076322e-002 -7.9567837222491042e-002
    6.8862209562054702e-002 -7.7099633819911917e-002
    8.3796138291691982e-002 -6.0417937255653663e-002 1. 0. 1. 0. 1. 0.
    1. 0. 1. 0. 1. 0. 1. 0. 1. 0. 1. 0. 1. 0. 1. 0.
    8.1773602994515041e-002 -6.9593548680070588e-002
    8.5410495167833986e-002 -8.0005393409190426e-002
    6.7410411356036717e-002 -7.8491574866618091e-002
    8.4954093069786754e-002 -6.0138253419457381e-002 1. 0. 1. 0. 1. 0.
    1. 0. 1. 0. 1. 0. 1. 0. 1. 0. 1. 0. 1. 0. 1. 0.
    8.9639737540462977e-002 -7.2759864139056094e-002
    7.6142074760640416e-002 -8.5529453840719374e-002
    6.2665675091414616e-002 -8.3836347884211640e-002
    9.3417743828736424e-002 -6.1461413555082230e-002 1. 0. 1. 0. 1. 0.
    1. 0. 1. 0. 1. 0. 1. 0. 1. 0. 1. 0. 1. 0. 1. 0.</input_scale>
  <output_scale>
    5.2631578947368418e-001 4.9999999999999994e-001
    5.2631578947368418e-001 4.9999999999999994e-001
    5.2631578947368418e-001 4.9999999999999994e-001
    5.2631578947368418e-001 4.9999999999999994e-001
    5.2631578947368418e-001 4.9999999999999994e-001
    5.2631578947368418e-001 4.9999999999999994e-001
    5.2631578947368418e-001 4.9999999999999994e-001
    5.2631578947368418e-001 4.9999999999999994e-001
    5.2631578947368418e-001 4.9999999999999994e-001
    5.2631578947368418e-001 4.9999999999999994e-001
    5.2631578947368418e-001 4.9999999999999994e-001
    5.2631578947368418e-001 4.9999999999999994e-001
    5.2631578947368418e-001 4.9999999999999994e-001
    5.2631578947368418e-001 4.9999999999999994e-001
    5.2631578947368418e-001 4.9999999999999994e-001
    5.2631578947368418e-001 4.9999999999999994e-001
    5.2631578947368418e-001 4.9999999999999994e-001
    5.2631578947368418e-001 4.9999999999999994e-001
    5.2631578947368418e-001 4.9999999999999994e-001
    5.2631578947368418e-001 4.9999999999999994e-001
    5.2631578947368418e-001 4.9999999999999994e-001
    5.2631578947368418e-001 4.9999999999999994e-001
    5.2631578947368418e-001 4.9999999999999994e-001
    5.2631578947368418e-001 4.9999999999999994e-001
    5.2631578947368418e-001 4.9999999999999994e-001
    5.2631578947368418e-001 4.9999999999999994e-001
    5.2631578947368418e-001 4.9999999999999994e-001
    5.2631578947368418e-001 4.9999999999999994e-001</output_scale>
  <inv_output_scale>
    1.8999999999999999e+000 -9.4999999999999996e-001
    1.8999999999999999e+000 -9.4999999999999996e-001
    1.8999999999999999e+000 -9.4999999999999996e-001
    1.8999999999999999e+000 -9.4999999999999996e-001
    1.8999999999999999e+000 -9.4999999999999996e-001
    1.8999999999999999e+000 -9.4999999999999996e-001
    1.8999999999999999e+000 -9.4999999999999996e-001
    1.8999999999999999e+000 -9.4999999999999996e-001
    1.8999999999999999e+000 -9.4999999999999996e-001
    1.8999999999999999e+000 -9.4999999999999996e-001
    1.8999999999999999e+000 -9.4999999999999996e-001
    1.8999999999999999e+000 -9.4999999999999996e-001
    1.8999999999999999e+000 -9.4999999999999996e-001
    1.8999999999999999e+000 -9.4999999999999996e-001
    1.8999999999999999e+000 -9.4999999999999996e-001
    1.8999999999999999e+000 -9.4999999999999996e-001
    1.8999999999999999e+000 -9.4999999999999996e-001
    1.8999999999999999e+000 -9.4999999999999996e-001
    1.8999999999999999e+000 -9.4999999999999996e-001
    1.8999999999999999e+000 -9.4999999999999996e-001
    1.8999999999999999e+000 -9.4999999999999996e-001
    1.8999999999999999e+000 -9.4999999999999996e-001
    1.8999999999999999e+000 -9.4999999999999996e-001
    1.8999999999999999e+000 -9.4999999999999996e-001
    1.8999999999999999e+000 -9.4999999999999996e-001
    1.8999999999999999e+000 -9.4999999999999996e-001
    1.8999999999999999e+000 -9.4999999999999996e-001
    1.8999999999999999e+000 -9.4999999999999996e-001</inv_output_scale>
  <weights>
    <_>
      2.9483910643412523e+000 1.6101825806447764e-001
      3.3078986304199587e-001 7.2234983530849006e-002
      -8.6078542796723223e-001 4.7302847517186997e-002
      5.3372242766657096e-001 7.0648044207794281e-001
      2.9206730934346747e-001 2.8036164668581237e-001
      4.7448705256850932e-001 1.8236710526737792e+000
      9.9240863182178396e-003 1.7686981169106150e-001
      4.1367661774367681e-001 1.0951425521593410e+000
      3.4431136101841925e-001 3.1605165989290912e-001
      -3.0214185390986875e-001 1.1869467627824534e-002
      5.5313057940846855e-001 2.5026809317320636e-001
      3.0714137885186232e-001 -1.2794835301896604e-001
      1.3672865100571729e-001 -6.2178628907476170e-002
      1.3353563216397357e-001 1.4345109759008703e-001
      1.6470448580383192e-002 2.7986576601461327e-001
      3.8239457298224283e-001 -1.0332955112318337e-001
      1.7821048769222017e-001 4.9561249919253930e-001
      1.3706947846913330e-002 -2.3981301497865878e-001
      1.6307527380425096e-001 9.5683971399022871e-001
      1.1352503735132589e+000 -1.2531352753514696e-001
      -2.1964136480934043e-001 -4.7865762303906961e-001
      1.2950661515474000e+000 -2.8227558842157557e-001
      6.9224277834247630e-002 -1.2107505613673873e-001
      -2.1152642071361333e-001 -1.8453952174984345e-001
      1.8035781882009710e-001 8.7352376543085020e-001
      -1.6145624466180988e-001 -7.1688501183595913e-003
      2.9514203653648502e-001 -1.6975020181747392e-002
      3.7367384467414655e-001 -1.0228852378992546e-001
      1.5286498343755620e-001 7.7425374632946142e-001
      1.9525696038007070e-001 5.0122216843613709e-001
      4.1924410805275661e-002 -1.1109615436291123e-001
      2.5592198126794724e-001 -6.0086889639728858e-001
      -2.7591471113644855e-001 3.0951839405599951e-001
      -4.6328113714969102e-002 -9.2266032191579680e-002
      5.7138707604452454e-001 -2.9406973485437249e-001
      1.5308298309701071e-001 2.2690794727149780e-001
      2.5384944435339063e-001 1.2470741526756683e-001
      2.7495269207602414e-002 -2.4918644769201159e-001
      1.4751539955376137e-002 -3.3275743769133580e-002
      3.1911385290724903e-001 2.8234575653838379e-001
      3.4848781815556612e-001 -4.3790619963359029e-001
      -8.1343175500679418e-002 2.3618511413836880e-002
      -1.0854693584657640e-002 -4.3331164489828738e-001
      -8.9976369283816474e-003 1.7008701088415848e-001
      6.6328381037330172e-002 -6.1128775396692248e-001
      1.3982803497329871e-001 4.2457572118109160e-001
      -2.0627621747866248e-001 -3.8605229893684634e-001
      4.6100356036144857e-001 -1.0421569478114256e+000
      2.2231452302294927e-001 -1.8172903580992322e-001
      2.4408871804828469e-001 4.3902689715218723e-001
      -3.8712498587055311e-001 -4.2412412690855916e-001
      6.4920515078060060e-003 -7.3860425353668296e-002
      -3.6582062938676763e-001 -6.1175045410159890e-001
      -9.1098242384878944e-002 -8.4758886601451644e-002
      7.8575245462710053e-002 -6.8587392472285375e-002
      3.1854372208644233e-001 -1.9444487606903552e-001
      1.7626658778785639e-001 -3.9400087067767764e-001
      2.3624952435500657e-001 6.9544787662810637e-001
      1.6646983145261282e-001 -1.5043213287623966e-001
      8.9891084136685992e-002 4.1233816024815996e-002
      2.6715714098507948e-001 9.4865887698700135e-002
      -2.7615472662450913e-001 -3.3911093222370342e-001
      3.0037336610368598e-001 2.0777645599491718e-002
      3.3877281004147171e+000 -4.8350239504233983e-001
      2.2804818923137726e-001 -1.1498191559400041e-001
      1.0843012097578565e-001 -6.1991812345379438e-001
      -1.7460094049668792e-001 6.8427378140558978e-002
      -7.9988310381142930e-002 -2.0074968598209997e-001
      3.9352499099763832e-001 -1.1386510788826096e+000
      2.4256333742708480e-001 -5.2287121277282501e-002
      3.9443701213213195e-001 3.1615561208666176e-001
      -5.3633277674209034e-001 -4.2378489563173555e-001
      1.5262174385921179e-001 4.8655857650119816e-002
      -3.8479948659046220e-001 -5.7275559920026953e-001
      -1.4707344592745500e-001 2.2057117751001371e-001
      -1.1170311802866585e-001 -1.4418284156210526e-001
      1.5020390027536884e-001 -3.3201546997478121e-001
      4.1556794176928580e-001 -4.6352314353832724e-001
      -8.5483064180585905e-002 6.2725083637068124e-001
      2.6058724827017898e-001 3.9632039447117511e-002
      5.0708154078774148e-001 9.0743109114415479e-002
      3.6552813644264326e-001 -2.4478627121904487e-001
      -3.4327910162689645e-001 -1.7156062471505137e-002
      7.7743922739217908e-001 1.7836564801149385e-001
      7.4758390121160776e+000 -2.1959074992180042e-001
      5.0394489238330453e-001 -4.6057757800291532e-002
      -1.9753265029357781e-001 -6.7050152166637755e-001
      -4.7454137088917642e-001 -4.1932710475074386e-001
      3.7547080107567554e-001 -1.1890940539336760e-001
      2.1020285420400878e-001 -5.6194437849389389e-001
      1.2468187087443387e-001 1.4105305281947311e-001
      1.5661097902259324e-001 3.7519994835145797e-003
      -9.2643224913996083e-002 -4.1236933439340284e-001
      3.2955761178796067e-001 -2.7651007929893273e-001
      -4.8558370251008670e-001 -1.6529240083646216e-001
      -2.4258577620088206e-001 2.5491436883751473e-001
      -1.2153473214391081e-001 -4.0811646607702590e-001
      6.1381442980374945e-001 -4.0195912859262067e-001
      2.2089962758203169e-001 -6.0539219609628725e-001
      -6.0934489263226177e-001 4.1109690854251929e-001
      8.8391777270972277e-002 4.4071248534220492e-001
      1.0994862091629792e-001 1.3614607941208040e-001
      -3.0904458496737358e-001 -2.4808986404518882e-001
      -5.8277293458221302e-001 -1.5244526395618418e-001
      3.5293913167843921e-001 2.7043842243732163e-001
      5.7383245189966150e+000 -2.0028393818998821e-001
      5.9694666910669769e-001 1.3251048685567529e-001
      -3.2271734925760315e-001 -5.9221823177112953e-001
      1.7518697547775942e-002 -2.0842726982370463e-001
      -2.5279921266594178e-002 -3.6507899543369016e-001
      4.4243311403888241e-001 -7.2524431775311016e-001
      -1.7747332898555745e-001 -5.4586861217422034e-001
      -1.0620420845005378e-001 -1.3374925405939687e-002
      -1.7853590969445590e-001 -4.3819165513629971e-001
      1.7009101068473895e-001 -4.5717116241337347e-001
      -1.5143425798697369e-001 1.3125343151907237e-001
      -2.8861831362888707e-001 -1.0244912572334740e-001
      -9.4743363412646192e-002 -2.8639602689040239e-001
      8.7820860773352627e-001 -5.3847316741469342e-001
      1.2080393462033613e-001 -6.8001395522379815e-001
      -4.2399700467554841e-001 5.3364740791059329e-001
      1.8484600795758269e-001 3.1863393090328757e-001
      3.7794800233587382e-002 -5.5620265116850608e-002
      -8.0648364885022050e-001 -1.9053509490853313e-002
      -7.3856829496452092e-001 -2.6956449118081954e-001
      1.0609226070419760e-001 6.4478358739032415e-001
      5.1475516300747612e+000 -3.6592913699095353e-001
      9.6662994064618257e-002 -7.9929510767608652e-002
      1.9849908014061904e-001 -2.1394601060670615e-001
      -4.6611930371117716e-002 2.0426802977813296e-001
      -2.2952800661550640e-001 -5.2138791460786860e-001
      7.0137494167904924e-001 -9.1169911440527995e-001
      1.3085962338272772e-001 -5.6476876095854318e-003
      2.7889268251834163e-002 1.1200295668210349e-001
      1.8283005874463115e-001 4.0729442474752763e-002
      4.5839897809890527e-002 -2.8376002844773640e-001
      -3.0998542890319881e-002 9.6232309133260460e-002
      -1.9790897827486362e-001 4.2559953433537323e-001
      -3.3698482779326883e-002 -3.2657853331750525e-001
      7.7816868243923765e-001 -3.9573029572085489e-001
      -1.3980679409286963e-002 -4.3678747641393550e-001
      4.8519891917772701e-001 2.5448758583012232e-001
      -2.8554214230832242e-001 -8.6590929707467262e-002
      7.9775213879805115e-002 -2.5216148932108398e-002
      -8.8036962542186170e-001 1.0750364495374365e-001
      -2.3925773197868608e-001 -2.7906928148167287e-001
      3.0990376494044697e-001 1.5979063294011409e-001
      3.4069250310154491e+000 -9.4194543959768146e-002
      -1.7285799144754888e-001 2.0364176678839160e-002
      -4.9240567111087506e-002 1.0756913149220444e+000
      7.0615415207368427e-003 2.5182686947456306e-001
      -2.3163753213637717e-002 -3.5272315402206800e-001
      4.0790618054283784e-001 -2.8133666489297920e-001
      -4.8372992880898313e-001 -1.5263766151313626e-001
      8.6576934182441521e-003 -5.0481576314667109e-001
      -1.8608944388083516e-002 -5.8916298599179052e-002
      -5.5384771697829527e-001 2.4603772142453983e-001
      6.8448111264777378e-001 -3.8252546818773037e-001
      -1.5541788852346219e-001 -6.3835636623079478e-002
      -7.2750504234586968e-002 5.3897508725557275e-001
      7.0673137889329010e-002 4.4205630473398005e-001
      -1.0394347355863286e-001 1.7241647669182078e-001
      6.6719387798312615e-002 3.5581235524657973e-001
      2.3037322370302099e-001 -1.3598081456081579e-001
      1.8317820986222091e-001 -4.5754219773958812e-002
      7.4456044142421837e-002 -4.4441104379978091e-001
      4.0031692833698285e-002 3.8387725428495945e-001
      2.6483146514921785e-001 3.5204257863142002e-001
      2.9319900850846161e+000 6.3894996806733884e-002
      2.2481016604852760e-001 -1.3035166447608645e-001
      1.7615035809500021e-001 -4.8948558871445835e-002
      4.0496225565806698e-001 -4.1805539352984855e-001
      -1.3219445519245310e-001 2.6498593794540110e-001
      -2.0166854117758485e-002 -2.9470855207281869e-002
      -7.0008015649018462e-001 4.2788434753038888e-002
      -3.6250581940332677e-001 -5.2210583552244494e-001
      3.8888546427318782e-001 1.2995552334652546e-001
      1.8633774500733258e-001 3.7617306113530889e-002
      -2.9545800960310949e-002 -3.6773257155678946e-001
      1.3227674087251906e-001 1.0894638919024457e-002
      -4.5101249299298360e-002 1.2480393419592963e-001
      1.7861949827316906e-001 8.4413699280127125e-002
      1.7719510674404851e-001 -2.0123751382001070e-001
      -2.8818302253343211e-002 2.9927768515748621e-002
      -6.2493144582233963e-002 -1.2199184356340426e-002
      -2.1224349780800236e-001 -9.6775825237325700e-003
      4.7445450153841268e-001 -2.7021412602073658e-001
      -1.4741738018149445e-001 4.2421708650082081e-002
      -1.3705159525480554e-001 -3.0870414338327773e-001
      -4.0568553980585165e+000 1.0716288057650407e-001
      -8.0263632146042416e-002 2.1077942617096915e-001
      -7.4483018778675233e-002 1.7982343078380292e-001
      2.1713998640710716e-001 9.0308331735921843e-002
      2.1912936022410820e-001 2.1244682443151605e-001
      -2.3016165457148449e-001 1.8507950096309012e-001
      3.1556433965155989e-001 3.5953589944112603e-003
      1.6306323533675679e-001 -1.8587745771182726e-001
      7.4273734071042014e-002 -1.2121849197080586e-001
      -8.5106794989582402e-002 -3.9097816125755705e-002
      6.3191887113385650e-002 1.5402976812993294e-001
      3.9354896252030613e-001 -1.8268392170763502e-002
      4.5093429563785792e-001 -3.0623321203293499e-002
      -2.4205146552118395e-001 -2.9822804825174004e-001
      -3.7773168442829602e-001 -6.6446244644736363e-002
      1.7786986205174746e-001 -4.8213162533837417e-001
      -3.8021372974926260e-001 -1.3347642386464970e-001
      -4.5353234574176038e-001 -2.0712677078055333e-001
      1.5848261820907213e-002 2.2609360167212497e-001
      -2.2642000704309603e-002 -4.4875136462753484e-002
      -5.4437461807444987e-001 -1.6814628306306051e-001
      -2.1825150930765553e+000 2.5515544251436112e-001
      -1.6362251180187790e-002 2.3499753215841501e-001
      2.8668677358550734e-002 1.4663181090199542e-001
      1.6051842256244508e-001 -5.1186104616264515e-002
      4.0333472636096368e-001 2.5926788014772340e-001
      -2.4353520447015251e-001 1.5140003247211545e-001
      4.5333940392580020e-002 -8.6566240413018622e-002
      1.2062065550180869e-001 -6.7807437360493397e-002
      5.3339784925502183e-002 1.7530622469294620e-002
      -4.6582821230944524e-002 -1.8321310356839299e-001
      2.6341614464374850e-002 1.2037481137839590e-001
      4.2488501610702301e-001 -7.2460486344673877e-002
      5.6209428269202133e-001 -1.7942051937642759e-002
      -1.8225971304826166e-001 1.3205602908060143e-001
      -5.4461603257183921e-001 -1.8957897140958543e-001
      6.5752111424369680e-002 -4.3984017313131751e-001
      -3.2418727722696938e-001 -7.5429859023950677e-002
      -3.7165281647800874e-001 -1.8624180936989534e-001
      -2.5724183144746657e-002 2.6433564561324857e-001
      1.3148984948465009e-001 2.2827303540532040e-001
      -4.7648155107760654e-001 -9.8706693429411810e-002
      -2.2003645403697103e+000 2.5817859664739223e-001
      -9.3544885862357798e-003 2.5712597431387868e-001
      9.7435232148625595e-002 1.5978984662826631e-001
      1.6350733301668721e-001 -7.5776741877878181e-002
      3.9467471556784139e-001 2.4630465524823619e-001
      -2.3825978111178425e-001 1.5398302923152207e-001
      8.7032246746724551e-002 -2.4634475429201923e-002
      1.1487762038476101e-001 -9.8526984132709911e-002
      6.0934954772668172e-002 1.2683744185332174e-001
      -9.0619326681780243e-002 -1.7001827430602037e-001
      1.1026278070187771e-002 1.2053544263744130e-001
      4.0725910283422023e-001 -7.1408394959315072e-002
      5.4012576875084217e-001 6.0965358817645235e-003
      -1.7667101951507802e-001 1.0450441341689501e-001
      -5.2504357155201253e-001 -2.4426373145588082e-001
      6.8654115290516141e-002 -4.4598229640047271e-001
      -3.3379412502000266e-001 -4.2860026878757111e-002
      -3.7336671759443479e-001 -1.9634169989686717e-001
      -1.8075838705802420e-002 2.5895949675956509e-001
      1.4016953479666305e-001 2.2477875288680010e-001
      -4.7002469588932810e-001 -1.0782171261019657e-001
      -1.1657187917868006e+001 -1.3566734575224882e-002
      1.5916033059136313e-002 -8.7967511316174099e-003
      8.5646531635297105e-002 -7.2166473804647052e-002
      5.1952787775747496e-003 -7.6652916182419470e-002
      2.2112262856509374e-002 1.4678269449965084e-001
      -2.0962530282464367e-001 9.4698267326759164e-002
      -6.8758278154156832e-002 -5.3488294782464904e-003
      7.3111855438636728e-002 -9.4978802240136453e-002
      8.8625554780597138e-002 -3.8312917968958596e-002
      -2.5470438750494685e-002 6.3865521076594503e-002
      -8.0683067937901323e-002 6.1025113374165184e-002
      1.8933683039355176e-001 9.2898165150231467e-003
      6.8856104096108081e-002 3.0793809370230321e-003
      -1.1439575649314412e-001 -7.0614088896972738e-002
      -1.7964444517907374e-001 -4.8429781439592889e-001
      -3.0796216300957150e-003 1.2488565082371512e-002
      -6.7270613765164133e-002 5.6524953531740647e-002
      -1.5506490004755374e-001 -2.8441185917968327e-002
      7.8647781523596139e-003 4.4445278111272184e-002
      -5.3625056017395489e-003 2.1923350212207142e-002
      -1.4381042408022679e-001 3.9876932854024008e-002
      -1.3936507246967743e+001 -1.2642917005229582e-002
      -5.6371527546821051e-002 3.2345565365742068e-002
      1.5528990108309546e-001 -2.1488212020293762e-001
      1.2136113584566481e-001 -1.8017474448294563e-001
      3.7253179651640808e-002 7.3514709397877098e-001
      -1.1282179822983234e+000 4.3363757147396614e-001
      -5.2866706667078167e-001 2.4865649686167976e-001
      3.8451201904491522e-001 -5.9123059792341492e-001
      5.1307192884072428e-001 1.4948354659574262e-001
      -4.9418369746874295e-002 1.8501498766633126e-001
      -4.8614812506921085e-001 3.4244738139697101e-001
      8.1144214003802162e-001 -5.8957625218113749e-002
      7.2155576826851656e-002 -8.2960727008132784e-002
      -1.9915337954218040e-002 -5.1688340907033481e-001
      -6.8674236288325063e-001 -2.5786190912281087e-001
      8.1461722160654490e-002 -8.1037491733719644e-002
      -1.9058962472204444e-001 1.5051971997817473e-001
      -6.3478741534141225e-001 -1.6481569172378763e-001
      1.0128466932669783e-001 7.9144872170875999e-002
      3.9809384913239772e-002 1.7369874025703921e-001
      -5.3114548324073163e-001 1.2693652753913548e-001
      -1.3827972477012382e+001 -1.7548453538787472e-002
      -5.7744556618860361e-002 3.0141085946009706e-002
      1.6735841935569995e-001 -2.1235427471405244e-001
      1.1613983608711004e-001 -1.8896798799030118e-001
      4.4031848558520256e-002 7.2258775096481265e-001
      -1.1134460839704408e+000 4.2924575232441398e-001
      -5.4036553761904882e-001 2.3911025211857503e-001
      3.7000491008004238e-001 -5.9738976587330739e-001
      5.0759024759462668e-001 1.5631775134036113e-001
      -3.4875920397218624e-002 2.0107174483155077e-001
      -4.8798154606476413e-001 3.4650970164507650e-001
      8.0051534655977119e-001 -5.1104757830166284e-002
      7.9740234903583521e-002 -8.3548897365768995e-002
      -2.1956277598293081e-002 -5.0247266462496243e-001
      -6.8681864729976194e-001 -1.2572302160487836e-001
      7.9809871550991437e-002 -8.2328006115868962e-002
      -1.9936759557613612e-001 1.5838095366656474e-001
      -6.3781954759884973e-001 -1.6278304481381373e-001
      9.3062284045641652e-002 8.7406293384246103e-002
      3.0193831726036378e-002 1.7279008649406202e-001
      -5.1981266335386000e-001 1.3880014857591916e-001
      1.8583517245603081e+000 -9.4472635654271914e-002
      -2.3314652053249996e-001 5.4871230053614675e-002
      -3.4961250282094591e-001 -2.8633681600164196e-001
      -1.4085287398426177e-001 4.1366936016945316e-001
      2.3641054705880568e-001 -1.8167790659961366e-001
      2.0797767329716826e-001 1.2650957472794162e+000
      -1.9215057465371838e-001 2.3294345004741993e-001
      3.4939960824029453e-001 3.4957179126995430e-001
      5.7978478619066520e-002 7.5272481069282249e-002
      -9.8364843701000082e-001 3.8733699730066642e-002
      -1.3256671348264806e-001 -3.5879180687049456e-001
      -7.2629226635271937e-002 -1.7597650222540528e-001
      2.5575113214541888e-002 3.2217444564656572e-001
      5.9470070330722313e-001 4.4205019017751507e-001
      5.0020622542568671e-001 1.9910695935112227e-001
      1.0617566895770034e+000 -2.2373442785780459e-001
      1.1272442257494263e-001 2.7050340986658883e-001
      -1.0063506517803709e-001 -1.8045552297133133e-001
      5.6412626469420447e-002 3.2100392414311346e-001
      7.5964246662404511e-001 3.7289833382031297e-002
      6.8942931437306190e-002 -3.7416175378758998e-001
      -9.4520528781983082e-001 -2.7399681794569969e-001
      -3.3864977465790264e-001 2.4354862687956563e-001
      3.6455217993237127e-001 -6.1957807874731063e-001
      -7.7921795232390190e-001 3.1978373826432771e-001
      -1.8167053995341403e-001 -4.6053552634644890e-001
      -7.9506326951688994e-002 -9.1124722586656581e-001
      -3.3755212389953870e-001 -1.9598044656286576e-002
      1.2424979669227383e-001 -5.1721977541407915e-001
      -7.0568334244799380e-001 2.7142545593848255e-001
      5.2279910509008043e-001 -2.1500622607320777e-001
      -5.1738461247581757e-001 -8.2480991862233810e-001
      -1.7499323306000533e-001 4.4434518307739301e-001
      -6.7209186619811498e-002 3.0881107240256439e-001
      3.0980710541419781e-001 -3.4252411731623755e-001
      7.9445008101369363e-001 -2.7942449595372387e-001
      -1.0426953468738319e-001 1.0327525174688494e-001
      -1.8367301917474316e-001 -2.1669156971959941e-001
      8.2058595359313605e-002 -4.8214326088780519e-002
      1.0904937960693555e-001 2.0255692479255072e-001
      -1.2076876695963218e-001 -5.3248309976762054e-001
      -3.2328783079629125e-001 -8.6278210746992448e-002
      -3.9363830801943087e+000 -4.0489502532792265e-001
      -4.0954966953770017e-001 3.5097886531545875e-003
      1.3560603308628932e-002 -7.8577721228038477e-001
      4.5705767868067987e-001 5.2018217560434021e-001
      -2.5077881496616861e-001 -3.9053526456427801e-001
      2.4409720849069802e-001 -1.0394807951661553e+000
      2.1630122235948357e-001 -4.8546759397341449e-001
      6.7326623567922045e-002 4.6037092885850600e-001
      -5.4116358085149607e-001 -4.7531171403479849e-001
      2.1743582820413573e-001 -8.9603474850929912e-002
      -5.9303414382945241e-001 -5.4302897373515502e-001
      -7.5766945190797186e-002 1.2951511164017809e-001
      1.6695762541707587e-001 -3.6893309364628085e-001
      -3.2083579806546712e-002 -4.8007173072518539e-001
      -1.0826066812462901e-001 -3.1987858688037618e-001
      7.5522204337092125e-001 5.9865543850783487e-001
      -5.5359119100278228e-002 -3.0231749529542357e-001
      2.1711807973238448e-001 1.3746516838960074e-001
      1.4251667278260943e-001 1.6624300817818904e-001
      -3.9308994668750277e-002 -3.7228417695811877e-001
      2.8071349465172446e-001 -2.3653824313481761e-001
      2.4978052820404612e-001 -2.6009587994142308e-001
      3.3512127572105427e-001 -3.4187784804401006e-001
      -3.6622425299410932e-001 -7.4869600288242633e-001
      3.9273392818459202e-001 4.3227429048722332e-001
      -3.0408050033384537e-002 -5.2942430434598016e-002
      4.1929760434450264e-001 -7.3484263200404321e-001
      5.2789855748326608e-001 -4.4793268194760222e-001
      5.9916980537343079e-001 6.9286730810928698e-001
      -5.0399023022051337e-001 -4.7392213961393181e-001
      -9.7654940166790466e-002 3.9558256901750288e-001
      -5.5438259515497823e-001 -5.7110527597356675e-001
      -1.0331726033395491e-001 3.5197575749536752e-001
      -1.0608138692303730e-001 -1.2894330330557488e-001
      2.2210679360815340e-002 -5.2578872794840703e-001
      4.1377562133222279e-001 -5.5260909273568262e-002
      6.9012874602034613e-001 1.9679615305505782e-001
      6.3662650416546929e-001 -2.2172116106414597e-001
      5.4926400967196065e-001 6.2285588481273489e-002
      4.9827802217919404e-001 -1.2741673387608096e-001
      6.4665879319543249e-002 3.0944437962681226e-001
      1.0186916283108225e+000 3.5621244255663609e-001
      4.6532395040819852e+000 2.2232431902234104e-002
      7.8610968082541877e-001 -2.3725352834198554e-001
      -5.4641392108532416e-001 -7.8528192183155610e-001
      -1.2096576284740457e-001 -5.7192072753484136e-001
      5.4164738264031376e-001 6.0222723365228853e-002
      2.1144148446054328e-001 -1.9152708458805009e-001
      4.2035875883209051e-001 -1.8265180905596864e-001
      3.3889473182397672e-001 2.7306104890092642e-001
      -8.3453712200621796e-002 -4.1635590552541707e-001
      -3.0526359645688020e-002 2.4021482954426411e-004
      -4.7429662308315701e-001 -5.6011702796554749e-002
      -1.4061252298921867e-001 4.4483995545265287e-001
      -2.0896683089155940e-001 -2.3402667144892378e-001
      5.8696116698183931e-001 -4.8074668673421633e-001
      2.6573895675760628e-001 -2.6402215900069148e-001
      -4.0331384500861189e-003 -3.7856014421604155e-002
      3.4972933579897364e-001 2.5693927644742759e-001
      2.3133350451692652e-001 1.6096743302612032e-001
      -2.0756368892367683e-001 -1.1962949821311077e-001
      -1.3135666386968281e-001 6.4951034332906138e-002
      4.4481658271462715e-001 3.1263309714583015e-001
      1.3744843250523526e+000 -1.1437711085032697e-001
      7.0360965405593567e-001 1.3500276995906077e-001
      -3.4368466495604078e-001 -2.7355759726374407e-001
      -2.0876376407637964e-001 -4.9985395632353918e-001
      1.1521495558151333e-001 -1.6638419794555662e-001
      5.1891451516089770e-001 -5.8287459355945725e-001
      3.9482761547727736e-002 -7.6118115783977380e-001
      -1.1065114357364728e-001 3.8491116494893170e-003
      -8.3531406871913183e-002 -1.3696624687155646e-002
      -7.3191916325661743e-002 -2.2175452446795235e-001
      -4.3625647859417672e-002 3.7724846454520911e-001
      -1.8744673226909150e-001 1.1155075289879002e-001
      -1.6564886031562073e-001 -6.1557271754496316e-002
      7.3944345992320071e-001 -2.5400371882889522e-001
      2.6983853646417189e-001 -2.3672828633117549e-001
      -4.2489313653688451e-002 4.8179268290984428e-001
      1.3390635105321239e-001 -1.1099951715570001e-001
      6.5764893266436197e-002 6.2394827336022946e-002
      -7.6593797081751447e-001 1.5716319179986532e-001
      -2.8036225854863067e-001 -2.6520894338137585e-001
      1.9497791146960089e-001 4.6276402696999075e-001
      8.8121875871498945e-001 -3.8107716177601375e-001
      -2.3730446937380498e-001 2.1344632907377137e-001
      2.6893057429842865e-001 -1.2865997911265840e-003
      -1.5845647375011246e-001 1.9884643852814107e-001
      -2.6399481163722721e-001 -3.1008612786863099e-001
      7.4784905376096356e-001 -5.2242016632183308e-001
      -1.6584163602354562e-001 4.7618266347143884e-001
      -1.3804033126541701e-001 1.1902534870012101e-001
      4.0993402026667174e-002 2.9843723793028737e-001
      -1.5143675864024331e-001 -5.5416035215825232e-001
      6.1400128739746651e-001 -4.0203470968350791e-001
      -1.3749529281405437e-001 9.7199448529972421e-002
      -6.1341722011545370e-002 -9.8168705403193168e-002
      7.2214735954203590e-001 4.3180114692872218e-001
      -5.1285139777020516e-001 -6.0079675206179128e-001
      1.2616141845150539e-001 7.0955461277110488e-001
      -9.9462807303654810e-002 1.1106883603646209e-001
      5.8071943498804887e-002 1.7489511148201778e-001
      -4.6413343414823377e-001 2.9100461784759468e-001
      -4.5716143892475541e-001 -1.0399235062823547e-001
      2.7800919500284527e-001 1.8419859459304824e-002
      1.9913158405984781e+000 -4.6793092772184974e-001
      -4.3718197816903802e-002 1.4780841199568701e-001
      -3.2248588916844886e-002 7.2354872662009828e-001
      9.8759626741910522e-002 3.6282167288406025e-001
      -2.4652694049605819e-002 -1.7228658848829870e-001
      5.9641523955671605e-001 -3.1585739943420593e-001
      -7.0788867748219753e-001 7.0519821536482619e-002
      2.2956321327951189e-002 -2.7512136376234514e-001
      -9.6773399835845236e-002 -3.0367446559045896e-001
      -6.9411843818249819e-001 5.0035939299361482e-002
      4.1670567774677791e-001 -3.8647094725927772e-001
      -2.5089931379175845e-001 -8.3427849005622251e-002
      -1.1437423025301095e-001 4.4747125469685045e-001
      2.8889098245499373e-001 3.9731080813018738e-001
      -3.7380485864408874e-001 -6.9435661550576733e-001
      -2.1733706782515255e-001 4.2410956755661766e-001
      4.6128246217879454e-001 3.7502749929408080e-001
      2.3614222276630095e-001 -1.1268286521979966e-001
      4.4815173260018326e-002 -4.6783208294367434e-001
      -7.9002996402589121e-001 2.5696352846868720e-001
      -1.7999001099472937e-002 4.2962182349978756e-001
      3.9251445268446605e-001 -6.7072173059118625e-002
      -5.4474803580113695e-002 -1.6304890495307950e-001
      -3.0904355802581124e-001 5.2711219679984600e-002
      2.0393591442660206e-001 -3.4559609634908345e-001
      -2.1239757919275506e-001 5.5794249052251721e-002
      2.2854773563010666e-001 -4.1981116738540769e-002
      -3.2601444756135661e-001 -1.9637601952348410e-001
      4.1489786630532592e-002 -3.1159253014037852e-001
      -6.7584801897530897e-002 -1.0460627730637118e-001
      -1.9978920855943225e-001 -3.0722905448107119e-002
      1.4845402553639342e-002 -1.3522137535962436e-001
      -3.9149617108923500e-002 1.6325439255191534e-001
      -1.5823529339537809e-001 7.2874596047370649e-002
      1.3622593856298221e-001 1.0036386814017931e-001
      2.4575355226897572e-001 -3.5699739538748720e-001
      2.2057411408019659e-001 -1.1439311149772932e-001
      2.6366841467766267e-001 1.7786315284191667e-001
      -4.0799265719289685e-002 -1.8921088800537270e-001
      2.4742419007207919e-001 -3.0924309530156974e-001
      -4.1821207671251853e-001 -2.3240730943149379e-001
      8.1475626107972415e-003 1.7450375358274758e-001
      -4.1807652266163293e+000 9.4965148377402150e-002
      -7.4260952669684424e-002 1.3947758309586419e-001
      -6.5528065174459069e-002 1.2029259264015085e-001
      1.3392771328263867e-001 4.5399281776431780e-002
      2.3815928731544433e-001 2.1723801956395999e-001
      -1.7802155192195046e-001 1.2557618650087488e-001
      1.0487859581192267e-001 -7.6119098158143481e-002
      1.4230347676093000e-001 -1.5871109632959515e-001
      9.2914530741324761e-002 -5.8246565881762552e-002
      -5.5884540150246742e-002 -1.0025121861587605e-001
      4.6353350464828177e-002 1.0436099918248551e-001
      3.8290242964327653e-001 -1.8126719126165099e-002
      4.2625968073192527e-001 2.0845096150726373e-002
      -2.1183198497663808e-001 -1.3527148155522878e-001
      -4.0948285960832298e-001 -6.0368268068978145e-002
      1.5413045972289138e-001 -4.1604815792963085e-001
      -4.1116160372409161e-001 -3.8933065866381324e-002
      -3.8381868256970841e-001 -1.9092887289170124e-001
      5.0894677569345667e-002 2.3388695214821562e-001
      2.3109940430994524e-002 1.2222721420934839e-001
      -5.4022442386247504e-001 -1.3274986875771544e-001
      -1.8734464181378228e+000 1.6974634465418489e-001
      -2.3855131072559918e-002 1.3728426499871832e-001
      -7.2957795627438399e-002 6.4113213532101032e-002
      1.2531619312049516e-001 -2.3136476592845848e-002
      3.4408230169839149e-001 2.3019261245803235e-001
      -2.0660607315866594e-001 1.2965592239696108e-001
      -4.4534295302398226e-002 -2.5065571253713997e-001
      1.2232496254109376e-001 -2.7320673021379003e-002
      5.9193044037580432e-002 -3.8501652045196462e-002
      -1.3823744564535891e-002 -1.1139420031365704e-001
      3.1541294377435893e-002 1.0507809711982857e-001
      3.9521122570037759e-001 -5.9633248631201993e-002
      5.4882829196027683e-001 7.6050868356035296e-003
      -1.0801505483257071e-001 1.6584630323386365e-001
      -5.5071352737284385e-001 -1.5413047862751941e-001
      4.9428880537863346e-002 -3.3035462033282453e-001
      -3.2934720263156375e-001 -5.8140104021765768e-002
      -3.6359368446013102e-001 -1.4993524558588048e-001
      5.8688426243171568e-002 2.5890359960717668e-001
      7.8790087436487091e-002 2.3824634461171329e-001
      -4.7539112274865825e-001 -4.6088328288185751e-002
      -1.9402340380935406e+000 2.0277535327554275e-001
      -1.3059861539577809e-002 1.6470983622907184e-001
      -2.6339590416954986e-003 9.1347487347970519e-002
      1.4217181640915250e-001 -5.4921120060403353e-002
      3.6137787872317589e-001 2.3563236937385384e-001
      -2.1910632433801516e-001 1.3283099709549234e-001
      8.9295799706865017e-003 -1.3012106620784972e-001
      1.1376830145868506e-001 -6.0945884253418153e-002
      6.1782112725678934e-002 5.7413249353139059e-002
      -7.3082660192013454e-002 -1.2509052007554572e-001
      8.9086467407798933e-003 1.1723300990598470e-001
      4.0257225421103277e-001 -5.9220688515274754e-002
      5.5392442847863888e-001 4.3596042016877855e-002
      -1.3131220118245310e-001 1.0586100439359207e-001
      -5.3514086292831986e-001 -2.2715364598860593e-001
      4.2658768744214266e-002 -3.6252308740047900e-001
      -3.2696240414120598e-001 -1.1909057889118370e-002
      -3.7017419386726569e-001 -1.6342686753497354e-001
      6.5048588728918763e-002 2.6054144578174665e-001
      8.8870092882117974e-002 2.3740244048303194e-001
      -4.8066787195775995e-001 -6.7784587293925877e-002
      -9.9289407903197517e+000 -2.3541334362218811e-002
      2.3085297786608755e-002 -2.9032038970367925e-003
      6.6529232788939949e-002 -4.8189444477532893e-002
      1.8108965585493610e-003 -4.2291144841316006e-002
      2.7304134671704540e-002 8.6124338608184470e-002
      -1.0767629267224862e-001 4.0811425552696540e-002
      -2.7150856976624782e-002 -2.0327267663095533e-002
      4.7802010675381867e-002 -3.3798357874442179e-002
      4.6253386500776879e-002 -3.2696749643286345e-002
      -2.9618323293044199e-002 4.6267607317899397e-002
      -3.5002359069791357e-002 3.8436701350764498e-002
      9.9938744876491639e-002 7.0045066789564299e-003
      5.6698441812339288e-002 2.6839452464876148e-002
      -3.5763134411597390e-002 -2.7914801593456370e-002
      -1.1756876601043420e-001 -7.1815086093154934e-001
      -3.3471541767253485e-003 -1.2610564817128812e-003
      -4.4286918988559278e-002 4.7923276479290781e-002
      -8.8498604010905493e-002 -8.8005424199210109e-003
      3.9502068455651955e-003 3.6418968404765509e-002
      -2.5882428870224318e-003 1.0385643666441638e-002
      -8.8118468933752497e-002 2.0299636349196858e-002
      -1.5857968454419069e+001 -1.7882380532414296e-002
      -4.6917430913695886e-002 3.0728536089771902e-002
      1.5472817581678130e-001 -1.9631749645140906e-001
      1.0476901489970783e-001 -1.7936929604393845e-001
      3.6141780980912308e-002 6.3366834177752818e-001
      -9.6709692308518935e-001 3.7363016471730559e-001
      -4.4996098091545977e-001 1.9345581976999804e-001
      3.3189007862419845e-001 -5.0430834050136564e-001
      4.2923872722560402e-001 1.2112173226864954e-001
      -5.0443988603534856e-002 1.7872859509217223e-001
      -4.2263997545735893e-001 3.0022760809651189e-001
      7.0618080964446805e-001 -4.0978183466993910e-002
      7.9089673663995524e-002 -6.1626237298502091e-002
      -4.4610886404074651e-002 -4.2521472091272022e-001
      -6.2351568061259710e-001 -3.3204820047480393e-001
      5.7237690768222001e-002 -6.3174921931658537e-002
      -1.8553738486100552e-001 1.4990234542678363e-001
      -5.6938053156883095e-001 -1.3861667298269523e-001
      8.3354495897213901e-002 8.6246118838875965e-002
      2.5594806730245372e-002 1.4102253154048397e-001
      -4.8162225086632526e-001 1.2677877742747834e-001
      -1.6060321125359177e+001 -2.2092537928573405e-002
      -3.7183495924147922e-002 1.7220101831545608e-002
      1.6714716280588554e-001 -1.9190105952407979e-001
      1.1634408556713161e-001 -1.6707218413466224e-001
      4.6835587078953154e-002 5.7716737235417803e-001
      -8.8564688768580491e-001 3.4836750569952846e-001
      -4.0650081702812030e-001 1.6214165127841770e-001
      3.0572231811318795e-001 -4.4693239182449601e-001
      4.0118497923305635e-001 1.1223774827183627e-001
      -4.9880582477410916e-002 1.6970264608283522e-001
      -3.7851186715610879e-001 2.7016412103091469e-001
      6.6043089287485435e-001 -2.3645369717103369e-002
      9.2583110013912034e-002 -3.7536255965673962e-002
      -3.8302957340837905e-002 -3.8662358324985308e-001
      -5.7158220381687064e-001 -1.5916903674538166e-001
      5.2830288172547465e-002 -6.9034180377134324e-002
      -1.6740445456943046e-001 1.4227436400518670e-001
      -5.2017088682779944e-001 -1.3070413102146936e-001
      6.6943144633314342e-002 7.1625259074231465e-002
      2.8234502364176416e-002 1.3198336966132937e-001
      -4.5155370449479659e-001 1.0696255161979674e-001
      4.1934585585300832e+000 -2.5067398521948690e-002
      -4.6222617218009637e-001 1.0513308056761765e-001
      4.3306493229929954e-001 -5.4870075388159711e-001
      -1.0126465000994844e-001 -7.4257783732870952e-001
      -5.5694696857072769e-002 -3.5627231901439835e-002
      -6.6035189832073030e-002 4.7170035156839860e-002
      1.7197399792853021e-001 -1.5775751230216672e-001
      -4.0782967257768660e-001 -1.9874057811438861e-001
      -5.7624171343117141e-002 -1.3388990790151309e-001
      -1.7576039629731671e-001 -4.3706701398675185e-001
      -8.9386458132716062e-002 -1.3434518824644401e-001
      1.7210539303761818e-001 2.4690970341238183e-001
      1.0265589292877478e-002 1.3285809406087333e-002
      -7.7891707299023699e-002 -1.8415205127422996e-001
      1.5023206813061740e-002 -2.1622692510505129e-001
      -6.8026838053723082e-001 -6.9744010597695125e-002
      -2.9478824503767259e-001 -4.8040915026199206e-002
      -1.5928337565800657e-001 1.2622897182528145e-001
      -1.5682672822000057e-001 -7.8235497029774903e-001
      -6.0676277805276235e-001 -2.2922204892021911e-001
      -7.1220429519456646e-002 -3.0205393791170498e-001
      -2.4976625770207619e+000 -4.8224815773309770e-001
      -1.2585787346298727e-001 1.4026057901081057e-001
      6.5616705155550326e-001 -2.6204655961867612e-001
      6.8101830438630009e-002 -4.7940911801800745e-001
      -1.2453805932265449e-001 -4.2777459209629420e-001
      1.0133142129017227e-001 -5.5670967508921787e-001
      -1.0226898332470689e-001 -3.1927730278595506e-001
      -2.8838659425677166e-001 7.9925123984024571e-002
      1.4943213032456978e-002 1.2504859416150907e-001
      2.8940996054444745e-001 -4.5280724640757064e-001
      -1.6666402237688238e-001 1.1999977690899338e-001
      4.8843569559398571e-003 1.2770514117229845e-001
      6.8326735839949748e-002 2.2374150654151317e-001
      -7.2508214696074783e-002 -5.5178152338483921e-001
      -2.2975660382986610e-001 -1.2633392292227102e-001
      -4.0831532924416485e-002 -1.5962560119047464e-001
      -4.2455112730425754e-001 1.7003175598448173e-001
      -7.1631764107464968e-002 8.0023151188185274e-002
      -3.6834687448791908e-001 -2.3269691096619902e-001
      -1.8397621676969084e-001 -2.7174616423758924e-001
      -1.5206025708240062e-001 -1.1128824242797231e-001
      -3.0002017278473780e+000 -2.0911073432095259e-001
      -5.1892566827892894e-001 4.0672646267773543e-001
      2.5980112488498817e-002 1.1740999789801895e-001
      2.3894747096778895e-002 2.6753844739238303e-001
      1.4482126818299243e-001 -1.9001992265302575e-001
      -1.0750160574978541e-001 -1.1152995495893571e-001
      1.6566392495465823e-001 -1.2109579684848382e-001
      -1.3715997885119705e-001 4.0067532929645489e-001
      3.8424241119541652e-001 -1.3125547568874477e-001
      1.4232898830868043e-001 -5.2506687737125322e-002
      -3.7229890857914288e-001 2.0888943812011115e-001
      6.3864913533948547e-002 -4.0903603838750829e-001
      1.6498492260491260e-001 -1.3222057188136047e-001
      -2.5549977236654103e-001 -4.7399456838414733e-001
      -6.5507080260993944e-001 -9.3696128227746603e-003
      4.3403036984410648e-001 1.7714067371389886e-001
      -4.9867181401206623e-001 2.0367427020043086e-001
      -7.0859542325477365e-002 4.6843482060257034e-002
      -1.1261823136676567e-001 1.0317072528376597e-001
      2.3055561902844003e-002 -3.6176505682888299e-001
      -1.8034960997359153e-001 -1.9854585160936541e-001
      1.6005596078182029e+000 4.0091733213241382e-001
      3.2528855096223158e-001 2.4935262595219485e-001
      -3.0150016829684817e-001 8.0273378193342876e-002
      3.2845530824860003e-001 4.0346217687271435e-001
      5.0372921247291946e-001 3.4046290523840911e-001
      -2.6046867455507428e-001 5.2752822633631302e-001
      -1.1957719697504732e-001 4.2723950916648279e-001
      3.5776620225732786e-001 -2.2856482667349581e-001
      4.5895756316929348e-001 -3.3563006196516554e-001
      1.2689986214397722e-002 5.7419554585478538e-001
      -7.3928567039910142e-001 -1.3538241329051981e-001
      3.4718386699757287e-001 -3.4805588389156045e-001
      -9.0713256987557209e-002 -2.7537481671844505e-001
      -1.1944019541322322e-001 -8.1202535036870610e-002
      3.0916315799949268e-001 3.1574194793654509e-001
      -1.3065242824854997e-001 -5.8355075470292106e-001
      3.2076476401408643e-001 3.6181525279255437e-002
      -2.5300380839558634e-001 -2.1400233376283109e-001
      3.6459839539784966e-001 -1.4150415560910512e-001
      -3.0980990774501619e-002 2.1077038466694911e-001
      1.1539148747414393e-001 1.6601064239407920e-001
      3.7487725995090719e+000 6.1804869863850542e-001
      6.2878829512769030e-001 1.0451279861085015e-001
      -9.9625204634446685e-002 -1.5276639596698985e-002
      2.2729189496907384e-001 -2.2899539473251868e-001
      4.3122530563264894e-001 2.6398892797033169e-001
      -8.9853595986557969e-002 4.1207445695521916e-001
      -8.3762276029688970e-002 4.4698168911732683e-001
      5.8685421064932086e-001 -3.7885048480956512e-001
      2.5690395650755316e-001 -1.5097474682681306e-001
      -1.8826146951233172e-001 4.5497400049792075e-001
      -1.7021785151520280e-001 -1.5102478156716950e-001
      6.5970419731929922e-002 -1.0636448999452718e-001
      -2.8973590954949374e-001 -2.1739510711462379e-002
      -1.6132649436484802e-004 -1.5795332778256160e-003
      4.6187897467511585e-001 3.5313605275200007e-002
      -2.9426149207721397e-001 -7.7208681944775504e-001
      3.8608676676390885e-001 6.7758758976141226e-002
      1.1187275127990660e-001 -2.3165551989062610e-001
      1.7073019490005237e-001 -2.1561763191090105e-001
      2.1828931871978569e-001 2.8152494841667547e-001
      1.7265114646990432e-001 1.4552194896811657e-001
      -5.0493144441171511e-001 2.1088923564088535e-001
      4.4418477928070110e-001 3.3115726621293640e-001
      4.0687859918866237e-001 5.9348527511294991e-001
      -2.6140716009683296e-001 -4.6198219009873104e-001
      1.2415779646925024e-001 1.3942691839696753e-001
      8.3040205326241373e-002 -8.9861404821448363e-003
      2.7945671757409335e-002 -1.8767652933814838e-001
      2.6897318957890878e-002 -3.8243722578347494e-001
      5.8299769454916620e-002 -5.5341167986778003e-002
      3.0361605305640194e-001 2.5994355142357756e-001
      7.8173205089475742e-002 6.8356466339147570e-001
      1.4350019060522701e-001 -4.1532235681404808e-002
      -9.4973296463282758e-002 2.2168641622448176e-001
      -2.4413237914386493e-001 2.2686708089475587e-002
      9.4335600895946489e-002 4.1629083770091357e-001
      -5.5763549730824935e-001 2.1855880439252418e-001
      6.2257480180002558e-002 -5.9495263969753742e-002
      1.8101324800043353e-001 -3.9399092932032931e-001
      -3.7166921988583840e-001 -1.4364938260125004e-001
      6.2317925937093732e-001 3.2114270593013938e-001
      3.4874200845315284e-001 1.5547206704512137e-001
      -8.3527956998120112e-001 -4.9199749938842796e-001
      -6.4153960473288663e-001 6.9911136404633689e-001
      4.5949176938311587e-001 7.2781936189258906e-002
      -1.9306615799512042e-001 -6.6162733947845076e-001
      1.6221799759666178e-001 -2.1624650308118298e-001
      5.8987884232216203e-001 2.4038883856773668e-001
      8.5751781925650611e-002 1.7502636852493403e-001
      -4.2665173965292874e-001 -1.3834542283185092e-001
      -6.3618602860967738e-002 4.8162639996385585e-002
      -2.4957716262143298e-001 -5.3842508142350731e-001
      8.3947336215980517e-001 -1.6170835581644116e-001
      -9.0767110083263908e-002 -2.6925625020823701e-001
      -1.5740646984633530e-001 7.8400684422377753e-001
      -1.7373755096622558e-002 3.2346894507329255e-001
      -7.2592031692684833e-001 -5.0491657378574828e-001
      -8.0253876739543317e-001 7.9206634774119444e-001
      2.6043164452632117e-001 3.1599802687661871e-001
      4.6767442039041280e-003 4.9713953981506903e-003
      -1.8513234118538311e-002 -2.4352079484250616e-001
      -1.9346912196669455e-001 2.4128000106533681e-001
      2.3003558513097433e-001 2.4801425859755123e-002
      7.1725542177144486e-001 -6.2467073967754327e-001
      -1.1246383810002260e-001 3.4619061540171292e-001
      1.1351676107905469e-001 2.8996757367841941e-001
      6.0352901661665292e-001 -4.1859075315560698e-002
      -1.5884325175984031e-002 -1.6952506070426290e-001
      8.1499211965860419e-001 -1.7963516960845849e-001
      -2.7578515252757918e-001 -4.4234753267868576e-002
      -1.9743940855118136e-001 -1.4835550459739663e-001
      -7.6240906279559734e-002 -8.2232144537185803e-002
      8.2094762473458968e-002 -1.3772033389786806e-001
      4.0818631108477127e-001 -4.7237741072466982e-001
      -2.7321139469211730e-001 -6.4762440315348085e-002
      -2.3393326837205003e-001 3.3114051592227683e-001
      2.3367126278269346e-001 3.0618394050305070e-001
      -3.8609979112332254e-001 -8.6783163884900472e-001
      -4.4970463801649369e-001 7.1506344841440617e-001
      8.8758940847445034e-001 1.6442637862603257e-001
      1.2467442222209007e-002 -2.2435921883349606e-002
      1.3589712484724828e-001 1.8643574647811345e-001
      -8.8608678404197383e-001 9.9045482412201027e-002
      -1.8814424254943315e-001 -1.2417135677447801e-001
      -1.3466877753218547e+000 -2.5573767430468630e-001
      -2.8274924258218140e-003 -4.2859925864649519e-002
      7.2311214157765757e-002 1.3533014062529616e-001
      1.8990916976095137e-001 -3.4529520068461433e-001
      -2.0429505193288966e-001 -1.2489379201029857e-001
      3.1887526939519406e-001 -7.6957669967138310e-003
      -2.8110749616227965e-001 -5.3413396475160924e-001
      -7.1096836255100035e-002 1.0533615356004623e-001
      -2.2277515697217901e-001 5.3940820054343301e-002
      3.6431833396561038e-002 -1.7452347150326644e-001
      -2.5842859982360047e-002 -1.1027892032002903e-001
      -2.8704147972754796e-002 4.6847687453773774e-002
      -1.1124018809894211e-001 -5.4581861260249664e-002
      1.0256877648077642e-001 5.1441159642780414e-003
      1.3343955882582098e-001 -3.8409733147189484e-001
      2.6912578400202108e-001 4.5384641505551299e-002
      3.2845431621942839e-001 -1.5509332779104265e-001
      -6.6289535788019743e-002 -8.4424815882015669e-002
      9.6997674075426601e-002 -2.3582587708599009e-001
      -4.1104753352914092e-001 -1.4738468735122592e-001
      -2.0467990849669404e-001 -7.8325122222599089e-002
      -4.4897590075969340e+000 7.0635545213623960e-002
      -7.1541111719022082e-002 1.0121808424242282e-001
      -2.3485792059340621e-002 1.0318700886207609e-001
      8.3879884177913061e-002 4.9869427309386725e-002
      2.2785880389546334e-001 2.1264655612226685e-001
      -2.1201666700851640e-001 1.3615876900166088e-001
      -2.6229382535013623e-002 -9.7184451075809850e-002
      8.3010583754946118e-002 -1.4343215040390034e-001
      9.0480299502923398e-002 -7.0497356284682774e-002
      -6.5976166656812968e-002 -1.1097877709445750e-001
      -2.9497003032426646e-002 1.1814115645425430e-001
      3.7987080400256296e-001 -1.7107889898795758e-002
      4.1643809766690687e-001 1.5941327072686976e-002
      -1.6367576872795592e-001 -5.4105752041823857e-002
      -4.1427064874028635e-001 -8.6305266931411037e-002
      1.2499679911080779e-001 -3.6958426268540628e-001
      -3.9678645547439678e-001 2.1158277529553238e-002
      -3.4066012531106499e-001 -1.9073154183375826e-001
      4.6168471784289421e-002 1.7661058942449748e-001
      5.8976999869997153e-002 2.1504703310602336e-001
      -4.9810330628227129e-001 -7.0023156267306860e-002
      -1.9445549416932819e+000 1.6162725805360106e-001
      -5.1201429609994679e-002 1.2276959205388252e-001
      -1.1485760714639755e-001 2.7263202675788748e-002
      1.2304929963159247e-001 -4.8443273127333694e-003
      3.3905468493725244e-001 2.5378276286066437e-001
      -2.1302524365231928e-001 1.2922623636005617e-001
      -7.1096135196272586e-002 -2.7125960389711856e-001
      1.2260035838872740e-001 -1.7991755996565096e-002
      6.5285248960347930e-002 9.1399563418120659e-004
      -2.4801689394750911e-002 -9.6416047063336979e-002
      1.8896805500243447e-002 1.0685496708286525e-001
      4.0388678461468425e-001 -6.5148518190728907e-002
      5.3174485226679180e-001 -1.9018587961143585e-002
      -1.1026880956080848e-001 9.8307334312021377e-002
      -5.4575253889305553e-001 -1.4327313636127034e-001
      5.2424916178758031e-002 -3.1203775098674585e-001
      -3.1538416330444774e-001 -7.7168348166955530e-002
      -3.7887363773826560e-001 -1.5460022339459387e-001
      4.6731716440313112e-002 2.5009935321166998e-001
      6.7808747796672147e-002 2.2643823430164539e-001
      -4.8701103173292998e-001 -2.9332726377781268e-002
      -1.9100394845479376e+000 2.0172513762423033e-001
      -9.5046903632242854e-003 1.8022697834120227e-001
      -8.5459519576185205e-003 1.0080131573207309e-001
      1.3249423620594297e-001 -5.8955321695957748e-002
      3.6320420155486538e-001 2.5127168802887084e-001
      -2.0201060795098236e-001 1.3419478307277255e-001
      1.0922594182475508e-002 -1.1956667743036813e-001
      1.2433772496699219e-001 -5.6050520881320065e-002
      6.2714819009365819e-002 3.1615934826551804e-002
      -6.8508561836400611e-002 -1.1866685975207678e-001
      -7.1042543013613156e-004 1.0753657378102510e-001
      3.9526693608759128e-001 -6.6990401962272336e-002
      5.4873342782636658e-001 3.9439163280507117e-002
      -1.3680614677404929e-001 1.0909176616164905e-001
      -5.3800197557078167e-001 -2.2254559989515629e-001
      4.6218741680097694e-002 -3.6594994116554852e-001
      -3.2968542829601877e-001 -5.6118419424045279e-003
      -3.7091860449658692e-001 -1.7169915091960006e-001
      5.6107364827092075e-002 2.5759412739111942e-001
      8.7087645553218171e-002 2.2749316699522273e-001
      -4.7828939301808054e-001 -6.8355926057767441e-002
      -1.1007359206140535e+001 -1.1262600308965838e-002
      -1.4385418937374519e-002 1.5364782300201489e-002
      1.1428216768075886e-001 -1.1782326014403496e-001
      6.0810327653388042e-002 -1.1379062983087967e-001
      3.2366534754205971e-002 4.0085206598069378e-001
      -6.1388438892621067e-001 2.3998469511687368e-001
      -2.8076439882273074e-001 1.0922128110022117e-001
      2.1100362029666647e-001 -3.2552213170171801e-001
      2.8310913029997609e-001 6.5954617408088639e-002
      -4.8276924945089283e-002 1.1309899037501069e-001
      -2.5801074795904561e-001 1.8789025783106439e-001
      4.5248246142244530e-001 -2.6679297406753705e-002
      5.9277244782294188e-002 -3.8306736332051838e-002
      3.2842522901715553e-003 -2.7249154695351319e-001
      -3.9629183456866884e-001 -6.7932774131462592e-001
      3.3421219859293923e-002 -3.6759590708524852e-002
      -1.1812846791716752e-001 1.0062633880486764e-001
      -3.6240189536049644e-001 -8.3694784643593340e-002
      5.2792688936899188e-002 6.1334079007171957e-002
      2.0498083205076532e-002 9.7200006270804495e-002
      -2.9890318599964727e-001 7.0177345799596821e-002
      -1.6399203660990800e+001 -3.3375078013800873e-002
      -4.1046925175370896e-002 2.1268597190225839e-002
      1.6711879273889749e-001 -1.8133158153366932e-001
      1.0497038500507003e-001 -1.6394130072495211e-001
      4.3860457343935157e-002 5.9031392246455039e-001
      -8.8713414578573724e-001 3.5511987702713016e-001
      -3.9989195085194262e-001 1.5703411440348783e-001
      3.0857810112692940e-001 -4.5846113476731443e-001
      3.9277173786993386e-001 1.0684396706635518e-001
      -5.0376684471484148e-002 1.6088306279634584e-001
      -3.6921692190610389e-001 2.7026304136513701e-001
      6.6210710468862244e-001 -2.4986177750176471e-002
      8.7212543503104548e-002 -5.1075348655040188e-002
      -5.1426472352649695e-002 -3.8512591852424227e-001
      -5.7618185737112981e-001 -2.8950237974620119e-001
      5.8881531275946156e-002 -7.4308730205401796e-002
      -1.7859010882163986e-001 1.4491120868960863e-001
      -5.3288431139458470e-001 -1.1952321618678791e-001
      7.0594167728949733e-002 8.2126282319503113e-002
      2.9667017034692902e-002 1.2614804086340148e-001
      -4.5000637360536261e-001 1.1724914996011911e-001
      -1.6537090463419563e+001 -3.4500558023362646e-002
      -3.3500614695202262e-002 1.6081179038437799e-002
      1.6372236464366616e-001 -1.7878161863076375e-001
      1.0751306918823110e-001 -1.6398419621620547e-001
      3.5423973018268336e-002 5.3427287156725589e-001
      -7.8547784566505729e-001 3.1102989443714146e-001
      -3.5834042604589617e-001 1.2480842095734362e-001
      2.7806038761655250e-001 -3.9774493089760599e-001
      3.4979377285146157e-001 8.4213963703447248e-002
      -4.0925981688497551e-002 1.5219525095856790e-001
      -3.4056461387239467e-001 2.3991836876512276e-001
      5.8927458361361162e-001 -2.1190341773424368e-002
      9.7005913872993052e-002 -4.3414271658916065e-002
      -5.9763497367634331e-002 -3.3029232990755064e-001
      -5.3526204971799174e-001 -1.0355958128941521e-001
      4.5232026087504609e-002 -5.1501228327585538e-002
      -1.5681761427143268e-001 1.3089417850862764e-001
      -4.7503316100698018e-001 -1.0785782900008076e-001
      6.1526364205357807e-002 7.8230767381017738e-002
      1.4994947667697890e-002 1.2289135710193996e-001
      -4.1349381774432187e-001 1.0036632980427634e-001
      3.0172513854123442e+000 8.3410539657766694e-002
      -4.9599152545923880e-001 4.4557625926575188e-002
      4.1109458948618660e-001 -5.5786996806535516e-001
      2.4278640572019650e-001 -9.7709969572968469e-001
      -1.9828869875487373e-001 -9.6387535141522346e-002
      -1.2399635921161817e-001 -3.2060627405896469e-001
      5.0314802922353319e-001 -1.6417228417251514e-001
      -5.1592201507899071e-001 -8.3755871893696529e-002
      -7.7948353790054228e-002 -1.6232926952375035e-001
      -3.1415782324092989e-001 -5.6136415103701109e-001
      1.8817846406626701e-001 -1.6891320908871056e-002
      2.1604327153507469e-001 2.1364489541014300e-001
      -1.8199502656546698e-002 1.4768115302228629e-002
      -3.8086586715173115e-001 -3.6321020982551944e-001
      -3.0959520233947690e-001 -4.5414530489306304e-001
      -1.0685987610547560e+000 1.3771550428681193e-002
      -3.1465149314296359e-001 -2.2119462123149949e-001
      5.3994214771718958e-002 2.0309651296207751e-001
      -1.6683028795015228e-001 -1.0320017883811905e+000
      -8.4500222526885727e-001 -2.4503257726437511e-001
      6.7422152088902482e-003 -1.3698604699553743e-001
      -4.7779821012432651e+000 -2.7360296751196145e-001
      9.1580454059604910e-002 -1.1280448551520295e-001
      3.1046353965239454e-001 -3.8259097262895031e-001
      7.1911943335123507e-001 -5.4628451923997434e-001
      -7.4383119691060040e-002 -2.6168689652484844e-001
      1.2818800433696623e-001 1.9351719153911612e-001
      3.2697805101521310e-001 -3.1922026044347951e-001
      -5.8476073415926222e-001 5.4330186038270545e-001
      1.2565067247842610e-001 -2.1424696059245812e-001
      -6.3923930520904881e-001 -4.2632209918986230e-001
      1.3587992619118361e-002 6.5413234727739533e-001
      2.2346048840933594e-001 -2.3265345550945440e-001
      1.9956628380034439e-001 3.9062896157309103e-002
      -4.1725791696631176e-001 -2.9135063063471595e-001
      -7.5445518091167674e-001 -9.9863883315135293e-002
      -1.4633664869720989e-001 -4.5344154922574625e-001
      -2.3287027889149314e-001 1.4804596542177237e-001
      -9.6411820917100211e-002 2.7403465882555579e-002
      -1.3007292601733705e-001 -4.7326970173828897e-001
      1.8664315626734002e-001 -5.7840388336327139e-002
      1.1405316670437056e-001 -3.3908359947353772e-001
      -8.3820570452751486e-001 -3.0219594630760732e-001
      -2.1739619996548806e-001 3.0092063030358163e-001
      2.2792314411362366e-001 3.6087764627538571e-001
      -2.8772678522766382e-001 -3.7712412819479479e-001
      2.0795236152975649e-001 -1.2759389807116772e-001
      -3.6493784501424903e-001 3.4211757874549403e-001
      7.6725863496621124e-002 5.8973312564103070e-002
      -3.1380352494375779e-001 -2.3751898551392172e-002
      6.8731682360507251e-001 -2.5621459700246457e-001
      -3.2505201383224686e-002 1.3434157735974955e-001
      -1.6272574796446176e-001 6.6065857156252883e-001
      4.9733219379432932e-002 -5.3620613597183542e-001
      1.0405602101980242e-001 1.7365480136949057e-001
      -4.5753239131076190e-001 -2.4263165653818152e-002
      -8.2340385202131217e-001 4.2375283877838238e-001
      -1.4010299830480641e-001 -3.4221334709596624e-002
      -3.5789409705683706e-001 5.7048137382459752e-001
      -8.9781196372394428e-002 -5.1461663663782020e-002
      2.4798589473058311e-001 -3.3516599976528255e-001
      2.6501520947296375e-001 -7.1224321279299965e-002
      6.7098662519974775e-002 -4.8003445968464398e-001
      6.7160316498863692e-001 4.4521311457353180e-001
      4.1274638847024828e-002 4.7621925929117653e-001
      8.8507388782467389e-002 4.5675144637781340e-001
      4.7584381833228184e-001 3.7593123510986366e-003
      4.3046332444158386e-001 3.0181191568369187e-001
      -5.1660182240337682e-001 5.2525843189250354e-001
      -6.5029106207474252e-001 4.7288453739210123e-001
      1.9479781103043914e-001 -7.0804729446112313e-001
      6.0985602721022525e-001 -2.7650416745596706e-001
      -6.7616440354485760e-002 5.9955240344349237e-001
      -3.2154567808592116e-001 2.6674038278164475e-001
      4.0440592465519382e-001 -6.4886030150354645e-001
      -8.8267882786506921e-002 -5.9545425430468694e-002
      -2.9820604395647327e-001 7.4582031900096324e-002
      -2.0053372935419703e-001 8.2099579535075440e-001
      -2.5024236949184425e-001 -4.9291283806893732e-001
      -1.6933557854138123e-001 -1.1208322358029122e-002
      -3.3293685752266555e-001 -2.8995246233164973e-001
      2.9289992369105172e-001 -2.3944156090229096e-001
      2.0496162663414082e-002 1.9236330679634364e-001
      -1.9094222569165100e-003 -2.2120042310519347e-001
      1.9187668488224450e+000 8.0117217742958446e-001
      -2.9132995503251852e-002 4.0313779392699978e-001
      2.6291718458527136e-001 5.0540155248802732e-001
      6.0208209486171294e-001 1.0112828134861000e-001
      8.1418539120150221e-002 1.4352481948849527e-001
      -2.9787636044344462e-001 2.6630904159982988e-001
      -6.6589631290895235e-001 9.5639090228401291e-001
      5.8322314801076935e-001 -8.6851073951212066e-001
      7.0420108334883136e-001 -6.5036221246833628e-002
      -3.2704743256072483e-001 6.9071492948576207e-001
      7.7429482612648051e-002 -2.3537966778312186e-001
      3.7588694778016007e-001 -5.8951357040103969e-001
      -2.1100231943027178e-001 2.6208836631480975e-001
      -2.0564825789802071e-001 3.5632988803245486e-001
      3.4881195496095807e-002 3.8156287709391645e-001
      -4.5996066052409595e-001 -5.8246297959442961e-001
      -1.5379402061316977e-001 -1.9595755465277670e-001
      -1.0115921220013523e-001 -4.5208514208901524e-001
      9.2614347583656373e-002 -2.3047185545495066e-001
      2.4042367915058277e-001 4.0026514019426734e-001
      1.0209815860637679e-001 -2.7378298414545033e-002
      -2.7238410959724202e-001 2.1723965718432228e-001
      3.5758109655613601e-001 2.3686881660688780e-001
      8.8958773775341471e-001 8.0445134227758364e-001
      -6.2668710582702380e-001 1.5668394377741343e-001
      2.1720093356121675e-001 2.0139168451144643e-001
      -4.0796984764408467e-001 -3.0165606316125936e-002
      -1.5886259689840421e-001 3.2365788055602479e-001
      -2.5912385756506322e-002 -5.4672889739089214e-001
      2.2840878183205549e-001 -2.8069217509883360e-001
      6.2965510689026150e-001 4.9139072649755111e-001
      -1.6893901333145386e-001 9.7446569724580323e-001
      1.9584126587214032e-001 -1.8902274164962346e-001
      5.4554587112654443e-002 2.5924297382800127e-001
      -2.4307692880194118e-001 3.2159703371764886e-001
      -2.7089809068009602e-001 6.9573668492793894e-001
      -2.9778774330626900e-001 2.5004920001182962e-001
      3.3204229091308365e-002 2.5803418631226382e-002
      2.7867140546848729e-001 -5.5931209517486769e-001
      -6.8112765088749902e-002 -2.3442400125217908e-001
      6.6037195645187607e-001 5.6761657940320831e-001
      4.4798782855041835e-001 -1.0916660745911399e-002
      -4.5280709226237986e-001 -2.5906114744240444e-001
      5.8657353292734069e-002 2.7703551873915339e-001
      7.4375562153493813e-001 5.6963706609861275e-001
      -6.5460256540821882e-001 4.8508995364402549e-002
      3.3684844422240573e-001 2.9199333151523923e-002
      -2.4206227553296644e-001 4.4698689222873983e-001
      -1.3761348812319776e-001 5.5266565653285948e-001
      -1.1516926999809116e-001 -3.3527100107817026e-001
      8.8367723747825352e-002 -3.1540323732449310e-001
      2.3467222949330377e-001 1.6044604689205305e-001
      4.1000710728671327e-002 5.8170688737642716e-002
      5.2138085309919785e-002 -4.9706618521662277e-001
      -1.5566404553236610e-001 3.5440710783010282e-001
      1.7755886260039457e-002 5.6077573101546496e-001
      -4.4765083098022607e-001 -1.7728282753574481e-001
      -3.7565055847500062e-001 4.3584050757560933e-001
      4.8412532041381540e-001 3.2042123634408531e-001
      2.1789052434821377e-001 -1.2284005449487621e-001
      8.7716083552869217e-001 -3.2969887689136862e-001
      -7.3231316383470885e-002 1.9747403725824902e-001
      -2.5000722017649624e-002 1.1829327600829401e-001
      2.8225681092270682e-001 -4.8180204547075800e-001
      2.9635979106096044e-001 1.0186610358947655e-001
      1.7080256909617178e-001 7.3550135556831309e-001
      2.0002709026397844e-001 5.8089770554939435e-001
      8.5927525119120204e-002 -9.2393477062269039e-002
      1.4703433555870682e-001 -1.2409409914965906e-001
      1.7667880083751064e-001 5.8598863944845547e-001
      8.8899134036708419e-002 -4.1723214904094108e-001
      4.3934332177878010e-002 -2.1936559350656473e-001
      5.1509087923487185e-001 3.4824729856867753e-001
      -2.3759296628975378e-002 -2.4980061975640436e-001
      -1.6214248204670911e-001 -7.4585381915615617e-002
      -1.8992153467291312e-001 -1.0125889629136678e-001
      8.0777910144327203e-001 6.7886036552812146e-001
      -2.0145766981602595e-001 -8.2654589379117660e-001
      -4.5375450573403225e-002 7.6940271067432575e-001
      7.8274758061473859e-001 3.8050596410992343e-002
      6.8759452643785038e-002 -6.2941263315298215e-002
      6.4323158839462780e-001 6.5567219059959203e-001
      -5.4017175995146671e-001 -1.5891974740279041e-001
      -2.8651464041455810e-001 -1.4494979966457738e-001
      -1.8165157853080363e+000 -1.9564549583561971e-001
      9.8141430809412511e-002 2.6520030439533174e-002
      3.2556277942813416e-001 5.5272867515074361e-002
      -2.4505068737203817e-001 2.0016065765458035e-001
      -4.4034916618286776e-002 -5.2585247192460313e-002
      -1.4246096580317250e-001 1.1069708587905672e-001
      1.0388551946728639e-001 2.2370553930836540e-001
      -5.9130669425285075e-002 9.8627446904512375e-002
      -1.5780819900812001e-001 -1.9540084472489883e-001
      8.3976712313827931e-002 -1.5145578492523565e-001
      -3.5318598041616932e-002 1.5118019613860689e-001
      1.2611627472723747e-001 -4.0135154828311842e-002
      -6.5367781622926349e-002 -4.3381928507477407e-002
      8.6553774522877922e-002 1.1990583451377236e-001
      7.3328124384872918e-003 -5.4815097864087226e-001
      -3.0134625898608475e-001 1.1975744310968447e-001
      -6.8188874066644478e-002 -2.5503595218893926e-001
      -3.6853374867437533e-002 -1.0623420345132344e-001
      2.6566673604969748e-001 -1.0699906554491492e-001
      -1.2047004150795546e-001 1.0202558006217065e-001
      -2.1410839321231606e-001 -4.1524717210751474e-002
      -5.5923489562988218e+000 1.4784794410359291e-003
      -9.7980552403869825e-002 5.0849013842058741e-002
      4.6050013269098907e-003 9.8025875674806917e-002
      4.7349915199432845e-002 4.7056808531871053e-002
      1.4904424684759723e-001 2.0695260861809453e-001
      -2.1797203825149505e-001 1.4232008234506274e-001
      -9.4069777146475991e-002 -9.2519476992094535e-002
      3.8865853558010831e-002 -1.6736188182096329e-001
      8.4322794446261159e-002 -3.0803159935785630e-002
      -9.4815367732256711e-002 -1.1162865971453013e-001
      -7.7381085849574011e-002 1.1550235977057614e-001
      3.4784296880194826e-001 6.0259309515085866e-004
      3.4639616628202918e-001 1.8291568221394786e-002
      -1.4850614858641731e-001 -2.1707037786197213e-002
      -3.5715573526858424e-001 -1.0590491378933882e-001
      1.2259125021709927e-001 -3.3443415724017528e-001
      -3.9952441409992601e-001 4.9545518263043431e-002
      -2.9612062393859573e-001 -1.6905455874505432e-001
      4.6438511530760139e-002 1.1717922610399180e-001
      5.7706122167850760e-002 2.4765840145232138e-001
      -4.5237079773672861e-001 -4.0002502901596244e-002
      -2.4298612839548093e+000 1.5364294392517006e-001
      -6.2046946518157446e-002 1.3662007461663361e-001
      -1.1051441390363564e-001 3.6431905425319197e-002
      1.2976341740579656e-001 3.4522506890958637e-003
      3.4018089005078328e-001 2.6462857781944549e-001
      -2.5071562223055149e-001 1.5746751156099414e-001
      -8.8840471251780059e-002 -2.5528695397638340e-001
      1.3380923780668247e-001 -2.9147188802874882e-002
      7.7967595798187558e-002 1.7044105717456532e-002
      -1.4891379152134573e-003 -8.1144115752672635e-002
      8.3938217877491724e-003 1.1684284336117098e-001
      4.2459509507624144e-001 -6.5475129499326351e-002
      5.4218312212647823e-001 -4.9892466491365410e-002
      -1.0958303734224516e-001 6.3587008312546087e-002
      -5.7738369526655775e-001 -1.1904586836197972e-001
      7.1084757919828226e-002 -3.3429562743058894e-001
      -3.2485081669098870e-001 -9.7760754501473174e-002
      -3.9787186102420369e-001 -1.5310886629544029e-001
      3.3398374369990970e-002 2.5074967301868351e-001
      6.7079808088489304e-002 2.3370121129205323e-001
      -5.0605683211833286e-001 -3.6354647878289473e-002
      -1.9055298493776864e+000 1.9151009588944509e-001
      -4.5115277309771282e-003 1.7588930392319152e-001
      3.4141643934727502e-004 9.8644079554051314e-002
      1.4572914613165547e-001 -5.8098523360490005e-002
      3.6256611289742535e-001 2.4550753145270646e-001
      -2.1368638439792781e-001 1.3315010650648257e-001
      5.6541607384153845e-003 -1.1968657799150276e-001
      1.1729528316885673e-001 -6.0843870885993058e-002
      6.4653137089297152e-002 2.6971744707993194e-002
      -6.2385275653828148e-002 -1.3274713320368772e-001
      -4.8133377641235943e-003 1.0541056349560431e-001
      4.0167320730334477e-001 -6.9581762267752201e-002
      5.4256396844971344e-001 4.5317089465169658e-002
      -1.4128187426321306e-001 1.0143156435393173e-001
      -5.4544224266020502e-001 -2.0870882926237405e-001
      3.4769910044262720e-002 -3.7033627166567440e-001
      -3.2167341423571166e-001 1.1273435605046579e-002
      -3.6697103270594650e-001 -1.7421419158307944e-001
      5.0208761397465315e-002 2.6741208673842642e-001
      9.1073219549326970e-002 2.3849062180551081e-001
      -4.8607398011078473e-001 -5.8414995622423624e-002
      -1.4285773441389134e+001 -1.3740284216720574e-002
      -4.6586950844159793e-002 2.7421811329541454e-002
      1.5488252240624675e-001 -1.7926818468778424e-001
      8.9185194183712638e-002 -1.5789003505882554e-001
      2.7321979341048842e-002 6.2549307743916893e-001
      -9.3787994714734202e-001 3.7190517605982809e-001
      -4.3582045403698610e-001 1.8404416523154768e-001
      3.2049159744576522e-001 -4.9259236689470254e-001
      4.2877051336929434e-001 1.1758719707889491e-001
      -5.8019276900660832e-002 1.7830895998206542e-001
      -4.1523583972247763e-001 2.8345423493594807e-001
      6.9000756848432343e-001 -4.9283132625411133e-002
      7.3046716994991448e-002 -6.0213894809122578e-002
      -2.2683880118095572e-002 -4.2940920146421713e-001
      -6.0265618212118410e-001 -4.7475052307875082e-001
      6.8527225946919637e-002 -6.4806059859207399e-002
      -1.7000568968720933e-001 1.3456933852069553e-001
      -5.5208512569584212e-001 -1.3082921944244480e-001
      8.5892871827163958e-002 8.2104700161166624e-002
      2.2365783276958262e-002 1.4712805156959508e-001
      -4.6326330608158600e-001 1.1303879586457849e-001
      -1.6320087502705320e+001 -2.9011277052502407e-002
      -3.9347816726402134e-002 1.7885274964878725e-002
      1.6210442446426751e-001 -1.8018331246422936e-001
      9.9664954815152210e-002 -1.6816002296145660e-001
      3.7395969554915129e-002 5.6739350519233811e-001
      -8.7379175277028531e-001 3.4179383219394249e-001
      -3.9143021147701207e-001 1.5456411460908026e-001
      2.9635583032312668e-001 -4.5035450390991782e-001
      3.8596349821383291e-001 1.0213498139959527e-001
      -4.5113193547852717e-002 1.7052945476320572e-001
      -3.7802457672094703e-001 2.6374040067180798e-001
      6.4227988677360393e-001 -3.3217750901286022e-002
      1.0019215058943209e-001 -3.7436752525974941e-002
      -3.7847669979747693e-002 -3.7208090867364058e-001
      -5.7351202716651672e-001 -2.5022178061849631e-001
      4.7588602171884514e-002 -6.2815794340742484e-002
      -1.7360756172737168e-001 1.3225594990093537e-001
      -5.1437320684239030e-001 -1.3027375646112604e-001
      6.7475676639625087e-002 8.6298248235633604e-002
      2.0856116054544578e-002 1.2361357818466691e-001
      -4.4739557044707839e-001 1.1447246386807049e-001
      -1.6457548679275948e+001 -3.3060880219425270e-002
      -2.4167699181635749e-002 1.7340321160252269e-002
      1.5174672273792855e-001 -1.7644276927686903e-001
      1.0462996168231757e-001 -1.5966093241804918e-001
      3.5483411514035966e-002 5.0338573207564197e-001
      -7.5168124183845264e-001 3.0255644598345860e-001
      -3.4256665463510133e-001 1.2807420470197889e-001
      2.5304310224306714e-001 -3.8594964771058382e-001
      3.2933434665164463e-001 7.5183093865736489e-002
      -3.3797730924853608e-002 1.5675961255039778e-001
      -3.2046066615403790e-001 2.2544217554456425e-001
      5.7764802850272734e-001 -2.8615650685802688e-002
      9.8763504292877821e-002 -2.7129848835857489e-002
      -6.2118527641895599e-002 -3.2059454728774023e-001
      -5.1807478189367928e-001 -4.8969284500276614e-002
      4.5442823852190048e-002 -5.3966771545051556e-002
      -1.6472856861303428e-001 1.3955750913558559e-001
      -4.5046532351115803e-001 -1.0190280075316598e-001
      5.3486367956937259e-002 7.9664176601356607e-002
      1.1840089234617941e-002 1.1522443465083319e-001
      -3.8817801082364134e-001 1.0397880665877374e-001
      3.3638838676723837e+000 -1.6898009482008133e-001
      -3.9379323842799357e-001 -1.7349396911916465e-001
      4.0405000687266279e-001 -1.4115329570324545e-001
      2.0458943517620040e-001 -5.7091139808665226e-001
      -2.4864226987243629e-001 -8.5342097437165337e-002
      -6.0222782180845466e-002 -4.2269678290160079e-001
      2.6877837622768430e-001 -1.7439177733893443e-001
      -3.5424598008762226e-001 -3.7224616328840485e-002
      -4.6235049621147967e-002 -2.1475590261089712e-002
      -1.5184363374281190e-001 -4.6097057237788092e-001
      2.0845638278497333e-001 -8.0051346607639851e-002
      1.9731339823774763e-001 2.6392591235085627e-001
      -2.3211877646162872e-002 -1.2943555638172240e-002
      -5.2971399274504415e-002 -4.0791729607678751e-001
      -1.9455994566416127e-001 -2.8251523558206887e-001
      -6.5172906122911700e-001 1.3081036326209525e-002
      -2.6018220826524180e-001 -3.0401010701884645e-001
      5.3856895913657367e-002 2.1099663974874275e-001
      -2.4662196923279486e-001 -9.5801067357395087e-001
      -8.2537617255911533e-001 -3.1287909478116821e-001
      7.1300181149931363e-002 1.2923608705533882e-001
      -5.5951224806089339e+000 1.6474181107742444e-001
      2.0648629401477164e-001 -9.6703747095452496e-003
      -1.1613161389311856e-001 -6.9090094311546069e-001
      5.0518128019769659e-001 -3.5821768512739571e-001
      -1.5413258477371497e-001 2.7452364413736479e-002
      2.3689066226174180e-001 4.4281172323461188e-001
      5.3929682282808933e-001 5.5041864035219656e-002
      -2.6556296418517417e-001 5.8409355625954262e-001
      -1.5636240081765010e-001 9.7663612737486222e-002
      -9.1846972825599282e-001 -4.9223393426093648e-001
      2.2895064692669531e-001 3.2611327844693211e-001
      2.4916350548279714e-001 -1.0508506306167055e-001
      1.0203125871430647e-001 -5.8759776421406906e-003
      -3.4753800053554790e-001 -2.9332488449152462e-002
      -1.5165831539097419e-001 -4.8113294577349691e-001
      -5.2959841437029920e-001 -3.8272052549069713e-001
      3.2458816713733275e-003 -1.6432135977508186e-001
      -3.9202472860463335e-002 -1.6290708696938075e-003
      7.5299270325906512e-002 -3.7426715026036961e-001
      -1.3082887313441077e-002 -4.0008028973281262e-003
      1.5907323779364321e-001 -1.7027562519192505e-001
      -4.5641917594187476e-001 -1.1440238541671617e-001
      1.8112750472443209e-001 4.4503583617500786e-001
      7.0906245297916226e-002 -4.7301460164351217e-001
      -4.8726289810525814e-001 -4.9866799344131307e-001
      -3.5625939161898490e-002 9.5799832084533146e-002
      4.0790139360031702e-002 2.1831970374752796e-001
      7.2499565233932073e-001 1.9837934579723812e-001
      -6.0246835815919872e-002 9.7675753022566564e-002
      1.2554155874745199e-001 8.9146871424801349e-002
      -3.2507794325435158e-001 6.1526925283047040e-002
      -1.6102205946042081e-001 1.0944130973560424e-001
      -1.3134751932293851e-001 3.0199122278944990e-001
      9.7670588964014024e-002 -7.4860919109788607e-002
      -5.6150132065041092e-001 4.0912611004124172e-001
      2.8174204810444442e-001 -3.3282137201177397e-001
      -3.3251506804104120e-001 -5.3314216721197440e-002
      1.9531558669271861e-003 3.3433342296590279e-001
      -1.9915939910128369e-002 3.9422642905432553e-003
      3.4789940898425759e-001 -3.5729230438758680e-001
      2.0390251953022595e-001 -6.5567221922816749e-002
      1.2430808706220509e-001 -2.0661500792943760e-001
      5.6462509455895149e-001 3.8503632942315874e-001
      9.2557216738998416e-002 6.2294132395608781e-001
      -3.4724372913976498e-001 -2.4517027865939819e-001
      6.2693079108621841e-001 -2.2549386531306995e-001
      1.3329789489877542e-001 1.2111366708095010e-001
      -1.7741917686449957e-001 -6.5188261910242240e-002
      -9.7654284503418551e-002 -1.7692709542618590e-002
      4.6404468374518948e-001 -4.6188226329298226e-001
      -1.7749745563218344e-002 -1.6466992047485937e-001
      -4.0103807074081566e-001 2.9272857377259592e-001
      -1.7996155904632127e-001 2.7507853922344189e-001
      2.4113894589035925e-001 1.1555388034132945e-001
      5.1956251130328847e-002 -2.8434764939470464e-001
      -3.0194682241993570e-001 -7.1094114571712330e-002
      1.9527822463475908e-001 3.0703507656451451e-001
      3.1832528096099683e-001 -2.2744586775786188e-001
      -2.8667876110180446e-001 -4.4364800501125895e-001
      -1.2214066629842382e-001 -1.0533763213443846e-001
      4.3934926349811901e-002 -2.1525741764620790e-001
      -1.5730259237292124e-001 6.2036634346833062e-002
      2.8343068271366156e-001 1.5930849305212963e-001
      1.2271149030565478e+000 1.6218939990917036e-001
      -3.3786405639585498e-001 5.9119986143398862e-001
      -6.4130481221351487e-001 -5.2534413403401348e-001
      4.9224871469791648e-001 1.8766056978752232e-001
      1.7960444686615210e-001 -1.0937279928822002e-001
      1.3935958501254866e-002 -4.5248669330399743e-001
      -1.2091187416819220e-001 1.1489815637089280e-001
      4.2003161325776939e-001 -2.1092598765912904e-001
      1.6531178162112842e-001 -5.8884773076356110e-002
      -4.2387284027492195e-001 2.7711671373267882e-001
      -4.8400437957249100e-003 -2.8638669426058744e-001
      2.5461864381897564e-001 1.0946736089011926e-001
      1.0462861182606628e-001 -1.4849812879108379e-001
      1.0790078974860152e-001 -9.3228518686452530e-002
      2.8176043675610202e-001 1.4883228775115634e-001
      6.5002769216803047e-001 1.7885070593514848e-002
      -3.9906458697710928e-001 -2.8180361556653477e-001
      -3.6399772627633264e-001 1.3106148193102450e-002
      -2.5192575189351668e-001 7.7082556549371599e-003
      -2.6108714545629080e-001 -7.4485308580474002e-002
      2.4353586753735217e-002 -1.3163121960024719e-002
      -3.1442655889158305e-001 -1.6695237509305744e-001
      3.6649058690760328e-001 3.5665198070999243e-001
      4.0038566694733596e-003 6.7882764510643803e-002
      -7.7839441206427840e-001 2.4254502549690429e-001
      4.4694283072198318e-002 -2.0649419010317316e-001
      -8.6770445787069578e-002 -6.0852078982171565e-001
      7.4185785002487204e-003 -5.6883327619481117e-001
      -7.4072609057550184e-002 8.9448810912312778e-003
      -1.4212292303640814e-001 3.1645147026338388e-002
      4.3552072870617820e-001 1.3959542354908155e-001
      2.3145905060663730e-001 7.0972188698818550e-001
      -1.8427246202083741e-001 1.2038387580163741e-001
      8.3995598638697058e-002 3.7039140624456646e-001
      1.8139418270133409e-001 1.5898987442796469e-001
      -2.5065747717133886e-002 4.4997657285407322e-001
      4.9532178638176688e-001 5.6441674637650530e-001
      4.9339345504892124e-001 -1.8949111189071947e-002
      1.1603958575135873e-001 -2.7947376576970473e-001
      -1.6137342010139422e-001 2.8193540893600383e-001
      3.2801345255350528e-002 3.2440118983530514e-001
      2.1056299161216677e-001 2.6931942488759453e-001
      5.9816254896458432e-001 -2.8685414660502656e-001
      8.6421163159755954e-001 -6.5198423467019623e-002
      -2.9795936084253560e-001 3.1884926731023561e-001
      -6.9976080250021111e-001 6.0159976581136476e-001
      -5.5216028479233306e-002 1.7265629611388053e-001
      -1.8415371770824404e-001 6.1839599559166465e-002
      -8.5752619296464980e-002 3.0070224215005986e-001
      2.2832044103707735e-001 5.3818250828310776e-001
      -1.0383227110614350e-001 1.0530853901308133e-001
      2.8988792414625286e-001 1.2921492117841685e-001
      9.8866879366707572e-002 -5.3136477588364139e-001
      2.4914806298887347e-002 -2.7271756080978321e-001
      1.2847984263470695e-002 -5.1915781140921113e-001
      4.7742599879870218e-001 7.8984615574897232e-001
      -1.6906215138857675e-001 -3.1155496228042562e-001
      -5.7471365289739194e-002 4.7814881408106197e-001
      8.2289323877655041e-001 3.7883807399437869e-001
      7.2775101705037148e-002 -1.3795289079645612e-002
      7.7279563924117822e-001 6.9660240019095310e-001
      -2.1533416729990407e-001 1.7562081111838607e-001
      -4.0368973572930955e-001 3.5474635455250231e-001
      -8.1202534724737108e-001 -1.3696652512052560e-001
      4.5622338342015833e-001 5.5331573349511547e-002
      3.5586953522874006e-002 9.3387932593841494e-001
      -1.1309906786113353e+000 1.2346618734128239e+000
      2.6013117049131268e-001 -5.6317966784719231e-002
      -6.1696533413681975e-001 -2.4731512862819363e-001
      3.6797703259745346e-001 1.0565911497018408e+000
      4.3910155209783322e-002 -7.6023117403875113e-003
      1.0514370201150920e-001 -1.6604975584648632e-001
      -2.2433007001028035e-001 4.5145961076309737e-001
      -5.0116816674720921e-001 6.0178242602119222e-002
      5.4548441541038368e-003 -3.7691711702253411e-001
      -1.1849306758614322e-001 -2.2783451770173907e-001
      8.8015182148690418e-001 9.0403504778110411e-001
      -3.5663903377908096e-001 -5.8450939387669842e-001
      -1.9687065111670139e-002 5.9660037706942437e-001
      4.9442781282647319e-001 4.2197481245666142e-002
      3.1721457228197719e-001 -2.0085937251548869e-001
      8.1359620973442281e-001 4.4580375931338412e-001
      -1.5481993133203874e-002 -1.6294126956955093e-001
      -2.3403058170920349e-001 1.7444538975768689e-001
      -2.4467546848205082e+000 -1.0845770077819926e-001
      3.3206355906690667e-002 -7.1300263505986398e-003
      4.2250024147006014e-003 -4.3693582895751176e-002
      -9.7245043289070998e-001 8.5305493199826754e-001
      6.7865853807247287e-002 9.6852991047265725e-003
      -5.2904355041647255e-001 1.9359791225883569e-001
      3.7472863779187782e-001 8.6848254021027826e-001
      4.6426715697999568e-002 1.6648973104819265e-001
      1.9044338081393532e-002 -3.5808159199326206e-001
      -3.1576786687152081e-001 3.1463779848845339e-002
      -2.4656919266961991e-001 3.0275811266449237e-001
      2.2433698947536618e-001 -5.9934729585199048e-002
      -9.5445548545003187e-002 -1.2144317343618923e-001
      4.9549265502743245e-002 1.1987702731960947e-001
      -5.5321462528025847e-002 -4.4046548325309798e-001
      -4.1155469560777741e-001 9.2732458097369463e-002
      -5.5315927001522680e-001 3.8436689869265822e-002
      1.1482878211533668e-001 -9.2742830752011229e-002
      1.6005557169853687e-001 -2.3095869441842071e-002
      2.2458193848367347e-001 9.2173358757576110e-002
      -1.3905855869879372e-001 1.1365340077874420e-001
      -7.5738275747005943e+000 -9.4267625326186169e-002
      -1.5587193225410412e-001 -2.5315129100353117e-002
      3.6652200920826133e-002 7.6054778077100496e-002
      -9.1371419553986201e-004 9.2963518106454895e-002
      1.9682392194649765e-002 1.4589441582312290e-001
      -2.0083980679709726e-001 1.6012071573267045e-001
      -1.0742102451853335e-001 -5.3751081063476300e-002
      -6.1852357303666596e-002 -2.0607631210044602e-001
      8.1141177282369484e-002 1.8254769220620502e-002
      -1.2562239103527695e-001 -6.2750241795843861e-002
      -1.5261273150022600e-001 1.2278466713226806e-001
      2.5615733491741988e-001 2.6185882876164662e-002
      1.8703997292846170e-001 -3.3180601136305818e-002
      -1.4372013155288976e-001 -3.7445489129504989e-002
      -2.1071476892183538e-001 -8.6021197157418156e-002
      1.4103982273460072e-001 -2.5362398016732107e-001
      -3.6166184136408491e-001 5.0317832362847092e-002
      -1.9670919075096580e-001 -1.5536587376072447e-001
      1.8754003647433834e-002 -4.7466892462855251e-003
      5.6348717465737205e-002 2.4906687148942167e-001
      -3.7236438671331468e-001 -1.7239686967370740e-002
      -3.1288420891563429e+000 1.6832404344818122e-001
      -6.2678936587321155e-002 1.3490527714371836e-001
      -1.0813762902139892e-001 3.0263917770170824e-002
      1.3794415634006799e-001 -9.5969360034509794e-003
      3.4374506393383192e-001 3.0394735490123004e-001
      -3.0045635833492645e-001 1.6582281497862314e-001
      -1.1333376983222630e-001 -2.3526073489978022e-001
      1.5209117342530928e-001 -5.5965710095165447e-002
      1.0899913501301142e-001 -7.7810190298371017e-003
      1.4256971755396504e-003 -8.3845752769243803e-002
      -1.6980545645594664e-002 1.3273286277554872e-001
      4.6769539041210628e-001 -6.2977405459409455e-002
      5.4117556447664894e-001 -5.7674007155651484e-002
      -1.1649445568116794e-001 1.8644763584061749e-002
      -5.9860226199417899e-001 -9.4516429926056217e-002
      7.7964900462034720e-002 -3.3298627990471286e-001
      -3.2253836360569016e-001 -8.1854927072710817e-002
      -4.1386529840216812e-001 -1.5773376156780511e-001
      3.5683075934914057e-002 2.5281236591150374e-001
      6.7365786036502368e-002 2.5139388557812631e-001
      -5.2027710967208751e-001 -2.8546673501489195e-002
      -1.9362133556436008e+000 1.9882520085377914e-001
      -8.7623145938528907e-003 1.6976718263759227e-001
      -1.0152722054848866e-002 1.0169963638578436e-001
      1.3565738081728507e-001 -5.7211928261432406e-002
      3.6306325155340663e-001 2.4035293896670945e-001
      -2.1295173813221810e-001 1.3265831816316970e-001
      2.2828245982774299e-003 -1.1877741911253226e-001
      1.1433234934216165e-001 -6.3866098243072461e-002
      6.8194503628310657e-002 2.2864482916906095e-002
      -5.7604524073210872e-002 -1.2364956148590388e-001
      1.1448475685717253e-002 1.1312259457521844e-001
      3.9327529481902679e-001 -6.6807357245382684e-002
      5.4429046059526887e-001 4.4929044896117876e-002
      -1.4027737648810976e-001 1.0464065774006991e-001
      -5.4402117803191230e-001 -2.1313307257136566e-001
      4.5337791901624444e-002 -3.7315511143813029e-001
      -3.3425678073682996e-001 1.0755285502847472e-002
      -3.6516693454325200e-001 -1.6449157188486380e-001
      6.1258049293649239e-002 2.5542185524677502e-001
      9.7920575480078473e-002 2.3131267676203129e-001
      -4.7568992917154140e-001 -6.6640910143796819e-002
      -1.5466721680034750e+001 -2.4911569753735284e-002
      -4.1606176592944924e-002 2.3315136768968292e-002
      1.6731086159455488e-001 -1.9079448979671940e-001
      1.1712906498203843e-001 -1.7664017808691418e-001
      4.6600094241028331e-002 6.5644800902438571e-001
      -1.0074525857374417e+000 3.8527219017655817e-001
      -4.6057947348399714e-001 1.9792359061654644e-001
      3.3604325409321190e-001 -5.3272149065816155e-001
      4.4847520932761598e-001 1.1818726615536251e-001
      -5.9600793463274383e-002 1.8890781632974749e-001
      -4.3989279346865140e-001 2.9954997107631814e-001
      7.2991086892761381e-001 -4.7419554951895183e-002
      8.4544281359159007e-002 -5.8908044479668756e-002
      -2.6134442099249647e-002 -4.3916213164892692e-001
      -6.2946251682654231e-001 -3.5606544102702165e-001
      7.0444944102283927e-002 -7.3959864627151997e-002
      -1.7798429721389453e-001 1.4540870298847819e-001
      -5.7917168597172664e-001 -1.5291495717794718e-001
      7.6021033358132942e-002 8.7450134751350966e-002
      3.5932996848951550e-002 1.5938915987806615e-001
      -4.8534248624439391e-001 1.1836512757195410e-001
      -1.6250148201016007e+001 -2.5659347074896772e-002
      -3.6953852989677474e-002 2.1171296230579378e-002
      1.6531358178929573e-001 -1.8156478935828321e-001
      1.1276027032725101e-001 -1.6900032125134540e-001
      2.9762197638039323e-002 5.8073040369587037e-001
      -8.5813744220519295e-001 3.4354128799961842e-001
      -3.8371309239077694e-001 1.5605715665651626e-001
      2.8848219408540460e-001 -4.3741013961365255e-001
      3.7813701646922609e-001 9.8856605005054637e-002
      -4.1064306144166500e-002 1.6496083196764197e-001
      -3.6279855764589797e-001 2.7283721143413514e-001
      6.4533074201613905e-001 -2.9807093739737590e-002
      8.6224622301810674e-002 -3.6182425549396387e-002
      -4.1406370826780538e-002 -3.7605497219292799e-001
      -5.7814509352183296e-001 -1.7876557014046987e-001
      4.2978386998671611e-002 -7.2160113855391741e-002
      -1.7629260706498548e-001 1.3798101886251002e-001
      -5.1110781034294783e-001 -1.1992799116415448e-001
      6.5676796827452533e-002 8.5105841699745680e-002
      1.4790436032026257e-002 1.3803182839572567e-001
      -4.4560461430100412e-001 1.1143781229012233e-001
      -1.6305011015831344e+001 -3.1120547311806187e-002
      -2.7327155770821732e-002 1.7440683385041469e-002
      1.5790049226355732e-001 -1.6373975450474607e-001
      9.8904893517216666e-002 -1.5442877194003055e-001
