<?xml version="1.0"?>
<opencv_storage>
<my_nn type_id="opencv-ml-ann-mlp">
  <layer_sizes type_id="opencv-matrix">
    <rows>1</rows>
    <cols>3</cols>
    <dt>i</dt>
    <data>
      225 42 28</data></layer_sizes>
  <activation_function>SIGMOID_SYM</activation_function>
  <f_param1>5.9999999999999998e-001</f_param1>
  <f_param2>1.</f_param2>
  <min_val>-9.4999999999999996e-001</min_val>
  <max_val>9.4999999999999996e-001</max_val>
  <min_val1>-9.7999999999999998e-001</min_val1>
  <max_val1>9.7999999999999998e-001</max_val1>
  <training_params>
    <train_method>BACKPROP</train_method>
    <dw_scale>1.0000000000000001e-001</dw_scale>
    <moment_scale>1.0000000000000001e-001</moment_scale>
    <term_criteria><epsilon>9.9999999999999995e-007</epsilon>
      <iterations>1000</iterations></term_criteria></training_params>
  <input_scale>
    1.9663874851667078e-002 -1.4485144644439369e+000
    1.8969575302166339e-002 -1.6675080070191846e+000
    1.7253097259963667e-002 -1.2396321451170693e+000
    1.6555203115523141e-002 -1.2063771678628887e+000
    1.5387609946526017e-002 -1.1731374236711545e+000
    1.6606806561445642e-002 -1.1905318945022703e+000
    1.7204239829044270e-002 -1.0590711682435872e+000
    2.0185337661125919e-002 -8.9374320902048809e-001
    2.9593184889739763e-002 -5.0919406579420534e-001
    5.0102284720043549e-002 -2.1047447185303919e-001
    4.6000759046753048e-002 -1.6278613525380220e-001
    9.3560551129458033e-002 -9.3895704542954095e-002
    3.5898095734090090e+000 -4.5008063893556154e-002
    4.0966477073831081e-001 -7.0697837651292589e-002
    1.3713387587855141e-001 -7.2136472342922836e-002
    1.5130528892702638e-002 -1.9394031744953892e+000
    1.5500962388642122e-002 -2.0784436886287510e+000
    1.5306735145119502e-002 -1.3477684827698095e+000
    1.4576981018832940e-002 -1.2641336091740136e+000
    1.2814084385785185e-002 -1.1043000398320857e+000
    1.4346647287862139e-002 -1.1926454998285247e+000
    1.4156118193813362e-002 -1.1437084478772817e+000
    1.3245832065927931e-002 -1.0060007745992396e+000
    1.7146645097877809e-002 -6.1684497275448047e-001
    3.1008784917891621e-002 -2.2407025961302013e-001
    2.9400151070882147e-002 -1.6576868666641600e-001
    5.5062968263260022e-002 -9.4932183191365593e-002
    1.8044577376874715e+000 -3.7046381479029722e-002
    1.9748281226407302e-001 -7.5448635815738782e-002
    8.2018907524451845e-002 -7.7187423733512728e-002
    1.3444257976272678e-002 -1.7356852998276575e+000
    1.5279043557274639e-002 -1.6476756932775629e+000
    1.9164242551952940e-002 -1.0026389790048276e+000
    1.5850657937938346e-002 -8.5122379632765877e-001
    1.7099605645731649e-002 -7.3933929479051397e-001
    1.6839685679807176e-002 -7.5321662003314704e-001
    1.7889513051948264e-002 -9.6435511044702282e-001
    1.2758991880073164e-002 -9.3788119419351745e-001
    1.3842740561011077e-002 -6.4645840454026904e-001
    3.1011228747451193e-002 -2.3079881716507350e-001
    3.0968921113825730e-002 -1.6578773547464218e-001
    5.3089564830071323e-002 -9.4947121667506643e-002
    9.4288895425012664e-001 -5.0414936770417924e-002
    1.3382680291351520e-001 -7.6837933165597866e-002
    7.7370712154823107e-002 -7.7385811404766219e-002
    1.2169539635430580e-002 -1.5265336728456327e+000
    1.5010846783403638e-002 -1.3155058174763374e+000
    1.7914338625172863e-002 -6.8334887428037527e-001
    1.4035719003482213e-002 -6.3317050396972729e-001
    1.9235808888159508e-002 -5.1845930823025810e-001
    1.7234738981993274e-002 -4.8604318675896946e-001
    1.6975907349672355e-002 -6.6586568349081177e-001
    1.4454001636495508e-002 -8.3984265357800214e-001
    1.2968152046425032e-002 -6.3249737397774897e-001
    3.5597788423225973e-002 -2.2969759888006153e-001
    3.3962632462960149e-002 -1.6678445762083774e-001
    5.3088991549186768e-002 -9.5024377004628360e-002
    4.6644853589202917e-001 -6.8669387137891724e-002
    1.0278714195820431e-001 -7.7199123731304012e-002
    8.7414097526306814e-002 -7.6723134717348346e-002
    1.1971423115779010e-002 -1.4839368119975382e+000
    1.5178894981885366e-002 -1.3441905534214948e+000
    1.6349748933287594e-002 -7.5676960061713983e-001
    1.4782941021420916e-002 -7.8184453458974845e-001
    1.7568534582145693e-002 -6.4785362981544248e-001
    2.0153278137595397e-002 -6.5611980984354279e-001
    1.4637008729328353e-002 -6.7164332597369436e-001
    1.5683073731211861e-002 -8.0099603877425785e-001
    1.3006387822286492e-002 -6.0397077445998637e-001
    4.1575087920785965e-002 -2.2231723000783840e-001
    3.5000197163332206e-002 -1.6937588351093691e-001
    5.3091170052184763e-002 -9.5317696237253988e-002
    2.3993692104814326e-001 -7.4312767141939573e-002
    8.4309493927551965e-002 -7.7404118302223213e-002
    1.0784107661729533e-001 -7.5660488166718901e-002
    1.1720797084043527e-002 -1.4294630985979082e+000
    1.4821984555169445e-002 -1.4862194043486194e+000
    1.3690678737120213e-002 -9.0770163820834626e-001
    1.4916926499705861e-002 -1.0216757830470431e+000
    1.3996880318988296e-002 -8.8149711231039030e-001
    1.6667009125413978e-002 -8.7957376604884463e-001
    1.2737390757281345e-002 -8.0920065632250016e-001
    1.5783044556266723e-002 -8.6212800959748725e-001
    1.3385234464792783e-002 -5.8360656922509102e-001
    4.7204127384248368e-002 -2.1153718959541731e-001
    3.4695491747055336e-002 -1.7308511055739770e-001
    5.3045407839843794e-002 -9.7112729003071468e-002
    1.4803169274720682e-001 -7.6602407510888856e-002
    7.7182133214336646e-002 -7.7511167361816347e-002
    1.4921612980941901e-001 -7.3772629546782084e-002
    1.1674985246925633e-002 -1.4144314417180437e+000
    1.4570225507146666e-002 -1.5079836750146252e+000
    1.3440327861164388e-002 -8.5251361458746200e-001
    1.5043979795940634e-002 -9.2089868992125767e-001
    1.3895230268896389e-002 -8.9314705031804420e-001
    1.5609913068165240e-002 -8.5623007979407428e-001
    1.2921079019081723e-002 -8.4879022510032209e-001
    1.3862421323175661e-002 -9.0247098194740005e-001
    1.3726961322821158e-002 -5.9877570942499581e-001
    5.1530975162635835e-002 -2.0106709834042341e-001
    3.4008448486504861e-002 -1.7561412714762265e-001
    5.2706207431620966e-002 -1.0266994756464617e-001
    1.1040164760554899e-001 -7.7295133668922586e-002
    8.1572335708306729e-002 -7.7037433985234216e-002
    2.5213829894113549e-001 -7.0838720030800953e-002
    1.2686038828117537e-002 -1.5920618349951927e+000
    1.4987107447779769e-002 -1.4904815425030480e+000
    1.6398175983833165e-002 -6.5590154471220230e-001
    1.9686926406467846e-002 -7.3140340409929760e-001
    1.6974100094355737e-002 -7.3578448961329246e-001
    2.0152205246084812e-002 -7.4891440261541076e-001
    1.4979804619400489e-002 -8.0188418937744921e-001
    1.2254955763206274e-002 -9.4540653073931114e-001
    1.3585074482142707e-002 -6.6135885194596200e-001
    5.5540784671299699e-002 -1.9890018346153890e-001
    3.3272753231481648e-002 -1.7702339895637936e-001
    5.0930644284976234e-002 -1.1175722946989042e-001
    8.9740459551135576e-002 -7.7509846194092055e-002
    9.6007617634660411e-002 -7.6041560639216549e-002
    5.7471195400626096e-001 -6.8065471803389288e-002
    1.4101967420261648e-002 -1.8843397131739876e+000
    1.4583293057966637e-002 -1.5752618957575037e+000
    1.7194466376338667e-002 -6.3023204582507197e-001
    1.8091434057763006e-002 -6.4733517882148151e-001
    1.5624992774867286e-002 -6.6149831898992362e-001
    1.8603506994843051e-002 -6.9322028940693070e-001
    1.4753931811850229e-002 -8.3913682674855472e-001
    1.1475793196751943e-002 -9.9864867093700271e-001
    1.3184246677867708e-002 -7.0998810997416695e-001
    5.9970724435193898e-002 -1.9921161208391883e-001
    3.2691270741281468e-002 -1.7772844166638566e-001
    4.6554520599501679e-002 -1.1957286255706746e-001
    7.9956021761141929e-002 -7.7573472023513057e-002
    1.2667315805018861e-001 -7.4254519296168192e-002
    1.8480927869674126e+000 -5.7859096137764618e-002
    1.4930788863751076e-002 -2.0120721690340679e+000
    1.4591570172584157e-002 -1.7535481990637918e+000
    1.9779742501830233e-002 -9.9896548484976111e-001
    1.9077705544548060e-002 -9.7607142280890014e-001
    1.6833920894889522e-002 -9.5860245359511853e-001
    2.0336589732438234e-002 -1.0385401620459855e+000
    1.6101672035563296e-002 -1.1324055634874728e+000
    1.1710984877142427e-002 -1.0513417892115584e+000
    1.3307084930267499e-002 -7.1073107868627028e-001
    6.5021015550562153e-002 -1.9658977510761941e-001
    3.2592064213207164e-002 -1.7789201055064108e-001
    4.1791532052592145e-002 -1.2226266903331147e-001
    8.0800264606028141e-002 -7.7238288468272881e-002
    2.0816338641424290e-001 -7.1068444766735267e-002
    9.3708014589426831e+000 -4.0111113577552433e-002
    1.4600615334544067e-002 -1.5613242062082195e+000
    1.5031216964228924e-002 -1.5716563361699318e+000
    1.4752493282728790e-002 -9.3568469987839376e-001
    1.4521561302770367e-002 -9.8265481131290588e-001
    1.3912251819128019e-002 -1.0027285222209767e+000
    1.4627989406093177e-002 -9.3647000923877188e-001
    1.5190350468592620e-002 -1.0832831208374727e+000
    1.4079122257338242e-002 -9.8333305860785636e-001
    1.4718762639646971e-002 -6.2345545416631953e-001
    7.7302528417848598e-002 -1.8852231788521639e-001
    3.6622659845805261e-002 -1.7556678674893161e-001
    4.2974648741203034e-002 -1.2113001061874619e-001
    9.8457140947750599e-002 -7.5719905265903442e-002
    4.7603225085505713e-001 -6.7720596066667679e-002
    7.0779498765945341e+000 -3.3090023097735316e-002
    2.0583655794367994e-002 -7.2624936897913517e-001
    2.1470014566681354e-002 -7.5535693759075251e-001
    2.0738661369231054e-002 -5.5174976436251588e-001
    2.0294623587399099e-002 -5.8138936339337255e-001
    2.0474150500567494e-002 -5.9519726361462122e-001
    2.1718965099998142e-002 -5.5618562959018703e-001
    2.4531021415369905e-002 -6.1573968102357235e-001
    2.8262826174598785e-002 -5.5595549274756473e-001
    2.9478217232463348e-002 -3.8093101549189345e-001
    1.8395423185019014e-001 -1.3693255482458699e-001
    7.3547667720410090e-002 -1.3860550833157095e-001
    7.9247048411729817e-002 -1.0144704083731372e-001
    1.9326330552613313e-001 -6.0037313245520946e-002
    1.7219989305637828e+000 -5.3276638321141219e-002
    1.2435926274095284e+001 -2.2759431466842141e-002
    6.6281367078155323e-002 -8.9969235476087234e-002
    5.9265835918324988e-002 -1.1795037166943323e-001
    4.3855802975824608e-002 -1.3202142428185926e-001
    5.3298753760540697e-002 -1.1059891546206614e-001 1. 0. 1. 0. 1. 0.
    1. 0. 1. 0. 1. 0. 1. 0. 1. 0. 1. 0. 1. 0. 1. 0.
    6.9218626334488345e-002 -8.9891015545398897e-002
    5.7157366803247012e-002 -1.1980760819836579e-001
    4.3060930960442216e-002 -1.3353856905253197e-001
    5.4342398813855226e-002 -1.1017283628655357e-001 1. 0. 1. 0. 1. 0.
    1. 0. 1. 0. 1. 0. 1. 0. 1. 0. 1. 0. 1. 0. 1. 0.
    7.8384457541617006e-002 -1.0429153532928874e-001
    5.0503460136662341e-002 -1.3088272469030721e-001
    4.0841838572605760e-002 -1.4150060854593316e-001
    5.9224261822873790e-002 -1.1467855818831714e-001 1. 0. 1. 0. 1. 0.
    1. 0. 1. 0. 1. 0. 1. 0. 1. 0. 1. 0. 1. 0. 1. 0.</input_scale>
  <output_scale>
    5.2631578947368418e-001 4.9999999999999994e-001
    5.2631578947368418e-001 4.9999999999999994e-001
    5.2631578947368418e-001 4.9999999999999994e-001
    5.2631578947368418e-001 4.9999999999999994e-001
    5.2631578947368418e-001 4.9999999999999994e-001
    5.2631578947368418e-001 4.9999999999999994e-001
    5.2631578947368418e-001 4.9999999999999994e-001
    5.2631578947368418e-001 4.9999999999999994e-001
    5.2631578947368418e-001 4.9999999999999994e-001
    5.2631578947368418e-001 4.9999999999999994e-001
    5.2631578947368418e-001 4.9999999999999994e-001
    5.2631578947368418e-001 4.9999999999999994e-001
    5.2631578947368418e-001 4.9999999999999994e-001
    5.2631578947368418e-001 4.9999999999999994e-001
    5.2631578947368418e-001 4.9999999999999994e-001
    5.2631578947368418e-001 4.9999999999999994e-001
    5.2631578947368418e-001 4.9999999999999994e-001
    5.2631578947368418e-001 4.9999999999999994e-001
    5.2631578947368418e-001 4.9999999999999994e-001
    5.2631578947368418e-001 4.9999999999999994e-001
    5.2631578947368418e-001 4.9999999999999994e-001
    5.2631578947368418e-001 4.9999999999999994e-001
    5.2631578947368418e-001 4.9999999999999994e-001
    5.2631578947368418e-001 4.9999999999999994e-001
    5.2631578947368418e-001 4.9999999999999994e-001
    5.2631578947368418e-001 4.9999999999999994e-001
    5.2631578947368418e-001 4.9999999999999994e-001
    5.2631578947368418e-001 4.9999999999999994e-001</output_scale>
  <inv_output_scale>
    1.8999999999999999e+000 -9.4999999999999996e-001
    1.8999999999999999e+000 -9.4999999999999996e-001
    1.8999999999999999e+000 -9.4999999999999996e-001
    1.8999999999999999e+000 -9.4999999999999996e-001
    1.8999999999999999e+000 -9.4999999999999996e-001
    1.8999999999999999e+000 -9.4999999999999996e-001
    1.8999999999999999e+000 -9.4999999999999996e-001
    1.8999999999999999e+000 -9.4999999999999996e-001
    1.8999999999999999e+000 -9.4999999999999996e-001
    1.8999999999999999e+000 -9.4999999999999996e-001
    1.8999999999999999e+000 -9.4999999999999996e-001
    1.8999999999999999e+000 -9.4999999999999996e-001
    1.8999999999999999e+000 -9.4999999999999996e-001
    1.8999999999999999e+000 -9.4999999999999996e-001
    1.8999999999999999e+000 -9.4999999999999996e-001
    1.8999999999999999e+000 -9.4999999999999996e-001
    1.8999999999999999e+000 -9.4999999999999996e-001
    1.8999999999999999e+000 -9.4999999999999996e-001
    1.8999999999999999e+000 -9.4999999999999996e-001
    1.8999999999999999e+000 -9.4999999999999996e-001
    1.8999999999999999e+000 -9.4999999999999996e-001
    1.8999999999999999e+000 -9.4999999999999996e-001
    1.8999999999999999e+000 -9.4999999999999996e-001
    1.8999999999999999e+000 -9.4999999999999996e-001
    1.8999999999999999e+000 -9.4999999999999996e-001
    1.8999999999999999e+000 -9.4999999999999996e-001
    1.8999999999999999e+000 -9.4999999999999996e-001
    1.8999999999999999e+000 -9.4999999999999996e-001</inv_output_scale>
  <weights>
    <_>
      1.9236786615347801e+000 4.6623787632510783e-001
      1.1814128768994199e+000 6.3757358779257658e-002
      1.6353351250548789e-001 -2.0169109893312648e-001
      -5.3144616201227353e-002 -3.1465133149806246e-001
      3.0215481813701128e-001 -5.0715729492173056e-001
      -1.2653482906168298e-001 5.4802053952264151e-003
      4.8866413713163598e-001 -5.3311202247152678e-001
      -7.2205755467717225e-001 1.4391390628586131e-001
      1.8446212611500101e-002 4.3927591025892088e-001
      -6.5146931285979051e-002 -1.0257171310347526e+000
      1.4756648344052833e-001 1.4365592306302879e+000
      -7.0731528475076044e-001 6.3096088470457690e-001
      -2.1807329482753560e-001 4.0218914825117436e-001
      6.9211650716671858e-001 4.1254859181591141e-001
      4.3938500320348867e-001 -3.7597736038917112e-002
      3.7289185931071514e-002 -1.0827986131578118e+000
      -1.5630925214637495e-001 -2.8474484746749401e-001
      -4.6353790586265353e-001 3.4695193969989137e-002
      -8.1391946026439166e-001 -1.2980841242375613e-001
      -7.6762614923287820e-001 1.4095012613438226e-001
      1.3481480466820292e-001 8.9193292865452345e-001
      -2.7604664979533244e-001 3.4393426438638131e-002
      4.5918033870073482e-001 2.6870174623568727e-001
      4.8395959895671459e-001 1.3987482932837675e-001
      -3.6885448942888738e-001 -2.4820264049899129e-001
      -8.0321984358139017e-002 4.5108027045038329e-002
      -1.3526825851004878e-001 4.5425411456800062e-002
      2.1721720233750516e-001 4.1822881584707330e-002
      -3.4252004503770295e-001 3.7668435191201438e-001
      1.2019079272485696e-001 3.1757569833047306e-001
      -7.2058705568118636e-002 -2.3874863040941699e-001
      -9.8835533282599017e-002 6.7120134493739447e-001
      -3.9246311871758710e-001 5.9494593188473603e-002
      -1.6628017735353595e-001 2.1377720971519731e-004
      2.3873206832426944e-001 1.0182896276235825e-001
      -1.4775926978544793e-001 9.2952373832003957e-002
      -1.6134055945936920e-001 -5.8893807244227769e-001
      -6.3144456276273062e-002 -2.6715510586082492e-001
      -5.1253151137258174e-002 -4.3600761275776351e-001
      -1.5618779029312169e-001 -2.0109654709623043e-001
      -3.4846452722979238e-001 -4.2083950437901418e-001
      1.4396794058253234e-001 2.1102829172774132e-001
      -4.8643176052235415e-001 1.7593329818285866e-001
      -7.8106032087860366e-001 -4.2807629004542230e-001
      -4.1757585647176421e-001 1.9837759580634012e-001
      -1.1074136028581397e-001 -5.7351433171608224e-001
      -3.0437510693974629e-002 -2.1201274909941845e-001
      4.4989351760010859e-001 -2.0194499637907623e-001
      -8.2629956287835504e-001 1.5737479355705120e-001
      -3.4138730232866871e-001 3.8347104061683440e-001
      3.6428075449771230e-001 7.7861287301073251e-002
      -1.5517607480951212e-001 2.5938485040848541e-001
      2.0554357348302491e-001 3.5657460730766943e-001
      -2.1656404357119624e-001 -2.3998125429267492e-001
      -3.1845532039728996e-001 -1.5491724184822192e-001
      -7.5868652183893465e-002 2.1272371162173113e-002
      -3.3748977221026494e-001 2.5210437368653971e-001
      -1.8146002506083131e-001 -5.3187562343448835e-001
      1.0033327645229743e-001 -1.2114215505316872e-001
      -1.3232799979098592e-001 -3.8578337833584836e-001
      3.0799994633379973e-001 2.6659527604350748e-003
      -4.5958622139483796e-001 -3.5851290198660685e-001
      3.6229836620652711e-001 -3.4611569513685755e-002
      -1.9427588536290472e+000 1.6267379336576729e-001
      -8.4134221137173448e-001 -6.3001267186453858e-001
      -6.8372162459183217e-001 1.0588951750603565e-001
      3.9072054569796177e-002 -1.8309743999230790e-001
      -3.7781816754236502e-001 1.7675314577680470e-002
      -5.1188776880362739e-002 -2.5282303643432746e-001
      -4.7799720009807461e-001 1.6197911684148186e-001
      -1.2404072159016137e-001 2.7942847284446859e-001
      3.6557011145835933e-001 -5.0587122682682573e-001
      -2.8513538877922689e-001 2.3264533568774212e-001
      -1.0801901165854481e-001 -2.4114632614999706e-001
      1.0975200085350577e-001 1.1157679882237044e-001
      -1.0663730689634913e-001 -2.2425265634049832e-001
      -1.1632990212289147e-002 -3.7865696208070673e-003
      -3.2298937196383448e-001 2.7213331948293829e-001
      -2.3535520830986434e-001 1.3515695575805328e-001
      2.4263543762516313e-001 -4.8217412492087486e-001
      -5.1057610121235195e-003 -7.1567954361573496e-002
      -3.5302006819790993e-003 -9.6579301010953231e-002
      -4.0384125035824175e-001 -2.8039317326381530e-001
      -9.0983718047995321e-002 -3.2990878468999202e-001
      -2.9362672264397252e+000 -3.2706789411281673e-001
      -7.5647330414492220e-001 -4.0809643393177913e-001
      -5.0561459777722195e-001 9.0403641565278817e-002
      2.6466676424655311e-001 1.8838775615687953e-001
      -2.1811452982614585e-001 -7.0895552548943197e-002
      1.0078788172172266e-001 -1.2761868740992588e-001
      -3.9410388724648443e-001 -1.1829831210966328e-001
      1.0816303714612710e-001 4.1726492855920039e-001
      -1.5815407121788880e-001 -5.2923036262821455e-001
      -9.7845615792604423e-002 -9.6133104527546601e-002
      4.2583675135984558e-002 -1.5588391980996746e-001
      -2.2727811078868121e-001 -3.8486670637514303e-001
      2.4006269670952352e-001 -1.7052486728358560e-001
      -5.9992810664908185e-002 8.8237306007069838e-001
      -9.8122269433975251e-001 3.0847514050671787e-001
      6.1683597659547687e-002 -7.6378318676734976e-003
      3.2344784731210413e-001 -1.7384275587182998e-001
      -2.6356114528086894e-001 -2.0039853013761455e-001
      7.5909617174160948e-002 -4.0631046862890602e-001
      -1.8297173728993632e-001 7.9269242765719131e-002
      -1.7377788020326590e-001 -1.0852893181020133e-001
      -4.1446678604985170e+000 -2.7845696120130370e-001
      -7.0209415153973098e-001 -5.1139373711576186e-001
      -3.0250143451659195e-001 8.0220110507511738e-002
      1.6880353987334820e-001 -2.0874077430243511e-003
      -2.2293497531714418e-001 -5.8433110964966328e-001
      2.8758750833992752e-001 1.5599369570259419e-001
      -3.1527752054130359e-001 3.2140064639014879e-002
      1.4166149143770868e-001 4.8735694863833690e-001
      -2.2543021401753119e-001 -3.0280150016103974e-001
      9.6518524739871020e-002 -2.6947863592199872e-001
      -7.2677407432439514e-002 2.0893943528444503e-001
      -5.4195708031256440e-001 -8.3774251771573571e-001
      1.6575621465311466e-001 -2.8841912580740237e-001
      -7.9740300735639869e-002 4.3500951378790920e-001
      -8.8100601827282743e-001 1.2676516293062970e-001
      -1.3336317226336875e-001 -6.0436757956779708e-001
      1.0513958021335458e-001 -3.5992782633692777e-001
      1.9661106196881870e-002 -5.4158311102701762e-001
      -3.6407904997970766e-002 -2.8111361987280403e-001
      -2.8222586338576316e-001 -1.6266343258198469e-002
      3.1612515144879461e-001 -3.2834280778069774e-001
      -2.4637503631264450e+000 1.3770311831437154e-001
      -7.4844503837496812e-001 -4.1039040470019444e-001
      -3.2691637472214546e-001 2.7774974118541018e-001
      -5.9289392219273859e-002 -4.6011584331221816e-001
      -1.3566096615141604e-001 -2.9881637122494686e-001
      7.3873482370539945e-001 6.8297679896064867e-001
      -4.1248458047850728e-001 -4.0852881299577926e-002
      -4.7839099491898274e-001 1.4299830057369489e-001
      1.1510804078170428e-002 -5.5187779480908472e-002
      2.7414363349651394e-001 -5.4837791318277609e-002
      -1.7769281616912817e-002 5.3241394579089474e-001
      -9.7108010432763314e-001 -8.2143102821825575e-001
      1.1063702716677518e-001 -2.1613734693978981e-001
      1.0909548082775194e-001 -6.0174348631153751e-001
      -2.1871863070484415e-001 -3.8855865447895835e-002
      -4.2997071148468813e-001 -7.0448367247084953e-001
      2.0006438392509526e-001 -3.8812389004163972e-001
      -1.4138791709693399e-002 -5.6473464018128061e-001
      -2.3160814318669103e-002 -2.1743548539249535e-001
      -2.0170098235721098e-001 -4.5416999175443590e-001
      5.4873151509400209e-001 -5.6015588531361793e-001
      -2.3991837328907244e+000 -1.1219986180368509e-001
      -2.3467320773015283e-003 -2.0756917062015101e-002
      -1.5240977782684090e-001 -7.9658692684936860e-002
      -2.5341067343699519e-001 7.3408020267144380e-002
      2.5674515436350792e-001 -1.3559285424397000e-001
      6.5257882606063655e-001 7.9451085943155719e-001
      -2.5030053510437505e-001 -4.5997162035957079e-001
      -2.5824928145194631e-001 -2.1305079610023556e-001
      -2.8674590957564305e-001 -9.4873465611875776e-002
      -9.9037462350566735e-002 3.6894985092285526e-001
      3.3227145517152584e-001 -3.5538301841796555e-001
      -5.2614694480951900e-002 -3.3083516430819665e-001
      -1.7537919656874462e-001 -8.8096270080796665e-002
      4.6459440294228084e-002 -9.8652585005444915e-001
      4.8014538633039877e-001 -1.4389905178904930e-001
      -6.5098610494053799e-002 -1.4135759749156485e-001
      1.6033664276608414e-001 -1.7633589364479715e-001
      -6.1675980694455620e-003 2.8078506999310493e-001
      -3.3123801596822505e-001 2.8931334155480959e-001
      -1.2085392034468737e-002 1.7503925445650931e-001
      1.5335506051517690e-002 -7.6138609883185396e-002
      2.5660380807308916e+000 -1.6226648828519455e-001
      8.5438182927402156e-003 1.2045308874882754e-001
      2.4503526803186440e-001 -1.7762206764132374e-001
      -8.9195228573183225e-002 3.1575639728830172e-002
      6.4783730195085612e-002 3.6568368647380789e-001
      4.4291527175779022e-001 4.4745988666189396e-002
      -1.5061542501854810e-001 1.4263316312103430e-001
      -8.1621585945554298e-002 -3.0523224623411743e-001
      1.8087178778127991e-001 2.3392910981586443e-001
      -2.0531941024580960e-001 2.4579257658519671e-001
      2.4155233450545870e-002 -3.7707094722529105e-001
      6.9394472492037160e-002 4.0325570784502340e-001
      3.1649977229078469e-001 4.2567358759781898e-001
      2.0460605378810620e-001 1.1846128285349643e-001
      1.5289939172155800e-001 2.7873045093521021e-001
      -1.2318754436258432e-003 -8.5116907346043338e-002
      -5.7710229599475960e-001 2.5399563832340211e-001
      -1.9604733329105190e-001 -4.6111535497114442e-001
      1.9612871391391382e-001 3.9557728477926202e-001
      6.0215093463081948e-001 4.1779516181088283e-001
      -4.7103208564326682e-001 -5.3158307089544860e-002
      4.4133902993055587e+000 -2.5828096442936760e-001
      3.6957404139376822e-002 2.5325884804620218e-002
      3.4153254654534219e-002 -1.2522109410669238e-001
      6.2266836220950146e-002 -4.0440902072268692e-002
      3.6214864430561094e-001 -1.0109280903107187e-001
      -1.6393256631393308e-001 -1.3993460471802260e-002
      -1.6588626686982044e-001 2.1967225661418607e-001
      -8.2594015286659161e-002 1.8503032111251741e-001
      1.5110436839698729e-001 4.2940949978507759e-001
      4.0102645811937937e-001 -1.1090563571821241e-001
      2.9622228499073938e-001 1.0906846689898626e-002
      -1.0617023076372581e-001 1.0022909807113457e-001
      -3.9055340977233244e-001 -1.8081335545384747e-001
      -4.1354193693218294e-001 6.5768551051722912e-002
      8.6995031387929217e-002 2.2780648416017363e-002
      -1.3839740959877964e-001 2.9908876900554917e-003
      1.3615729668524787e-001 2.0549677349540574e-001
      2.2047430539358436e-002 1.5704186616043647e-001
      4.5788540490129304e-001 6.3650779424041251e-002
      -1.0506243921743458e-001 -1.0066828057489231e-001
      -1.4930577452090293e-001 1.3674125851300617e-003
      2.1958043103404643e+000 -3.0283077764834626e-001
      -2.7808766295158760e-001 6.7041571252833582e-002
      1.0163372898778802e-001 -8.5923032098371058e-002
      1.8728242470167947e-001 4.2911324213907268e-002
      3.5966192603175517e-001 -1.3915693754900796e-001
      -1.0858340159541957e-001 2.2519990149901370e-001
      1.5440008387535331e-001 1.0657595004971819e-001
      -1.1676113607682963e-001 3.6472634121295350e-001
      4.7699083671682071e-003 4.1698915610599635e-001
      3.3835381944903425e-001 -9.8061625813770648e-002
      3.8584905422347038e-001 -2.6778385576555724e-001
      -2.3414471551063379e-001 8.5983669515357991e-002
      -3.1319960194723645e-001 -1.1281740804953637e-001
      -3.3012981053057061e-001 -2.2959790330844618e-001
      7.4823351788938008e-002 7.5055987984835926e-002
      -1.3643509207594021e-001 -3.2473948732077385e-001
      2.8659374689087125e-001 3.7808372594584622e-001
      4.1809427071366950e-002 2.2133011978465075e-001
      4.0992243749891749e-001 -3.3273069574287988e-002
      -1.3974829756724610e-001 -1.4253078940864441e-001
      -1.2012029562606204e-001 2.6488000146298318e-001
      2.7650885741325744e+000 -1.5201686984758159e-001
      -1.6511485645711232e-001 1.4009546344856355e-001
      8.0218735572232511e-002 -4.0001225462378456e-002
      9.2953445580268787e-002 7.3871861282036377e-002
      2.1849875398777571e-001 1.9285847459055917e-002
      -4.8879356660509361e-002 9.2151098320528271e-002
      9.1380294233251828e-003 2.9947469490589195e-002
      -9.8753159939827570e-002 2.2295742989579537e-001
      1.3678264058900103e-002 1.5348651072532413e-001
      2.0148835809902554e-001 -1.6283948679538029e-002
      2.2549863029182379e-001 -1.5810949887346737e-001
      -3.2581266563566652e-001 3.6389234252661544e-002
      -1.7772319274211112e-001 -1.4332230184626132e-001
      -1.9248330482559076e-001 -1.2042209950130854e-001
      5.2680775600853207e-002 1.1368725444135433e-002
      -8.2724534738353672e-002 -1.7516856106021483e-001
      1.6886569791969280e-001 2.1287034730805848e-001
      3.0755083025776030e-003 8.7696742572563061e-002
      2.4237261046647640e-001 -1.1136909101838375e-002
      -9.4945338077687277e-002 -8.0077294097923135e-002
      2.7037200041419157e-002 1.5479293080553791e-001
      6.7686176549529131e+000 -6.4842440354594813e-002
      -8.3273883029374482e-002 -8.4564369707007356e-002
      2.5746372849614802e-002 -1.8805151430652235e-002
      -3.0600289262731600e-002 -3.8356238858234221e-002
      1.0642113722603899e-001 -1.5802750105710323e-002
      -5.1893176095432668e-002 3.7594335092046391e-002
      3.3364716643142181e-002 -8.5072213797643698e-003
      -7.6044511362885661e-002 1.0939657020420872e-001
      -5.8739515990863307e-002 6.7150250351509927e-002
      8.8792817574709706e-002 5.1048180267174115e-002
      1.1456183700838522e-001 -7.8283384379479071e-002
      6.2069633230147261e-002 3.4493182863099263e-002
      -9.4520906535450658e-002 7.8959564620999248e-002
      -8.8083624969647889e-002 -3.5186686695151660e-002
      -6.6015164198043475e-003 -8.8097110285899491e-002
      5.7567846263791279e-002 -8.4071469056979653e-002
      7.6841923040826418e-002 9.5262252716262250e-002
      1.0112041749783351e-001 3.9489683655261620e-002
      1.0984871126523431e-001 -7.1094652208336662e-002
      1.0814160123294189e-001 6.1023273375954298e-002
      2.3543480768180920e-002 7.6666201792647215e-002
      1.2859753350854337e+001 -1.1017396410529415e-001
      -1.2937400307381464e-001 -1.4199348527834035e-001
      4.5116125527631196e-002 -2.7186404909151914e-002
      -3.4929172743740820e-002 -4.6795943891421998e-001
      1.6087474303710653e-001 4.5009146765189821e-002
      -7.9659955673891919e-002 6.8904256880558470e-002
      5.0635023801187777e-002 2.2581613855889842e-002
      -1.0743470963147950e-001 1.6918287649437305e-001
      -8.8509668610745371e-002 1.0572393596215375e-001
      1.4846121883635638e-001 -8.1632233842066533e-003
      1.6636526255536410e-001 -1.2359832186470789e-001
      9.1033425230708523e-002 8.2763425329184844e-003
      -1.3332610998183059e-001 1.3673940035791401e-001
      -1.4843614414290068e-001 -6.0680878974386704e-002
      -1.6546937228664398e-002 -1.2099630280215480e-001
      9.3172835725081726e-002 -1.3338344307693961e-001
      1.3489351302681094e-001 1.5998490411469571e-001
      1.5453504753351885e-001 7.1735006942012861e-002
      1.8177487360127900e-001 4.6899335453843177e-001
      1.6451631381196882e-001 9.5045604866265163e-002
      -6.3686404394077293e-005 1.1201841770618061e-001
      1.3353159309017682e+001 -1.2054038350142500e-001
      -1.2217041730374474e-001 -1.3281402920293808e-001
      5.1852098387817930e-002 -3.1489565103628242e-002
      -3.5774412832221936e-002 -4.4435828844104147e-001
      1.6494819470217248e-001 2.9595073156330361e-002
      -7.4288320280669437e-002 6.4173474659022789e-002
      6.9587614517486698e-002 2.3742027497587984e-002
      -1.0315523412478252e-001 1.6296233530481294e-001
      -8.1135154507514268e-002 1.2134625711429609e-001
      1.4988890444284886e-001 -1.2641621242015714e-003
      1.7155937643225247e-001 -1.3101401279359323e-001
      9.8265265712688149e-002 -3.7921284853338075e-003
      -1.4587607030637220e-001 1.3953131277289577e-001
      -1.5171957013942483e-001 -6.5171756134665568e-002
      -1.4930576551614968e-002 -1.1944119382531140e-001
      9.0425738177870779e-002 -1.4447102755578090e-001
      1.3453062879938243e-001 1.7233533502081180e-001
      1.8341525494100896e-001 8.4974616911804496e-002
      1.9020945593136049e-001 4.7882048250105086e-001
      1.8209284672961232e-001 1.0294757128458452e-001
      9.9132859734759552e-003 1.2454767749982343e-001
      2.3365820053693434e-001 5.4826245797507767e-001
      7.0277183794583131e-001 3.0128961033350438e-001
      9.8892798721146438e-002 2.1162791137407586e-002
      -7.2680980595640682e-002 -3.2071110308759476e-001
      2.1691073354506368e-001 -2.2646303434357237e-001
      -1.0487395857026026e-001 -2.3264937765886903e-001
      1.9463583490789288e-001 -4.9980904612719430e-002
      -2.4170616622717198e-001 9.1344055828712342e-002
      5.8794959127657448e-002 2.4070061276308766e-001
      -7.3308539121461819e-002 -4.7079734956522762e-001
      1.3613985380418131e-001 3.9550532554048246e-001
      -1.7699646016624382e-001 -9.7905536439895441e-002
      -5.0954823777636959e-001 5.1386331413424226e-002
      6.2332857277137721e-002 -2.0908590975519836e-001
      3.1672552632665232e-002 -2.8086985115423757e-001
      -1.9165517047060765e-001 2.1339234417926828e-001
      -2.7932620236387901e-001 -1.4396959611826932e-001
      -4.6645599544568206e-001 7.9581849200650756e-002
      -7.6241873140278604e-001 -2.4101385841465761e-001
      -4.3208968464373881e-001 4.3060037716985558e-003
      6.2464684656727343e-001 2.6808114847455899e-001
      1.5068448179139842e+000 -4.9089244270075896e-002
      -2.1660795522918339e-001 -2.9499245626450671e-001
      -5.0076277645699017e-002 2.8429353955194797e-001
      -3.6806169832743013e-001 2.5043831496089228e-002
      8.3945412269860104e-002 -3.9573550896919013e-001
      1.5562415351886771e-002 -1.4910304667967894e-001
      2.3652662254089393e-001 2.5391510147543678e-001
      3.1463203445893084e-001 4.1412461990999783e-001
      1.2577013197870082e-001 1.6604072944928755e-001
      -4.6489671667178496e-002 7.1158749356765583e-002
      -4.5047522623158184e-002 -1.0040306635701282e-001
      2.6067521241083007e-002 -5.0357447177672043e-002
      -1.7802779539891772e-001 -1.6814195778523500e-001
      -3.9291861598328225e-002 -2.7376833980201032e-001
      5.4416538817323834e-001 -4.3954608093636999e-001
      -1.3651059950418215e-001 3.1769581090635102e-001
      1.2830609982683172e-001 1.8311936680397451e-002
      1.9566178686924510e-002 -2.7178583670205103e-001
      1.7661509376051018e-001 -1.6052130435870685e-001
      -5.8175139146841033e-002 -9.6678550905807903e-002
      3.9454671314007000e-001 -2.1671153460106815e-001
      1.3806268796017769e+000 4.5105324098299621e-002
      -7.5016181275764537e-001 -6.9584226050549391e-001
      -2.9075272852100625e-001 5.2684156005954309e-002
      -2.3905700107501138e-001 -5.1977759228791764e-001
      1.2809055930407123e-001 -6.3471917717623838e-001
      4.9656272994571544e-002 -3.6773799455911904e-001
      -6.2775498912588845e-001 1.0852506246945264e-001
      5.3162647470112318e-002 6.1188930102917682e-001
      5.0555277836578472e-001 2.3513756025606899e-001
      -1.6115603989630156e-001 2.4712368831836387e-001
      1.2197457346956136e-001 7.6490437298515124e-002
      3.3171161749608366e-002 -1.5271557196611432e-001
      -4.5614196473947161e-001 -2.5059178887878425e-001
      -1.4654439966727384e-001 -4.0068162328770501e-001
      2.0265024657693112e-001 1.2841117959845202e-001
      -2.4112317958548923e-001 -3.1487541386881684e-001
      -4.3107986079614087e-002 -3.3207745400221222e-001
      1.9736701972196283e-001 -3.3460377432929950e-001
      3.5389795071020141e-001 3.2644859114258468e-001
      -5.2680049664952855e-001 -4.2255031175377505e-001
      2.9904397974587638e-001 -1.6631163954688979e-001
      -2.1608197952385799e+000 2.5734133592593789e-001
      -2.9515790983663814e-001 -7.8930227350174864e-001
      -6.7277794903319110e-001 -6.2530193361954131e-002
      -1.1791857945599196e-001 -1.0690168292129819e-001
      -2.0600861780080557e-001 -7.7295386760535309e-002
      -4.3242702890140200e-001 -4.4850267197910404e-001
      -1.9309056367119432e-001 1.1224187094964551e-001
      -1.0560297843633531e-002 7.5807773871342310e-001
      4.3289332414335707e-001 -5.3013296249683506e-001
      -2.3606556148538341e-001 2.6111910421789120e-001
      -4.4223637759493867e-001 -2.6207581492885368e-001
      4.8211459009332552e-001 3.3635770980296381e-001
      -3.5055846103236038e-001 -2.2522914737397148e-001
      -7.4959915821269762e-002 -2.8640319980674211e-001
      1.7177808892169796e-001 1.2527205581842718e-001
      -2.6458942839585586e-001 1.6156129641039826e-001
      1.0797359257506366e-001 -7.9990097472084765e-001
      4.6819033262795240e-002 8.4175935243085920e-002
      -4.5777452700221717e-002 -8.4614755833232233e-002
      -5.4766554833567982e-001 -4.2176337973234007e-001
      -2.7095560480027026e-001 -2.1927304213231366e-001
      -3.4968852339753638e+000 -3.9733516915872352e-001
      -4.9412462079120545e-001 3.1906995533436379e-002
      -1.8945393782086295e-001 3.5249618010495289e-002
      2.0586996696376331e-001 2.9107971293755885e-001
      -2.4118708153979478e-002 -2.0921185492631689e-001
      -4.4522672568293134e-002 -2.2809416216808875e-002
      -1.4497716655858883e-001 -2.4770539707085346e-001
      1.2045485261447873e-001 2.9423938380302672e-001
      -2.3646748985983115e-001 -5.9273154215950630e-001
      -8.1777884063529413e-002 5.1847554696206749e-002
      -7.0180992375293030e-002 -2.5418379181895218e-001
      5.0008293713858384e-002 -2.3719477376711748e-001
      5.4966861373982524e-002 -2.1528588013441055e-001
      -9.0713675827125473e-002 5.7909022714409575e-001
      -9.4372690132870451e-001 2.1793771703342893e-001
      2.2301105301496571e-001 2.9705831576682624e-002
      1.2957932050896048e-001 7.0982976645448406e-002
      -2.3286854417500846e-001 -1.0810465603152157e-002
      1.1621863964312822e-001 -4.7811426796324519e-001
      -3.8430379775641925e-003 1.3573247679799014e-001
      -1.7995553225706609e-001 2.3009205267312770e-002
      -3.1348269547211505e+000 -4.8539616079411857e-001
      -4.8281828282850875e-001 -2.0555133243656981e-001
      -1.0290160346243404e-001 -6.4732737633363666e-002
      1.5513270285389502e-001 3.1122996635324135e-001
      3.7574545386040228e-002 -4.7641628809406883e-001
      1.4859358551736720e-001 1.6485449259034493e-001
      -9.7602555656852996e-002 -1.9531920033014491e-001
      3.4637701466144494e-001 2.3183982114251919e-001
      -2.2111282860951767e-001 -4.9801250429751820e-001
      3.8267572164797668e-002 -2.3727865678689319e-001
      -7.7544816618185949e-002 9.4531390266030899e-002
      -1.2179386596669847e-001 -1.0356929992845090e+000
      2.0878784358131772e-001 -3.6693191550347742e-001
      -1.2147412846602694e-001 3.0866401200687071e-001
      -7.1165845927212135e-001 1.4515264829660590e-001
      1.1750633794180367e-001 -4.5177657274317573e-001
      5.9590447823807111e-002 -1.6082673399545799e-001
      6.1709233795784905e-002 -5.0429068594195958e-001
      8.6339582883409510e-002 -2.5048736107426400e-001
      -2.4643041262845619e-001 1.7917921169034706e-001
      1.9200231082008451e-001 -1.5393867938552203e-001
      -1.0261035286422138e+000 -2.4189795610280607e-001
      -7.0582683272326441e-001 -1.5194604875804796e-001
      -3.4257995274692127e-001 1.5521109042465223e-001
      6.4606380393869220e-002 -8.6479940897603816e-002
      1.8534723459434635e-001 -1.0507203550094103e-001
      5.5158200749969089e-001 4.4153276688035298e-001
      -4.8520888625524855e-001 -1.4271295217571300e-001
      -3.4908063039847709e-001 -2.9773225410198229e-001
      1.8809888779090117e-001 -2.2165146719231071e-001
      1.4544279377481636e-001 5.9974871504357596e-002
      1.2259752152129384e-002 4.7981816832659707e-001
      -3.4920594072635308e-001 -1.0190059779403831e+000
      2.0484307173060209e-001 -8.5368786714552225e-002
      1.5485023395695994e-002 -4.9758817146235135e-001
      -3.7254660647901305e-001 -6.6853800397956339e-002
      -3.4364063700827086e-001 -5.6334647979010544e-001
      3.3601522231633757e-001 1.4697892547861796e-001
      -9.0896002527101269e-002 -6.5842235164128182e-001
      1.8730046405396765e-002 -3.4684537230868985e-002
      -2.3961388783909299e-001 -4.7153312941722531e-001
      2.9731385070864236e-001 -3.7300679100463591e-001
      -2.4718363367072165e+000 -2.1221367607019498e-001
      5.9993135485673213e-002 -2.0562841171463583e-001
      -2.0707253611815585e-001 -3.4334795615964697e-002
      -2.1183013642439252e-001 3.2495126096322158e-001
      2.0883348519363173e-001 1.4020939170002919e-001
      2.7432364552785016e-001 6.0671494772322931e-001
      -2.3564317876462723e-001 -2.9307578545771135e-001
      1.2322107642515097e-001 -4.3431777352672973e-001
      -4.2471627105265769e-001 -1.7331317611311006e-001
      -7.7636454380373365e-002 -7.8283177292961359e-002
      1.0023282860975348e-001 -3.5127675814821230e-001
      1.6650802198286369e-002 -2.6922553627649143e-001
      -1.7262702342124042e-002 7.0924835191962271e-002
      -4.6412585592162763e-002 -5.5702608984412405e-001
      7.8894343573993365e-003 -2.6249064406816375e-001
      -4.0083080913609437e-001 -2.5366549581905651e-001
      2.9627079073465329e-001 4.4328974998699804e-002
      6.5507320842453046e-002 -2.7515198815791540e-002
      -3.8956369465130741e-001 3.2704572088932772e-002
      -4.0028711723041288e-001 -9.7487378831760691e-003
      -1.0340502088286151e-002 6.0700771029262447e-002
      1.8792697236317966e+000 -2.9761152207628705e-001
      -1.1152278602033586e-001 -6.7601553807504752e-002
      6.9007120181226775e-002 -1.4110977436465756e-002
      -1.1117960334362843e-001 -2.3983693789456077e-002
      1.4422559758594564e-001 1.5844615329274253e-001
      2.0454386632009228e-001 1.7435291365982997e-001
      2.2024086315586926e-002 -2.2410451147045948e-001
      5.6757197865639521e-003 -3.1933253879535983e-001
      -1.2754256736030348e-001 2.6756754320340681e-001
      -1.6850132008962360e-001 -2.4435941328104738e-001
      -2.7610005537230090e-002 -1.7526830508868399e-001
      1.3435309336334386e-001 7.3539242412779066e-002
      1.7653036284366425e-001 3.6547130352907359e-001
      -1.1437436550656301e-001 -8.7074353467651612e-003
      1.9969266250800463e-001 -4.0333978309040300e-002
      -1.0115074020644629e-001 -2.0489865775190008e-001
      -1.7641527777749008e-001 2.1469969267294074e-002
      5.8745275442420107e-002 -6.9128421899873824e-002
      2.4996132690703721e-002 1.2503286578285630e-002
      -2.9136957784239165e-001 -5.4216341376599378e-002
      -8.7529170008569523e-002 -1.5292056034886625e-001
      5.4133147644802442e+000 -2.4056424890863493e-001
      -4.8043940905686915e-002 5.5814968109049960e-003
      4.5401780142854342e-002 -8.4745070873331760e-002
      1.2373713259300978e-001 -4.0607041637369919e-003
      3.8678409610646447e-001 -1.0300673111104375e-001
      -1.4990030191751033e-001 3.0942653976847864e-002
      -4.8074304985355767e-002 1.8341067262721275e-001
      -1.1492334910458986e-001 2.1927879568950165e-001
      5.1660150113329958e-002 3.9715218348213355e-001
      3.9963395142073366e-001 -1.3037570768492199e-001
      2.9354749803872016e-001 -4.2211140289326696e-002
      -1.2462869400402572e-001 9.2899640469410877e-002
      -3.5628268853242151e-001 -1.6710377581334479e-001
      -4.3048823522552609e-001 -4.5293232922088957e-002
      -1.0560833432820268e-002 1.0433134846908386e-002
      -9.1953043089784942e-002 -6.7633918025175793e-002
      1.6381986341659313e-001 2.0757293698878670e-001
      6.5192503112497330e-002 1.7011526043037922e-001
      4.0163127518142394e-001 5.0082537387313913e-002
      -1.2441778230023506e-001 -5.4712071467715416e-002
      -1.4656430261105249e-001 8.2798404415825061e-002
      2.0233890641057548e+000 -2.9172560438319989e-001
      -2.6652770638022161e-001 5.3576861106790497e-003
      9.3795473876586349e-002 -9.7663526084159000e-002
      1.6617005601426399e-001 5.8828252068725953e-002
      3.6287068974528464e-001 -1.2105362464708974e-001
      -1.1623711033748178e-001 2.3920334599374823e-001
      1.3631013876976067e-001 6.5027374256161299e-002
      -1.3717824659996636e-001 3.7454958820241779e-001
      -1.4426415465907980e-002 4.1290410318248322e-001
      3.4213296633180484e-001 -9.4088947971492337e-002
      3.8695108270946699e-001 -2.7084609167507206e-001
      -1.7084238119124592e-001 9.5383636111052383e-002
      -3.1440053473213764e-001 -8.5720436821967602e-002
      -3.3153959769044966e-001 -2.2022068100016937e-001
      3.8353205232813485e-002 6.7289504279702442e-002
      -1.3983616564210313e-001 -3.1628052242675830e-001
      2.8620128055155802e-001 3.8148846203888936e-001
      2.4309484145774819e-002 2.3413080913971490e-001
      4.2203628070896743e-001 -5.5897273947387825e-002
      -1.2693930315793772e-001 -7.5413494675834747e-002
      -9.7367297684174514e-002 2.7278358797505026e-001
      2.4655438392479638e+000 -1.5603796609043855e-001
      -1.6623983280827376e-001 5.6253161735865490e-002
      7.2362295604038701e-002 -4.3880532854711704e-002
      9.1690324625730901e-002 5.1358171987962734e-002
      2.1617186371352748e-001 3.0301343714926727e-002
      -5.4607572184713307e-002 9.8095489151435372e-002
      -9.2818023833060367e-003 2.4843396070442725e-002
      -1.1947204816247035e-001 2.1803242415020987e-001
      1.1722037075153326e-002 1.5082187828717630e-001
      1.9069978692090114e-001 -5.0855234105324561e-002
      2.3743379281864160e-001 -1.6000602834453939e-001
      -2.0606609888609961e-001 5.0422750230407563e-002
      -1.8525022651125517e-001 -5.6928843600433918e-002
      -1.8610067283757381e-001 -1.2051776444385966e-001
      6.6612053950112174e-002 5.4014258695296941e-002
      -7.5169530931155831e-002 -1.9407759331581623e-001
      1.6805710401129920e-001 2.0762987683753875e-001
      -2.6876391011417533e-003 9.9423807985672602e-002
      2.5301781233239545e-001 -7.0489670111176045e-002
      -2.9975622001911874e-002 -3.4647638254227071e-002
      4.1414369979401858e-002 1.5420457425166523e-001
      5.4104005075302002e+000 -6.7334799453416930e-002
      -7.0130767745210196e-002 -6.7839540255801190e-002
      3.1733932802747375e-002 -2.3608268235423613e-002
      -3.8755062488228777e-002 5.9862530065362641e-003
      8.8028804488417850e-002 -1.1091182606078324e-002
      -4.5678897113775548e-002 3.5044358022821659e-002
      3.6174160299954523e-002 -1.4331469079370697e-002
      -6.0831250652737888e-002 9.3091183155875543e-002
      -4.8000672358086666e-002 5.5555187288593419e-002
      7.9783148654775204e-002 3.9978490524829859e-002
      9.5883642712725162e-002 -7.2058119581564981e-002
      4.4975626758903701e-002 4.3681112057560268e-003
      -7.5548745390132982e-002 7.1170995015644459e-002
      -8.4500052592094282e-002 -2.9889204262051463e-002
      -1.7027558963848569e-002 -5.7811207704933386e-002
      5.5369515323704308e-002 -7.2164944272245055e-002
      6.8355570078917835e-002 9.0203007012031225e-002
      1.0981442615293525e-001 4.5980548752553460e-002
      9.3440519509122910e-002 -5.5098355927008222e-002
      8.8266623902074695e-002 5.1139753719555224e-002
      1.5159069997237481e-002 7.0853162089629745e-002
      1.3695418099445950e+001 -1.2724369070758199e-001
      -1.4138092193578813e-001 -1.4111632484634451e-001
      6.2118191688390202e-002 -3.6231804371247081e-002
      -4.2312698350197436e-002 -3.6422291655122074e-001
      1.6612174289923243e-001 3.8014333884012409e-002
      -7.4182370097724201e-002 6.4023783887965230e-002
      9.9695762211193376e-002 2.9797520608196258e-002
      -1.0678857712475984e-001 1.7570099064408337e-001
      -9.6892381336038461e-002 1.0977780685031080e-001
      1.5948226495960113e-001 1.1530885149470843e-002
      1.9266013958213193e-001 -1.2509493887208578e-001
      9.7046387616306032e-002 -2.7756302965467146e-003
      -1.5027649820968614e-001 1.5282321990190340e-001
      -1.5365294050673856e-001 -7.7239092655475974e-002
      -4.6406854196044518e-002 -1.2534643717205690e-001
      9.7984719671575210e-002 -1.4290451890531339e-001
      1.3995636693354821e-001 1.7141389776467525e-001
      2.6588056177712960e-001 7.4507868572173036e-002
      1.9002653865021865e-001 3.8936581631958067e-001
      1.7922729337245122e-001 9.1882558368911640e-002
      7.3103018601909592e-003 1.3339503050613413e-001
      1.4246750160187485e+001 -1.3050767624766560e-001
      -1.3831830653313612e-001 -1.5415488290228546e-001
      6.2758778749252259e-002 -4.1665991396941555e-002
      -4.9377773113769084e-002 -3.1860326827422952e-001
      1.6886163599082363e-001 -6.9102673068543339e-003
      -7.4494434711713728e-002 6.7664218964242143e-002
      1.4177679642672600e-001 2.9011761909975359e-002
      -1.0876804283975768e-001 1.7968439937931463e-001
      -9.2817797965044177e-002 1.2691125187710262e-001
      1.6558495811437168e-001 1.0702275503590271e-002
      1.8604810485288431e-001 -1.4106528734512186e-001
      9.9250691787198086e-002 1.0339122551831172e-002
      -1.5391416571199462e-001 1.5480021679466413e-001
      -1.6263587701058843e-001 -8.8291600124418834e-002
      -4.1850495293335406e-002 -1.3836213415283352e-001
      1.0526438603096219e-001 -1.5027917793929552e-001
      1.4274337380528787e-001 1.6957814146318370e-001
      3.3623162027703374e-001 7.8661516305805881e-002
      2.0592928840427535e-001 3.4075589548657548e-001
      1.9079182820443494e-001 1.0894724212793075e-001
      8.4051277315221815e-003 1.3020548955229111e-001
      3.8252564778754472e-001 3.2488718643649439e-002
      -2.8641186086514908e-001 3.2598203142791771e-002
      5.0422782984583192e-002 -7.4747539426061479e-002
      -1.7388648085762679e-001 1.0132308346241884e-002
      -1.6804275443778180e-001 1.1611209682206742e-002
      1.8319552086915503e-001 -1.4902795198149138e-001
      -4.1449573377205373e-001 2.6543231764029612e-001
      2.1628375329077301e-001 -5.7726673049500798e-002
      -2.5661155177674572e-001 -2.5387924167902304e-001
      -1.1903382241590937e-001 2.4040332942004999e-001
      2.1498307177814566e-001 -1.8006966742813493e-001
      1.2495834489235164e-001 -3.8226175256215927e-001
      -8.4300474270013720e-002 -1.6542851781576759e-001
      -3.5149624705364807e-001 2.8226387627785322e-002
      -3.1786208558564216e-001 -1.2050925305829852e-001
      -1.2694313328332804e-001 7.1407872420067842e-001
      -8.2814748036050725e-002 1.9443171822246536e-001
      -3.5220349471865697e-002 -2.3429616675022448e-002
      -1.9834727273340295e-002 3.0990142830046008e-001
      8.1696136157784996e-002 4.4938304514312549e-002
      1.7875795142238918e-001 -1.1276075688131998e-001
      3.2049195042810270e+000 -8.6830617890808952e-004
      -3.7639899566082741e-001 -2.2757897043104799e-001
      2.0641014578445516e-001 1.4082693117684786e-001
      -3.5337294052734258e-001 3.5188295728873720e-002
      3.2164988739486873e-002 -8.9072125310843298e-001
      3.5318731160639977e-001 2.0312554382062933e-003
      -1.8398974244432087e-001 3.6820589747917315e-001
      4.0232398578567274e-001 9.6912410788350362e-002
      -1.9360445464551129e-001 -4.1507164994415049e-002
      1.3592593808928066e-001 7.5488135620889463e-002
      3.5415229988473179e-001 4.6422229297393910e-002
      -1.9289799808892244e-001 -1.6871375536628069e-001
      8.9860780756270936e-002 -1.8708308871750570e-001
      -2.1369288774573481e-001 -4.6118243676978234e-002
      -6.3273969747443537e-002 -5.6279140838391317e-001
      -4.8679472148026787e-002 2.5975455080022009e-001
      -1.1921846043497455e-001 2.8112469759915582e-001
      7.1346142232317819e-002 -3.6420280005138733e-001
      1.6846110807732603e-001 5.6785140184694417e-002
      4.9076203738759490e-002 -1.8243620673835761e-001
      1.0411487509389732e-001 3.8533584862265359e-002
      3.3267516583942238e+000 -2.6195793537601042e-001
      -1.9855377172969452e-001 -1.8879633359392856e-001
      1.4588144297581276e-001 1.4234031104489911e-001
      -8.7323131680726862e-002 -3.5978510074488340e-001
      -3.5610569295985363e-002 -6.1966558563332230e-001
      -2.3643226042929194e-001 -5.4224491269971553e-001
      -3.9716057955546552e-001 -4.5515347831348051e-002
      7.2909248483829445e-002 2.7058360843341367e-001
      5.2740092282038054e-001 6.0736276881434703e-001
      1.3862440106666765e-001 -1.9817823993865102e-001
      2.7140630922188669e-001 2.2070687766652636e-001
      -2.5952291871512878e-001 1.7397642591905269e-001
      -1.5766093437741580e-001 -2.3659258156041940e-001
      -4.9784392024235416e-002 3.1157335039219047e-001
      -2.4537094792701336e-001 6.2920715610499667e-002
      1.5031005611375239e-001 -2.1827879585049559e-001
      -5.1500844445470040e-001 -1.1169877272696990e-001
      1.1676715263876995e-001 -2.4965787816526680e-001
      3.0509139182241996e-001 2.3080892276173273e-001
      -2.5806963959943946e-001 -4.0557632489384771e-001
      -2.5425855074244325e-001 2.1310016804088025e-001
      -2.8429141292381943e+000 8.9541512125425021e-002
      1.9784905342497419e-001 5.4708625854433569e-002
      -3.1793709806543713e-001 -6.3990889187500760e-002
      6.4641477915179824e-002 -1.2683336194240397e-001
      -1.9851134617124616e-001 2.8856012464502118e-001
      -2.5161754818461723e-001 -6.0816960813480647e-001
      -5.3688545765021994e-003 -1.3303153486955721e-001
      -1.1218605308297783e-001 5.9220532707923823e-001
      4.1979504435895565e-001 -1.3017281026979130e-001
      1.2722366048739941e-001 -2.8450186465441871e-002
      -3.0313912193109610e-001 3.3882154895740750e-002
      2.1797882914055842e-002 5.4094150219097115e-001
      -7.9945330594093686e-002 7.9322154309328805e-002
      -4.5166769388794596e-002 6.2905956333543078e-001
      -1.7882882827773977e-001 7.7524205628861715e-005
      -4.7164704896094742e-002 3.4736955017649962e-001
      -3.2407998181465997e-001 -4.0380241393673905e-001
      -4.5036037334890572e-001 3.0445874677562806e-001
      1.6975098041343439e-001 -2.5445145972707195e-001
      -1.3344420122645595e-001 -4.7716140603008224e-002
      -5.4688135106751490e-001 9.2929372511009939e-002
      -4.4914281030991159e+000 4.7947078616600490e-002
      1.9525629463044130e-002 3.6684368308289966e-001
      -2.2378000450638141e-001 -4.9592623011289798e-002
      -2.2841425911455235e-001 -1.9629791708361027e-001
      -9.4363098356520098e-002 -8.9553271806796550e-002
      5.2273977942287816e-002 -5.9846033995213356e-002
      3.7742844250701529e-001 -5.1268706961385586e-002
      -2.3263638004619519e-001 2.8859809575320328e-001
      4.3905474950155579e-002 -4.0986771338634687e-001
      3.6644304557384148e-002 -1.6616881698375435e-001
      -1.1782671074194001e-001 -2.3788238795687686e-001
      -2.3157077307059246e-001 1.5068768363282817e-001
      -3.3120886646530831e-002 -9.5131732662625090e-002
      5.0373015216448581e-002 5.6462645000554823e-001
      -3.8163753150724800e-001 1.3341294969135112e-001
      -9.4003582000063451e-002 2.7532124629777860e-001
      -7.0961998466560428e-002 -1.3980873335227659e-001
      -5.0904647137825232e-001 2.4980227835775393e-001
      -4.5274221896753425e-002 -3.5887297145736413e-001
      5.6466721017003924e-002 2.2087759921521019e-001
      5.9229135850829437e-002 1.1367652960309067e-001
      -6.8005017505554610e-001 -1.9688000139272699e-001
      1.7618018662916072e-002 -1.8373897083373505e-001
      -1.1480636711416975e-001 -1.9494852025203643e-001
      -3.6760785621236407e-002 1.9270166228401359e-001
      -2.0375522014861761e-002 -1.1829329709381951e-001
      1.7515532804029094e-001 -9.1425434735721622e-002
      3.9256203532726131e-001 -4.8530033274180241e-002
      2.1651558983726321e-001 -7.2219024269280108e-003
      3.5279001783180208e-001 -3.1308691984941994e-001
      -1.5333408581454416e-001 -2.4486884647024218e-001
      1.0462643919441704e-001 -1.1179191156654279e-001
      1.8370576798307733e-001 -5.0227061952561036e-001
      4.6629812216728134e-001 -2.2261181989273318e-001
      8.2479150889188377e-002 8.5586709085659310e-002
      9.9121696872552206e-002 2.6341285032013084e-001
      4.2093302624376722e-001 1.1254175325854229e-001
      1.2741700168028813e-002 -5.1730425156917370e-001
      -9.6916510387885665e-002 -1.1588377366983062e-002
      -1.1591694990838500e-001 6.0591079170446031e-002
      -3.0600562126916103e-001 4.4632549218733208e-001
      -2.1126054655304136e-001 -5.6098076058152648e-003
      -7.3320519650287505e-002 -8.0716147891485690e-001
      -5.9943477712717874e-001 1.4253802575182484e-001
      -2.5822939593087990e-001 1.2520207664879304e-001
      3.4198938289086322e-002 -5.3678681587317305e-002
      3.2009116666532439e-001 -6.1657113757908034e-002
      3.2646518586236423e-001 -2.3179866449977507e-001
      -1.0794075985206465e-001 1.0545749675312183e-001
      -1.3774678194172521e-001 -6.3684763667638811e-001
      4.2329396427475896e-001 1.4158711156781117e-001
      -2.5776229760077701e-001 -2.3625947745754708e-001
      1.3570543822762143e-001 3.1978455423652313e-001
      6.8385461522584923e-001 -5.8404849395242708e-001
      5.0650831152205011e-001 3.5394844565183875e-001
      -1.8197272484511703e-001 -5.2116982320287686e-001
      1.6050967524611096e-001 -3.1091494599991604e-001
      1.5230820060022559e-002 -2.5093203273003595e-001
      3.2548472581767551e-001 4.3899861321412936e-001
      8.9980680429683657e-002 -4.6062748107960888e-001
      -2.4186388400780559e-001 4.1032926817001680e-001
      -2.7550803546094793e-001 -1.9843021310918402e-001
      -4.7570034436203862e-002 -1.5997825265747215e-001
      -1.9794900860351479e+000 -4.0797003652137048e-001
      -2.6750706309338176e-002 -3.3782637083041511e-001
      -4.7606963763456184e-001 5.9199255265848114e-002
      -6.0029934176969849e-002 1.8224596900528614e-001
      1.3403747315668302e-001 6.0935528810485040e-001
      1.3691438605235320e-001 2.6238149310535752e-001
      -5.3838243576140488e-001 7.1421967913193676e-003
      1.7500554851943093e-001 -7.0555909403870665e-001
      -7.0676708468383520e-001 5.2195101749551470e-002
      -2.9313201917777121e-001 -5.2572317773308641e-001
      1.8709903682030962e-001 -3.1739100407975490e-001
      1.9395515385611037e-001 -4.9252417274380678e-002
      3.5943855289814053e-001 2.9274379433656278e-001
      -1.9716628054053054e-001 -9.8433696340423468e-002
      2.1783307488409118e-001 -4.0319365447511990e-001
      -6.3713920421030101e-001 -2.3139865363970319e-001
      3.5930722158731676e-001 3.0216713161211900e-001
      2.5824558046389834e-001 2.4882630126427666e-002
      -1.9706257062991228e-001 8.7593355560691755e-002
      -6.9183124485166592e-001 -2.4370615660021186e-001
      2.2660051688259207e-002 1.2357124765274433e-001
      1.9507094648554208e+000 -2.5223601800400691e-001
      -3.5502176575906108e-001 -8.0899161376925335e-002
      -7.5563457265499664e-002 2.6335003716340417e-002
      -8.4749421582657553e-002 -1.3789984050460788e-001
      1.6934117883375774e-001 -5.5048019383581483e-003
      1.4642895069806608e-001 2.8811538108833856e-001
      -2.5308840498207519e-001 -3.2458034078542136e-001
      -7.8298987197443257e-002 -3.2573194116361726e-001
      -2.9756190816392308e-001 2.1045496745807662e-001
      -7.0878513222127668e-002 -2.2796902122766954e-001
      6.5551070219316346e-002 6.1045546018971518e-002
      4.6709047911477918e-002 -3.7253178664572423e-001
      6.5674808422971458e-003 1.3211369061724385e-001
      -2.5326003817003967e-001 -2.2500969846570654e-001
      -2.0882437461562379e-002 -2.0538599588571355e-001
      -1.9507130763984640e-001 -3.3156123212471722e-001
      2.1223099597878775e-001 -3.1792231324014708e-002
      3.4460790612694098e-001 4.4383526698703746e-001
      2.7543915469873365e-001 -3.2278254973262838e-002
      -5.3167169259441516e-001 -3.4941237729892893e-001
      5.4389669830636533e-002 -1.1560766695277466e-001
      7.1476509269844621e+000 -1.6595691245870905e-001
      -9.8817147441500816e-002 -1.8163675772776090e-002
      6.7000386554471866e-002 -4.2964639154019810e-002
      9.5607534468506200e-002 -1.8781163536490928e-002
      3.9365410263654016e-001 -1.1321447046163786e-001
      -1.3181826387252446e-001 8.0141184120071179e-002
      5.4632764243467836e-002 1.5675179522195903e-001
      -1.2294938009683422e-001 2.2723178264060442e-001
      -1.9110575070071367e-002 3.0720878860672846e-001
      3.9362125017058286e-001 -1.0049715281087221e-001
      2.2450282902956678e-001 -1.1077259122633466e-001
      -1.3477361409799568e-001 9.6564578262457887e-002
      -3.0052089967251339e-001 -1.5111662644293891e-001
      -4.3397321239458009e-001 -1.3354748389368196e-001
      -5.9401517109155942e-002 2.1677246263763609e-002
      -3.9628284379416893e-002 -1.0907013833376779e-001
      1.7954807841970769e-001 2.2801535598973197e-001
      9.5149717981122692e-002 1.5012974195714265e-001
      3.1705278797973441e-001 5.3723443744888348e-002
      -1.1924697857916403e-001 -5.3444599764635115e-002
      -1.6260829782318173e-001 1.4856572719580688e-001
      2.0893269065640210e+000 -2.9818629957142934e-001
      -2.6617269748451489e-001 -3.4753182577794760e-003
      9.1383528129379263e-002 -9.4304343809872390e-002
      1.5329272204427441e-001 3.2975528973504059e-002
      3.6325399127627866e-001 -1.2401074457018650e-001
      -1.1816942921440798e-001 2.4245494033705892e-001
      1.3122584200074033e-001 7.5936056626776008e-002
      -1.4864243268115784e-001 3.7132787867139100e-001
      -1.2490313436866898e-002 4.2082636502109577e-001
      3.5417385719685734e-001 -1.0023316318129992e-001
      3.8544441332892115e-001 -2.7526067227816964e-001
      -1.6220407549300439e-001 1.0414103988280088e-001
      -3.2238071079210717e-001 -8.9017282750101942e-002
      -3.3554717245333265e-001 -2.1864627774299566e-001
      3.3714761348010901e-002 4.8150546190444288e-002
      -1.3574602686780435e-001 -3.1846883837235146e-001
      2.8317194244874838e-001 3.7431728386369939e-001
      2.6000403260061519e-002 2.3494739427528064e-001
      4.2650646351194882e-001 -2.7795443755542791e-002
      -1.4944881647358263e-001 -6.3841940700737440e-002
      -9.7947880777899385e-002 2.7929460108063903e-001
      2.4902324501747426e+000 -1.5912975999892051e-001
      -1.6739563800593596e-001 4.9427059449770203e-002
      7.4413636367704095e-002 -4.8552249915977466e-002
      8.8519639507102774e-002 3.7873776094833868e-002
      2.1400130517489430e-001 2.5202717142122449e-002
      -4.5794785341001190e-002 8.7784493313673259e-002
      -6.5284572493869318e-003 9.3209442421358091e-003
      -1.2166531047922360e-001 2.1977036904845110e-001
      1.2288485540460876e-002 1.4336481142110971e-001
      1.9614044660127236e-001 -4.4822572059398574e-002
      2.3136114836433680e-001 -1.6564896963510867e-001
      -1.8654767246356671e-001 4.4097275784052002e-002
      -1.8945757852719292e-001 -5.2615700265754455e-002
      -1.9725949809985707e-001 -1.1986762057350994e-001
      7.0490611783581153e-002 6.1625248373299080e-002
      -6.3887682250732533e-002 -1.8754399561308377e-001
      1.6638431752634411e-001 2.2222396684721027e-001
      -1.5004998435078140e-002 9.7788797405260267e-002
      2.4877142197378918e-001 -6.1141425439073402e-002
      -2.7501517057637169e-002 -3.2334147542253569e-002
      3.6716886260231854e-002 1.5487884500265603e-001
      8.3876994936002358e+000 -8.9391181562746946e-002
      -8.8927828274803625e-002 -1.0195826946460013e-001
      3.1676135843277074e-002 -2.8876976719681240e-002
      -2.9679721914806872e-002 -2.2673076151257002e-001
      1.0983950931410222e-001 -1.1416176654401160e-002
      -4.8351549349577992e-002 3.9361638696012051e-002
      1.1125903004990766e-002 3.3815000893235038e-003
      -7.7113591092640169e-002 1.0960010360148220e-001
      -6.4459283863610856e-002 7.7997913903758792e-002
      9.7998923669210189e-002 1.0281680409177599e-002
      1.1533027395155215e-001 -8.4786006657044416e-002
      6.4348699965441375e-002 -2.7765773776868154e-004
      -1.0439274561435756e-001 9.2084509843755172e-002
      -9.4940645479503011e-002 -3.4088250151413285e-002
      -1.4102901977902765e-002 -9.4722625402368615e-002
      6.8082219214178508e-002 -1.0062999076306288e-001
      9.7329996076531033e-002 1.0725450111844573e-001
      4.2209721585942488e-002 6.1631290636786171e-002
      1.2419175894148159e-001 2.4088346111056411e-001
      1.2990877388858835e-001 6.5429029464584329e-002
      -2.9307638476575655e-003 8.7137192235585317e-002
      1.3968457369700905e+001 -1.1580787515407463e-001
      -1.3367079189778186e-001 -1.5429962019791160e-001
      4.7468544577709861e-002 -3.0491372810061770e-002
      -4.4108742672258706e-002 -3.2461129835984981e-001
      1.6926900455224589e-001 1.5915603065810403e-002
      -8.7154685956157232e-002 6.5161533513530767e-002
      1.2293007793965786e-001 1.7565689574194670e-002
      -1.2359626683737414e-001 1.7763892121938132e-001
      -1.0122913542576442e-001 1.1575737304193556e-001
      1.5342224478521119e-001 2.7542668116052054e-003
      1.8879861060740302e-001 -1.3129641469218778e-001
      9.6675800936971479e-002 1.5709149501186585e-003
      -1.4932399413871575e-001 1.4159777265006138e-001
      -1.5928491671465198e-001 -8.8328309599157634e-002
      -4.2976684658390302e-002 -1.2663044955059075e-001
      9.7021794855584084e-002 -1.5600312388485785e-001
      1.3448253628116622e-001 1.7090868058221773e-001
      3.1274118960042652e-001 8.6405205224373949e-002
      1.9631490742276023e-001 3.3789583017416025e-001
      1.8004217000807252e-001 9.8693513376415645e-002
      1.2199230233436007e-002 1.2329516207281901e-001
      1.4285295033881631e+001 -1.2771956656216629e-001
      -1.4011619455647811e-001 -1.5485917475119593e-001
      5.6194663463288726e-002 -4.7966835747541792e-002
      -4.1171551268351134e-002 -2.7262402124791918e-001
      1.6876264682376230e-001 -1.1643389813467143e-004
      -7.9598366814810667e-002 7.2339102054145690e-002
      1.6525858222946035e-001 1.2929047118085697e-002
      -1.1431502585091213e-001 1.6909183405814912e-001
      -1.0029397121526883e-001 1.2270906586793132e-001
      1.5353571105683050e-001 1.6180301995159980e-003
      1.9430408572390567e-001 -1.3047285217652094e-001
      9.3714115624287497e-002 2.7123435646780468e-003
      -1.5394662650385640e-001 1.4202447682546249e-001
      -1.5153451519297800e-001 -1.0186737350852905e-001
      -5.4703641533387040e-002 -1.2589903317892659e-001
      1.0728618178947574e-001 -1.5510600271597680e-001
      1.4843256500036761e-001 1.7485841842882632e-001
      3.8702397732705834e-001 8.2364225559790005e-002
      1.9993089569997718e-001 2.9578052471955946e-001
      1.9568811764062155e-001 9.8895137334906694e-002
      1.3451599214492991e-002 1.3689046713406863e-001
      1.1807100197652791e-001 -5.5482522771214204e-001
      -6.6701500860150298e-001 -7.1956835230557278e-002
      9.4330012845633485e-002 -1.5868072326449240e-001
      -9.0949439993180017e-002 3.4788506884976261e-001
      -1.3213009533679199e-001 2.2582117974332827e-001
      -3.1372431370384374e-001 -1.1826522555557262e-002
      -3.4360285517159539e-001 4.3609038152083074e-001
      5.1503387171291426e-001 2.0218660427691375e-002
      3.6055802940748435e-002 -7.3610568218755357e-001
      1.0441908958101539e-002 9.0971529270852780e-001
      -4.9522142252071916e-001 1.5038180160104931e-002
      8.3007799594345066e-001 -2.4957961354965613e-001
      5.5496192956469473e-002 -8.7283757380119481e-002
      -5.4558705731539181e-001 5.2829939208140608e-002
      1.6164709923100390e-001 -5.8936597150534252e-002
      -4.9663124078999976e-002 5.0284550103426462e-001
      1.9795739324300282e-001 4.3569873851706703e-001
      3.7451102478899068e-001 -5.7706171024306385e-001
      -6.1452509074596096e-002 1.2926677356614119e-001
      3.3767145274706833e-001 -2.4058904766918299e-001
      -1.8402101224303402e-001 2.1247780565191384e-002
      3.1563250797214164e+000 -2.1640673542022160e-001
      1.5128962222838679e-001 -3.5982160178011736e-002
      3.0692189915937046e-001 -1.7379019361867790e-001
      -1.7901226602011672e-001 4.7922295693478782e-003
      2.9124008957649768e-002 -2.7041049967124486e-001
      -2.7178865683664266e-001 7.7133262253519366e-002
      -1.6033721566131151e-001 4.8626815374998622e-001
      3.2678229579356216e-001 -8.3074055805677449e-002
      7.8958301251188218e-002 -2.6451870822753631e-001
      2.0112324223571384e-001 2.4468095954604982e-001
      -7.0657942259315945e-002 5.9924220450171128e-001
      4.1531310490909662e-001 -5.8645338902541524e-003
      -1.3622737596362164e-002 -1.8074313888572272e-001
      -3.3520977339551877e-001 2.7196656868661337e-002
      1.3367002144280968e-001 -3.5047100110065843e-001
      -1.2875730469357827e-002 -1.6217278240408917e-001
      -6.9990881353975576e-002 3.8558094519201036e-001
      1.8445566850413947e-001 -7.6577533801119324e-001
      -4.0983114288272560e-001 -2.1876794754055182e-001
      -6.0542869532585357e-002 -4.0478842021362438e-001
      -9.5285531205937357e-002 3.4408840609249614e-001
      4.0884328679115498e+000 -3.1368800718692058e-001
      5.2352631083714352e-001 2.2870776546972352e-001
      2.7146700475570906e-001 2.3302116184276073e-001
      3.9605290207730492e-001 2.1618189883576364e-001
      2.6989121993836111e-003 1.4271775231110645e-001
      -8.7865098956048493e-001 -5.3296817467909152e-001
      -1.0415264039349474e-001 -3.2374669829474234e-001
      2.3833929245323060e-001 -2.4309889556331635e-001
      3.6541684782165973e-001 5.6351593615738182e-001
      7.9096198285191807e-002 -2.4481337483410875e-001
      2.2985468471614748e-001 3.1127008999404376e-001
      5.5770008390705805e-001 6.7810957850922648e-001
      -1.1201055489202204e-001 -3.6538021164953260e-001
      -4.0554408639506961e-003 3.8688106952548218e-001
      7.4755875533066438e-002 -7.8165895603697133e-002
      4.3785075216782632e-001 -9.5046646497884565e-002
      -5.0985272888964894e-001 -3.1669238770271980e-002
      9.5130234478094836e-002 -3.0638176158534708e-001
      2.7455376243404057e-002 -3.8398338133760213e-001
      -3.4234720591229983e-001 -3.3681547498919295e-001
      -4.4724480383270537e-001 2.3615759655731822e-001
      -2.0444243752624724e+000 -2.7238977193701319e-001
      1.6961678078935344e-001 5.4593515429384698e-001
      3.4411922374377749e-002 2.5420184699755124e-002
      3.9851814506251171e-001 1.7236297442681012e-001
      -8.6051914450446021e-002 4.5730281000818829e-001
      -5.0546587171006718e-001 -5.8418074580629054e-001
      7.9522128113394319e-002 -5.5402684546194136e-001
      2.2752776623084245e-001 5.8291683318521248e-002
      3.8010059762612730e-001 2.1223410726078049e-001
      1.3113381379799793e-001 2.2427952547138398e-002
      -1.2502742075083448e-001 1.8909039392189730e-001
      9.5853132759897042e-002 6.4840809729157789e-001
      -6.9160176758794245e-003 1.8731335193417846e-002
      1.9908766117172190e-002 4.3523136741031776e-001
      1.0457537114562225e-001 -1.7247086070251880e-001
      4.7376313198200445e-002 3.7123359845861686e-001
      -5.3918989164531816e-001 -1.5684916728706022e-001
      -5.0014647792611122e-001 -9.0804194526413230e-003
      2.2645675484396963e-001 -3.8115197351062752e-001
      -8.2527291320285107e-002 8.5399530848541641e-002
      -4.3542393848762390e-001 -1.6393583712226981e-001
      -2.7627279919418859e+000 -5.6416321838465955e-002
      -7.7188490072528940e-002 7.3411913685195351e-001
      -1.5255158831113305e-001 -9.5744819190308667e-002
      -4.3842613985811063e-001 -2.9841730603340599e-001
      -9.1900735533317249e-002 4.8054784173641057e-001
      -1.7134644457814044e-001 -1.8864699434806631e-001
      4.4978064165367559e-001 -3.8533415553456041e-001
      -1.9941217450437027e-001 -1.8063332474843899e-001
      3.8119510428898584e-001 -2.7351540502437227e-001
      3.6299500397181422e-003 -1.3058413382356324e-001
      -5.5304114843340046e-001 -6.7879037572536119e-002
      -4.0453139936028260e-001 1.4891144842292911e-001
      -5.5664677255959555e-002 -4.3401689383286701e-003
      1.4895930376040156e-001 -5.0227460323274027e-002
      2.4393261842534281e-001 -1.1432365402278799e-001
      -5.5766745823312303e-001 4.4663429704182356e-001
      -2.1331379945582868e-001 -1.8348509528613202e-001
      -5.3169319620519562e-001 -1.1101170942645573e-002
      -1.7872626838620390e-001 -4.4814288775245531e-001
      -4.5829351724213180e-002 4.3193735601356642e-002
      -2.6089761097980224e-001 -7.6445700079321902e-002
      1.3082041268149287e+000 -6.6324548468099001e-002
      2.0693087988063391e-001 -9.2034867321131406e-002
      4.5181649563162736e-002 1.1398304177305398e-001
      2.6908523684459923e-001 5.5758851360482353e-001
      8.8761294887423375e-002 -4.8656496460953463e-002
      -1.5210061962084012e-001 -1.4080786704898143e-001
      6.2927753729179681e-001 -4.6210062578312461e-001
      2.4159176394820500e-001 -3.9486422985028230e-001
      4.4928089750610761e-001 1.6408187920940356e-002
      -2.6074432564900096e-001 -1.7935265531007927e-002
      3.1276737025487444e-002 -4.2828838682933601e-001
      2.4665475755779578e-001 3.3876891175673905e-002
      4.9794038356773618e-001 -9.6701337048189659e-002
      3.8432758131206557e-001 -5.5735839679547572e-001
      2.8597790311418397e-001 1.1648523024353059e-001
      7.1585314093938168e-001 2.9789441573241182e-001
      -4.5773243085164908e-002 -4.4161921739716681e-001
      -1.5978677016763607e-001 6.4901441492788786e-002
      -3.1535738706782185e-001 -2.4457336775073871e-001
      -1.3820835844866997e-001 2.2706567330875679e-001
      -5.5719176346899113e-001 -1.9090936588587046e-001
      1.2431119683060026e+000 -1.4722699046491589e-001
      -2.4487702997748707e-002 7.3649186937679620e-002
      -1.1375540608680976e-001 1.2974898274942689e-001
      2.8918635341462401e-001 2.7694564702898194e-001
      2.4320992616772816e-001 -3.3703390029677610e-001
      -1.1456806455193304e-001 -5.9903518978399063e-003
      2.7544496449293232e-001 -1.9953877696953715e-001
      -1.6614547581446801e-001 -6.0922190924566522e-001
      2.4182355369445541e-001 3.1655148481145506e-001
      -2.7966843697628857e-001 -9.7250123271025404e-002
      -5.0437079370386127e-002 -8.5330128170285166e-002
      4.1849197296958174e-001 6.0049188937195153e-001
      2.4309871549419804e-001 7.0514566240780541e-001
      3.2525875326085785e-001 -1.2127685157577017e+000
      8.0107889448447253e-002 -2.7769306902809909e-001
      3.4724511052199852e-001 -4.2655655768825829e-001
      -1.2232400440204863e-001 4.5002756877858685e-001
      1.2852623976362490e-001 3.7951903363999123e-001
      -2.8835233815336558e-001 1.3467305711233957e-001
      2.7941213775871421e-001 -2.3012899801032202e-001
      8.1691328046493029e-003 -4.3917979405463947e-001
      -6.8661267862349551e-001 1.0076617614452482e-001
      -1.4325058536242311e-001 -9.8257373463747119e-002
      -7.5359595095911802e-001 2.0900697373193544e-001
      2.0518901544937146e-001 -1.5399071417842405e-001
      1.0316658646438551e-001 3.5566284230952105e-001
      1.8893327639653285e-001 2.2415480457380654e-001
      -5.6310612353349765e-001 -1.4045777459458622e-001
      -3.5053634401066341e-001 -8.6964267156995212e-001
      -3.5788596969131520e-001 1.6450969899606258e-001
      -2.9986166249346408e-001 -2.5903350615892040e-001
      6.5733820729674028e-002 -4.6002755464123918e-001
      7.6409140607002532e-002 4.0735229675159801e-001
      9.5387739924800208e-002 6.1562108878448640e-001
      3.8183177330833062e-001 -3.3260232993264593e-001
      4.3102898622891010e-002 -7.8738574737302530e-002
      -7.8196910209600545e-001 -4.1708015642904511e-001
      4.7391129550204975e-001 5.5385065833662916e-001
      1.8394175916986086e-001 5.7424923543133173e-002
      -2.4698936828781187e-002 1.5673263918313188e-001
      1.1942709784980519e-001 -4.5959786935248403e-001
      -6.5223255276338543e-002 -3.1286316125957711e-002
      2.1957088445131516e+000 -4.4665950717094588e-002
      -6.1602796982671271e-001 1.0408041182885207e-001
      -3.2169237542896789e-001 2.2558681335193110e-002
      1.4191436786109035e-001 -3.1904390350551370e-001
      1.5282193200502059e-001 -2.9242732969337309e-001
      1.4974920967632455e-001 2.2283550741623412e-001
      -3.7025403836479803e-001 -1.1700417220789687e-001
      -1.4066490110896646e-001 -2.8804689639831327e-001
      4.0143620385129536e-001 7.3258449006758944e-002
      -5.4670604061786275e-002 2.6114229019600926e-001
      -1.0320120467428266e-001 4.0150668404773111e-002
      -1.5115098032241386e-001 -2.9107228277858821e-001
      -7.0879336011756416e-002 8.4494545464560991e-002
      1.3914653720036144e-001 -2.8239056691579800e-001
      -2.1155682250664035e-001 4.2218007833632783e-002
      -2.7208558910962477e-001 -3.1948623689166644e-001
      4.6454038661851837e-001 7.0680689338748423e-002
      2.6240376697892076e-001 1.0624187498774385e-001
      3.5554587743291327e-001 -1.4072395518319665e-002
      1.3913460139744116e-001 -3.1593495769923735e-001
      -1.8378919869353935e-001 -3.0036321864467624e-002
      9.2618582044430351e+000 -7.4716525738534031e-002
      -1.6887348238056635e-001 -5.9916209855786953e-002
      9.6239663940868220e-002 1.4692831117122480e-002
      7.4493819942657954e-002 -4.6842948528964701e-002
      3.6877253649651986e-001 -1.0670148662961321e-001
      -1.1020880479920006e-001 8.7738401939858046e-002
      9.0026309092275020e-002 1.8108970234202326e-001
      -8.9002967973638866e-002 1.7973146524705358e-001
      -8.8302371335721330e-002 1.8265552962814413e-001
      3.6543845446987661e-001 -7.7267861822401973e-002
      1.2740683964179528e-001 -1.4420815936139461e-001
      -1.1856002643483637e-001 9.0798882982975102e-002
      -1.9280237226980101e-001 -9.9477979110058193e-002
      -4.2115643299670630e-001 -1.7123067868819161e-001
      -7.6037231148790421e-002 6.3124927523554766e-002
      1.5996814011259897e-002 -8.6020421289363644e-002
      1.6751404219709370e-001 1.8016037873414192e-001
      1.2638685276065212e-001 9.7764936800549609e-002
      1.9400400381979904e-001 8.9592786225736368e-002
      -4.1976198454092714e-002 -5.2988538718947313e-002
      -1.8529582598661923e-001 1.4683783101617576e-001
      2.6404152854879457e+000 -2.9758196358451078e-001
      -2.7631741202733856e-001 -5.9958064489775524e-003
      8.4739800276994071e-002 -8.4475840413018366e-002
      1.5027833010131231e-001 -2.9126729853416766e-003
      3.5914511329512705e-001 -1.3473809333884015e-001
      -1.2607240950802059e-001 2.5136211658199015e-001
      1.5635432456517109e-001 8.1388636721307847e-002
      -1.4358101957178035e-001 3.7553957955080303e-001
      -1.4897284884226215e-002 4.3148312957377960e-001
      3.5594582931221241e-001 -8.8300514071960434e-002
      3.8527249804276681e-001 -2.7303339860342862e-001
      -1.4197855629701525e-001 9.2921125656151501e-002
      -3.2154349372715624e-001 -9.7864922708419483e-002
      -3.3639382454085415e-001 -2.1946810223305910e-001
      2.2196984242163972e-002 2.9128693039908397e-002
      -1.3284020321090059e-001 -3.2874957960146389e-001
      2.8501445344053727e-001 3.8854623815655276e-001
      5.4462177197649161e-002 2.3659585371506181e-001
      4.2223405420347282e-001 1.0272418669235086e-002
      -1.5524062779655784e-001 -6.6989253047567573e-002
      -1.1449070762426211e-001 2.7175018139267126e-001
      2.5028976415500752e+000 -1.4885305138594790e-001
      -1.7417648637070599e-001 5.2883670837302547e-002
      7.9854801385845456e-002 -4.6177925914299069e-002
      9.6289530302352655e-002 4.7219655627839613e-002
      2.1553324932682177e-001 1.9699095794804201e-002
      -5.6153753495348846e-002 9.0898305293879600e-002
      -1.4025077225448660e-002 1.0361414540045239e-002
      -1.2571760518720404e-001 2.1065301442917803e-001
      8.8757289339728967e-003 1.5682560015710392e-001
      1.9096440818165622e-001 -3.8686952919887371e-002
      2.3029234775098892e-001 -1.7103102509623694e-001
      -1.9518747705096876e-001 4.2892404273774221e-002
      -1.8972036097435774e-001 -5.4549116104452053e-002
      -1.9259975270174370e-001 -1.2931437959846859e-001
      6.8624988959166397e-002 5.7976839783604558e-002
      -6.3360148252333201e-002 -1.7677382154261839e-001
      1.7588478837840707e-001 2.0986105669114452e-001
      -3.3657342781988659e-003 8.9689464633430402e-002
      2.3890321624785038e-001 -5.9315644812441240e-002
      -1.5375621813400778e-002 -2.6466669464760902e-002
      3.8927389811863569e-002 1.6537526574571371e-001
      1.2224816826824959e+001 -1.1118962156091944e-001
      -1.2264441746375866e-001 -1.2505203934405459e-001
      4.5534519706739308e-002 -3.8819138727615547e-002
      -2.7789339894483150e-002 -3.6597863064693309e-001
      1.5929096581869803e-001 2.9824462486910926e-003
      -6.6029438461833720e-002 6.1185439717346468e-002
      5.5758428836865617e-002 1.7769780967391277e-002
      -1.0255591608610658e-001 1.5561008122141087e-001
      -8.5941949225742456e-002 9.9269785851796646e-002
      1.4163018172827899e-001 2.3331966004414566e-003
      1.7575557975844475e-001 -1.1454114903407017e-001
      8.4777305651198037e-002 4.8954552936246844e-003
      -1.2811281183019629e-001 1.3017393403696717e-001
      -1.3622083277116226e-001 -6.3075779656884837e-002
      -2.4239610083286938e-002 -1.2095773417299779e-001
      9.6958071366913895e-002 -1.3849086100917485e-001
      1.2703516984689822e-001 1.5041411280109432e-001
      1.7760683766145569e-001 7.0173216466299426e-002
      1.8513734186516559e-001 4.0827318083502828e-001
      1.6540872252313804e-001 9.8795093884051194e-002
      2.8518091393474588e-003 1.0893287132548238e-001
      1.4098644808961144e+001 -1.2932564370681315e-001
      -1.4551434360053692e-001 -1.4804008126225468e-001
      4.9353671163231513e-002 -3.5924093259359156e-002
      -3.6334448442093215e-002 -3.1397206225412189e-001
      1.7867624232290188e-001 -7.9246734924923075e-003
      -8.2155798399126165e-002 7.4186050266184217e-002
      1.2524620460713537e-001 1.7087623226582593e-002
      -1.1948883127879351e-001 1.7154482731595672e-001
      -9.4267549811353962e-002 1.1684391130082833e-001
      1.6118392243510435e-001 8.3500632562541893e-003
      1.8201133549007031e-001 -1.4097934327372968e-001
      1.0844279561878106e-001 5.7664349317476920e-003
      -1.4260405794752359e-001 1.5258109532598257e-001
      -1.5769734363517443e-001 -8.3444417537408611e-002
      -5.2501434094896091e-002 -1.3033407761833662e-001
      1.0829309075110247e-001 -1.4725529402597118e-001
      1.3688078626107333e-001 1.8319342315751380e-001
      3.2688755725661772e-001 7.4256507516214987e-002
      1.9233474523205793e-001 3.3117215942203421e-001
      1.8581252229949252e-001 9.3641957187123703e-002
      6.0131389553690611e-003 1.3740007703080681e-001
      1.4216241594566347e+001 -1.2684992191293737e-001
      -1.3965325322500860e-001 -1.4345284390579874e-001
      6.3264454632887643e-002 -3.0679634565525180e-002
      -3.9475542121287656e-002 -2.6662382514473110e-001
      1.6713746026002280e-001 -1.7320402656309075e-002
      -7.5997147893532166e-002 6.4796079949997934e-002
      1.6723873818557525e-001 2.3647911992838753e-002
      -1.0947083913864283e-001 1.8146306082208591e-001
      -9.6397478932986738e-002 1.1717659816760799e-001
      1.5969854144177911e-001 1.5318856235181788e-002
      1.8391481749665051e-001 -1.2692533663382180e-001
      9.4904111716123354e-002 7.9567164159390896e-003
      -1.4676802369597922e-001 1.5245663463942782e-001
      -1.5827862991945768e-001 -8.6262898954793721e-002
      -6.2307459550913442e-002 -1.2670157259835449e-001
      9.4085186529983156e-002 -1.4170181181667574e-001
      1.4643614015355216e-001 1.8282893859120769e-001
      4.0425345879604063e-001 7.8002909542460724e-002
      1.9301829258681172e-001 2.7926907757631986e-001
      1.9032415850326126e-001 9.3964708148110726e-002
      1.3785218654312302e-002 1.2689293188474013e-001
      2.0314275268301890e-001 -3.6808464882409653e-001
      -6.3162283846241685e-001 -1.4554177338427865e-001
      1.3896079320144022e-001 -1.0478008884728583e-001
      -1.1356929488010530e-001 4.7060519646913990e-001
      -8.4029534782625606e-002 2.1149380323940986e-001
      -3.2185929114299122e-001 1.3748292867278311e-001
      -1.6076313678759732e-001 2.1793674919872799e-001
      3.7947041898963058e-001 5.8524821736040140e-003
      -1.0307693782310026e-001 -8.0711993547714445e-001
      7.8537503872944003e-002 9.1823187174149368e-001
      -5.4563557255101036e-001 1.6041068012875644e-002
      8.1010750693733002e-001 -1.8151352677813787e-001
      3.5459176612318948e-002 1.0384907770378411e-001
      -3.7099607490856629e-001 -1.4876676212323553e-001
      1.0043176877727909e-001 7.4755816809069356e-002
      4.2697073118655579e-003 3.5960912461985783e-001
      2.6255726368122884e-001 4.5635546138247857e-001
      4.0667405631033354e-001 -5.0840913837184909e-001
      -3.7496665654677352e-002 1.0909941354211122e-001
      3.7351748839796273e-001 -4.5367008715586526e-001
      -1.8652405611514894e-001 -9.7029061200653629e-003
      2.6005825709877759e+000 -6.7632315671810023e-002
      -3.1635755133395213e-002 4.9890734565787985e-002
      7.4438288500990199e-002 -4.7808837282672173e-001
      -1.8796798336384507e-001 9.1762339519901794e-004
      -6.8889141676709620e-002 1.0496461540391686e-001
      -1.5598820208726208e-001 4.7941460980024393e-002
      6.7036673193769283e-002 5.9091670790942197e-001
      1.6256159818481003e-001 -1.7020504506377290e-001
      2.2518530966439343e-001 -6.0291754647325924e-001
      1.8147501652964165e-002 6.9460939018434753e-002
      -3.6309256694679454e-001 5.1806992949940922e-001
      6.3752160699182781e-001 -1.1154355228581103e-001
      -7.8343200827365067e-002 -3.3255139030020758e-001
      -2.8954676481487407e-001 -1.9746659251959789e-001
      1.8425591087567994e-001 -2.8929486069309274e-002
      -1.3577964543644516e-001 -2.6936289940618394e-002
      2.5449232486718093e-001 4.9718233808913348e-001
      9.5342342278974049e-002 -3.7743570547908678e-001
      -6.1331836749192836e-001 -4.0884978845790480e-003
      5.6822692209772513e-002 -3.1664861920055487e-001
      2.0909654878036543e-002 1.3826353522932400e-001
      3.3034486570189898e+000 1.4745888650092867e-001
      1.8399100635362331e-001 1.6126977400281545e-001
      -4.6679324969169152e-003 -2.0010543273839046e-001
      3.4091243066370985e-001 2.0220152559756843e-001
      -3.4853916199696452e-002 4.5601226471302908e-002
      -2.8589742341823332e-001 -4.3724065774456411e-001
      -5.7049339842106812e-002 2.4943419014109580e-001
      1.3750665781606247e-001 -1.9066170168875216e-001
      4.6764150022778500e-001 -1.1803670614015183e-001
      -1.7087495870289829e-001 -2.0729543522974025e-001
      9.6274825216773746e-002 1.9194281773860311e-001
      9.4357041218233162e-001 4.6322223775895038e-001
      -9.9273381211065270e-002 -7.2715369305257926e-001
      -3.2068471207459821e-002 7.6038015462584027e-002
      3.2928028439679274e-001 5.7058808536424192e-002
      1.2367652655353585e-001 2.9101831701317171e-001
      -9.0737219923157128e-002 -1.2793480962002501e-001
      3.7567465123025411e-002 1.6685156405294940e-002
      -2.1027321410144303e-001 -2.6604992471896443e-002
      -3.0057031400836698e-001 2.0061164500432394e-001
      -7.4393802116424559e-002 -3.9162389221529058e-002
      -3.0732378925766857e+000 -3.1200921925681196e-001
      -2.7011580848145533e-001 6.6240615096661948e-001
      2.1010532605982246e-001 -1.0940579961310182e-001
      2.6882287190529758e-001 5.8873129497597959e-002
      -2.3618362715743951e-001 -1.5962745188772412e-001
      -2.4608550305436322e-001 -6.8533572544416443e-001
      1.4077823818864713e-001 -2.0725256552931073e-001
      9.3020228672915858e-002 1.2661712406451711e-001
      5.1574279799367739e-001 3.5597741319388788e-002
      7.0813913136069842e-002 4.7077552209548413e-003
      -1.4149964764282449e-001 3.8190876466904156e-001
      9.9332667445003839e-002 2.4368075133839645e-001
      -1.8752480379946909e-001 -4.7107965166475546e-001
      6.5042787168419908e-002 8.0069905817160933e-002
      1.6904187083321046e-001 -9.6087435274727864e-002
      -6.1358486315188636e-002 4.3209381481245140e-001
      -5.0348866047986862e-001 -2.2157677815889651e-001
      -4.3553233606472969e-001 -2.4838627282386280e-001
      9.1237776381845229e-002 6.9705783685097986e-002
      -2.2801574642333922e-001 3.4574582856197000e-001
      -1.7140620138787369e-001 -2.0425355626449454e-001
      -3.8903370355914140e+000 -3.6780193325210001e-002
      -3.0596036631875123e-001 6.8645377353134840e-001
      9.2438569017567154e-002 -2.3250735466406847e-001
      -2.9853248977182550e-001 -3.1761906278202434e-001
      -2.3058488140594413e-001 1.8326134909450600e-001
      -3.6683165610107465e-001 -6.9476930679989013e-001
      -3.8593805986682062e-001 -2.1586306226883337e-001
      -2.6540391720130119e-001 1.4636099328895907e-001
      2.3114935202206882e-001 -2.3232290136835400e-002
      1.4131985722193877e-001 -6.6276635876610410e-002
      -5.5937483514524333e-001 4.1256802468489323e-001
      -4.8797596722061576e-001 3.0915762162949734e-004
      -4.3862805328270593e-001 -1.3821271644389233e-001
      -1.9615247761462040e-001 2.1586148013377646e-001
      -2.3713617429899056e-001 -1.4841072178300874e-001
      -6.6965425902033238e-001 3.9896159864816400e-001
      -2.3098415618530874e-001 -2.9811303410803153e-001
      -5.0023507097084519e-001 -1.1142128139761426e-001
      -1.3221733205049940e-001 7.4868197674188577e-002
      -3.5327427086136015e-001 7.3681122551295372e-002
      -1.8528998360379134e-001 1.6584112085557989e-001
      -1.0779458278004270e+000 1.0626075173870062e-001
      1.5861525630274795e-001 -1.5593416869918292e-001
      3.3109961179188541e-001 2.4838592131445728e-001
      3.8642573311297390e-001 6.1745000695156438e-001
      -2.2424809053233935e-002 -4.2602889316503834e-001
      -1.9151105176260685e-001 -2.3203244569028961e-001
      1.9054221325527332e-001 -3.1542747239016311e-001
      1.0409009600662458e-001 -2.6771433253821653e-001
      1.0613469524813748e-001 3.0729148810392171e-001
      -1.0307870678971397e-001 -1.5378849706406136e-001
      1.3182652691569086e-001 -1.2091786976398428e-001
      8.0427285841816007e-002 1.7476493267576432e-001
      3.8184799211169262e-001 -2.0668892512056156e-001
      8.8828752077389730e-002 -5.1341373013800029e-001
      4.0064851903993150e-002 1.5832144702010678e-002
      5.4114144358100980e-001 8.1705925381460862e-002
      -1.4172847180820480e-003 -2.7816176716103863e-001
      -9.0954992242423913e-002 6.3283764241354914e-004
      -3.0088540773845396e-001 -3.0842723503530439e-002
      -3.3202443301123891e-001 2.5591301965072821e-001
      1.4498760034814065e-001 -2.6666407911812540e-001
      1.3363009550567984e+000 4.3357560500208220e-001
      6.9632053201931818e-002 -1.3266132854853308e-001
      -2.5396929121591783e-001 -9.8758248325471601e-002
      3.3830346872525752e-001 2.9490360807664429e-001
      6.1200187652375768e-002 1.6399392321238468e-001
      7.0581851438926008e-002 2.3631853671922859e-001
      -2.9736428331176075e-002 -1.4815100971111042e-001
      -5.1037060733549955e-001 -3.2658054058461367e-001
      -1.9958109748750955e-001 8.8832791136921899e-002
      6.8187281927895504e-003 4.9603207637393357e-002
      -2.3443476879967060e-001 1.3166468653880226e-001
      1.2479905237260405e-001 8.8405388041955679e-001
      1.0307994675223912e-001 5.4901628549275328e-001
      2.4818313261676184e-001 -1.0840817002313599e+000
      -4.5552348677108362e-002 -2.4202604830491067e-002
      1.1815964003097187e-001 -7.1949014026546154e-001
      -7.7862781159521888e-002 3.8706233259281897e-001
      1.0110531868677024e-001 1.1019385565041273e+000
      -9.6502802558016729e-002 -1.4946697873505385e-001
      2.8100862324761461e-001 -1.6741635328342247e-002
      4.4786975278879010e-001 -4.4394622841191389e-001
      -2.5104778118332560e-001 2.4315725327521728e-001
      -4.8923145896675047e-001 1.4619800184078366e-001
      -6.9528944442190233e-001 2.4294224225276648e-001
      1.4325069996863463e-001 -3.1563553130112770e-001
      2.0786437025707458e-001 1.5915595359766489e-002
      3.3198223925418258e-001 1.1699257105196997e-001
      -2.2825107400078429e-001 -3.3586549988179626e-001
      -5.2079875452954660e-001 -5.8268003155598636e-001
      1.3028774710167254e-001 1.9173386010616364e-001
      -5.0297360487984423e-002 1.0391991309497714e-001
      -3.2826176436133897e-001 -2.3634006725363862e-001
      2.5561961857148363e-001 2.8131262773802340e-001
      -2.8430007724242501e-001 5.1607146080095689e-001
      6.2192274982326223e-001 -8.2291664681901922e-001
      4.5875779536533989e-002 5.3500495725806507e-001
      -5.9778221388305564e-001 -6.2469597305230884e-001
      9.9784684620639608e-001 6.9937674673671257e-001
      1.4763001256431113e-001 -1.8156765529175201e-001
      1.5399997194261258e-001 8.4680236678675344e-002
      8.5994697448642832e-001 -2.4115991282989802e-001
      -1.3132017135193377e-001 -1.3343776701765209e-001
      3.2463448468754637e+000 2.9991142341415200e-001
      -7.9191354010162740e-001 1.7977752342282668e-001
      -5.5862928051397964e-001 4.4598409297978217e-002
      2.2523508288089950e-001 -3.7784513351387894e-001
      2.2868497011954880e-001 -4.9683815508126805e-001
      1.3838685228661926e-001 2.0241782487580437e-001
      -2.8656415250567818e-001 -1.2172805526469480e-001
      -1.2401761937843299e-001 -2.3514643130947824e-001
      8.7548094943862753e-001 3.9003822617204240e-002
      -7.7990549671988846e-002 4.5742403339578197e-001
      -5.0516159175940378e-001 1.9877978455322919e-002
      -2.6042065529158948e-001 9.7039425076878520e-003
      -1.0790466131684079e-001 1.9861156290825235e-001
      5.2891967734972745e-001 -3.9893406178207141e-001
      -1.6415853246442200e-001 4.9949581164214818e-001
      -1.8695587047216528e-001 -2.8776857416651785e-001
      7.1208741066999115e-001 2.6186962840391453e-001
      9.1417028521014691e-003 -3.7787121471342500e-001
      3.4214918285897361e-001 -9.0562593111042491e-002
      7.2133064954003823e-001 -3.0398997904340380e-001
      -4.1427596717437287e-001 -2.0268329393435480e-002
      1.1144800755777009e+001 3.8569056212417137e-002
      -1.2224953802712953e-001 -9.2220570538731020e-002
      1.1258240220943273e-001 5.7005085537790816e-002
      5.3308667810500449e-002 -8.1132245663703043e-002
      3.3460139356817603e-001 -9.8972476649383606e-002
      -1.0281083085937825e-001 5.9195205582110132e-002
      1.2448314863307158e-001 2.0995975412557430e-001
      -5.9700578615746028e-002 1.1765396090669174e-001
      -1.5228890277801257e-001 6.7955370263388978e-002
      3.0728638867539176e-001 -9.4745471131581757e-002
      -2.5863213067556143e-003 -9.2970146443939972e-002
      -6.0367898904247312e-002 7.1441714078866153e-002
      -1.0570566409236852e-001 -7.7703042217334817e-002
      -3.9867809774606650e-001 -1.8395729867934851e-001
      -8.1926016933109913e-002 9.8695833455100662e-002
      9.2144631901472235e-002 -4.7406011715554128e-002
      1.2103745892945961e-001 9.4178254935270586e-002
      1.7190006368623292e-001 3.0917363672507130e-002
      4.3946476256589526e-002 5.5871833936710635e-002
      8.5139046685089870e-003 -4.5731972547509180e-002
      -2.0748731589349165e-001 1.4167134029286407e-001
      3.6281071780366054e+000 -3.0459368844748530e-001
      -2.8721510940088590e-001 -1.0527879908445075e-002
      8.7368337152143455e-002 -9.9667917635206785e-002
      1.3750677046982504e-001 -1.9861698485717783e-002
      3.7689761924593829e-001 -1.4058762631482460e-001
      -1.1937545554619286e-001 2.4907483662918981e-001
      1.7169096268450981e-001 8.5460155961308557e-002
      -1.4224858072952623e-001 3.7898193025647975e-001
      -1.8397615084273174e-002 4.4074113825436406e-001
      3.5962153243917927e-001 -9.6152137916765010e-002
      3.9726606707660567e-001 -2.8553205614857474e-001
      -1.4702801842438679e-001 1.0594637651348902e-001
      -3.2505331173537183e-001 -8.4976808597451645e-002
      -3.4505392592089484e-001 -2.2719689254258701e-001
      2.4768022870993698e-002 2.4176402614689212e-002
      -1.2641652524627980e-001 -3.2645385906005969e-001
      2.9277560736563829e-001 3.9359644846725889e-001
      8.6939037515692416e-002 2.4122452852010806e-001
      4.3854504911333519e-001 6.2841644720415535e-002
      -1.3394897334758865e-001 -6.4022601832053494e-002
      -1.1634902007932098e-001 2.7981768217782299e-001
      2.5526649792764156e+000 -1.6004702782415256e-001
      -1.6586324077250134e-001 4.7516315994726444e-002
      7.6687969556016145e-002 -4.2914095597993578e-002
      9.3932554919783251e-002 4.0367078660790007e-002
      2.1157110645103405e-001 2.7929694325390494e-002
      -5.4160394854880500e-002 8.7532052593280577e-002
      -1.3252190487055705e-002 2.0277323651504836e-002
      -1.1852012737589343e-001 2.1793494546630465e-001
      1.4035128595899688e-002 1.5539081489101403e-001
      2.0602327615309318e-001 -5.4929387269082905e-002
      2.4157277535064861e-001 -1.7227790184011071e-001
      -1.9847525679984834e-001 5.4063234661407826e-002
      -1.7611700372167352e-001 -4.5790144946167149e-002
      -2.0015519455532460e-001 -1.2701510725893009e-001
      6.0982546817953134e-002 6.6544604856377823e-002
      -6.8604306807530824e-002 -1.8903292571467031e-001
      1.6854604113884561e-001 2.1221985709911526e-001
      1.0371618691835892e-003 1.0167175371421769e-001
      2.4752708390287934e-001 -7.0303703065193887e-002
      -2.3754032619161970e-002 -2.3050792149623862e-002
      4.2595359099083345e-002 1.6607848922120441e-001
      1.3510811934952308e+001 -1.1789952979888844e-001
      -1.3366898311330558e-001 -1.4850322205203398e-001
      5.1096457891162621e-002 -3.1324389379522387e-002
      -3.8317275666109339e-002 -3.8403233635943357e-001
      1.6608442235221485e-001 3.7651620383732883e-002
      -7.4471121763066139e-002 7.1731140986394021e-002
      1.0667755374687916e-001 1.8194552492004513e-002
      -1.1098807032416425e-001 1.7284425693412109e-001
      -9.8034800867129984e-002 1.1873837993465799e-001
      1.6460515954000648e-001 -7.2505094596179345e-003
      1.8846804922350194e-001 -1.2027641457286004e-001
      9.9891089496032426e-002 4.7144630060343556e-003
      -1.4017246623990320e-001 1.5130182897754615e-001
      -1.4596456908618718e-001 -7.6416572777965153e-002
      -3.2901678266368098e-002 -1.3664418033546774e-001
      9.6104342692617889e-002 -1.4395031266950339e-001
      1.4134403538197549e-001 1.6081823957354424e-001
      2.5311018528097462e-001 8.6975116993380105e-002
      1.9834008837373698e-001 4.0952035051550950e-001
      1.7792681690793696e-001 9.9970902746754256e-002
      9.0342407741997258e-003 1.1893417850660412e-001
      1.4237427181346284e+001 -1.2334460605947610e-001
      -1.4514435389849764e-001 -1.5035820371798683e-001
      5.2138051584310202e-002 -3.6898725157446535e-002
      -4.3769019417779664e-002 -3.1039055161569185e-001
      1.8255834023783021e-001 -9.1155082390267841e-003
      -7.9906095794184853e-002 7.0622942966049915e-002
      1.3898932513598442e-001 1.9576814730174554e-002
      -1.1560563799091439e-001 1.7483312164473572e-001
      -1.0101666548859577e-001 1.1508215397461317e-001
      1.6485153049546508e-001 9.6018521876810054e-003
      1.8775347865165445e-001 -1.2728291240924960e-001
      9.8211823900852493e-002 -4.9842876264686231e-003
      -1.5222057902023245e-001 1.4829215030616777e-001
      -1.5189116849073928e-001 -9.3672753178301982e-002
      -4.3969927745317869e-002 -1.2587652534254853e-001
      9.8489610815513773e-002 -1.5335822275613642e-001
      1.4361966466354428e-001 1.7972088615949200e-001
      3.4819706787660409e-001 8.3276937517632210e-002
      2.0476775270291553e-001 3.3507369972860113e-001
      1.9407986460666504e-001 1.0894150680167691e-001
      1.0305689201842241e-002 1.3713670835893063e-001
      1.4088467989963627e+001 -1.2776174998955078e-001
      -1.4304913103632808e-001 -1.4375125689981968e-001
      4.7500102139299769e-002 -4.6157035332060219e-002
      -3.6413452133917661e-002 -2.5307859658208265e-001
