<?xml version="1.0"?>
<opencv_storage>
<my_nn type_id="opencv-ml-ann-mlp">
  <layer_sizes type_id="opencv-matrix">
    <rows>1</rows>
    <cols>3</cols>
    <dt>i</dt>
    <data>
      225 42 28</data></layer_sizes>
  <activation_function>SIGMOID_SYM</activation_function>
  <f_param1>5.9999999999999998e-001</f_param1>
  <f_param2>1.</f_param2>
  <min_val>-9.4999999999999996e-001</min_val>
  <max_val>9.4999999999999996e-001</max_val>
  <min_val1>-9.7999999999999998e-001</min_val1>
  <max_val1>9.7999999999999998e-001</max_val1>
  <training_params>
    <train_method>BACKPROP</train_method>
    <dw_scale>1.0000000000000001e-001</dw_scale>
    <moment_scale>1.0000000000000001e-001</moment_scale>
    <term_criteria><epsilon>9.9999999999999995e-007</epsilon>
      <iterations>1000</iterations></term_criteria></training_params>
  <input_scale>
    1.9698230251347350e-002 -1.3874923420641427e+000
    1.8925570277039973e-002 -1.6296046696940574e+000
    1.7368822734480299e-002 -1.2349961812395673e+000
    1.6641705161011149e-002 -1.2011618230083452e+000
    1.5450299411138126e-002 -1.1697338169040725e+000
    1.6683830343048649e-002 -1.1874354328581331e+000
    1.7302150924302588e-002 -1.0567910126962099e+000
    2.0273457340285652e-002 -8.9122464529756451e-001
    2.9786908994581886e-002 -5.0869727263399922e-001
    5.0156034422370079e-002 -2.1043417287166510e-001
    4.6025935516893622e-002 -1.6277664605814621e-001
    9.3560573143877585e-002 -9.3893292109538604e-002
    3.6201691098144479e+000 -4.5059003856154224e-002
    4.1077971026267968e-001 -7.0703193373804041e-002
    1.3725597952813662e-001 -7.2093556814743179e-002
    1.5074499846423756e-002 -1.8116632553695644e+000
    1.4957581186120932e-002 -1.9312620311414197e+000
    1.5392267312289541e-002 -1.3421925725613957e+000
    1.4623724220687204e-002 -1.2572762500148578e+000
    1.2832593265875087e-002 -1.0997103458809789e+000
    1.4377335595527665e-002 -1.1879605871086993e+000
    1.4226029374450435e-002 -1.1409255322136598e+000
    1.3313089901743043e-002 -1.0034481122277867e+000
    1.7236814540226734e-002 -6.1578090863516977e-001
    3.1030182344339644e-002 -2.2400878434925134e-001
    2.9411957527534852e-002 -1.6575081470086941e-001
    5.5062969620934675e-002 -9.4930752746191796e-002
    1.8363907616140573e+000 -3.7224137059744408e-002
    1.9832970763103727e-001 -7.5537381533727216e-002
    8.2121811821978669e-002 -7.7157121918089488e-002
    1.3386943705498767e-002 -1.6242380702141073e+000
    1.5077448824379461e-002 -1.5591540500510863e+000
    1.9193392724495453e-002 -9.9842500033917003e-001
    1.5873209443732574e-002 -8.4853368306946098e-001
    1.7106672804159551e-002 -7.3694354083324465e-001
    1.6860972593058472e-002 -7.5078697058841770e-001
    1.7972079004814245e-002 -9.6206226191880639e-001
    1.2831090980999001e-002 -9.3551064548590945e-001
    1.3912129553678739e-002 -6.4524674556199679e-001
    3.1027874701120284e-002 -2.3072292318649545e-001
    3.0981277660016182e-002 -1.6576966702439669e-001
    5.3089565796323679e-002 -9.4945741959356969e-002
    9.5844799092746402e-001 -5.0785473203482277e-002
    1.3431549317640945e-001 -7.6901829307972694e-002
    7.7427926042011111e-002 -7.7345321568993319e-002
    1.2202668514781323e-002 -1.4384524739015643e+000
    1.5098137270903712e-002 -1.2603723112540821e+000
    1.7943630175923174e-002 -6.8154527318628255e-001
    1.4060687500941232e-002 -6.3227591529392524e-001
    1.9255231711459767e-002 -5.1743984335283388e-001
    1.7266381828859138e-002 -4.8527006483519436e-001
    1.7028257857660441e-002 -6.6409600088052911e-001
    1.4528927472495427e-002 -8.3746453315589131e-001
    1.3032739341550708e-002 -6.3130459599240629e-001
    3.5617923616840769e-002 -2.2961654314583552e-001
    3.3977223393497819e-002 -1.6676871880407429e-001
    5.3089042007115797e-002 -9.5020323051854136e-002
    4.7040862679419915e-001 -6.8921889843246820e-002
    1.0305283524742555e-001 -7.7216331389162743e-002
    8.7442428093008881e-002 -7.6683153512574653e-002
    1.2020392293511740e-002 -1.3997430499681434e+000
    1.5270695570489561e-002 -1.2885273900399501e+000
    1.6400768381131602e-002 -7.5479695564572014e-001
    1.4811027990051066e-002 -7.7980694417177476e-001
    1.7618250531412267e-002 -6.4609232327516519e-001
    2.0222088554044535e-002 -6.5424784864200203e-001
    1.4685352296001149e-002 -6.6984947092695146e-001
    1.5760344160481016e-002 -7.9895192760338885e-001
    1.3074482353683175e-002 -6.0293728598100038e-001
    4.1608185698864104e-002 -2.2224571450815750e-001
    3.5015426028255831e-002 -1.6936159651860155e-001
    5.3091563708170968e-002 -9.5308041820358125e-002
    2.4111226785506917e-001 -7.4425835170056923e-002
    8.4438957030960923e-002 -7.7382358559312345e-002
    1.0785037373432801e-001 -7.5633334638725055e-002
    1.1788813782956646e-002 -1.3499868710899721e+000
    1.4752381523154619e-002 -1.4171991776388406e+000
    1.3738430787113213e-002 -9.0533913777980124e-001
    1.4966000061589055e-002 -1.0193219167125607e+000
    1.4046850187861719e-002 -8.7919195363237068e-001
    1.6764553452972838e-002 -8.7797492651456299e-001
    1.2793724762268144e-002 -8.0711478407765602e-001
    1.5863789612616763e-002 -8.5995053549417622e-001
    1.3462784734384494e-002 -5.8274898928495045e-001
    4.7259755633904735e-002 -2.1149244839866899e-001
    3.4710116647355876e-002 -1.7306918403718946e-001
    5.3046967861618111e-002 -9.7095570264490907e-002
    1.4858103448519019e-001 -7.6668236500003914e-002
    7.7253950477702740e-002 -7.7473734120598062e-002
    1.4921813705800255e-001 -7.3760032187277225e-002
    1.1751098591853337e-002 -1.3364450879675818e+000
    1.4451849794912049e-002 -1.4358724788409984e+000
    1.3469805797959145e-002 -8.5004917037696726e-001
    1.5081031515983518e-002 -9.1853779080458653e-001
    1.3922752898071634e-002 -8.9039272570121430e-001
    1.5681119683861697e-002 -8.5415259672016219e-001
    1.2978280104909765e-002 -8.4657893424018082e-001
    1.3935049625219147e-002 -9.0030232598210835e-001
    1.3808896218222467e-002 -5.9787315279956166e-001
    5.1611905215520143e-002 -2.0105149705931993e-001
    3.4022371162490066e-002 -1.7559270010000652e-001
    5.2710141754506931e-002 -1.0264606552193456e-001
    1.1070256673238932e-001 -7.7318577902707200e-002
    8.1610196623549902e-002 -7.6995679815888299e-002
    2.5213845271432933e-001 -7.0835482803812300e-002
    1.2694576699593204e-002 -1.4966824669083334e+000
    1.4885238980093656e-002 -1.4182954251968114e+000
    1.6425673278754160e-002 -6.5442172123468834e-001
    1.9725922635565909e-002 -7.3029406184147383e-001
    1.6983879101898466e-002 -7.3397295167141086e-001
    2.0232310581520956e-002 -7.4780404266706935e-001
    1.5038112724209933e-002 -7.9981154438385116e-001
    1.2308461646169309e-002 -9.4263031626925509e-001
    1.3662180036704488e-002 -6.6035651637580517e-001
    5.5646410818674573e-002 -1.9891810865907425e-001
    3.3286850958578883e-002 -1.7699324165457733e-001
    5.0937795512187724e-002 -1.1172984449472755e-001
    8.9901651829420184e-002 -7.7497014237025083e-002
    9.6020086827651563e-002 -7.6010210980921908e-002
    5.7471417640660116e-001 -6.8058257732360669e-002
    1.3961523285469402e-002 -1.7542018490773903e+000
    1.4413922311551784e-002 -1.4926303419042082e+000
    1.7214976040679460e-002 -6.2791808767439927e-001
    1.8126326297228632e-002 -6.4615325321273054e-001
    1.5633563956338321e-002 -6.5995099908859900e-001
    1.8648734636889212e-002 -6.9155503217124237e-001
    1.4801565610363191e-002 -8.3654111528896891e-001
    1.1523838461617662e-002 -9.9555801036902636e-001
    1.3248458676161695e-002 -7.0879253917465068e-001
    6.0099640724388691e-002 -1.9925638352541811e-001
    3.2707936602404418e-002 -1.7769528715324762e-001
    4.6566268979253006e-002 -1.1954548213414917e-001
    8.0044988490391183e-002 -7.7540024412455763e-002
    1.2667569601178186e-001 -7.4239525969920520e-002
    1.8481738466808648e+000 -5.7837588374081116e-002
    1.4753282774702047e-002 -1.8694224579900285e+000
    1.4317153230037542e-002 -1.6537228441426437e+000
    1.9868637531692854e-002 -9.9595431740925666e-001
    1.9154032136746515e-002 -9.7351117603696613e-001
    1.6866463061149146e-002 -9.5498849545056319e-001
    2.0425429153945109e-002 -1.0357842626224270e+000
    1.6170539868713057e-002 -1.1290452653639813e+000
    1.1763460893858846e-002 -1.0483912606659485e+000
    1.3353517225749151e-002 -7.0923227282463075e-001
    6.5165580566942452e-002 -1.9663227279889997e-001
    3.2613572197979765e-002 -1.7786690726465779e-001
    4.1806542384551060e-002 -1.2223804818128693e-001
    8.0847908335818314e-002 -7.7196526984947431e-002
    2.0816346585153314e-001 -7.1065763590850581e-002
    9.3816763108046093e+000 -4.0035603033305590e-002
    1.4442101595945115e-002 -1.4824724842352623e+000
    1.4956788562856267e-002 -1.5277146804371502e+000
    1.4834205697794188e-002 -9.3322557779608228e-001
    1.4596100008260513e-002 -9.8008762850630637e-001
    1.3970699654735066e-002 -9.9974962664403555e-001
    1.4704048040219837e-002 -9.3393189908373553e-001
    1.5260473697971153e-002 -1.0801832168533336e+000
    1.4128911815888951e-002 -9.8019074497412817e-001
    1.4751944329212008e-002 -6.2212075893050989e-001
    7.7438506773369678e-002 -1.8850162832991302e-001
    3.6650614359728953e-002 -1.7555018663271313e-001
    4.2993998435390854e-002 -1.2110791664535241e-001
    9.8481209756723434e-002 -7.5682039219160502e-002
    4.7603348034718379e-001 -6.7714577574279344e-002
    7.1542436085479926e+000 -3.3074383681054018e-002
    2.0665885418315807e-002 -7.2105714151231759e-001
    2.1559606111465721e-002 -7.5184909463323724e-001
    2.0803203716669490e-002 -5.5098897809747882e-001
    2.0360022998075197e-002 -5.8073852227226730e-001
    2.0541117533483502e-002 -5.9459668740771343e-001
    2.1795336466991683e-002 -5.5557180747421653e-001
    2.4609930303113266e-002 -6.1503821549843096e-001
    2.8329175277742088e-002 -5.5520952301978821e-001
    2.9529209554291214e-002 -3.8072938179245458e-001
    1.8404211536657711e-001 -1.3691895638224727e-001
    7.3592388149855151e-002 -1.3860074240456360e-001
    7.9283540355401874e-002 -1.0141639212602438e-001
    1.9328438916472987e-001 -6.0006142155337547e-002
    1.7219989305637828e+000 -5.3276638321141219e-002
    1.2864614846911650e+001 -2.2874492971037785e-002
    6.6865818153461501e-002 -8.9883638911836580e-002
    5.9532775285474793e-002 -1.1785880512597376e-001
    4.3856054459407649e-002 -1.3200485239844467e-001
    5.3298747661232368e-002 -1.1059679680060130e-001 1. 0. 1. 0. 1. 0.
    1. 0. 1. 0. 1. 0. 1. 0. 1. 0. 1. 0. 1. 0. 1. 0.
    6.9846172499288553e-002 -8.9816415276467790e-002
    5.7409179490327318e-002 -1.1971814670386892e-001
    4.3061366593811053e-002 -1.3351780061573207e-001
    5.4342398813855226e-002 -1.1017283628655357e-001 1. 0. 1. 0. 1. 0.
    1. 0. 1. 0. 1. 0. 1. 0. 1. 0. 1. 0. 1. 0. 1. 0.
    7.9138698774961228e-002 -1.0438315567437099e-001
    5.0713763123843597e-002 -1.3082419548377008e-001
    4.0845835915491409e-002 -1.4142071780697879e-001
    5.9224820591178194e-002 -1.1465857869785707e-001 1. 0. 1. 0. 1. 0.
    1. 0. 1. 0. 1. 0. 1. 0. 1. 0. 1. 0. 1. 0. 1. 0.</input_scale>
  <output_scale>
    5.2631578947368418e-001 4.9999999999999994e-001
    5.2631578947368418e-001 4.9999999999999994e-001
    5.2631578947368418e-001 4.9999999999999994e-001
    5.2631578947368418e-001 4.9999999999999994e-001
    5.2631578947368418e-001 4.9999999999999994e-001
    5.2631578947368418e-001 4.9999999999999994e-001
    5.2631578947368418e-001 4.9999999999999994e-001
    5.2631578947368418e-001 4.9999999999999994e-001
    5.2631578947368418e-001 4.9999999999999994e-001
    5.2631578947368418e-001 4.9999999999999994e-001
    5.2631578947368418e-001 4.9999999999999994e-001
    5.2631578947368418e-001 4.9999999999999994e-001
    5.2631578947368418e-001 4.9999999999999994e-001
    5.2631578947368418e-001 4.9999999999999994e-001
    5.2631578947368418e-001 4.9999999999999994e-001
    5.2631578947368418e-001 4.9999999999999994e-001
    5.2631578947368418e-001 4.9999999999999994e-001
    5.2631578947368418e-001 4.9999999999999994e-001
    5.2631578947368418e-001 4.9999999999999994e-001
    5.2631578947368418e-001 4.9999999999999994e-001
    5.2631578947368418e-001 4.9999999999999994e-001
    5.2631578947368418e-001 4.9999999999999994e-001
    5.2631578947368418e-001 4.9999999999999994e-001
    5.2631578947368418e-001 4.9999999999999994e-001
    5.2631578947368418e-001 4.9999999999999994e-001
    5.2631578947368418e-001 4.9999999999999994e-001
    5.2631578947368418e-001 4.9999999999999994e-001
    5.2631578947368418e-001 4.9999999999999994e-001</output_scale>
  <inv_output_scale>
    1.8999999999999999e+000 -9.4999999999999996e-001
    1.8999999999999999e+000 -9.4999999999999996e-001
    1.8999999999999999e+000 -9.4999999999999996e-001
    1.8999999999999999e+000 -9.4999999999999996e-001
    1.8999999999999999e+000 -9.4999999999999996e-001
    1.8999999999999999e+000 -9.4999999999999996e-001
    1.8999999999999999e+000 -9.4999999999999996e-001
    1.8999999999999999e+000 -9.4999999999999996e-001
    1.8999999999999999e+000 -9.4999999999999996e-001
    1.8999999999999999e+000 -9.4999999999999996e-001
    1.8999999999999999e+000 -9.4999999999999996e-001
    1.8999999999999999e+000 -9.4999999999999996e-001
    1.8999999999999999e+000 -9.4999999999999996e-001
    1.8999999999999999e+000 -9.4999999999999996e-001
    1.8999999999999999e+000 -9.4999999999999996e-001
    1.8999999999999999e+000 -9.4999999999999996e-001
    1.8999999999999999e+000 -9.4999999999999996e-001
    1.8999999999999999e+000 -9.4999999999999996e-001
    1.8999999999999999e+000 -9.4999999999999996e-001
    1.8999999999999999e+000 -9.4999999999999996e-001
    1.8999999999999999e+000 -9.4999999999999996e-001
    1.8999999999999999e+000 -9.4999999999999996e-001
    1.8999999999999999e+000 -9.4999999999999996e-001
    1.8999999999999999e+000 -9.4999999999999996e-001
    1.8999999999999999e+000 -9.4999999999999996e-001
    1.8999999999999999e+000 -9.4999999999999996e-001
    1.8999999999999999e+000 -9.4999999999999996e-001
    1.8999999999999999e+000 -9.4999999999999996e-001</inv_output_scale>
  <weights>
    <_>
      2.6569805338903989e+000 -3.3524228342464357e-001
      -2.3883303815268840e-002 1.9299001334049645e-001
      -2.9093086093393850e-001 -3.3481938284558355e-001
      -4.9510141022883275e-001 5.4465943342791023e-001
      1.6657897355855711e-002 2.5148507197707876e-001
      2.6581684336788652e-001 1.6669470944291693e+000
      -2.4464260143822689e-001 -4.4806274228201276e-001
      1.7786700350844029e-001 1.9101832413733983e+000
      1.7169167907507638e-001 -2.3288368715882224e-001
      -9.2006371124371211e-001 -9.2463968465196744e-001
      6.5693304443604394e-001 -3.4152940563880579e-001
      -1.1806247561597596e+000 1.6058776482681122e-001
      2.3462452192073274e-001 -7.3049379579535959e-002
      9.6174132611188390e-001 2.5161055554292872e-001
      5.0244881010599951e-001 5.1829863509228391e-001
      9.2043863911102675e-001 1.1833778003191828e-001
      7.6053464259708792e-001 2.6445015102130465e-001
      -2.3782890789777039e-001 -8.4397443242768294e-002
      -2.5297598532622867e-001 7.7478770159787913e-001
      3.5374539064445459e-001 -7.0077915470349006e-001
      -5.8208412455588643e-001 1.7494712817782984e-001
      2.5218532408547225e+000 -2.6107430823531921e-002
      -8.4127814859729574e-002 5.9652163982719823e-002
      -2.0582869196098169e-002 -1.3753499333292432e-001
      -5.4706048477429409e-002 2.0953331010422910e-001
      -1.2798564688036322e-002 6.4118397419042683e-002
      2.8803388759692644e-001 1.5921294453427615e-001
      -1.3600808204791676e-001 1.7386471662290698e-001
      2.5862310423403856e-001 8.8046669209456851e-001
      1.6385062825247329e-001 -5.1617544202205912e-001
      -7.1196349418574140e-002 -5.4357013750879268e-001
      3.3235901498582694e-002 -2.1305582369037249e-001
      -5.1248550641015211e-001 1.5689937932469841e-001
      1.3927281193540442e-001 -6.6194440692232848e-002
      2.8718220126916588e-001 1.1190260593633761e-001
      -2.3266422417702234e-001 7.3230554651468452e-002
      4.8061089754493130e-001 5.0108184445362698e-002
      -3.5101184664942081e-001 -6.8839343167892586e-002
      8.1794954268733081e-002 -2.0635425934618692e-001
      4.3626140411495196e-001 -9.1048588996381657e-002
      1.1208932646200390e-003 -1.7356456575529472e-001
      3.0490035072643668e-001 -8.7433285918741152e-002
      -2.0797829097624363e+000 2.2926643246611175e-001
      -6.6415146034671768e-001 4.4247011616414929e-002
      -5.3318309547745156e-002 -6.8982808583612720e-001
      -1.1691996039555062e-001 4.8050365508060844e-001
      2.7532076767725300e-001 -3.7017153382103796e-001
      2.0616059760506342e-001 -6.5813377487546831e-001
      -5.5695492712895767e-001 -4.2853904711832112e-002
      1.4041687235935394e+000 4.7032866717526001e-001
      -1.1809123906313523e-001 -2.0380347787769634e-001
      -1.5742964072651705e-001 -7.7883898785529523e-003
      -5.4647500739431765e-001 -1.3733397249612980e-001
      -5.4228096261535308e-001 -1.2349562199126433e-001
      1.0550715824649486e-001 -2.5432911137004349e-001
      1.8391520498466130e-001 4.1058087975070177e-004
      -3.1574571698308951e-001 -1.0419427562637359e-001
      2.3893400095605147e-001 1.2055493162209391e-001
      -3.8973607938395122e-001 -1.0607845481216042e-001
      -3.7579455011500112e-001 3.3124816667228846e-001
      3.6810521802871493e-001 1.4500472293327799e-001
      3.5531718311940269e-001 2.7680791947273398e-001
      8.8220044670194309e-001 6.8027910191269983e-002
      -1.7592704546463780e+000 4.8133030142521488e-001
      -3.0819414551236773e-001 2.2800649957394187e-001
      -2.5400104312347915e-001 -5.7927806545504257e-001
      3.7319481481316537e-002 -1.0876144112517602e-001
      3.6536683026373440e-001 1.5985757752834920e-001
      -3.4082066676772760e-001 -6.3347585722936106e-001
      -7.0001122254591719e-001 6.6540687090630668e-001
      1.4444905587284234e+000 -1.9290611878353822e-001
      1.5456258747156684e-001 4.4752035076392749e-002
      1.8215890443685626e-001 -1.4352202881598589e-001
      -5.1097164859253075e-001 -4.2487201062987440e-001
      1.7696123468969019e-003 -8.3974276203132664e-002
      -1.8133114471367878e-001 -4.6808743727457164e-002
      -5.3131304282361369e-001 -2.4332279855629710e-001
      -1.9818457702526404e-001 -3.3495659368557712e-001
      2.4863338651911485e-001 -9.1951634027852419e-002
      -2.5462134014183163e-001 1.4552390233385765e-001
      -1.2348298882156007e-001 2.9626853768452199e-001
      4.4457366639057350e-001 -1.5909624899708119e-001
      1.5674769549041181e-001 7.1216514230794858e-001
      8.1389427779235146e-001 5.1284149087941655e-001
      1.1599659152331113e-001 3.8618854076472675e-001
      5.4091863369682615e-002 3.2444850129239117e-001
      -1.3606595825557394e-001 -3.0001444477830413e-001
      -1.3230336716780276e-002 -7.4370483364041939e-001
      5.4464561215223151e-001 2.1108721840538286e-001
      -3.0833373693206956e-001 4.3871035456244795e-001
      -3.5134916584410092e-001 7.4952085226725274e-001
      3.7261295577438641e-001 -4.6766675908702532e-001
      3.1827520333157550e-001 1.3099406690985010e-001
      2.2850701604332960e-001 -1.1103963520347586e-001
      -7.5334890566727319e-001 7.8817388578781733e-002
      3.4717553510754817e-001 2.9397066126367133e-001
      -6.2933804892861744e-001 -2.7262244723924706e-001
      -2.5125173295732839e-001 -1.0623268390441432e+000
      -5.1558477108956995e-002 -4.7140349216241051e-001
      -1.5134238619344109e-001 -9.1314322364492315e-002
      -3.4990082664485639e-001 3.8625423849967994e-001
      -4.3610348010839145e-001 3.0751988802446606e-001
      -4.4761563064742194e-001 -1.3467869611542710e-001
      -3.0670794290492237e-001 2.9754681040928177e-001
      1.4581329399032536e-001 1.4587168057026853e-001
      -2.2077737147541807e+000 4.3490599784115813e-001
      -2.4756542307141954e-002 1.9012031557093631e-001
      -1.5406015523075012e-001 -3.1176025660870033e-001
      5.5839382851729090e-002 -3.2432966843711197e-001
      6.8936455501767124e-001 -3.8052529585109929e-001
      -3.0603556359814704e-001 2.4606653514323981e-001
      -5.5588038321893263e-001 -1.3012220193360766e-001
      3.7814082562399792e-001 -3.5845443949555045e-001
      -6.8196455443745571e-002 3.4204041600536618e-002
      1.1945759042842069e-001 -1.7590606507678794e-001
      -4.7562460348548269e-001 2.7776789087519493e-001
      -7.7155313074744422e-002 2.2215776585634564e-001
      -3.2115964828492483e-001 -2.0781658506805517e-001
      -1.1234881398782991e-001 -9.7536508289102686e-001
      5.7649452806105839e-003 -3.6755757412692674e-001
      2.8128682839842906e-001 -6.7091256907440874e-002
      -2.8463519374530083e-001 -3.1746787098202514e-002
      -5.0431760912889667e-001 2.7467922512148104e-002
      -4.3117865090057717e-001 -7.3517791267857360e-002
      -1.9473387169898163e-001 4.5229484094911149e-001
      1.5589030670249604e-001 4.0449293389940022e-001
      -3.4732142215410202e+000 3.0141398044655088e-001
      -9.9608610160968017e-002 8.4908226986356763e-002
      -2.2682427314507431e-001 -7.3595888558626046e-002
      1.8665067003782801e-001 6.0260718121887036e-001
      -3.1640437660232328e-002 -6.8889847169859086e-001
      -1.1900779502435890e-001 -3.4374296146811700e-001
      -7.6710537772269949e-001 -4.4541746725605463e-001
      7.1934658293308973e-001 -7.9340086332109788e-002
      -2.5668519819740054e-001 9.1607590352500518e-002
      -2.3068958547032609e-001 1.8183820468626297e-001
      -1.8984920057439736e-001 -4.5785078141202378e-004
      -4.4921694184509398e-001 1.9937397707061580e-001
      4.6182340700866198e-001 1.3161313682720432e-001
      1.7551399675819826e-001 -7.9059062708558614e-001
      -2.2459973868141694e-001 -3.3920679545074073e-001
      4.6028251494457223e-001 1.3626684861501223e-001
      -1.7636617951358829e-001 -3.9651602771599248e-001
      -1.0138327469440183e+000 -1.3733538327897896e-002
      -1.3200658565335996e-001 -2.8698151888521716e-002
      -5.4984067256749800e-002 6.8504878079142417e-001
      -3.7149490431203636e-002 7.7889837737187051e-001
      2.6223655356640703e+000 5.7568217287574533e-003
      2.4432551351270596e-002 2.4128762415520874e-001
      9.2794356002940226e-002 7.0027079224734931e-002
      -1.5599531045659931e-001 2.7722297200050072e-001
      -1.0131873982406611e-001 -3.6964381428824805e-001
      -3.1427653710014419e-001 -2.2750253853255523e-001
      -2.3061861662546645e-001 -3.3932827077251199e-001
      1.4184029525888744e-001 -1.7428286161749226e-001
      -4.2213424255901222e-001 3.3464447610418757e-001
      -5.5541265453725597e-001 2.5710333819159281e-001
      -1.6387946812107743e-001 -3.4945555100334236e-001
      9.0504498394486488e-002 -2.7169468374853917e-001
      6.8361018527408654e-002 -3.7861208387035397e-002
      -3.4955426129050921e-001 4.0747288269611787e-001
      -2.9094978486070061e-001 5.2065763996522789e-002
      2.5692747089642015e-001 2.1836769919092863e-002
      3.9360084753303815e-001 -1.7234769021393409e-001
      -3.7215318856401403e-001 1.2804769010374897e-001
      -1.1622797907044281e-001 -1.1294571562884115e-001
      1.3203372374144265e-001 -3.3504036017202268e-002
      -1.0904683448257144e-001 5.4766327239309298e-002
      7.4263552012923162e+000 -3.1970119347065742e-002
      2.2192958639039173e-001 1.5674969712596902e-002
      1.4310927682346049e-002 3.3525465576364472e-001
      1.5656190590046848e-001 3.6696787609554038e-001
      1.4067451444003246e-001 2.7398112473651853e-001
      4.0027227740507348e-001 1.6429127791930137e-001
      5.0147385646627651e-001 1.4539778527886102e-001
      -3.8543144455601683e-002 -4.7989024312529815e-001
      -2.4864858388978041e-002 8.4521257704520764e-002
      -1.8506602002826805e-001 2.6498602445298680e-001
      -1.0037095908782181e-001 -7.7414661424250160e-003
      6.7618622411221374e-001 1.6312221202296057e-001
      1.5272822233435882e-001 -6.5489273330141806e-001
      -3.0445380108158432e-001 2.6535583834579141e-001
      3.2715361166090018e-001 -2.5900714711036138e-001
      -3.0137903599536536e-001 -1.2801241462865573e-001
      1.5452704942010356e-001 -4.7312114585230927e-003
      5.3362474237412827e-001 1.7227877285250154e-001
      -2.9436788984924828e-001 -3.3401098546978458e-001
      -1.8769648525987831e-001 -4.1861146793106829e-001
      -2.1485350500909506e-001 -4.4806616835782076e-001
      3.2924565095858980e+000 -3.5325893252672580e-001
      1.8418535343892661e-001 -3.8243168088425372e-001
      1.2955481490495127e-001 -9.6525792696750684e-003
      2.2656066942199526e-002 4.5453668556776322e-002
      -2.6892433221914075e-001 1.3431016255934635e-002
      4.7730272525025036e-001 2.9214230412605235e-002
      6.2822720531675480e-002 -2.9919594106749742e-001
      -4.7180237293610115e-002 1.2039844294282447e-001
      -1.7032556909651286e-001 -4.6787052503684712e-001
      2.6379101388308207e-001 -1.0211854814693665e-001
      3.1675202094064114e-001 1.8190867772569001e-002
      4.7130370506591876e-003 2.8911770414495458e-001
      -1.9428541056651288e-002 -1.4401940390491264e-001
      2.7152454386695069e-001 3.2925197971167486e-001
      -2.4073658863482628e-001 -5.6511936802820725e-003
      -1.7822157216075460e-001 2.5060412370593155e-001
      -1.6033047409615245e-001 -1.1661233672788905e-001
      1.4127502268262351e-001 1.9008209742265217e-001
      1.3185796819747064e-001 1.2865960177928082e-001
      -1.6934569414295919e-001 -3.3798912481702326e-001
      2.1459447153473716e-002 -1.5037743199625531e-001
      -7.2137153953405742e-001 -4.6496353333318402e-001
      2.8551320548786313e-001 -3.6266119853645978e-001
      2.8350637664871625e-001 1.4126529716637065e-001
      -9.1425209730741450e-003 -7.0682447535500390e-002
      -2.0752175900915121e-001 1.1149154844087440e-001
      3.9375847855807877e-001 -4.0835412626644851e-001
      -1.8317428374161501e-002 -1.3565018923105704e-001
      2.0196812528400960e-002 -5.6871313245388064e-002
      -3.2204358093305918e-001 -3.7276678161162619e-001
      -6.9823649759348572e-002 -1.5624440627508226e-001
      3.1638315407592293e-001 -2.6453215208126980e-002
      1.0375934409805265e-001 2.5779374283563833e-001
      9.1415688258386710e-002 -6.0687603392235841e-002
      2.7001275114214507e-001 3.2087815212303089e-001
      -2.8839330101934435e-001 -2.5042118992491075e-001
      7.5076304960003573e-002 4.2315751933891343e-001
      -2.5103126077289367e-001 -2.0509489818777624e-001
      1.1662754403277889e-001 2.4279567056997628e-001
      1.0292932220298663e-001 1.4845754665914898e-001
      -2.4972767730473427e-001 -3.5726922262077038e-001
      7.7414587294884207e-002 -1.1426114768105432e-001
      -1.1120423965553885e+000 -2.7743292406234604e-001
      3.3877246233096153e-001 -2.0679666324569052e-001
      2.5610321861646085e-001 1.8023938538999909e-001
      -6.6352888531990270e-002 -1.1643757561565177e-002
      -1.2148641577947294e-001 1.1351635326207239e-001
      2.3346045657249589e-001 -2.3665644380412199e-001
      -6.9551556304732328e-003 -7.8996035364226100e-002
      -1.7918578793364937e-001 3.6744559342080957e-002
      -1.7884130878398860e-001 -2.1923641516235801e-001
      -5.0086553229708314e-002 -3.3396605152863100e-002
      1.8327897881365882e-001 -1.4898557978676662e-002
      1.0430147788099610e-001 1.4488568483374242e-001
      8.5982073597283173e-002 -8.4236219967023657e-003
      1.6783795198507598e-001 1.8231777652742304e-001
      -3.9155881301209644e-001 -1.3320271350558216e-001
      5.8228142294462916e-002 2.5253164716411525e-001
      -1.4203361322159899e-001 -7.9960374992974065e-002
      2.0042512307838725e-002 1.4107603294510856e-001
      5.0409194817537958e-002 1.2875655659363015e-002
      -1.4357761453874465e-001 -2.0160170866128346e-001
      1.2970337261194956e-001 -9.1838831283834174e-002
      1.0546059188767600e+001 -1.2310511548361432e-001
      3.1485991777323939e-002 -1.0343257816169668e-001
      9.1816720856465694e-002 -4.4585773776552429e-002
      2.8491405191765053e-002 -6.5880041152799065e-002
      -5.8869851474236838e-002 -5.6210393007165071e-002
      1.1994984202900996e-001 -1.0698065840270443e-001
      2.1596314378570340e-002 -4.0165991797216638e-002
      -1.6999189628220567e-002 5.1048571062770943e-004
      -8.8604932509999138e-002 -9.9464073688028745e-002
      -4.1440492989216031e-002 6.2766356763547693e-002
      9.1640889218916902e-002 -6.0142900340920458e-002
      4.5705261696306156e-002 7.3372619785657942e-002
      -4.8812588689999582e-003 1.9109475225853371e-002
      7.8905525493442499e-002 8.4752394903154435e-002
      -2.0897192705685522e-002 -5.8527057673322717e-002
      8.9079916373176818e-002 1.2128148951414633e-001
      -7.1270558124793312e-002 -6.6994325680552788e-002
      2.6680035402481497e-002 5.9910735790359534e-002
      -1.1538543347376249e-002 4.0206186962350642e-002
      -7.4878996761421207e-002 -1.0607984653785707e-001
      1.3741105146812754e-001 2.0892290196780530e-002
      1.5757874928727384e+001 -1.9768455168835719e-001
      4.8473146461532585e-002 -1.6105406127815233e-001
      1.3614535086983670e-001 -1.1454210596163843e-001
      -1.2993778359611553e-002 2.0842462953478591e-001
      -9.0580533829902291e-002 -2.1876200962050632e-002
      1.6738265767527430e-001 -1.8223822664269923e-001
      5.1169275799271108e-002 -4.6936843241989865e-002
      -3.9718124426064573e-002 1.8709062469085443e-002
      -1.3746426944016729e-001 -1.6775986621727654e-001
      -1.1533509435945419e-001 1.3454492226054829e-001
      1.4353110854761938e-001 -8.1754808729121262e-002
      4.5343208902053324e-002 1.1489056722269106e-001
      -6.5497203818664307e-002 -1.4336868877320952e-001
      1.2233042286439841e-001 1.3138201319942899e-001
      -5.5339265010786731e-001 -9.5528969946284802e-003
      5.7957853452579278e-001 1.8902310026781682e-001
      -1.0740731563414672e-001 -7.5412140279551829e-002
      9.1832812173573183e-002 1.0716505396076281e-001
      -6.5073443978350617e-002 4.8107056787304016e-002
      -1.0758017518812057e-001 -1.5114722618243576e-001
      4.5788450204840417e-002 5.4140298415066720e-002
      1.5902077643082389e+001 -2.0580749192377376e-001
      4.7071800656895417e-002 -1.6201399971822458e-001
      1.4870622011282267e-001 -1.1517060214116676e-001
      -1.7002601131512536e-002 1.9913269092129515e-001
      -8.6035900527881584e-002 -2.3282665799265870e-002
      1.8237283351304839e-001 -1.8903034482732842e-001
      6.1918382054893049e-002 -5.4414418650754193e-002
      -7.0613326734485352e-002 1.8330920274843496e-002
      -1.4363670465757164e-001 -1.6270169317452041e-001
      -1.2128782771792175e-001 1.5472452184701069e-001
      1.4240320595392744e-001 -7.8465946052828708e-002
      1.3774167626323365e-002 1.2378701210077046e-001
      -6.2515877224869842e-002 -1.4636233025840245e-001
      1.2050567991049303e-001 1.4536965545374969e-001
      -5.8677226193911369e-001 8.7464514631524614e-003
      5.6899973704973228e-001 1.9143188341322587e-001
      -1.1740886156885338e-001 -6.5696970658833551e-002
      8.5913661965480587e-002 1.1020390184992036e-001
      -7.5115467051145204e-002 5.4820714787224667e-002
      -1.1881095507570230e-001 -1.5441668471851280e-001
      2.4866196194991624e-002 6.7747810725995658e-002
      1.8277422773590206e+000 -1.6167056091998355e-001
      -3.7810848657253954e-001 2.9498823857037365e-001
      3.0259674761957628e-001 -5.8017112740185617e-001
      -7.2325374850136695e-002 1.0033361500276587e-001
      -3.2854782645279113e-001 -3.5649881831965774e-001
      -1.1887520977379173e-001 7.0340838619632862e-001
      -1.7531576247654812e-001 -2.6592112281729030e-001
      -3.2534979184464691e-001 2.8262151480941339e-001
      -1.8977910860643527e-001 -1.7717951631103593e-003
      -5.6072899198331572e-001 -3.5666768484269901e-001
      1.3143589040425837e-002 -4.9025458793131077e-001
      -4.1237535622904520e-001 -2.2727306620385444e-003
      3.6631212927070173e-001 2.5043494477747641e-001
      3.6593081659906301e-001 3.6318498939242083e-001
      1.9433499308173163e-001 2.2007950020454893e-002
      7.1469879261419456e-001 3.4530491550483142e-002
      8.3360646618492408e-004 -8.7028967183758285e-002
      -2.7529364888708230e-001 1.8859848773210541e-001
      -9.4164810646266042e-002 1.8178601467019762e-001
      2.5059367291950796e-001 -4.2699407405020307e-001
      -1.8000726018999438e-001 2.4830555685144671e-002
      1.5627061700588283e+000 -2.3320062122341956e-001
      -5.9211712497095825e-001 -1.2839836727263754e-001
      5.9137392846024728e-001 -5.9323749996515651e-001
      -1.9240313841376039e-001 -2.1790026440728881e-002
      -2.1919881864137337e-002 -3.4262251100680241e-001
      1.8179602985348742e-001 -6.9007028565446626e-001
      -2.4035441297401963e-001 1.0196279692698539e-001
      -1.2718945237829041e-001 -2.2571797872726931e-001
      -3.2451433187571582e-001 -1.0636091206267766e-001
      2.8673215301972638e-001 6.5049149437368600e-002
      -2.6558812077682092e-001 -6.8790833031560517e-001
      -4.5276122063556573e-001 3.5208480987120572e-001
      3.1208004410325929e-001 5.6288971730095916e-001
      -1.1540990485548607e-002 4.3951490502241464e-001
      -6.0861352672534570e-002 -2.1123305589841185e-002
      4.0702940910097557e-001 4.6127590807395723e-002
      -9.4287295075740507e-001 -3.5923734516720464e-002
      1.7120731253568777e-002 -1.5242661545765977e-002
      5.1100915163841165e-001 -5.5723667175878966e-001
      -9.8672781423790198e-002 -7.3331390145409949e-003
      4.4993601807549344e-001 -1.2448495399963397e-001
      -1.2930356085421073e+000 1.7496227096699385e-001
      -6.7039322635243626e-001 -2.3252168652607241e-001
      2.7209155624355763e-001 -6.0758939773271525e-001
      -3.6694814510014363e-002 2.1963987551276351e-001
      2.5705859714278667e-001 -3.3303499196457614e-001
      1.2992736896579130e-001 -1.0314594322045632e+000
      -2.5488753171719780e-001 -6.0379204826331245e-001
      1.0516821847932891e+000 3.6650385024514320e-001
      -3.3947311373781691e-001 -1.3394376508947414e-001
      -1.6444894506927490e-001 1.9359410101631042e-001
      -3.5768051776540510e-001 -1.2671352764659133e-001
      -5.9591568023435904e-001 -1.5438649502622936e-001
      1.8461973841867624e-001 -6.5911739277321357e-002
      1.6705028243210007e-001 5.1093054931086901e-001
      -3.5642988056479169e-001 1.7246205663206979e-001
      -6.8740766292459815e-002 7.2375753636447090e-002
      -7.1421001419973662e-001 -2.9221623628027515e-001
      8.2352756921029266e-002 3.3795737079715099e-001
      5.7654067841957835e-001 -2.7617649094056798e-002
      4.3494192337085580e-001 2.0940720486613440e-001
      1.1082328666564740e+000 -9.6237931357416984e-002
      -1.2432465376443598e+000 5.6576778602707190e-001
      1.8015748623334707e-001 2.6076575108279019e-003
      -2.5628439421927623e-001 -6.2936366476630579e-001
      2.4689640635395993e-001 -1.3996454776430903e-001
      5.6282210332347926e-001 1.2927564649770487e-001
      -4.7066643792081631e-001 -6.6365728048507100e-001
      -4.5482970409521550e-001 1.7419637168442534e-001
      1.4778391910754807e+000 -1.4782814065270922e-001
      5.7126722153370904e-002 -6.0610116204787942e-002
      -9.2614652157705243e-002 -2.0152749047150853e-001
      -3.0088511051406897e-001 -4.7368607141951119e-001
      -1.3324594450099969e-001 -2.8116902185840709e-001
      -2.3819053933478168e-001 7.0183458477228969e-002
      -4.2452041503794452e-001 8.2383882510722262e-002
      -3.2479169620418152e-001 4.4032756266678651e-002
      -4.3080288256641362e-002 -9.8507807221873619e-002
      -2.7257189396643078e-001 1.1914068113660064e-002
      3.5663552497080581e-001 1.6938681506123685e-001
      5.9585026869819047e-001 -2.7613861919378535e-001
      2.0886239528292028e-001 8.6539593798561543e-001
      9.7937442646570183e-001 5.7260541696547740e-001
      3.3629902721966692e-001 3.4421908934031470e-001
      2.0927649437391618e-001 3.1647316582206519e-001
      -1.6975262966694632e-001 -3.7359400223316214e-001
      -2.6241421450408937e-002 -8.1155230758553298e-001
      4.5755188761194093e-001 1.8532195343577276e-001
      -3.5503743886821426e-001 3.1029042067470469e-001
      -1.5844346251207703e-001 4.5689811136685810e-001
      2.5563903159064999e-001 -4.5890594568345994e-001
      1.1767467932049036e-001 3.9962633588335704e-002
      -1.0146986400616177e-003 -2.8076354083905614e-001
      -6.7526413073367986e-001 1.8902692272966737e-001
      1.3882870662304175e-001 6.8275662952417562e-002
      -7.2200645509799533e-001 -1.4042139283643215e-001
      -1.1347016857495427e-001 -8.9050374501143836e-001
      -5.7876291334404445e-002 -5.2984841891662271e-001
      -2.5981251727011151e-001 -1.5080567496594496e-001
      -3.4345282816989003e-001 4.6218041501003276e-001
      -1.2140366815395141e-001 1.2093387935249832e-001
      -4.1977463192842929e-001 -1.4309165046816960e-001
      -2.5756480133029069e-001 3.7347726903379086e-001
      1.4853655497131318e-001 8.7417843890545716e-002
      -3.0692365396246930e+000 2.4762334077990403e-001
      8.1708198328416383e-004 2.7233059017662764e-001
      -1.1433441476926545e-001 -1.3901336057161989e-001
      -2.3380649701549090e-002 -7.0041296530071151e-001
      4.9514685493926419e-001 -1.3363918020146223e-001
      -1.4084466167834805e-001 1.3641096629936447e-001
      -3.7191622733790280e-001 -3.4542207633093502e-001
      3.6258498391510238e-003 -1.6201349575816734e-001
      -9.9882822181226821e-002 2.4563619376835034e-002
      2.8633998036606097e-002 -2.3395233877224406e-001
      -4.4503143186710681e-001 5.7629085970158345e-001
      -8.7279971947566551e-002 1.2861634324863069e-001
      -6.0824388194127732e-001 -1.4246853277223057e-001
      -1.3287735688813708e-002 -7.5700310743366539e-001
      -6.2139675876696020e-002 -2.4618306914863511e-001
      -2.0285443225373426e-001 2.8257027276219971e-002
      -3.7603170915106654e-001 1.2197933919795387e-001
      -3.4213086619344696e-001 -2.0969791532917739e-001
      -3.6909713776742464e-001 3.7133035436150923e-002
      -1.8548496354446534e-001 5.8303549407741040e-001
      2.8140865451299479e-001 2.2641052832031935e-001
      -3.5846468623784538e+000 1.2696228293103393e-001
      -3.7165137452005820e-001 2.4643073125208326e-001
      -1.0401752189114905e-001 1.6313727255976648e-001
      3.2590252545509596e-001 9.3114042659835874e-002
      -1.9112599811455155e-001 -2.3502602081872584e-001
      1.2215056962185993e-001 -5.4565367756507333e-001
      -2.6084296791063560e-001 -5.2331335897644304e-001
      2.8306071108626996e-001 1.2814251998196616e-001
      -2.8952459846022671e-001 5.8464522690524025e-002
      -4.1154087682816481e-001 2.9911454909298013e-001
      -2.1665356168344210e-001 3.6547175188367753e-001
      -2.1673419795197452e-001 2.1560625573018624e-001
      1.3748871071289720e-001 1.9722624562515884e-001
      3.3858061362412928e-001 -5.9952268582752399e-001
      -5.6814842700641865e-001 -3.0742329317362221e-001
      -2.6665504598051715e-001 2.2553929919959251e-001
      1.6225271767728245e-002 -1.3370025872235530e-001
      -1.1262201614640095e+000 1.7159217962788081e-001
      -1.0931619638087438e-001 2.0442650713884475e-001
      -9.0418342591582365e-002 8.0389099774320971e-001
      2.3615935196855162e-001 4.9104495209759041e-001
      3.0378804414097984e+000 1.4039244785427521e-002
      2.9549469111885209e-003 2.9649778790316417e-001
      -8.6206773572225823e-002 8.9032967101934590e-002
      -1.5193192608132667e-002 2.7155726405563352e-001
      -2.5083775017914528e-001 -3.7255024245001639e-001
      -2.2998824867995971e-001 -2.1004892264004488e-001
      -3.7199309247579787e-001 -3.7840086696138980e-001
      -7.6562539772061941e-002 4.7425699358624930e-002
      -1.0960072432484794e-001 2.4909668030316068e-002
      -6.2647639552818390e-001 -3.9054579735604271e-002
      -3.3277229927180835e-001 -3.5998592142020758e-001
      -4.0799416855039641e-002 -2.5440682333972187e-001
      -1.7389801504695149e-001 1.6312487740247736e-001
      -5.3807050335935081e-004 1.8896594388708865e-001
      -3.0953937742435889e-001 -4.5689422884792930e-001
      3.3903934917710052e-003 9.3390584353332848e-002
      6.3114842167870044e-001 1.4849570733160813e-001
      -6.7070427838458835e-001 9.0814497109321657e-002
      -3.3287899217184454e-002 2.5941456999736068e-001
      -5.3977195949324638e-002 2.3203643704217325e-001
      3.0127267682383968e-001 5.3018212696470814e-002
      6.6092914167307431e+000 -2.6378079528478152e-002
      -1.5586485046852500e-002 -1.0131565102628371e-002
      7.9256721911403524e-002 2.3216440698350918e-001
      2.0785687521903254e-001 -9.3652413002213414e-002
      -1.2511072866562706e-001 8.8321341527971858e-002
      2.9431249983117214e-001 1.4036697972731260e-001
      -3.0526195276753870e-001 -1.4357099007739496e-001
      6.9017134902651364e-002 -2.4866325011395274e-001
      -3.9809865136631144e-002 -8.0773374755530994e-002
      -3.7372384998601532e-001 -3.4877505420443516e-002
      1.7745424105371405e-002 -3.0821678834305005e-001
      1.1325511371607840e-001 -5.3185370955942356e-002
      1.0463156605475173e-002 1.7455758004981954e-002
      -1.5261765399752295e-001 1.8135164061292619e-001
      7.0051375151451004e-002 -2.2336193530946305e-001
      2.1128347849804757e-002 4.3770883076012922e-002
      1.2748060408689119e-001 1.1274405585380579e-001
      -2.4173512957428578e-001 8.3093668251530570e-002
      9.1827184566507777e-002 1.5734219408147149e-002
      -1.6397710357187201e-001 1.2075533432307947e-001
      -4.5291218277108337e-002 5.9422625414453339e-002
      3.7600900002905351e+000 -3.3606635682836833e-001
      2.2319673950489477e-001 -3.4256322164016911e-001
      1.2378730779802907e-001 2.5618397781473859e-002
      2.8195313412444395e-003 5.2344285643250506e-002
      -2.4819296333026575e-001 -3.7504843749613999e-002
      4.3635715161138017e-001 -7.6653811536164157e-002
      5.1776106745744975e-002 -2.5597298375445238e-001
      5.2620901260006792e-002 7.7601770226110062e-002
      -1.8965155980878243e-001 -4.7613766076422015e-001
      1.1463379100048193e-001 -1.4410711643705137e-001
      2.7309043275653017e-001 4.5143774275290552e-002
      -3.4985937920031143e-002 2.9386578932172691e-001
      1.6642950620081205e-002 -1.1647676073713011e-001
      2.4179117689911464e-001 3.1573139429057917e-001
      -2.9689322801372769e-001 -1.1190202875510982e-001
      4.9889943571294094e-002 2.4181074797662674e-001
      -1.4851307714927797e-001 -1.1945186059875765e-001
      9.4190080584644897e-002 1.7606202379362787e-001
      1.1518441631016860e-001 1.4868837631853271e-001
      -2.0759491550567266e-001 -3.0525499648076670e-001
      6.2070377414543042e-002 -8.5702040415332997e-002
      -3.7345748835868936e-001 -4.7670612028831250e-001
      3.2754488698243606e-001 -3.6547877404844559e-001
      2.3937252327840580e-001 1.2640100816599892e-001
      3.1369722795749268e-002 -5.7459791390068612e-002
      -2.2192643224469485e-001 9.2776366777362932e-004
      3.9869687495085748e-001 -4.1580065779894504e-001
      -4.3551560121657821e-003 -1.5270290199404904e-001
      1.4940207389768670e-001 -9.8041343768652769e-002
      -3.3067189956135767e-001 -3.8222510951847494e-001
      -6.2865726258565915e-002 -1.7877627219539446e-001
      3.3641914864811517e-001 2.0472982271169244e-002
      4.1183860551863669e-002 2.6986526485227569e-001
      7.0017401970749238e-002 -2.8756447955620237e-002
      2.8806684599891214e-001 3.1865841769094089e-001
      -2.2274749033873092e-001 -2.8082515835212946e-001
      1.0712761185765095e-001 4.3099543769309451e-001
      -2.6605013411962619e-001 -2.0550634030260201e-001
      1.0330239695553023e-001 2.4431396879329326e-001
      1.1739119087242848e-001 1.5812107968720196e-001
      -2.5140645232377812e-001 -3.5294244693887022e-001
      1.2248892941530479e-001 -9.0829955501550791e-002
      -6.5011288751914809e-001 -2.6996086281999271e-001
      3.6601203464318921e-001 -2.1809721630263104e-001
      2.2906279128113599e-001 1.7245598426447961e-001
      6.4118115582657504e-003 -3.3692682510748528e-002
      -1.2125221229847379e-001 -3.4623301529987265e-002
      2.2551174538182725e-001 -2.4449995270293337e-001
      -1.6093115064858318e-002 -7.1699783257377137e-002
      -3.8531361032293814e-002 -3.8888444709120451e-002
      -1.9244373092666325e-001 -2.0641701093059428e-001
      -3.9254728055392631e-002 -4.3749325750184191e-002
      1.9544490946264975e-001 1.9578525794971172e-002
      1.1572863671231445e-002 1.5569474036402781e-001
      4.2606277700230941e-002 4.1542485184307913e-002
      1.6507508296366741e-001 1.8099733668595683e-001
      -2.7923733703437376e-001 -1.1931080686555390e-001
      4.3098605655274340e-002 2.5214793664420460e-001
      -1.4398946404581672e-001 -8.6968951715172355e-002
      2.5544766166991577e-002 1.4687069538720834e-001
      6.9434151996131704e-002 1.0536424106722921e-002
      -1.5086481493561982e-001 -2.0025364058577122e-001
      1.4910727327665046e-001 -7.3078497131003145e-002
      8.4069021742520071e+000 -1.1308665901025813e-001
      2.6545975332178551e-002 -8.5469074506651865e-002
      7.4389919541059529e-002 -3.4488994669943270e-002
      8.8507499637246571e-003 -4.0486542440556432e-002
      -4.0004902454409207e-002 -5.9316636697019719e-002
      9.6104549181854515e-002 -9.9444139771631773e-002
      -4.9653131036900000e-002 -2.8069782042617297e-002
      2.2743011361679808e-002 -7.4899402634434446e-003
      -6.7440599122033901e-002 -7.8290623243024091e-002
      -1.1902335710044190e-002 5.3787272535887096e-002
      7.5801632075859562e-002 -4.1100846035177392e-002
      9.3147535166084233e-002 5.3400958115905985e-002
      2.1014563029833209e-002 1.9457871900227117e-002
      6.7684597642020158e-002 6.4981182962136189e-002
      -2.1392530001848903e-002 -8.0230281289482439e-002
      4.3759578012393580e-002 8.8346902461048440e-002
      -5.5577547316748806e-002 -5.8160907490701165e-002
      2.7682759714261335e-002 5.2500167772623389e-002
      -6.2746834924796643e-003 3.9652541394545625e-002
      -5.5664524608187743e-002 -8.4462397881330434e-002
      1.7220280358758380e-001 1.2665391126255601e-002
      1.6614567917407861e+001 -2.1189719458103165e-001
      4.2446637269632999e-002 -1.6549615956140015e-001
      1.4305632341288690e-001 -1.1856693530213896e-001
      -2.2170276354443515e-002 1.5067633973829381e-001
      -9.9996262050065926e-002 -3.6489767283164436e-002
      1.8473689506853164e-001 -1.9497732661835404e-001
      5.4770115276728893e-003 -5.0560030151864777e-002
      -1.0728093366087127e-001 4.5831574887021116e-002
      -1.5464418295437460e-001 -1.7047099401802199e-001
      -1.7270520896542235e-001 1.5255859991949389e-001
      1.4289124476584830e-001 -8.3209383397487416e-002
      5.9076424537773724e-002 1.2303006489816404e-001
      -4.2277738347409805e-002 -1.1060820578609663e-001
      1.2097410086479057e-001 1.4673640628754922e-001
      -5.9285850282098540e-001 -2.6539884899581215e-002
      4.8219342930904185e-001 2.0661842711703032e-001
      -1.2345014292545750e-001 -7.7705301594979306e-002
      7.7064718572387989e-002 1.1218896836193282e-001
      -6.2902396303385205e-002 6.1770136651588647e-002
      -1.2092826364817642e-001 -1.6903249118952582e-001
      5.6893397918127031e-002 6.5396417394267131e-002
      1.6789643502012645e+001 -2.1856624123852209e-001
      4.4173325534060760e-002 -1.7463440975740949e-001
      1.5892597807534140e-001 -1.2695575148831365e-001
      -2.4182560189775631e-003 1.3138316169196629e-001
      -9.1716243475564022e-002 -2.9075960838791118e-002
      1.8610931660415056e-001 -1.9214497939597874e-001
      1.8561124377029101e-002 -5.4505513218105005e-002
      -1.4723882023300550e-001 7.4527715495782354e-002
      -1.4504532861379929e-001 -1.6802827403788781e-001
      -2.1498583884700842e-001 1.5684770757287833e-001
      1.5073889770551788e-001 -9.0048237173775886e-002
      3.7222440872068677e-002 1.3399807650719309e-001
      -3.2475559264125251e-002 -8.7337073094047188e-002
      1.4097300019553236e-001 1.4302956812881976e-001
      -6.0702144149323134e-001 -1.0288690963166276e-002
      4.4619430619046768e-001 2.0038256727854756e-001
      -1.1591418865631535e-001 -7.7442212895504653e-002
      7.8544170056087007e-002 1.0749154444930092e-001
      -7.0663131649457658e-002 4.7278805867115192e-002
      -1.1626424064292618e-001 -1.6802115095506748e-001
      1.6042193114457273e-002 5.2929409769589597e-002
      -7.9208969998343437e-001 8.4484725371315780e-002
      -2.8941348172093501e-001 1.2226224069573331e-001
      2.7638962333171269e-001 -2.1299929950503163e-001
      1.1305014899739994e-001 -7.1641392018251288e-002
      -1.7712210913005358e-001 -3.1159637150406233e-001
      -1.0298051733692189e-001 -1.0245123855635696e-001
      1.3773599105122901e-002 -8.4348612915212909e-002
      -3.5034262030462854e-001 -2.3328171106038753e-001
      -9.0501352808336585e-002 2.7897664025768845e-003
      1.2643637255301199e-001 3.5854694524412245e-001
      -1.5972102535513635e-001 -1.8277385272789151e-001
      4.7316330301465137e-001 -3.2889406961997582e-002
      1.6967620756358140e-001 6.3138018889350486e-002
      -2.5073228107937029e-001 -1.0248733578585337e-001
      -8.5606078554952864e-002 -4.3952878992384276e-001
      1.5167622585170415e-001 -7.2095099919719699e-002
      -2.6540282594179271e-001 -1.4262142346525933e-001
      -1.0661579218092092e-001 1.6558389288954223e-001
      -2.0003192553568475e-001 -4.5857737352196287e-001
      -3.2721802687328622e-001 -3.5666300813950158e-001
      3.6633177463072965e-002 -3.9521876660536553e-001
      8.0086232807660751e-001 -1.0375226526257411e-001
      -3.1983307982867787e-001 2.1857645227636526e-002
      4.3602682666536519e-001 -1.6765694728743563e-001
      -2.8726017868529979e-001 1.2020280503816375e-001
      -6.3271051638046933e-003 -5.9548204897689161e-001
      -1.2886127713764201e-001 -1.4154944062039748e-001
      -2.4289922632972447e-002 -3.9659810645976561e-002
      -3.4216511411353595e-001 1.3934739051724250e-002
      -9.5580582623416330e-002 2.5541825101112631e-001
      2.3624824689773194e-001 4.4959565334430152e-001
      -1.1160958610634483e-001 -9.5739166756444963e-002
      -8.7550637170504000e-002 3.2766443823673447e-001
      2.8290058364177656e-001 3.6819656260627670e-001
      1.5403477311675987e-001 -2.9796155322229367e-001
      3.1956443142767998e-001 -7.3970062582373944e-002
      3.3498230368071641e-001 3.3623406249020729e-002
      -5.0014469529208883e-001 -1.8162937088600339e-001
      -2.0386236527863591e-001 2.9911333649699667e-001
      -3.9021180411668627e-001 -3.4894076717066480e-001
      -3.7323781359768377e-001 -3.5565061780278018e-001
      -1.9202553589342275e-001 -2.7432605291991846e-001
      4.9652042317630292e+000 -1.8932913168146628e-001
      -1.3767381559499778e-001 -3.4991049030149796e-001
      3.1190805563417529e-001 4.4484001556856008e-002
      -1.7619788782529650e-001 -1.2063154174395180e-003
      6.8640254014309482e-002 -2.9597769367440807e-001
      -2.1829651624357796e-001 1.3153648594851453e-001
      5.5528569519674165e-001 -2.0473996210866036e-001
      -9.3665741678862682e-003 4.0554345153493498e-001
      9.6188671921457209e-003 -2.4207762034882688e-002
      2.4733242022010278e-002 1.7974965536033699e-001
      -4.3326502057396445e-002 5.8142966722545841e-001
      -8.8302106200681976e-002 -1.4406318278275143e-001
      2.6653298819083775e-002 -3.6381668509975668e-001
      5.8632196791337732e-001 4.0008450657431444e-002
      2.3546185776199501e-002 2.4323769826922939e-001
      -4.4641268384164393e-002 2.4858684344957718e-002
      -5.2160173126728759e-001 -5.5906475787017816e-002
      2.0933544205783472e-001 6.2809658270632340e-001
      -1.7565555261844268e-001 2.9611149480540767e-002
      1.2274242538068875e-001 -3.2103014713552841e-001
      -4.1196771225114365e-002 -5.5917751600150611e-001
      3.4959651749505531e+000 2.5957716445384016e-001
      8.3020188055451105e-001 -1.5505871471697513e-001
      -4.6502190117812775e-001 -1.3083022412516265e-001
      1.2074438258542854e-001 1.1738281220502787e-001
      2.0079558001488249e-001 -2.0035223319886827e-002
      -2.4851536307395872e-001 3.8188462914613236e-001
      2.7318705087840556e-001 5.0752159464287194e-001
      5.9077545087679217e-001 -3.8453733714672256e-001
      4.9802134273799376e-001 -1.8442968470612101e-001
      -4.3735388714724752e-002 -2.3595189480040019e-001
      9.7567921785471513e-003 5.5290180044258843e-003
      2.1767813948414885e-001 -2.2902538922417603e-001
      -2.8342072618082653e-001 -1.0230241881653078e-001
      1.0014681594052063e-001 -2.4975242365444547e-001
      7.3946121080507771e-002 1.7879954145372517e-001
      -3.7088377258781996e-001 -5.3781578479805803e-002
      -1.9867535319131102e-001 3.7264860302016659e-002
      3.7207528297038156e-001 2.0041360708436903e-001
      3.4098299762428251e-002 1.9849877727843673e-002
      -1.2499386787662241e-001 -1.2342070614393470e-001
      1.2724511718860992e-001 1.5234746182477329e-001
      2.1640602006110949e+000 2.3598676678418784e-001
      5.4305232416673177e-001 2.7489649019331353e-001
      -3.9771400741798274e-001 -2.4186960990375125e-001
      8.7043728443831458e-002 -1.7752359796046555e-001
      6.3574985411468943e-002 3.0933038609909047e-001
      1.1565150238826222e-002 1.4997403159026668e-001
      -1.5211193162442666e-001 3.5799218355557338e-001
      5.4918838779883949e-001 -5.7350847192669019e-001
      -5.9843281387552655e-002 -4.6447577435032000e-002
      -1.4325328328319595e-002 -4.8200912859738221e-001
      -3.6593366149078038e-001 -7.6439849416256131e-002
      -4.4712940120786304e-001 -1.1421733460398018e-001
      -1.7291257843375782e-001 -1.0094641231272675e-001
      -2.6981085495443752e-001 -1.4868342557685116e-001
      3.5903529636448300e-001 -4.4690756943274340e-001
      5.4433343150474482e-002 -1.4338597311868767e-001
      4.1725692718845332e-002 2.2809924135153242e-001
      -6.6378299578427183e-002 1.2905925278412889e-001
      8.6911546286234237e-002 3.1815656973427275e-001
      5.7605436455616797e-002 1.9624109038602630e-001
      -1.2977489701393854e-001 3.1572794135762117e-001
      -2.1032631762449685e+000 1.1345074584678609e-001
      1.6953257379243147e-001 3.3125843314985781e-001
      4.8390235520850283e-002 2.9265401816076986e-001
      -2.2789967089969057e-001 -3.1800475738298783e-001
      1.6588708550470846e-001 3.7423838808495991e-001
      2.4366476812528207e-001 -1.1810968530325663e-001
      -2.3197953959335907e-001 -1.2835953931598529e-001
      1.2265787075064419e-001 1.6959930680559912e-001
      5.1279281834284436e-002 2.5897415504738380e-001
      3.5739671189768085e-001 -2.0301494656211111e-001
      -2.9982945747565448e-001 3.3527923033183771e-001
      -1.1784270340471128e-002 5.7062088420041700e-002
      -3.0264959215911874e-001 -1.9261514053389289e-001
      -4.7096179752943002e-001 9.9409040889129552e-002
      1.7723783137434743e-001 1.9743478682502882e-001
      -2.6250514588443996e-001 1.2453397379671781e-001
      6.4100552009186490e-002 3.8479048621651968e-002
      9.5624250406961472e-002 -2.0715018330527460e-001
      1.8413751131033940e-002 6.6070924916415391e-002
      8.0346861568664704e-002 6.5567841175276087e-001
      1.0361304506444802e-001 3.6350132194919127e-001
      -8.2406736214012011e-001 4.9340638987687750e-002
      -4.5679529229536442e-001 4.4848963473548020e-001
      2.8798829303399187e-001 4.4655276612386741e-001
      6.8110334949504830e-002 -4.4673910230103239e-002
      -7.3553050895466085e-002 -1.7533012838092898e-002
      2.7989484990421787e-001 -7.2378982670643754e-001
      2.8920619150871474e-001 -4.9671996451239103e-001
      -2.0075219625545979e-001 1.2445471264630087e-001
      -3.2156517372323506e-001 3.4261529763483684e-001
      -2.7034886856080104e-001 1.9813313817407119e-001
      -5.8321002337134609e-002 2.6048742635636962e-001
      3.2986647823100385e-001 -3.8940891319473966e-002
      7.7592247450840313e-002 6.0495068160337673e-001
      -2.4378519320772660e-001 -4.4996855732537056e-003
      -5.9590740078532212e-001 -2.6201943170369398e-002
      -8.6547902400670673e-001 1.0059901700479618e-001
      6.8614361418184511e-001 1.6446375388112285e-002
      -9.9790146404110092e-001 4.8975476643849547e-001
      2.0498505962170846e-001 1.6837889306516618e-001
      -3.1761178407148460e-001 5.8009270477827646e-001
      4.5305878387954568e-001 2.8107915961679265e-002
      3.5380685543826611e+000 5.8451301943721404e-002
      -1.6542512687349281e-001 3.6437576587444664e-001
      9.5045750799115494e-002 1.4642202458110823e-001
      2.0732467723799772e-001 5.2156354609300881e-001
      -3.3060111722953001e-001 -1.5471768570406372e-001
      -1.3754296872816563e-002 1.6098618569872155e-002
      -8.3524044835733902e-001 -5.2134148092671595e-001
      -2.6640426976551124e-001 1.4558161124626234e-001
      1.2705245753496873e-003 8.1916909675981670e-002
      -1.9961289443018357e-001 -1.5255615900863120e-001
      -3.8758978971724323e-001 -6.1163772030505725e-001
      1.5800540124530224e-001 -2.1076752873701382e-001
      -2.6540241187753516e-001 3.6649612812502214e-001
      -1.4330139118619545e-001 2.1866369283756029e-001
      -5.0562088866020233e-002 -6.5773410970465529e-001
      -4.5641546009144113e-001 -5.8712609245007968e-003
      8.9518724797566351e-001 5.1465925019987446e-001
      -1.0556746168667681e+000 2.0202845704089031e-001
      1.1920395186317356e-001 3.8317209388746271e-001
      -2.7159255837677121e-001 2.3603185400864876e-001
      4.8312482146089081e-001 -1.6180535754994813e-001
      4.0830850394448550e+000 -4.7563306488447692e-002
      -2.7476208416224557e-001 -1.0364310673907684e-001
      2.3451147615277532e-001 1.5430936585428909e-001
      2.2964663377334002e-001 -1.3860553145038612e-001
      -2.1551275570612433e-001 -8.3213715166513436e-002
      1.4074579741528181e-001 -8.5602465890165916e-002
      -4.9474637785333375e-001 -4.8432666219769810e-001
      4.6253100241053662e-002 1.1914922543306095e-001
      -5.0383773595910689e-002 -2.0263809831967597e-001
      -1.9502264703263175e-001 -4.5289706205466705e-002
      1.1029300362418921e-001 -3.7123615389798065e-001
      -1.4698106115217791e-001 -6.2073203831001178e-002
      2.7918555538229334e-002 1.3723492302522333e-001
      4.5060332456326929e-002 7.4264020961874039e-002
      -9.8519913492483527e-002 -2.5861181899333791e-001
      6.8255138899248474e-002 9.7580450480645273e-002
      -1.6039041928360784e-001 2.4807218199168571e-001
      -6.0135456373067675e-001 -3.7088640181833506e-002
      1.7777029210308073e-001 1.7640585076839801e-001
      -1.6734926521101748e-001 1.0237648580729128e-001
      1.1615128536376300e-001 1.9354317857868408e-001
      4.6803342445686100e+000 -2.7679797043544546e-001
      2.2012834731535511e-001 -2.7472126335694658e-001
      1.3862191814922159e-001 6.5310128512359789e-002
      -3.0684617609737518e-002 1.0001847930750780e-001
      -2.2283130340986634e-001 1.3834747362367394e-002
      3.1730000104965617e-001 -1.5007302281068721e-001
      4.8675352268806558e-002 -1.3125373533959256e-001
      6.5316249617726585e-002 -2.9860347368656625e-003
      -1.5583831560345809e-001 -4.7180912093233968e-001
      1.6716903554263241e-002 -1.1308070770747450e-001
      2.0451091855681264e-001 5.1551004443899769e-002
      -3.0306472898089264e-002 2.8063960991702186e-001
      6.4517285833012014e-002 -7.5763018435453702e-002
      1.9810762894201081e-001 2.8156333883420626e-001
      -3.3678370211238312e-001 -1.4467971848830530e-001
      1.2696624963877018e-001 2.2875033261040012e-001
      -1.4420339261620954e-001 -9.0794767814629293e-002
      6.6122706733632755e-002 1.1773721964618743e-001
      7.3431204405500328e-002 1.5506903090073029e-001
      -1.7527263744647409e-001 -2.5987724320426336e-001
      9.5159316608682515e-002 -5.2798862860986340e-002
      -1.3438094143446128e-001 -4.7297613169703406e-001
      2.9619668223379919e-001 -3.6692657271732465e-001
      2.1249378483857581e-001 9.5058373207414767e-002
      4.0019349960694915e-002 -1.4356242227346537e-002
      -2.1867591388292781e-001 9.3486765171024763e-002
      4.0498897913421861e-001 -4.1969781738734641e-001
      -1.4508503826738441e-002 -1.5705543377459782e-001
      2.2468050113900215e-001 -9.2798119601969292e-002
      -3.3194700469762506e-001 -3.7404288819713105e-001
      -7.1344405352350676e-002 -2.0733481823593955e-001
      3.3072303979282447e-001 -1.5516140894940437e-003
      3.5108248696331362e-002 2.6609769561248353e-001
      5.8145172885455343e-002 -2.9935323869368882e-002
      2.7677841272433151e-001 3.1570924498489555e-001
      -1.9827414591041539e-001 -2.8583693581010067e-001
      1.2541848926416521e-001 4.3412754478301580e-001
      -2.5630799633757467e-001 -1.9779792661051898e-001
      9.6491321157668702e-002 2.3492758117431173e-001
      1.0521863130869871e-001 1.7189065456222483e-001
      -2.5570048546410251e-001 -3.6392948156137050e-001
      1.1153776048526050e-001 -7.3543378796946640e-002
      -6.3293970701273994e-001 -2.7034333939647726e-001
      3.5463240542699082e-001 -2.0183787352113963e-001
      2.2547751811175476e-001 1.7139545386000635e-001
      1.9499186686761337e-003 -2.4960262726169295e-002
      -1.1932790696190600e-001 2.3271151241661805e-002
      2.4244947405659001e-001 -2.4307370691909500e-001
      -1.0425146849136160e-002 -6.2903516643762106e-002
      3.3389194668811427e-002 -4.0787702229439733e-002
      -1.9278781185966964e-001 -2.1370889496709308e-001
      -3.6484734221581362e-002 -3.7248899111989912e-002
      1.8600669877395107e-001 -3.4621304665187012e-003
      -5.0561002766721522e-003 1.4900315539585610e-001
      3.1041674802228834e-002 4.2872385671520970e-002
      1.5917525920037623e-001 1.9205073591394856e-001
      -2.7501977241579628e-001 -1.1968135201718329e-001
      4.9484929750337074e-002 2.4803127981052553e-001
      -1.5020444608117861e-001 -9.0602868072150830e-002
      2.8057402723167080e-002 1.3843533073943828e-001
      6.2309440318766056e-002 1.2925816686301290e-002
      -1.5225777029523557e-001 -2.1170853648766241e-001
      1.4212569099951511e-001 -6.9234997456641301e-002
      1.1367126870677749e+001 -1.4122529178673193e-001
      3.8859393418543851e-002 -1.2063806547143639e-001
      1.0797307258061778e-001 -5.8103337219474617e-002
      -6.5853038495976421e-003 9.5685030762691678e-002
      -5.9846116432751000e-002 -6.3015950137836646e-002
      1.3053579492058742e-001 -1.3074224258745457e-001
      1.4699233089998742e-002 -4.5943720004444369e-002
      6.1341236043161898e-002 -4.1230776914148934e-002
      -9.5204335081383665e-002 -1.1175622156523346e-001
      -1.5980155507745023e-003 8.6865424973235267e-002
      1.0848348789656002e-001 -6.0799301153242377e-002
      1.0359421992295567e-001 8.0644396440938626e-002
      -1.3682805862056072e-002 -6.4611734616814687e-002
      9.4680072143230279e-002 9.6743026925939238e-002
      -2.5212096047894139e-001 -4.6053185395303300e-002
      3.0079448778809476e-001 1.3492399501681954e-001
      -8.0082104924000502e-002 -6.4653168750309353e-002
      5.6691561677682835e-002 7.9883483671086761e-002
      -3.1153536510736029e-002 4.8994702295024908e-002
      -7.5069695428333291e-002 -1.0650430356662927e-001
      1.5840008991263790e-001 3.1064673927615506e-002
      1.6839712682853158e+001 -2.2933967732054225e-001
      4.0514645960784725e-002 -1.7264941367160164e-001
      1.5876405606854155e-001 -1.1264017389481686e-001
      -1.2706490459144966e-002 1.3791895653255115e-001
      -9.4475604063891064e-002 -2.9922946832789055e-002
      1.8933448533030059e-001 -1.8677108200221895e-001
      8.1869958469216932e-003 -6.1585917361152917e-002
      -1.3328800744558950e-001 5.9797965766385131e-002
      -1.5563692040969931e-001 -1.7053200140931557e-001
      -1.9859617293349860e-001 1.4392627159491861e-001
      1.6213295540261788e-001 -9.1210182089734124e-002
      5.8458235513506498e-002 1.3294969757119959e-001
      -3.3155147722113053e-002 -9.7511757927724166e-002
      1.2386130437032504e-001 1.4716077494335922e-001
      -5.7165893893894515e-001 -1.6026719004058887e-002
      4.5135619206360988e-001 1.9269987734323635e-001
      -1.2640877436622588e-001 -7.9246064232311939e-002
      7.0412005801345448e-002 1.1933041963223939e-001
      -6.5534233158584518e-002 5.9678873699943048e-002
      -1.1484675717408727e-001 -1.7418718768142435e-001
      5.2452798982232152e-002 6.1632986845547751e-002
      1.6811967015560324e+001 -2.2995143848104554e-001
      3.9540842818258981e-002 -1.7024082775032975e-001
      1.5888968077342469e-001 -1.2267863507303292e-001
      1.4993405194448578e-003 1.0002497295073524e-001
      -1.0318495674709526e-001 -1.3822321792435109e-002
      1.9643324536280296e-001 -1.9523983534269757e-001
      5.6849475726226143e-003 -6.3732828643491918e-002
      -1.8887366731236663e-001 9.3773619549229303e-002
      -1.5352854529787582e-001 -1.7655785346189184e-001
      -2.4357429557085217e-001 1.4751354722205301e-001
      1.4729899724758774e-001 -9.3387869122835615e-002
      1.4229932154218167e-002 1.2820607477119897e-001
      -2.4448913764155811e-002 -8.6449627678375315e-002
      1.3270735583275317e-001 1.5259909579061301e-001
      -5.8402413729421176e-001 -6.2561165246948327e-003
      4.0122024901706538e-001 2.1035535900726449e-001
      -1.1581603446809438e-001 -8.1970431290346660e-002
      7.2839317633845255e-002 1.1507675441485211e-001
      -6.3763408158927448e-002 5.6600400633741672e-002
      -1.2572284920773621e-001 -1.6311686974470890e-001
      1.0600625697218601e-002 5.2022192890065551e-002
      -1.9130220859957066e+000 -9.5192583321342283e-002
      2.4423028646525008e-001 -1.0936343985654212e-001
      -5.4482520632596627e-002 -1.3168233316827416e-001
      4.5415170453445708e-001 -5.3057515277967460e-001
      -3.4283982243149208e-003 7.2937540990497020e-004
      1.8258670402842868e-002 -1.6532596806145497e-001
      9.7383823551209536e-001 -9.1194316747066864e-002
      -3.4046093441669650e-001 1.1235044279615360e-001
      -1.0594886277772111e-001 -1.4138007143890557e-001
      -2.0443636154839903e-001 4.5151252835269917e-001
      2.4704324419431573e-002 2.1761299209340865e-001
      6.7149182872583602e-001 -2.1423552200390000e-001
      -3.0094548822204104e-001 5.2875679580485418e-002
      -6.2927952274993559e-001 -4.5948824008563288e-001
      -5.1715370000939453e-001 -1.6314342631292003e-001
      -7.5482352328386770e-001 5.5385162890091450e-003
      -6.4129377335108415e-002 5.4688450850728265e-002
      1.6354152299090602e-001 -7.1703689037062923e-002
      -2.6972286213460767e-001 -1.1676120878453744e+000
      -6.6408472955424203e-001 1.9469745509864761e-001
      2.8463589098045433e-001 -6.0258469892944133e-001
      -2.7437954440018480e-001 -2.1383421868777219e-001
      -7.3683326137029451e-002 -3.5991737104659041e-002
      9.9880018099351171e-003 -2.4711980861488037e-001
      1.0070253493381943e-001 7.9342112877206137e-004
      -3.5657063874496499e-002 -4.7411201290097321e-001
      -1.5269232392985285e-001 1.5629654466607185e-001
      5.4216337587210151e-001 -3.7416043121980980e-001
      6.1467066623492286e-002 8.1143810048877807e-001
      -2.6015097965651190e-001 -1.0922050894251975e-001
      -5.3297803142958566e-001 8.6246995727869966e-002
      1.7120275371232951e-001 2.1652729395607856e-001
      1.9698762687869860e-002 -2.2714544167473563e-001
      -3.6829822479043489e-001 2.2341505571513037e-001
      -1.0228556995056083e-001 -1.2365369337624299e-001
      -2.6149237430567057e-001 2.7485659402688190e-001
      -2.2522593321568921e-001 1.2072638276085353e-001
      3.3288445073998829e-001 -2.2544689162716106e-001
      8.6153104607433570e-002 5.3748651276109012e-002
      -3.9380411521094161e-001 -1.5705951385760722e-001
      -2.2319162912410903e-001 -7.6492310473851466e-002
      1.2309189846795274e-001 -4.7922872299588420e-001
      6.6126807630537963e+000 -4.5246080281198287e-001
      -2.1249962257109098e-001 -2.0976514475864488e-001
      3.8475354747826629e-001 3.0766558425405965e-001
      -2.4958250073633934e-001 -9.7173913037903320e-002
      1.8332579407488625e-001 -1.7374765165224187e-001
      -4.6861845729555085e-001 3.3457932627591058e-001
      4.1623205483807313e-001 2.3486208859723295e-001
      -4.3505924467924639e-001 4.0433171754141550e-001
      1.5446276853103685e-001 -2.0263660394586125e-001
      2.2523556215028800e-002 -2.0900935712967475e-001
      2.9530955658071839e-001 5.1039318011052481e-001
      5.4424785993522384e-001 -5.1091969045975938e-001
      -3.7224685148739739e-001 -1.9426949706401614e-001
      2.9578939302438578e-001 4.8504007852196968e-001
      -2.1164050807242035e-001 4.6290885633223278e-001
      -1.1817244194656373e-001 8.6393335204817914e-002
      8.1151996719217273e-002 1.8908709295871107e-001
      2.3165399789633437e-001 2.2151264409065094e-001
      2.7021531878669229e-002 -1.2389310640760934e-001
      -3.0805251566169867e-002 -1.6954357706711659e-001
      7.2193784575914369e-002 -5.9881128210567058e-001
      4.4537373079225686e+000 -9.0612701489582864e-002
      6.9251762437705155e-001 -2.6446737127210374e-001
      -1.5268306281330890e-001 1.6401272103046685e-001
      1.7235038307453196e-002 2.3476030239851431e-001
      -8.8699166538982396e-002 -8.9081006900585177e-003
      -3.6509300557379692e-002 2.4304380261873434e-001
      1.4048759525843199e-001 5.4369217842121498e-001
      -3.6735927905392041e-002 -4.3730535337742193e-001
      7.0936384644910699e-001 -3.3255658645040292e-001
      -7.7287584000414244e-002 -1.0599434175664266e-001
      2.0422564402258164e-001 6.9798880341822259e-002
      7.3386574674688210e-001 -3.0767748009548723e-001
      -3.1174604071828643e-001 -7.5427425403798459e-002
      1.1286225666640454e-001 3.2711550948732449e-001
      -1.9469367314077141e-002 4.1402215903731171e-001
      -7.4215644753709487e-001 -2.9484475277030422e-002
      -3.1954962702266354e-001 -7.1056455033274429e-002
      1.7603033417127281e-001 -1.7264298240891177e-001
      2.1957214766270197e-001 -2.6997116373777306e-002
      -1.5887814994937727e-001 -4.9079856196511440e-001
      4.4205662680588464e-001 -1.8894940289051362e-001
      2.5294140481052403e+000 2.3324883756055034e-001
      6.5960420042607038e-001 1.5220767760131967e-001
      -4.9550715681697938e-001 2.2650597887305457e-001
      1.5558412564782401e-001 4.4907088480286561e-001
      -5.2776819680819864e-001 4.2667915482643115e-001
      2.2222784503235790e-001 -2.8662708978022078e-001
      -1.3888339278088227e-001 3.3397606791898238e-001
      1.3957913072584077e-001 -5.6164280984242332e-001
      5.2120741079954380e-001 -1.3084048443668564e-001
      -3.7796373370357950e-001 -4.1187663752668796e-001
      2.2438826404602690e-002 -2.6345469106621788e-001
      9.3859641037500677e-003 -2.0788676400286160e-001
      3.8130291024536062e-001 1.7936018471475465e-001
      -2.8380876029513807e-001 2.8107839843447263e-001
      4.9252740942549042e-002 -1.0608617423071401e-001
      -1.0505852726832190e+000 1.5453105256451502e-001
      -3.4049744041341541e-002 -1.6163837226223338e-001
      -2.8149074388091494e-001 -1.5769056993896316e-001
      3.0869569654350176e-001 6.4901125150158134e-001
      -1.4499565048855789e-001 -2.0954442790542788e-001
      3.3077959544402408e-001 3.8788172715244640e-001
      2.2017070890613064e-001 -7.3324614947021791e-002
      2.1158845891853581e-001 2.6592810678798867e-001
      3.9703306970327484e-001 7.3835932606158994e-001
      -3.3090666107011651e-001 -4.9899275671479587e-002
      -2.3959659461747801e-002 5.4324002304839880e-001
      -8.3091042713554608e-002 -3.3560101277819188e-001
      -2.8808824307754649e-001 5.1450418739033310e-001
      -1.8834811968227366e-001 -6.1296994422069248e-002
      5.4072734963739277e-001 3.3048718465490806e-001
      3.5624078735212339e-001 -2.0072094147266431e-001
      -1.6560146207647672e-001 2.1775985017804561e-001
      5.7523990105262923e-001 -9.4911054902981472e-003
      -1.5194280522213829e-001 -1.7913684696390625e-002
      -2.3519979999534360e-001 3.7809790036643476e-001
      -5.4072468467678311e-002 3.0812610331813389e-001
      -4.7471383125521832e-001 1.1480381340997058e-001
      1.8633336229521558e-001 2.3646132189522878e-001
      2.7405170872278933e-001 -4.1490948220590756e-001
      -9.4539182459791579e-002 -1.8791549147215492e-001
      7.0433677590336904e-002 8.5342728200943963e-001
      2.1270067361772232e-001 3.1254045047407153e-001
      2.0833199154994104e+000 -1.1881084906915840e-001
      1.1047641598775355e-001 1.8461680782556200e-001
      4.0833198264090609e-001 4.4350517175939325e-001
      2.5539370939046674e-001 4.7624444828511603e-001
      -1.0869134233141683e-001 1.2322738147051938e-001
      -3.5882332030248532e-001 -4.8140306007179062e-001
      1.9331117874544784e-001 1.8829893265750119e-001
      -4.8760543875810219e-001 -5.2415535394634727e-001
      2.6774483017141087e-001 3.1979942289177132e-001
      -3.5356543761170611e-001 4.0807192314391776e-002
      2.3206541037541956e-001 4.4023786175411694e-001
      3.3363687251661467e-001 -2.8218333949962943e-001
      3.5456944588729727e-001 3.0763935206886572e-001
      2.3655358562525353e-001 3.8353431977291408e-001
      -4.8220294887982112e-001 1.4994224486210772e-001
      -6.7822438412707620e-001 -1.9290763824459789e-001
      6.2675428808824829e-001 4.6791868008373066e-001
      -2.7284870510969339e-001 -5.3200354384626801e-003
      8.4714534576834005e-002 1.0914717453470293e-001
      3.3699873016420478e-001 5.7520574689641546e-001
      3.0987687926390051e-001 1.4312739999767049e-001
      2.6472158673673034e+000 8.4183840658344528e-002
      -1.3310878878131657e-001 3.8706729190252648e-001
      -3.1338030030943126e-002 2.4444048398391829e-001
      2.6330758880633637e-001 1.0614251156877266e+000
      -4.8844600249365255e-001 5.6094354543812834e-002
      -1.1514324392613000e-001 5.1879741706496223e-002
      -4.7978864862598775e-001 2.0723738625315463e-001
      -1.0280256227592234e-001 -5.1340584587956550e-001
      2.5728439922312701e-001 3.1431296015046482e-002
      -1.7546315505221108e-001 -5.7520426259716539e-002
      -2.5348904893096075e-001 -3.6663129772882391e-001
      1.3535180637488331e-001 -4.8691339644853109e-002
      2.9604052625394628e-001 1.7557624005836478e-001
      3.5883381513062834e-001 3.8879899067922735e-001
      -1.6255631127535264e-001 -9.9404654900009015e-001
      -6.6265378770396921e-001 -8.4229127805519804e-002
      7.4098534037371488e-001 7.8521061614523724e-001
      -9.5720622022282043e-001 9.9025778074127907e-002
      1.2702993506212318e-001 2.9190082510403537e-001
      2.5497094582136962e-002 2.0513135138467503e-001
      3.6623000051126892e-001 -8.8111618051649118e-002
      1.6013459957420106e+000 -1.0583668278231984e-001
      -2.7278249193270315e-001 5.4914204544076702e-002
      7.2277923242084055e-002 1.1662865001743371e-001
      7.6095415581962103e-002 3.5928031354817763e-001
      -1.8178117738825142e-001 -1.6460279521797055e-001
      1.6838270642580344e-001 -5.8959963014997807e-001
      2.7085240636139396e-001 -2.5866612915451340e-002
      2.7848759205987161e-001 3.9356715957037755e-002
      9.3605780889773130e-003 -3.4918640566310033e-001
      -1.2944338848141765e-001 2.0242583137039744e-001
      1.1516114354558549e-001 -2.7997291855284996e-002
      -1.6578768457682302e-001 1.6174515973980449e-001
      1.2401947836243596e-001 -6.8134771469074956e-002
      2.0901050651379000e-001 -1.5306883604178107e-002
      -3.0413692695321703e-001 -4.5524035850965688e-001
      -3.5508410062243312e-001 1.4799468548425440e-001
      -2.5838635913579472e-001 2.2012808962127975e-001
      -2.6195989444093282e-001 -2.9689865632170631e-001
      -1.4579924385192043e-002 1.6639751280413390e-001
      -4.5597952852750590e-002 -3.4488514377778001e-002
      1.4934439134470553e-001 1.4135471302612107e-001
      6.3436519211511424e+000 -1.6451200997873064e-001
      1.6103611358856967e-001 -1.6423152984580716e-001
      1.1497063683281687e-001 1.0024367344937747e-001
      -5.6653239845940215e-002 1.2280372215421953e-001
      -2.0352614856820314e-001 7.1983224101243803e-002
      1.6906672280032078e-001 -1.9260644251246306e-001
      7.0781247866610220e-002 3.0692325793752303e-002
      4.8285628472527091e-002 -9.6809192045950607e-002
      -6.9393540028741180e-002 -4.4809677345276516e-001
      -8.3844801430966176e-003 -4.1549399568810458e-002
      1.1516083440626393e-001 3.5882252080692630e-002
      1.0633655770582461e-002 2.4407085452048347e-001
      9.6896348798256551e-002 -4.1772885401013218e-002
      1.1170093001869315e-001 2.0509599339123680e-001
      -3.6460812656288083e-001 -1.3257939088671991e-001
      1.3495109281503737e-001 1.2549122898757684e-001
      -1.4659565317396406e-001 -3.8679291752295258e-002
      3.4552935095804399e-002 4.7220967394594589e-002
      1.9538832947526112e-002 6.7815385266285708e-002
      -1.3284629799667924e-001 -1.7148528343799446e-001
      9.7514493424667961e-002 -4.5973574812298204e-002
      7.5789181909330283e-001 -4.9272064455787140e-001
      2.6818245144047942e-001 -3.6926150715007117e-001
      2.1290983365005081e-001 8.1633178043139853e-002
      3.3074521362307222e-002 3.9297506760912603e-003
      -2.2576028639188853e-001 8.9312405326533603e-002
      4.1072806963013125e-001 -4.1038819555513306e-001
      -1.0108495597827324e-002 -1.5555827330713201e-001
      2.0221979614823524e-001 -8.1094633771464739e-002
      -3.3513161725145796e-001 -3.8072590767217462e-001
      -6.9491700377612625e-002 -1.8402282466709069e-001
      3.3235288505940941e-001 -6.2416677663296683e-003
      4.0706887412116859e-002 2.7117067270719891e-001
      6.7912270764805063e-002 -5.4697929105487403e-002
      2.8846181746161043e-001 3.3110810825192671e-001
      -2.2954834658038531e-001 -2.8727210554579119e-001
      1.6545004119765974e-001 4.3044616140766140e-001
      -2.6692697345652139e-001 -2.0711065274084331e-001
      1.0380587440134195e-001 2.4593373935507576e-001
      1.0185376146485696e-001 1.7931135519321273e-001
      -2.6638341380833230e-001 -3.6231051952551513e-001
      9.0398333325224595e-002 -7.4628632949729198e-002
      -6.1360570468244802e-001 -2.8011707174041101e-001
      3.5841807540288306e-001 -2.0583173384693282e-001
      2.3444379582698083e-001 1.6922028877022435e-001
      1.5070726127703498e-002 -2.2682012695885996e-002
      -1.1981829298929447e-001 1.7184398050331347e-002
      2.3076295351594517e-001 -2.4420900904297282e-001
      -1.6309393609761618e-002 -6.5492859968601727e-002
      2.6344843325580059e-002 -4.6593653035473137e-002
      -1.9130666972225902e-001 -2.1061004087020338e-001
      -3.3105914917015491e-002 -5.0729135494996559e-002
      1.8145767249747813e-001 -5.4287239913204249e-003
      2.2155588270594581e-003 1.4635992473272083e-001
      2.5183327600196353e-002 4.7450804277148470e-002
      1.5449934168978965e-001 1.8652952178725363e-001
      -2.8240972183172791e-001 -1.0932766727470569e-001
      3.8184943786349568e-002 2.4326456398878155e-001
      -1.4306560322168216e-001 -7.8713785140471934e-002
      3.2096312895955201e-002 1.3567188800407479e-001
      5.7370487443142326e-002 2.2872247104176350e-002
      -1.4808096353943265e-001 -2.0097247538125373e-001
      1.3537986172095054e-001 -5.9739238359055820e-002
      1.5378517837570501e+001 -1.9174706330962493e-001
      3.9879354717862685e-002 -1.5395049414561468e-001
      1.4209281935978973e-001 -9.2704978187546541e-002
      -1.7518965720616345e-002 1.7790464839400560e-001
      -9.7297626798476450e-002 -3.7676081852675077e-002
      1.7713304221322718e-001 -1.7152552910764166e-001
      5.3621475229608327e-002 -5.8655195571479801e-002
      -2.8880448086304904e-002 9.4829556212663070e-003
      -1.3468138852995123e-001 -1.5014882650471259e-001
      -1.0135598617565567e-001 1.3868341015578012e-001
      1.3039592971791655e-001 -8.5565765304186636e-002
      7.4449124266237982e-002 1.0636477819335309e-001
      -3.8635663338004222e-002 -1.0655808744736295e-001
      1.1143165195435499e-001 1.2589453166331788e-001
      -4.5236546641374037e-001 -3.2952085783772671e-002
      4.7936030660433182e-001 1.7976832131056047e-001
      -1.0614054070941829e-001 -8.2654019834294309e-002
      7.3520610776568546e-002 1.0903680838769476e-001
      -5.1299372382840464e-002 5.8977065095028862e-002
      -1.1388784372602929e-001 -1.4598889096665771e-001
      9.2811068145525144e-002 5.2987764043733364e-002
      1.6901306899436609e+001 -2.2546001674006913e-001
      4.0637274237890382e-002 -1.7456766025381554e-001
      1.5433573212089374e-001 -1.1216092888516085e-001
      -1.3129389707479065e-002 1.2729835861645014e-001
      -1.0138207470745920e-001 -3.9140922152710263e-002
      1.8823383690806694e-001 -1.9506955572364271e-001
      1.7777871139028713e-002 -5.9049878446508851e-002
      -1.4547028594950814e-001 6.1350044304346367e-002
      -1.5565447958569320e-001 -1.7337851235758706e-001
      -1.9955628846175330e-001 1.5425358846080309e-001
      1.4678130058781172e-001 -9.3542068459746677e-002
      3.4409683549523416e-002 1.2356309069917087e-001
      -2.3868442419220950e-002 -8.4335817378143121e-002
      1.3899096910974501e-001 1.5254342773620466e-001
      -5.6172465743591060e-001 -2.7654422786154195e-002
      4.3609727477916010e-001 2.0428545380803506e-001
      -1.2333446636919344e-001 -8.9666589080933085e-002
      7.9416965783182372e-002 1.0631290089747600e-001
      -6.6620430336038081e-002 6.3407917400214189e-002
      -1.2321818679420686e-001 -1.7494425971787178e-001
      3.6239512477489140e-002 6.0511147308005157e-002
      1.6676829642929487e+001 -2.2641954392455682e-001
      4.6098805422574891e-002 -1.6496997931316343e-001
      1.4791748761418413e-001 -1.2374375932969958e-001
      3.4531220394357996e-003 9.2948707073538805e-002
      -1.0178865738803612e-001 -2.0679948272505612e-002
      1.9579160120267186e-001 -1.8936666287733506e-001
      7.3124499535965589e-003 -5.0793860914218697e-002
      -2.1947775772882014e-001 9.5581622569027691e-002
      -1.5722345801561216e-001 -1.7795268069786316e-001
      -2.5141203135240386e-001 1.5485675547866695e-001
      1.5121067844251834e-001 -9.7190022195615608e-002
      1.5072320776949845e-002 1.1709063469048915e-001
      -2.1311828832522993e-002 -6.9463380721100892e-002
      1.3451479995238166e-001 1.4463433724559613e-001
      -5.7491248696748598e-001 -1.2071675125985787e-003
      3.8820744353238057e-001 2.0349526221826078e-001
      -1.2706766470108202e-001 -6.8262179075451526e-002
      7.7693946323243113e-002 1.1466321587741071e-001
      -6.7875220801350417e-002 5.8630998048562234e-002
      -1.2658462181346250e-001 -1.6418862728488764e-001
      1.1573847423950734e-002 5.7851414442273999e-002
      -2.2547118971348046e+000 -1.0431019500255638e-001
      4.5202564833840664e-001 -1.7383392136031875e-001
      -6.8382081596630631e-002 1.2210702718191286e-002
      5.4672195114240107e-001 -5.2354873949171055e-001
      1.5509798908066660e-002 1.7364242792357856e-001
      3.8614249442022928e-002 -2.2224042299160425e-002
      9.1432529630061243e-001 -5.1221648503832679e-002
      -2.4052343186953121e-001 1.1850375487799279e-001
      9.9707420872954741e-003 -7.1027650173027965e-002
      -2.0460850846565920e-001 4.1049471107923979e-001
      -8.1236694334096225e-003 2.2968179169464983e-001
      5.8285312328558148e-001 -2.1386269682407888e-001
      -5.5912864079783714e-002 -1.0629321224802399e-001
      -5.0939377065207425e-001 -5.0305922525568048e-001
      -5.6654698998255593e-001 -9.6015403123436954e-002
      -5.6249672899376113e-001 -4.1598275251911641e-002
      -7.1744219250090197e-002 1.9841692528801999e-001
      8.6126676677556954e-002 -1.7589727792632323e-001
      -2.6979846927383644e-001 -1.2609404104184925e+000
      -5.0560237496698857e-001 4.8429726882600788e-001
      1.6608415286763878e-001 -4.6193041972346482e-001
      -1.4631055800060802e+000 -9.5806028074338745e-002
      2.9814977476103416e-001 6.0871117386442145e-002
      -2.4066420252943529e-001 -3.7135009374128763e-001
      2.2861463149550695e-001 -2.5042210798558179e-001
      -3.1830755428968421e-001 -1.9341474745641584e-002
      1.9123604624543625e-001 3.4804575404078897e-001
      8.1012446929634685e-001 -5.6805261357747128e-001
      -8.8561868473240241e-002 7.3984324074053320e-001
      -2.9690605126177150e-001 -1.1647222140414171e-001
      -8.1253374112831522e-001 1.4500414705961429e-001
      -5.7120748928413963e-002 1.9091181521060113e-001
      -1.0998661144479699e-001 -2.7838708192505562e-001
      -4.2887253234419837e-001 9.4531677235844019e-002
      -3.6255171387644525e-001 -8.9612023750907308e-002
      -2.6727852612386638e-001 -7.3280487110688117e-003
      -3.7157028101791173e-001 1.1543494375007737e-001
      4.8868497260380811e-001 3.2211630643262615e-002
      9.0782601681804589e-002 -1.2788868767489642e-001
      1.5988643731193672e-002 9.8955976692674003e-002
      1.5553226682235121e-002 -6.2541194127763849e-002
      1.9169295139857831e-001 -2.9612802385332054e-001
      3.1196935140174866e+000 -3.1630673083825228e-001
      -1.2126615888763780e-001 2.3275746281285614e-001
      1.6218410125715102e-001 -2.7992615646402950e-002
      -3.6184563724898011e-001 -2.9051117668440885e-001
      5.1584897282596423e-002 4.5208212721111106e-002
      -5.1433864508529957e-002 3.8339803998958227e-002
      4.2505909214078719e-001 -9.8630129722524079e-002
      -5.1575705380620496e-001 4.7051707419680322e-001
      -2.4628756625585843e-001 3.2346457533624657e-003
      -1.6248684125900903e-001 1.8343781992625804e-001
      1.3383963064924773e-002 4.9791290726487436e-001
      7.4045396458544577e-002 -3.9092090434354609e-001
      -4.0016064414188962e-001 -5.3860829475506897e-002
      -1.9935829184706980e-001 5.1136945909321840e-001
      1.8814755840875289e-001 1.2970319095346608e-001
      -3.2670056455634693e-002 1.4177673073876623e-001
      4.3807959267319424e-001 1.7571412915507532e-003
      2.5115018402787237e-001 1.4125883219747554e-001
      4.4357135054312735e-001 -1.8069408124861491e-001
      6.0157221380186039e-002 -1.5858084372450770e-001
      1.9227467137916837e-001 -9.3873321529111514e-002
      2.7548343265907933e+000 -1.1432359470646682e-001
      6.4821266912187803e-001 -8.7150296207903641e-002
      -1.5711552301006201e-001 -2.6067467834741880e-002
      1.9415416273879275e-002 -9.4070945840641698e-002
      -1.4141245181430051e-001 7.3450947135117073e-002
      2.9722261193119925e-001 -5.5958337208014568e-002
      2.4467951711137617e-001 4.2742463903210515e-002
      -4.3203858899817260e-002 -1.1515641543346586e-001
      1.7000714242890613e-001 -1.5444428439343896e-001
      -1.6263787956300199e-001 2.5131502156058072e-001
      -3.0793317632369952e-002 4.4143124622891028e-001
      2.6419652468383120e-001 -1.7448624129487769e-001
      -1.3788825209517694e-001 -1.7046639207997809e-002
      -2.9424424892238741e-003 3.7128200865154976e-001
      4.4922622130797851e-001 2.6859249829388687e-001
      -1.8256668922334696e-001 -1.5670978868308108e-002
      -3.1322416988000162e-001 -5.0843699755050087e-001
      -4.3796534331022484e-003 7.4117376230104254e-002
      6.1924935992854924e-001 -1.7355810426355234e-001
      -2.1907138384833780e-001 -3.2115628688486186e-001
      3.8399569215440377e-001 -2.4214351665274313e-002
      1.8613937220766370e+000 1.4068108707048296e-001
      1.4223302205969313e-001 1.6391307222542898e-002
      -6.3750583325254528e-001 3.5222675389123215e-002
      1.3720147359115972e-001 -2.0416244626320224e-001
      -2.3361187407115888e-001 7.0008399710788510e-002
      1.5276603268599562e-001 -6.5437280304039225e-001
      -1.0672691753200930e-001 -1.7274872922838758e-001
      1.7855567771056499e-001 -3.1652132784308271e-003
      3.7053936064166321e-001 -1.7225631835961136e-001
      -3.1920705370139529e-001 9.7815739612889710e-002
      1.4075195256126327e-001 2.0543800482393981e-001
      -9.9923929902251712e-002 -8.9327432080348254e-002
      3.4190262106650376e-001 1.2219696990795827e-001
      2.3686538468644877e-001 3.3640656762437900e-003
      3.6397992398809181e-001 2.0338178360469691e-001
      -2.3101711680951637e-001 2.3935338454119962e-001
      -1.0310160775725521e-001 -6.0801447262537711e-001
      3.4683054638689807e-002 4.1383584682994917e-001
      3.8396723910166247e-001 3.7398435887805992e-001
      -4.1857898834454615e-001 -5.4725479427644319e-001
      2.4213288353530987e-001 1.2471741442672840e-001
      1.2837817327242007e+000 -2.1294412448920830e-001
      -2.4020996428377864e-002 3.3304179834856334e-001
      2.0417909372661505e-001 5.6068218805455106e-001
      -4.3240643166856862e-001 -6.4551990602825526e-001
      1.7231352283564180e-001 2.2619895225221129e-001
      -3.9891745745043833e-001 -5.0891283862679071e-001
      -5.4804724000497040e-001 2.9822915467635525e-001
      -2.8547613501014024e-001 6.2593856664602515e-002
      1.4060050687509057e-001 3.9168071548500050e-001
      3.5702957348260667e-001 6.8279514921717202e-002
      3.3203013895310489e-002 6.3048030587021420e-001
      2.1674810895793473e-001 -1.6912837720613755e-001
      -1.3480332878907095e-001 1.4279609880845470e-001
      2.1333764227880728e-001 1.2458727120198278e-002
      3.6433976210723906e-001 3.1524002420866407e-002
      3.2175307196826680e-001 2.9245232916242651e-002
      3.6752492979710855e-001 2.5267989773990629e-001
      4.0389218837684326e-001 -1.1062066656232552e-002
      8.4397232457829763e-002 -2.4334022344649289e-001
      -1.8224918052832864e-001 7.6383397336726688e-001
      -3.9983972140062033e-003 2.7832362687019491e-001
      1.2140155368661834e+000 -1.8968452724636675e-001
      4.4106219759430682e-001 6.3276792360699857e-002
      -1.1225657618494149e-001 3.8730413946870684e-002
      3.3377800115367107e-001 2.4124644015867547e-001
      -4.1232885726225926e-001 3.4870058354850431e-001
      -3.5076860369736240e-001 -1.6274994507348658e-001
      -2.8599762312758109e-001 1.3226330760431693e-002
      -2.4753226845379567e-001 -3.1118822081008057e-001
      4.7796498030451176e-002 2.2515817372673791e-001
      -4.8653895735155445e-001 1.6838184619082312e-002
      2.2829350861246386e-001 6.1389238004709124e-001
      -2.4859990686472724e-001 -2.5824872140408206e-001
      2.8461155839287622e-001 1.7192098226676877e-001
      4.7473085607462301e-001 -1.3327722919701242e-002
      -1.7585912510392235e-001 -4.8335275746117623e-002
      -5.3965216559706619e-001 -2.0612113776806806e-001
      5.3094903493117152e-001 5.3163480831611021e-001
      -3.5615318480351849e-002 -2.7199310085478150e-002
      2.0490867922305861e-001 3.7109010001207621e-001
      6.8114113142377275e-001 5.1436332603637636e-001
      -1.1866050794298376e-001 2.5327138656088211e-001
      -5.5926377100388314e-001 1.1390104716930884e-001
      1.0186801989422181e-001 2.3816124233238539e-001
      -4.8407713439870592e-001 6.8193746834882787e-002
      -4.4230222289017962e-001 6.7724799773727740e-001
      -2.9771211069413744e-001 2.8412654186008551e-002
      -2.1659870038387083e-001 -9.6423286247055179e-002
      1.5131076144647679e-001 7.2293979146794207e-001
      2.4417165197073432e-002 -6.6965087798588507e-001
      1.6855061808967409e-001 -1.7280464104593468e-001
      -5.3995052827380641e-001 4.6290912344736139e-002
      -9.4133739332705010e-002 8.9349299041117755e-002
      1.3222791766548813e-002 8.1842244503263967e-002
      4.1139282550867512e-001 1.0103729183996744e-001
      5.3928546524625742e-001 2.7174873790594745e-001
      -7.1697252266637934e-001 -7.8403888298593838e-001
      -8.1358610266580988e-001 3.5297378116554471e-003
      1.5249189349808542e-001 4.7855259128465366e-001
      -5.9246134307771192e-001 -2.0572376022212260e-001
      1.4586004405156441e-001 2.1107249250802115e-001
      1.6222091758392540e-001 -7.0326474652361498e-002
      1.1023486116058438e-001 -3.4161192376630106e-001
      -5.1535378752745054e-001 -9.2601715383180266e-002
      -1.5007806715392033e-001 1.3426320908932757e-001
      -3.4541441484532365e-001 8.3466804148502563e-002
      -5.0537046246951167e-001 6.2374040138386511e-001
      -6.8184280443569889e-002 -2.6613548513898683e-001
      2.2308830578896749e-001 -1.0071934336748216e+000
      7.8537445936578154e-001 5.2121177827388621e-001
      4.2685922469948862e-001 -1.4058265090925273e-002
      5.6647138036052438e-002 -5.5134783558828193e-001
      -2.8841450220371345e-001 5.0494432451465254e-001
      1.6225961202544373e-001 3.5634847601184227e-001
      -2.4981154136356157e-001 3.5510090029427138e-001
      6.1199157672535080e-002 -2.7976885473542323e-001
      2.1808697876593908e-001 6.2984222171146029e-003
      -6.7656417044253692e-001 -2.6294705826169296e-001
      -5.6297806969290598e-001 1.5672723823197887e-001
      -3.6473722866811337e-001 1.7166918065939607e-001
      1.7199844829998356e-001 -5.5875364031099939e-001
      -1.5301678563112323e-001 1.7305573858140219e-001
      2.4873975731170689e-001 -8.7411028612196601e-002
      -6.9138034823965494e-002 7.1978998901098448e-002
      8.4567888763481704e+000 -2.4418560822668384e-003
      5.6130433285583925e-002 -3.7637796501463414e-002
      8.3431217528454976e-002 9.4788470859154053e-002
      -9.1375212488779195e-002 1.5005419118629212e-001
      -1.6052058560367127e-001 8.6588956310383672e-002
      1.7136756543860210e-002 -1.0656490394023194e-001
      9.1055107810596933e-002 5.4997042418649215e-002
      2.6642238931707776e-003 -9.5415847527470274e-002
      3.1488758859477273e-002 -4.0895572790271495e-001
      -9.7183736571535853e-002 -1.1155762667465909e-002
      1.0530578202050609e-002 3.5603239898934984e-002
      -2.1865745459418395e-002 1.8658841017223518e-001
      1.1605443977804976e-001 -3.8939756766740247e-002
      9.6319304800296240e-003 1.0245484196972755e-001
      -3.7655670813768732e-001 -5.9539287711785453e-002
      1.4339717370213473e-001 1.5828524311610359e-002
      -5.2289927169496181e-002 2.3620681435873918e-002
      6.5374094325959453e-003 -5.7390746340675675e-002
      -4.7668020918935135e-002 4.9520880637511457e-002
      -5.6850779279739312e-002 -4.1036199729825369e-002
      3.4236780665761052e-002 -2.3045401138915587e-002
      2.0572797423720131e+000 -4.8331089768443086e-001
      2.5511110385954899e-001 -3.7806313909732181e-001
      2.1741648883941336e-001 6.6473082686393389e-002
      2.8755737031814554e-002 7.3502273315546049e-003
      -2.2497157246459529e-001 7.1396455132692938e-002
      4.1779259596636598e-001 -4.2787158160987854e-001
      1.7766954685060692e-003 -1.5281691431695849e-001
      1.5823855104656664e-001 -7.5862407672990712e-002
      -3.3294861249885405e-001 -3.8938598139180608e-001
      -9.6126316898567585e-002 -1.7392096552102410e-001
      3.3201446333660800e-001 -4.5468763582646064e-003
      5.8279768338996722e-002 2.8095907032044748e-001
      6.6117906057587203e-002 -7.2668045079352109e-002
      2.8826687845674548e-001 3.2828887318694883e-001
      -2.6884209766945122e-001 -2.8663816250708268e-001
      2.0680292922383323e-001 4.4087690288439507e-001
      -2.6933461935240272e-001 -2.1330435426544153e-001
      1.1946426916821629e-001 2.5106523284762383e-001
      9.8476392872143922e-002 1.8238335820638460e-001
      -2.7185868069566871e-001 -3.5827289949069485e-001
      8.9009708774032623e-002 -6.9657783464293216e-002
      -5.5946020437136113e-001 -2.7392919988312542e-001
      3.5278088532085133e-001 -2.1303861416469386e-001
      2.2445965824324468e-001 1.7196004090412811e-001
      4.6763673849880040e-003 -2.1019442939677314e-002
      -1.1999804026094105e-001 1.1402076756868738e-002
      2.3240771855650011e-001 -2.4554918880062562e-001
      -2.0100513896971251e-002 -6.5818672086405225e-002
      2.5565993874354900e-002 -5.0203297718559289e-002
      -1.8849346295062677e-001 -2.0977254866947653e-001
      -2.8835124248967389e-002 -4.1111511833778924e-002
      1.9823410732909194e-001 1.9716605806321371e-003
      -5.0450207059177746e-003 1.4972072722375127e-001
      2.7003435711133401e-002 4.6660330847701555e-002
      1.5609182162406793e-001 1.9080330838728859e-001
      -2.8093533058775333e-001 -1.1300091904714156e-001
      4.8685281953820041e-002 2.4166477797912728e-001
      -1.5671183002029543e-001 -8.2136639905788233e-002
      3.4319480273401384e-002 1.4600100301016247e-001
      6.8387365282935944e-002 1.1128719988199219e-002
      -1.4188706546989022e-001 -2.0887081748541994e-001
      1.4792838650797410e-001 -6.7695866314120626e-002
      1.6463040245669124e+001 -2.1684710933949014e-001
      5.1433837407492931e-002 -1.7189435078323828e-001
      1.5400298808463433e-001 -1.0569122855896217e-001
      -8.9381275647310143e-003 1.7271380400553307e-001
      -8.7690137138873234e-002 -3.6716170406751597e-002
      1.7698383199022030e-001 -1.9402471801770191e-001
      5.2493821963613220e-002 -5.7873528338807025e-002
      -8.8604436587556915e-002 2.5371904630685015e-002
      -1.5053215867270656e-001 -1.7637838692856522e-001
      -1.5744614328078971e-001 1.5482113230933062e-001
      1.4019644017677665e-001 -9.3103420300332002e-002
      6.0242028552455716e-002 1.1884310211655214e-001
      -3.7697883902689751e-002 -1.0974960834017536e-001
      1.2851224388436031e-001 1.5014409110768823e-001
      -5.4855635807029068e-001 -2.7019913940777733e-002
      5.0837903215457225e-001 1.9417664336387017e-001
      -1.1113853909424189e-001 -8.2957322397051836e-002
      8.5558280991786445e-002 1.0269626794884089e-001
      -7.4116015714714448e-002 6.2101564332403908e-002
      -1.1087043986063518e-001 -1.5399809755285235e-001
      7.0204260805631552e-002 5.4992099729553753e-002
      1.6892079569687887e+001 -2.2239856613835901e-001
      4.2845284364693328e-002 -1.6993759803222447e-001
      1.5774388260594788e-001 -1.1580200512662610e-001
      -1.7148725927978943e-004 1.2480622700786249e-001
      -1.0919120351847914e-001 -1.7816636220150870e-002
      1.9875140249961218e-001 -1.9162637507976338e-001
      3.1155636441284273e-002 -5.5664493887822304e-002
      -1.6518120827329436e-001 7.7866272573372100e-002
      -1.6108113019992620e-001 -1.7634083237170600e-001
      -2.0954382561606885e-001 1.5112580597674402e-001
      1.5969503635696750e-001 -8.2998706013047416e-002
      3.1130205212811141e-002 1.2661604954289496e-001
      -3.8362022102273012e-002 -8.3448213880290695e-002
      1.3907820014621025e-001 1.4580257893260373e-001
      -5.8790658382200933e-001 -1.5435092792415105e-002
      4.2926575505100523e-001 1.9529011218916539e-001
      -1.2672815055266395e-001 -8.1855657415256383e-002
      7.9148768478268461e-002 1.1588329202570981e-001
      -6.8769583264136777e-002 6.1595144509711514e-002
      -1.2931825984238096e-001 -1.5998277424589549e-001
      2.1269327942531523e-002 5.8216423158817712e-002
      1.6450515067106942e+001 -2.2174287954851282e-001
      4.2111041311207360e-002 -1.6122393613033770e-001
      1.5435850264302825e-001 -1.1350721972021356e-001
      -1.2763867919436955e-003 9.2810575028176065e-002
